0 2 0.13258
0 3 0.136146
0 7 0.00118662
0 11 2.25992e-05
0 12 1.39072e-07
0 14 0.11171
0 18 1.08965e-06
0 21 1.14139e-06
0 22 0.181953
0 26 0.112045
0 32 0.00971333
0 33 0.00374509
0 34 1.31113e-05
0 35 0.00227644
0 40 4.01063e-07
0 52 0.000415599
0 53 0.043322
0 57 6.70862e-05
0 58 0.00214375
0 72 0.0313774
0 74 0.0390398
0 77 2.15e-06
0 78 3.55864e-07
0 79 0.00035388
0 80 0.000754377
0 81 0.00992525
0 82 0.029414
0 89 0.00506259
0 94 0.000702296
0 95 0.015317
0 100 4.00176e-05
0 101 2.5348e-07
0 107 0.00454315
0 108 0.000192108
0 109 1.17391e-05
0 121 2.93942e-07
0 123 0.000493537
0 125 1.45704e-07
0 139 4.44688e-07
0 142 0.0124549
0 143 0.0343316
0 145 0.000215909
0 146 0.00304614
0 148 0.000155334
0 149 0.000680632
0 152 0.00607378
0 163 1.75294e-06
0 164 0.00396522
0 165 1.35014e-05
0 169 0.000677802
0 173 0.000577887
0 181 1.51893e-06
0 183 1.14315e-05
0 188 0.0354042
0 189 1.35614e-07
0 190 3.87901e-05
0 193 1.60989e-07
0 194 0.00419402
0 195 2.16489e-07
0 196 0.000384876
0 197 7.47377e-06
0 204 1.39514e-06
0 215 2.97122e-06
0 219 0.0111312
0 221 0.000804106
0 232 3.25594e-06
0 241 1.52799e-05
0 245 0.000339109
0 255 1.13345e-07
0 256 1.56616e-05
0 262 1.02363e-05
0 264 1.13112e-07
0 266 1.93465e-07
0 283 0.00053622
0 287 4.96632e-07
0 293 1.70886e-07
0 300 1.7487e-07
0 306 0.000106047
0 307 0.000524633
0 309 3.45661e-07
0 313 3.31389e-06
0 315 7.9237e-07
0 319 0.000203834
0 328 1.01211e-05
0 337 0.00353579
0 367 0.00333569
0 368 6.39565e-06
0 374 9.94322e-07
0 375 5.03201e-06
0 376 0.000405986
0 377 8.10639e-05
0 384 4.19811e-06
0 401 1.91631e-07
0 404 6.77118e-06
0 436 3.97789e-06
0 440 3.77961e-05
0 447 3.53712e-05
0 457 1.00631e-07
0 459 3.3345e-06
0 461 1.24476e-05
0 463 3.52643e-05
0 465 1.06699e-05
0 466 6.24797e-06
0 473 1.48651e-06
0 476 0.000251651
0 482 5.44771e-07
0 499 1.88949e-07
0 503 1.43437e-06
0 510 0.000986343
0 514 7.03711e-06
0 520 1.87665e-07
0 553 1.86048e-05
0 554 9.12108e-07
0 563 5.94506e-07
0 578 5.76456e-07
0 621 2.51806e-07
0 624 1.33172e-07
0 633 7.0211e-07
0 687 1.20408e-06
0 700 9.85074e-06
0 718 1.25186e-05
0 726 1.35744e-06
0 758 1.6011e-07
0 773 8.91304e-05
0 782 1.23566e-05
0 789 5.62372e-07
0 806 1.94518e-07
0 807 1.59822e-05
0 828 3.84609e-07
0 834 5.19734e-07
0 858 8.72929e-06
0 885 8.58443e-06
0 958 5.9751e-07
0 960 1.78199e-07
0 964 1.21096e-06
0 1041 1.39629e-07
0 1057 6.52032e-07
0 1092 1.34745e-07
0 1202 9.41393e-06
0 1219 3.37581e-06
0 1235 8.7898e-06
0 1275 6.62946e-05
0 1294 1.20776e-05
0 1357 2.23536e-07
0 1369 4.75266e-05
0 1411 6.95905e-06
0 1445 1.07036e-05
0 1547 3.42903e-07
0 1549 1.18059e-05
0 1611 9.7257e-07
0 1733 1.02018e-07
0 1741 1.10377e-07
0 1992 2.47538e-06
0 2018 3.06068e-07
0 2021 3.37127e-07
0 2026 5.59735e-07
0 2037 3.21151e-07
0 2097 1.09314e-07
0 2115 1.16456e-05
0 2149 2.00015e-07
0 2159 7.89621e-07
0 2160 1.48447e-05
0 2385 1.99212e-05
0 2403 1.48411e-07
0 2453 2.89333e-06
0 2587 1.27245e-05
0 2760 4.11121e-06
0 2983 8.02727e-06
0 3010 3.44489e-07
0 3143 1.50727e-07
0 3230 1.1541e-07
0 3233 1.33067e-07
0 3265 1.17023e-05
0 3319 2.27447e-07
0 3333 1.7557e-06
0 3386 9.11372e-06
0 3443 1.05486e-06
0 3536 1.1285e-05
0 3728 3.42607e-06
0 3766 5.69841e-07
0 3804 1.07469e-07
0 3982 1.06496e-07
0 4126 1.32852e-07
0 4133 7.2696e-06
0 4269 1.3638e-06
0 4469 1.963e-07
0 4607 1.31458e-07
0 4673 2.29606e-07
0 4741 1.58478e-06
0 4755 2.39374e-07
0 4787 9.58317e-06
0 4906 1.53758e-07
0 4908 3.92256e-07
0 5195 6.2997e-07
0 5320 1.17217e-07
0 5538 2.25565e-06
0 5684 1.86474e-07
0 5719 1.11232e-06
0 5950 1.00305e-07
0 6348 3.03071e-06
0 6369 1.08495e-07
0 6418 5.01028e-07
0 6613 1.04892e-07
0 6653 2.34318e-06
0 6686 1.28123e-07
0 6700 2.04102e-06
0 6791 8.80879e-06
0 7001 2.15101e-05
0 7080 1.25675e-07
0 7094 1.76239e-06
0 7120 1.26519e-07
0 7629 2.3592e-07
0 7725 2.45537e-07
0 7851 1.17828e-07
0 7901 7.73434e-07
0 8340 3.88725e-07
0 8358 4.55529e-07
0 8467 1.20424e-06
0 8728 1.9599e-06
0 8881 4.66869e-07
0 8911 2.02938e-07
0 9369 1.23466e-05
0 9650 1.47589e-07
0 9834 1.84264e-07
0 9914 1.18933e-05
0 10345 6.35541e-07
0 10889 3.6367e-07
0 11339 2.37892e-07
0 11534 1.00615e-07
0 12360 1.16548e-05
0 13156 1.13588e-05
0 13194 2.28074e-07
0 13545 1.55943e-07
0 13931 5.03852e-06
0 14071 9.85213e-06
0 14488 1.11646e-05
0 15024 8.41479e-06
0 15118 5.45788e-07
0 15463 1.0045e-07
0 15717 1.00164e-05
0 16144 1.1453e-05
0 16269 4.73065e-07
0 16549 1.90407e-07
0 17238 3.70058e-07
0 20061 1.92768e-07
0 20186 1.28112e-07
0 20427 4.19058e-07
0 23405 1.93417e-07
0 27724 1.31362e-07
2 2 0.642848
2 11 2.32955e-06
2 195 0.0114227
2 367 0.248771
2 383 0.0228519
2 1041 0.0342795
2 1508 0.0398242
3 3 0.0498858
3 7 1.01275e-06
3 21 1.25706e-07
3 72 1.66981e-05
3 79 7.44506e-07
3 90 8.71749e-07
3 152 0.85568
3 165 3.02384e-07
3 168 8.94441e-07
3 215 5.57758e-07
3 269 1.37051e-06
3 273 1.66179e-07
3 365 0.0154846
3 375 3.5537e-07
3 392 1.11949e-05
3 404 2.83677e-06
3 608 0.00890699
3 710 0.00469796
3 758 0.000459203
3 763 3.53958e-07
3 919 0.0154533
3 935 0.000524904
3 940 1.02785e-07
3 1202 6.30218e-07
3 1442 1.60499e-07
3 1598 1.21152e-07
3 1611 0.00114569
3 1687 1.05062e-05
3 2149 4.04635e-07
3 2372 0.0467663
3 2561 1.47172e-07
3 3230 1.49848e-05
3 3394 0.000392311
3 3733 1.75885e-06
3 4115 1.87545e-07
3 4269 1.27705e-06
3 4485 1.43569e-07
3 5576 0.000407888
3 6387 9.5655e-05
3 11240 9.43261e-06
3 13408 1.41026e-07
3 13735 8.11609e-06
3 14500 1.70447e-07
3 19520 1.08657e-07
3 23347 2.63096e-06
3 23405 6.03838e-06
4 3 5.66731e-06
4 14 0.00020989
4 21 8.66072e-07
4 72 0.000321245
4 82 0.034739
4 123 9.64321e-05
4 139 1.67457e-06
4 148 2.41327e-06
4 149 5.87801e-05
4 188 6.8607e-05
4 215 0.194372
4 232 0.000104998
4 241 9.10705e-07
4 262 6.49922e-06
4 283 0.204409
4 287 1.39503e-06
4 447 0.564619
4 463 1.19442e-05
4 473 3.31663e-07
4 514 0.000457379
4 629 1.02202e-06
4 633 4.83438e-07
4 858 2.0187e-07
4 1057 5.33038e-07
4 1309 1.98216e-07
4 1445 5.38629e-07
4 1544 2.25459e-07
4 2021 9.74544e-07
4 2037 2.66638e-07
4 2112 5.73063e-07
4 2159 8.48062e-06
4 2288 0.000269691
4 2385 0.000101539
4 2403 1.87988e-06
4 2460 3.50061e-07
4 2760 1.90812e-05
4 2957 3.65752e-07
4 3143 1.94682e-06
4 3386 1.60076e-06
4 3443 1.0293e-05
4 4064 8.33622e-07
4 4673 1.01236e-06
4 4734 2.22033e-07
4 4825 2.02888e-07
4 5293 3.33006e-07
4 5561 2.8109e-07
4 6355 1.93758e-07
4 6686 2.41684e-05
4 7001 2.66415e-05
4 7901 9.42655e-06
4 8467 1.28928e-05
4 8911 8.07212e-07
4 9369 5.18167e-06
4 9834 2.1122e-07
4 10904 2.52572e-07
4 14071 2.38822e-06
4 14488 2.16782e-07
4 17134 2.06822e-07
4 17922 7.36278e-07
4 20061 4.18756e-06
4 23080 3.01275e-07
5 4 0.221629
5 72 3.49531e-06
5 758 0.0553415
5 3510 0.0554073
5 3511 0.0554073
5 4781 0.0554059
5 6499 0.0554053
5 6904 0.00263302
5 8819 0.0554073
5 10404 0.0554069
5 10405 0.0554073
5 10406 0.0554073
5 10407 0.0554073
5 10879 0.000102857
5 20000 0.110815
5 21505 0.0554065
5 26218 0.0554072
6 12 1.14342e-07
6 21 1.04579e-06
6 74 0.00036371
6 148 0.0152318
6 165 4.87097e-06
6 283 0.774384
6 289 0.207375
6 440 1.65395e-05
6 579 1.61545e-07
6 633 1.29569e-06
6 687 5.29993e-07
6 747 1.76965e-06
6 812 1.24134e-07
6 885 3.02972e-06
6 1057 5.33879e-05
6 1611 1.0003e-07
6 2003 1.30287e-07
6 2005 2.59619e-07
6 2160 2.32328e-07
6 2516 0.00234735
6 2853 1.32717e-07
6 3230 1.64664e-07
6 3233 2.33306e-07
6 3386 2.2319e-07
6 4064 2.885e-06
6 4102 1.03285e-07
6 5380 1.27637e-07
6 7901 2.749e-05
6 8142 1.4583e-07
6 8728 1.30747e-07
6 9073 1.91752e-07
6 10904 4.91099e-07
6 15024 0.000180472
7 5 0.761438
7 19 1.00707e-05
7 79 0.000132848
7 89 1.05873e-07
7 140 1.10829e-07
7 1737 0.0711913
7 4076 0.00309178
7 5545 0.154761
7 7324 1.0824e-07
7 7415 1.96157e-05
7 8042 0.00309527
7 10404 6.8172e-05
7 24614 0.00619054
8 2 0.997403
8 195 0.0024195
8 289 1.0924e-07
8 367 2.27942e-07
8 710 4.58787e-07
8 862 1.78557e-07
8 1275 2.08375e-07
8 1280 1.45326e-07
8 1411 1.49585e-06
8 1568 1.20655e-07
8 2044 5.89638e-05
8 2046 1.30688e-07
8 2258 2.42237e-07
8 2553 3.45111e-05
8 2698 1.1688e-07
8 2983 9.74114e-06
8 3475 1.71256e-07
8 3497 2.97615e-07
8 4258 1.12324e-07
8 5130 6.43953e-07
8 5211 2.50406e-07
8 8369 1.4538e-07
8 8870 8.67536e-07
8 10557 3.99138e-07
8 13931 1.20337e-07
8 13958 9.51975e-07
8 16155 2.24408e-07
8 16419 1.32357e-07
8 18216 2.24069e-05
8 18246 3.12105e-07
8 18572 5.0856e-06
8 20521 1.12628e-07
8 21519 6.70935e-07
8 22936 1.02586e-07
8 23015 1.15966e-07
8 23808 1.22995e-07
8 25413 1.65266e-07
8 25508 2.98839e-05
9 6 0.780239
9 412 1.12712e-07
9 718 4.55695e-06
9 1054 0.0224207
9 3886 1.50147e-05
9 4090 1.12877e-06
9 6495 0.197302
9 10406 1.6405e-07
9 14190 1.6963e-05
10 2 0.81562
10 22 8.31344e-07
10 26 0.150032
10 53 0.000212068
10 72 1.26975e-07
10 143 0.00355803
10 163 0.0257716
10 337 5.1229e-07
10 376 0.00125062
10 700 3.07255e-07
10 865 2.04277e-07
10 867 1.39338e-07
10 2378 2.32426e-06
10 5472 0.00354654
10 5532 6.76084e-07
10 8728 7.20711e-07
10 17432 2.76822e-06
11 7 0.906964
11 63 2.88437e-07
11 105 0.0425129
11 126 0.0288565
11 142 1.05359e-07
11 196 1.94706e-07
11 264 0.000248588
11 319 1.86403e-06
11 375 9.7672e-07
11 397 0.00248928
11 466 0.00023269
11 727 0.00223004
11 779 0.000206359
11 960 1.59438e-07
11 973 0.000210308
11 1046 0.00133961
11 1318 0.000221955
11 1545 0.000196905
11 2375 0.000292524
11 3045 0.00917406
11 3233 3.79261e-07
11 6277 0.000204565
11 6851 9.59467e-07
11 6880 0.00394296
11 6938 1.18772e-05
11 7503 2.53203e-05
11 10007 0.000232881
11 10532 6.46196e-07
11 11213 0.000176068
11 11214 2.97285e-07
11 11941 1.13542e-07
11 15671 1.19396e-07
11 23304 0.000221956
12 8 0.152266
12 123 9.44471e-06
12 139 0.00322686
12 196 0.00314101
12 289 6.8351e-07
12 301 0.375125
12 457 0.00995639
12 486 0.00403357
12 554 1.15289e-06
12 593 0.113746
12 602 2.46135e-06
12 831 1.87671e-06
12 1007 1.40647e-07
12 1026 0.0346167
12 1178 0.0449279
12 1243 0.00650591
12 1289 2.29482e-07
12 1589 1.9876e-07
12 1626 0.0221202
12 1743 1.71464e-06
12 2414 0.0258019
12 2486 4.31357e-05
12 2709 1.82418e-05
12 3510 0.00640278
12 3569 0.0032463
12 3608 0.107181
12 3766 1.05406e-06
12 5580 0.00348406
12 6029 0.00645182
12 6634 0.00430772
12 6868 0.00359878
12 7047 0.00322383
12 7162 1.42408e-07
12 9088 0.00967496
12 10097 0.0161511
12 10225 0.00314543
12 13187 0.0136253
12 13995 0.0032246
12 14167 0.00822035
12 14788 0.00302208
12 19620 0.0064428
12 20436 0.00304863
12 23857 2.38653e-07
13 9 0.130778
13 16 0.0265068
13 58 0.00861514
13 82 1.52707e-06
13 94 1.52516e-06
13 369 0.0087504
13 412 0.0610914
13 766 0.0175153
13 919 0.000448785
13 1289 0.0256604
13 2221 0.026539
13 2964 0.00594468
13 3086 0.0261365
13 3569 0.0961443
13 3605 1.83501e-07
13 4850 0.078702
13 5576 0.000686354
13 5766 0.00872851
13 6029 0.0523675
13 6075 0.0872853
13 6615 0.0174566
13 6616 0.000382933
13 6634 0.285024
13 7162 2.62706e-05
13 7945 0.017598
13 8212 0.00878148
13 14268 2.56507e-06
13 14798 7.74393e-05
13 25450 0.0087463
13 28054 2.48352e-07
14 10 0.780449
14 360 0.0144019
14 524 6.43867e-05
14 1704 0.000607153
14 1733 0.188238
14 3386 0.000571207
14 5485 0.0121259
14 6954 0.00115485
14 11610 0.00230968
14 18402 1.2738e-06
14 27614 7.60573e-05
15 11 0.988499
15 166 1.18515e-07
15 184 0.00108486
15 297 5.15869e-06
15 642 1.02444e-07
15 2891 0.00258737
15 3392 0.000157292
15 3650 0.000672381
15 5132 0.000168486
15 5238 0.00661884
15 5275 1.06642e-05
15 5609 1.60336e-07
15 16748 0.000194966
16 2 1.55194e-07
16 12 0.478858
16 758 0.0236012
16 2472 0.0239514
16 3098 0.151751
16 4950 0.0319352
16 7079 0.183628
16 8625 0.0559584
16 13722 0.0159676
16 15677 0.00798365
16 15678 0.00794934
16 18128 0.00798283
16 18802 0.000296426
16 19948 0.00215343
16 25807 0.00798378
17 14 0.996073
17 63 0.000342572
17 100 1.64204e-07
17 142 4.90365e-05
17 196 1.89721e-07
17 255 1.11955e-07
17 369 1.57972e-07
17 384 1.30885e-05
17 476 1.90327e-07
17 479 0.00324765
17 831 1.59179e-07
17 1294 2.90303e-07
17 2037 5.03953e-05
17 2155 1.79955e-07
17 5078 1.19617e-07
17 5096 6.28713e-07
17 5293 2.68788e-05
17 5561 1.36452e-06
17 6316 1.41474e-06
17 8911 8.57416e-06
17 11231 2.08219e-07
17 13545 0.000171482
17 21122 2.60792e-06
17 21762 4.28168e-06
18 2 0.00360955
18 3 0.00176003
18 7 0.0509028
18 22 1.04978e-07
18 26 0.433447
18 32 0.0532487
18 35 0.00900874
18 57 1.02224e-07
18 74 6.0237e-07
18 107 0.0350415
18 142 0.391455
18 143 1.24914e-06
18 152 0.015734
18 196 0.00479142
18 197 3.81664e-07
18 215 9.75766e-05
18 219 2.40298e-05
18 377 0.000854754
18 1275 1.48852e-06
18 10226 2.0285e-05
19 2 0.0224044
19 7 0.0423826
19 40 0.0105148
19 74 2.75727e-06
19 162 0.0209013
19 165 7.37105e-06
19 169 0.0305716
19 197 0.020891
19 219 0.4095
19 245 4.77793e-06
19 311 0.0106564
19 319 0.0923424
19 333 0.0209996
19 368 4.60509e-05
19 376 0.010207
19 401 0.159156
19 484 3.34625e-07
19 621 0.0208899
19 1280 0.000562946
19 1411 0.00160718
19 1875 0.0105346
19 1992 1.4994e-07
19 2436 1.09221e-05
19 3610 0.0105857
19 3743 4.26387e-06
19 3816 0.0105012
19 3857 0.0210139
19 3875 4.51545e-07
19 4269 5.6685e-05
19 4459 2.17172e-07
19 5151 6.45849e-07
19 5200 2.1505e-06
19 6695 0.0104382
19 6748 1.65301e-07
19 7005 2.82839e-07
19 8679 0.0105206
19 12056 4.08437e-07
19 13373 0.0105195
19 14472 1.4687e-05
19 15318 0.0105206
19 17130 8.27432e-07
19 17286 0.0105965
19 18428 0.0105086
19 24655 0.0105205
20 7 4.71098e-05
20 18 0.328736
20 32 8.48887e-07
20 61 0.0727017
20 94 0.00632301
20 107 4.02861e-07
20 148 8.57934e-07
20 195 3.8362e-07
20 241 0.234537
20 278 0.0220082
20 311 0.00316096
20 337 2.15819e-05
20 510 0.000561842
20 720 0.0154061
20 747 4.02561e-07
20 761 0.0221269
20 834 9.97721e-05
20 1004 2.35475e-05
20 1013 0.0948355
20 1687 0.0193618
20 1947 0.0158096
20 2152 0.00379169
20 2324 0.00377132
20 2420 1.20189e-07
20 2622 6.28747e-06
20 2877 0.0189653
20 3016 0.0127808
20 3033 0.00632302
20 3804 4.08779e-07
20 3932 3.59133e-05
20 4813 0.0128086
20 4863 0.000406835
20 4888 0.00306125
20 5534 2.17885e-05
20 6418 0.0569099
20 7321 0.00713728
20 8302 0.00315891
20 8415 1.33666e-07
20 10280 0.00315178
20 11140 3.57131e-06
20 12068 7.9276e-06
20 13371 0.00632188
20 14210 1.39059e-07
20 16107 0.00632314
20 16259 0.000288055
20 20133 0.00316095
20 22316 0.00632186
20 24581 0.00315649
20 24901 0.00316084
20 27076 0.00315964
21 13 0.857286
21 48 0.122109
21 264 8.85993e-07
21 935 2.31562e-07
21 2174 9.62548e-05
21 2661 9.77276e-05
21 3988 0.017223
21 4639 5.58909e-06
21 5522 0.00288418
21 6153 1.54863e-06
21 11646 3.34124e-05
21 15681 0.000199386
21 15696 3.83305e-05
21 22364 4.08304e-07
21 24017 2.29272e-05
22 14 0.347654
22 63 2.2226e-07
22 72 0.0436027
22 76 0.00583662
22 146 8.11506e-05
22 173 4.93683e-07
22 180 0.000348175
22 190 1.24164e-05
22 193 0.222793
22 245 0.0153245
22 262 2.51695e-07
22 289 7.5392e-06
22 368 1.11004e-05
22 369 0.1986
22 374 1.21625e-07
22 381 0.0024004
22 466 1.93992e-06
22 473 0.030018
22 542 6.79153e-07
22 608 2.17121e-06
22 710 3.45297e-05
22 759 0.0759517
22 831 0.0408383
22 1107 1.87558e-07
22 1166 0.000145553
22 1275 0.00114982
22 1370 6.55177e-06
22 1600 1.06578e-06
22 1828 3.54299e-07
22 1992 0.00234731
22 2148 7.0924e-07
22 2636 4.3119e-05
22 2983 0.00197041
22 3247 1.30006e-05
22 3249 7.67533e-06
22 4034 3.01074e-07
22 5271 0.00277143
22 5457 0.0049349
22 7739 0.000342329
22 11922 4.58111e-06
22 17710 0.00273815
22 23156 6.16141e-07
23 15 0.808422
23 20 2.29638e-06
23 57 0.0341174
23 90 0.0152409
23 571 0.0183181
23 1579 3.01573e-05
23 2051 0.0551257
23 6628 0.0139779
23 10403 0.0176155
23 17545 0.000403195
23 24788 0.0183732
23 25716 0.0183732
24 7 0.0766486
24 32 0.00276921
24 53 1.07589e-06
24 81 3.86609e-06
24 82 5.70803e-06
24 89 0.0125509
24 124 1.39328e-07
24 126 0.0185038
24 145 0.00601004
24 157 0.00525518
24 166 8.24242e-05
24 168 6.44249e-07
24 189 1.37451e-05
24 193 0.00987858
24 196 0.156511
24 215 4.75839e-06
24 219 8.80396e-06
24 224 6.94325e-06
24 245 3.56781e-05
24 283 2.25995e-07
24 301 4.55849e-06
24 306 3.38555e-06
24 337 6.8398e-06
24 365 0.00590155
24 369 0.00518901
24 375 8.09411e-07
24 376 0.136362
24 383 0.00541474
24 435 0.00517456
24 457 1.91262e-06
24 463 0.0301293
24 478 1.04771e-06
24 510 0.0405477
24 608 0.0131399
24 629 0.0461814
24 698 0.0429134
24 727 7.38722e-07
24 807 1.60999e-05
24 828 0.0401727
24 831 1.05903e-07
24 885 0.016398
24 952 1.39199e-07
24 1059 0.000105249
24 1075 1.60045e-05
24 1171 0.298466
24 1304 3.21077e-07
24 1411 0.00644051
24 1651 0.00478003
24 2545 0.00114158
24 2637 1.03022e-06
24 2873 2.05858e-07
24 3059 2.97787e-07
24 3065 1.08225e-07
24 3490 1.03335e-05
24 3756 5.63506e-06
24 4292 0.000271979
24 4888 9.71403e-07
24 6191 6.71581e-06
24 6369 0.000432762
24 6536 0.000195787
24 6763 1.56057e-07
24 6966 6.85953e-07
24 7001 0.00524229
24 7172 0.000438232
24 8917 0.00515
24 9914 0.000121473
24 10022 6.42665e-07
24 14695 1.2985e-06
24 16766 0.00128072
24 20873 1.47034e-07
24 27298 1.18584e-07
24 27375 3.57795e-05
25 12 0.725354
25 16 0.0741154
25 1819 0.000146046
25 2152 6.12608e-05
25 2472 0.0500248
25 2883 1.84804e-05
25 3098 0.0500785
25 3199 0.0250115
25 7079 0.0500248
25 8625 0.0250124
25 10835 0.000144003
25 23410 8.53409e-06
26 7 0.0946678
26 33 0.00562856
26 57 1.44443e-07
26 58 1.41739e-06
26 79 1.4202e-05
26 89 5.29741e-05
26 107 1.74932e-06
26 139 0.00999551
26 148 8.78771e-05
26 168 0.00873645
26 183 0.000253689
26 196 0.0312243
26 215 0.00997458
26 283 7.07167e-07
26 293 0.0880527
26 307 1.11414e-07
26 376 0.0105875
26 463 0.00881704
26 510 0.0559986
26 624 6.29106e-06
26 818 0.0100291
26 828 0.100302
26 856 0.209252
26 1041 0.0179626
26 1061 0.00168765
26 1558 0.0187702
26 1588 0.0498664
26 1900 0.00997332
26 2060 0.00997345
26 2221 0.000455444
26 2288 1.30299e-07
26 2553 0.0398934
26 2657 0.119692
26 2883 1.21357e-07
26 4064 0.00997411
26 4105 0.0099734
26 5684 0.0300637
26 9327 0.00813427
26 15372 1.58198e-06
26 15915 0.00997345
26 17056 0.00997389
26 18605 0.00986674
26 19350 7.95266e-05
26 20616 2.60268e-07
27 2 0.999999
27 58 1.0966e-06
28 17 0.153212
28 74 1.50215e-06
28 89 0.0101652
28 97 0.831509
28 8694 0.0050944
28 13773 1.35711e-07
28 16692 1.48544e-07
28 20061 1.75045e-05
29 108 0.000199715
29 151 1.32736e-06
29 204 7.3912e-06
29 367 0.912349
29 376 4.08709e-07
29 466 3.66632e-07
29 476 7.3693e-07
29 483 8.28226e-07
29 510 0.00256672
29 621 0.00124745
29 691 5.12065e-07
29 906 3.30918e-07
29 1041 0.0758326
29 2198 5.63389e-06
29 2793 1.12416e-07
29 3179 3.81574e-05
29 3361 3.41386e-07
29 3712 1.4878e-07
29 3754 1.12067e-07
29 3804 8.64884e-05
29 4121 1.93176e-07
29 4336 0.000277226
29 4553 0.00184794
29 4874 1.52542e-06
29 5881 1.9824e-07
29 6565 0.00195161
29 7551 1.11022e-06
29 7683 0.00122638
29 12898 2.34443e-07
29 13456 1.74891e-07
29 19266 0.00112535
29 27427 0.00122723
30 7 0.799937
30 93 4.83991e-07
30 100 2.80306e-06
30 105 0.0120663
30 108 1.94051e-05
30 110 0.00114321
30 126 0.000126142
30 168 0.00146496
30 196 0.000209015
30 245 1.20104e-05
30 319 0.178957
30 467 1.51727e-07
30 554 1.35585e-06
30 563 0.000322412
30 952 1.92955e-07
30 1075 1.21286e-07
30 1235 1.12431e-06
30 1369 6.92892e-06
30 1704 1.26788e-07
30 2005 2.07177e-05
30 2879 0.00135872
30 2930 2.22621e-07
30 4801 4.82454e-07
30 5590 0.00146203
30 5624 6.11472e-06
30 6413 0.00127176
30 8737 2.36724e-07
30 15164 1.79578e-07
30 15667 0.000138672
30 22418 1.42151e-06
30 22524 0.00146713
31 143 0.00366436
31 1116 0.0462857
31 1141 0.0231613
31 3353 0.0231613
31 7090 0.000172663
31 7684 0.0234385
31 10180 0.02316
31 11848 0.0231611
31 12254 0.463223
31 15626 0.301096
31 19796 0.0231601
31 23476 0.0231566
31 27463 0.02316
32 2 0.787396
32 21 1.44765e-06
32 33 0.092715
32 152 0.119301
32 194 0.00058707
33 2 0.798203
33 89 1.48213e-06
33 195 0.0212045
33 245 1.04243e-05
33 256 3.91723e-05
33 286 0.00173969
33 333 0.00506641
33 367 4.08572e-07
33 377 3.05417e-07
33 728 0.00173599
33 834 4.16998e-06
33 905 0.000855287
33 912 0.0148571
33 1231 0.0839951
33 1292 9.22846e-06
33 1339 0.000856061
33 1434 5.80419e-05
33 1508 5.1412e-05
33 1857 0.0029561
33 1900 0.00188991
33 1956 0.000716076
33 2044 0.00576445
33 2949 0.000854789
33 3016 3.12754e-07
33 3482 0.000857178
33 3508 0.039451
33 4025 0.00493172
33 4974 0.000864047
33 5400 2.43013e-07
33 5940 3.26303e-06
33 7002 1.19075e-07
33 8634 0.000649387
33 8818 0.0017086
33 8870 0.000846328
33 10247 0.00171435
33 11533 0.000857178
33 11646 0.000182176
33 14097 3.79427e-07
33 14278 0.000857173
33 16336 0.00342858
33 17299 0.000143267
33 18353 0.00175899
33 18541 9.02364e-06
33 19053 0.000857181
33 20087 9.81664e-06
34 19 0.260926
34 52 0.00106306
34 98 1.32652e-06
34 127 4.48096e-07
34 133 0.735741
34 337 7.07837e-06
34 742 0.00106407
34 5078 1.28139e-06
34 6668 1.90507e-07
34 10888 0.00119599
35 3 0.308332
35 149 0.201351
35 164 0.0865425
35 181 1.21327e-06
35 188 0.402389
35 293 7.55504e-06
35 482 0.00021078
35 859 1.60309e-07
35 906 1.78215e-06
35 1013 1.45524e-06
35 1020 1.43134e-07
35 1198 3.34892e-07
35 1275 1.74169e-07
35 1394 2.1104e-06
35 1452 0.000454078
35 1828 1.54715e-07
35 2108 2.50402e-07
35 2258 1.66721e-07
35 3472 4.64838e-05
35 3794 1.97041e-06
35 3851 9.51397e-07
35 4010 4.67056e-06
35 4269 3.62644e-05
35 6418 1.43933e-07
35 7845 1.0977e-07
35 8005 3.7884e-07
35 8917 4.86781e-05
35 10529 1.59746e-06
35 11870 1.42223e-07
35 12345 2.89291e-06
35 13931 0.000493141
35 20061 6.59262e-05
35 23080 5.60921e-07
35 27648 2.32232e-07
36 20 0.996433
36 136 1.17271e-07
36 306 1.10127e-05
36 1503 2.70406e-07
36 1770 0.0035551
36 3012 1.49408e-07
36 11870 1.4301e-07
37 21 9.75608e-07
37 26 0.952643
37 94 1.15613e-06
37 123 1.6507e-06
37 165 2.00401e-06
37 173 1.67186e-07
37 193 8.76001e-07
37 215 0.000361751
37 223 6.57576e-07
37 319 3.75434e-07
37 337 0.0393746
37 436 4.49742e-07
37 706 0.000191051
37 710 2.49198e-05
37 812 9.03174e-07
37 834 1.23401e-07
37 844 2.10844e-06
37 921 3.47783e-06
37 1202 2.82527e-07
37 1305 1.10745e-05
37 1369 6.04297e-07
37 1410 5.73806e-05
37 1452 1.37216e-05
37 1458 1.28433e-07
37 1463 6.64347e-07
37 1828 7.30074e-07
37 2110 1.13249e-06
37 2112 2.68811e-07
37 2800 0.00144244
37 3004 2.06412e-07
37 3010 1.13572e-05
37 3040 8.53344e-07
37 3840 1.08569e-07
37 3851 0.00109746
37 4092 2.49761e-07
37 4825 9.97821e-06
37 5458 3.33876e-06
37 6776 0.00144059
37 7663 1.18063e-07
37 8254 5.01514e-07
37 8561 4.85524e-06
37 9000 1.18094e-05
37 10022 2.79035e-05
37 11282 4.18538e-06
37 11494 0.000434245
37 12365 0.00137097
37 12434 2.59285e-06
37 13735 6.38285e-05
37 16300 0.00136751
37 16815 2.86388e-07
37 18473 1.87697e-06
37 20670 1.06023e-07
37 21519 1.05707e-06
37 21856 5.1552e-07
37 23808 1.03244e-06
37 26983 7.25216e-07
38 21 0.0738605
38 94 0.0347167
38 125 1.38196e-05
38 142 0.00448567
38 148 0.06302
38 165 0.807453
38 173 0.00649364
38 190 5.58977e-07
38 717 4.77779e-07
38 1270 0.00560476
38 1503 0.00148026
38 1641 1.05592e-05
38 2180 2.24761e-07
38 2391 0.00277839
38 3766 2.21856e-06
38 6936 3.86779e-07
38 11149 2.19548e-07
38 13543 7.81547e-05
38 24911 1.00248e-07
39 23 0.477829
39 58 0.0573442
39 129 0.0596996
39 130 0.0597281
39 131 0.0597277
39 1611 0.000833428
39 2089 0.165381
39 7107 0.119457
40 24 0.343065
40 185 0.0228708
40 245 4.14317e-06
40 306 0.023282
40 743 0.160097
40 1057 0.0612742
40 3006 0.0228708
40 3058 0.251581
40 3062 0.022871
40 3333 0.0223232
40 4010 0.0240213
40 12401 0.0228689
40 26704 0.022871
41 10 0.116615
41 14 2.11564e-06
41 25 0.412752
41 123 0.00263182
41 143 1.57296e-06
41 1703 1.31874e-07
41 1704 0.198125
41 3241 1.06919e-06
41 4000 0.148593
41 7250 0.00825521
41 11663 1.06155e-07
41 11665 0.104779
41 17932 0.00824301
42 26 0.543281
42 143 0.405591
42 183 8.5121e-06
42 287 1.42915e-05
42 375 1.84038e-07
42 447 2.23727e-07
42 457 2.83762e-06
42 710 2.18926e-06
42 770 0.00269937
42 885 0.0322554
42 2511 1.83206e-07
42 3244 3.53582e-07
42 4414 0.00268108
42 5128 1.76593e-05
42 5361 1.01017e-07
42 5470 3.6586e-06
42 6613 1.12876e-07
42 8013 0.00266531
42 9073 0.00791316
42 10364 8.18292e-05
42 11080 1.22436e-06
42 11660 1.27888e-07
42 14870 1.15878e-07
42 16792 7.22525e-05
42 17268 2.37853e-05
42 18600 0.00268168
42 27850 1.63875e-06
43 39 0.107573
43 41 0.215147
43 3007 2.50327e-05
43 10088 0.215148
43 10505 0.107574
43 15752 0.215148
43 17343 0.107574
43 20061 0.0318109
44 57 0.000134299
44 76 0.143105
44 282 0.0714477
44 633 0.143033
44 1214 0.016578
44 1391 0.0715549
44 1516 0.143138
44 3380 0.05314
44 7419 0.0715549
44 7420 0.0715803
44 14508 0.0715547
44 18237 3.34839e-05
44 18238 0.0715528
44 23816 0.0715344
44 24584 5.88502e-05
45 29 0.117376
45 37 0.312998
45 52 0.000101375
45 1424 0.0195543
45 3553 0.0195624
45 4361 0.0391248
45 7070 0.0391252
45 9296 0.0391248
45 10747 0.0782496
45 11416 0.0195624
45 11420 0.0782482
45 15497 8.26912e-06
45 16434 0.0990722
45 16754 0.000843046
45 17323 0.0391248
45 17334 0.0195624
45 17401 0.019413
45 23266 0.000193739
45 23267 6.44051e-05
45 23816 5.61655e-06
45 27675 0.058686
46 2288 0.0314652
46 3679 0.496778
46 3909 0.125419
46 3946 0.000501204
46 8133 0.251839
46 8984 7.42555e-07
46 10387 0.031481
46 17292 0.0310352
46 17353 0.031481
47 10 0.196815
47 27 0.2008
47 28 0.2008
47 29 0.200785
47 30 0.2008
48 10 0.00862534
48 42 4.43663e-06
48 57 2.76855e-07
48 63 0.00235473
48 98 0.000175302
48 101 0.00233542
48 107 9.28715e-07
48 143 1.78784e-07
48 159 0.000627266
48 169 0.00215726
48 193 0.0164424
48 194 1.87668e-07
48 268 0.375972
48 269 0.411678
48 365 0.00247998
48 576 0.00780312
48 770 1.88315e-05
48 831 0.00233413
48 918 3.86709e-07
48 935 0.0135864
48 1275 0.0105875
48 1444 8.62269e-06
48 1538 1.86564e-07
48 2030 0.00233524
48 2037 0.0651418
48 4133 4.73899e-06
48 4918 0.0186819
48 5553 1.61592e-07
48 5569 1.33994e-07
48 5889 1.16446e-07
48 6749 0.00233052
48 7551 9.91295e-05
48 7818 1.96006e-06
48 7851 1.80527e-05
48 8769 6.52742e-06
48 9031 0.00934062
48 9047 6.30056e-05
48 9908 0.0140605
48 9987 8.17152e-05
48 11462 2.64884e-05
48 11554 0.00233771
48 12401 1.33221e-07
48 13113 1.87747e-07
48 13162 1.89519e-07
48 13701 0.0116759
48 14671 0.012163
48 15675 0.00196783
48 17199 0.000133589
48 17773 6.21238e-07
48 24760 0.0023341
48 28057 6.14548e-07
49 447 0.00052061
49 499 1.03977e-07
49 1126 0.0624452
49 1281 7.09624e-05
49 1467 0.0249154
49 1563 0.616892
49 1617 0.00497637
49 1806 0.0248825
49 1828 3.25127e-07
49 2059 0.00446737
49 2344 0.0447778
49 3129 0.0346957
49 3230 0.00497491
49 4660 0.0598145
49 5980 0.0150657
49 6488 0.0156597
49 6783 0.0104617
49 7106 0.0157699
49 8500 1.90556e-07
49 9088 1.40927e-07
49 10686 0.00497647
49 11414 0.00497615
49 11579 0.0151629
49 11827 0.00497629
49 15216 0.00995312
49 15458 0.00995297
49 15955 0.00496681
49 16596 4.08988e-07
49 26724 0.00464382
50 31 0.354181
50 215 8.56606e-07
50 576 0.02084
50 1291 0.333346
50 2064 0.0416218
50 2844 0.0833367
50 3831 0.0833368
50 8826 0.0208341
50 11700 0.0208341
50 13604 0.0416682
51 2 0.913089
51 98 0.00017035
51 108 2.31873e-05
51 169 1.52326e-06
51 178 9.20877e-05
51 195 0.0604212
51 221 1.14105e-07
51 333 0.0014493
51 367 1.95362e-06
51 377 1.30866e-07
51 383 2.26281e-07
51 514 1.85583e-07
51 718 2.12941e-07
51 720 0.000110746
51 728 3.27697e-07
51 782 7.89663e-07
51 912 0.00366175
51 933 1.45139e-07
51 1172 9.50857e-05
51 1277 8.92789e-05
51 1292 3.25643e-05
51 1411 9.38037e-05
51 1424 3.02518e-06
51 1434 6.89718e-06
51 1508 0.0110138
51 1513 0.000422589
51 1596 3.12295e-05
51 1857 0.000663541
51 1900 0.000285245
51 1956 1.35827e-06
51 2044 0.000730324
51 2153 0.000753055
51 2160 5.46542e-07
51 2279 9.24601e-05
51 2385 2.09986e-07
51 2587 6.08598e-07
51 2862 0.00102956
51 3016 3.34629e-07
51 3033 9.66556e-05
51 4025 0.000763951
51 4813 5.45357e-06
51 4894 9.24584e-05
51 4974 0.000158172
51 5325 1.7747e-07
51 5400 1.48729e-07
51 5406 1.43021e-07
51 5432 0.000171364
51 5539 0.000102069
51 5569 1.10572e-05
51 5881 2.21482e-06
51 5971 0.000184379
51 6348 6.84597e-05
51 6559 1.89875e-07
51 7002 2.42576e-07
51 7309 2.80929e-07
51 7940 0.000164701
51 7997 0.000637509
51 8009 8.93587e-05
51 8067 2.54542e-05
51 8497 0.000184923
51 8512 9.49154e-05
51 8659 9.2317e-05
51 9155 3.21776e-07
51 9329 3.65538e-06
51 10104 0.000184494
51 10364 2.54725e-05
51 10557 7.95854e-05
51 10820 9.05304e-05
51 11141 1.78133e-06
51 11816 8.74978e-05
51 11986 9.24343e-05
51 12373 2.12474e-06
51 14071 2.31277e-07
51 14483 2.38283e-06
51 14631 1.47492e-07
51 14684 9.24592e-05
51 14704 9.24599e-05
51 15145 1.43481e-07
51 16246 8.55835e-05
51 16257 2.05297e-06
51 16336 0.000189122
51 16529 9.24623e-05
51 16699 9.23942e-05
51 17098 9.24479e-05
51 17213 2.74557e-05
51 17626 3.06227e-05
51 18541 1.66045e-06
51 19065 9.24462e-05
51 19428 9.24614e-05
51 20065 4.97575e-06
51 20088 9.2244e-05
51 20134 8.81938e-05
51 20309 9.24571e-05
51 20522 9.14264e-05
51 20686 9.24499e-05
51 21144 9.24482e-05
51 21342 9.24617e-05
51 21608 9.24628e-05
51 21865 9.24529e-05
51 22165 8.48429e-07
51 22408 2.06879e-05
51 26671 9.24631e-05
51 26770 2.8661e-07
51 26867 5.53529e-07
51 27218 8.90515e-05
51 27735 9.24625e-05
52 7 5.19818e-07
52 32 0.617865
52 34 1.8241e-07
52 57 4.21578e-07
52 77 2.10984e-07
52 82 1.76081e-06
52 95 4.21576e-06
52 123 7.54268e-07
52 152 0.348003
52 166 1.37832e-06
52 195 2.51924e-06
52 245 1.16222e-06
52 261 2.65619e-06
52 283 1.08906e-07
52 307 4.91289e-05
52 345 1.8751e-06
52 370 1.31884e-07
52 374 3.63843e-07
52 376 1.27185e-06
52 401 7.81523e-06
52 402 1.98457e-05
52 440 0.000190814
52 476 3.13076e-05
52 510 9.48599e-07
52 520 2.4842e-06
52 585 0.000415462
52 608 0.00763578
52 642 4.31466e-06
52 758 1.4097e-07
52 773 5.06343e-06
52 828 1.27784e-07
52 919 1.04201e-05
52 964 4.11696e-07
52 969 7.52032e-06
52 1057 2.65503e-05
52 1155 3.02913e-07
52 1171 2.99233e-05
52 1275 0.0232072
52 1294 1.27491e-06
52 1597 5.38719e-05
52 1611 3.3098e-07
52 1754 1.48128e-06
52 2003 0.00047604
52 2010 0.000287583
52 2100 0.000310963
52 2203 1.68377e-05
52 2545 2.28402e-07
52 2561 3.67068e-05
52 2873 1.97842e-07
52 3017 1.07496e-05
52 3247 1.26049e-06
52 3249 7.4417e-07
52 3766 0.000320838
52 3851 0.000109565
52 3978 1.09175e-06
52 4138 1.1865e-05
52 4489 5.02501e-07
52 4646 4.77332e-07
52 4825 0.000305558
52 5742 9.32828e-07
52 6227 4.20606e-07
52 6695 2.27238e-07
52 6791 2.04826e-06
52 7427 1.31216e-07
52 7626 1.1309e-07
52 7668 1.12292e-07
52 7879 1.67531e-07
52 8156 0.000134179
52 9369 0.000299531
52 9383 3.34036e-07
52 9650 7.0832e-06
52 10022 1.2761e-06
52 10510 1.91336e-06
52 11619 2.61085e-07
52 11944 1.95244e-07
52 12785 4.35836e-07
52 13659 1.82606e-06
52 13727 3.1752e-07
52 14383 2.17714e-07
52 14633 2.16317e-07
52 18216 1.28837e-05
52 19424 3.83571e-07
52 20620 1.00378e-07
52 21263 1.20449e-07
52 21762 2.39447e-05
52 22696 1.35488e-06
52 22860 6.35293e-07
52 23155 2.46835e-07
52 24729 1.7133e-05
52 24738 1.90439e-07
52 27724 1.96176e-06
53 26 3.55663e-06
53 94 1.12929e-07
53 219 0.998091
53 255 1.28551e-07
53 266 1.03945e-07
53 306 0.000430584
53 307 6.28153e-06
53 319 4.92216e-07
53 337 2.00213e-05
53 459 4.82419e-05
53 770 4.6186e-07
53 834 0.00132952
53 875 2.38134e-06
53 1219 4.08431e-07
53 1275 3.12508e-07
53 1276 7.5983e-06
53 1556 8.1088e-06
53 1908 2.30096e-07
53 2152 4.71709e-06
53 3196 2.56742e-07
53 3769 3.86993e-06
53 4138 8.99451e-06
53 5128 3.78163e-06
53 5373 1.32974e-07
53 5569 6.58372e-07
53 6009 9.44423e-06
53 6791 1.92236e-06
53 9383 3.07252e-07
53 9548 1.07247e-07
53 10039 1.57093e-07
53 11282 1.67586e-07
53 11619 2.4015e-07
53 11986 3.90707e-07
53 12469 8.09713e-06
53 16505 2.68099e-07
53 17078 1.29596e-06
53 17238 1.91074e-06
53 17960 1.01278e-07
53 22330 1.44372e-07
54 18 1.44977e-06
54 32 0.0040922
54 33 0.148227
54 52 0.0964759
54 81 0.000709234
54 108 2.76211e-06
54 121 0.0144235
54 123 0.0981935
54 168 2.55847e-07
54 181 0.00163363
54 195 0.062088
54 196 0.0207567
54 245 0.0118761
54 265 1.31948e-07
54 337 0.379802
54 368 0.0250687
54 376 0.000347137
54 455 0.00565338
54 466 1.86089e-05
54 473 0.00498038
54 811 0.000284658
54 964 1.62984e-06
54 994 0.00585093
54 1171 1.42481e-07
54 1369 0.100381
54 1556 0.00343096
54 2321 1.94641e-06
54 2343 1.37732e-07
54 2404 0.000104746
54 3319 3.04985e-07
54 3443 1.08311e-06
54 4007 2.82251e-06
54 4370 0.00500214
54 5922 3.90276e-07
54 7060 0.010435
54 8797 2.44426e-06
54 8860 1.95161e-06
54 9135 9.63246e-05
54 10039 1.14409e-05
54 10678 3.17266e-05
54 11697 1.39852e-06
54 11870 1.18466e-07
54 14054 7.42513e-07
54 16257 9.13491e-07
54 21486 2.9861e-06
55 34 0.836357
55 142 2.62648e-06
55 1206 0.153859
55 1949 0.000222309
55 3044 1.80615e-05
55 3171 0.00338643
55 10372 0.00327322
55 15463 1.44113e-07
55 21266 0.00287863
55 25134 1.33141e-06
56 36 0.444463
56 2697 0.0404057
56 4125 0.121217
56 9243 0.0302644
56 14635 0.0404055
56 16418 0.161623
56 17151 0.0404057
56 25103 0.0404042
56 25104 0.0404056
56 25105 0.0404057
57 32 8.80126e-07
57 38 0.748048
57 146 4.31517e-06
57 154 1.84901e-07
57 247 0.0246416
57 974 3.3239e-06
57 1162 3.80669e-07
57 1369 3.0752e-07
57 1860 0.004984
57 2005 0.0633537
57 2031 7.92535e-06
57 2375 1.88384e-07
57 5385 0.0328646
57 6776 0.00102077
57 6814 0.00411923
57 8146 0.00355056
57 9293 0.00469479
57 11569 0.0707529
57 13569 0.00469143
57 14981 0.0184932
57 15024 1.1646e-07
57 16721 2.23752e-05
57 16774 1.34697e-07
57 17643 4.8319e-07
57 18605 0.00955802
57 19526 0.00469071
57 20514 1.13797e-06
57 21570 0.00449446
58 34 0.00473308
58 38 0.202095
58 52 4.50384e-07
58 89 0.362339
58 94 3.70906e-06
58 146 1.18778e-06
58 149 7.47135e-06
58 194 1.18293e-05
58 247 0.13668
58 286 6.08458e-06
58 293 2.34668e-07
58 401 2.55218e-07
58 436 0.00563006
58 588 0.0240098
58 960 5.08715e-07
58 974 0.0242038
58 1166 1.22471e-07
58 1992 2.09458e-06
58 2005 0.0210622
58 2031 1.16968e-07
58 2086 0.0240286
58 2411 0.00600706
58 2607 4.03144e-05
58 2637 0.0060055
58 2918 0.0248293
58 3490 0.0282985
58 5037 0.0482809
58 5151 6.96809e-06
58 5295 3.29099e-06
58 5558 0.00600746
58 6168 0.00600748
58 6814 0.0187592
58 8129 5.13914e-06
58 8146 0.00146359
58 8797 0.0118967
58 9548 0.0010649
58 11054 0.0180356
58 11383 1.92018e-06
58 12929 0.00600715
58 13569 4.45813e-06
58 14981 0.000366592
58 17147 5.93751e-05
58 18605 1.5532e-05
58 19526 2.15297e-06
58 22171 0.00600716
58 22664 0.00600744
58 27866 1.35841e-07
59 11 0.00652121
59 40 0.318773
59 78 0.349375
59 79 2.02271e-07
59 177 1.70345e-07
59 181 3.04141e-06
59 188 0.012181
59 215 7.99882e-06
59 299 0.101863
59 388 8.18521e-07
59 401 1.31166e-07
59 463 0.00399232
59 489 0.000233884
59 500 0.0154062
59 600 0.155682
59 735 0.0113116
59 758 1.56213e-07
59 1263 3.42344e-05
59 1547 6.66699e-07
59 1562 0.0148954
59 2075 0.000350159
59 2609 2.90567e-06
59 3511 1.96638e-06
59 3672 2.13965e-07
59 4411 4.66423e-06
59 4801 1.04163e-07
59 4944 3.79657e-07
59 5243 3.97666e-07
59 5816 1.5838e-05
59 7110 2.37656e-07
59 7120 0.00631966
59 7217 3.10887e-07
59 8797 0.000316601
59 9650 6.6435e-05
59 10229 2.48469e-07
59 10794 1.25379e-05
59 10813 2.23546e-06
59 10996 3.21571e-06
59 11522 0.000327758
59 12724 0.000327605
59 12925 1.03656e-07
59 13674 3.66211e-07
59 14519 0.000321572
59 15696 0.000323205
59 17350 0.000655578
59 18364 4.31806e-05
59 20077 0.000314646
59 21705 5.01594e-07
59 22782 4.58543e-06
59 25685 0.000298327
60 42 0.182049
60 57 0.000182091
60 79 0.0436445
60 1120 0.0455111
60 3234 0.136503
60 3811 0.0455123
60 4860 0.0455123
60 5085 0.273062
60 5889 0.0455123
60 11747 0.0910246
60 12335 0.0455123
60 18923 0.0455121
60 22410 0.00046241
61 46 0.558668
61 82 2.06975e-07
61 715 0.0560255
61 717 0.0305423
61 1169 1.29381e-06
61 1462 0.0164306
61 1641 0.0164306
61 1671 0.0164307
61 2661 0.131429
61 2730 0.0328548
61 3091 0.0164283
61 3292 0.0220978
61 3974 0.00157997
61 10217 0.032861
61 13705 0.0164228
61 15414 0.0164946
61 17266 0.0164591
61 19802 0.00391602
61 20929 0.0147836
61 22696 0.000144406
62 43 0.5
62 23696 0.5
63 44 0.149926
63 263 0.0999543
63 1811 0.0999498
63 7965 0.0499754
63 13061 0.0499742
63 13620 0.299853
63 14032 0.149926
63 17527 0.0499755
63 23939 0.0499755
63 26738 0.000490423
64 45 0.111103
64 1183 0.111058
64 7067 0.333308
64 10594 0.111223
64 11622 0.111103
64 17528 0.111103
64 28177 0.111103
65 13 0.347346
65 48 0.286195
65 65 0.0168397
65 95 5.90969e-07
65 193 0.031999
65 381 0.0607694
65 639 0.00317322
65 2147 4.95879e-07
65 6082 2.24772e-07
65 10818 7.24248e-06
65 11077 7.79319e-06
65 11961 0.00123371
65 22364 0.109369
65 25224 0.0476862
65 25225 0.0476861
65 25226 0.0317908
65 25238 0.0158952
66 44 0.187598
66 47 0.125066
66 1811 0.0625324
66 5568 0.0625125
66 6508 0.0625325
66 8142 0.0625322
66 10656 0.062532
66 12762 0.0625324
66 13061 0.0625339
66 17527 0.125065
66 23964 0.124564
67 47 0.100039
67 49 0.200081
67 50 0.200079
67 283 5.02349e-06
67 8041 0.0998193
67 8694 0.200081
67 10286 0.10004
67 14507 0.0998558
68 3 3.85278e-07
68 79 0.00140907
68 123 2.57279e-06
68 215 6.52747e-05
68 233 1.38047e-06
68 306 0.0136161
68 319 1.00923e-06
68 367 0.537136
68 376 0.0235813
68 466 9.73538e-07
68 476 1.65482e-05
68 510 0.286676
68 828 0.0136296
68 1041 0.0227764
68 1141 0.014641
68 1508 2.37806e-05
68 1566 0.0139129
68 1588 0.0588748
68 2075 1.9147e-06
68 2728 2.32525e-06
68 5359 5.01828e-07
68 5840 1.50639e-07
68 17524 8.99755e-07
68 19540 0.0136294
69 2 0.702734
69 108 0.00778208
69 195 0.108967
69 204 7.01132e-07
69 367 0.118695
69 933 0.00778342
69 1041 0.00778342
69 1508 0.0226125
69 1513 0.00778343
69 2230 0.00778341
69 2877 0.00778342
69 5400 4.49978e-07
69 7409 4.88243e-07
69 8728 3.44069e-07
69 11603 0.000289314
70 77 0.0134902
70 81 1.82108e-07
70 82 0.00046414
70 99 9.37112e-07
70 124 0.719926
70 125 0.00375878
70 159 4.88192e-05
70 161 0.00216652
70 166 2.46718e-06
70 168 5.14597e-05
70 183 0.000868687
70 197 2.90746e-05
70 221 2.5992e-06
70 278 0.00187567
70 315 0.22029
70 355 0.000693479
70 372 0.00423849
70 401 2.15102e-07
70 478 0.0104308
70 510 2.33812e-06
70 542 1.91115e-07
70 563 1.56995e-06
70 627 0.00502708
70 684 1.63927e-07
70 827 1.17156e-06
70 1061 1.84712e-07
70 1193 0.0110933
70 1442 3.03885e-06
70 1552 1.07347e-06
70 1589 4.4045e-07
70 1780 0.00099091
70 1782 1.44149e-05
70 2198 1.22515e-07
70 2203 3.8996e-07
70 2222 1.25009e-07
70 2430 9.65295e-05
70 2564 1.06401e-05
70 3197 5.00383e-07
70 3271 3.71448e-06
70 3398 1.8721e-07
70 3780 0.00293838
70 3883 1.34059e-07
70 4610 7.10182e-06
70 4807 3.65256e-07
70 4881 4.81087e-07
70 5775 1.16562e-07
70 6205 3.23833e-06
70 7094 1.02238e-07
70 7725 5.44365e-05
70 8156 0.000248433
70 8653 1.80082e-07
70 9626 2.12107e-07
70 9799 1.24488e-05
70 11329 5.95053e-07
70 12954 1.04007e-07
70 14385 3.13668e-07
70 15009 2.5871e-07
70 20186 3.05735e-06
70 20627 0.000635946
70 23155 4.41834e-07
70 23405 4.05095e-06
70 23745 1.95645e-07
70 24022 1.93794e-07
70 27853 0.000497689
71 40 2.03725e-06
71 52 2.59851e-07
71 57 1.98108e-06
71 60 5.61107e-07
71 61 0.126179
71 77 0.0449335
71 98 0.00722287
71 125 0.155558
71 159 5.33783e-05
71 194 6.72016e-06
71 221 0.0519012
71 261 0.000161625
71 278 0.0100799
71 314 0.0684281
71 328 3.73241e-07
71 355 0.00825188
71 369 5.928e-07
71 379 1.36099e-07
71 478 2.71461e-06
71 480 0.0242453
71 542 0.392843
71 563 4.50438e-07
71 611 0.0173375
71 687 4.0074e-05
71 758 2.30519e-07
71 761 0.0135136
71 783 1.24506e-06
71 825 2.17816e-06
71 996 3.66262e-07
71 1041 1.58454e-07
71 1059 2.86574e-07
71 1275 1.14839e-07
71 1547 0.0186963
71 1552 5.82173e-06
71 1589 1.4435e-05
71 1948 3.50143e-07
71 2086 6.38519e-05
71 2144 1.22494e-07
71 2152 1.60425e-05
71 2198 1.65919e-06
71 2222 1.7532e-06
71 2428 1.29453e-07
71 2430 0.00434739
71 2564 1.64911e-06
71 2565 0.00845835
71 3197 1.91145e-05
71 3230 1.32029e-06
71 3260 1.16366e-07
71 3925 1.17742e-07
71 3982 1.04058e-07
71 4496 2.99686e-06
71 4778 1.19936e-07
71 4888 1.03512e-07
71 4930 1.90531e-07
71 5150 1.40949e-06
71 5398 2.92981e-07
71 5656 4.54283e-07
71 5747 1.43418e-07
71 5881 0.0217557
71 6205 9.81429e-07
71 6835 1.09687e-07
71 6845 3.01888e-06
71 7094 3.76082e-07
71 7907 0.000119648
71 8410 0.0122388
71 8604 3.51481e-06
71 8766 1.74086e-07
71 9626 1.61935e-06
71 10296 3.55941e-07
71 11413 1.39516e-06
71 11579 1.33406e-07
71 11644 1.22813e-07
71 11870 0.000152596
71 12367 1.04049e-07
71 13667 3.38592e-07
71 13814 5.9242e-07
71 14385 1.19821e-05
71 15009 9.88264e-06
71 15284 6.07867e-06
71 15355 2.05453e-05
71 15656 1.44123e-07
71 16763 9.53905e-06
71 17078 1.25257e-05
71 17395 1.85183e-07
71 17542 3.77267e-07
71 17994 5.854e-07
71 18331 2.59827e-07
71 18527 1.35914e-07
71 20162 1.06941e-07
71 22318 0.00643274
71 22679 1.78946e-05
71 22936 2.39165e-07
71 23405 1.55405e-07
71 23449 0.000944394
71 24022 4.84972e-07
71 24371 1.73364e-07
71 24973 1.91957e-07
71 25989 0.00584545
71 26287 1.37972e-06
72 51 0.0250994
72 58 0.00035811
72 61 0.0545046
72 95 2.46307e-06
72 98 1.03315e-07
72 99 1.07083e-07
72 139 0.0602112
72 159 0.00475499
72 241 0.0154061
72 245 0.00536361
72 278 0.00229232
72 283 0.000178306
72 337 1.1749e-05
72 347 1.81629e-07
72 375 0.121599
72 384 3.43319e-06
72 413 0.0354072
72 457 0.000149551
72 486 0.0381157
72 490 1.8741e-07
72 611 0.0357726
72 687 0.0001814
72 718 0.0240522
72 723 6.06235e-07
72 761 2.42648e-06
72 1026 0.10403
72 1243 0.0053659
72 1275 4.14324e-06
72 1279 6.76198e-06
72 1452 0.0150332
72 1547 0.0241943
72 1552 0.0101184
72 1589 0.0845072
72 2152 0.00676696
72 2198 9.16515e-06
72 2222 0.000300273
72 2266 2.18452e-07
72 2299 1.1691e-05
72 2324 0.0203083
72 2359 7.34715e-07
72 2494 1.60178e-06
72 2565 0.0284311
72 3394 0.0101953
72 3614 0.0100472
72 3766 1.60434e-07
72 4249 0.0154848
72 4401 2.85734e-06
72 4418 7.03824e-06
72 4496 0.000650942
72 4525 0.00400299
72 4944 1.22563e-07
72 5742 0.0100426
72 5774 0.0207229
72 5881 0.0184781
72 6179 0.00251672
72 6913 1.10625e-07
72 7078 0.00502261
72 8410 0.000489106
72 8604 0.0300251
72 8668 2.0144e-06
72 8705 0.00502359
72 8797 0.0150636
72 8929 7.7697e-07
72 9287 0.00502317
72 9365 0.00474185
72 9369 1.43099e-06
72 9552 0.0301466
72 10598 0.00502351
72 11576 0.005011
72 12127 0.000260299
72 12329 0.000131489
72 12390 3.58352e-07
72 13736 4.76792e-05
72 14329 0.0150716
72 14385 0.00500637
72 15009 0.00214659
72 15589 6.76229e-06
72 15656 1.5044e-05
72 15850 8.75157e-05
72 15971 2.09368e-07
72 16439 4.86464e-07
72 16740 0.00501831
72 16741 0.00502201
72 16988 0.00498934
72 18246 0.00176352
72 18491 0.00369424
72 18769 0.000871682
72 20654 0.00502357
72 20760 2.2346e-06
72 20981 0.0150709
72 22215 1.02247e-06
72 23030 0.00033818
72 23339 0.000230117
72 23584 1.33978e-07
72 23830 0.00487715
72 24640 0.00501462
72 28030 0.00502367
73 34 3.62116e-06
73 57 4.18648e-07
73 77 7.9562e-06
73 89 6.58672e-05
73 100 0.454062
73 121 1.7046e-07
73 165 0.0520334
73 319 0.487914
73 337 0.00585748
73 384 1.21818e-06
73 392 5.73022e-07
73 437 1.21101e-05
73 676 1.58127e-07
73 747 2.96229e-05
73 2561 8.22657e-06
73 3247 7.25158e-07
73 4469 1.57324e-06
73 9746 1.87542e-07
73 15024 4.70983e-07
73 15589 4.42906e-07
74 51 0.00186065
74 54 0.710922
74 188 9.68057e-07
74 3728 0.00382464
74 4195 0.218442
74 4249 1.9752e-05
74 5236 0.00368179
74 5742 0.0046966
74 6379 0.00400383
74 7078 7.41878e-07
74 8859 0.0476601
74 8860 1.76712e-07
74 13295 0.00104256
74 19665 0.00384384
75 55 0.653315
75 196 0.00402128
75 823 1.58213e-07
75 909 0.032864
75 1437 0.221159
75 1508 3.61094e-06
75 1730 0.00431511
75 1973 0.00585896
75 2299 0.00821475
75 2365 0.0207653
75 4329 0.0129343
75 4999 1.34219e-07
75 5070 0.0116026
75 6610 5.52954e-05
75 7008 1.98278e-07
75 7497 0.00821648
75 8886 6.1974e-06
75 12705 0.000234191
75 16744 0.0041082
75 16931 0.00410796
75 19186 0.00821649
76 14 0.0775038
76 22 3.04943e-05
76 34 1.14282e-06
76 35 0.901183
76 79 2.29023e-06
76 215 0.00608905
76 286 7.28816e-07
76 315 0.000128534
76 385 1.00113e-07
76 440 1.9904e-07
76 457 8.29933e-07
76 465 1.29824e-07
76 473 0.00174892
76 479 1.29594e-06
76 683 4.91374e-06
76 759 0.0117955
76 975 1.54677e-07
76 991 5.24654e-06
76 994 0.00121057
76 1041 1.09659e-06
76 1369 3.06522e-07
76 1837 1.00082e-07
76 1993 1.32347e-07
76 2086 1.03019e-07
76 2219 3.55134e-06
76 2407 1.37021e-06
76 2511 1.40688e-07
76 3082 3.64294e-06
76 3244 1.02525e-07
76 3421 1.73505e-07
76 3728 0.000236924
76 4589 2.95201e-07
76 4906 2.726e-05
76 5313 4.39612e-07
76 5742 5.53092e-07
76 5957 2.38438e-07
76 5965 1.10066e-07
76 6149 2.03958e-07
76 6418 8.64096e-06
76 7829 1.21888e-07
76 10661 1.1448e-06
76 11361 1.13617e-07
76 12968 1.57006e-07
76 13136 1.77652e-07
76 14383 3.83808e-07
76 17706 1.98743e-07
76 18714 1.89879e-06
76 24581 6.01098e-07
77 7 1.02696e-07
77 52 0.141878
77 53 0.604574
77 58 0.0413391
77 63 1.7809e-07
77 76 0.026661
77 94 0.00592978
77 121 0.0209841
77 145 6.26378e-07
77 181 0.100136
77 190 3.12582e-06
77 193 6.40027e-06
77 463 0.00257114
77 466 1.19213e-07
77 476 0.0240724
77 770 4.38069e-07
77 958 0.000444345
77 976 2.88865e-07
77 994 0.00482142
77 1020 0.0228197
77 1075 1.43133e-07
77 1411 0.00189884
77 1448 6.5018e-07
77 1626 2.34486e-07
77 2097 1.39164e-06
77 2115 1.85904e-07
77 3497 1.90925e-07
77 3851 4.09818e-07
77 4087 7.14637e-07
77 4258 1.9756e-07
77 4269 0.000415767
77 5078 0.000950093
77 6178 0.000440755
77 6179 1.67319e-07
77 6227 6.91722e-07
77 6596 1.71845e-07
77 8158 9.02086e-07
77 10557 1.8329e-06
77 11826 2.49228e-07
77 11870 2.10593e-07
77 11922 3.40989e-07
77 12345 2.88745e-05
77 12595 1.19662e-07
77 13156 7.31746e-06
77 13342 3.33308e-07
77 13617 1.20112e-07
77 13931 3.64061e-07
77 15570 1.40645e-07
77 18744 2.27655e-07
77 21062 4.47766e-07
77 22057 2.32648e-07
77 23466 1.24051e-07
77 24022 1.40457e-07
77 25413 1.11587e-07
77 27110 1.59634e-07
78 26 0.00793441
78 33 0.160416
78 58 3.22142e-05
78 142 0.000184315
78 143 0.397362
78 146 0.0788815
78 152 1.10605e-07
78 219 4.25818e-05
78 221 3.54171e-07
78 337 0.0601497
78 368 2.2497e-06
78 376 0.0985199
78 436 1.05701e-06
78 457 1.01594e-07
78 465 0.069392
78 466 0.00611087
78 474 2.65342e-05
78 479 3.94488e-07
78 510 1.15635e-05
78 585 9.72466e-07
78 770 1.43448e-06
78 804 1.95132e-05
78 828 1.83853e-07
78 885 0.089166
78 1275 3.96882e-07
78 1304 5.62912e-07
78 1369 0.0286426
78 1916 1.01836e-07
78 2853 1.0765e-05
78 2983 0.00302323
78 3112 6.05427e-07
78 3978 4.0004e-07
78 4269 1.24015e-07
78 4469 1.05078e-05
78 5313 1.33819e-07
78 9223 1.95812e-07
78 9474 1.85894e-05
78 10581 3.02183e-07
78 13136 1.13408e-07
78 16813 1.07832e-06
78 17353 5.70221e-07
78 18076 3.05572e-05
78 18491 3.91999e-07
78 20400 1.63321e-06
78 23030 1.39346e-07
79 7 3.4238e-06
79 33 0.449737
79 57 0.304619
79 80 0.0130202
79 107 2.62081e-06
79 123 0.000177645
79 202 2.80252e-06
79 219 4.24827e-07
79 221 3.93715e-06
79 232 1.53023e-07
79 244 0.00423969
79 306 6.87863e-06
79 319 4.69559e-07
79 457 5.15767e-07
79 466 0.0442445
79 486 0.00591401
79 790 1.43919e-07
79 940 1.96323e-07
79 941 3.04e-06
79 1075 1.3551e-07
79 1120 1.52376e-07
79 1204 6.18522e-06
79 1219 5.91063e-07
79 1231 2.7199e-07
79 1275 4.36544e-06
79 1289 6.07845e-07
79 1325 3.46413e-06
79 1369 0.1699
79 1724 0.000566577
79 1744 6.3768e-07
79 1782 6.54727e-06
79 2148 4.66102e-07
79 2453 2.0495e-06
79 2554 1.98967e-05
79 2983 0.00139115
79 3112 3.42116e-07
79 3143 0.00134907
79 3886 2.66097e-05
79 4122 0.00387129
79 4138 1.5786e-05
79 4894 1.20328e-06
79 5039 0.000109285
79 5195 3.08873e-06
79 5566 2.36608e-07
79 5950 0.000269479
79 7390 0.000139352
79 7881 1.0052e-07
79 8043 1.15825e-07
79 8150 2.42642e-06
79 8156 0.00014484
79 8286 1.21804e-07
79 11494 5.78282e-07
79 14488 0.000179358
79 15390 1.1683e-06
79 17238 2.23161e-06
79 17270 4.06717e-07
79 17604 1.86623e-07
79 18473 1.23368e-07
79 23030 1.25327e-07
79 26885 4.22361e-07
80 3 9.36947e-05
80 33 0.00932364
80 52 5.27519e-07
80 57 0.410697
80 77 0.000226076
80 79 2.35403e-07
80 80 0.11323
80 81 2.73645e-05
80 108 1.85929e-05
80 123 0.104144
80 125 0.016738
80 145 5.68612e-07
80 190 0.00265827
80 194 9.14851e-06
80 219 2.61293e-06
80 221 0.0001069
80 306 4.20817e-05
80 337 5.38975e-05
80 345 1.51053e-07
80 368 0.00158369
80 436 3.44262e-07
80 466 0.199476
80 486 2.46499e-07
80 564 1.16607e-07
80 773 0.00227742
80 804 4.50174e-05
80 1263 0.00145977
80 1275 1.72495e-06
80 1294 1.26852e-07
80 1369 0.0155213
80 1597 0.0681323
80 1611 0.0127919
80 1744 2.43108e-06
80 1923 1.43216e-07
80 2046 1.81414e-07
80 2086 4.64442e-06
80 2148 0.000240867
80 2343 0.0286006
80 3856 2.23334e-07
80 4485 1.17652e-07
80 4894 1.42415e-07
80 5124 0.00464758
80 5150 1.7761e-07
80 5726 0.00301173
80 5950 0.00437541
80 6054 1.62688e-06
80 7907 8.39797e-06
80 8043 1.69386e-07
80 8561 3.99849e-07
80 10529 0.000438288
80 11534 1.13391e-06
80 11837 1.46205e-07
81 11 0.00392211
81 95 0.105615
81 100 7.72759e-07
81 143 4.46539e-06
81 165 0.000291339
81 219 0.125989
81 262 1.66722e-05
81 289 6.35759e-06
81 306 0.0384849
81 319 0.266121
81 466 0.000104926
81 486 2.18376e-05
81 865 6.18656e-07
81 1219 0.00243974
81 1235 6.45248e-06
81 1611 0.338041
81 2889 0.0588741
81 3249 4.38931e-05
81 4705 1.59657e-05
81 9135 0.00234216
81 9734 0.000111797
81 10104 7.50303e-06
81 15763 0.0575337
81 24405 4.72849e-06
82 7 0.0111316
82 51 2.68098e-07
82 56 0.653903
82 64 0.0686195
82 149 0.0144797
82 178 3.81048e-06
82 440 1.39261e-07
82 862 0.0112867
82 1082 0.11286
82 3624 0.0451482
82 4204 0.0451333
82 5561 0.0112873
82 7486 2.11845e-07
82 17706 0.0112713
82 17766 0.00380645
82 24972 0.0110688
83 58 0.000627218
83 59 0.0244839
83 60 0.171422
83 421 0.0244888
83 425 0.0489776
83 777 0.19591
83 802 0.0443222
83 2805 0.0244888
83 3231 0.0489776
83 3682 0.0734977
83 3756 0.0979552
83 3814 0.0244888
83 4583 0.0244888
83 4748 0.0489776
83 8324 0.0244888
83 12375 0.0244849
83 12376 0.0489772
83 12377 0.0244543
83 16548 0.0244888
84 18 0.0445798
84 61 0.107803
84 94 0.0132064
84 140 0.0002195
84 168 1.95278e-07
84 215 1.0705e-05
84 241 0.0398327
84 245 0.0380811
84 265 1.40897e-07
84 278 0.0030928
84 313 0.0034185
84 364 0.000702348
84 463 2.00444e-07
84 476 3.93876e-07
84 505 0.0358016
84 576 0.0039311
84 648 0.0477356
84 676 7.889e-05
84 761 0.00738425
84 811 0.0552915
84 812 4.50077e-06
84 873 0.00397702
84 973 0.000137648
84 1026 0.000185427
84 1027 0.00397792
84 1308 1.05382e-07
84 1452 0.024428
84 1461 0.00397841
84 1472 1.75036e-06
84 1547 0.0149614
84 1552 0.000509616
84 1605 0.00665738
84 1651 0.00397873
84 1745 0.00380356
84 1916 0.000282188
84 2007 0.00397552
84 2047 0.0190228
84 2055 1.28439e-06
84 2110 0.0041393
84 2152 0.1074
84 2203 3.99332e-05
84 2324 0.0437904
84 2437 4.58596e-05
84 2565 0.0274632
84 2740 0.00473712
84 2950 0.00795531
84 3040 0.00393611
84 3797 0.0278405
84 3951 5.70913e-07
84 4241 0.00399065
84 4348 0.00397788
84 4443 1.41059e-05
84 4781 0.000126709
84 5039 1.7233e-06
84 5295 2.01928e-06
84 5357 0.0160125
84 5452 2.47894e-07
84 5484 5.96946e-07
84 5712 8.65132e-06
84 5856 0.00384169
84 5922 0.00397387
84 5941 0.015933
84 6058 0.0122328
84 6109 0.00397782
84 6418 0.00415047
84 6703 1.70135e-06
84 7416 0.00397612
84 7550 0.00444152
84 7594 0.0200111
84 7947 0.00236375
84 8041 0.000141262
84 8407 2.58887e-06
84 8488 0.00398409
84 8737 0.00795266
84 8829 0.0198896
84 8879 0.0159115
84 9117 2.83111e-06
84 9206 3.35048e-07
84 9210 0.00397791
84 9881 0.000147706
84 9926 1.43861e-07
84 10024 5.97815e-07
84 10039 3.55063e-06
84 10248 0.00397721
84 10886 0.00423712
84 11231 0.0119339
84 11354 2.84006e-07
84 11425 3.99622e-06
84 12598 2.19212e-05
84 13194 0.00128785
84 13606 0.00386724
84 13872 1.16199e-07
84 14304 0.00414467
84 14439 7.66298e-06
84 14899 0.00103618
84 15231 0.00397788
84 15775 0.00397786
84 15805 0.0119327
84 16407 0.00397733
84 17003 0.00397793
84 17421 1.3074e-07
84 17615 0.00397788
84 17650 0.00380199
84 17653 0.00403605
84 17766 0.0066118
84 17994 0.000664258
84 18165 0.00396765
84 18476 1.09611e-07
84 18737 0.00795569
84 19331 0.00383128
84 20135 0.00382897
84 20521 0.000193434
84 20680 0.00398058
84 20832 0.000429329
84 21519 0.00290404
84 21570 4.08779e-07
84 22057 0.00226005
84 22170 0.00397788
84 22934 1.91242e-07
84 22992 0.00397797
84 23506 3.7188e-05
84 23646 1.16166e-07
84 24399 0.00388906
84 24743 0.00397787
84 24764 1.53516e-05
84 25955 0.00397658
84 26680 0.00388224
84 27926 2.13054e-06
85 57 7.49743e-06
85 82 0.971922
85 124 5.57916e-05
85 133 1.65077e-05
85 148 1.92034e-06
85 159 1.42285e-05
85 182 3.75142e-05
85 190 3.39168e-06
85 245 9.76674e-05
85 262 2.48392e-07
85 307 1.29376e-05
85 384 8.73807e-07
85 629 0.0125535
85 769 7.15481e-05
85 773 0.000491184
85 849 8.17329e-06
85 936 8.47188e-07
85 1363 1.7961e-06
85 1369 0.00442079
85 1547 2.91993e-07
85 1597 6.36548e-07
85 2152 0.000209338
85 2196 9.62798e-05
85 3320 4.43918e-07
85 3426 1.33754e-07
85 4345 1.52011e-06
85 4906 0.000281927
85 5631 4.73328e-07
85 5684 8.32554e-07
85 6840 4.6125e-07
85 7478 1.17496e-07
85 7642 0.00167937
85 7907 1.78887e-05
85 9591 1.91826e-07
85 11826 1.87556e-05
85 12219 0.00389858
85 13736 3.78325e-07
85 16067 1.14486e-07
85 24581 2.21214e-06
85 24816 0.00406993
85 26645 2.99959e-07
86 62 0.141294
86 82 1.21886e-07
86 165 3.97072e-06
86 250 0.174539
86 411 0.174828
86 830 0.367951
86 1286 0.132983
86 13604 8.9525e-05
86 14476 0.00831144
87 63 0.505937
87 89 6.61373e-06
87 94 0.000735129
87 189 0.000693354
87 239 0.0269915
87 242 2.79469e-05
87 479 0.175223
87 532 0.0203664
87 1072 0.0168359
87 1392 1.03932e-06
87 1828 0.114424
87 3118 0.0269905
87 3207 0.0202425
87 4087 0.0067476
87 4671 0.000452191
87 5293 0.074188
87 12161 0.00337379
87 15991 1.54545e-05
87 16066 4.5702e-07
87 17931 0.00337375
87 22894 0.00337377
88 7 0.0639334
88 56 0.177696
88 64 0.111062
88 149 0.175372
88 183 3.69357e-07
88 190 0.0193961
88 862 0.00696171
88 1082 0.0425315
88 1092 0.0222121
88 1185 0.0444241
88 1426 0.0222103
88 1806 7.50115e-07
88 2282 0.0444145
88 2545 4.56833e-06
88 2720 0.0489157
88 3398 0.0221978
88 3671 0.0444201
88 4153 0.0665064
88 9701 0.0222122
88 10771 0.0211055
88 16886 0.0222106
88 17283 0.0222114
89 53 1.13267e-05
89 65 0.392315
89 74 6.6146e-06
89 758 0.00306666
89 2365 0.000470921
89 2914 0.509063
89 3802 0.00306664
89 4328 0.0797328
89 7057 0.00306664
89 23031 0.00306661
89 23032 0.00613328
90 66 0.141691
90 1041 0.010192
90 2953 0.0197524
90 2959 0.0158778
90 3528 0.0108991
90 3601 0.381471
90 3602 0.076209
90 3758 2.36511e-05
90 4441 0.000325123
90 4522 0.0218279
90 5705 0.0143176
90 7077 0.108993
90 7259 3.71431e-07
90 7323 0.0108985
90 10185 0.0435969
90 11417 0.010999
90 11526 0.000160235
90 15234 0.0141664
90 16461 0.0174675
90 17022 0.0108993
90 17993 0.0435971
90 18409 4.84433e-07
90 18667 9.83632e-07
90 19149 0.0108983
90 21162 0.0108992
90 22657 2.05764e-07
90 24487 0.0135481
90 25135 0.011289
91 67 0.499999
91 14281 0.25
91 24796 0.25
92 2 1.79223e-07
92 68 0.286641
92 106 0.0176166
92 420 2.62351e-05
92 1465 0.0179142
92 1887 0.0537293
92 2681 0.125388
92 2735 0.41154
92 4671 0.0155131
92 5631 0.0175019
92 6361 0.017915
92 7071 3.49095e-07
92 7072 4.33157e-07
92 12828 0.00421019
92 14908 0.0140884
92 15512 0.0179151
93 69 0.168316
93 74 4.05671e-07
93 79 1.34299e-07
93 80 0.0251629
93 89 0.207384
93 486 1.50802e-07
93 579 0.0647305
93 769 0.0126733
93 882 0.0125905
93 2007 1.41752e-07
93 2400 0.012946
93 9001 1.76897e-07
93 9766 0.0258924
93 11367 0.0562997
93 11378 0.297763
93 11402 0.0258924
93 13341 0.0127082
93 13342 0.0129444
93 17329 9.22347e-07
93 18968 0.0258919
93 23442 0.0129446
93 24665 0.0129128
93 26480 0.012946
94 53 1.92353e-07
94 70 0.0478878
94 81 2.76195e-07
94 89 0.0886595
94 282 0.0119719
94 285 2.60589e-05
94 608 0.011354
94 831 0.0672427
94 1384 8.81354e-06
94 1889 0.107966
94 2334 5.25895e-05
94 2536 0.0718316
94 3071 0.0239428
94 4199 0.0239435
94 4697 0.107748
94 5195 0.00118413
94 5210 0.0598598
94 5220 0.0478879
94 6591 0.011972
94 8943 2.91086e-07
94 9001 0.0120314
94 9059 0.00336667
94 9617 0.00181999
94 10493 0.0239438
94 11109 0.0119195
94 11750 0.0119719
94 13497 1.21526e-07
94 14957 0.011972
94 14958 0.0119718
94 15938 0.143662
94 16565 0.0359137
94 16700 0.0119719
94 17396 0.011972
94 20738 0.0119719
94 25069 0.0119719
94 27859 1.28251e-07
95 74 0.589345
95 145 1.01379e-07
95 173 0.000579059
95 197 3.93116e-06
95 215 1.31244e-06
95 283 0.173652
95 520 7.49554e-07
95 676 9.87211e-06
95 770 0.00105925
95 858 0.0368628
95 885 0.0122558
95 976 2.26118e-06
95 1202 0.0184788
95 1251 0.01232
95 1253 0.0157834
95 1275 3.25988e-07
95 1768 0.0190545
95 1828 0.00551374
95 1992 0.081648
95 2002 1.25399e-05
95 2983 0.000229591
95 3133 4.13531e-06
95 3230 0.00101725
95 3247 3.95047e-05
95 3743 5.8395e-07
95 4023 0.00990321
95 4115 8.64547e-06
95 4290 0.000764985
95 4350 1.16828e-07
95 4794 0.0047396
95 5823 0.00101161
95 7100 0.00352175
95 7343 0.00276323
95 7797 0.00435389
95 8041 9.18574e-07
95 9001 4.33925e-07
95 9307 1.99885e-06
95 9903 2.28979e-05
95 9974 0.00474086
95 10296 0.000278519
95 10625 3.19203e-07
95 10985 1.00914e-07
95 13036 5.62699e-06
95 18211 1.32969e-07
95 21856 2.0891e-06
95 22735 1.19877e-07
95 25951 1.04534e-06
96 52 0.0381634
96 53 0.958772
96 79 2.16821e-06
96 94 0.0011971
96 195 5.4742e-07
96 436 1.69475e-06
96 1369 3.69916e-05
96 1499 1.67737e-06
96 1678 6.87695e-07
96 1684 9.22772e-07
96 1768 1.59454e-07
96 1951 1.2642e-07
96 2007 3.75208e-07
96 2044 6.39885e-07
96 2160 3.58057e-06
96 3153 1.95275e-06
96 3319 1.45491e-07
96 3497 1.69215e-07
96 4231 2.10198e-06
96 4692 1.46406e-07
96 5492 8.082e-07
96 5584 2.26405e-07
96 6418 0.00136025
96 6644 2.08999e-07
96 6865 1.73367e-07
96 7021 2.60455e-07
96 8099 2.95201e-07
96 8136 3.21841e-06
96 9001 2.93074e-07
96 12614 5.33273e-06
96 12724 8.96417e-07
96 13911 1.01404e-07
96 15024 1.32721e-07
96 16419 9.73881e-06
96 17369 0.000268663
96 17883 4.45599e-06
96 17932 1.72513e-06
96 18714 0.000107919
96 18769 4.51805e-05
96 19553 1.78166e-07
96 23084 1.80185e-07
96 24760 3.44785e-07
97 26 5.57167e-06
97 71 6.32625e-07
97 94 0.0111153
97 169 0.00526817
97 758 0.0284177
97 1520 0.0142567
97 2448 6.52101e-07
97 2537 0.442368
97 5207 2.56796e-06
97 6202 0.0276667
97 6455 0.014261
97 7330 0.0142701
97 7917 0.0285401
97 9001 5.66292e-07
97 11407 0.228321
97 12214 0.01427
97 13505 0.156971
97 19466 0.0142638
98 71 0.0282791
98 72 1.53273e-07
98 143 0.000362715
98 146 0.012855
98 642 0.0131424
98 1700 0.0706989
98 1940 4.08492e-07
98 2160 0.000687598
98 2190 0.0282798
98 3421 3.25434e-05
98 5654 0.0542578
98 5775 0.0137891
98 6136 0.0424197
98 6360 0.0282791
98 6693 0.0565486
98 6743 0.0147482
98 7055 0.0282798
98 7316 0.0141382
98 7351 0.0565596
98 7825 0.0282796
98 7942 0.0141877
98 9240 0.0141397
98 10456 0.0141399
98 10901 0.0141399
98 12215 0.0424196
98 13398 0.0282748
98 13960 0.013653
98 14735 4.82412e-07
98 15531 0.0282797
98 16308 0.013889
98 16625 0.0141399
98 16706 0.0424171
98 17100 0.0141399
98 17479 0.0141398
98 17590 0.0848363
98 18186 0.0141565
98 18582 0.0282798
98 19061 0.0141399
98 20384 4.7226e-06
98 20856 0.0141399
98 20954 3.38772e-07
98 21333 0.0141399
98 22477 0.0141399
98 23619 8.42651e-07
98 23792 0.0141399
98 24039 4.18604e-07
98 25327 0.0141365
98 25753 6.67373e-06
98 26688 0.0141399
98 27973 0.0141399
99 73 0.598038
99 785 3.93191e-07
99 4979 0.0196078
99 5903 0.147058
99 6146 0.0931369
99 8004 0.142156
99 11958 2.08907e-06
100 2 5.91773e-06
100 33 4.43357e-05
100 57 3.8923e-07
100 74 1.73587e-06
100 145 6.8004e-07
100 169 0.0349455
100 195 0.0324969
100 221 0.0318607
100 289 0.0338946
100 421 0.0351222
100 508 0.0338732
100 599 0.035225
100 620 0.00704174
100 715 0.00402194
100 892 0.0353481
100 1369 0.034988
100 1487 0.0352244
100 1500 0.028773
100 1598 4.03012e-05
100 2358 5.16527e-05
100 2545 0.0345346
100 2601 0.0352245
100 3214 0.0352248
100 4237 0.0370181
100 4779 0.0352246
100 5288 0.0350357
100 5760 0.000103537
100 5823 0.0230753
100 6123 1.16898e-05
100 6298 0.0352246
100 6301 0.0352242
100 7822 0.027472
100 8579 0.0329262
100 9617 3.99728e-06
100 9675 0.0352054
100 11410 0.0352247
100 11972 0.0349861
100 12622 4.08342e-07
100 14396 1.10403e-05
100 16893 0.0352207
100 17251 0.0352248
100 19324 0.00964172
100 24057 0.0299973
100 26923 0.035224
101 32 5.78983e-06
101 74 1.17518e-06
101 75 0.0102669
101 94 0.00334207
101 101 2.8545e-07
101 812 9.53686e-05
101 1444 0.0171126
101 1673 0.448443
101 1749 0.0136891
101 3731 0.290895
101 3734 0.102704
101 3739 1.03614e-07
101 3887 0.00294802
101 9234 0.0787118
101 9922 0.00713771
101 10024 4.3013e-07
101 10477 0.00684472
101 11419 1.79686e-07
101 11494 0.000647908
101 12265 2.79478e-06
101 13300 0.0102667
101 14709 0.00342229
101 19977 0.00335046
101 20441 4.4024e-07
101 26287 0.000110901
102 2 0.000434951
102 123 0.0128103
102 223 2.50757e-05
102 315 6.24888e-07
102 363 0.0114898
102 367 0.471269
102 385 0.0114837
102 812 4.14942e-05
102 849 3.09591e-07
102 933 0.0114744
102 1041 0.330043
102 1046 0.000151827
102 1178 0.0114887
102 1411 0.0933036
102 1780 0.00166776
102 2148 0.000181589
102 2178 2.74955e-06
102 2327 0.000437626
102 2364 4.40526e-07
102 2594 0.0114497
102 3035 0.0114439
102 4877 2.53455e-07
102 5348 1.28083e-05
102 5631 2.05229e-05
102 5838 0.00026888
102 6996 8.74918e-06
102 11053 3.83156e-06
102 11329 2.37946e-07
102 11534 9.76974e-07
102 12538 0.0117797
102 13002 7.387e-05
102 13669 6.25235e-07
102 19580 0.00106938
102 20262 2.8665e-07
102 21313 2.55213e-05
102 21332 0.00752773
102 22947 4.7638e-07
102 23176 5.44567e-06
103 52 0.0351068
103 53 0.00354237
103 79 0.472522
103 80 8.72466e-06
103 123 0.0332388
103 136 3.58514e-07
103 139 0.00267396
103 148 1.28714e-07
103 232 1.77308e-05
103 245 5.93581e-06
103 261 1.34035e-07
103 341 1.83523e-07
103 374 3.18484e-07
103 376 1.91466e-05
103 579 0.00403987
103 633 0.000521065
103 687 1.15726e-07
103 773 0.411206
103 811 0.00240497
103 858 0.0152602
103 1305 1.01073e-06
103 1461 1.52397e-07
103 2097 0.0193345
103 2288 3.26024e-06
103 2404 3.68088e-06
103 2407 5.62283e-07
103 3017 5.2131e-05
103 3310 9.08002e-07
103 3398 1.01698e-07
103 3497 3.42074e-07
103 4076 2.89612e-07
103 4441 1.9916e-07
103 4787 1.19772e-07
103 4857 2.27261e-06
103 5211 2.87812e-07
103 5305 1.6874e-07
103 6724 1.06275e-07
103 7626 1.9715e-07
103 8476 1.16601e-07
103 8660 3.69199e-07
103 9315 3.75624e-07
103 10204 2.2858e-06
103 10818 1.07412e-07
103 13481 1.22682e-07
103 13659 8.61492e-06
103 13675 1.61065e-06
103 13878 1.352e-06
103 13958 1.09418e-06
103 14054 1.2667e-07
103 16327 9.37423e-07
103 16637 1.81348e-06
103 21154 3.13828e-07
103 22057 1.82083e-07
103 22403 1.2057e-07
103 22696 2.01204e-06
103 22860 9.43433e-07
103 23030 2.23805e-07
103 23419 4.71074e-06
103 24089 3.8009e-07
103 26418 1.09424e-07
104 35 0.272454
104 81 1.47372e-07
104 83 0.497265
104 99 5.85213e-06
104 148 0.00107237
104 157 0.130956
104 221 0.000522895
104 264 1.13113e-07
104 287 0.00195974
104 319 8.93997e-05
104 370 1.78618e-07
104 977 3.50458e-06
104 1308 0.046534
104 1332 0.00782514
104 1390 0.0362534
104 1901 9.37244e-05
104 2373 4.64267e-06
104 3239 2.49676e-07
104 7216 0.0032424
104 8236 1.77645e-05
104 13546 9.56888e-06
104 14428 1.41435e-07
104 15059 0.000637941
104 17219 0.000505491
104 25510 0.000544101
104 27630 2.85504e-07
105 2 0.451808
105 22 0.0147538
105 80 0.00067508
105 149 1.33375e-06
105 152 0.00246652
105 286 0.0170199
105 367 0.193403
105 383 0.0171389
105 384 0.0167956
105 392 0.0169684
105 465 2.44673e-06
105 585 0.000685165
105 773 0.017126
105 804 0.0171325
105 806 0.0171356
105 862 0.0171384
105 919 6.94428e-06
105 1041 0.0172117
105 1411 0.0170957
105 1588 0.0798748
105 1598 0.0171391
105 3230 0.0170207
105 4350 1.50223e-06
105 10725 7.49944e-07
105 11728 0.0171387
105 17882 0.0171389
105 19065 0.0171199
106 84 0.583387
106 85 0.083167
106 2886 0.250023
106 4469 7.65139e-05
106 5291 5.70439e-06
106 8960 0.0833405
107 85 0.0259324
107 87 0.0517567
107 94 0.100073
107 447 0.000648135
107 1770 0.0516188
107 2090 0.051757
107 2886 0.0258785
107 3333 0.0258785
107 5383 0.0258779
107 6102 0.000373985
107 6104 0.232906
107 10316 0.0258785
107 10382 0.129392
107 10507 0.0258783
107 11191 0.0258782
107 12189 1.4603e-05
107 15844 0.0257762
107 16333 0.0258783
107 17949 0.0258785
107 18121 0.0709224
107 18123 0.0517554
107 18128 3.1187e-06
107 24982 4.25316e-05
108 7 3.21057e-07
108 82 4.42617e-07
108 86 0.0943632
108 88 0.188727
108 1169 0.0566165
108 1733 0.01888
108 2149 1.21109e-05
108 3500 0.0188728
108 6102 0.0752183
108 10506 0.283092
108 19482 0.113236
108 19483 0.0754905
108 22793 0.0377455
108 23018 0.0377451
109 53 2.503e-05
109 89 2.09503e-07
109 109 0.0417643
109 112 0.0276645
109 138 3.02113e-06
109 196 2.40408e-07
109 283 0.00573798
109 367 0.365775
109 510 0.00676511
109 862 0.042362
109 1041 5.61696e-07
109 1053 4.15637e-05
109 1411 0.0524803
109 2087 1.23337e-06
109 2132 1.75215e-07
109 5558 1.64243e-06
109 6963 1.26607e-06
109 7297 0.436525
109 7671 0.0138067
109 9011 1.57811e-07
109 9512 0.00695066
109 10204 3.34555e-07
109 11400 1.82659e-07
109 14090 4.16029e-06
109 20176 3.09333e-07
109 21907 5.68944e-05
109 24489 3.07059e-05
109 26247 6.4442e-07
110 72 0.000672407
110 89 0.664402
110 93 3.69522e-07
110 95 1.1617e-07
110 139 2.93232e-05
110 194 1.70242e-07
110 293 2.6876e-06
110 319 6.26347e-06
110 369 4.25929e-07
110 447 1.29184e-05
110 510 0.0013301
110 542 0.00181878
110 585 5.03589e-06
110 828 0.00243126
110 831 0.0322887
110 1017 1.92242e-07
110 1141 0.00422249
110 1304 0.0834993
110 1463 0.0582333
110 1510 0.143114
110 1588 4.16046e-07
110 1684 0.000490976
110 1828 0.00226616
110 2506 0.00214892
110 3153 0.00242851
110 3386 9.60536e-06
110 5489 0.000417398
110 5950 5.8842e-07
110 20436 0.000163002
110 25881 3.07772e-07
110 27513 3.31746e-06
111 9 0.0564492
111 60 0.056442
111 89 0.0999851
111 107 1.34684e-06
111 220 0.0564492
111 221 8.75882e-06
111 947 0.0563604
111 1733 0.0564492
111 2783 0.0564492
111 3608 0.0564488
111 5361 0.0553994
111 6378 0.0545077
111 6702 9.24719e-07
111 7100 0.0564492
111 8570 0.0563544
111 8571 0.056449
111 8572 0.0564489
111 12618 0.0564489
111 14786 0.0564491
111 24943 0.0564492
112 72 2.63256e-07
112 90 0.00314734
112 91 0.0939777
112 95 0.0668233
112 3426 0.0751822
112 4348 0.00470208
112 5949 0.0548024
112 14681 0.16916
112 16150 0.150361
112 16153 0.0563865
112 17368 0.187731
112 17370 0.0375909
112 19692 3.16461e-06
112 19847 0.0563864
112 20910 0.0187954
112 21493 0.0187941
112 27345 0.00615697
113 13 3.74635e-07
113 90 3.8874e-05
113 92 0.13805
113 483 0.379587
113 1579 0.310613
113 2288 0.0345119
113 3851 0.0336648
113 4208 0.0345122
113 17740 0.0345093
113 20326 0.0345124
114 93 0.0227224
114 94 0.031057
114 95 0.291706
114 96 0.0585066
114 283 0.00159147
114 1194 0.0453994
114 1599 0.0111914
114 4723 0.0226647
114 5787 0.0681096
114 6106 0.295142
114 7084 0.103772
114 8258 0.0113516
114 11354 0.0132573
114 13705 3.71347e-06
114 19041 0.023525
115 79 5.08954e-06
115 100 0.56281
115 165 0.0010698
115 168 5.8133e-07
115 307 0.0124311
115 319 0.192908
115 394 3.254e-07
115 404 8.52674e-06
115 416 0.0659228
115 440 4.78712e-06
115 554 0.140865
115 585 2.36179e-06
115 621 0.00206965
115 702 0.00103804
115 803 1.52045e-07
115 1271 0.000220532
115 1275 2.09962e-06
115 1369 4.29994e-07
115 2853 0.0170826
115 2928 1.20031e-06
115 2983 5.24079e-07
115 4931 1.57897e-07
115 6198 1.7943e-06
115 6202 0.00346532
115 7297 7.24926e-05
115 8606 1.13246e-07
115 9147 3.18327e-06
115 9179 8.81665e-06
115 13156 1.45038e-06
115 15370 3.41283e-07
115 15675 1.0682e-07
115 17220 1.16128e-07
115 19127 3.67937e-07
116 35 0.0498914
116 83 0.0299195
116 99 0.695717
116 157 0.0224774
116 168 1.91315e-07
116 219 1.84264e-07
116 1275 7.24684e-07
116 2373 0.164534
116 2818 0.0075185
116 3394 3.75433e-07
116 5054 0.00748001
116 10551 0.0074805
116 11953 1.45018e-06
116 12413 1.28453e-05
116 14244 5.30404e-06
116 21362 0.0149595
116 21459 3.47183e-07
116 23514 2.97303e-07
117 52 3.46391e-07
117 101 0.41072
117 107 8.43422e-07
117 160 0.0427055
117 217 0.491906
117 996 3.36349e-06
117 1255 0.000690581
117 1903 0.0115166
117 2179 2.00205e-06
117 2335 0.000676633
117 2633 0.0216524
117 3573 1.19757e-06
117 4683 0.00470679
117 5752 1.48904e-06
117 8054 0.0109132
117 9032 0.00202991
117 10886 1.00064e-07
117 10975 0.00230734
117 12196 1.39581e-07
117 20167 1.30365e-06
117 27983 0.00016318
118 18 1.99963e-06
118 72 0.73533
118 76 0.0528952
118 142 0.000909123
118 146 0.203673
118 164 5.34584e-07
118 187 2.57838e-05
118 188 6.29719e-06
118 465 1.1219e-07
118 479 4.70367e-07
118 935 0.00018968
118 1202 0.00479695
118 1468 1.01428e-05
118 1834 1.2186e-07
118 2044 1.75305e-06
118 2293 1.20643e-07
118 2372 0.000129773
118 2822 1.47631e-06
118 3946 3.34707e-07
118 4327 0.000482744
118 5816 5.01294e-06
118 5901 1.29056e-07
118 7303 1.3907e-07
118 8190 2.46759e-06
118 8832 0.000589635
118 11479 1.32908e-07
118 11870 2.79808e-06
118 15177 0.000245918
118 16281 1.57697e-07
118 16389 6.68024e-07
118 17676 3.45659e-07
118 18865 0.00066658
118 22696 2.18128e-07
118 23405 1.25062e-07
118 26813 1.52439e-05
118 27976 1.21816e-05
119 102 0.194651
119 284 0.0335606
119 329 0.0671212
119 643 0.335592
119 2007 4.78015e-07
119 3758 2.57242e-07
119 6185 5.53451e-07
119 6697 0.315469
119 7801 0.0469741
119 8779 1.51765e-05
119 14949 8.13592e-06
119 19130 2.83264e-07
119 19484 0.00660539
119 24738 7.41053e-07
120 103 0.99974
120 142 1.18681e-05
120 15124 0.000247727
121 58 0.000137984
121 104 0.429224
121 106 0.504325
121 173 0.000172399
121 194 1.89469e-05
121 1146 0.00048024
121 1544 0.000689227
121 2729 0.000457718
121 3330 0.000480229
121 3451 1.00407e-07
121 3476 0.0571644
121 3515 0.00012342
121 5128 0.00407933
121 5189 0.000463892
121 6234 1.66257e-07
121 6561 4.97932e-06
121 8013 3.53619e-06
121 14253 8.45921e-06
121 15569 1.86732e-06
121 17279 0.00144046
121 21862 0.00021143
121 24343 3.11671e-05
121 25337 0.000480214
122 7 0.000121987
122 107 0.665795
122 188 3.70092e-05
122 194 3.12016e-07
122 221 6.62234e-05
122 240 0.00100888
122 261 0.00453408
122 342 0.00102614
122 367 8.97104e-07
122 379 0.00192061
122 726 0.319274
122 1141 4.72538e-05
122 1193 2.58247e-07
122 1769 2.2853e-07
122 1784 4.73399e-07
122 1923 1.63841e-07
122 1992 1.17533e-07
122 2436 0.00490005
122 2819 2.42714e-06
122 2856 1.08707e-07
122 3696 4.48197e-07
122 4231 7.23978e-06
122 6008 2.15599e-05
122 6205 0.00109662
122 6386 3.30466e-07
122 6979 4.72351e-07
122 8864 2.06032e-07
122 13052 1.7195e-06
122 15849 8.87337e-07
122 19291 0.00013301
123 35 6.00516e-07
123 57 2.97352e-06
123 107 5.28191e-07
123 108 0.673372
123 121 0.00266532
123 146 3.55304e-07
123 152 0.0489231
123 177 1.38758e-07
123 182 0.0220232
123 204 0.0138856
123 264 0.0208866
123 307 3.63766e-06
123 480 0.00413439
123 510 0.00504868
123 571 0.0114667
123 579 0.020186
123 585 0.00532493
123 758 1.31275e-05
123 773 0.00294532
123 802 0.00532666
123 807 4.29563e-05
123 964 2.38794e-07
123 1193 1.71076e-07
123 1394 5.62944e-06
123 1596 3.32471e-05
123 1614 0.0674512
123 1680 0.00795077
123 1938 1.20528e-07
123 2110 1.05914e-06
123 2420 0.00529999
123 2436 0.00090797
123 2455 6.83327e-06
123 2585 1.7585e-06
123 2760 0.0132459
123 3048 0.0105018
123 3143 0.007448
123 3682 0.000791282
123 3804 0.00733429
123 4706 2.70614e-07
123 4874 0.0238709
123 5490 0.00263889
123 5566 1.00201e-07
123 5730 0.00296095
123 6418 3.40211e-07
123 7159 6.71123e-05
123 9393 0.00535679
123 9402 0.0026627
123 11129 0.0026504
123 11391 1.94723e-06
123 13043 1.6209e-06
123 13703 0.00240663
123 13741 6.08218e-07
123 15100 5.6827e-07
123 15911 2.1759e-06
123 16580 1.89197e-07
123 17604 4.12377e-07
123 21013 1.38158e-05
123 21250 9.4188e-07
123 22167 4.67755e-06
123 23419 1.2586e-06
123 26130 0.000121267
124 74 0.0235308
124 109 0.371112
124 112 0.211626
124 148 4.14596e-06
124 393 0.283736
124 416 1.42396e-06
124 505 3.29896e-07
124 835 1.91189e-06
124 907 0.00157963
124 944 0.0017547
124 947 4.32439e-06
124 1612 0.0691195
124 3704 0.00173094
124 3822 0.00186324
124 5357 0.000457119
124 5432 0.0159535
124 6685 1.52756e-07
124 7297 0.0102977
124 8721 1.27432e-05
124 11489 4.18995e-07
124 13358 0.00345991
124 18747 0.0023957
124 25687 0.00135605
125 99 0.0353373
125 110 0.403623
125 243 0.445279
125 564 1.23244e-06
125 578 9.03516e-07
125 1013 0.00353394
125 1332 0.0213694
125 1390 0.0459415
125 1547 7.17503e-07
125 2687 0.00269594
125 12298 5.68215e-06
125 13546 0.0247377
125 15494 2.04472e-05
125 15536 0.0106019
125 20826 5.67136e-07
125 25375 0.00353393
125 25510 0.00329668
125 27630 2.00812e-05
126 2 0.000511661
126 107 0.808084
126 149 0.0003595
126 188 0.0534613
126 190 1.3697e-07
126 221 1.01736e-07
126 224 1.1908e-07
126 261 2.04179e-05
126 283 0.000258433
126 367 0.0516475
126 710 9.41638e-07
126 726 0.0820663
126 918 9.64984e-05
126 1041 4.49638e-05
126 1280 1.48999e-07
126 2189 4.36752e-05
126 3143 3.27695e-05
126 3908 0.00154277
126 4322 1.73428e-05
126 4441 2.91176e-06
126 6369 0.00172328
126 6938 7.89508e-05
126 9913 3.78443e-06
126 26039 3.47573e-07
126 27372 9.08137e-07
127 78 5.56479e-07
127 108 6.95996e-05
127 111 0.017557
127 546 0.017557
127 822 0.0526718
127 1072 0.0356058
127 1391 4.76074e-05
127 1413 0.017557
127 1777 2.25447e-07
127 2320 0.017557
127 3084 0.0526711
127 3090 5.99152e-07
127 3179 0.121392
127 5662 0.158012
127 5750 0.017557
127 6514 0.052671
127 6676 0.017557
127 7409 0.0350571
127 8618 0.0175561
127 8740 0.000254466
127 9184 0.0351131
127 10899 0.0175568
127 12130 0.017557
127 13052 6.83146e-07
127 13192 1.94464e-07
127 14849 0.017557
127 15534 0.0526699
127 15931 0.0351139
127 17915 0.0175568
127 19996 1.20266e-06
127 19997 1.45665e-05
127 20684 0.0702273
127 20953 0.0175561
127 22199 0.0350523
127 23326 0.017557
127 27029 0.017557
127 27980 0.017557
128 14 0.0217641
128 34 1.05153e-06
128 63 0.0020199
128 94 6.24859e-07
128 108 8.50967e-06
128 149 2.57583e-05
128 169 9.26372e-07
128 188 0.952726
128 293 8.75207e-07
128 467 0.000245933
128 503 0.00270224
128 520 0.000107021
128 661 1.86371e-07
128 705 3.03628e-07
128 793 1.18731e-07
128 959 6.99421e-07
128 991 0.000735379
128 1275 4.60125e-07
128 1363 4.91218e-05
128 1434 5.01077e-07
128 1442 0.00194011
128 1660 2.77897e-06
128 1770 5.63233e-05
128 2144 0.000442618
128 2258 1.19262e-06
128 2412 2.20525e-07
128 3223 1.3323e-07
128 4115 8.8093e-06
128 5293 0.0170587
128 5631 1.14077e-06
128 7427 7.5005e-05
128 13617 5.86514e-06
128 15943 1.26145e-06
128 16155 9.83745e-06
128 17292 1.7636e-07
128 19209 3.56635e-06
128 24034 1.38464e-07
129 113 0.54
129 497 0.18
129 1839 0.16
129 3087 0.0399999
129 3323 0.02
129 10550 0.02
129 16030 0.0399997
130 7 0.666008
130 32 5.94748e-06
130 55 1.01463e-07
130 57 0.025238
130 76 0.0030206
130 80 7.61782e-07
130 100 0.0335648
130 107 0.000107244
130 145 5.54343e-07
130 152 1.92366e-05
130 177 3.33482e-07
130 190 1.75976e-06
130 194 3.78724e-07
130 196 0.0113006
130 221 3.00115e-06
130 262 1.12478e-05
130 283 3.73026e-06
130 319 0.168214
130 358 2.351e-07
130 368 7.06938e-06
130 385 6.67577e-07
130 401 0.0266012
130 457 7.40597e-05
130 466 0.00459665
130 476 0.00969283
130 481 8.1325e-06
130 554 0.0149566
130 687 0.0157753
130 726 6.66422e-05
130 793 0.00256626
130 906 1.18562e-07
130 1061 4.162e-07
130 1085 5.58307e-07
130 1137 1.5219e-07
130 1569 1.51125e-07
130 1832 1.08528e-07
130 2018 1.52715e-07
130 2110 2.25489e-06
130 2123 5.38423e-06
130 2314 3.45762e-07
130 2467 1.15987e-05
130 2673 0.000186819
130 3479 6.57557e-07
130 3557 1.64098e-05
130 3980 1.10091e-07
130 5266 0.00370062
130 5361 1.27341e-07
130 5925 0.00369231
130 6207 1.04623e-06
130 8138 1.40493e-06
130 10904 2.82824e-05
130 13052 1.81341e-07
130 18888 6.40567e-07
130 19868 0.00368095
130 23339 0.00353554
130 25977 1.05367e-07
130 26987 5.88367e-07
130 27069 0.0032856
131 14 0.700958
131 72 0.195459
131 74 0.000205152
131 89 7.71455e-05
131 163 1.57348e-06
131 188 5.34897e-05
131 215 0.0229288
131 221 6.76938e-07
131 319 1.03594e-06
131 344 0.00882859
131 385 1.17737e-07
131 466 1.72856e-06
131 710 2.63365e-07
131 958 3.58804e-07
131 1035 6.99142e-06
131 1072 0.00926359
131 1150 2.11761e-07
131 2149 0.00132847
131 2362 1.14153e-07
131 3103 1.58531e-06
131 4155 0.00581855
131 4878 0.0550582
131 6058 4.74592e-07
131 8254 7.79423e-07
131 16813 3.46186e-06
131 21519 1.88103e-06
132 2 0.364061
132 107 0.472138
132 152 0.0148723
132 178 0.0003636
132 221 0.00669297
132 367 0.128281
132 726 5.13206e-07
132 743 0.00678781
132 1041 0.00678786
132 2289 1.50847e-05
133 107 4.45559e-05
133 114 0.114089
133 142 2.47924e-05
133 146 1.71623e-06
133 189 0.0285221
133 319 1.44266e-06
133 503 0.0285201
133 947 0.0284098
133 1411 0.0285204
133 1599 0.0285773
133 1893 1.45201e-06
133 2719 0.0570539
133 3118 0.0285221
133 3795 0.113889
133 3940 5.40533e-07
133 5083 0.0285219
133 5391 0.0285219
133 8506 0.0570439
133 9196 0.0285222
133 10518 0.0285339
133 12550 0.0285223
133 13706 0.0570445
133 17353 0.00192804
133 18720 0.0570313
133 22343 0.0855641
133 23285 0.0285223
133 24057 9.5054e-06
133 24058 1.24029e-05
133 24802 0.0285221
133 24808 0.0285223
133 25088 0.0285223
133 26612 0.0284741
133 27947 2.39424e-06
134 52 0.147087
134 53 0.40536
134 58 0.000345106
134 76 0.0120981
134 79 0.00634026
134 197 0.00636343
134 239 1.76496e-07
134 290 0.0188442
134 319 0.112899
134 484 5.09404e-07
134 687 0.126436
134 694 1.23314e-06
134 773 1.16517e-06
134 803 0.0818718
134 875 0.0193593
134 1549 4.29173e-06
134 1686 0.0312843
134 1705 1.24633e-07
134 1754 2.80842e-07
134 3058 7.72068e-06
134 4034 0.00627809
134 4269 0.00654302
134 9687 5.13142e-07
134 13397 0.00630806
134 14564 0.00627804
134 19211 1.30717e-06
134 24907 9.18897e-06
134 26242 0.00627801
135 9 0.0131146
135 115 0.0393438
135 576 0.013114
135 2231 7.35482e-06
135 2232 0.170433
135 3589 0.013109
135 6017 0.0393439
135 6079 0.104917
135 6698 0.0786877
135 6707 0.0786826
135 8071 0.000363759
135 9532 0.065573
135 11346 0.0655731
135 12326 0.0131146
135 12328 0.0131145
135 12438 0.0786866
135 14716 0.00041518
135 15233 0.0524585
135 16180 0.00254707
135 16450 0.0262292
135 17741 0.0131139
135 18719 0.0655715
135 20565 0.0131146
135 22515 0.0131146
135 25289 0.0131146
135 25462 0.0131146
135 27382 2.73155e-05
136 2 0.450707
136 74 1.08251e-07
136 94 4.14752e-07
136 107 0.4933
136 367 0.0231514
136 726 0.0198836
136 862 0.00167366
136 918 0.0038725
136 1041 0.00078928
136 1057 4.90969e-07
136 1058 0.0033249
136 1141 0.00159139
136 1678 0.00167267
136 3230 3.18183e-05
136 18529 3.26973e-07
137 95 0.321949
137 116 0.0677384
137 139 0.0677378
137 2196 5.10282e-05
137 3893 0.135476
137 4936 0.0677382
137 10975 0.0005113
137 12325 0.203144
137 12616 0.0679168
137 14426 0.067737
138 117 0.157944
138 283 1.6422e-06
138 885 5.2978e-07
138 1126 0.022467
138 1177 1.78934e-06
138 3040 0.000637744
138 3868 0.0676896
138 4724 0.0225632
138 5650 0.676903
138 5651 8.89345e-07
138 5923 0.0225635
138 11697 0.0225632
138 18712 0.0066633
139 64 6.19018e-06
139 79 3.33613e-07
139 80 2.64829e-07
139 107 0.00726145
139 124 1.80308e-07
139 125 0.000184765
139 145 1.22958e-06
139 152 0.487084
139 221 0.374475
139 242 1.14742e-07
139 261 0.0159791
139 262 2.86568e-06
139 337 2.09058e-07
139 341 1.60183e-07
139 367 1.49201e-07
139 376 7.86374e-05
139 383 0.0686783
139 385 0.0170387
139 435 1.05803e-05
139 459 9.96885e-05
139 463 3.43013e-06
139 700 2.86245e-07
139 722 2.56112e-07
139 743 7.09336e-06
139 773 0.00385966
139 858 1.32895e-06
139 933 0.0225553
139 952 2.31599e-07
139 1080 2.1327e-07
139 1168 3.61038e-07
139 1369 1.1392e-06
139 1448 2.30867e-07
139 1705 0.00095061
139 2564 0.000946273
139 3162 1.65612e-06
139 4440 3.42084e-07
139 5572 1.09074e-05
139 5919 3.60164e-06
139 6240 1.49517e-07
139 7381 3.60739e-07
139 8419 3.67459e-07
139 8889 9.87097e-07
139 11746 5.00181e-07
139 12925 3.01133e-05
139 12945 9.57976e-07
139 18096 1.0216e-07
139 21426 4.40677e-06
139 24285 1.53433e-07
139 27283 0.000713226
140 81 2.40622e-07
140 118 0.02483
140 221 0.121482
140 261 0.0640633
140 308 3.56554e-07
140 383 0.00627407
140 385 0.0125677
140 463 0.00130324
140 626 0.0052853
140 687 2.27064e-06
140 1090 0.00784293
140 1568 0.00620079
140 1740 0.0186226
140 1778 0.0298
140 2280 1.3336e-06
140 2554 0.0371722
140 2908 1.11067e-07
140 4527 7.22879e-06
140 4875 0.0121887
140 4917 0.0308559
140 4968 0.0310374
140 5120 3.35648e-05
140 5320 1.37791e-05
140 5496 2.83593e-06
140 5500 0.00620732
140 5788 0.0682822
140 5824 0.00012313
140 5827 0.0496598
140 6512 6.39613e-06
140 7110 0.179984
140 7528 0.0372433
140 7606 0.0372702
140 7980 0.0434524
140 7981 0.0124148
140 8102 0.00620714
140 8385 0.0125543
140 8419 0.012415
140 8955 0.0186224
140 9518 0.0248299
140 10435 0.0128852
140 11418 1.37432e-05
140 11901 0.0124149
140 12033 0.00620744
140 14501 0.00285401
140 15096 0.00620369
140 16237 1.70156e-07
140 16279 2.7112e-06
140 16920 0.00620743
140 16921 0.00620749
140 17416 0.00226555
140 19753 0.00620748
140 19825 0.00620741
140 20665 0.00620739
140 21896 1.14259e-07
140 23106 1.6276e-07
140 24607 0.00620741
140 26987 0.00104668
141 119 0.0908914
141 121 0.0908086
141 3147 0.181782
141 5832 0.0908913
141 5833 0.0912225
141 11579 0.0908394
141 12784 0.0908912
141 12785 0.0908909
141 14709 0.0908914
141 23656 0.0908912
142 32 0.651563
142 53 1.3127e-07
142 95 2.88814e-05
142 121 0.00996874
142 142 0.154178
142 143 5.07349e-07
142 217 0.00897536
142 245 0.0370113
142 367 5.13515e-05
142 476 0.0717963
142 1271 0.00046823
142 2059 0.00159522
142 2375 4.49602e-05
142 3398 1.3263e-05
142 3479 3.67441e-07
142 3733 2.66537e-07
142 4591 5.09799e-06
142 4744 0.00895436
142 6746 1.63658e-07
142 8611 2.90637e-05
142 8760 0.00895439
142 9183 0.000128974
142 9371 5.44768e-07
142 9661 0.00157062
142 13113 0.0179034
142 17772 2.39748e-07
142 20181 0.00895411
142 23616 0.00884829
142 24056 0.00895439
142 24836 2.31339e-07
143 18 4.41444e-06
143 32 0.000598835
143 33 6.16652e-07
143 35 1.87057e-07
143 52 0.0662222
143 53 1.12376e-05
143 57 0.119869
143 61 0.00333083
143 81 0.353297
143 82 0.00551191
143 99 7.89336e-07
143 107 2.85069e-05
143 125 0.00021085
143 142 1.10528e-07
143 145 0.168697
143 152 0.000472884
143 169 2.59966e-05
143 177 0.0436763
143 190 0.0229458
143 196 2.04465e-07
143 197 3.90564e-06
143 221 0.00134951
143 337 0.000171576
143 351 1.12001e-07
143 368 0.164524
143 376 0.0246677
143 466 0.0206117
143 726 0.000307173
143 758 1.29422e-07
143 804 1.13065e-07
143 1061 1.99823e-07
143 1448 1.87108e-05
143 1596 4.8011e-07
143 1611 1.49431e-05
143 2343 4.18137e-06
143 2432 7.57792e-07
143 2595 1.65198e-06
143 3223 0.0032503
143 3398 1.59517e-07
143 4269 1.54387e-06
143 4881 5.10379e-06
143 5305 1.01667e-07
143 6207 4.23415e-05
143 6724 5.05266e-06
143 8660 2.22445e-07
143 9799 1.3464e-05
143 11329 7.97942e-07
143 15355 7.87182e-07
143 16757 7.63503e-06
143 17926 8.59677e-05
143 23405 3.45171e-06
144 120 0.192
144 463 0.00876895
144 468 0.0192026
144 612 0.2112
144 2236 0.00959999
144 2623 0.268579
144 3143 1.06737e-07
144 3151 0.00959999
144 4345 3.43311e-05
144 4349 0.0192
144 5280 0.00261029
144 6205 2.04583e-07
144 6215 0.182399
144 11713 0.0288
144 12615 0.0479998
144 18116 5.22906e-06
144 21746 1.90228e-07
145 80 0.0334816
145 120 0.0715752
145 122 0.107363
145 316 0.0715756
145 468 0.107614
145 1183 1.21443e-06
145 1462 0.0357878
145 7087 0.178938
145 8949 0.0357873
145 10283 0.107363
145 13652 0.0357877
145 16885 0.0357876
145 19917 0.0357878
145 20334 0.035787
145 21011 0.0357878
145 21592 6.12753e-06
145 23680 0.0357878
145 23694 0.0357802
146 89 2.01223e-07
146 148 6.7196e-06
146 149 0.0449053
146 182 0.0239782
146 195 0.000985207
146 262 1.96425e-07
146 266 0.00507586
146 297 2.31222e-06
146 306 7.86278e-07
146 367 0.0209591
146 368 0.00242527
146 376 0.01646
146 404 2.63206e-05
146 421 0.000169364
146 478 3.50108e-07
146 510 0.802475
146 514 5.04341e-07
146 564 0.00226951
146 585 0.00723552
146 758 2.30485e-06
146 773 2.05724e-06
146 804 0.00752181
146 886 0.00817293
146 1231 0.000311886
146 1482 2.65293e-07
146 1588 0.0438899
146 1596 2.78267e-06
146 1754 2.02847e-05
146 1984 0.00236547
146 2003 3.53238e-06
146 2427 7.08268e-07
146 2819 0.00285089
146 3917 1.54653e-07
146 4072 1.91181e-07
146 4583 1.97342e-07
146 4595 7.06374e-07
146 4801 5.50049e-06
146 4825 1.99323e-06
146 5631 9.26852e-07
146 6179 2.83574e-07
146 6356 1.89461e-07
146 7047 0.00226346
146 7216 7.70337e-07
146 7500 2.61428e-06
146 8467 0.000174569
146 9517 4.34831e-05
146 9696 1.40374e-07
146 11413 0.00233748
146 13456 3.25406e-07
146 13667 0.00015833
146 15590 1.91157e-06
146 20755 1.57995e-07
146 21054 0.000474994
146 23405 7.09872e-07
146 25100 3.41941e-05
146 26141 1.05122e-07
146 26885 0.00237399
147 7 0.883866
147 89 0.00573344
147 105 0.0293098
147 126 0.0520399
147 312 3.73298e-07
147 4289 0.00581838
147 4691 0.0116238
147 5221 1.10451e-07
147 5822 0.00579175
147 9725 4.17901e-06
147 14289 2.73443e-06
147 16483 0.00580926
148 52 4.28218e-06
148 78 1.11027e-07
148 108 5.49495e-05
148 124 1.99684e-07
148 145 6.45017e-07
148 149 8.59777e-07
148 168 0.000283123
148 169 1.40315e-06
148 182 0.000704093
148 183 0.000628505
148 195 1.81494e-06
148 219 1.74571e-07
148 224 0.178198
148 255 5.25701e-06
148 283 1.25658e-05
148 289 3.69377e-06
148 306 0.479348
148 307 0.140724
148 355 8.73738e-06
148 376 0.180021
148 463 0.00200423
148 465 0.000664145
148 507 0.000110302
148 510 0.012873
148 520 1.6044e-07
148 560 3.41099e-06
148 622 0.000518607
148 637 2.42258e-05
148 828 0.00105804
148 964 0.000574385
148 1275 1.38411e-05
148 1369 1.99308e-07
148 1595 5.41575e-06
148 2027 0.00016194
148 2072 2.21031e-05
148 2075 1.03494e-07
148 3386 1.34397e-07
148 3500 0.000399149
148 4153 1.3082e-06
148 4231 2.92022e-05
148 4553 0.000890454
148 4869 7.42137e-07
148 5151 1.25941e-07
148 6749 1.26082e-06
148 10420 1.91886e-06
148 10457 0.000574945
148 16026 6.10616e-05
148 24783 1.19085e-07
148 27536 4.31951e-07
149 161 0.00262673
149 162 3.94855e-06
149 163 0.663216
149 168 0.000179738
149 180 0.0053651
149 183 0.0786828
149 196 0.0202323
149 197 0.0065441
149 220 0.105773
149 245 1.38726e-07
149 312 2.8433e-06
149 372 0.0170073
149 373 5.52045e-06
149 377 7.74766e-06
149 620 0.00659125
149 629 0.000292479
149 714 0.0510302
149 737 7.81751e-07
149 758 0.000260714
149 853 0.0225504
149 1063 1.30589e-05
149 1204 0.00459806
149 1215 0.000574967
149 1297 0.000287486
149 1454 0.000287444
149 1471 0.00513579
149 1579 7.84783e-07
149 1774 2.56538e-05
149 2116 1.56861e-07
149 2129 1.00285e-07
149 2253 0.000367431
149 2622 0.000574971
149 3349 0.000287258
149 3576 5.71432e-06
149 3804 1.24359e-06
149 4236 0.001698
149 4807 0.000304853
149 5320 1.93872e-07
149 6517 0.00124497
149 7160 1.63021e-07
149 8340 0.000284379
149 8573 0.00138569
149 10243 5.10815e-06
149 10799 0.00173842
149 12968 0.00027633
149 15431 3.18299e-07
149 23538 0.000287483
149 25523 0.000239627
150 8 4.63021e-07
150 12 1.05085e-05
150 18 0.021516
150 51 0.0232856
150 54 3.55255e-07
150 61 0.00342131
150 98 0.0344498
150 139 0.0691626
150 145 0.000271972
150 223 1.27026e-07
150 241 0.0178094
150 245 0.0245172
150 282 1.01945e-07
150 301 0.00486827
150 328 0.0235224
150 375 0.346539
150 436 0.000932047
150 442 4.17579e-07
150 486 0.0185975
150 521 1.41844e-07
150 523 1.57898e-07
150 607 1.35741e-05
150 621 3.94509e-07
150 718 0.0708415
150 870 0.00620246
150 891 0.00307608
150 952 0.00307091
150 1026 2.0111e-05
150 1047 1.19403e-07
150 1177 0.000158435
150 1187 1.56067e-07
150 1206 1.10276e-07
150 1243 1.17456e-07
150 1369 1.48593e-05
150 1503 0.00307472
150 1508 0.125851
150 1544 0.0109608
150 1950 0.00303761
150 2103 9.11409e-07
150 2110 2.90075e-07
150 2152 0.0161076
150 2203 1.15521e-07
150 2324 4.10951e-05
150 2432 0.000570098
150 2437 0.0109477
150 2587 1.02323e-06
150 2705 1.22352e-06
150 3391 5.41131e-07
150 3583 6.77472e-07
150 3610 1.4267e-07
150 3678 1.61332e-07
150 3728 0.0141015
150 3766 0.000432428
150 4003 4.75159e-07
150 4186 0.00307606
150 4225 0.00569637
150 4345 9.53834e-05
150 4459 3.93572e-07
150 5423 0.0276762
150 5503 1.40635e-05
150 5742 0.0396115
150 6561 2.95877e-06
150 6966 3.07488e-07
150 7020 2.41796e-07
150 7879 0.000475273
150 7907 0.0149449
150 8212 0.00280064
150 8216 6.44087e-05
150 8355 5.84429e-07
150 8797 0.000131939
150 8860 1.23642e-05
150 9369 0.0061369
150 10104 1.00497e-05
150 10204 0.00630394
150 10888 0.00623625
150 11329 0.00244398
150 11668 2.40599e-07
150 11914 4.29155e-07
150 12086 2.37439e-07
150 12954 5.41211e-06
150 13194 2.05422e-07
150 13675 0.00294362
150 13798 0.000226978
150 14120 1.79362e-07
150 14540 2.51383e-06
150 14945 1.91275e-06
150 15570 0.000731598
150 15931 2.79492e-05
150 16393 0.00615204
150 16505 0.00307555
150 16931 1.82427e-07
150 17432 8.64428e-07
150 17960 9.42423e-05
150 18364 2.81934e-05
150 19266 0.000253435
150 20627 0.000435908
150 21468 5.86562e-05
150 21486 9.70724e-05
150 21927 0.00307577
150 22165 0.00612377
150 22649 0.000213014
150 22990 1.21078e-07
150 23359 1.60476e-07
150 23830 0.000191171
150 25318 1.0146e-07
150 26640 0.00307552
150 26645 1.19524e-05
151 58 1.47211e-05
151 81 0.265414
151 82 0.66044
151 124 0.00628733
151 142 4.19166e-05
151 157 0.0153741
151 164 0.0172286
151 168 5.74291e-05
151 181 0.000289688
151 215 0.000481
151 306 4.15305e-05
151 315 7.71256e-05
151 463 0.00039947
151 465 1.83541e-06
151 557 0.0208296
151 611 2.3441e-05
151 676 0.000707002
151 687 1.31001e-07
151 743 8.84862e-07
151 852 0.00330764
151 885 0.00685286
151 1092 0.00151191
151 1442 1.62655e-07
151 1467 1.49954e-05
151 2066 6.9382e-07
151 2203 8.28353e-07
151 2513 1.56811e-07
151 3497 2.64563e-06
151 5787 1.28498e-07
151 6070 1.62947e-07
151 6369 6.09235e-05
151 7154 2.04213e-07
151 8239 1.10748e-07
151 8604 2.50641e-07
151 8660 7.14331e-07
151 10613 0.000457979
151 13606 1.26946e-07
151 13798 7.19496e-07
151 17078 4.71605e-06
151 18364 1.21307e-06
151 20832 1.33852e-07
151 24399 2.69262e-06
151 27648 6.45552e-05
152 129 2.33381e-07
152 590 0.0139907
152 639 0.0140381
152 784 0.112306
152 794 0.210572
152 799 0.0140419
152 1270 0.0284125
152 1303 0.0280743
152 1533 0.0140419
152 1556 0.071629
152 2115 0.0561399
152 3619 0.0142786
152 3923 0.0140382
152 4110 8.99833e-05
152 4340 0.00124118
152 4341 0.126345
152 4831 0.0140381
152 4845 0.0140382
152 5170 0.0140382
152 5400 0.0280765
152 6207 0.0280633
152 6904 0.0421147
152 6917 5.88523e-06
152 7281 0.0140382
152 7741 0.0280764
152 12700 0.0140382
152 13569 0.0140382
152 14634 0.0280765
152 17941 0.0281336
152 24135 0.0139844
153 81 0.033433
153 127 0.0552916
153 199 0.138262
153 307 6.44581e-05
153 758 0.108056
153 1194 1.8811e-05
153 3442 0.22122
153 3479 0.0286895
153 4064 0.000191005
153 7944 0.0276524
153 7993 0.0276524
153 9360 0.0553049
153 10807 0.165902
153 10836 0.0276524
153 12292 0.0553042
153 14891 9.68143e-07
153 24181 0.0276524
153 24182 0.0276524
154 128 0.0651545
154 189 0.000836292
154 193 0.705279
154 326 0.034098
154 369 0.0802292
154 473 0.0828279
154 611 3.1239e-06
154 624 2.34644e-07
154 901 9.33259e-07
154 968 5.7825e-07
154 1699 3.7624e-07
154 1983 0.0038024
154 3103 0.000497399
154 4155 6.99805e-06
154 4575 0.0116761
154 5268 0.000970998
154 5320 0.00166805
154 7047 0.0118775
154 9130 0.000973275
154 12749 6.0269e-05
154 14576 6.62033e-06
154 15472 1.30939e-07
154 16437 1.17499e-06
154 24240 2.63993e-05
154 25769 1.69643e-06
155 79 4.94301e-05
155 80 0.000110027
155 100 0.0026792
155 124 0.00269578
155 129 2.51963e-07
155 149 0.459093
155 152 1.02402e-07
155 195 0.00723961
155 202 2.83849e-05
155 245 1.42503e-06
155 256 3.0208e-06
155 289 1.30754e-07
155 307 0.0126201
155 367 0.224381
155 385 6.51423e-05
155 463 2.45757e-07
155 465 0.013897
155 511 1.2942e-06
155 684 7.01631e-07
155 820 0.0711166
155 834 1.26873e-07
155 862 0.0444682
155 1041 0.0132045
155 1092 0.0115507
155 1589 0.00258035
155 1775 1.42659e-07
155 2021 6.31209e-05
155 2132 1.97074e-07
155 2375 0.0019727
155 3578 4.04421e-06
155 3614 1.86817e-05
155 4269 0.000496777
155 5993 2.32772e-07
155 6192 0.00295856
155 6293 4.40492e-07
155 6845 0.00206948
155 8336 0.118368
155 9241 0.000119452
155 10581 1.74316e-05
155 11290 1.10781e-07
155 16245 6.70985e-07
155 17112 0.00295899
155 17186 2.75142e-06
155 18744 0.00219869
155 22135 0.00295883
155 23322 1.61334e-06
155 27536 1.84086e-07
156 8 0.0105808
156 143 7.74136e-05
156 197 5.80494e-05
156 301 0.0848081
156 602 0.439103
156 1007 0.0952265
156 1626 0.0060284
156 1828 0.0297227
156 1838 0.00626766
156 2414 0.0105808
156 3156 7.99018e-07
156 3197 0.000976924
156 3608 1.72812e-07
156 6448 0.0317425
156 7400 0.11682
156 7508 1.34905e-06
156 7683 0.100498
156 8141 0.0102957
156 8142 0.00467795
156 8143 0.0211578
156 12456 3.55191e-07
156 13336 0.00538331
156 16705 0.00528663
156 17771 0.00529042
156 18495 0.00528843
156 20436 0.00522392
156 20921 0.00490167
157 58 6.464e-05
157 95 3.76093e-06
157 132 0.138491
157 169 0.00228183
157 188 1.49997e-07
157 357 1.49581e-05
157 384 1.2461e-06
157 386 3.40705e-05
157 412 0.614986
157 540 0.00234727
157 1450 0.00704547
157 2506 5.21033e-06
157 2709 0.0586819
157 3268 0.00939704
157 3569 0.0164309
157 3804 1.24413e-07
157 4068 2.98642e-05
157 4258 0.0563394
157 7945 0.0891489
157 8468 0.00234727
157 10592 2.07142e-06
157 15077 0.00234728
158 72 0.645126
158 76 0.0576482
158 104 0.00182015
158 124 7.4628e-06
158 146 0.118722
158 166 9.04774e-07
158 226 4.22629e-07
158 240 0.00179893
158 288 0.00101961
158 339 0.0131586
158 447 1.2532e-06
158 560 1.04936e-07
158 687 0.0018303
158 773 1.03794e-07
158 896 0.0040109
158 940 0.0144254
158 996 0.035793
158 1202 0.00400892
158 1420 0.0220219
158 1530 0.0107939
158 2047 2.52498e-05
158 2201 9.97991e-06
158 2372 8.82225e-07
158 2388 0.0219506
158 2557 0.00489514
158 2674 2.47376e-07
158 3259 1.27386e-05
158 3724 1.07189e-05
158 4171 0.00771031
158 4723 8.12751e-06
158 5416 1.89514e-07
158 6615 4.84636e-05
158 8005 5.25678e-06
158 8133 1.74101e-07
158 8276 0.00403035
158 9075 0.0272229
158 11311 0.00186925
158 14633 8.05053e-06
158 14785 4.1575e-07
158 16686 1.99109e-06
159 12 0.0195357
159 52 0.0801346
159 94 0.017805
159 100 5.03954e-07
159 133 2.01071e-06
159 134 0.0195316
159 1017 0.0185457
159 1411 0.0195247
159 1417 0.3557
159 2132 1.63342e-05
159 3723 0.117191
159 3778 0.195318
159 4182 0.0585757
159 6236 0.0195301
159 8152 0.0195315
159 9822 0.0195318
159 10103 0.000490022
159 11425 0.0195053
159 12689 0.0195313
160 72 1.28166e-07
160 135 0.00676204
160 136 0.0882269
160 244 0.0339179
160 285 0.0135754
160 293 0.00685294
160 373 0.027205
160 769 0.0130337
160 825 0.156174
160 1221 2.05173e-07
160 1268 0.0226108
160 1548 0.0135759
160 1881 0.0475155
160 2105 0.00678926
160 2114 1.28823e-07
160 2256 0.0746677
160 2514 0.0542199
160 2542 0.0197837
160 2727 1.47574e-06
160 2729 0.0271522
160 3046 0.0138311
160 3544 0.0251193
160 3925 0.0339399
160 4595 0.00678872
160 5060 0.0271478
160 7685 0.0339074
160 7739 0.0203639
160 8689 0.0001582
160 9448 0.00678
160 9650 0.0568982
160 9746 0.00678796
160 12219 0.0342844
160 12766 0.00653759
160 13456 0.061102
160 13806 0.00678797
160 14761 0.0135759
160 15475 0.00676212
160 17321 1.10883e-05
160 19771 0.0135759
160 23269 0.00678795
160 28116 0.00678791
161 20 0.00473914
161 135 0.0405979
161 856 0.0567314
161 1038 0.0137005
161 1468 1.34951e-06
161 1592 0.0164433
161 2185 0.097062
161 3643 0.0730195
161 3661 0.146042
161 4641 0.535464
161 8109 2.52667e-07
161 17321 0.0081002
161 25881 0.00809822
162 53 4.53017e-05
162 138 0.0855305
162 190 0.0212727
162 417 0.0213888
162 1026 0.0226732
162 1183 0.170506
162 2003 0.00017686
162 2407 0.0213907
162 3078 0.0214599
162 3612 0.128344
162 3617 0.085563
162 4310 0.0213903
162 4782 0.0213907
162 5410 0.0213907
162 6431 0.0641723
162 6993 0.0641723
162 8109 0.0855628
162 8470 0.0213907
162 9198 0.00297883
162 9813 0.0213283
162 12845 0.0213907
162 14143 0.0213907
162 14966 0.0213907
162 16364 0.0213908
162 25614 0.0123091
163 137 0.123895
163 676 4.72478e-07
163 2759 0.0619475
163 3642 0.0530979
163 3647 0.176992
163 3710 0.00884956
163 4848 0.0796467
163 5068 0.00884964
163 5234 0.0884964
163 5929 0.00884962
163 5982 0.141593
163 6152 0.0176083
163 6427 0.0265489
163 6464 0.0265489
163 6467 2.11654e-07
163 6687 0.0620229
163 8325 0.070795
163 11424 0.0442482
163 24638 9.87054e-06
164 98 0.0108513
164 108 1.50873e-06
164 139 0.0394301
164 145 1.30368e-06
164 197 0.00157464
164 307 0.00137067
164 328 0.00014417
164 375 0.141718
164 413 0.0725621
164 457 0.0327003
164 478 2.76652e-07
164 486 0.0987243
164 602 4.37251e-05
164 611 0.103053
164 622 0.000185378
164 718 0.0220894
164 719 2.14813e-06
164 952 0.0457994
164 1026 0.249284
164 1178 0.0019187
164 1243 0.0204037
164 1289 9.52051e-05
164 1589 0.016773
164 1626 0.00116321
164 2026 0.0501363
164 2150 0.0031552
164 2637 1.79081e-06
164 2709 0.00157723
164 2991 0.0103712
164 3490 1.69046e-07
164 3766 0.0109723
164 3895 0.00157697
164 3916 0.00397018
164 4056 4.45232e-07
164 4325 1.64727e-07
164 4767 0.00156002
164 5230 7.55731e-07
164 6087 9.38792e-06
164 6369 6.76829e-07
164 6868 2.93822e-07
164 7543 1.21156e-07
164 8317 1.28605e-05
164 8797 0.0343498
164 8889 0.0031533
164 8999 1.80763e-05
164 10598 0.0141978
164 12390 6.45475e-07
164 13187 1.35581e-07
164 13667 0.0001319
164 15785 1.23108e-06
164 17134 1.09758e-06
164 17224 1.19512e-06
164 17542 0.000165685
164 20633 0.00158608
164 22357 0.00157752
164 25001 0.00157627
164 25911 9.28351e-07
165 18 1.66294e-07
165 25 0.00398968
165 63 0.00799147
165 75 0.009638
165 140 0.0887086
165 142 0.000119384
165 235 0.0199997
165 291 0.0398562
165 499 0.00398877
165 576 0.0671507
165 636 0.00358324
165 834 0.0799866
165 874 0.0797126
165 879 0.0117497
165 962 0.119598
165 1196 0.0520182
165 1383 0.0318835
165 1444 0.051778
165 1683 0.00398562
165 2148 1.75875e-07
165 2467 0.0102428
165 2587 0.0633672
165 2643 0.0239176
165 2847 0.00797125
165 3005 0.011955
165 3487 6.08042e-07
165 3734 3.18365e-07
165 3750 0.0119569
165 3831 0.00295028
165 4174 0.0318302
165 4222 0.007971
165 4553 2.44868e-07
165 4778 0.0357373
165 5209 0.0039856
165 5478 0.0119834
165 5571 0.0157942
165 5856 0.0199281
165 6978 0.031885
165 7550 0.00398557
165 8672 1.99234e-05
165 9210 0.00476202
165 9439 9.04951e-06
165 10254 6.41774e-06
165 11419 8.13824e-06
165 11993 3.12746e-07
165 12962 0.00398559
165 13979 0.000136822
165 15135 3.01701e-05
165 17219 0.000229688
165 17950 0.00398561
165 19398 1.77079e-07
165 21884 0.00398463
165 22169 0.00360849
165 23358 0.00398559
165 26583 0.00404532
166 18 0.079763
166 35 0.00218283
166 61 0.151594
166 79 0.00533632
166 81 0.0193632
166 173 1.70186e-07
166 241 0.350698
166 261 0.00113953
166 278 0.00902932
166 350 4.9537e-07
166 364 0.00916086
166 369 1.02648e-06
166 486 0.00295715
166 633 1.26448e-06
166 664 1.5635e-07
166 761 4.05037e-07
166 1013 0.000308204
166 1275 0.00296699
166 1452 0.0181977
166 1687 0.0760055
166 1947 0.00909991
166 2011 2.27154e-06
166 2115 5.66195e-06
166 2367 0.00233132
166 2437 1.63855e-05
166 2494 1.12849e-07
166 2608 0.0595796
166 2877 0.00641134
166 3179 0.00303335
166 3534 2.21812e-05
166 3754 4.26199e-07
166 4072 0.00303321
166 4425 0.000945867
166 4813 3.32789e-07
166 4936 0.00910039
166 5320 1.47618e-07
166 5474 2.37655e-07
166 5521 0.0206551
166 5784 0.00300201
166 5910 4.27085e-05
166 6113 8.64729e-07
166 6332 0.0212285
166 6412 0.00264308
166 6418 0.0275979
166 6549 0.00909615
166 6633 4.31955e-07
166 7902 0.0032755
166 7916 0.0120936
166 8280 0.00303313
166 8300 3.24342e-07
166 8302 0.0242808
166 9187 0.0171188
166 9926 0.0212302
166 10625 4.70075e-06
166 12082 0.00606855
166 13931 9.33051e-06
166 15055 0.00298947
166 15678 1.27662e-05
166 16641 3.7183e-07
166 17649 1.77503e-06
166 24490 0.00303324
166 26404 1.8646e-07
166 27228 4.15858e-05
166 27361 0.00024957
167 3 0.00168156
167 52 1.42922e-07
167 79 8.76243e-07
167 81 0.000688532
167 100 2.57069e-06
167 124 4.79423e-07
167 145 3.98978e-07
167 149 0.0791158
167 164 0.365613
167 168 5.13109e-06
167 178 1.83133e-07
167 181 0.000142236
167 188 0.551639
167 193 1.6204e-06
167 215 4.35354e-05
167 223 1.06138e-07
167 401 7.42468e-07
167 463 2.32279e-07
167 466 7.07828e-07
167 773 6.3235e-07
167 1020 5.32964e-06
167 1092 0.000380776
167 1369 1.83062e-07
167 1549 9.85564e-06
167 2086 2.8176e-06
167 2112 1.10684e-07
167 3175 7.33408e-07
167 3298 5.92203e-06
167 3497 1.37636e-07
167 3702 1.33193e-07
167 3780 1.00563e-07
167 4292 6.1638e-07
167 4807 0.000315121
167 6442 5.14668e-06
167 7771 1.80016e-06
167 7883 1.95649e-07
167 10799 1.50576e-07
167 11697 2.88138e-07
167 11790 0.000309156
167 14302 1.91148e-07
167 15520 1.61733e-06
167 16300 1.61728e-05
167 18382 4.80269e-07
167 21062 1.47888e-06
168 141 0.982861
168 4784 0.0142857
168 13062 0.0028537
169 32 1.14819e-07
