0 2 0.311245
0 3 0.106956
0 7 0.00218965
0 10 3.21306e-07
0 11 0.000787463
0 14 0.0898074
0 22 0.141468
0 26 0.0835958
0 32 0.0097727
0 33 0.00252655
0 35 0.00189795
0 52 0.000154235
0 53 0.0327399
0 57 9.97676e-06
0 58 0.00119472
0 72 0.0250683
0 74 0.0301852
0 76 2.06425e-05
0 77 1.782e-07
0 78 1.15384e-07
0 79 0.000280154
0 80 0.000289912
0 81 0.00766509
0 82 0.0216402
0 89 0.00459619
0 94 0.000358505
0 95 0.011508
0 100 0.000164095
0 101 1.12735e-07
0 107 0.00666138
0 108 0.000117678
0 123 0.000107868
0 124 0.000185698
0 132 9.11436e-06
0 142 0.0093401
0 143 0.0238076
0 145 0.00172799
0 146 0.00254936
0 148 0.00042438
0 149 0.00144805
0 152 0.00772819
0 163 0.000339058
0 164 0.00325692
0 165 0.000328712
0 169 0.000359008
0 173 0.00116268
0 180 5.38426e-06
0 181 8.03651e-06
0 183 3.63133e-05
0 188 0.0290765
0 190 7.03239e-05
0 193 7.07501e-05
0 194 0.00471067
0 195 3.77609e-05
0 196 0.000506486
0 197 9.8036e-05
0 215 0.000202201
0 217 1.21537e-05
0 219 0.00874969
0 220 1.17638e-06
0 221 0.00097356
0 232 2.3474e-07
0 241 9.2036e-06
0 244 3.22856e-07
0 245 0.000751763
0 262 2.83915e-06
0 283 0.000587243
0 286 2.08811e-07
0 293 6.04387e-05
0 306 0.000178299
0 307 0.000339894
0 313 4.08456e-07
0 315 1.10475e-07
0 319 0.0005433
0 328 1.35012e-06
0 337 0.00207372
0 345 2.91312e-07
0 367 0.00234131
0 368 2.82459e-06
0 372 2.03365e-07
0 374 2.33902e-07
0 375 5.54069e-07
0 376 0.000295829
0 377 6.82826e-05
0 384 3.0934e-05
0 401 5.8632e-05
0 404 4.76432e-06
0 436 1.03535e-07
0 440 4.09077e-07
0 447 4.04635e-05
0 463 3.72107e-05
0 465 0.000206008
0 466 2.99127e-07
0 474 3.66361e-05
0 476 0.000380598
0 482 2.17778e-05
0 486 3.03202e-07
0 510 0.000709258
0 553 1.88891e-06
0 554 1.51316e-06
0 557 5.26623e-07
0 563 1.18443e-07
0 578 1.1183e-06
0 585 7.10024e-07
0 629 3.81486e-07
0 649 4.95812e-07
0 676 3.79392e-07
0 687 1.82837e-05
0 710 1.25753e-05
0 718 1.99234e-07
0 742 1.95735e-07
0 773 2.11535e-05
0 782 9.0806e-06
0 807 6.69791e-07
0 828 5.71581e-05
0 831 9.68173e-06
0 834 7.03299e-05
0 858 3.56233e-07
0 885 9.34706e-06
0 960 1.59709e-06
0 1037 3.19345e-07
0 1041 8.06382e-07
0 1047 4.61402e-06
0 1059 9.85785e-07
0 1219 8.44947e-07
0 1235 2.69988e-07
0 1275 0.00045657
0 1294 3.48206e-06
0 1369 5.49937e-05
0 1406 4.1073e-07
0 1411 2.63158e-07
0 1445 3.48422e-07
0 1452 3.83032e-06
0 1558 1.01311e-05
0 1597 1.89608e-07
0 1992 4.07272e-07
0 2018 1.51265e-06
0 2026 8.07682e-07
0 2112 1.79574e-07
0 2115 9.0716e-06
0 2131 1.06228e-07
0 2149 5.73538e-06
0 2160 1.01874e-06
0 2372 3.94189e-07
0 2385 1.84161e-06
0 2460 1.13965e-07
0 2587 9.81376e-06
0 2663 9.15885e-06
0 2760 1.70606e-05
0 2983 9.17854e-06
0 3333 4.98628e-07
0 3696 1.08099e-06
0 3728 3.37661e-07
0 3766 7.66335e-07
0 3794 1.69015e-07
0 3908 2.07113e-07
0 4003 1.47812e-07
0 4113 6.31516e-07
0 4269 1.80606e-07
0 4544 1.73027e-06
0 4673 1.21484e-07
0 4755 5.16875e-07
0 4757 8.63051e-06
0 4787 7.3065e-06
0 4906 3.45587e-07
0 4957 3.68196e-06
0 5019 1.93833e-07
0 5419 5.21915e-07
0 5472 1.75727e-06
0 5919 6.98931e-07
0 6227 1.97468e-07
0 6321 2.25953e-06
0 6369 1.60473e-07
0 6517 1.11302e-07
0 6653 5.79978e-06
0 6686 2.04699e-07
0 6791 6.63853e-06
0 6938 1.05032e-07
0 7001 1.47722e-05
0 7151 1.49543e-06
0 7725 1.11501e-07
0 8467 3.5914e-07
0 9369 1.13107e-05
0 9834 1.21601e-07
0 10345 1.87751e-06
0 10890 2.62824e-07
0 10899 1.07374e-07
0 10905 3.65234e-07
0 11768 2.65493e-07
0 12360 3.60232e-07
0 12397 1.34488e-06
0 13634 8.92067e-06
0 13838 9.11533e-06
0 13910 4.19527e-07
0 14105 3.42023e-07
0 14173 9.05338e-06
0 14367 2.53487e-07
0 14701 1.28921e-07
0 15013 1.76248e-05
0 15065 1.42468e-07
0 15159 7.23216e-07
0 16184 1.33999e-06
0 16272 1.34405e-06
0 16310 3.63947e-07
0 19149 1.51052e-07
0 20466 5.487e-07
0 21054 5.49313e-07
2 2 0.620346
2 74 0.000508374
2 83 0.0120765
2 195 0.012056
2 283 1.61782e-06
2 367 0.252534
2 383 0.0241659
2 858 0.0120829
2 1041 0.0241664
2 1508 0.0420624
3 3 0.0231359
3 72 9.82342e-06
3 152 0.897537
3 168 1.96841e-07
3 269 4.91564e-07
3 365 0.00805165
3 392 4.85923e-07
3 395 1.4612e-07
3 404 0.00050251
3 486 0.0010116
3 554 5.08434e-07
3 608 0.00911267
3 710 0.00369899
3 758 0.000491408
3 919 0.0105127
3 1597 1.62145e-07
3 1598 1.10855e-07
3 1611 0.00110473
3 2149 5.24927e-07
3 2372 0.04439
3 3394 8.48487e-06
3 3733 9.50288e-07
3 5144 1.29655e-07
3 5553 5.14261e-07
3 5576 0.000414625
3 9641 1.62844e-07
3 11241 8.73834e-06
3 13765 1.09615e-06
3 14847 1.78035e-07
4 2 0.00660459
4 3 0.00472409
4 7 0.118224
4 10 0.0308076
4 11 0.098833
4 14 0.0366126
4 22 0.0391815
4 26 0.0393926
4 32 0.0802944
4 33 0.00123282
4 53 0.00931346
4 56 7.67717e-07
4 58 5.51265e-06
4 72 0.0197354
4 74 2.8873e-05
4 82 0.0130655
4 83 0.016296
4 89 0.038316
4 94 0.0134648
4 95 7.06155e-05
4 100 0.00379063
4 101 0.00968049
4 103 0.0567869
4 107 0.104247
4 124 2.0686e-05
4 125 6.20127e-07
4 145 1.26331e-07
4 148 2.59821e-05
4 149 0.0323202
4 152 4.12273e-06
4 163 0.000816494
4 173 1.24606e-05
4 188 0.00901594
4 193 0.00392385
4 194 3.18451e-06
4 195 0.0019771
4 196 0.0351785
4 197 4.71505e-07
4 215 0.0308691
4 217 0.0141913
4 219 2.09775e-05
4 245 0.0209583
4 269 1.15039e-07
4 283 0.0172076
4 293 2.62702e-05
4 367 6.55303e-06
4 373 1.58194e-06
4 404 0.013388
4 417 0.00156653
4 474 1.68893e-07
4 486 1.45339e-06
4 585 0.0094839
4 600 3.60889e-06
4 629 0.00770411
4 785 0.00379989
4 920 0.00189686
4 1030 0.00189709
4 1041 0.00540093
4 1058 4.93204e-06
4 1131 0.00189686
4 1160 0.00569606
4 1263 1.17148e-07
4 1473 0.0037943
4 1655 0.00189922
4 1802 0.00189709
4 1911 0.00187036
4 2003 2.23449e-07
4 2086 0.00189773
4 2372 6.61216e-06
4 2519 8.11467e-06
4 3007 0.0018975
4 3105 3.20002e-07
4 3255 0.000123517
4 3615 0.00758907
4 3794 1.42761e-05
4 4151 0.0018999
4 4493 2.14384e-07
4 4531 0.00189685
4 4888 4.75705e-05
4 4987 1.8858e-07
4 5431 1.52123e-07
4 6552 0.0018968
4 7247 1.13776e-07
4 7545 0.00189675
4 7550 2.56014e-07
4 7626 1.45075e-06
4 7893 0.00189691
4 7993 0.00189685
4 8800 1.79739e-07
4 11768 0.00184189
4 12800 0.00189631
4 13028 0.00189686
4 13460 3.32695e-06
4 14480 0.00189686
5 4 0.235188
5 505 0.0587938
5 521 0.058797
5 523 0.058797
5 524 0.058797
5 528 0.058797
5 1042 0.0587968
5 1616 0.0587236
5 6499 0.0587955
5 6904 0.000528835
5 8819 0.058797
5 10880 7.48347e-07
5 20040 0.117594
5 21545 0.0587968
5 26246 0.0587969
6 7 0.00662274
6 10 0.00289218
6 11 1.68258e-06
6 40 0.00204425
6 53 0.000691863
6 74 0.0001688
6 103 0.00240813
6 104 0.00940192
6 148 0.0428365
6 165 0.000280379
6 166 0.00260759
6 193 0.00205196
6 196 1.22782e-07
6 197 0.00344667
6 283 0.711491
6 289 0.193982
6 315 1.21987e-07
6 401 2.95458e-06
6 440 4.54656e-07
6 447 0.00461666
6 579 5.36422e-06
6 600 0.00524204
6 676 3.11405e-07
6 752 0.00457423
6 831 1.16773e-07
6 1057 1.88738e-07
6 1201 2.45983e-07
6 1452 1.55299e-07
6 1652 0.00461327
6 2461 7.86527e-06
6 2516 1.06642e-07
6 4704 1.91274e-07
6 4757 1.46686e-06
6 10905 1.01018e-06
6 15065 3.49623e-06
6 19463 4.00961e-07
7 5 0.751569
7 57 2.54341e-07
7 106 0.00324307
7 107 0.00187288
7 148 0.00280547
7 152 3.43257e-07
7 163 1.38639e-05
7 224 0.00325452
7 718 4.53828e-05
7 1737 0.0680298
7 2023 2.18383e-06
7 4076 0.00323842
7 5545 0.152257
7 7415 0.00394829
7 8955 0.00323951
7 24645 0.00647904
8 2 0.999328
8 195 0.00023839
8 1059 4.7286e-06
8 1184 0.000137339
8 1411 2.27343e-06
8 2201 1.06515e-07
8 2983 2.4065e-07
8 3333 4.77346e-06
8 3728 3.2932e-07
8 4675 0.000137068
8 4734 2.08695e-07
8 5419 4.87285e-07
8 5712 0.000137373
8 8728 1.73913e-07
8 9599 1.51113e-07
8 9650 2.785e-07
8 16732 3.37273e-07
8 21054 2.27845e-06
8 25537 3.24934e-07
8 25808 1.51914e-07
9 6 0.773877
9 148 4.84673e-07
9 163 0.00465917
9 217 1.4648e-07
9 220 2.47908e-07
9 228 0.0047119
9 365 1.54499e-06
9 718 2.56167e-06
9 1054 0.0235938
9 3886 0.00439236
9 4090 4.82439e-06
9 6495 0.18875
9 14180 1.89623e-07
9 14230 4.93286e-06
10 2 0.353018
10 11 0.0508549
10 18 2.12957e-07
10 22 6.49164e-07
10 26 0.192976
10 32 4.47008e-06
10 52 0.0128099
10 107 1.12989e-07
10 132 2.38701e-06
10 143 0.0124134
10 152 1.60994e-07
10 163 0.194323
10 164 0.125648
10 165 1.61701e-07
10 173 0.00933986
10 183 0.0271747
10 221 3.44772e-07
10 232 1.2342e-06
10 255 1.02179e-07
10 363 0.00247026
10 476 2.40576e-06
10 486 3.95225e-07
10 542 2.44543e-07
10 554 4.61245e-07
10 600 0.00487407
10 892 1.54605e-07
10 1558 8.75213e-07
10 2109 1.01812e-06
10 2131 3.03964e-07
10 2436 1.27992e-07
10 3830 0.00494644
10 4704 1.08265e-07
10 4957 5.05421e-06
10 5472 0.00169703
10 5954 3.33631e-06
10 6612 9.70096e-06
10 7726 0.00247045
10 10253 1.17399e-07
10 10316 0.00247027
10 13484 0.00247027
10 13838 6.67498e-06
10 13839 2.01873e-07
10 16164 7.73485e-07
10 21054 1.0193e-07
11 7 0.916049
11 11 2.13648e-07
11 105 0.0421566
11 126 0.0266066
11 132 1.43613e-07
11 145 1.67842e-07
11 163 8.75255e-06
11 197 4.80673e-07
11 217 3.70463e-07
11 220 4.42451e-05
11 375 1.13588e-07
11 397 0.00218262
11 401 1.45047e-07
11 466 5.25975e-07
11 482 0.000197985
11 727 0.00175491
11 779 1.61297e-05
11 1046 0.00139718
11 1318 0.0002369
11 1326 1.78002e-07
11 1356 7.8457e-06
11 1452 1.05523e-07
11 1545 8.82582e-06
11 1904 5.98286e-06
11 1992 2.41665e-06
11 2131 4.39416e-07
11 2375 0.000238597
11 3045 0.00831392
11 3614 0.000238098
11 4704 1.07626e-07
11 6277 1.76442e-05
11 6880 3.12416e-05
11 6938 9.91352e-07
11 7303 0.000236799
11 7503 1.68722e-07
11 10007 0.000231276
11 10107 2.20184e-07
11 11139 2.75575e-06
11 11214 1.04886e-06
11 11215 1.21784e-07
11 13721 4.64113e-06
12 8 0.125946
12 123 4.61447e-05
12 194 1.16555e-07
12 196 0.000372212
12 289 1.52436e-07
12 301 0.414659
12 375 0.00381735
12 440 3.1403e-07
12 457 0.00661542
12 486 2.07279e-07
12 554 2.16588e-07
12 593 0.1222
12 831 1.25276e-06
12 1026 0.0346654
12 1178 0.0431014
12 1243 0.00746163
12 1626 0.0222172
12 1743 1.58286e-05
12 2414 0.0260745
12 2486 1.22682e-05
12 2709 0.00369055
12 3510 3.39795e-07
12 3569 0.00370965
12 3608 0.114225
12 3766 1.51883e-07
12 5041 3.22724e-07
12 5580 0.00382522
12 6029 0.00368582
12 6634 0.00442357
12 6868 0.00371956
12 7047 0.00368501
12 9088 0.0110557
12 10097 0.0145987
12 13194 0.00393111
12 14029 0.00305642
12 14208 0.0073707
12 14579 1.02198e-05
12 14832 0.00121141
12 19659 0.0073708
12 20475 0.00322312
12 21780 2.56685e-07
13 9 0.14063
13 56 0.00940773
13 58 0.00910273
13 82 6.73836e-07
13 94 6.43594e-06
13 194 7.48208e-06
13 369 0.00942084
13 412 0.0658585
13 766 0.0188847
13 919 0.000626255
13 1289 0.0283111
13 1411 1.46258e-06
13 2964 5.52344e-05
13 3086 0.0282027
13 3569 0.104056
13 4195 4.66834e-06
13 4850 0.0847493
13 5576 0.00183096
13 5766 0.00940883
13 6029 0.0381548
13 6075 0.0940886
13 6615 0.0188172
13 6616 0.00140956
13 6634 0.308564
13 7945 0.028226
13 8212 0.000173165
13 14842 7.04803e-07
13 28080 2.09195e-07
14 10 0.782567
14 103 1.15045e-05
14 106 0.000607458
14 121 1.36441e-07
14 148 1.88674e-07
14 152 8.70626e-06
14 190 1.38238e-05
14 221 4.12382e-05
14 245 2.75875e-07
14 266 2.98351e-06
14 337 4.59485e-07
14 360 0.0120668
14 455 0.000624951
14 463 3.66866e-07
14 503 5.93699e-07
14 524 1.20277e-06
14 1733 0.18824
14 1903 1.49148e-07
14 1911 3.72694e-06
14 2519 0.000609303
14 2577 0.000130075
14 2633 0.000613155
14 3386 9.24642e-06
14 5485 0.0104356
14 5904 8.59778e-06
14 6954 0.00065748
14 8929 3.42564e-07
14 9066 0.00061319
14 10038 4.20801e-07
14 11611 0.00104375
14 12407 0.000612651
14 13762 0.000613169
14 14518 1.10165e-06
14 14759 0.000458099
14 27640 2.62197e-07
15 7 2.50833e-05
15 11 0.992188
15 33 2.40077e-07
15 53 1.70384e-07
15 58 1.80732e-07
15 106 0.000144447
15 107 2.11349e-07
15 140 1.13399e-07
15 145 0.000199168
15 148 6.71923e-07
15 173 7.17227e-05
15 184 0.000777479
15 197 1.15184e-06
15 217 2.51804e-05
15 245 0.00020422
15 262 1.57677e-07
15 393 0.00018068
15 503 2.94461e-05
15 563 1.54392e-07
15 689 1.43971e-06
15 828 1.41378e-07
15 1005 0.000178736
15 1310 2.95042e-07
15 1452 1.25163e-05
15 1515 0.000178812
15 1986 1.17619e-06
15 1992 9.57455e-07
15 2047 5.6232e-06
15 2638 3.51449e-07
15 2891 0.00213192
15 3650 0.000453123
15 4987 0.000178786
15 5132 0.000178801
15 5238 0.0028243
15 9478 1.02004e-07
15 10709 1.45534e-07
15 14314 2.8881e-07
15 14415 9.81237e-07
16 12 0.495695
16 758 0.0335719
16 2472 0.0168039
16 3098 0.151326
16 4950 0.033608
16 7079 0.176442
16 8625 0.0505096
16 13752 0.008402
16 15715 0.00840177
16 15716 0.00839713
16 18166 5.46969e-06
16 18841 0.00840196
16 19987 3.32121e-05
16 25834 0.00840199
17 14 0.995412
17 63 1.78371e-05
17 123 1.35084e-07
17 142 2.69165e-05
17 196 1.08806e-07
17 255 1.23547e-07
17 315 2.58333e-07
17 369 1.43343e-07
17 479 0.00371786
17 507 5.05914e-07
17 695 1.74087e-07
17 2037 0.000232261
17 2149 2.25862e-07
17 3333 2.5875e-06
17 4544 3.03261e-06
17 4911 1.29563e-07
17 5096 1.29867e-06
17 5293 1.94604e-05
17 5485 4.14584e-06
17 5919 1.43166e-05
17 6316 8.60569e-06
17 7235 1.38071e-07
17 7916 1.25185e-07
17 11232 2.18499e-06
17 12997 0.000171612
17 13633 0.000176209
17 13634 2.66094e-06
17 13635 0.000176204
17 15513 3.40968e-07
17 21163 3.2873e-06
17 21801 9.34449e-07
18 2 0.0119005
18 3 6.61494e-06
18 7 0.0805048
18 10 0.00771305
18 11 0.0840154
18 14 0.000200466
18 22 0.0274502
18 26 0.148071
18 32 0.113319
18 35 0.0462565
18 40 1.05699e-05
18 53 0.000851712
18 58 3.01424e-06
18 72 2.65909e-06
18 81 4.34551e-06
18 82 1.4488e-06
18 89 0.0287771
18 95 5.60311e-06
18 98 0.00122594
18 103 0.0294007
18 107 0.0646
18 120 1.01691e-06
18 121 0.00246244
18 122 0.00122765
18 139 4.80483e-06
18 142 2.68629e-05
18 143 9.99123e-05
18 145 2.14487e-06
18 146 0.0213062
18 148 0.0413928
18 149 0.0102619
18 152 3.17387e-05
18 163 0.015361
18 164 0.0287506
18 183 0.00599066
18 193 0.0287792
18 194 0.0499905
18 196 0.020012
18 215 0.012576
18 217 0.00887861
18 219 0.00633308
18 221 0.00859015
18 223 0.0144728
18 245 0.00872864
18 269 0.00483422
18 277 0.00124058
18 283 0.00246618
18 293 8.45092e-06
18 299 1.66506e-05
18 306 0.00344528
18 319 0.0171358
18 326 0.0024554
18 376 0.000905788
18 401 1.91867e-07
18 432 1.31556e-06
18 474 0.00979137
18 476 1.13935e-05
18 494 6.60152e-07
18 504 6.83271e-06
18 585 1.63993e-05
18 649 1.99526e-05
18 696 0.00122766
18 706 4.18496e-06
18 710 1.16227e-06
18 718 2.79921e-06
18 752 2.28331e-05
18 890 7.76789e-06
18 892 5.26552e-07
18 895 1.13154e-06
18 958 1.5348e-07
18 988 2.70192e-06
18 1017 0.00122833
18 1033 0.00122163
18 1444 2.57154e-06
18 1452 6.10632e-05
18 1652 1.79417e-07
18 2142 6.5891e-05
18 2372 7.23863e-07
18 2420 1.04923e-06
18 2530 1.65771e-06
18 2557 0.000127672
18 2633 1.18451e-06
18 2835 0.00122766
18 2983 0.00123208
18 3034 0.00122767
18 3132 0.00122974
18 3333 2.98064e-07
18 3705 1.86147e-06
18 3830 6.92638e-07
18 4352 0.00122771
18 4493 0.00108679
18 4957 0.000692013
18 5706 1.16813e-07
18 6135 0.00122775
18 6880 0.00847821
18 7342 0.00122766
18 9675 0.00122755
18 10226 0.000290033
18 11073 3.12446e-07
18 11139 0.00121238
18 11768 9.71427e-07
18 11989 3.98698e-07
18 12824 1.33608e-07
18 13230 1.10388e-06
18 14200 1.00402e-07
18 14233 1.13826e-06
18 14607 0.00122766
18 14608 0.00123222
18 14668 3.03915e-06
19 2 0.00110497
19 7 0.0478891
19 40 0.0118355
19 58 7.38372e-06
19 74 1.32177e-07
19 145 2.5604e-05
19 149 0.000172828
19 162 0.0236901
19 169 0.0436344
19 197 1.92424e-06
19 219 0.443924
19 311 0.0121003
19 319 0.0598334
19 333 0.0232187
19 369 0.0108566
19 376 0.0133073
19 383 0.0111224
19 401 0.166811
19 621 0.0122154
19 1280 6.04506e-05
19 1411 0.0119441
19 1875 0.0118538
19 1992 1.90655e-07
19 2436 2.39211e-05
19 3743 1.3696e-06
19 3816 0.0118435
19 3857 0.0236824
19 3875 3.2845e-06
19 4269 2.22802e-06
19 4462 8.0991e-07
19 5151 7.02207e-06
19 6695 0.0114176
19 7005 2.59196e-06
19 8679 0.0118434
19 12056 6.61867e-07
19 14519 0.0118431
19 17168 5.6806e-07
19 17324 0.0118759
19 18466 0.0118416
20 18 0.320374
20 55 2.36603e-06
20 61 0.0696328
20 148 0.000452215
20 163 0.0166073
20 195 2.82331e-06
20 228 4.20625e-07
20 241 0.24008
20 278 0.0172875
20 311 0.0034877
20 337 0.000299618
20 375 1.31154e-06
20 510 8.61971e-06
20 720 0.0173052
20 761 0.0243717
20 834 9.1474e-06
20 920 9.25673e-07
20 960 1.06373e-07
20 1004 3.89835e-07
20 1013 0.0974934
20 1687 0.0208963
20 1903 6.34311e-06
20 1947 0.0104515
20 2121 1.27328e-05
20 2324 0.0037816
20 2877 0.0208899
20 3016 0.0163372
20 3033 0.00378425
20 4813 0.0114361
20 4863 4.72176e-05
20 4888 0.000355615
20 5534 0.0069547
20 6406 2.02465e-07
20 6418 0.0623362
20 7321 0.000606362
20 8309 6.67344e-06
20 10280 0.00346669
20 11141 8.69909e-07
20 12068 1.36279e-06
20 13385 0.00696332
20 14252 2.10598e-06
20 16147 0.0069634
20 16300 1.49876e-05
20 20173 0.00348163
20 21409 4.84211e-05
20 22355 0.00695044
20 24612 0.00347698
20 25883 2.00299e-06
20 27103 0.00330563
21 13 0.851407
21 48 0.116615
21 142 4.30966e-07
21 264 1.07023e-07
21 393 0.00306876
21 2174 0.000111302
21 2572 1.35925e-07
21 2661 0.00553153
21 3453 0.00306856
21 3698 1.63893e-07
21 3988 0.0171168
21 4639 7.68042e-07
21 5522 0.00297163
21 11647 0.000105547
21 15734 4.88842e-07
21 19311 1.24986e-07
21 24049 1.67508e-06
22 14 0.169119
22 72 0.189689
22 76 2.26082e-05
22 100 1.57946e-07
22 146 9.87844e-07
22 180 0.000393834
22 190 1.1607e-05
22 193 0.255443
22 245 0.000687733
22 262 0.00102928
22 289 3.03794e-06
22 369 0.229717
22 381 0.00243619
22 466 3.89889e-06
22 473 0.0318702
22 542 1.19114e-07
22 710 1.54971e-06
22 759 0.0532441
22 831 0.052465
22 1107 2.98449e-06
22 1166 1.92561e-06
22 1275 2.54747e-07
22 1370 0.000835245
22 1484 7.39808e-07
22 1808 3.74814e-07
22 1992 0.00272283
22 2983 0.00324654
22 3112 1.06852e-07
22 3247 2.2807e-06
22 3249 3.17202e-06
22 4034 1.79193e-07
22 5457 0.00664837
22 7739 7.51068e-05
22 8648 3.30112e-07
22 15013 0.000140233
22 17747 0.00017873
22 23193 1.01034e-06
23 15 0.79896
23 20 3.03321e-06
23 57 2.40994e-05
23 96 0.0199756
23 228 0.0199746
23 376 1.12473e-06
23 473 3.09475e-06
23 571 1.88028e-06
23 1082 0.000911152
23 1318 0.019966
23 2051 0.0599279
23 2220 0.000352313
23 3510 0.0199738
23 3511 0.0199732
23 17583 3.81397e-06
23 24820 0.019974
23 25743 0.0199739
24 7 0.0462767
24 32 0.0546478
24 33 3.42429e-06
24 53 5.02865e-07
24 82 9.58382e-07
24 89 0.0245614
24 126 0.0195924
24 145 0.0156441
24 157 0.00507134
24 166 0.00511778
24 168 4.37163e-07
24 189 3.83877e-06
24 193 3.10424e-05
24 195 1.24229e-06
24 196 0.124844
24 217 2.62446e-05
24 219 1.24432e-05
24 224 0.00508049
24 245 1.04553e-05
24 337 1.33304e-06
24 345 2.24481e-06
24 367 1.31864e-07
24 369 0.00426361
24 376 0.248328
24 383 0.0103907
24 435 0.00505351
24 457 1.61748e-07
24 463 0.0138477
24 478 3.68257e-07
24 510 0.0226667
24 589 1.39126e-07
24 608 0.0107166
24 629 0.0439783
24 698 0.0265456
24 726 3.3481e-05
24 828 0.0348342
24 885 0.0101566
24 1059 0.000293346
24 1075 1.5451e-05
24 1171 0.24406
24 1186 2.02061e-07
24 1304 1.13312e-07
24 1411 0.0051536
24 1651 0.00370342
24 2011 0.00497551
24 2545 4.13327e-06
24 2842 6.2975e-07
24 3490 8.69848e-06
24 6156 1.57147e-07
24 6240 1.28296e-07
24 6369 2.65397e-06
24 6479 1.86708e-07
24 6536 5.70039e-06
24 6869 2.59287e-06
24 7001 0.00506879
24 7172 1.05135e-07
24 8917 0.00477432
24 10022 1.16687e-07
24 14741 4.16657e-06
24 16807 0.000176977
24 20914 7.6379e-07
25 12 0.712441
25 16 0.0982678
25 1819 2.2755e-06
25 2152 0.0172106
25 2472 0.024567
25 3098 0.0492436
25 3199 0.0245667
25 7079 0.0491339
25 8625 0.0245669
26 7 0.0938246
26 33 3.23515e-07
26 89 0.000199954
26 105 0.000353968
26 139 0.00988152
26 148 1.3218e-07
26 168 0.000367187
26 183 1.63098e-05
26 193 2.39776e-06
26 196 0.0486988
26 215 0.00935524
26 283 1.56597e-07
26 293 0.0771719
26 306 1.58549e-07
26 376 0.00987669
26 463 0.00948908
26 504 0.00982851
26 510 0.0443631
26 542 4.10364e-07
26 624 9.63853e-07
26 818 0.00987418
26 828 0.110062
26 856 0.195511
26 892 0.0196551
26 1041 0.0176044
26 1061 0.00114471
26 1558 0.0182213
26 1588 0.0393068
26 1900 0.00982748
26 2060 0.00982754
26 2288 2.34787e-06
26 2553 0.0393102
26 2657 0.0884638
26 4064 0.00982918
26 4105 0.00982746
26 5684 0.0294311
26 7666 0.00982757
26 8062 0.00982771
26 8332 0.0195259
26 13339 0.00982757
26 13340 0.00982757
26 15954 0.00982753
26 17094 0.00982749
26 19389 0.000167939
26 21077 6.43783e-06
26 26043 4.60772e-06
27 2 0.00870338
27 3 0.000151576
27 7 8.92939e-05
27 26 0.545454
27 53 1.37931e-06
27 107 2.51529e-07
27 142 0.430065
27 146 1.1788e-07
27 152 0.00606763
27 306 0.00940565
27 2094 5.8108e-07
27 2436 5.97413e-05
27 13560 5.5882e-07
28 17 0.139702
28 89 0.00762227
28 97 0.844064
28 145 2.09302e-07
28 161 3.82801e-07
28 194 1.05279e-07
28 195 1.07432e-07
28 549 1.35078e-07
28 2399 0.00389244
28 2994 2.5275e-07
28 3010 6.44275e-05
28 8694 0.00463713
28 15734 1.22542e-05
28 19311 3.38006e-06
29 82 1.48746e-07
29 108 4.82035e-06
29 124 2.09054e-06
29 204 6.7391e-07
29 337 1.83371e-06
29 367 0.921773
29 368 6.85104e-06
29 376 2.55959e-07
29 466 1.18262e-06
29 476 3.22148e-06
29 484 2.16273e-07
29 510 0.0025832
29 621 0.00130076
29 691 5.15448e-07
29 906 1.79469e-07
29 964 2.20943e-05
29 1041 0.0694353
29 2198 3.26529e-06
29 2546 1.0665e-06
29 2793 2.56982e-07
29 3179 3.45913e-06
29 3361 2.87594e-07
29 3804 0.000880833
29 4121 4.84723e-07
29 4336 8.25124e-05
29 4553 0.000141888
29 4874 6.93793e-07
29 6565 2.07198e-06
29 7683 0.00128271
29 10540 5.20001e-07
29 11640 5.72825e-06
29 16293 1.32672e-06
29 19305 0.00117179
29 27453 0.00128298
30 7 0.809036
30 57 5.79932e-07
30 93 1.34816e-07
30 105 0.0137589
30 108 1.18018e-06
30 110 0.00118311
30 145 1.66573e-07
30 196 7.17515e-05
30 197 1.10789e-07
30 245 2.6474e-07
30 319 0.172697
30 554 1.27903e-05
30 952 2.05606e-05
30 1235 9.20755e-07
30 1369 2.93306e-07
30 2375 2.19014e-07
30 2879 3.73707e-05
30 3045 9.64118e-07
30 3239 1.86744e-07
30 4801 4.75721e-07
30 5590 0.00155472
30 6413 6.14763e-05
30 8737 1.89281e-07
30 10619 1.23172e-07
30 16147 3.30172e-06
30 22563 0.00155501
31 143 0.0217652
31 1116 0.0219955
31 1141 0.0238909
31 3353 0.0238909
31 7090 0.00101639
31 10180 0.0238909
31 11849 0.0238909
31 12254 0.477815
31 15664 0.310174
31 19835 0.0238908
31 23510 0.0238893
31 27489 0.0238902
32 2 0.0382914
32 7 1.52658e-06
32 10 0.0360497
32 11 0.0894151
32 22 1.24335e-06
32 26 0.00045272
32 35 3.58449e-05
32 53 0.00382661
32 74 1.19881e-05
32 78 0.0180824
32 79 6.0788e-06
32 80 0.00598811
32 81 0.000156431
32 82 6.85949e-06
32 107 0.271081
32 124 1.78271e-06
32 142 4.01037e-07
32 143 0.0181413
32 145 1.50368e-07
32 146 0.0309619
32 152 0.209827
32 165 0.0237566
32 194 0.195153
32 219 0.000145992
32 221 0.0356877
32 245 9.21751e-06
32 474 0.00466227
32 486 4.4008e-05
32 773 0.00617158
32 1705 1.20937e-06
32 2069 3.77532e-07
32 2372 9.30966e-07
32 4331 0.00601119
32 6254 1.09912e-05
32 7058 0.00600464
32 13698 2.58682e-07
33 2 0.810017
33 98 0.000900736
33 152 6.377e-05
33 163 9.41706e-07
33 182 4.38039e-06
33 183 1.02202e-07
33 195 0.0238936
33 221 0.000783969
33 241 3.28691e-05
33 245 4.91135e-07
33 286 0.00185048
33 299 0.000153125
33 306 4.65161e-07
33 333 0.00356081
33 367 3.44267e-06
33 377 6.95259e-07
33 383 5.82793e-05
33 591 0.000887163
33 728 0.00180144
33 783 0.000118972
33 834 2.27779e-06
33 905 0.00089159
33 912 0.00481945
33 1186 8.68344e-07
33 1231 0.0837658
33 1292 4.06988e-07
33 1369 8.58958e-07
33 1434 5.18322e-07
33 1508 2.4378e-06
33 1857 0.00282446
33 1900 1.24758e-06
33 2044 0.00423897
33 2053 0.000900752
33 2949 0.000898066
33 3016 1.14798e-07
33 3133 0.000900747
33 3482 3.35586e-05
33 3508 0.0405243
33 4025 0.00428372
33 4894 1.73821e-05
33 4974 0.000136658
33 5940 3.5665e-07
33 6759 0.000900769
33 8634 3.64525e-07
33 8818 0.00165329
33 8870 2.47558e-05
33 10247 0.00180148
33 11534 0.000900743
33 11647 3.86714e-06
33 16376 0.00359936
33 17337 6.82583e-06
33 18391 0.00182127
33 18579 5.84244e-06
33 19093 0.00090075
33 20127 1.71146e-06
33 22172 5.04702e-07
34 19 0.249028
34 32 1.40039e-07
34 58 0.00107703
34 61 0.000943434
34 74 1.40846e-07
34 98 1.08686e-07
34 133 0.743766
34 148 0.000708852
34 249 0.00109228
34 290 1.30945e-07
34 337 2.43253e-05
34 350 0.00109191
34 377 1.40158e-05
34 865 0.00108299
34 1275 0.00103379
34 10889 0.000135963
35 3 0.36194
35 10 2.31528e-06
35 145 6.86811e-05
35 149 0.00742763
35 164 0.00225978
35 181 1.51623e-07
35 188 0.598178
35 306 5.87043e-05
35 608 0.00400716
35 710 0.00549267
35 720 1.12359e-07
35 825 2.39422e-06
35 834 1.0834e-07
35 858 0.00312689
35 906 3.9999e-07
35 912 0.00312453
35 1198 1.05764e-07
35 1201 0.00660992
35 1394 1.44022e-06
35 1452 0.00122414
35 1463 1.78979e-07
35 2843 1.74853e-07
35 3472 0.000175614
35 3794 4.57692e-07
35 3851 1.10033e-07
35 4269 6.6054e-07
35 6972 1.08091e-07
35 7476 0.0031208
35 8917 5.0738e-05
35 10530 3.92555e-07
35 12345 3.35572e-07
35 12964 0.00312154
35 13876 1.72687e-07
35 14701 7.82926e-07
35 23118 7.0013e-07
36 20 0.999997
36 306 9.48801e-07
36 1011 9.40183e-07
36 3012 1.56751e-07
36 5830 7.95661e-07
37 21 2.22297e-07
37 26 0.960318
37 123 1.73324e-05
37 195 2.04868e-06
37 215 1.80955e-06
37 337 0.0347174
37 482 2.43935e-07
37 706 6.67499e-06
37 710 9.16629e-07
37 714 7.43988e-07
37 844 8.61733e-06
37 921 1.13131e-07
37 1185 8.83512e-05
37 1204 2.92869e-07
37 1305 5.27505e-06
37 1369 1.29213e-07
37 1410 3.01055e-06
37 1463 8.05939e-07
37 2200 0.000990087
37 2800 2.70093e-05
37 2904 1.52866e-07
37 3728 2.10862e-06
37 3851 0.000959287
37 4825 4.77274e-06
37 5313 4.46359e-06
37 5458 3.67677e-07
37 5695 8.72181e-07
37 6321 1.59025e-07
37 6776 1.44162e-05
37 8879 3.69591e-07
37 9000 3.16061e-06
37 10022 2.86493e-06
37 11495 9.3929e-06
37 12365 0.000975581
37 12434 0.000843793
37 12452 1.68078e-07
37 13765 6.2128e-06
37 14175 1.70949e-07
37 15067 3.3012e-07
37 16287 2.16088e-07
37 16341 0.000972896
37 16854 1.30211e-07
37 21559 1.2441e-06
37 23840 5.5982e-07
37 26668 3.68287e-06
38 7 3.02403e-05
38 11 8.04971e-07
38 21 0.0782623
38 89 3.36533e-07
38 94 0.024539
38 125 1.3483e-07
38 142 0.00330879
38 148 0.0591427
38 152 2.23184e-07
38 164 1.04626e-07
38 165 0.819226
38 173 0.00331455
38 194 2.6145e-07
38 412 1.40967e-07
38 1270 0.00486245
38 1503 0.00128117
38 1641 3.62094e-07
38 2391 0.00300817
38 2427 0.000601911
38 4550 0.000602023
38 5078 0.000602023
38 6321 6.83125e-05
38 10450 8.46232e-06
38 13445 0.000602015
38 13460 4.53699e-07
38 13558 1.33558e-05
38 14261 0.00052005
38 15898 2.35368e-06
38 20719 1.77439e-07
39 23 0.465832
39 58 0.0573706
39 129 0.0582079
39 130 0.0582285
39 131 0.0582279
39 2089 0.185674
39 7107 0.116458
40 24 0.350704
40 185 0.0233801
40 375 8.25317e-07
40 743 0.163662
40 1057 0.0687672
40 3006 3.22478e-06
40 3058 0.257183
40 3062 0.0233803
40 3333 0.0233629
40 4010 0.0250387
40 12401 0.0233798
40 19101 0.0177585
40 26732 0.0233801
41 10 0.131969
41 14 3.36888e-07
41 25 0.373474
41 123 0.00814703
41 143 3.17366e-07
41 163 4.05229e-07
41 1704 0.191088
41 4000 0.156344
41 4210 0.00868364
41 7250 0.00868579
41 8982 0.00868573
41 9138 1.88389e-06
41 11666 0.095551
41 14555 0.00868575
41 17969 0.00868334
42 26 0.509344
42 35 1.87724e-06
42 106 0.00518577
42 143 0.417612
42 287 6.12711e-05
42 447 1.43606e-07
42 457 5.83958e-06
42 536 0.00260318
42 710 3.69483e-05
42 770 0.00253153
42 885 0.0339341
42 1522 1.06149e-07
42 1644 0.00259981
42 2511 5.635e-07
42 2513 1.30602e-05
42 2847 0.00519946
42 2926 0.00260224
42 3105 1.6174e-06
42 4414 3.11012e-07
42 5128 0.0103814
42 5361 5.64161e-06
42 8013 0.00259951
42 8851 0.00259983
42 9073 5.34437e-05
42 10364 1.63926e-05
42 11081 6.51567e-07
42 11822 9.46397e-07
42 13718 0.00259998
42 16832 4.34005e-07
42 17306 6.89638e-06
43 6 0.0623771
43 39 0.062523
43 41 0.125045
43 271 0.062523
43 283 0.0623017
43 1524 0.062523
43 1973 0.062523
43 2547 0.0625228
43 3007 9.9182e-07
43 10088 0.062523
43 10506 0.062523
43 12691 0.062523
43 13720 0.062523
43 15791 0.125045
43 17381 0.0625229
44 57 0.000205108
44 76 0.0768927
44 188 1.1754e-05
44 282 0.0768264
44 633 0.153793
44 1391 0.0768998
44 1516 0.153831
44 1727 0.0768998
44 7419 0.0768999
44 7420 0.0770192
44 14553 0.0768999
44 18275 3.24381e-05
44 18276 0.0768986
44 23848 0.0768889
44 24615 1.72908e-06
45 10 3.48732e-06
45 29 0.122279
45 37 0.305696
45 52 2.45678e-06
45 107 3.35678e-05
45 197 0.01955
45 1424 0.020379
45 3553 0.0203797
45 4361 0.0407594
45 7070 0.0206757
45 9296 0.0407594
45 10748 0.0815189
45 11417 0.0203797
45 11421 0.081514
45 14604 2.28355e-07
45 15535 4.43772e-07
45 16473 0.103786
45 17361 0.0407594
45 17372 0.0203797
45 17439 1.84635e-06
45 23848 2.91703e-06
45 27701 0.0611387
46 11 0.00177236
46 32 8.3641e-07
46 768 0.0551947
46 1733 0.0286782
46 1799 0.0275934
46 2288 0.0275973
46 3679 0.44101
46 3909 0.0819455
46 3946 0.00504137
46 5560 4.7374e-07
46 6065 0.0275974
46 7340 0.027597
46 8133 0.193173
46 11401 0.0275972
46 13349 0.0275973
46 17330 6.45064e-06
46 17391 0.0275974
47 10 0.199848
47 27 0.20004
47 28 0.20004
47 29 0.20003
47 30 0.20004
48 10 0.00212615
48 42 1.71748e-07
48 57 1.14476e-07
48 63 1.51685e-05
48 98 0.00204319
48 101 9.69878e-06
48 103 0.00255477
48 169 0.00157545
48 193 0.0188261
48 268 0.38158
48 269 0.421714
48 306 0.00252506
48 365 0.00262276
48 747 3.62726e-06
48 770 9.02643e-06
48 906 5.769e-06
48 935 0.0053792
48 1290 0.00221825
48 1444 5.21061e-06
48 1992 0.00234457
48 2030 0.00257773
48 2037 0.06891
48 2713 0.00257801
48 3603 3.95913e-06
48 4133 8.7985e-07
48 4836 0.00257738
48 4918 0.0206219
48 5889 1.14135e-07
48 6749 0.00257445
48 8769 0.00257731
48 9031 0.0103107
48 9047 0.000145528
48 9908 0.0155693
48 9987 3.40972e-07
48 11463 3.41213e-06
48 11555 2.91946e-07
48 12517 0.00257734
48 13729 0.00593853
48 14523 1.08319e-06
48 14717 0.0132796
48 15713 0.00159573
48 17237 1.84522e-05
48 17810 5.21432e-07
48 24792 0.00257758
48 28083 3.8023e-07
49 266 1.17068e-05
49 283 1.01232e-07
49 447 0.00536594
49 463 0.00494317
49 1126 0.0659361
49 1467 0.0262898
49 1563 0.605967
49 1806 0.0262457
49 2021 3.96723e-05
49 2059 0.00267904
49 2097 3.89014e-05
49 2344 0.0472403
49 3129 0.0364374
49 3230 0.00524698
49 3978 0.00524527
49 4660 0.0526961
49 4784 2.34956e-07
49 5980 0.0158271
49 6488 0.0165807
49 6783 0.0112749
49 7106 0.0162056
49 7201 0.00520913
49 8500 6.99448e-07
49 9926 2.10843e-07
49 10687 0.00524911
49 11415 0.00524914
49 11580 0.0159325
49 15257 0.0104985
49 15496 1.37766e-06
49 15994 0.00524926
49 24813 0.00524688
49 26752 0.00309113
50 31 0.346915
50 576 0.0408331
50 1291 0.326507
50 1831 5.21882e-05
50 2064 0.0408132
50 2844 0.0816268
50 3831 0.0816269
50 8826 0.0204066
50 11701 0.0204066
50 13619 0.0408134
51 2 0.916938
51 80 2.71e-07
51 98 4.82454e-07
51 123 3.58699e-07
51 148 3.88637e-07
51 152 1.11284e-05
51 195 0.0614603
51 333 0.00141789
51 367 3.17822e-07
51 377 7.49178e-07
51 478 8.97819e-05
51 615 1.89618e-05
51 720 0.000105018
51 782 3.48916e-06
51 841 2.62799e-07
51 912 0.00245553
51 1172 9.85773e-05
51 1277 7.42586e-05
51 1411 3.3373e-05
51 1508 0.0115459
51 1513 0.000304374
51 1596 1.38621e-05
51 1857 0.000403965
51 1900 0.000132212
51 1956 8.7718e-07
51 2044 0.000491045
51 2053 1.0874e-07
51 2153 0.000423359
51 2279 9.70286e-05
51 2587 8.7697e-07
51 2760 1.25075e-05
51 2862 5.11267e-05
51 3016 1.54693e-05
51 3033 1.12201e-05
51 4025 0.000690853
51 4813 4.70163e-07
51 4894 9.71306e-05
51 5432 6.12237e-06
51 5539 7.96081e-05
51 5569 2.23849e-06
51 7247 9.70263e-05
51 7940 9.77523e-05
51 7997 0.000202644
51 8040 4.27926e-07
51 8067 1.11712e-06
51 8497 0.000194064
51 8512 9.69956e-05
51 8659 9.69586e-05
51 8713 3.58527e-07
51 9329 1.11177e-05
51 9369 5.18339e-07
51 10104 0.000178924
51 10364 1.53132e-06
51 10558 9.28113e-05
51 11142 2.56249e-07
51 12373 9.69958e-05
51 14275 1.09344e-07
51 14602 9.70358e-05
51 14750 9.70382e-05
51 16287 5.81735e-05
51 16376 0.000196486
51 16568 9.70384e-05
51 16739 9.65453e-05
51 17136 9.69202e-05
51 17251 1.01348e-06
51 17663 1.47948e-06
51 18579 1.87137e-07
51 19105 9.66977e-05
51 19467 9.70386e-05
51 20105 1.95278e-06
51 20128 7.91718e-05
51 20174 9.35897e-07
51 20348 9.7026e-05
51 20725 9.70174e-05
51 21185 3.67847e-05
51 21382 9.70333e-05
51 21648 9.68254e-05
51 21904 9.70322e-05
51 26138 1.99786e-06
51 26699 9.70394e-05
51 27244 1.43729e-06
51 27761 9.70347e-05
52 28 1.04571e-07
52 32 0.631481
52 33 1.88907e-07
52 38 0.000344818
52 57 1.43582e-07
52 77 1.0545e-07
52 82 1.08424e-06
52 95 1.67219e-06
52 123 1.2767e-07
52 152 0.350449
52 195 2.15397e-06
52 240 8.45291e-07
52 261 2.15521e-06
52 307 4.2509e-05
52 311 1.87706e-06
52 345 3.96349e-07
52 372 0.000346201
52 374 1.07843e-06
52 375 0.000403038
52 376 3.34532e-06
52 401 1.58551e-07
52 436 2.57691e-07
52 440 1.11098e-07
52 476 5.89768e-07
52 510 1.31522e-07
52 520 1.3501e-06
52 585 5.28839e-06
52 608 0.00582759
52 838 3.40963e-07
52 919 3.35396e-06
52 964 2.97177e-07
52 969 1.32144e-06
52 1026 0.000395548
52 1171 1.39799e-05
52 1275 0.00955683
52 1294 4.49197e-06
52 1597 6.32642e-06
52 1611 1.19477e-05
52 2010 8.65782e-05
52 2100 0.000312533
52 2109 2.8128e-07
52 2324 8.03289e-07
52 2512 3.43634e-05
52 2561 1.13503e-06
52 2873 3.65929e-07
52 3017 7.60299e-06
52 3766 7.23105e-05
52 3851 3.17387e-05
52 4726 1.09195e-06
52 4825 0.000254002
52 5419 2.64176e-06
52 5695 1.18916e-07
52 5742 1.15338e-07
52 6227 1.09652e-05
52 6695 2.19778e-07
52 6791 6.26914e-07
52 7154 1.10602e-07
52 7626 1.78022e-07
52 7879 1.41521e-07
52 8156 6.93395e-06
52 9210 9.55792e-07
52 9369 0.00024217
52 10022 4.62625e-07
52 10511 2.40274e-07
52 12218 7.21892e-06
52 13064 1.52406e-07
52 13682 2.05523e-06
52 14951 1.11825e-06
52 18254 9.31683e-07
52 21801 6.97616e-07
53 26 0.000173733
53 94 2.17564e-07
53 163 0.000194918
53 195 0.00175006
53 196 2.82227e-07
53 219 0.973634
53 286 1.12003e-06
53 306 4.61834e-07
53 307 2.36818e-07
53 311 2.17323e-06
53 315 1.15062e-07
53 337 1.16584e-05
53 377 1.32942e-07
53 621 1.30943e-07
53 834 0.0167871
53 1201 3.08141e-07
53 1219 3.26826e-07
53 1276 5.18476e-06
53 1556 2.89152e-06
53 1908 3.21254e-07
53 2086 2.44752e-07
53 2109 2.83357e-07
53 2594 3.80247e-07
53 4007 2.38376e-07
53 5083 1.59015e-07
53 5569 3.03349e-07
53 5695 1.13509e-07
53 6009 1.16928e-05
53 6791 6.91306e-07
53 7830 3.75363e-07
53 7874 0.00169994
53 9350 0.00170151
53 10364 1.69416e-07
53 11315 0.00401468
53 12469 1.32171e-06
53 13634 1.0546e-07
53 16544 1.54312e-07
54 32 0.00223915
54 33 0.146576
54 52 0.10157
54 81 0.000151655
54 100 1.41141e-07
54 108 1.69764e-06
54 121 0.0142556
54 123 0.100703
54 181 0.000686015
54 183 0.00484745
54 195 0.0716179
54 196 0.013672
54 245 1.52324e-07
54 273 0.00479785
54 337 0.388668
54 368 0.0243163
54 455 0.00468054
54 466 2.82264e-06
54 811 0.00513986
54 964 1.07619e-06
54 994 0.00412823
54 1369 0.100946
54 1452 1.21128e-06
54 1556 0.000437682
54 2321 5.42729e-06
54 3319 9.2037e-07
54 3443 1.67918e-07
54 4007 1.70588e-05
54 4162 1.01635e-07
54 4370 0.00492479
54 7060 0.00553214
54 8797 3.33827e-06
54 9135 6.79518e-05
54 10039 1.16958e-07
54 10626 6.41835e-06
54 11871 1.08655e-07
54 17351 3.77417e-07
55 11 1.38763e-06
55 22 1.39255e-06
55 34 0.81944
55 63 6.68562e-07
55 142 0.000622363
55 149 5.25993e-06
55 152 5.26807e-07
55 181 0.00367769
55 190 0.00344948
55 196 9.36363e-07
55 245 1.97263e-06
55 479 1.73525e-06
55 482 0.003438
55 1206 0.15529
55 1305 2.93411e-06
55 1949 4.73233e-07
55 2236 1.25015e-05
55 3171 0.0068696
55 10372 0.00345065
55 13898 0.00345066
55 15501 4.81797e-07
55 21306 0.000279591
55 23880 1.65977e-07
55 25165 5.4981e-07
56 36 0.277776
56 139 0.0277773
56 165 0.0277681
56 266 0.0277775
56 312 0.0277776
56 436 0.0277773
56 502 0.0277775
56 510 0.0278189
56 901 0.0277775
56 1025 0.0277775
56 2419 0.0277673
56 2420 0.0277675
56 2697 0.0277775
56 4125 0.0833327
56 4501 0.0277776
56 9243 0.0277766
56 10215 0.0277775
56 16457 0.11111
56 17189 0.0277775
56 25134 0.0277756
56 25135 0.0277775
56 25136 0.0277776
57 38 0.764078
57 146 8.24695e-07
57 154 1.00594e-07
57 247 0.0120317
57 636 0.000230925
57 639 2.42437e-07
57 974 1.61857e-06
57 1162 1.30202e-07
57 1733 0.00473447
57 1860 0.0052549
57 2005 0.0668036
57 5385 0.0296771
57 6776 0.000137733
57 6814 0.00225695
57 8146 0.00494595
57 8757 3.48064e-07
57 9009 1.60754e-07
57 9293 0.00494605
57 11570 0.0694971
57 13584 0.00483901
57 15023 0.0145951
57 16761 6.46648e-07
57 17680 3.20298e-07
57 18643 0.0100457
57 19565 0.00494517
57 20553 5.44202e-07
57 21610 0.000974953
58 34 0.000549516
58 38 0.197608
58 52 0.00578546
58 89 0.345716
58 94 1.70084e-07
58 146 1.374e-07
58 149 2.8783e-06
58 194 3.67948e-06
58 247 0.143544
58 286 2.5069e-07
58 293 6.25065e-06
58 357 0.00605487
58 370 0.00609029
58 436 0.00523437
58 588 0.024351
58 636 1.61086e-06
58 959 1.65686e-07
58 974 0.0310703
58 1780 1.11158e-06
58 1992 3.5263e-05
58 2005 0.0198758
58 2086 0.012177
58 2411 0.00608858
58 2607 8.34183e-06
58 2637 0.0050389
58 2918 0.0251169
58 3490 0.0233775
58 4271 1.22827e-07
58 5037 0.0536681
58 5151 4.94911e-05
58 5295 6.22439e-06
58 5558 0.00608856
58 6168 0.00608858
58 6814 0.0215763
58 8146 1.29661e-07
58 8797 0.0111637
58 9293 1.07818e-07
58 9548 0.000783865
58 11055 0.0181502
58 11384 7.25752e-07
58 13496 0.00608454
58 13584 1.25864e-05
58 15023 0.00638813
58 17185 1.02256e-05
58 18643 1.17543e-05
58 19565 5.32439e-07
58 22210 0.00608836
58 22703 0.00608866
59 11 0.00560647
59 40 0.322769
59 78 0.356916
59 79 1.96767e-07
59 141 5.32429e-05
59 165 4.43382e-07
59 177 1.22385e-07
59 181 6.81966e-07
59 188 0.000582917
59 299 0.107409
59 388 8.20824e-07
59 404 2.66749e-05
59 463 0.00366464
59 465 2.30373e-07
59 474 4.62859e-05
59 500 0.0159981
59 599 0.000355115
59 600 0.150704
59 735 0.00986258
59 758 2.13855e-06
59 1562 0.0154082
59 1665 0.000945829
59 1986 1.28917e-07
59 2075 0.000380928
59 2609 5.79261e-06
59 3105 0.000354323
59 3511 1.44357e-07
59 3797 0.000355252
59 4411 1.76847e-06
59 4934 0.000354829
59 5551 2.25577e-06
59 5939 3.58808e-06
59 7110 1.60141e-07
59 7120 0.00621637
59 8797 0.00033507
59 8976 0.000355108
59 9650 1.25609e-06
59 10997 0.000196418
59 12724 0.000353187
59 13664 0.00035493
59 15734 0.000353881
59 17331 1.16328e-07
59 17388 5.66212e-06
59 17838 1.88382e-07
59 20117 1.22449e-05
59 22821 5.06694e-07
59 25712 1.26744e-07
60 42 0.181838
60 57 3.7305e-06
60 79 0.0453779
60 1120 0.0454593
60 3234 0.136349
60 3811 0.0454596
60 4860 0.0454596
60 5085 0.272755
60 5889 0.0454596
60 11748 0.0909191
60 12335 0.0454595
60 18963 0.0454595
61 46 0.58148
61 94 0.0114726
61 193 9.26194e-07
61 219 1.0965e-06
61 715 0.0201934
61 717 0.0364274
61 1462 0.0182135
61 1522 0.036425
61 1641 0.0182136
61 1671 0.0182137
61 2661 0.0764557
61 2730 0.0364254
61 3091 0.0182116
61 3292 0.0197528
61 3974 0.00151562
61 4451 4.01962e-05
61 4671 7.81531e-07
61 10217 0.018213
61 11405 0.0176496
61 13735 0.0182056
61 15452 0.0183423
61 17304 0.0182389
61 19841 4.09574e-05
61 20970 0.0162661
62 13 0.0992815
62 43 0.0992821
62 46 0.106471
62 301 0.0992741
62 6132 0.0992821
62 10423 0.0992821
62 10424 0.099282
62 10425 0.0992807
62 23728 0.198564
63 44 0.143194
63 45 0.0451692
63 46 0.000144103
63 263 0.0954815
63 1811 0.0954671
63 7965 0.0477343
63 13068 0.0477318
63 13640 0.286406
63 14066 0.143203
63 17565 0.0477344
63 23971 0.0477344
64 40 0.071128
64 45 0.00382491
64 759 0.0711292
64 1183 0.0710729
64 1202 0.0711292
64 3020 0.0711292
64 7010 0.0711292
64 7067 0.142258
64 9296 0.142223
64 10595 0.0715899
64 11623 0.0711278
64 17566 0.0711292
64 28202 0.0711292
65 13 0.365763
65 33 0.0155179
65 46 3.02337e-06
65 48 0.263849
65 65 0.0171422
65 95 4.4372e-06
65 164 0.00332859
65 168 1.21557e-05
65 193 0.0494527
65 239 8.04444e-07
65 304 0.016488
65 381 0.0495648
65 639 0.000378423
65 1219 0.0161786
65 1476 1.32362e-06
65 2147 4.41395e-07
65 2375 7.33311e-06
65 3473 3.63398e-07
65 5799 4.4878e-06
65 10819 2.35905e-07
65 11961 1.77232e-06
65 22403 0.103351
65 25255 0.0494623
65 25256 2.51869e-05
65 25257 0.0329748
65 25269 0.0164873
66 44 0.0565314
66 46 4.68868e-05
66 47 0.113043
66 89 0.108885
66 831 0.0562813
66 1811 0.0565213
66 3705 0.0543164
66 5568 0.0565137
66 6508 0.0565214
66 8142 0.0565212
66 10657 0.0565157
66 12762 0.0565213
66 13068 0.0565242
66 17565 0.113043
66 23996 0.102214
67 40 0.0769236
67 47 0.0769218
67 49 0.153847
67 50 0.153847
67 178 0.0769236
67 623 0.0769236
67 710 0.0769188
67 953 0.0769236
67 1792 0.0769236
67 10288 0.0769236
67 10289 0.0769236
68 79 6.60719e-05
68 89 3.76922e-07
68 123 5.02216e-06
68 215 2.77162e-06
68 233 0.0127422
68 306 0.0144717
68 367 0.536829
68 376 8.71763e-05
68 466 1.64584e-07
68 476 1.60898e-07
68 510 0.290196
68 828 0.014517
68 841 0.000107817
68 1041 0.0255723
68 1141 0.0151645
68 1508 6.20894e-05
68 1566 0.0145493
68 1588 0.0610981
68 2075 2.85077e-07
68 2728 8.4458e-07
68 6185 2.44268e-07
68 17562 3.35166e-07
68 19579 0.0145267
69 2 0.656886
69 108 0.00748957
69 163 6.00002e-07
69 195 0.104888
69 204 1.23675e-07
69 307 0.00700907
69 367 0.112281
69 431 0.00749232
69 482 1.19075e-07
69 933 0.0149848
69 1041 0.00749214
69 1508 0.021539
69 1513 0.0074924
69 1859 0.00749231
69 2046 0.00749231
69 2230 0.00749239
69 2877 0.0074924
69 5560 0.0074923
69 10941 0.00749142
69 13332 0.00749233
70 28 1.28441e-07
70 61 3.39046e-07
70 77 0.0109827
70 82 0.000272231
70 98 0.000196542
70 124 0.728132
70 125 0.00227599
70 161 0.00162805
70 168 1.42889e-06
70 169 3.72289e-06
70 182 0.00114504
70 183 0.00504844
70 190 1.53489e-07
70 221 3.43112e-06
70 278 0.00212445
70 315 0.212964
70 355 0.00150878
70 372 0.0070815
70 376 0.00127531
70 478 0.00899723
70 510 2.13187e-06
70 563 1.19754e-06
70 627 0.000959991
70 1018 1.25495e-07
70 1193 0.00977882
70 1441 1.75193e-07
70 1769 3.63175e-07
70 1780 0.000954777
70 1782 2.00877e-06
70 2198 1.29492e-07
70 2222 2.14053e-07
70 2564 1.4219e-07
70 3197 1.66998e-06
70 3398 1.16493e-07
70 3780 0.00284845
70 4610 2.60765e-06
70 4881 4.25925e-06
70 5513 0.000208954
70 6205 8.51499e-07
70 7725 1.14571e-06
70 7862 1.02066e-07
70 8156 1.94443e-05
70 8653 3.60626e-07
70 8818 5.34427e-07
70 9599 0.000726349
70 9799 5.22637e-05
70 10104 3.03647e-07
70 10582 1.43716e-07
70 11330 9.23978e-07
70 12218 2.02434e-05
70 15051 1.39204e-07
70 17226 2.86687e-07
70 20666 0.000752417
70 21054 1.15486e-07
70 25808 5.0579e-07
70 27879 1.10808e-05
71 11 4.86672e-05
71 61 0.205908
71 77 0.0309433
71 98 0.00781678
71 107 2.64627e-06
71 125 0.149784
71 145 2.70945e-07
71 194 3.01043e-05
71 221 0.0705316
71 278 0.00146975
71 314 0.0434243
71 355 0.00786895
71 379 1.06258e-07
71 478 0.000281566
71 486 2.70204e-07
71 510 5.30795e-05
71 542 0.387989
71 563 2.92993e-06
71 591 2.17333e-07
71 611 0.00152902
71 783 4.26641e-07
71 825 1.95407e-06
71 1245 1.94533e-05
71 1547 0.040786
71 1872 2.19061e-07
71 1948 3.00525e-07
71 2086 2.64104e-06
71 2198 2.04594e-06
71 2222 8.58706e-06
71 2565 0.0157229
71 3197 6.71353e-05
71 3230 2.08528e-07
71 3260 1.20191e-07
71 3925 1.44329e-07
71 4435 1.35256e-05
71 4496 1.52344e-07
71 4930 1.20002e-07
71 5150 1.2389e-07
71 5398 1.23121e-07
71 5656 1.13161e-07
71 5881 0.0156077
71 6205 1.07564e-06
71 6845 3.29569e-06
71 7862 4.89215e-07
71 7907 1.25993e-06
71 8410 0.0124219
71 8818 1.54202e-05
71 9349 2.30241e-07
71 9846 3.39812e-07
71 11353 5.86316e-06
71 11452 4.02447e-07
71 11871 9.85062e-05
71 12218 0.000806918
71 12608 4.24112e-07
71 13846 3.53348e-07
71 14513 2.14419e-07
71 15051 5.58441e-06
71 17226 7.1472e-07
71 17230 1.14876e-07
71 17433 1.22717e-07
71 17663 1.37007e-07
71 18031 4.25995e-07
71 22357 0.00651529
71 22718 1.6872e-06
71 23234 1.06516e-07
71 23483 0.000197834
71 25004 3.22459e-07
71 25808 1.26095e-06
72 11 5.87267e-07
72 51 0.023027
72 58 1.10165e-05
72 61 0.0199038
72 78 0.0110139
72 95 1.05085e-07
72 139 0.0580433
72 161 0.01222
72 194 0.000558926
72 241 0.0177772
72 245 0.00441809
72 278 0.000348744
72 283 1.75865e-06
72 337 5.04737e-05
72 347 1.29893e-07
72 375 0.129533
72 413 0.0348062
72 457 2.50742e-05
72 486 0.0497618
72 611 0.0440558
72 718 0.0289156
72 1026 0.11055
72 1243 0.0058569
72 1279 1.61507e-06
72 1452 0.0115415
72 1547 0.00461637
72 1552 0.00863536
72 1589 0.0784616
72 2198 5.702e-06
72 2200 1.32322e-05
72 2222 0.00559468
72 2266 1.07131e-06
72 2299 1.34811e-05
72 2324 0.0290224
72 2359 3.42916e-07
72 2494 2.83204e-06
72 2565 0.0273998
72 3394 0.0117009
72 3614 0.0116062
72 3631 1.19701e-07
72 3766 1.30745e-07
72 4249 0.0227875
72 4401 1.48215e-06
72 4418 0.00150312
72 4496 3.25379e-05
72 4525 0.00476273
72 5742 0.0115561
72 5774 0.0248836
72 5881 0.026752
72 6179 0.001655
72 7078 0.00578458
72 8176 6.93179e-07
72 8410 0.000541879
72 8604 0.0141652
72 8668 4.7632e-06
72 8705 0.00580293
72 8797 0.0173678
72 8879 5.00812e-06
72 9287 0.00580288
72 9369 1.61422e-05
72 9552 0.0346708
72 10469 0.0116064
72 11353 0.0048281
72 11577 0.00579208
72 12127 0.000169473
72 12329 0.0057941
72 12390 6.12196e-07
72 13766 3.66221e-05
72 15051 0.00119273
72 15889 0.000174885
72 16780 0.00580171
72 16781 0.00580283
72 17026 0.00554374
72 17409 2.50292e-07
72 18284 0.000100267
72 18529 0.00063399
72 20693 0.00580296
72 20799 2.41507e-07
72 21022 0.0174093
72 22254 3.42317e-06
72 23069 7.30921e-07
72 23154 1.49675e-07
72 23862 0.000231455
72 24671 0.00573042
72 28056 0.00575037
73 7 1.67946e-05
73 40 0.0428703
73 57 3.85522e-07
73 72 1.70008e-07
73 89 0.0431832
73 100 0.138483
73 164 1.50535e-07
73 169 0.0735165
73 184 1.46072e-06
73 193 0.0284312
73 194 0.0571725
73 197 8.38871e-07
73 221 0.0559652
73 264 0.0141616
73 319 0.451424
73 337 0.0665622
73 466 9.42474e-07
73 554 1.48259e-07
73 676 1.44719e-07
73 865 0.0282063
73 1401 1.91718e-06
73 4239 6.63401e-07
74 33 2.17667e-07
74 38 1.33614e-06
74 51 0.00549836
74 54 0.700891
74 61 0.00418754
74 152 3.80669e-06
74 163 0.00897538
74 183 9.32273e-06
74 197 3.41259e-07
74 268 0.00840334
74 440 1.11387e-07
74 858 2.2936e-06
74 1263 1.02748e-07
74 1616 4.11366e-07
74 2152 6.49618e-07
74 3728 0.00323346
74 4195 0.19763
74 4249 4.44392e-05
74 4351 1.55889e-05
74 4888 1.45475e-05
74 5236 0.00420145
74 5524 0.0084018
74 5742 0.00803048
74 6379 1.02706e-06
74 6683 0.00420081
74 7078 1.12966e-05
74 8757 5.76665e-07
74 8797 0.00420156
74 8859 0.0378151
74 13304 1.94996e-05
74 17743 2.89465e-06
74 19704 0.00420168
75 7 3.46287e-06
75 11 1.92583e-07
75 55 0.647698
75 57 2.57279e-07
75 143 7.58219e-07
75 168 0.00437309
75 196 0.00141157
75 494 3.50153e-07
75 613 4.00123e-05
75 909 0.0313661
75 1092 9.82945e-06
75 1136 1.04948e-07
75 1437 0.236023
75 1730 3.23242e-05
75 1973 0.00619651
75 2299 1.18058e-07
75 2365 0.0189968
75 4329 0.0126072
75 5070 0.0113566
75 7058 1.30532e-06
75 7497 0.00875965
75 8886 1.90187e-06
75 12705 2.12204e-05
75 16784 0.0043798
75 16969 0.00437871
75 19225 0.00875967
75 23104 0.00013722
75 25129 0.00344407
76 14 0.0273388
76 34 3.35478e-07
76 35 0.965555
76 51 1.2736e-07
76 79 3.69933e-06
76 215 6.20804e-06
76 286 4.98924e-07
76 301 1.977e-07
76 315 4.30987e-05
76 457 1.47726e-07
76 683 4.15627e-07
76 759 0.00691739
76 834 1.09878e-07
76 991 8.92926e-06
76 994 2.05442e-05
76 1041 5.62269e-07
76 1369 1.00497e-07
76 2204 2.67169e-07
76 3082 4.8632e-07
76 3728 2.33895e-05
76 4906 1.24976e-05
76 5313 4.72321e-07
76 5742 2.18054e-06
76 5876 1.28727e-05
76 5919 1.9938e-05
76 5950 1.47554e-07
76 6418 9.31533e-07
76 7829 8.29736e-07
76 12360 3.27242e-06
76 12971 4.34056e-07
76 13064 3.37041e-06
76 18753 3.22419e-07
76 19101 4.83096e-06
76 20573 1.53761e-05
77 52 0.137966
77 53 0.595967
77 58 0.0392431
77 63 1.64172e-07
77 76 0.0475544
77 79 1.05502e-07
77 94 0.00653115
77 121 0.0196189
77 181 0.0958116
77 193 5.31192e-05
77 195 7.44129e-07
77 197 0.000214517
77 240 5.1509e-06
77 369 1.02283e-07
77 385 1.01866e-07
77 422 0.000457715
77 463 0.00217579
77 476 0.0244141
77 759 1.14747e-06
77 774 0.000230709
77 958 0.000474238
77 994 0.0036109
77 1020 0.0210351
77 1075 1.05751e-07
77 1290 2.26856e-05
77 1411 0.00157789
77 1448 2.13808e-07
77 1665 0.000230583
77 2115 2.44809e-07
77 2160 0.000459283
77 3794 0.000216058
77 4258 1.31481e-07
77 4269 3.38683e-07
77 5078 0.000487684
77 6178 0.000657952
77 6227 5.06653e-05
77 6596 3.45386e-07
77 6717 0.000230702
77 7818 0.000231112
77 7985 0.000230708
77 8158 2.11916e-07
77 10558 1.42544e-07
77 11871 2.60088e-07
77 12345 9.32215e-07
77 13064 1.66812e-07
77 13500 0.000230706
77 15013 2.80411e-07
77 19749 1.167e-07
77 23500 5.36741e-07
77 25808 3.21391e-07
78 26 0.00786261
78 33 0.0243764
78 57 3.20899e-06
78 58 0.0671598
78 142 0.0015219
78 143 0.52283
78 146 0.119072
78 197 2.28355e-06
78 219 6.62107e-06
78 337 0.0342769
78 375 6.66206e-06
78 376 0.0749548
78 436 5.55032e-07
78 465 0.0374839
78 466 0.00366769
78 510 1.3033e-06
78 804 8.44328e-07
78 828 1.10138e-07
78 885 0.0732348
78 1304 1.35062e-07
78 1369 0.0264958
78 2288 0.003337
78 2512 2.43538e-05
78 2853 5.76987e-07
78 2983 0.000282403
78 5083 1.48678e-07
78 9315 5.35546e-05
78 10492 1.9902e-07
78 10639 0.00333895
78 14701 2.38793e-06
78 20439 8.18911e-07
79 7 8.7238e-07
79 11 2.58376e-06
79 28 1.14091e-07
79 33 0.441894
79 57 0.311633
79 80 0.00103147
79 107 0.00725041
79 123 0.000160218
79 142 3.59827e-05
79 146 2.25933e-06
79 152 8.24389e-05
79 202 1.15305e-07
79 219 2.20443e-07
79 221 8.57811e-05
79 241 0.00671605
79 244 0.00409511
79 286 2.65055e-06
79 299 1.9237e-05
79 315 1.46607e-07
79 401 3.74292e-06
79 404 1.89124e-07
79 457 4.30749e-07
79 466 0.0375687
79 486 0.00613388
79 747 0.00437706
79 941 2.64328e-06
79 1219 4.28225e-07
79 1275 0.00916205
79 1325 8.50044e-07
79 1333 0.00420677
79 1369 0.156935
79 1741 0.00427348
79 1782 1.10174e-06
79 2148 2.00125e-07
79 2554 6.61277e-07
79 2594 1.81842e-07
79 2983 0.000682634
79 3112 1.77022e-07
79 3704 1.75274e-07
79 3886 1.97085e-06
79 4122 0.00352757
79 5419 2.88228e-06
79 5573 1.37146e-07
79 5725 1.26492e-07
79 5950 2.45555e-05
79 7390 8.77889e-06
79 8043 4.57923e-07
79 8150 1.85264e-06
79 8156 1.15263e-05
79 10007 1.12221e-07
79 10997 1.52873e-07
79 12218 1.18021e-05
79 14173 4.19709e-05
79 21923 1.39374e-07
79 22442 1.90728e-07
79 26913 3.41102e-07
80 3 1.62174e-05
80 33 0.0547438
80 52 3.7232e-07
80 57 0.40183
80 77 6.06893e-06
80 80 0.111414
80 81 0.000942251
80 123 0.118773
80 125 0.0159366
80 145 0.00021273
80 190 0.00312986
80 194 3.06765e-05
80 221 7.08623e-05
80 224 1.17541e-07
80 307 1.13533e-07
80 337 0.00500061
80 436 6.84849e-07
80 466 0.184252
80 564 2.36261e-07
80 591 1.05389e-07
80 718 1.22733e-07
80 773 0.00422022
80 804 7.2651e-06
80 1263 0.00183851
80 1369 0.00357822
80 1596 1.29214e-07
80 1597 0.0588939
80 1611 0.00743408
80 2086 1.31023e-06
80 2148 5.59984e-06
80 2343 0.0274333
80 3691 1.04971e-07
80 3856 4.29413e-07
80 4874 8.41308e-05
80 5124 5.74762e-05
80 5419 1.1337e-07
80 5726 1.10757e-07
80 5855 2.20671e-07
80 7907 1.4365e-07
80 8043 8.97969e-07
80 8304 1.47273e-07
80 9903 1.53783e-07
80 10530 7.90499e-05
81 3 1.33434e-05
81 11 0.104259
81 18 0.036959
81 26 0.205857
81 32 0.103238
81 35 0.0486798
81 72 5.23459e-05
81 81 0.0525813
81 103 0.109733
81 107 0.022355
81 145 7.12174e-05
81 148 5.83231e-06
81 289 0.000101306
81 319 6.94829e-05
81 482 0.072688
81 865 4.41465e-07
81 1219 8.3375e-06
81 1611 0.13398
81 1615 0.0364918
81 1937 6.49861e-06
81 2587 0.0363979
81 2889 3.60871e-05
81 3249 1.18035e-06
81 6337 0.0363812
81 9135 2.9532e-05
81 10104 2.54776e-06
82 51 1.54151e-06
82 54 0.0245809
82 56 0.628195
82 64 0.056538
82 124 0.0112335
82 143 1.14712e-07
82 149 0.0154788
82 178 7.9677e-07
82 194 2.22617e-06
82 286 1.89703e-07
82 337 0.00903548
82 440 1.18149e-06
82 702 2.0642e-07
82 858 0.00871905
82 862 0.0112321
82 1082 0.112263
82 1655 9.2161e-07
82 2721 0.0112443
82 3624 1.67844e-07
82 4204 0.0446118
82 5561 0.011227
82 11426 0.0112317
82 17743 0.0112187
82 17803 0.0112283
82 20467 0.0112319
82 20606 0.0107209
82 25866 2.19522e-06
83 58 1.04518e-06
83 59 0.021429
83 60 0.150009
83 100 0.0214229
83 132 0.0216726
83 359 0.0214298
83 421 0.0214298
83 425 0.0428595
83 777 0.128579
83 802 0.0424708
83 1171 0.0214298
83 1297 0.0214341
83 2805 0.0214298
83 3231 0.0428596
83 3682 0.0643006
83 3756 0.0857192
83 3814 0.0214216
83 3909 0.0214298
83 4583 0.0214297
83 4748 0.0428589
83 7805 0.0146677
83 8324 0.0214298
83 9737 0.000135268
83 12375 0.0214281
83 12376 0.0428591
83 12377 0.0214249
83 14036 0.0210094
83 16587 0.0214298
84 18 0.0566791
84 61 0.114258
84 94 0.0150118
84 95 4.14093e-07
84 140 0.0164057
84 152 2.48745e-06
84 241 0.0439054
84 245 0.0397522
84 265 1.12762e-07
84 355 1.62249e-07
84 364 6.36796e-06
84 476 2.66129e-07
84 505 0.034929
84 576 0.00430993
84 648 0.0523737
84 676 1.39583e-06
84 761 0.00450848
84 811 0.0566694
84 812 2.23495e-06
84 873 0.00432836
84 1027 0.00873167
84 1146 1.05778e-07
84 1452 0.0196519
84 1547 0.00885012
84 1552 6.14726e-05
84 1589 1.38479e-07
84 1651 0.00436604
84 1745 1.94403e-06
84 1916 0.000160477
84 2007 0.00435913
84 2047 0.0227186
84 2110 0.0044612
84 2152 0.109143
84 2203 2.79094e-07
84 2324 0.0445887
84 2437 0.0012591
84 2565 0.0255707
84 2950 0.00437168
84 3040 0.000118146
84 3797 0.0305596
84 4241 0.0043693
84 4348 0.00436577
84 4781 9.23343e-05
84 5039 5.10465e-07
84 5295 3.49467e-06
84 5357 0.0174636
84 5432 0.00399615
84 5452 5.0003e-05
84 5484 2.92155e-06
84 5712 3.16184e-07
84 5856 0.00313159
84 5922 0.00426941
84 5941 0.0174778
84 6058 0.0136661
84 6418 0.00440381
84 6703 4.04701e-07
84 7416 0.00436588
84 7550 0.00854985
84 7594 0.018682
84 7947 0.000282432
84 8041 8.40108e-05
84 8488 0.00436632
84 8737 0.00872896
84 8829 0.0218299
84 8879 0.00863453
84 9117 1.57903e-06
84 9881 0.00149798
84 10024 1.54225e-06
84 10887 0.00455829
84 11232 0.0130977
84 11355 2.63123e-07
84 12598 8.4095e-05
84 13201 9.36946e-07
84 14347 0.00436577
84 14487 1.81663e-07
84 14942 7.82054e-05
84 15272 0.00436575
84 15814 0.00429581
84 15844 0.0130966
84 16446 0.00436591
84 17041 0.00436594
84 17652 0.00436583
84 17687 0.00317864
84 17690 0.0044169
84 17803 1.39443e-06
84 18031 0.000373127
84 18203 0.00435981
84 18776 0.0087318
84 19370 0.00416321
84 20175 0.00430342
84 20719 0.00437377
84 21559 0.0033042
84 21610 1.45707e-06
84 22209 0.00436585
84 22973 1.15015e-07
84 23031 0.0043659
84 23539 1.15307e-05
84 24775 0.00436574
84 25982 0.0043253
84 26708 0.00436577
84 27930 0.00150931
84 27952 3.06872e-06
85 57 1.97849e-06
85 82 0.990884
85 124 5.63253e-06
85 133 1.11814e-07
85 148 0.000511452
85 157 2.45229e-06
85 190 1.27173e-07
85 307 1.91205e-05
85 384 3.02071e-07
85 769 2.5409e-05
85 773 5.77504e-05
85 936 3.55432e-07
85 1351 2.3007e-05
85 1363 1.16027e-05
85 1369 0.00372193
85 1547 7.44334e-07
85 1596 4.45294e-07
85 1597 1.71822e-07
85 2152 4.10489e-07
85 2196 2.01382e-06
85 3320 1.53606e-07
85 3744 1.6565e-07
85 3944 1.14205e-07
85 4345 1.27226e-06
85 4906 0.000151684
85 5473 0.00383875
85 5684 2.40716e-07
85 5855 3.94107e-07
85 6840 3.05455e-07
85 7642 3.74149e-05
85 7907 1.36699e-06
85 8937 2.79687e-07
85 9591 4.42748e-07
85 12219 0.000693797
85 13766 2.32919e-07
85 16107 4.8682e-07
85 16272 7.5035e-07
85 17320 1.35448e-06
85 26673 1.42537e-07
86 62 0.13991
86 250 0.166142
86 411 0.166273
86 830 0.377628
86 1286 0.131165
86 12049 0.00874397
86 13619 0.00139343
86 14523 0.00874435
87 32 1.65498e-06
87 63 0.506162
87 103 5.59049e-07
87 239 0.0293586
87 242 3.07303e-06
87 479 0.168377
87 532 0.0220365
87 1072 0.0110053
87 1167 1.73706e-07
87 1629 0.00329228
87 1828 0.120703
87 3118 0.0220339
87 3207 0.0183481
87 4087 0.00733834
87 4671 3.29716e-05
87 5293 0.0806996
87 12161 0.00366916
87 17968 0.00366911
87 21803 1.36799e-07
87 22933 0.00326762
88 7 0.005164
88 56 0.184773
88 64 0.115635
88 149 0.180202
88 183 2.01998e-06
88 190 0.0197939
88 862 0.0218381
88 1082 0.0267394
88 1092 0.0231265
88 1185 0.0462531
88 1426 0.0231255
88 1806 1.97023e-06
88 2003 2.27199e-05
88 2282 0.0462371
88 2545 6.04729e-07
88 2720 0.0528393
88 3398 0.0231249
88 3671 0.0462461
88 4153 0.0693781
88 4884 0.0229934
88 9701 0.0231265
88 10772 0.0231249
88 16924 0.0231264
88 17321 0.0231262
89 11 0.00909506
89 38 0.00333555
89 53 2.16907e-06
89 65 0.392496
89 74 1.06691e-07
89 163 1.45661e-07
89 188 2.46652e-07
89 221 5.44038e-06
89 383 0.00332714
89 422 4.4473e-07
89 758 0.00332771
89 1156 1.29179e-07
89 1476 0.00305701
89 1652 8.07614e-06
89 1803 2.6249e-07
89 2365 1.06805e-05
89 2914 0.502169
89 4328 0.066555
89 4593 0.00332814
89 6636 2.77997e-07
89 7057 0.00329808
89 9046 1.71771e-07
89 23070 0.00332778
89 23071 0.00665564
90 26 2.48241e-05
90 66 0.150792
90 261 1.18712e-07
90 1031 1.17314e-05
90 1041 0.0115642
90 2953 0.0216973
90 2959 0.0167132
90 3528 0.0115989
90 3601 0.382777
90 3602 0.0814293
90 3758 1.6424e-07
90 4441 7.0627e-06
90 4522 0.0232201
90 7077 0.115993
90 7323 0.011599
90 8224 0.0119221
90 10185 0.0101012
90 11418 0.0136463
90 11527 3.32869e-06
90 15274 0.0293429
90 16500 0.0158208
90 17060 0.0115994
90 18030 0.0463975
90 18447 1.32863e-07
90 19188 0.0115989
90 21203 0.00131519
90 24519 0.00853653
90 25166 0.0122878
91 67 0.183046
91 164 0.176354
91 165 0.0914595
91 166 0.0915235
91 198 0.0915233
91 629 0.0915233
91 793 0.091523
91 1782 0.0915235
91 14322 0.0915231
91 24828 1.13105e-06
92 33 4.55246e-06
92 68 0.285943
92 106 0.0171383
92 369 1.22175e-05
92 420 1.36751e-05
92 1251 0.0178712
92 1465 0.0178711
92 1887 0.053614
92 2681 0.125062
92 2735 0.375396
92 4671 0.0177105
92 5631 0.0178746
92 6361 0.0178714
92 12828 0.0178713
92 13202 1.69481e-06
92 14951 0.0178714
92 15550 0.0178686
92 23420 4.22218e-06
93 11 0.0128778
93 69 0.129743
93 79 1.44167e-07
93 80 0.0258131
93 89 0.19862
93 522 0.0129639
93 579 0.0648192
93 596 0.0129715
93 629 0.0114206
93 721 0.0129637
93 769 0.0122723
93 882 5.7414e-07
93 944 0.0129639
93 1156 0.0259277
93 1294 5.75377e-06
93 2399 0.0129638
93 2400 0.0129637
93 2526 9.14162e-06
93 3607 0.0129639
93 3705 0.0129635
93 4205 0.0129639
93 9766 0.0129613
93 11368 0.052015
93 11379 0.246314
93 11403 0.0259278
93 17367 1.96539e-07
93 19008 0.0259271
93 19009 2.11228e-07
93 23476 0.0129637
93 24696 0.0127358
93 26508 0.0129636
94 70 0.0517988
94 81 2.22494e-07
94 89 0.0937345
94 195 2.98995e-07
94 285 4.38039e-05
94 464 0.00128024
94 476 0.000729469
94 608 0.0124358
94 831 0.0886375
94 1116 2.83489e-05
94 1889 0.116827
94 2334 2.59577e-05
94 2536 0.0647502
94 4199 0.0258992
94 4525 1.17371e-06
94 4697 0.11655
94 5195 6.4552e-07
94 5210 0.0647481
94 5220 0.0518001
94 6591 0.01295
94 8943 4.33378e-07
94 9059 3.72285e-07
94 9617 0.000805088
94 10494 0.0259
94 11110 0.000173372
94 11751 0.01295
94 14999 0.01295
94 15000 0.0129498
94 15977 0.155398
94 16604 0.0295377
94 16739 3.24384e-05
94 16740 0.01295
94 17434 0.01295
94 20777 0.0112682
94 28083 0.00989252
95 11 2.18682e-07
95 74 0.598431
95 77 0.000922413
95 128 1.44842e-06
95 173 1.1144e-06
95 197 2.81332e-07
95 283 0.168623
95 858 0.03834
95 859 0.0010569
95 885 0.00533183
95 953 1.63895e-07
95 1202 0.016934
95 1251 0.0151597
95 1253 0.0100596
95 1545 2.00346e-07
95 1652 2.61701e-07
95 1751 1.31715e-07
95 1768 0.015985
95 1828 0.00609153
95 1992 0.0878297
95 2002 2.65874e-05
95 3247 7.61791e-06
95 4023 0.00989937
95 4290 0.00039778
95 4350 2.53005e-06
95 4794 0.00513481
95 5268 1.25336e-07
95 5823 0.00331795
95 6596 9.75131e-07
95 7100 0.00493472
95 7343 0.00286128
95 7797 0.00453282
95 8041 2.89323e-07
95 9307 2.00582e-06
95 9903 2.02894e-05
95 9974 0.00401926
95 10296 6.43903e-05
95 13039 4.96972e-06
95 16832 2.47091e-07
95 22549 7.44708e-07
96 11 9.24802e-07
96 52 0.031681
96 53 0.959881
96 79 2.17542e-06
96 94 0.00476996
96 148 8.14975e-07
96 195 6.39816e-06
96 196 1.19828e-07
96 217 8.50314e-05
96 220 4.53616e-06
96 1684 7.00423e-07
96 1768 1.14654e-07
96 2007 1.45673e-07
96 2044 9.85483e-07
96 3153 1.02753e-06
96 3497 1.22623e-07
96 4692 1.69317e-07
96 5109 0.00114991
96 5592 7.49864e-06
96 5871 1.75986e-07
96 6418 5.42705e-05
96 7021 1.19696e-07
96 8099 4.46784e-07
96 8545 0.00114829
96 11129 1.99292e-05
96 12724 6.75056e-06
96 13816 0.00114912
96 14029 2.89379e-06
96 16458 1.09847e-06
96 17407 2.92531e-06
96 17920 5.88005e-06
96 17969 1.36298e-07
96 18753 1.18108e-05
97 71 4.80192e-06
97 94 0.0139815
97 169 0.0146599
97 629 2.00701e-06
97 1058 0.015961
97 1294 0.0159403
97 1362 1.73413e-06
97 1520 0.0151506
97 2537 0.430944
97 5207 1.81021e-06
97 6202 0.030497
97 6455 0.0159506
97 7917 0.0319223
97 11408 0.223456
97 12214 0.0159609
97 13521 0.159611
97 19505 0.0159539
98 70 0.0156918
98 71 0.0175065
98 143 0.00961256
98 146 0.00209532
98 169 9.69723e-07
98 237 2.7066e-06
98 375 0.015751
98 576 0.0157554
98 1700 0.0787787
98 2160 0.000942192
98 2190 0.0315116
98 2681 2.21688e-07
98 5654 0.0308852
98 5655 0.0119263
98 6136 0.0315117
98 6360 0.0315114
98 6693 0.0630208
98 6743 0.0209453
98 7055 0.0315116
98 7316 0.015755
98 7351 0.0630234
98 7825 0.0313059
98 7942 0.0315065
98 9240 0.0157557
98 10902 0.0157558
98 11409 3.86761e-07
98 12215 0.0472674
98 13412 0.000121718
98 15569 0.0315113
98 16349 0.0019294
98 16664 0.0157544
98 16746 0.0472656
98 17138 0.0157558
98 17516 0.0157558
98 17628 0.0944623
98 18620 0.0315117
98 19101 0.00368258
98 20423 2.53557e-06
98 20897 0.0157558
98 20898 0.000197836
98 21373 0.00244968
98 22516 0.0157558
98 23651 2.31105e-06
98 23824 0.0157558
98 24071 0.0157368
98 25358 0.0157488
98 25780 9.8862e-07
98 26716 0.0157556
98 27999 0.0157558
99 73 0.596059
99 2152 2.08308e-07
99 4825 2.0071e-07
99 4979 0.0197044
99 5903 0.147783
99 6146 0.0935958
99 8004 0.142857
99 8757 1.25563e-07
100 33 8.09744e-05
100 108 2.90666e-06
100 145 2.87061e-06
100 148 7.54991e-06
100 169 0.0338487
100 184 0.0343529
100 221 0.0503739
100 289 0.0330805
100 508 0.0325852
100 599 0.0340485
100 620 0.0257446
100 715 0.000216292
100 905 0.000511224
100 1369 0.033879
100 1487 0.0340483
100 1500 0.0311572
100 1598 3.38045e-06
100 2358 0.00144269
100 2545 0.0329453
100 2601 0.0340476
100 3214 0.0340486
100 4237 0.0619282
100 4779 0.0340481
100 5210 3.53218e-06
100 5283 4.85805e-06
100 5288 0.0340477
100 5760 0.000193935
100 5823 0.0309707
100 6298 0.034048
100 6301 0.0340472
100 7822 0.0238074
100 8579 0.0340481
100 9617 1.02821e-05
100 9675 0.0340472
100 10903 1.79672e-06
100 11411 0.0340484
100 12622 6.52626e-05
100 14674 0.0303445
100 16732 1.84251e-06
100 16931 0.034047
100 17289 0.0340482
100 19363 0.0317132
100 24089 0.0340486
100 26951 0.0340478
101 32 1.48061e-07
101 75 0.0107706
101 81 1.30799e-06
101 94 0.00319053
101 101 0.000319919
101 163 0.000485029
101 469 0.00717664
101 773 0.00011429
101 812 0.000705955
101 1444 0.0179519
101 1673 0.445425
101 1749 0.0143608
101 3731 0.301578
101 3734 0.100565
101 9234 0.0825819
101 9922 0.000358248
101 10024 5.80002e-07
101 10773 1.80787e-05
101 11836 2.57826e-06
101 13309 0.0107704
101 14754 0.00359021
101 18812 5.65119e-07
101 20017 3.2442e-05
101 20018 1.45652e-07
102 123 0.0323911
102 139 1.99372e-06
102 147 0.021219
102 152 2.25267e-07
102 223 1.54485e-05
102 315 9.99057e-07
102 367 0.401067
102 385 0.010917
102 532 0.0109437
102 812 0.000366812
102 921 0.0109437
102 933 1.55598e-05
102 944 0.0109663
102 1041 0.304236
102 1046 7.38888e-07
102 1411 0.0771654
102 2148 3.826e-06
102 2178 2.63054e-07
102 2327 2.6504e-05
102 2594 0.0108498
102 2639 0.0109441
102 2794 0.0109437
102 3035 0.0109217
102 3696 0.0109437
102 4027 0.0109437
102 5348 2.08988e-06
102 8798 5.97312e-07
102 11012 0.0101531
102 11054 3.36897e-07
102 11330 9.80452e-06
102 11535 3.60899e-07
102 12538 0.0109454
102 13005 0.000143382
102 13691 0.0109437
102 13692 0.0218872
102 19619 6.23169e-05
102 21353 1.47834e-05
102 23213 8.77363e-06
103 34 0.00475227
103 52 0.0656317
103 53 0.00239744
103 58 5.63503e-07
103 79 0.485455
103 80 7.06798e-05
103 83 0.00264224
103 123 0.00384464
103 136 4.00611e-05
103 139 0.00290312
103 141 0.00211085
103 169 0.00620635
103 220 0.00307573
103 232 2.98177e-07
103 261 4.48835e-06
103 510 1.11847e-07
103 579 1.92994e-06
103 633 8.05124e-07
103 726 1.74819e-06
103 773 0.393482
103 811 1.37004e-07
103 858 0.00291556
103 952 2.62938e-07
103 1305 2.51355e-06
103 1596 1.28395e-07
103 2007 4.01394e-07
103 2097 0.0165256
103 2622 0.00284728
103 3017 4.68572e-05
103 3119 0.00249078
103 3310 3.18716e-07
103 3788 0.00249668
103 3794 2.63911e-07
103 4857 5.73554e-07
103 5419 3.98772e-06
103 5725 2.42034e-07
103 5871 2.88647e-07
103 7626 2.98642e-07
103 8660 1.51419e-07
103 9315 1.06611e-07
103 9329 1.56474e-07
103 10204 1.53341e-05
103 10997 4.12358e-07
103 13057 3.58383e-06
103 13080 1.63029e-07
103 13682 1.24086e-05
103 13698 7.33647e-07
103 13910 6.504e-06
103 16676 1.4663e-06
103 21195 1.55236e-06
103 22442 5.06332e-07
103 24121 2.02749e-07
103 27973 1.3427e-07
104 35 0.273733
104 53 5.03098e-06
104 83 0.495783
104 145 1.93801e-05
104 146 2.10668e-07
104 148 2.77962e-05
104 157 0.133938
104 220 0.000428655
104 221 9.85178e-06
104 287 0.0030494
104 319 4.3572e-06
104 411 3.34753e-07
104 494 1.21201e-07
104 552 5.91393e-07
104 608 8.09408e-06
104 726 1.45956e-06
104 901 1.82788e-07
104 977 1.00298e-07
104 1058 0.000449169
104 1245 1.54442e-05
104 1308 0.044593
104 1326 0.00042984
104 1332 0.00469239
104 1390 0.037281
104 1903 1.09652e-07
104 1986 1.42116e-05
104 2060 7.76676e-07
104 2373 3.33788e-05
104 3094 0.000581837
104 3508 6.69386e-07
104 5748 0.000581882
104 5977 0.000581899
104 6653 3.98543e-07
104 7216 0.00247463
104 8236 2.9331e-06
104 12484 0.000581935
104 13205 5.93039e-05
104 13561 2.05189e-07
104 15100 0.0006142
105 2 0.426572
105 22 0.0407217
105 80 1.41853e-05
105 149 6.47105e-07
105 152 0.00016828
105 286 0.0177575
105 367 0.184188
105 383 0.0183551
105 384 0.017551
105 392 0.0182909
105 465 4.0329e-06
105 585 0.000919908
105 773 0.01835
105 804 0.018346
105 806 0.0183541
105 853 0.00317014
105 919 2.18505e-05
105 1041 0.0184279
105 1411 0.0183128
105 1588 0.089565
105 1598 0.0183554
105 3230 0.0182222
105 11729 0.018355
105 17919 0.0183551
105 19105 0.0176211
106 84 0.333322
106 311 0.0555536
106 476 0.0555408
106 758 0.0568615
106 1444 0.0555537
106 2886 0.166661
106 3386 0.0541399
106 3511 0.0556605
106 4469 4.56501e-05
106 10390 0.0555537
106 10391 0.0555537
106 10392 0.0555533
107 13 0.000348318
107 85 0.0263108
107 94 0.103365
107 447 0.00818266
107 758 3.32367e-07
107 996 0.0262325
107 1770 0.0518989
107 2021 0.0197224
107 2090 0.0526221
107 2886 0.0263109
107 3333 0.026311
107 4535 0.0263103
107 6104 0.236799
107 10316 0.0263105
107 10382 0.105244
107 10508 0.026311
107 11192 0.0263102
107 15883 0.0263058
107 16373 0.026311
107 17986 0.0263105
107 18159 0.0535685
107 18161 0.0526209
107 18166 0.0262936
108 74 3.74006e-07
108 82 5.43798e-07
108 86 0.0926179
108 87 0.037047
108 88 0.185236
108 94 0.0182491
108 1169 0.0555706
108 6102 0.0740945
108 10507 0.277855
108 19521 0.111142
108 19522 0.074094
108 22832 0.0370473
108 23057 0.0370465
109 53 1.79909e-05
109 109 0.0461182
109 112 0.0304328
109 146 7.47772e-07
109 283 0.00625011
109 367 0.378416
109 510 0.00175133
109 554 3.67808e-06
109 834 2.47003e-06
109 862 0.0460189
109 1017 0.00760839
109 1041 1.64917e-05
109 1053 1.68663e-05
109 1411 0.0255089
109 2087 9.58926e-07
109 2132 1.80915e-07
109 3027 1.5075e-07
109 6963 2.38016e-05
109 7297 0.449942
109 9011 3.38572e-07
109 9512 0.00760196
109 15525 0.000128858
109 20215 4.04401e-07
109 21946 0.000136411
109 24520 7.25259e-07
110 7 2.02609e-07
110 72 5.28945e-05
110 89 0.656795
110 220 1.13707e-05
110 319 0.000263397
110 447 2.48082e-06
110 510 0.00162462
110 542 0.00197253
110 585 2.11936e-05
110 828 0.00254584
110 831 0.0462327
110 1141 0.0031615
110 1304 0.0792708
110 1452 3.30779e-06
110 1463 0.0548995
110 1510 0.146172
110 1588 1.71447e-07
110 1684 0.000527749
110 1828 1.24604e-06
110 1916 0.00294644
110 3153 0.00261695
110 4935 2.71238e-07
110 5068 3.08618e-06
110 5489 0.000461972
110 7201 1.96935e-05
110 7916 1.168e-07
110 12911 1.55902e-07
110 20475 0.000392322
111 9 0.0833996
111 1681 0.0833994
111 2379 0.0833992
111 2783 0.0833997
111 3608 0.0833992
111 5361 0.082511
111 8570 0.0833961
111 8571 0.0833994
111 8572 0.0833994
111 10132 0.0833996
111 12296 0.000101725
111 13114 0.0833973
111 14830 0.0833985
112 90 0.0165987
112 91 0.0663958
112 95 0.187162
112 168 8.09612e-06
112 3426 0.0663961
112 4348 0.0165987
112 5949 0.0497956
112 14727 0.149391
112 16190 0.13279
112 16193 0.0497971
112 17406 0.13228
112 17408 0.0331969
112 19886 0.049797
112 20951 0.0165989
112 21533 0.0165988
112 27371 0.0165944
113 13 3.51701e-06
113 15 0.0313283
113 92 0.125313
113 266 0.0313282
113 421 0.0289768
113 483 0.313256
113 527 2.43064e-06
113 1579 0.250627
113 2288 0.0313275
113 2297 0.0313282
113 3851 0.031198
113 4208 0.0313282
113 10403 0.0313282
113 17777 0.0313265
113 20365 0.0313283
114 93 0.0241227
114 94 0.0240165
114 95 0.287472
114 96 0.0602196
114 283 7.04305e-06
114 1194 0.0482383
114 1599 0.0120147
114 4185 0.0120587
114 4723 0.024119
114 5085 5.12246e-07
114 5787 0.0603006
114 6106 0.301503
114 7084 0.109651
114 8258 0.0120599
114 11355 1.51152e-07
114 13735 2.68567e-06
114 19081 0.0242139
115 79 6.78238e-07
115 100 0.574236
115 200 2.06196e-07
115 307 0.004528
115 319 0.18994
115 394 5.74239e-07
115 404 2.91687e-06
115 416 0.0622719
115 440 3.16815e-07
115 554 0.146387
115 621 1.85227e-07
115 676 5.69283e-07
115 702 0.0011172
115 986 8.7042e-07
115 1275 3.5502e-07
115 2129 1.92997e-07
115 2131 2.72969e-07
115 2853 0.0147968
115 3422 2.73097e-05
115 3788 3.76917e-07
115 4801 7.47087e-05
115 6198 0.00221952
115 6202 0.0043705
115 7297 1.67898e-05
115 13205 7.07677e-07
115 13783 1.02814e-07
115 15013 3.457e-07
115 15713 4.37615e-07
115 19166 2.61365e-06
115 21236 1.32558e-07
116 35 0.0529335
116 83 0.0231777
116 99 0.672165
116 152 8.65102e-07
116 157 0.0233115
116 265 0.0211224
116 1275 1.31503e-07
116 2373 0.160816
116 2818 0.00780468
116 3394 5.03344e-06
116 5054 2.84467e-05
116 5060 7.89424e-07
116 10552 0.0077254
116 12413 3.88603e-07
116 13174 0.00772567
116 14286 2.2106e-07
116 21402 0.0154508
116 21499 2.2655e-06
116 23547 0.00772966
117 7 1.11087e-07
117 11 1.52191e-07
117 101 0.412892
117 148 0.00257093
117 160 0.0439387
117 169 1.26984e-07
117 217 0.488204
117 224 1.43901e-07
117 286 3.32488e-06
117 328 1.05219e-06
117 494 1.28847e-07
117 885 0.000733383
117 996 4.31502e-07
117 1255 0.000764026
117 1291 0.000731283
117 1903 0.011765
117 2179 4.6525e-07
117 2335 0.000732921
117 2633 0.0205601
117 3091 0.000735225
117 4544 3.18985e-07
117 4683 0.00152565
117 5751 0.000735244
117 8054 0.00813788
117 9032 0.00220584
117 10976 0.000818915
117 13530 0.000735274
117 13802 0.000735268
117 13803 0.000735277
117 13804 0.000735027
118 72 0.770952
118 76 0.00287406
118 142 0.000269899
118 146 0.214722
118 187 1.4265e-06
118 188 3.28052e-06
118 215 2.15776e-05
118 374 5.18985e-07
118 377 0.000758507
118 447 0.0031713
118 470 3.26579e-07
118 479 1.00211e-07
118 935 7.99751e-06
118 1202 0.00417505
118 1911 1.16759e-07
118 2044 0.000812506
118 2372 8.40775e-06
118 2519 2.15769e-07
118 3082 0.000773545
118 3119 7.80347e-07
118 3946 5.37168e-06
118 4327 3.59945e-05
118 5901 1.0404e-07
118 8190 3.00888e-06
118 8832 1.17174e-05
118 9679 0.000739052
118 11871 1.32125e-06
118 14476 1.71375e-06
118 15218 0.000110523
118 17493 6.00518e-07
118 17713 1.72712e-07
118 18904 0.000504582
118 26841 3.00784e-05
119 102 0.204307
119 284 0.0281931
119 329 0.0704829
119 643 0.317432
119 856 4.76365e-07
119 1573 1.03634e-07
119 2007 1.59299e-06
119 6628 1.63428e-07
119 6697 0.325111
119 7801 0.042335
119 8779 0.00507514
119 13500 1.07339e-06
119 19169 0.00704775
119 19523 6.84254e-06
119 21637 5.40666e-06
119 24770 1.5527e-07
120 7 2.26862e-05
120 11 7.47391e-07
120 33 3.34632e-06
120 56 0.000472642
120 79 0.000548273
120 103 0.993045
120 140 2.18121e-06
120 152 0.00136373
120 166 0.000531562
120 195 2.43867e-06
120 197 3.61687e-07
120 215 9.60884e-07
120 220 0.000130063
120 337 2.61891e-07
120 407 1.94394e-07
120 484 0.000463924
120 585 5.8551e-05
120 859 2.27301e-07
120 901 0.000470973
120 996 2.28691e-07
120 1065 3.70089e-07
120 1235 4.57668e-06
120 1263 4.3395e-07
120 1547 0.000356574
120 2131 5.48975e-07
120 3012 0.000942045
120 3223 0.000471047
120 4704 3.22882e-05
120 4888 1.92773e-06
120 4956 2.35374e-07
120 5561 0.000471138
120 6685 2.14969e-05
120 10208 0.000471121
120 13202 1.41064e-07
120 14759 0.000106037
121 58 1.94427e-07
121 79 1.06551e-07
121 104 0.426677
121 106 0.5182
121 183 2.13401e-07
121 190 4.96268e-07
121 194 1.95789e-07
121 358 5.29823e-07
121 447 0.000514015
121 1065 1.14952e-05
121 1146 9.11591e-07
121 1544 0.000604004
121 3330 4.70784e-06
121 3476 0.0516287
121 5128 0.000524195
121 5189 2.57617e-07
121 5596 0.000513517
121 9601 3.06001e-06
121 10800 0.000703164
121 13636 7.22199e-07
121 17317 2.29024e-05
121 21901 7.2729e-07
121 24375 7.3132e-05
121 25197 0.000513549
122 7 6.39335e-06
122 107 0.665893
122 221 9.82716e-07
122 240 0.000842283
122 245 1.10952e-07
122 261 0.00275215
122 266 1.0781e-07
122 306 1.39121e-06
122 342 0.000849752
122 367 6.26159e-07
122 379 0.00180261
122 726 0.323197
122 1092 1.30614e-07
122 1290 4.59047e-05
122 1784 1.0949e-07
122 2435 4.03366e-07
122 2436 0.00235487
122 2819 1.56295e-07
122 2856 3.2056e-05
122 3333 3.1754e-07
122 3696 3.50794e-07
122 4231 4.44642e-06
122 5041 1.17316e-07
122 5115 1.48535e-06
122 5317 1.30277e-07
122 6205 0.00108588
122 6358 0.00111611
122 6979 3.0917e-07
122 8864 2.98248e-07
122 10905 2.76034e-07
122 13059 1.45818e-06
122 15888 2.99922e-07
122 19330 6.42384e-06
123 35 1.0161e-07
123 57 1.28679e-07
123 108 0.745105
123 121 0.00304177
123 146 5.02209e-07
123 152 0.00516458
123 182 0.022013
123 204 0.0119044
123 264 0.0176701
123 510 0.00584457
123 571 0.0167865
123 579 0.022008
123 585 0.00845495
123 758 3.95476e-05
123 773 0.00354369
123 802 4.62088e-06
123 1394 2.87783e-06
123 1596 2.19703e-06
123 1614 0.0635049
123 1680 0.00908616
123 1938 1.13312e-07
123 2110 2.88454e-07
123 2420 0.00908551
123 2455 1.55334e-07
123 2585 6.86716e-07
123 2760 1.394e-05
123 3048 0.00918153
123 3804 0.00692477
123 4874 0.0246118
123 5490 2.15523e-06
123 5730 0.000111854
123 6418 1.18419e-07
123 7159 5.26252e-05
123 9393 0.00610618
123 9402 0.00303811
123 11130 0.00302896
123 11392 0.000229111
123 13473 0.00302061
123 13771 7.87155e-05
123 15950 8.96309e-07
123 17903 3.15703e-06
123 20193 1.0454e-07
123 21054 0.000319059
123 22206 5.31715e-07
123 26158 9.83275e-06
124 74 0.0085234
124 109 0.395469
124 112 0.213084
124 190 3.24521e-07
124 393 0.281046
124 422 5.37734e-06
124 432 2.39453e-07
124 547 1.54734e-06
124 598 1.49056e-07
124 639 3.21825e-07
124 835 1.05108e-06
124 882 2.14077e-06
124 907 8.28617e-05
124 944 0.00198431
124 947 1.47799e-07
124 958 0.00194141
124 992 0.000339401
124 1612 0.0601801
124 3704 9.86352e-07
124 3822 0.00196883
124 3837 0.00195503
124 4142 5.80862e-07
124 5357 3.58259e-06
124 5432 0.0211993
124 7297 0.0117086
124 7344 0.000157458
124 8721 9.54652e-06
124 10744 3.17579e-07
124 11490 1.02544e-07
124 13372 6.24552e-07
124 25714 0.000331983
125 11 0.00719285
125 99 0.026311
125 110 0.402692
125 143 3.14735e-06
125 162 0.00370537
125 164 7.21055e-05
125 197 0.00394765
125 243 0.454515
125 564 3.96588e-05
125 578 9.56503e-07
125 853 1.42499e-07
125 1013 0.0037563
125 1332 0.0150311
125 1390 0.0450758
125 1612 0.00375621
125 2046 1.57387e-07
125 2437 2.88004e-07
125 2577 1.35139e-06
125 2587 2.4168e-05
125 12298 3.53059e-07
125 13561 0.0225379
125 15574 0.0112689
125 16390 5.64844e-05
125 20865 4.59131e-07
125 25406 9.35644e-06
125 25539 4.18572e-07
126 107 0.834875
126 149 0.000846068
126 188 0.00338795
126 221 7.68524e-07
126 261 1.01287e-05
126 283 3.98696e-06
126 293 4.80688e-07
126 367 0.0562517
126 385 1.95946e-07
126 710 3.13577e-06
126 726 0.0960393
126 807 5.51915e-05
126 862 2.89071e-07
126 875 8.2924e-07
126 918 0.00802559
126 1041 1.49834e-06
126 1660 1.02493e-07
126 2046 1.08296e-06
126 3908 0.000430991
126 4322 1.07976e-05
126 6891 3.82755e-07
126 6938 1.58489e-05
126 8864 1.14795e-07
126 9913 2.12262e-05
126 19959 1.53931e-05
127 33 0.0311541
127 78 7.87132e-07
127 108 6.61143e-06
127 111 0.0155652
127 142 2.30021e-05
127 148 9.7183e-07
127 157 0.0155652
127 269 0.015565
127 546 0.0155652
127 779 0.0155652
127 822 0.0311312
127 1072 0.0502381
127 1413 0.0155652
127 1777 1.86281e-07
127 2160 0.015571
127 2270 0.0155652
127 2320 0.0155652
127 3084 0.0466957
127 3179 0.108316
127 4228 0.0155652
127 5107 0.0155652
127 5662 0.140086
127 5750 0.0155652
127 6514 0.0466957
127 6676 0.0155652
127 7409 0.0311081
127 8618 0.0155646
127 8740 1.89282e-05
127 9184 0.0311292
127 10831 4.05351e-07
127 10900 0.0155652
127 12130 0.0155652
127 14893 0.0155652
127 15572 0.0466945
127 15970 0.0311303
127 17952 0.0155651
127 20723 0.0622607
127 20994 0.0155638
127 22238 0.000871988
127 23361 0.0155652
127 27057 0.0155652
127 28006 0.0155646
128 14 0.00352326
128 28 1.36265e-05
128 34 1.21357e-07
128 101 0.00395458
128 108 2.26241e-06
128 124 1.53731e-06
128 169 1.32835e-06
128 188 0.967913
128 262 0.000187532
128 503 0.00593998
128 520 0.000100198
128 621 5.86011e-07
128 661 1.42706e-07
128 705 2.79002e-07
128 959 2.34536e-07
128 991 0.000529392
128 1363 0.00012743
128 1464 9.9399e-07
128 1660 8.91943e-05
128 1770 3.54498e-05
128 1890 0.00157737
128 4493 2.07039e-07
128 5293 0.0157948
128 5631 4.19801e-07
128 5830 4.60106e-07
128 6316 1.15844e-07
128 6879 9.86818e-05
128 7427 5.06557e-05
128 8151 1.00051e-06
128 9644 8.54169e-07
128 11611 2.26658e-07
128 15982 4.39257e-07
128 16195 3.31473e-05
128 19248 1.66739e-06
128 20306 2.56662e-06
128 24066 1.45911e-05
129 25 0.0161313
129 103 0.0322385
129 113 0.371019
129 145 7.24036e-06
129 148 4.92206e-07
129 169 0.0318347
129 196 1.35137e-06
129 497 0.145181
129 1033 0.0161312
129 1209 0.0161313
129 1521 0.0161313
129 1612 0.0161313
129 1839 0.129034
129 1923 3.88167e-07
129 2047 0.0322625
129 2526 0.000345649
129 3087 0.032258
129 3323 0.0161312
129 5949 0.0161312
129 7400 0.0161104
129 8222 0.0161313
129 9390 0.0161312
129 10436 0.0161313
129 10478 3.25971e-07
129 10551 0.0161312
129 16071 0.0322624
130 7 0.676957
130 32 5.02477e-06
130 57 0.010213
130 76 7.03863e-07
130 80 3.8489e-05
130 94 1.02514e-07
130 100 0.0314221
130 107 3.43364e-06
130 145 0.0194724
130 152 2.99389e-06
130 177 1.42754e-07
130 190 8.09696e-07
130 262 0.00385821
130 283 4.67953e-07
130 319 0.180508
130 358 1.01542e-07
130 376 2.46826e-07
130 401 0.0202242
130 457 3.28346e-07
130 466 0.00846553
130 476 0.00843288
130 554 0.0108943
130 687 0.0162185
130 726 0.00115284
130 825 0.00379995
130 1061 4.02635e-07
130 1569 5.32002e-07
130 1832 4.21762e-07
130 2059 1.90168e-05
130 2467 1.30118e-05
130 2673 0.000240277
130 2891 2.99231e-07
130 3479 1.24652e-07
130 3557 1.0019e-07
130 4435 5.25604e-07
130 5266 0.000665419
130 5530 1.00805e-06
130 5925 8.65307e-07
130 6063 2.94798e-06
130 9984 0.000115149
130 10905 5.33119e-05
130 11392 1.84554e-06
130 13059 1.91565e-07
130 18927 1.66113e-07
130 19234 8.95445e-07
130 19907 0.00327156
130 23375 1.01314e-07
130 27015 1.18381e-06
130 27096 0.00393824
131 14 0.546581
131 72 0.385935
131 74 1.18253e-05
131 89 1.4796e-05
131 163 0.000142968
131 188 7.88634e-07
131 283 3.1961e-06
131 344 0.00882201
131 385 1.38409e-07
131 710 1.80107e-07
131 1072 0.0162856
131 1150 2.60389e-07
131 2149 0.000289251
131 4531 7.73219e-06
131 4878 0.0418989
131 6058 3.76758e-07
131 8512 1.31076e-06
131 13448 3.502e-07
131 21559 3.61885e-06
132 2 0.185171
132 107 0.587851
132 124 0.00901777
132 128 4.10597e-07
132 152 0.0355106
132 178 0.000112331
132 262 0.000344987
132 367 0.145482
132 510 5.39374e-07
132 743 0.00912397
132 1041 0.0091243
132 1402 0.00912433
132 1686 9.71078e-06
132 2289 2.01351e-06
132 2639 3.49572e-07
132 3265 0.00912393
132 6197 4.52079e-07
132 11187 9.01789e-07
133 58 0.0262718
133 114 0.105097
133 146 8.02647e-07
133 189 0.026274
133 503 0.0262726
133 885 0.025812
133 947 0.02627
133 1411 0.0262709
133 1599 0.0262805
133 2719 0.0525609
133 3118 0.026274
133 3795 0.1048
133 3940 2.73416e-07
133 5083 0.0262741
133 8459 0.0262739
133 8506 0.0270535
133 9196 0.0262738
133 10519 0.0263088
133 12550 0.0262741
133 13004 0.00154083
133 13736 0.0525483
133 17391 0.0262738
133 18759 0.0525452
133 22382 0.0788216
133 23322 0.0262741
133 24090 0.0262739
133 24834 0.026274
133 24840 0.0262742
133 25119 0.0262741
133 26640 0.0262316
133 27973 2.62604e-05
134 40 0.00667151
134 52 0.127909
134 53 0.419381
134 58 0.0131047
134 76 0.0132977
134 79 0.00705316
134 181 0.00661773
134 183 0.00656149
134 197 0.00670274
134 290 0.0199272
134 319 0.0994138
134 536 0.00749586
134 687 0.119557
134 803 0.0726829
134 1605 0.0132738
134 1686 0.00694211
134 3840 1.57478e-07
134 4034 0.00663707
134 4269 0.0135362
134 9131 0.00663624
134 9508 1.53679e-07
134 9687 7.09046e-07
134 11479 1.27327e-07
134 12128 0.00663704
134 13411 0.00668507
134 14609 0.00663705
134 19404 1.06143e-07
134 24939 1.55143e-06
134 26270 0.00663678
135 9 0.0140846
135 115 0.0422539
135 576 0.0140841
135 2232 0.183017
135 6017 0.0422539
135 6079 0.0845205
135 6698 0.0845078
135 6707 0.0705436
135 8071 2.78299e-07
135 9532 0.070423
135 11347 0.0704232
135 12326 0.0140845
135 12328 0.0140846
135 12438 0.0704229
135 14193 0.0140846
135 14194 0.0563385
135 14761 2.86548e-07
135 16220 1.621e-05
135 16489 0.0281692
135 17778 0.0140838
135 18758 0.0703703
135 20604 0.0140846
135 20641 1.58907e-06
135 20642 2.69099e-05
135 23173 4.63353e-05
135 25320 0.01398
135 25492 0.0140846
135 27408 8.63039e-06
136 2 0.0900246
136 7 1.15454e-07
136 35 1.37758e-07
136 53 2.36299e-07
136 94 1.34107e-07
136 107 0.823067
136 221 2.23108e-06
136 367 0.0398201
136 388 2.01574e-05
136 401 1.65367e-05
136 411 1.47226e-07
136 726 0.0385157
136 862 0.002606
136 1058 2.53246e-07
136 1533 1.24089e-07
136 3230 0.00299019
136 4441 6.19252e-07
136 5522 2.62728e-06
136 10619 1.58955e-07
136 11838 0.00279028
136 16315 1.50065e-07
136 18567 3.04205e-05
136 21671 0.000110303
136 23375 3.42108e-07
136 23797 1.39377e-07
137 95 0.196238
137 116 0.0503403
137 139 0.0503384
137 304 0.0503396
137 345 0.0503402
137 591 0.0503402
137 1893 0.0503401
137 4936 0.0503403
137 10976 0.0503372
137 12325 0.148773
137 12616 0.0509122
137 13876 0.0503402
137 13919 0.0503402
137 14474 0.0503401
137 17659 0.0503399
138 107 6.0994e-05
138 117 0.159622
138 590 0.0228027
138 3040 0.0221583
138 3868 0.0464936
138 4724 0.0228029
138 5650 0.638489
138 5923 0.0228031
138 6371 0.0456063
138 10175 2.20495e-06
138 14029 9.53038e-06
138 18751 0.0191489
139 34 5.3547e-06
139 64 1.91229e-05
139 107 0.00456911
139 152 0.494201
139 219 4.93782e-07
139 221 0.385151
139 242 1.08683e-07
139 261 0.0160515
139 262 1.14552e-05
139 337 3.81826e-07
139 383 0.066398
139 385 0.0152512
139 435 1.89134e-06
139 463 1.72949e-06
139 608 4.37947e-07
139 710 0.000157437
139 722 1.44553e-07
139 743 1.04843e-07
139 773 2.04193e-05
139 933 0.0150004
139 1369 3.19132e-06
139 1503 1.04961e-07
139 1596 1.95636e-06
139 1705 0.000935409
139 2414 2.71387e-06
139 3696 2.34085e-06
139 4260 0.0010041
139 5558 9.36063e-07
139 6240 0.00104708
139 8889 6.29861e-07
139 9073 6.26097e-07
139 21466 1.04214e-06
139 27309 0.000155833
140 118 0.0200282
140 221 0.110732
140 261 0.0719581
140 308 3.43159e-07
140 385 0.0135102
140 463 0.00039016
140 510 0.00239744
140 523 0.00666471
140 626 0.00665939
140 687 1.39242e-07
140 1090 0.00816143
140 1201 5.47106e-06
140 1568 0.00664771
140 1740 0.0199787
140 1778 0.0209772
140 2075 0.00660677
140 2554 0.0399423
140 4527 1.13324e-06
140 4917 0.0266538
140 4968 0.0332975
140 5120 1.02075e-06
140 5320 9.76331e-06
140 5500 0.00665786
140 5788 0.0668331
140 5824 7.65717e-07
140 5827 0.0466166
140 6512 3.18814e-07
140 7110 0.186463
140 7469 0.000353225
140 7528 0.039957
140 7606 0.0399975
140 7980 0.0466171
140 7981 0.0133189
140 8385 0.0133968
140 8419 0.013319
140 8955 0.0199785
140 9518 0.026638
140 11419 1.34424e-07
140 11901 0.0133189
140 12033 0.0066595
140 14546 0.0132482
140 15137 0.00665771
140 16272 2.11197e-07
140 16278 8.92035e-07
140 16320 1.56575e-05
140 16958 0.00665952
140 16959 0.00665952
140 17454 8.61117e-06
140 19792 0.00665951
140 19864 0.00665942
140 20704 0.00665911
140 20749 3.45118e-05
140 21935 1.0349e-07
140 24638 0.00665951
140 27015 0.00532788
141 119 0.100056
141 3147 0.200111
141 5832 0.100056
141 5833 0.0995341
141 11580 0.100019
141 12784 0.100056
141 12785 0.100056
141 14754 0.100056
141 23688 0.100056
142 32 0.624328
142 95 3.12552e-07
142 121 0.00902499
142 142 0.162057
142 143 3.15717e-06
142 217 0.016615
142 241 0.00991065
142 245 0.0406517
142 286 3.21639e-05
142 476 0.0689226
142 624 1.21557e-07
142 2059 0.0087357
142 2375 6.5766e-05
142 2672 1.16762e-07
142 3398 2.2427e-06
142 3539 8.68384e-06
142 3733 1.42257e-06
142 4589 1.77892e-07
142 4591 2.80644e-07
142 4744 0.00878821
142 8611 1.78312e-05
142 9183 5.22506e-06
142 9661 0.00689529
142 12347 2.3223e-07
142 13120 0.0175756
142 16674 5.58644e-07
142 17809 5.94588e-07
142 20220 0.00878792
142 23648 0.00878015
142 24088 0.00878827
142 24868 1.00994e-07
143 32 7.41099e-05
143 52 0.0899789
143 53 1.33093e-06
143 57 0.127073
143 61 0.00359565
143 81 0.369439
143 82 0.0976774
143 98 0.00030049
143 107 5.83369e-05
143 123 6.18279e-07
143 145 0.000856013
143 148 0.000420775
143 152 0.000116877
143 157 0.00429271
143 169 1.74088e-06
143 177 0.0270244
143 190 0.0128019
143 221 1.26212e-06
143 337 0.0490645
143 368 0.189779
143 374 5.24277e-07
143 376 5.73542e-05
143 458 3.16977e-07
143 466 0.00766509
143 557 3.87344e-06
143 714 4.02926e-06
143 726 0.00669506
143 1018 1.37153e-07
143 1053 0.00824079
143 1508 0.00422612
143 2432 6.08378e-07
143 2608 1.25309e-07
143 2628 1.32338e-07
143 3223 6.31333e-07
143 3398 1.04204e-07
143 4881 1.4263e-06
143 6207 0.000500497
143 9799 2.80612e-05
143 11330 9.27364e-07
143 16798 1.81645e-06
143 21054 1.35714e-05
144 107 1.30771e-06
144 120 0.187632
144 468 0.0208518
144 612 0.208505
144 841 0.000147097
144 1275 4.30591e-07
144 2236 0.0104252
144 2623 0.27074
144 3151 0.0104252
144 3422 6.67447e-06
144 4345 1.9719e-06
144 4349 0.0208505
144 5280 1.11108e-05
144 6205 2.48233e-07
144 6215 0.187653
144 11714 0.0312757
144 12615 0.0417006
144 18154 3.38497e-07
144 21785 0.00977253
145 120 0.0588412
145 122 0.0881677
145 316 0.0587787
145 468 0.0588624
145 1462 0.0293894
145 2400 0.0293894
145 3860 0.0293894
145 4684 0.0587786
145 5052 0.0293892
145 7087 0.146945
145 10283 0.0881681
145 10925 0.0293894
145 11493 0.0881682
145 12061 0.000623945
145 13675 0.0293893
145 16923 0.0293873
145 19956 0.0293894
145 20373 0.0293879
145 21052 0.0293894
145 23712 0.0293894
145 23726 0.0293869
146 148 4.94424e-07
146 149 0.0416251
146 182 0.0202229
146 195 0.000702759
146 266 0.00271778
146 290 6.84024e-07
146 297 1.05797e-05
146 367 0.0234793
146 376 0.0214526
146 404 0.000121051
146 421 9.03187e-05
146 510 0.806113
146 514 1.27076e-07
146 564 0.0024105
146 585 0.00743902
146 758 5.09223e-06
146 773 4.11614e-07
146 779 2.96976e-07
146 804 0.00734503
146 886 0.0103439
146 1463 1.62807e-07
146 1482 4.95301e-07
146 1588 0.0486044
146 1596 4.70783e-06
146 2069 0.00250003
146 2435 2.5492e-07
146 2819 1.15233e-07
146 4595 1.96536e-07
146 5631 7.94089e-06
146 7047 0.002236
146 7500 2.16538e-06
146 8121 1.71232e-07
146 8467 2.87584e-05
146 8849 1.00209e-07
146 9517 1.00474e-05
146 13473 1.2035e-07
146 13682 2.69314e-07
146 15628 2.79701e-06
146 20794 1.5348e-07
146 21095 9.4373e-06
146 24075 2.7993e-07
146 25131 9.33173e-06
146 26913 0.00249929
147 7 0.81454
147 89 0.000511668
147 104 0.00578307
147 105 0.0298781
147 110 0.00578347
147 126 0.0515262
147 182 0.0112514
147 312 1.49834e-07
147 367 0.00579292
147 368 5.16509e-07
147 377 0.00510863
147 563 0.00622816
147 985 0.00578315
147 1013 0.00578315
147 1644 0.00578315
147 2549 1.45436e-07
147 4190 0.00578315
147 4289 0.00578304
147 4691 0.0115662
147 5221 1.20634e-07
147 5411 0.00578315
147 5822 0.0057692
147 6880 1.23585e-07
147 9725 0.00578025
147 12591 1.03169e-07
147 16522 0.00578068
148 168 3.73069e-05
148 182 0.0014188
148 183 0.000751595
148 195 1.38151e-07
148 197 3.81714e-06
148 215 1.62117e-07
148 224 0.179239
148 283 2.68491e-07
148 306 0.470416
148 307 0.148446
148 355 2.72222e-06
148 376 0.182101
148 463 0.00194705
148 465 0.00110119
148 486 3.03921e-06
148 507 3.18877e-05
148 510 0.00953109
148 560 5.99756e-06
148 622 0.000469815
148 806 5.66412e-05
148 828 0.000875863
148 964 5.4872e-06
148 1245 1.40782e-07
148 1369 0.0016307
148 2027 2.22091e-05
148 2072 1.42869e-06
148 3386 2.58381e-07
148 4231 4.2982e-06
148 4553 0.00121597
148 5175 0.000673179
148 6749 8.53482e-07
148 16067 2.63335e-06
148 27562 7.78974e-07
149 7 9.0651e-07
149 11 6.80677e-05
149 34 4.27649e-07
149 152 5.38555e-06
149 161 0.00257878
149 162 1.46298e-07
149 163 0.670621
149 173 5.03342e-07
149 180 0.00378467
149 183 0.0837247
149 196 0.0187137
149 197 0.00726242
149 217 1.38223e-07
149 220 0.10634
149 312 2.54875e-07
149 372 0.0164274
149 465 1.31216e-07
149 510 7.01476e-07
149 620 0.00462312
149 629 0.000371112
149 689 9.32098e-07
149 714 0.0501211
149 853 0.0215945
149 1063 3.81596e-05
149 1085 1.03597e-07
149 1204 0.00500063
149 1297 0.000312751
149 1310 1.80785e-07
149 1420 7.62486e-06
149 1438 1.22787e-07
149 1471 0.00373795
149 1774 1.20302e-07
149 1791 0.000311582
149 2253 0.000663361
149 2622 0.000625147
149 3804 1.70119e-06
149 3890 1.00091e-07
149 4236 5.9407e-05
149 4807 0.000625458
149 5423 0.000312567
149 5494 0.000625139
149 6517 3.46159e-06
149 8340 1.05952e-07
149 8573 5.86257e-06
149 10800 0.000454266
149 12971 1.021e-06
149 13492 5.74034e-07
149 14200 2.54205e-07
149 14447 0.00031257
149 15469 0.000316273
149 23571 0.00031226
149 25552 2.88036e-05
150 18 0.0201333
150 32 2.29952e-06
150 51 0.0191247
150 54 1.01173e-07
150 61 0.00406079
150 98 0.0394868
150 139 0.0642669
150 241 0.0163711
150 245 0.0255155
150 282 1.26065e-07
150 301 0.000329107
150 328 0.0258804
150 375 0.353243
150 436 0.00284549
150 486 0.0186471
150 718 0.0564398
150 870 0.00678071
150 891 0.00333822
150 952 0.0033346
150 1026 1.28116e-06
150 1047 2.42768e-07
150 1177 3.05412e-06
150 1369 0.000994785
150 1484 4.8882e-06
150 1503 0.00333728
150 1508 0.144566
150 1544 0.01288
150 2152 0.0166719
150 2432 0.00020931
150 2587 3.6642e-06
150 2705 1.95792e-07
150 3583 1.89703e-07
150 3678 1.82827e-07
150 3728 0.0188558
150 3766 0.00228358
150 4186 0.0033391
150 4345 5.93109e-05
150 4462 3.52389e-07
150 5423 0.0267126
150 5503 1.4617e-05
150 5742 0.042184
150 7020 1.14431e-07
150 7857 4.8517e-07
150 7879 0.000321656
150 7907 0.0104587
150 8212 0.000349089
150 8216 6.12922e-05
150 8797 0.000145888
150 9369 0.00663934
150 10054 4.4673e-05
150 10104 0.000263348
150 10204 0.00679988
150 10889 0.00963864
150 11330 0.00242681
150 11914 3.3087e-07
150 12360 0.00319673
150 13201 2.32492e-07
150 13698 0.00301246
150 14988 1.95258e-07
150 15608 0.00036638
150 16432 0.00667833
150 16544 0.00333879
150 16969 9.18222e-07
150 17997 2.82613e-06
150 19305 0.000287427
150 20666 0.000219992
150 21508 1.04288e-05
150 21966 0.00333871
150 22204 0.00667761
150 22688 2.55833e-06
150 23862 0.000448643
150 23872 1.16697e-05
150 24245 1.16528e-07
150 24375 9.58696e-07
150 26668 0.00332684
150 26673 3.08326e-06
151 58 0.000378351
151 81 0.27011
151 82 0.660807
151 124 0.00493558
151 142 4.87862e-05
151 157 0.0144145
151 164 0.0124561
151 168 3.23937e-06
151 181 1.48627e-06
151 315 0.000358621
151 357 4.71674e-07
151 463 1.29274e-05
151 465 5.57854e-07
151 557 0.019925
151 676 0.00268962
151 687 0.0017964
151 747 3.18557e-07
151 852 0.0014403
151 885 0.00663829
151 1092 0.00195684
151 1411 7.31688e-05
151 1442 1.09096e-07
151 1467 1.72625e-06
151 2513 2.50524e-07
151 3780 1.35136e-06
151 4045 1.26819e-07
151 5787 1.21476e-07
151 5855 1.51374e-07
151 6185 0.000484723
151 6369 9.33739e-06
151 7154 3.36538e-07
151 7626 1.13249e-05
151 7907 1.92736e-07
151 8304 1.66575e-07
151 8660 5.36523e-07
151 10459 0.000484746
151 10614 0.000468019
151 11452 7.39949e-07
151 15123 2.61776e-07
151 15489 1.38741e-07
151 15889 1.09089e-07
151 27674 0.000484793
152 107 0.0296475
152 600 4.57469e-07
152 639 3.40784e-07
152 742 0.014548
152 783 0.0274949
152 784 0.101838
152 794 0.201469
152 799 0.014586
152 1270 0.0292009
152 1303 0.0290954
152 1431 9.97742e-05
152 1533 0.0140781
152 1556 0.0727405
152 2115 0.0436184
152 3619 0.0148789
152 4340 0.00151734
152 4341 0.130948
152 4831 0.0145482
152 4845 0.0145482
152 5170 0.0145483
152 5400 0.0290966
152 6207 0.0290941
152 6904 0.0290966
152 7281 0.0145483
152 7741 0.0290965
152 7925 0.0127974
152 12700 0.0145483
152 14680 0.0145482
152 17978 0.0433017
152 24167 0.0144662
153 74 0.00586827
153 79 0.0261829
153 81 0.0261568
153 127 0.0524128
153 199 0.131037
153 307 0.000114053
153 326 1.40169e-06
153 758 0.0775112
153 1194 7.35504e-06
153 3442 0.183452
153 3479 0.0262759
153 7944 0.0262074
153 7993 0.0262073
153 9360 0.0524149
153 10808 0.157242
153 10837 0.0262074
153 12292 0.0524136
153 24164 0.0516661
153 24213 0.0262074
153 24214 0.0262074
153 27435 0.0262068
154 103 2.19718e-07
154 128 0.0646573
154 189 7.63965e-05
154 193 0.713519
154 194 2.59643e-05
154 219 1.50856e-07
154 326 0.0300375
154 344 2.1597e-06
154 369 0.079119
154 389 1.92751e-07
154 404 1.20033e-07
154 463 0.00105315
154 473 0.085086
154 484 8.87494e-07
154 611 2.9046e-07
154 901 1.43503e-07
154 1356 8.92961e-05
154 1699 5.99526e-07
154 1983 0.00245857
154 2633 2.09908e-05
154 3103 4.04341e-06
154 4493 7.24787e-07
154 4575 0.0117485
154 5268 6.28423e-05
154 5320 6.88838e-06
154 7047 0.0120263
154 12749 8.57694e-07
155 33 0.0004164
155 57 0.000152771
155 79 3.81601e-06
155 80 0.000106272
155 100 0.00605847
155 121 2.40844e-07
155 124 0.00712227
155 149 0.475323
155 178 7.75551e-07
155 182 5.25311e-06
155 195 0.00729756
155 202 5.42048e-06
155 245 3.30639e-07
155 256 2.21461e-07
155 307 0.0138005
155 319 3.23257e-07
155 367 0.238161
155 385 2.60995e-05
155 463 2.82835e-05
155 465 0.000948427
155 820 0.0669005
155 828 2.22445e-05
155 834 1.1377e-07
155 862 0.045199
155 1041 0.0153254
155 1092 5.50475e-06
155 1442 0.00316953
155 1452 2.99383e-07
155 2021 1.82169e-05
155 2375 0.00249285
155 3508 3.40878e-07
155 3578 4.8838e-07
155 3614 8.37509e-05
155 6192 0.000123719
155 6845 0.00216462
155 8336 0.114931
155 9241 1.66016e-06
155 9287 3.21875e-07
155 10582 9.00959e-05
155 12598 4.33305e-07
155 16286 9.29194e-07
155 17224 2.05855e-06
155 18783 8.47777e-06
155 27562 5.44722e-07
156 8 0.00615056
156 107 3.69392e-07
156 143 1.73592e-07
156 197 1.41889e-06
156 301 0.0922533
156 375 2.80442e-07
156 602 0.465279
156 1007 0.0976502
156 1177 4.30117e-07
156 1626 3.32808e-07
156 1828 0.024725
156 1838 0.00629158
156 2414 0.0114882
156 3156 2.76196e-07
156 3197 0.000863052
156 3721 3.32534e-06
156 5236 1.18506e-05
156 5238 0.000102882
156 6448 0.0344652
156 7400 0.121128
156 7508 2.10036e-06
156 7644 1.46132e-07
156 7683 0.114867
156 8141 0.00115844
156 8143 0.00608758
156 12456 1.09319e-07
156 13350 0.00574791
156 16745 0.00574404
156 20475 0.00559491
156 20962 0.000381772
157 7 7.71435e-05
157 53 1.90217e-06
157 58 1.85965e-06
157 106 1.23328e-05
157 132 0.144149
157 152 9.91319e-06
157 169 0.000182552
157 193 2.88104e-07
157 312 4.10062e-07
157 384 2.89665e-07
157 386 1.52839e-07
157 412 0.616497
157 540 0.00245607
157 1450 0.00501734
157 2709 0.0621181
157 3268 0.00746233
157 3569 0.01243
157 3804 5.44594e-07
157 4068 5.54962e-07
157 4258 0.0522145
157 5695 0.000159256
157 7945 0.0922361
157 8468 0.00248592
157 10593 1.17589e-07
157 15118 0.00248601
158 72 0.730758
158 76 4.02584e-05
158 104 0.00030444
158 106 6.42184e-06
158 124 5.24369e-07
158 146 0.127725
158 149 8.00039e-07
158 166 1.1895e-05
158 169 5.36202e-07
158 226 5.80017e-07
158 288 1.85129e-05
158 339 0.00795084
158 447 0.0197862
158 896 1.34136e-06
158 940 0.0246613
158 996 0.0323714
158 1202 0.000236445
158 1420 0.0260165
158 1530 0.0143151
158 2047 2.26052e-05
158 2372 4.62683e-07
158 2373 1.84663e-07
158 2388 0.000143245
158 2557 1.61265e-05
158 2674 1.17906e-07
158 3259 2.9952e-05
158 4171 0.00650925
158 4509 0.00238579
158 4723 5.03065e-07
158 6192 0.00229292
158 6615 1.04792e-06
158 8005 2.15622e-07
158 8133 2.24487e-07
158 9075 0.00186868
158 10039 0.00239708
158 11312 0.000123422
158 16726 2.72599e-07
158 28132 2.37816e-07
159 12 0.00197339
159 52 0.0942059
159 94 0.0182135
159 100 2.16316e-05
159 134 0.0190499
159 219 7.21496e-06
159 1017 0.0126252
159 1411 0.0190316
159 1417 0.340794
159 2132 0.01905
159 2526 1.36292e-06
159 3723 0.114303
159 3778 0.171451
159 4182 0.0571494
159 5695 0.0174972
159 6236 4.20806e-06
159 8152 0.0190499
159 8311 0.000330744
159 9822 0.0190501
159 10103 0.0190415
159 11426 0.0190501
159 12689 0.0190495
159 14453 0.0190499
160 77 0.00709782
160 135 1.32533e-05
160 136 0.0911404
160 169 1.80027e-05
160 244 0.0349994
160 285 0.0140197
160 373 0.0280665
160 384 1.39643e-07
160 769 0.0141579
160 825 0.168426
160 1221 1.2225e-07
160 1268 0.0229527
160 1548 0.0140249
160 1881 0.0490856
160 2105 0.00701399
160 2256 0.0631123
160 2514 0.0560406
160 2542 0.0199026
160 2727 1.84356e-05
160 2729 0.0280504
160 3046 0.0141062
160 3544 0.0210398
160 3925 0.0350625
160 4595 0.0140163
160 5060 0.0280477
160 7685 0.0350244
160 7739 0.0275311
160 8689 1.74597e-05
160 9448 0.00708712
160 9650 0.04849
160 9746 0.00701242
160 12219 0.0407953
160 12766 0.00106574
160 13473 0.0561062
160 14079 1.01514e-05
160 14805 0.0140185
160 15513 9.95049e-06
160 17359 0.00436807
160 19810 0.0140249
160 23306 0.00701243
160 28141 0.00701246
161 20 0.00845343
161 64 0.00845817
161 135 0.0507331
161 152 1.18341e-07
161 626 1.10631e-07
161 856 0.0591604
161 1038 0.0162256
161 1592 0.00805625
161 2185 0.0760467
161 3643 0.0761122
161 3661 0.143789
161 4641 0.54132
161 6419 0.00845614
161 8109 4.65402e-07
161 17359 0.00318852
162 25 0.0177539
162 53 5.81827e-07
162 121 0.0177539
162 138 0.0709128
162 245 0.0355075
162 268 0.0177547
162 383 0.0178944
162 417 0.0178513
162 486 0.0177328
162 527 0.0177538
162 996 0.0177539
162 1026 0.0191921
162 1183 0.124277
162 1230 0.0177641
162 1444 0.0177539
162 2003 0.000126402
162 2324 0.0177539
162 2519 0.0177539
162 3078 0.0182231
162 3257 0.0177539
162 3608 0.0177537
162 3612 0.0532616
162 3617 0.0710156
162 4128 0.0177539
162 4310 0.0177529
162 4782 0.0177539
162 5410 0.00423662
162 5986 0.000801927
162 6431 0.0532618
162 6993 0.0355079
162 7308 0.0355079
162 8109 0.0355409
162 8470 0.0177539
162 9813 0.0163987
162 12845 0.0177539
162 14182 0.0177539
162 15007 0.0177533
162 16404 0.0177539
162 17253 0.0177514
162 25641 0.0176643
163 95 1.91242e-07
163 97 0.00908015
163 137 0.12713
163 221 0.00905736
163 676 0.00017713
163 2550 0.00908072
163 2759 0.0635651
163 3642 0.0544844
163 3647 0.172519
163 3710 3.96959e-05
163 4848 0.0817266
163 5068 0.00908074
163 5234 0.0908063
163 5929 0.00908073
163 5982 0.118049
163 6152 0.00907658
163 6427 0.0272422
163 6464 0.0272422
163 6687 0.0635679
163 7684 1.68565e-07
163 8325 0.0726452
163 11425 0.0454037
163 12390 0.000943691
163 24669 2.40969e-07
164 7 1.61835e-07
164 98 0.0119177
164 103 1.14801e-06
164 139 0.0390378
164 197 4.7228e-06
164 307 7.90789e-06
164 375 0.149271
164 413 0.0744665
164 457 0.0320525
164 476 6.84018e-07
164 486 0.0994214
164 510 1.58437e-07
164 585 3.81894e-07
164 602 7.4925e-07
164 611 0.101442
164 622 0.000383593
164 718 0.0230876
164 719 5.10593e-07
164 919 1.1693e-07
164 952 0.0462394
164 1026 0.264076
164 1178 8.77684e-06
164 1243 0.0195252
164 1589 0.0145279
164 1937 6.30874e-05
164 2026 0.0505969
164 2150 0.00355119
164 2709 0.000115095
164 2965 8.35003e-07
164 2991 0.00699401
164 3012 1.18574e-07
164 3112 5.80585e-06
164 3766 0.0112956
164 3895 1.20904e-06
164 3916 0.000671311
164 4056 7.71577e-07
164 4767 0.000170707
164 6087 1.45773e-07
164 6479 2.60133e-07
164 6868 1.67977e-07
164 8797 0.0334189
164 8889 0.00354927
164 8999 2.22448e-05
164 10116 1.1162e-07
164 10599 0.0101658
164 12390 7.73277e-07
164 13876 4.69585e-06
164 14294 2.16152e-07
164 15824 4.36537e-07
164 17172 1.49179e-07
164 17262 2.79106e-07
164 17580 3.41216e-05
164 20672 0.0017889
164 22396 0.00177521
164 25032 0.00029542
164 25938 3.1663e-07
165 7 1.75928e-05
165 25 0.00449977
165 63 0.00914411
165 75 0.0103065
165 140 0.0954663
165 149 7.12128e-07
165 235 1.12881e-06
165 291 0.040431
165 499 0.00449209
165 576 0.0635781
165 636 6.7721e-05
165 834 0.0757215
165 874 0.0853171
165 879 0.0134763
165 962 0.134779
165 1196 0.0583932
165 1383 0.0359366
165 1444 0.0460913
165 1683 6.68896e-06
165 2467 0.0112417
165 2587 0.0623056
165 2643 0.0269534
165 2847 0.00898423
165 3005 0.0135631
165 3508 7.85581e-06
165 3734 2.13127e-07
165 3750 0.0134763
165 3831 0.000214499
165 4174 0.0358086
165 4222 0.00466901
