2 0.20217 0.796792 0.000316248 0.000683163 1.27574e-05 2.51894e-05 2.51623e-07 0 0 0 
3 0.555055 0.443829 0.000536959 0.000466056 2.69477e-05 1.44388e-06 1.12663e-06 3.70908e-07 4.18402e-07 8.22491e-05 
4 0.0605432 0.401317 0.232767 0.0906181 0.0660203 0.0491323 0.0335049 0.0267428 0.015873 0.0234814 
5 0.0123453 0.856899 0.0564585 0.0200977 0.0166593 0.0124008 0.00845651 0.00674978 0.00400628 0.00592662 
6 0.0133245 0.840039 0.0779626 0.0272288 0.0147753 0.00919867 0.00652301 0.00466644 0.00259366 0.00368758 
7 0.123123 0.876461 0.000371577 2.88727e-05 8.07725e-06 2.95378e-06 2.34906e-06 7.73359e-07 8.71865e-07 7.28374e-07 
8 0.039262 0.586052 0.171378 0.110926 0.0385772 0.0210642 0.0122242 0.00874499 0.00486057 0.00691058 
9 0.139786 0.395218 0.245749 0.103979 0.0465082 0.0240502 0.0166933 0.0119421 0.00663755 0.00943703 
10 0.191787 0.285052 0.51198 0.00914523 0.000864813 0.000484271 0.000528129 7.73218e-05 4.06161e-05 4.09181e-05 
11 0.0442279 0.927019 0.0270268 0.000917361 0.000308672 0.0002144 0.000112947 6.80854e-05 4.96871e-05 5.55684e-05 
12 0.200787 0.349467 0.423738 0.0131289 0.00938952 0.00160633 0.00077254 0.00050742 0.000300654 0.00030289 
13 0.0773048 0.869921 0.0434981 0.00543236 0.00160506 0.00103038 0.000495664 0.000325562 0.000192901 0.000194335 
14 0.478477 0.520981 0.000210662 0.0003258 3.17668e-06 1.05247e-06 8.37002e-07 2.75558e-07 3.10657e-07 2.5953e-07 
15 0.0768275 0.4897 0.261141 0.124453 0.0186751 0.0125055 0.00658799 0.00397128 0.00289815 0.00324119 
16 0.0579328 0.505079 0.185753 0.102414 0.0481735 0.0299902 0.0228481 0.0256166 0.0101706 0.0120225 
17 0.0587082 0.71145 0.153589 0.0332459 0.0137532 0.00996075 0.011569 0.00303362 0.00221386 0.00247591 
18 0.253814 0.517611 0.202893 0.0157207 0.00795873 0.000921941 0.000443431 0.000291254 0.000172573 0.000173856 
19 0.0335369 0.891099 0.0438971 0.0149816 0.00628718 0.004367 0.00230057 0.0013868 0.00101205 0.00113184 
20 0.0689494 0.812101 0.0870782 0.0176831 0.0054111 0.00375848 0.00198 0.00119355 0.000871029 0.000974129 
21 0.20291 0.215358 0.533115 0.0189712 0.0144706 0.00929283 0.00443301 0.000818106 0.000314153 0.000316489 
22 0.875695 0.122202 0.00108384 0.000882137 0.000109342 2.61695e-05 8.77113e-07 2.8807e-07 3.24763e-07 2.71314e-07 
23 0.0606212 0.504128 0.175576 0.102037 0.043646 0.0267765 0.0422086 0.0168801 0.0158281 0.0122984 
24 0.0401365 0.569219 0.171018 0.0821098 0.0445131 0.0287861 0.0303606 0.014934 0.00781382 0.0111094 
25 0.323114 0.525425 0.126066 0.0169221 0.00353823 0.0022714 0.00109265 0.000717677 0.000425235 0.000428397 
26 0.360985 0.638026 0.000895865 1.83003e-05 6.15566e-05 1.08106e-05 1.00999e-06 3.3251e-07 3.74864e-07 3.13169e-07 
27 0.0487801 0.493343 0.206415 0.0997113 0.0541005 0.0336813 0.0238843 0.0170864 0.0094968 0.0135022 
28 0.0595833 0.472381 0.177424 0.106841 0.0529468 0.0607182 0.0321698 0.0165795 0.00881845 0.0125378 
29 0.0992999 0.520525 0.235719 0.0632646 0.0389228 0.0181001 0.00953525 0.00574791 0.00419469 0.0046912 
30 0.0155889 0.329503 0.181172 0.112776 0.10926 0.0699035 0.0730686 0.044336 0.0244783 0.0399142 
31 0.050249 0.386363 0.33104 0.113502 0.042373 0.0263769 0.0187045 0.0133809 0.00743725 0.010574 
32 0.310955 0.576794 0.109767 0.00144629 0.000661357 0.000160031 0.000174353 1.93694e-05 1.12345e-05 1.1318e-05 
33 0.371017 0.287566 0.121819 0.0948635 0.0219781 0.099409 0.000270037 0.00075056 0.00141885 0.000908044 
34 0.344335 0.621815 0.0271367 0.00303153 0.000930842 0.000598919 0.00173959 0.000188807 0.000111871 0.000112703 
35 0.20324 0.793025 0.00305467 0.000630182 2.54989e-05 9.32473e-06 7.4157e-06 2.4414e-06 2.75237e-06 2.29939e-06 
36 0.0439887 0.489276 0.232226 0.104539 0.048595 0.0280677 0.0199036 0.0142386 0.007914 0.0112518 
37 0.0222956 0.502531 0.171992 0.0786264 0.065894 0.0601266 0.0332632 0.0264085 0.0156746 0.0231879 
38 0.123825 0.18704 0.650974 0.0184161 0.00753027 0.00523044 0.00275543 0.00166099 0.00121215 0.00135563 
39 0.0270581 0.406612 0.204216 0.093988 0.0778263 0.0579322 0.0418649 0.0440901 0.0187247 0.0276871 
40 0.0157541 0.950444 0.0119667 0.00590617 0.00489611 0.00364456 0.00248534 0.00198374 0.00117743 0.00174181 
41 0.0629422 0.42091 0.264872 0.097206 0.0572532 0.0275496 0.0395507 0.0127287 0.00701468 0.00997323 
42 0.0199159 0.538147 0.177977 0.135493 0.0445025 0.027761 0.0189063 0.0150906 0.00895689 0.0132502 
43 0.0153527 0.339662 0.178889 0.1254 0.107961 0.0688436 0.0568197 0.0436553 0.0241074 0.0393094 
44 0.0144754 0.378166 0.181723 0.104744 0.101455 0.0649097 0.0535729 0.0411607 0.0227298 0.0370632 
45 0.0771746 0.47861 0.185351 0.0967171 0.0524856 0.0326759 0.0231713 0.0165763 0.00923258 0.028005 
46 0.0624087 0.688604 0.15993 0.0500128 0.0148907 0.0103429 0.00544871 0.00328452 0.00239697 0.00268068 
47 0.0622453 0.478691 0.200175 0.0968917 0.0672608 0.0326759 0.0231713 0.0165763 0.00921331 0.0130992 
48 0.0587694 0.733651 0.128283 0.0377535 0.0158437 0.0110048 0.00579743 0.00349473 0.00255037 0.00285225 
49 0.048041 0.485862 0.188512 0.128001 0.0534135 0.033171 0.0235224 0.0168275 0.0093529 0.0132976 
50 0.0969265 0.539425 0.200781 0.0739771 0.0409301 0.0205443 0.0108161 0.00652002 0.00475816 0.00532136 
51 0.0814238 0.444911 0.189849 0.11675 0.113888 0.0274098 0.0120383 0.0053931 0.00393576 0.00440162 
52 0.564787 0.42912 0.00579541 0.000203894 4.84636e-05 1.77227e-05 1.40944e-05 4.64016e-06 5.2312e-06 4.37025e-06 
53 0.459371 0.538603 0.00130832 0.000705979 6.20916e-06 2.23019e-06 1.77361e-06 5.83908e-07 6.58284e-07 5.49944e-07 
54 0.04297 0.665748 0.220775 0.0437868 0.0147776 0.00511377 0.00269397 0.00162394 0.00118512 0.00132539 
55 0.230748 0.644683 0.0897397 0.0170842 0.00589337 0.00633877 0.00232597 0.00125169 0.000913457 0.00102158 
56 0.22257 0.207168 0.526388 0.0292471 0.0055788 0.00387494 0.00204135 0.00123054 0.000898018 0.00100431 
57 0.201595 0.208473 0.433397 0.101091 0.0260253 0.0167358 0.00550228 0.00248758 0.00407848 0.000615771 
58 0.775214 0.155251 0.0640316 0.00336172 0.000894506 0.000574194 0.000276215 0.000181424 0.000107497 0.000108296 
59 0.0254705 0.375323 0.181487 0.116116 0.0906497 0.0694142 0.038373 0.0333599 0.0286378 0.0411691 
60 0.0371201 0.416947 0.182559 0.123843 0.0700021 0.0644529 0.0354535 0.0281691 0.0167195 0.0247338 
61 0.0481412 0.178714 0.264095 0.461618 0.0264421 0.0143881 0.0026443 0.00155459 0.00113451 0.00126879 
62 0.0580883 0.418513 0.30536 0.0957196 0.039765 0.0267877 0.026305 0.0126643 0.00693586 0.00986117 
63 0.107076 0.531291 0.334486 0.014682 0.00476134 0.00329881 0.00173784 0.00104758 0.0007645 0.000854991 
64 0.0705728 0.830298 0.0554268 0.0173284 0.00940249 0.0058537 0.00415101 0.00296955 0.00165051 0.00234664 
65 0.0428675 0.646304 0.261996 0.0232519 0.00975596 0.00677638 0.00356985 0.00215193 0.00157043 0.00175631 
66 0.0512251 0.47122 0.261807 0.0939716 0.043414 0.0270282 0.0191664 0.0137113 0.00762089 0.0108351 
67 0.0962489 0.540497 0.215312 0.0704357 0.0295591 0.0205314 0.0108161 0.00652002 0.00475816 0.00532136 
68 0.0224534 0.465116 0.221731 0.0786446 0.0651795 0.0485182 0.0330861 0.0264085 0.0156746 0.0231879 
69 0.0225746 0.447798 0.184131 0.0946119 0.0910955 0.0601874 0.033505 0.0267428 0.015873 0.0234814 
70 0.0755505 0.633745 0.132026 0.0629131 0.0341411 0.0212552 0.0150726 0.0107827 0.00599312 0.00852082 
71 0.048041 0.485862 0.18816 0.112375 0.0547007 0.0478614 0.0235224 0.0168275 0.0093529 0.0132976 
72 0.498694 0.500807 0.000296432 0.000184384 9.25924e-06 3.31558e-06 2.63679e-06 8.68084e-07 9.78657e-07 8.1759e-07 
73 0.064059 0.214589 0.664759 0.0297782 0.0102557 0.00709075 0.00373546 0.00225176 0.00164328 0.00183779 
74 0.509584 0.461476 0.028514 0.000271912 0.000146453 3.08256e-06 2.38242e-06 7.84342e-07 8.84248e-07 7.38719e-07 
75 0.112834 0.524263 0.223584 0.071322 0.033057 0.0149752 0.00787695 0.00474827 0.00346518 0.00387534 
76 0.353867 0.560747 0.0575599 0.0145112 0.00507812 0.00352719 0.00185815 0.00112011 0.000817427 0.000914183 
77 0.0475352 0.350077 0.428987 0.0781888 0.0355478 0.0339621 0.00971704 0.00681358 0.00378707 0.00538432 
78 0.0371882 0.936541 0.011931 0.00585127 0.00352591 0.00171183 0.00121382 0.000868345 0.000482636 0.000686195 
79 0.248974 0.518559 0.212637 0.0122912 0.00346672 0.00105563 0.00233143 0.000353604 0.000165522 0.000166752 
80 0.310415 0.276733 0.23968 0.130288 0.0155852 0.0216564 0.00239023 0.00127731 0.000932153 0.00104249 
81 0.61647 0.383505 1.04365e-05 2.00908e-06 6.22017e-06 0 6.18182e-06 0 0 0 
82 0.494634 0.498146 0.00710044 0.000100638 9.91272e-06 3.62476e-06 2.88267e-06 9.49035e-07 1.06992e-06 8.93832e-07 
83 0.0427383 0.940129 0.013669 0.00198917 0.000615787 0.00039531 0.000190163 0.000124903 7.40072e-05 7.45575e-05 
84 0.0251117 0.427693 0.217093 0.0911667 0.0734418 0.0546684 0.0372801 0.0297561 0.0176615 0.0261272 
85 0.0153527 0.324513 0.193575 0.111069 0.107604 0.0688436 0.0603312 0.0552943 0.0241083 0.0393094 
86 0.0601328 0.46505 0.180194 0.108772 0.0649656 0.0460251 0.0226069 0.0160959 0.00901274 0.0271457 
87 0.0421567 0.398078 0.192273 0.0953042 0.0790149 0.0739502 0.0401062 0.0320103 0.0189995 0.0281066 
88 0.0241308 0.423242 0.209362 0.0869895 0.0704644 0.0545524 0.0606758 0.0285694 0.0169455 0.025068 
89 0.417941 0.574126 0.00747748 9.69614e-05 1.55389e-05 5.88126e-06 0.000332835 1.48778e-06 1.67728e-06 1.40124e-06 
90 0.11747 0.571773 0.253868 0.0446191 0.00512419 0.00328898 0.00158216 0.0010392 0.00061574 0.000620319 
91 0.0147099 0.339376 0.199434 0.106445 0.102926 0.0662965 0.0683654 0.0417877 0.0230593 0.0376003 
92 0.0254705 0.402288 0.183059 0.104238 0.104428 0.0662426 0.0396801 0.0301812 0.0179138 0.0265005 
93 0.190113 0.51626 0.231198 0.0248332 0.0344034 0.00155136 0.000672687 0.000441835 0.000261794 0.000263741 
94 0.758259 0.155717 0.0646898 0.0150098 0.00626244 2.38783e-05 1.89478e-05 6.23801e-06 7.03258e-06 5.87516e-06 
95 0.917472 0.0640492 0.0182055 0.000226534 2.58289e-05 8.01916e-06 6.37742e-06 2.09958e-06 2.36701e-06 1.97745e-06 
96 0.354315 0.580795 0.0409635 0.0234635 0.000240631 8.56306e-05 6.80996e-05 2.24198e-05 2.52755e-05 2.11157e-05 
97 0.0740215 0.861401 0.0549443 0.00553241 0.00171235 0.00109926 0.000528797 0.000347325 0.000205795 0.000207326 
98 0.0313084 0.283222 0.232254 0.382475 0.026332 0.0182037 0.0105091 0.00669044 0.00371862 0.00528701 
99 0.163776 0.573452 0.225705 0.0239532 0.00815503 0.00229522 0.00109265 0.000717676 0.000425235 0.000428397 
100 0.27405 0.701066 0.0208906 0.00229989 0.000706864 0.000453778 0.000218289 0.000143377 8.49531e-05 8.55848e-05 
101 0.022299 0.959929 0.0102346 0.00358874 0.00150605 0.00104609 0.000551086 0.000332198 0.000242431 0.000271126 
102 0.168798 0.581975 0.199829 0.0337482 0.00653493 0.00419513 0.00201806 0.0013255 0.000785383 0.000791223 
103 0.00431321 0.982728 0.00607392 0.00272959 0.00148127 0.000922192 0.00065395 0.000467824 0.000260022 0.00036969 
104 0.09297 0.247287 0.649964 0.00744941 0.00159113 0.000339771 0.000163446 0.000107355 6.36095e-05 6.40825e-05 
105 0.118333 0.424991 0.364313 0.0869345 0.00238968 0.00139838 0.000672688 0.000441835 0.000261794 0.000263741 
106 0.0143115 0.844112 0.130959 0.00608215 0.00172966 0.0012014 0.000632907 0.00038152 0.000278425 0.00031138 
107 0.240891 0.758 0.000476448 0.000618364 7.31665e-06 2.64202e-06 2.10113e-06 6.91734e-07 7.79844e-07 6.51498e-07 
108 0.255277 0.333108 0.38984 0.014067 0.00473837 0.000649734 0.00187336 0.000204567 0.000120639 0.000121536 
109 0.212006 0.745401 0.0329611 0.00553132 0.00171235 0.00109926 0.000528797 0.000347325 0.000205795 0.000207326 
110 0.0298557 0.740749 0.194589 0.016586 0.00694898 0.00482668 0.00254273 0.00153278 0.00111858 0.00125099 
111 0.0962489 0.51033 0.200829 0.100156 0.0295643 0.0207095 0.0255634 0.00652002 0.00475816 0.00532136 
112 0.162271 0.759447 0.06142 0.0096953 0.00299261 0.00192114 0.00092416 0.000607007 0.000359661 0.000362336 
113 0.0181932 0.348106 0.377328 0.083259 0.0532155 0.0396067 0.0270091 0.021558 0.0127956 0.0189289 
114 0.0417279 0.461474 0.24218 0.0985928 0.059347 0.02881 0.0204273 0.016495 0.0193985 0.011548 
115 0.00761178 0.194281 0.161312 0.211417 0.14753 0.0522841 0.118026 0.0343361 0.0343867 0.0388153 
116 0.00784599 0.200259 0.166247 0.187697 0.151553 0.0537813 0.106384 0.0362284 0.0498625 0.0401407 
117 0.0440006 0.466568 0.238053 0.103215 0.0611687 0.0300351 0.0212668 0.0152139 0.00845605 0.0120225 
118 0.0259435 0.395144 0.18392 0.0918905 0.118288 0.0563703 0.0527591 0.0306267 0.0181734 0.0268845 
119 0.0155889 0.329503 0.181182 0.128149 0.10926 0.0699028 0.0576939 0.0443269 0.0244783 0.0399142 
120 0.103369 0.412359 0.254363 0.114383 0.0704006 0.0240745 0.00882942 0.00480045 0.00350326 0.00391792 
121 0.537214 0.446343 0.0125704 0.00352542 0.000182536 6.33603e-05 5.03887e-05 1.6589e-05 1.8702e-05 1.56241e-05 
122 0.0856418 0.570017 0.219231 0.0660999 0.0225052 0.0156319 0.00823499 0.0049641 0.00362269 0.00405149 
123 0.328025 0.415532 0.146172 0.106764 0.00152675 0.000911581 0.000438515 0.000288025 0.00017066 0.000171929 
124 0.0825099 0.631712 0.279625 0.00237264 0.00313576 0.000308454 0.000137915 9.05854e-05 5.36733e-05 5.40724e-05 
125 0.0847811 0.37653 0.368809 0.0956018 0.0477931 0.0127771 0.00540805 0.00326001 0.00237908 0.00266068 
126 0.110026 0.499753 0.278406 0.0863755 0.00451882 0.00599287 0.0135819 0.000640747 0.00035145 0.000354063 
127 0.0977073 0.533131 0.203827 0.0715029 0.0301262 0.0358721 0.0109827 0.0066188 0.00483025 0.00540199 
128 0.172366 0.281971 0.164453 0.166473 0.20879 0.0028752 0.00125968 0.000827385 0.000490239 0.000493884 
129 0.0503491 0.511718 0.182876 0.0952948 0.0517137 0.0321954 0.0228306 0.0169561 0.0226513 0.0134154 
130 0.0270141 0.39807 0.193413 0.107952 0.0955205 0.05881 0.0401044 0.0320103 0.0189995 0.0281066 
131 0.0274297 0.404194 0.195231 0.0967704 0.080221 0.0597147 0.0407214 0.0325028 0.0194462 0.0437692 
132 0.0526382 0.657449 0.264068 0.0143802 0.00437318 0.00303666 0.00159973 0.000964329 0.000703745 0.000787044 
133 0.116914 0.857081 0.0217467 0.00244612 0.000756996 0.000485961 0.000233771 0.000153545 9.09781e-05 9.16546e-05 
134 0.0992104 0.526032 0.206879 0.0726029 0.0304686 0.0211632 0.0121232 0.0154256 0.0106099 0.00548509 
135 0.0251341 0.384185 0.261531 0.0902143 0.0734418 0.0546684 0.0372801 0.0297561 0.0176615 0.0261272 
136 0.237209 0.413106 0.250831 0.0647897 0.0216247 0.00550868 0.00273464 0.00164846 0.00120301 0.0013454 
137 0.0816288 0.437707 0.35324 0.0616907 0.0250691 0.0174127 0.00917315 0.00552963 0.0040354 0.00451305 
138 0.050789 0.477696 0.216028 0.10568 0.064373 0.0254576 0.0183543 0.0229502 0.00846741 0.0102052 
139 0.185721 0.552981 0.155945 0.0990198 0.00374377 0.00119167 0.000573247 0.00037652 0.000223094 0.000224753 
140 0.167271 0.523748 0.205505 0.0810506 0.0105682 0.00507952 0.00267409 0.00161196 0.00117637 0.00131561 
141 0.0167399 0.930952 0.0302812 0.0104871 0.00440102 0.0030569 0.0016104 0.000970758 0.000708436 0.000792291 
142 0.646152 0.353257 0.000392186 0.000179083 1.1566e-05 0 8.14846e-06 0 0 0 
143 0.674681 0.301403 0.0229896 0.000457291 0.00046056 3.69037e-06 2.93307e-06 9.65626e-07 1.08862e-06 9.09458e-07 
144 0.0262521 0.709281 0.154688 0.0473489 0.0222569 0.0138562 0.00982581 0.0070292 0.00390691 0.00555471 
145 0.0882272 0.897757 0.0127613 0.000838871 0.000173743 0.000111536 5.36542e-05 3.52412e-05 2.0881e-05 2.10362e-05 
146 0.453761 0.527655 0.0133916 0.00348629 0.0009903 0.000331907 0.00015721 0.000103259 6.11824e-05 6.16374e-05 
147 0.0666443 0.314515 0.529504 0.0339812 0.0278052 0.014934 0.00505001 0.00297171 0.00216868 0.00242538 
148 0.162277 0.131178 0.690116 0.0137771 0.00140284 0.00105925 8.0532e-05 5.00191e-05 2.96371e-05 2.98575e-05 
149 0.345081 0.559102 0.0949783 0.000396249 0.000409542 1.46409e-05 8.82934e-06 2.9068e-06 3.27705e-06 2.73772e-06 
150 0.0833448 0.625689 0.181506 0.067581 0.0159718 0.0110936 0.00584419 0.00352291 0.00257094 0.00287525 
151 0.0409352 0.248848 0.368301 0.271458 0.0376492 0.0114841 0.00796142 0.00569545 0.0031656 0.00450074 
152 0.21089 0.786996 0.00107915 0.0010118 1.67435e-05 2.54209e-06 2.01643e-06 6.6385e-07 7.48409e-07 6.25236e-07 
153 0.126871 0.525568 0.184382 0.0646465 0.0271296 0.0188439 0.00992712 0.00598413 0.00446112 0.0321859 
154 0.0266704 0.436135 0.190113 0.0938817 0.0778263 0.0579322 0.0395058 0.0315326 0.0187159 0.0276871 
155 0.025471 0.406622 0.207129 0.104083 0.0888377 0.0554495 0.0378127 0.0301812 0.0179138 0.0265005 
156 0.0153527 0.324511 0.178427 0.111334 0.122482 0.0688505 0.0590836 0.0564834 0.0241669 0.0393094 
157 0.0729546 0.265927 0.642584 0.00704301 0.00905065 0.00112394 0.000540356 0.000354917 0.000210294 0.000211857 
158 0.0473239 0.47861 0.185653 0.125544 0.0532068 0.0326759 0.0235833 0.0310896 0.00921338 0.0130992 
159 0.0461648 0.492261 0.189867 0.11863 0.0495931 0.030835 0.0218659 0.0156424 0.0089539 0.026186 
160 0.073252 0.618238 0.181209 0.0830813 0.0201469 0.0109523 0.00517628 0.00312029 0.00227712 0.00254665 
161 0.037655 0.267144 0.247172 0.353038 0.0490327 0.0137215 0.00970299 0.00723916 0.00979397 0.00550155 
162 0.0503732 0.911609 0.0294204 0.00493726 0.00152845 0.000981201 0.000472005 0.000310023 0.000183693 0.000185059 
163 0.0358746 0.73411 0.225491 0.00176623 0.00163964 0.000482574 0.000250927 0.00015126 0.000110386 0.000123452 
164 0.146527 0.708569 0.141197 0.00210893 0.00110036 0.000232607 0.000108546 7.1295e-05 4.22434e-05 4.25575e-05 
165 0.185665 0.166161 0.633889 0.00037383 0.00539994 0.000978856 0.00701787 0.000390157 0.000121446 2.12446e-06 
166 0.107185 0.84642 0.0383947 0.00542496 0.00123335 0.000617302 0.000296952 0.000195044 0.000115567 0.000116426 
167 0.0259688 0.460039 0.181786 0.0898582 0.0744909 0.0554494 0.0378127 0.0301812 0.0179138 0.0265005 
168 0.144894 0.797256 0.0343617 0.0111829 0.00469304 0.00325973 0.00171725 0.00103517 0.000755442 0.00084486 
169 0.21454 0.768873 0.0135864 0.00172602 0.000532351 0.000341748 0.000164397 0.00010798 6.39796e-05 6.44554e-05 
170 0.0969694 0.559532 0.156107 0.0687455 0.0639759 0.0231382 0.0117932 0.00841374 0.00467645 0.00664882 
171 0.110868 0.352862 0.214974 0.0992477 0.186134 0.0193031 0.00659051 0.00393551 0.00287204 0.00321199 
172 0.0347876 0.453424 0.194174 0.0805688 0.0775262 0.0486622 0.0330861 0.0264085 0.015813 0.0355494 
173 0.264412 0.717641 0.0154741 0.00143765 0.000432423 0.000277598 0.000133538 8.77106e-05 5.19699e-05 5.23564e-05 
174 0.126243 0.52269 0.188861 0.0719744 0.0381854 0.0277032 0.0100836 0.00560053 0.00408713 0.00457091 
175 0.0262196 0.386362 0.200676 0.0958556 0.10333 0.0587666 0.0518404 0.0312289 0.0184407 0.0272799 
176 0.0274297 0.404194 0.195231 0.0967704 0.080221 0.0597147 0.0407214 0.0325028 0.0194695 0.0437458 
177 0.116314 0.553524 0.316183 0.00814397 0.0037672 0.000951677 0.000457801 0.000300693 0.000178166 0.00017949 
178 0.109587 0.84596 0.0331463 0.0075206 0.00158128 0.00101512 0.000488321 0.000320739 0.000190043 0.000191456 
179 0.0794628 0.551639 0.262634 0.0516023 0.020847 0.0144801 0.0076282 0.00459833 0.00335575 0.00375296 
180 0.09396 0.610359 0.122473 0.132839 0.0279594 0.00573023 0.0026352 0.00158851 0.00115926 0.00129648 
181 0.134044 0.808859 0.0392037 0.0086031 0.00354286 0.00246083 0.00129638 0.000781469 0.000570298 0.000637802 
182 0.14223 0.85351 0.002486 0.00162075 7.85722e-05 2.87332e-05 2.28507e-05 7.52291e-06 8.48115e-06 7.08533e-06 
183 0.0702701 0.85887 0.063931 0.00508497 0.00117217 0.000309061 0.000148587 9.75953e-05 5.78268e-05 5.82568e-05 
184 0.0439275 0.459555 0.473242 0.0172108 0.0029477 0.00133481 0.000702889 0.000423706 0.000309211 0.000345811 
185 0.166923 0.352381 0.383424 0.0821825 0.00670999 0.00633585 0.000838127 0.000550421 0.000326133 0.000328559 
186 0.024543 0.400258 0.188649 0.151269 0.0743215 0.0531706 0.0362587 0.0289408 0.0171776 0.0254114 
187 0.0356259 0.384227 0.205552 0.220883 0.072246 0.0338839 0.0183057 0.0124788 0.00693586 0.00986117 
188 0.333976 0.665581 0.000285416 0.000142268 7.81324e-06 2.85718e-06 2.27223e-06 7.48066e-07 8.43351e-07 7.04553e-07 
189 0.25722 0.415896 0.190807 0.121828 0.00772788 0.0030009 0.00144358 0.000948171 0.000561807 0.000565984 
190 0.140362 0.627665 0.208178 0.0209233 0.00118767 0.000851246 0.000820807 3.89941e-06 4.22304e-06 3.52801e-06 
191 0.254978 0.726009 0.017739 0.000823953 0.000230734 8.43774e-05 6.7103e-05 2.20917e-05 2.49056e-05 2.08067e-05 
192 0.0454245 0.52876 0.175129 0.109554 0.0457117 0.0284323 0.020162 0.0144236 0.00977481 0.0226269 
193 0.217631 0.695751 0.0838902 0.00264588 4.18248e-05 1.52939e-05 1.21628e-05 4.00424e-06 4.51428e-06 3.77132e-06 
194 0.0959186 0.902156 0.00153659 0.000373092 8.28895e-06 3.02505e-06 2.40574e-06 7.92019e-07 8.92903e-07 7.4595e-07 
195 0.158083 0.375402 0.124889 0.0249463 0.00877257 0.297796 0.00904912 0.000506428 0.000262385 0.000293441 
196 0.331755 0.500778 0.146109 0.0195025 0.000831507 0.000686977 0.000140149 8.95858e-05 5.3081e-05 5.34757e-05 
197 0.0452524 0.86293 0.0814595 0.00596436 0.00167552 0.00116379 0.000613095 0.000369578 0.000269709 0.000301633 
198 0.172314 0.761798 0.0641268 0.00114105 0.000317453 0.00011609 9.23229e-05 3.03946e-05 3.42661e-05 2.86266e-05 
199 0.11893 0.720098 0.135357 0.0147381 0.00454198 0.00291577 0.00140263 0.000921273 0.000545869 0.000549928 
200 0.0317312 0.9352 0.0142829 0.00744832 0.00404199 0.00251642 0.00178446 0.00127657 0.00070953 0.00100879 
201 0.0962489 0.51119 0.214087 0.0711187 0.0393383 0.0256767 0.0108161 0.00799005 0.0170293 0.00650552 
202 0.216768 0.431601 0.248018 0.0932994 0.00571584 0.00213781 0.00100903 0.000662752 0.000392691 0.000395611 
203 0.0702892 0.341546 0.103228 0.435673 0.0234678 0.00989637 0.00911728 0.00266385 0.00194388 0.00217397 
204 0.0861935 0.817276 0.0654281 0.0150252 0.00613146 0.00425884 0.00224359 0.00135245 0.000986986 0.00110381 
205 0.0180307 0.849733 0.0608656 0.0282976 0.015356 0.00956019 0.00677938 0.00484984 0.0026956 0.00383251 
206 0.0591394 0.531522 0.167972 0.0859105 0.0713272 0.0294185 0.0204273 0.0146133 0.00812226 0.0115479 
207 0.0921239 0.574006 0.192269 0.067417 0.0282923 0.0196515 0.0103526 0.00624059 0.00455424 0.0050933 
208 0.128998 0.533455 0.215172 0.0582649 0.0244501 0.0169828 0.00894665 0.0053931 0.00393576 0.00440162 
209 0.0962489 0.525255 0.200704 0.0853411 0.029579 0.0354544 0.0108183 0.00652002 0.00475816 0.00532136 
210 0.0602168 0.628149 0.163053 0.05891 0.0319685 0.0199026 0.0141134 0.0100965 0.00561174 0.00797858 
211 0.0266109 0.392292 0.207785 0.106455 0.0897156 0.0597004 0.0395058 0.0315326 0.0187159 0.0276871 
212 0.17417 0.623563 0.156081 0.026522 0.0082105 0.00527081 0.00253551 0.00166538 0.000986763 0.0009941 
213 0.19362 0.551368 0.19959 0.0318264 0.0098526 0.00632497 0.00304262 0.00199845 0.00118412 0.00119292 
214 0.237048 0.557252 0.17076 0.0226695 0.00512408 0.00328898 0.00158216 0.0010392 0.00061574 0.000620319 
215 0.0765858 0.858573 0.0528593 0.00752249 0.00170671 0.00117875 0.000620976 0.000374328 0.000273176 0.000305511 
216 0.134075 0.375952 0.461447 0.0167284 0.0049263 0.00316249 0.00152131 0.000999227 0.000592058 0.00059646 
217 0.0859677 0.896424 0.013552 0.00213761 0.00113134 0.000362223 0.000174247 0.000114449 6.78127e-05 6.83169e-05 
218 0.0857104 0.565899 0.199697 0.0657457 0.0338988 0.0164411 0.0090721 0.0157728 0.00366452 0.00409806 
219 0.339933 0.464552 0.183545 0.003681 0.00787094 0.000209903 8.56519e-05 5.62579e-05 3.33337e-05 3.35816e-05 
220 0.0398997 0.53725 0.392955 0.0136981 0.00577536 0.00359488 0.00254922 0.00182367 0.00101362 0.00144112 
221 0.245513 0.748038 0.00496095 0.000573483 0.000893846 7.8777e-06 6.2386e-06 2.05387e-06 2.31549e-06 1.93441e-06 
222 0.0412168 0.45534 0.188173 0.187158 0.0456792 0.0284323 0.020162 0.0144236 0.00801678 0.011398 
223 0.209797 0.649928 0.121824 0.0107851 0.00352548 0.00177273 0.000933865 0.00056294 0.00041082 0.000459447 
224 0.122014 0.812265 0.0403184 0.0121896 0.00503934 0.00350026 0.00184397 0.00111155 0.000811186 0.000907203 
225 0.133309 0.502554 0.173582 0.111217 0.0381487 0.0176398 0.00929076 0.00560053 0.00408713 0.00457091 
226 0.0274297 0.404194 0.195231 0.0967704 0.080221 0.0597147 0.0430752 0.0453966 0.0194287 0.028539 
227 0.0254902 0.749908 0.142561 0.0332093 0.0174086 0.010838 0.00768553 0.00549809 0.0030559 0.00434477 
228 0.0169473 0.96447 0.0144032 0.0023999 0.000742945 0.000476941 0.000229432 0.000150695 8.92894e-05 8.99534e-05 
229 0.217645 0.771263 0.00923974 0.00119791 0.000335464 0.000122676 9.75611e-05 3.21191e-05 3.62103e-05 3.02508e-05 
230 0.0243902 0.72587 0.124018 0.0498465 0.0270503 0.0168406 0.0119421 0.00854318 0.0047484 0.00675111 
231 0.0274297 0.404194 0.195231 0.0967705 0.0956056 0.0597147 0.0407214 0.0325028 0.0192918 0.028539 
232 0.0811836 0.461321 0.348231 0.0747915 0.0235192 0.00368066 0.00441421 0.00112338 0.000819528 0.000916532 
233 0.0313418 0.751566 0.101377 0.0313162 0.0259421 0.0193107 0.0131686 0.0105108 0.00623863 0.00922902 
234 0.169027 0.676659 0.126154 0.0180707 0.00421328 0.00270476 0.00130112 0.000854602 0.000506365 0.00051013 
235 0.0966088 0.450415 0.216967 0.165685 0.0325284 0.0166821 0.00832964 0.00502116 0.00366433 0.00409806 
236 0.247646 0.711099 0.0230623 0.0176929 0.000256465 9.34993e-05 7.43574e-05 2.448e-05 2.75981e-05 2.3056e-05 
237 0.182672 0.59448 0.191798 0.0207111 0.00434299 0.00275922 0.00132732 0.000871809 0.00051656 0.000520402 
238 0.0274297 0.404194 0.195231 0.0977057 0.0946686 0.0597164 0.0407214 0.0325028 0.0192918 0.028539 
239 0.297593 0.689281 0.0127318 0.000257363 7.0283e-05 2.57019e-05 2.044e-05 6.72926e-06 7.58641e-06 6.33784e-06 
240 0.135103 0.446456 0.16799 0.190722 0.0193451 0.0227213 0.00696847 0.00420039 0.00306535 0.00342818 
241 0.128995 0.552827 0.282093 0.0332353 0.00121924 0.000750225 0.000360894 0.000237043 0.000140452 0.000141496 
242 0.173383 0.496585 0.200015 0.052514 0.0450646 0.0142512 0.00717504 0.00432516 0.0031564 0.00353001 
243 0.00952628 0.818294 0.119777 0.0229583 0.0104971 0.00653517 0.00463426 0.00331526 0.00184266 0.00261983 
244 0.187337 0.543085 0.165393 0.0656943 0.0146941 0.0101897 0.00536799 0.00323586 0.00236146 0.00264097 
245 0.280937 0.706688 0.0088902 0.00341133 4.21713e-05 1.20371e-05 9.5728e-06 3.15156e-06 3.55299e-06 2.96824e-06 
246 0.0446578 0.479814 0.203079 0.0913019 0.091703 0.0308807 0.0218659 0.0156424 0.00869425 0.0123612 
247 0.0384578 0.315655 0.274079 0.245066 0.0582536 0.0299873 0.0143762 0.0102835 0.00571566 0.00812633 
248 0.0222867 0.328409 0.320838 0.0791318 0.0782374 0.0727343 0.0330921 0.0264085 0.0156746 0.0231879 
249 0.083749 0.474344 0.186367 0.145931 0.0677864 0.0179672 0.00941142 0.00567326 0.00414021 0.00463027 
250 0.124661 0.556908 0.225802 0.0478557 0.0170799 0.0118587 0.00624723 0.00376587 0.00274825 0.00307354 
251 0.0895649 0.479525 0.279209 0.0670836 0.0399963 0.0191091 0.010065 0.00606724 0.00442773 0.00495182 
252 0.0696185 0.359312 0.431994 0.0658605 0.0319982 0.0142166 0.010081 0.00721178 0.00400839 0.00569899 
253 0.0682581 0.628978 0.130723 0.068211 0.0370161 0.0230451 0.0163419 0.0116907 0.00649781 0.00923836 
254 0.104724 0.48177 0.204219 0.107977 0.0311645 0.0335682 0.0209128 0.00615269 0.00449009 0.00502156 
255 0.0681969 0.34262 0.366152 0.149107 0.0269075 0.0162169 0.0114998 0.00822677 0.00457253 0.00650107 
256 0.115394 0.330059 0.299131 0.204262 0.0245055 0.0150223 0.00458665 0.00276482 0.0020177 0.00225653 
257 0.178605 0.699698 0.0972727 0.0141304 0.00429811 0.00275922 0.00132732 0.000871809 0.00051656 0.000520402 
258 0.0466282 0.530214 0.182807 0.0952948 0.0517137 0.0321954 0.0228306 0.0163326 0.00907782 0.0129065 
259 0.121267 0.441467 0.301648 0.10191 0.0180374 0.00671105 0.00353502 0.00213093 0.0015551 0.00173918 
260 0.0487801 0.493339 0.206437 0.0996931 0.0541005 0.0336813 0.0238843 0.0170864 0.0094968 0.0135022 
261 0.251001 0.461549 0.101309 0.097922 0.0697548 0.00850179 0.00560282 0.00174166 0.00123565 0.0013819 
262 0.229075 0.615054 0.148617 0.00707683 9.09425e-05 3.30734e-05 2.63023e-05 8.65926e-06 9.76224e-06 8.15558e-06 
263 0.303674 0.55335 0.114127 0.019072 0.0040872 0.00261862 0.00125968 0.000827385 0.000490239 0.000493884 
264 0.426976 0.520503 0.0497019 0.0026134 0.000105587 3.86102e-05 3.07056e-05 1.01089e-05 1.13965e-05 9.52091e-06 
265 0.0936587 0.526488 0.195065 0.0843415 0.0358584 0.0415834 0.00910277 0.00546051 0.00398496 0.00445664 
266 0.353196 0.460694 0.161794 0.0132257 0.00879358 0.00105727 0.000508406 0.000333932 0.00019786 0.000199331 
267 0.0625924 0.769714 0.10205 0.031253 0.0131156 0.00910996 0.0047992 0.00289299 0.00211123 0.00236113 
268 0.0324423 0.750333 0.143741 0.0316879 0.0149006 0.00927663 0.0065783 0.00470599 0.00261564 0.00371883 
269 0.105346 0.70211 0.136435 0.0349917 0.0101528 0.0046949 0.00247331 0.00149092 0.00108804 0.00121683 
270 0.0318379 0.74084 0.102559 0.049466 0.0268438 0.0167121 0.011851 0.00847797 0.00471215 0.00669957 
271 0.0198662 0.636397 0.308003 0.0234439 0.00469552 0.00325202 0.00171319 0.00103272 0.000753656 0.000842863 
272 0.0348429 0.379809 0.375597 0.0877553 0.0521568 0.0241467 0.0170602 0.0122045 0.00678343 0.00964444 
273 0.140251 0.6838 0.108952 0.0290027 0.0121514 0.014573 0.00444588 0.00268001 0.00195581 0.00218731 
274 0.196874 0.531263 0.205146 0.0302166 0.0230911 0.00642063 0.00286623 0.0018826 0.00111547 0.00112377 
275 0.0510629 0.676653 0.226171 0.0225087 0.0090021 0.00625275 0.003294 0.00198564 0.00144908 0.0016206 
276 0.0977072 0.518062 0.203759 0.086629 0.0301158 0.0325767 0.0142994 0.0066188 0.00483025 0.00540199 
277 0.0368646 0.687453 0.153071 0.0637263 0.0273456 0.0109553 0.00768553 0.00549809 0.0030559 0.00434477 
278 0.126105 0.334016 0.291669 0.222134 0.0115343 0.00335811 0.00887734 0.00112644 0.000587538 0.000591907 
279 0.113418 0.476321 0.182456 0.116954 0.0291429 0.044424 0.0204307 0.0077281 0.00430806 0.00481799 
280 0.129781 0.647806 0.17969 0.0269114 0.00660226 0.00423838 0.00203887 0.00133917 0.000793479 0.00079938 
281 0.33382 0.613008 0.0383856 0.0137137 0.000550005 0.000201132 0.000159955 5.26604e-05 5.9368e-05 4.95973e-05 
282 0.167683 0.297338 0.448209 0.0765965 0.00582758 0.00223119 0.000867413 0.000569734 0.000337577 0.000340087 
283 0.233756 0.691488 0.0730517 0.000194892 0.00147476 1.32789e-05 1.03507e-05 3.40767e-06 3.84172e-06 3.20945e-06 
284 0.0685241 0.817501 0.08896 0.0112453 0.00891454 0.00223438 0.00107484 0.000705975 0.000418302 0.000421412 
285 0.133116 0.642664 0.199034 0.0122356 0.0106024 0.00110849 0.000508406 0.000333932 0.00019786 0.000199331 
286 0.169384 0.775393 0.0436429 0.00551397 0.00231362 0.00160701 0.000846588 0.000510328 0.000372426 0.000416508 
287 0.253766 0.566826 0.129064 0.0239836 0.0100531 0.00698277 0.00367857 0.00221747 0.00161826 0.0018098 
288 0.128559 0.522226 0.195791 0.0612066 0.0253972 0.0302503 0.0223107 0.00560053 0.00408714 0.00457091 
289 0.122733 0.786599 0.0794644 0.00530867 0.00374737 0.000989059 0.000475409 0.000312258 0.000185018 0.000186394 
290 0.0646394 0.800367 0.127548 0.00541149 0.000858805 0.000540951 0.000260224 0.00017092 0.000101273 0.000102026 
291 0.0573234 0.266562 0.391793 0.0952502 0.0748853 0.0377925 0.0256979 0.0205115 0.0121744 0.01801 
292 0.0880634 0.612897 0.216407 0.0393589 0.0165038 0.0114634 0.00603899 0.00364034 0.00265664 0.00297109 
293 0.247998 0.67531 0.0678234 0.00645948 0.00100694 0.000645405 0.000310471 0.000203924 0.000120828 0.000121727 
294 0.0645199 0.490001 0.235659 0.103453 0.0395528 0.0230451 0.0163419 0.0116907 0.00649781 0.00923836 
295 0.104912 0.53802 0.203406 0.079357 0.0290593 0.0193747 0.0102067 0.00615269 0.00449009 0.00502157 
296 0.0992104 0.526032 0.206879 0.0879874 0.0304686 0.0211632 0.0111489 0.00672063 0.00490456 0.00548509 
297 0.179991 0.510434 0.26538 0.0251725 0.0114576 0.00361283 0.00162107 0.00106475 0.000630881 0.000635572 
298 0.19362 0.548397 0.187177 0.0318264 0.00985957 0.0217026 0.00304262 0.00199845 0.00118412 0.00119292 
299 0.0158238 0.112494 0.823165 0.0178925 0.0141359 0.00568844 0.00403241 0.00288471 0.00160335 0.00227959 
300 0.22896 0.490186 0.21134 0.0509417 0.0114836 0.00326289 0.0015696 0.00103095 0.000610853 0.000615395 
301 0.119453 0.485972 0.334774 0.0366359 0.0101055 0.0055927 0.00294585 0.00177578 0.00129592 0.00144931 
302 0.228049 0.591613 0.11937 0.0389107 0.0119393 0.00162471 0.00730506 0.000650202 0.000268179 0.000270174 
303 0.384313 0.566867 0.0184451 0.0151654 0.000895998 0.00023695 0.00018844 6.20383e-05 7.94717e-05 0.0137473 
304 0.0395415 0.841556 0.0550593 0.0253129 0.0137365 0.00855189 0.00606437 0.00433833 0.0024113 0.0034283 
305 0.172277 0.50641 0.185739 0.0543979 0.0333077 0.0156319 0.00823499 0.00572989 0.0141355 0.00413655 
306 0.125776 0.852824 0.0175946 0.00221853 0.000662274 0.000425153 0.000204519 0.000134332 7.95941e-05 8.01859e-05 
307 0.431786 0.369471 0.198344 0.00028461 5.86127e-05 2.14342e-05 1.7046e-05 5.61189e-06 6.32671e-06 5.28546e-06 
308 0.00881375 0.807342 0.0692897 0.0309857 0.0256865 0.0191205 0.0130389 0.0104073 0.00617717 0.00913809 
309 0.127988 0.640282 0.18038 0.010502 0.00282447 0.0370198 0.0004862 0.000236181 0.000139941 0.000140982 
310 0.0962489 0.51033 0.200703 0.0704357 0.0295591 0.0205314 0.0109675 0.0503842 0.00551865 0.00532136 
311 0.0651975 0.620201 0.255163 0.0429001 0.00630787 0.00438091 0.00230789 0.00139121 0.00101528 0.00113545 
312 0.0158315 0.960184 0.0138491 0.00482535 0.00202501 0.00140655 0.00074098 0.000446668 0.000325968 0.000364551 
313 0.128202 0.56011 0.266904 0.0305828 0.00593012 0.0038067 0.00183121 0.00120277 0.000712662 0.000717961 
314 0.248996 0.59227 0.128787 0.0161694 0.00797766 0.00268966 0.00127594 0.000838061 0.000496564 0.000500257 
315 0.0453037 0.590383 0.33007 0.0216324 0.00654548 0.0026709 0.00133952 0.00080747 0.000589273 0.000659023 
316 0.171589 0.449462 0.176275 0.0769037 0.0489131 0.0296136 0.0213537 0.00314069 0.0218794 0.000869617 
317 0.046628 0.473485 0.1948 0.125602 0.0661146 0.0322228 0.0228306 0.0163325 0.00907782 0.0129065 
318 0.0816688 0.511681 0.182462 0.0703512 0.108256 0.0152715 0.0183485 0.00469934 0.00342792 0.00383367 
319 0.196772 0.428416 0.364255 0.00750052 0.00261195 0.000205127 9.83442e-05 6.45945e-05 3.82733e-05 3.85579e-05 
320 0.182396 0.531351 0.205057 0.0316247 0.0366259 0.00595831 0.00286623 0.0018826 0.00111547 0.00112377 
321 0.0359557 0.454213 0.305379 0.118576 0.0306821 0.0190373 0.0134998 0.00965751 0.00536775 0.00763169 
322 0.144883 0.565693 0.163628 0.0647014 0.0233014 0.0161836 0.00852564 0.00513931 0.00375055 0.00419448 
323 0.170641 0.372639 0.292833 0.116595 0.0180886 0.0125055 0.00658799 0.00397128 0.00289815 0.00324119 
324 0.0266109 0.392128 0.189403 0.0940908 0.10714 0.0582605 0.0415046 0.0440956 0.0190794 0.0276871 
325 0.0487801 0.493337 0.191054 0.099693 0.0541005 0.0336813 0.0238843 0.0170864 0.00983182 0.0285518 
326 0.250326 0.658712 0.0823606 0.0080091 0.000304484 0.000110881 8.81802e-05 2.90307e-05 3.27285e-05 2.73421e-05 
327 0.142576 0.740657 0.0919229 0.014267 0.00441668 0.00283533 0.00136393 0.000895858 0.00053081 0.000534757 
328 0.345708 0.588372 0.014995 0.0327165 0.00914888 0.00881451 0.0001258 3.87076e-05 4.3638e-05 3.64561e-05 
329 0.171921 0.823509 0.00381691 0.00048676 0.000136313 4.98483e-05 3.9643e-05 1.30513e-05 1.47137e-05 1.22921e-05 
330 0.181139 0.501804 0.18984 0.0701375 0.0310285 0.0196207 0.00263833 0.00173199 0.00102623 0.00103386 
331 0.316297 0.3391 0.100844 0.0234812 0.201593 0.0153578 0.00136427 0.000895858 0.00053081 0.000534757 
332 0.116559 0.554224 0.170787 0.0696282 0.0247109 0.039053 0.011307 0.0053931 0.00393576 0.00440162 
333 0.063535 0.424402 0.232148 0.216616 0.032498 0.0133071 0.0069017 0.00416039 0.00303616 0.00339553 
334 0.353105 0.460864 0.181391 0.00436088 0.000143565 5.22579e-05 4.15593e-05 1.36822e-05 1.54249e-05 1.28863e-05 
335 0.0816879 0.22193 0.669851 0.0102318 0.0121641 0.00190338 0.000915602 0.000601386 0.000356331 0.000358981 
336 0.0440376 0.498151 0.188224 0.0946239 0.0590128 0.0334518 0.0320294 0.0158172 0.00916836 0.0254835 
337 0.299527 0.488734 0.209925 0.00174917 3.33175e-05 1.213e-05 9.64665e-06 3.17587e-06 3.5804e-06 2.99114e-06 
338 0.354399 0.566475 0.0277847 0.00691068 0.0187523 0.0034711 0.0220308 6.34106e-05 6.15139e-05 5.139e-05 
339 0.0616635 0.428395 0.218047 0.111397 0.113448 0.0237374 0.0161716 0.0115689 0.00643012 0.00914212 
340 0.0880857 0.324337 0.533569 0.0254689 0.0100057 0.010063 0.00334492 0.00201309 0.00146911 0.001643 
341 0.049236 0.406363 0.199713 0.23323 0.0510071 0.0208503 0.0147855 0.0105773 0.00587897 0.00835851 
342 0.700786 0.293782 0.00524107 2.6657e-05 8.25277e-05 0 8.2019e-05 0 0 0 
343 0.0258396 0.380762 0.185694 0.103894 0.101092 0.0726547 0.0399014 0.0451039 0.0181734 0.0268845 
344 0.204826 0.59445 0.153504 0.033115 0.00783165 0.00462659 0.000685658 0.00043885 0.000260025 0.000261959 
345 0.145928 0.836535 0.0166004 0.000605486 0.000169536 6.19978e-05 4.93051e-05 1.62322e-05 1.82998e-05 1.5288e-05 
346 0.0908264 0.496574 0.232828 0.106629 0.0278969 0.0193747 0.0102067 0.00615269 0.00449009 0.00502157 
347 0.0684663 0.534408 0.233776 0.0740021 0.0370574 0.0165497 0.0143167 0.00512532 0.0126661 0.00363241 
348 0.12033 0.602551 0.162579 0.0473114 0.0353438 0.0142226 0.00696807 0.0042004 0.00306535 0.00342818 
349 0.0452964 0.512427 0.194868 0.106374 0.0503591 0.0312755 0.0221783 0.0158659 0.00881845 0.0125378 
350 0.0847424 0.587746 0.290209 0.0315601 0.00243348 0.00152268 0.000732482 0.000481109 0.000285065 0.000287184 
351 0.123877 0.563789 0.213407 0.0567053 0.0161047 0.0111838 0.0058917 0.00355155 0.00259184 0.00289863 
352 0.384465 0.566035 0.0180953 0.00234591 0.000656951 0.000240241 0.000191057 6.28999e-05 7.30556e-05 0.0278349 
353 0.19651 0.532317 0.228286 0.0246297 0.00762403 0.00489432 0.00235441 0.00154642 0.00091628 0.000923093 
354 0.101567 0.552103 0.196849 0.0646464 0.0279008 0.031663 0.0100354 0.00598412 0.00436708 0.00488399 
355 0.160221 0.563764 0.186799 0.0612258 0.0186528 0.00436684 0.00203887 0.00133917 0.000793479 0.00079938 
356 0.0274297 0.404194 0.195231 0.0981109 0.0942507 0.0597291 0.0407214 0.0325028 0.0192918 0.028539 
357 0.107051 0.448532 0.313279 0.0816816 0.018862 0.013101 0.0069017 0.00416039 0.00303616 0.00339553 
358 0.189198 0.562786 0.192827 0.0439657 0.00549714 0.0026354 0.00126776 0.000832689 0.000493381 0.00049705 
359 0.148486 0.586946 0.134651 0.0540509 0.045843 0.0128561 0.0067727 0.00408263 0.00297941 0.00333207 
360 0.0731198 0.384602 0.400679 0.0732726 0.023992 0.0241493 0.0079636 0.00480045 0.00350326 0.00391792 
361 0.171499 0.594989 0.16791 0.0475584 0.00753441 0.00483674 0.00232671 0.00152823 0.0009055 0.000912233 
362 0.0563666 0.514787 0.194469 0.0875688 0.0475207 0.0295849 0.0209794 0.0172704 0.0195932 0.0118601 
363 0.108358 0.546551 0.182301 0.0899319 0.0232997 0.0164645 0.0199448 0.00520391 0.00375055 0.00419448 
364 0.145441 0.510978 0.217377 0.0604715 0.0250691 0.0174127 0.00917315 0.00552963 0.0040354 0.00451305 
365 0.18056 0.780106 0.0310134 0.00478672 0.00147562 0.000947288 0.000455692 0.000299307 0.000177344 0.000178663 
366 0.0270141 0.39807 0.193407 0.110779 0.0926996 0.0588099 0.0401044 0.0320103 0.0189995 0.0281066 
367 0.348632 0.650192 0.00101851 0.000101628 2.84599e-05 1.04076e-05 8.27684e-06 2.7249e-06 3.07199e-06 2.5664e-06 
368 0.355763 0.464182 0.156048 0.00745641 0.0164309 4.62318e-05 3.65854e-05 1.20447e-05 1.35789e-05 1.13441e-05 
369 0.181737 0.640813 0.165941 0.00435656 0.00140037 0.00477652 0.000400666 0.000262954 0.000155805 0.000156963 
370 0.166494 0.319342 0.469985 0.0256526 0.00965206 0.00380011 0.00200188 0.00120674 0.000880653 0.000984892 
371 0.164103 0.647662 0.0773063 0.0112922 0.00881911 0.00758053 0.00129194 0.0303894 0.0511393 0.000416885 
372 0.0358872 0.336534 0.438532 0.109684 0.0418524 0.0133371 0.00902603 0.00645706 0.00358891 0.00510258 
373 0.309177 0.557093 0.114474 0.0089145 0.0029703 0.00538515 0.000825409 0.000530202 0.000314153 0.000316489 
374 0.229639 0.469636 0.214069 0.0646915 0.0178215 0.00195076 0.000898955 0.000590452 0.000349852 0.000352454 
375 0.262439 0.354384 0.321619 0.055836 0.00222942 0.00287512 0.000253309 0.000166112 9.84239e-05 9.91558e-05 
376 0.259376 0.484821 0.245453 0.00443545 0.00474728 0.00053808 0.000257849 0.000169361 0.000100349 0.000101095 
377 0.155734 0.776372 0.0589931 0.00587661 0.00126316 0.000810894 0.000390079 0.000256212 0.00015181 0.000152939 
378 0.100561 0.574769 0.183468 0.0674764 0.0252995 0.0263584 0.00882735 0.00520049 0.0037952 0.00424442 
379 0.0967232 0.522681 0.199522 0.0788055 0.0563413 0.0196867 0.0103526 0.00624059 0.00455424 0.0050933 
380 0.177258 0.516137 0.172176 0.0710569 0.0226218 0.00579047 0.0027855 0.00182957 0.00120316 0.0291414 
381 0.295711 0.522633 0.178598 0.00229568 0.000390913 0.000142953 0.000113687 3.7428e-05 4.21955e-05 3.5251e-05 
382 0.0977072 0.518062 0.203744 0.0715029 0.0309689 0.0497919 0.0113716 0.0066188 0.00483025 0.00540199 
383 0.254309 0.73621 0.00884509 0.000410971 0.000115086 4.20861e-05 3.34699e-05 1.1019e-05 1.24225e-05 1.0378e-05 
384 0.265615 0.35266 0.0191252 0.311911 0.0449808 0.00565573 2.58646e-05 8.51277e-06 9.59709e-06 8.01761e-06 
385 0.265737 0.694479 0.0386475 0.000734588 0.000205654 7.52059e-05 5.98092e-05 1.96904e-05 2.21985e-05 1.85451e-05 
386 0.108916 0.484664 0.250584 0.0776081 0.036507 0.0178658 0.00941142 0.00567326 0.00414021 0.00463027 
387 0.0529424 0.42563 0.171461 0.210377 0.0473419 0.0387739 0.0200687 0.0142386 0.007914 0.0112518 
388 0.151835 0.497891 0.168531 0.0872054 0.0572026 0.0214755 0.00627151 0.00376587 0.00274825 0.00307354 
389 0.266974 0.319231 0.132307 0.212794 0.0250376 0.00972223 0.0317559 0.00101569 0.000578703 0.000583006 
390 0.077135 0.464675 0.137298 0.0585634 0.0764257 0.143807 0.0308499 0.00442434 0.00322017 0.00360132 
391 0.185918 0.598708 0.117543 0.0871717 0.00683218 0.00180953 0.00082749 0.000543512 0.00032204 0.000324434 
392 0.255856 0.677073 0.0540477 0.00794475 0.00212059 0.00136133 0.000654868 0.000430131 0.000254859 0.000256754 
393 0.284606 0.642178 0.0526208 0.0107602 0.00375092 0.00260531 0.0013725 0.000827351 0.000603781 0.000675248 
394 0.174133 0.533863 0.221125 0.0505567 0.0141112 0.00286271 0.0013734 0.00090208 0.000534496 0.000538471 
395 0.157431 0.675105 0.111627 0.0296089 0.0100037 0.0069475 0.00365999 0.00220627 0.00161008 0.00180066 
396 0.0691545 0.402564 0.348942 0.095747 0.0298012 0.0185533 0.0131566 0.00941198 0.00523129 0.00743766 
397 0.402962 0.377661 0.100989 0.0410059 0.0662409 0.00784841 0.00172194 0.000717677 0.000425235 0.000428397 
398 0.0418513 0.458613 0.285178 0.0802354 0.044501 0.0382868 0.0191664 0.0137113 0.00762089 0.0108351 
399 0.141831 0.66309 0.157554 0.0215491 0.00667103 0.00428253 0.00206011 0.00135312 0.000801745 0.000807706 
400 0.175632 0.621595 0.159371 0.0249243 0.00771589 0.00495329 0.00238277 0.00156505 0.000927319 0.000934215 
401 0.323616 0.565362 0.0974319 0.0134473 8.23272e-05 2.32804e-05 1.85143e-05 6.09528e-06 6.87167e-06 5.74074e-06 
402 0.22142 0.331023 0.245674 0.0907164 0.0737335 0.0147221 0.0147748 0.0031457 0.00226097 0.00252859 
403 0.19552 0.486423 0.283466 0.0203902 0.0059298 0.0038067 0.00183121 0.00120277 0.000712662 0.000717961 
404 0.168216 0.796079 0.0294401 0.00408284 0.000910981 0.000584812 0.000281323 0.000184779 0.000109484 0.000110298 
405 0.0149011 0.373719 0.173251 0.1078 0.104439 0.0668188 0.0551485 0.0423713 0.0233984 0.0381533 
406 0.0262196 0.386362 0.189792 0.148126 0.0767061 0.0570802 0.0389248 0.0310688 0.0184407 0.0272799 
407 0.121763 0.394504 0.2577 0.141201 0.0609036 0.0107134 0.00521352 0.00314274 0.0022935 0.00256497 
408 0.0732001 0.460397 0.347164 0.0509438 0.0361704 0.0137562 0.00724679 0.00436841 0.00318796 0.00356531 
409 0.00784599 0.200259 0.166247 0.187699 0.166936 0.0537814 0.106384 0.0353925 0.0354448 0.0400096 
410 0.112397 0.421781 0.191434 0.0581368 0.0836209 0.0891629 0.0176533 0.0177603 0.00380863 0.00424442 
411 0.209937 0.660267 0.116409 0.00606397 0.00185109 0.00407804 0.00057177 0.000375432 0.000222449 0.000224104 
412 0.229712 0.631755 0.130544 0.00476686 0.00134542 0.000863704 0.000415483 0.000272898 0.000161696 0.000162899 
413 0.0711965 0.347437 0.203725 0.276196 0.0615272 0.0242622 0.00794199 0.00324118 0.00211123 0.00236113 
414 0.0443486 0.457437 0.218478 0.140006 0.0527816 0.0299902 0.0212668 0.0152139 0.00845605 0.0120225 
415 0.0899838 0.536013 0.227219 0.0823246 0.0248007 0.0169828 0.00894666 0.0053931 0.00393576 0.00440162 
416 0.118733 0.710493 0.118002 0.0251502 0.0105344 0.00731705 0.00385468 0.00232362 0.00169573 0.00189644 
417 0.062925 0.816826 0.0699633 0.026355 0.00912709 0.00633919 0.00333953 0.00201309 0.00146911 0.001643 
418 0.0254705 0.403703 0.224667 0.103811 0.074491 0.0554494 0.0378127 0.0301812 0.0179138 0.0265005 
419 0.0417203 0.435202 0.221149 0.106404 0.0987058 0.042107 0.0204274 0.0146133 0.00812226 0.0115479 
420 0.210094 0.487312 0.271231 0.0238072 0.0031554 0.00202524 0.000974237 0.000639899 0.00037915 0.00038197 
421 0.197787 0.48172 0.28396 0.0263098 0.00430697 0.00272267 0.00130974 0.000860261 0.000509719 0.000513509 
422 0.0816054 0.91238 0.0042136 0.0015863 0.000110001 4.02264e-05 3.1991e-05 1.05321e-05 1.18736e-05 9.91946e-06 
423 0.121507 0.480327 0.173228 0.182292 0.0141836 0.00965901 0.00934262 0.00489787 0.00215403 0.00240899 
424 0.0758715 0.614019 0.169967 0.0557078 0.0465537 0.0162709 0.00852564 0.00513931 0.00375055 0.00419448 
425 0.234074 0.543193 0.17806 0.0243926 0.0129591 0.00336987 0.00162107 0.00106475 0.000630881 0.000635572 
426 0.111564 0.461124 0.226351 0.15484 0.0176923 0.0121735 0.00641309 0.00386585 0.00282121 0.00315514 
427 0.0934591 0.510026 0.204975 0.0885525 0.0419365 0.0199363 0.0105026 0.00633103 0.00492219 0.0193579 
428 0.189197 0.373093 0.228112 0.105444 0.0449669 0.0441626 0.00633606 0.00341282 0.0024906 0.0027854 
429 0.111093 0.433653 0.40726 0.0345399 0.00561771 0.00360634 0.00173483 0.00113947 0.000675154 0.000680174 
430 0.135326 0.40415 0.421788 0.0222447 0.00688622 0.00442068 0.00212656 0.00139677 0.000827608 0.000833762 
431 0.236004 0.660383 0.0863759 0.00989916 0.00306421 0.0019671 0.000946269 0.000621529 0.000368266 0.000371004 
432 0.0576546 0.835811 0.0622841 0.0210678 0.00884134 0.00614109 0.00323517 0.00195018 0.0014232 0.00159166 
433 0.0217431 0.320512 0.374039 0.0768228 0.0635898 0.0473348 0.0322791 0.0257644 0.0152923 0.0226224 
434 0.209131 0.457763 0.137429 0.194739 0.00057141 0.000140629 0.000111838 3.68195e-05 4.15094e-05 3.46778e-05 
435 0.231569 0.514713 0.189986 0.034194 0.0180291 0.00576848 0.00235441 0.00154642 0.00091628 0.000923093 
436 0.338274 0.378129 0.236275 0.0266191 0.00718226 0.00215396 0.0100372 0.000607048 0.000359661 0.000362336 
437 0.0930165 0.23987 0.44396 0.187138 0.0162537 0.0104965 0.00404324 0.0020509 0.0014967 0.00167385 
438 0.0992104 0.526032 0.206879 0.0726029 0.0304686 0.0219344 0.0257622 0.00672063 0.00490456 0.00548509 
439 0.109156 0.527273 0.200704 0.0708543 0.0437396 0.0208577 0.0108161 0.00652002 0.00475816 0.00532136 
440 0.39744 0.546501 0.0476082 0.00771426 0.000457477 0.000107437 8.54417e-05 2.81292e-05 3.17121e-05 2.6493e-05 
441 0.048041 0.485862 0.18816 0.0981825 0.0540419 0.0476163 0.0385904 0.0168561 0.0093529 0.0132976 
442 0.100604 0.222823 0.572231 0.0498827 0.0383306 0.0133567 0.00113662 0.000746549 0.000442342 0.000445631 
443 0.0995467 0.414022 0.202716 0.213191 0.0402175 0.0129777 0.00683659 0.00412114 0.00300751 0.0033635 
444 0.0127061 0.152148 0.785731 0.0198826 0.0105285 0.00655474 0.00464814 0.00332519 0.00184818 0.00262768 
445 0.0259389 0.395156 0.183913 0.0914403 0.133234 0.0562807 0.0383607 0.0306186 0.0181734 0.0268845 
446 0.185078 0.524203 0.190068 0.0780968 0.00941795 0.00604593 0.00290838 0.00191029 0.00113188 0.00114029 
447 0.299209 0.579154 0.109924 0.00803144 0.00233534 0.000620096 0.000298296 0.000195927 0.00011609 0.000116953 
448 0.0473239 0.47861 0.185351 0.0978634 0.0960804 0.0327109 0.0231713 0.0165763 0.00921331 0.0130992 
449 0.12161 0.472422 0.250833 0.0617212 0.0257203 0.017865 0.019589 0.0186994 0.00691054 0.00463027 
450 0.202157 0.537159 0.193955 0.0315388 0.00889471 0.00571008 0.0166221 0.00181773 0.00106899 0.00107694 
451 0.0871443 0.477216 0.255345 0.0998073 0.036638 0.0190277 0.00979296 0.00590326 0.00430806 0.00481799 
452 0.194289 0.276046 0.361625 0.120549 0.0231083 0.0104673 0.00548999 0.0033094 0.00241512 0.00270099 
453 0.0992104 0.526233 0.222063 0.0726029 0.0304686 0.0211632 0.0111489 0.00672063 0.00490456 0.00548509 
454 0.355208 0.61187 0.0167534 0.0022323 0.01336 0.000221851 0.000176361 5.80615e-05 6.54571e-05 5.46842e-05 
455 0.20294 0.738368 0.0473275 0.00652601 0.00202025 0.00129692 0.00062388 0.000409777 0.0002428 0.000244605 
456 0.202765 0.546952 0.18159 0.0308763 0.00955849 0.00613617 0.00295179 0.00199394 0.016019 0.00115732 
457 0.142856 0.245396 0.258123 0.297757 0.00924757 0.0337126 0.00782467 0.00199983 0.00145569 0.001628 
458 0.18868 0.582715 0.179606 0.0227497 0.0167274 0.00439235 0.00210394 0.00138191 0.000818803 0.000824892 
459 0.0762432 0.639894 0.188554 0.0453777 0.0190429 0.013227 0.00696807 0.00420039 0.00306535 0.00342818 
460 0.175441 0.401563 0.334225 0.0495827 0.0200424 0.0140704 0.0020818 0.00136736 0.000810184 0.000816209 
461 0.1517 0.659878 0.114185 0.02785 0.0224266 0.0134458 0.00415993 0.00249623 0.00182169 0.00203732 
462 0.0680042 0.505778 0.215299 0.0961978 0.0409149 0.0254568 0.0180521 0.0129141 0.00717781 0.0102052 
463 0.23351 0.250045 0.503374 0.0072861 0.00217039 0.00172651 0.000251937 0.000165477 0.00137128 9.94324e-05 
464 0.184255 0.576233 0.184711 0.0246372 0.00796896 0.0164403 0.00236826 0.00154642 0.00091628 0.000923093 
465 0.283558 0.451403 0.251576 0.00687715 0.00479932 0.000822445 0.00039554 0.000259799 0.000153935 0.00015508 
466 0.18197 0.338552 0.358915 0.0677098 0.0321543 0.014341 0.00251008 0.00151156 0.0011031 0.00123367 
467 0.133552 0.736823 0.119598 0.00603157 0.00166776 0.00107063 0.000515026 0.00033828 0.000200436 0.000201927 
468 0.0883642 0.508047 0.135763 0.0534992 0.199266 0.00794083 0.00280883 0.00169318 0.00123565 0.0013819 
469 0.150842 0.399601 0.170889 0.0939328 0.132879 0.0318876 0.00788003 0.00474827 0.00346518 0.00387534 
470 0.158989 0.515896 0.249936 0.0475357 0.00812388 0.0142641 0.00216458 0.00141195 0.000836603 0.000842824 
471 0.0651384 0.410824 0.391181 0.080375 0.0200321 0.013895 0.00731999 0.00441254 0.00322017 0.00360132 
472 0.202708 0.521986 0.188689 0.0376182 0.023263 0.0176567 0.00412897 0.00180416 0.00106899 0.00107694 
473 0.21038 0.330564 0.373104 0.0739736 0.00772387 0.00196993 0.000937299 0.000615637 0.000364775 0.000367487 
474 0.0454028 0.740414 0.202257 0.00661707 0.00202502 0.00140655 0.00074098 0.000446668 0.000325968 0.000364551 
475 0.0123045 0.551229 0.274051 0.0454199 0.0359611 0.0267687 0.0182544 0.0145702 0.00864803 0.0127933 
476 0.431087 0.546439 0.0221756 0.000227385 3.65254e-05 1.3357e-05 1.06225e-05 3.49714e-06 3.94259e-06 3.29372e-06 
477 0.0921242 0.531315 0.194207 0.108151 0.0283095 0.0196515 0.0103526 0.00624059 0.00455424 0.0050933 
478 0.0487081 0.247756 0.177544 0.4779 0.0170796 0.0240582 0.00303839 0.00153817 0.00112252 0.00125539 
479 0.122822 0.515711 0.31454 0.0268777 0.00764657 0.00531122 0.00279799 0.00168664 0.00123087 0.00137657 
480 0.0535413 0.462706 0.23463 0.0842015 0.0453155 0.0662881 0.019913 0.0142386 0.007914 0.0112518 
481 0.107902 0.505881 0.231011 0.0868262 0.0261109 0.0181001 0.00953525 0.00574791 0.00419469 0.0046912 
482 0.132211 0.810617 0.0370662 0.00996339 0.00386809 0.00268673 0.00141539 0.000853205 0.000622649 0.00069635 
483 0.178663 0.773138 0.0392763 0.00512583 0.0015852 0.00101763 0.00048953 0.000321533 0.000190514 0.00019193 
484 0.235924 0.389538 0.327531 0.0350599 0.00685566 0.00121378 0.0031123 0.000349193 0.000206902 0.00020844 
485 0.158553 0.490463 0.185445 0.0744886 0.0362229 0.0312784 0.00929085 0.00560053 0.00408714 0.00457091 
486 0.150388 0.341691 0.258927 0.170054 0.0545836 0.0101715 0.00978714 0.00181019 0.00122144 0.00136602 
487 0.093351 0.507268 0.216727 0.0672603 0.0286549 0.0326388 0.0102661 0.00617363 0.0217203 0.0159394 
488 0.0876581 0.515797 0.203026 0.107385 0.0426954 0.0186158 0.00979296 0.00590326 0.00430806 0.00481799 
489 0.28696 0.616391 0.0863452 0.00601967 0.00178888 0.00114839 0.00055243 0.000362848 0.000214993 0.000216592 
490 0.086095 0.545256 0.199748 0.0836192 0.0422227 0.0185686 0.00966239 0.00582455 0.00425062 0.00475375 
491 0.046815 0.500576 0.182846 0.0984103 0.078005 0.0322003 0.0228306 0.0163326 0.00907782 0.0129065 
492 0.090068 0.513579 0.191308 0.0929436 0.0595686 0.0270211 0.010065 0.00606724 0.00442773 0.00495182 
493 0.0221779 0.776584 0.0869452 0.045315 0.0245911 0.0153097 0.0108565 0.00776653 0.00431673 0.00613737 
494 0.0889532 0.839802 0.0561609 0.0112498 0.00160107 0.00102781 0.000494425 0.000324748 0.000192419 0.000193849 
495 0.0364449 0.380144 0.354625 0.101387 0.0544243 0.0251811 0.0178446 0.0127657 0.00709531 0.0100879 
496 0.0223491 0.341055 0.174811 0.211839 0.103055 0.0485336 0.0330861 0.0264085 0.0156746 0.0231879 
497 0.0714769 0.546274 0.31978 0.0274889 0.0124723 0.00776342 0.00550524 0.00393835 0.00218898 0.00311221 
498 0.0888512 0.58527 0.220761 0.0504554 0.0208471 0.0144801 0.0076282 0.00459833 0.00335575 0.00375296 
499 0.295757 0.55576 0.118631 0.017259 0.00622135 0.000493079 0.00577371 4.78418e-05 3.1132e-05 2.60083e-05 
500 0.0135083 0.214742 0.584369 0.0588622 0.0395029 0.029405 0.0200522 0.0160052 0.00949974 0.0140533 
501 0.0883386 0.54015 0.19447 0.0784945 0.0278449 0.0318324 0.0101489 0.0193892 0.00444727 0.00488399 
502 0.117338 0.504602 0.171926 0.0707252 0.0718345 0.0169569 0.0208593 0.00532737 0.00414137 0.0162894 
503 0.0932454 0.567757 0.268557 0.0422549 0.021991 0.00524802 0.000421607 0.000239667 0.000142006 0.000143062 
504 0.00656098 0.677692 0.290623 0.0102893 0.00529 0.00329216 0.00233455 0.0016701 0.000928258 0.00131976 
505 0.116037 0.554549 0.249753 0.0401252 0.0193661 0.0100208 0.00400375 0.00241349 0.00176131 0.00196978 
506 0.0495432 0.525041 0.219325 0.0886469 0.0418804 0.0260629 0.0184819 0.0132216 0.00734871 0.0104481 
507 0.196277 0.571213 0.199006 0.0175091 0.0113176 0.00215248 0.00103545 0.000680102 0.000402971 0.000405968 
508 0.200849 0.563999 0.19189 0.0250039 0.00762403 0.00489432 0.00235441 0.00154642 0.00091628 0.000923093 
509 0.0613333 0.471572 0.182626 0.124655 0.0517649 0.0321954 0.0228306 0.0163326 0.00908314 0.0276071 
510 0.291246 0.694629 0.0138714 0.000164574 4.53504e-05 1.65842e-05 1.3189e-05 4.34208e-06 4.89516e-06 4.08952e-06 
511 0.105593 0.50685 0.233837 0.0716261 0.02916 0.0315648 0.00887197 0.00490833 0.00358198 0.00400597 
512 0.0980091 0.542692 0.189691 0.0880364 0.0283394 0.0284511 0.0101469 0.00574791 0.00419469 0.0046912 
513 0.0761941 0.526825 0.203375 0.0774753 0.037968 0.0232903 0.0180574 0.0177475 0.00973104 0.00933664 
514 0.210816 0.447254 0.225796 0.07047 0.0174844 0.0120667 0.00635683 0.00383194 0.00279646 0.00312747 
515 0.12185 0.374917 0.488425 0.0096955 0.00213494 0.00137041 0.000659234 0.000432998 0.000256558 0.000258466 
516 0.262745 0.464106 0.182812 0.0451492 0.0390032 0.00290489 0.00134538 0.00088367 0.000523588 0.000527482 
517 0.0948335 0.519603 0.210385 0.0693999 0.0291244 0.0202295 0.0110805 0.0207065 0.00531222 0.0193247 
518 0.0490728 0.565787 0.181094 0.0762886 0.0530789 0.0257604 0.0182644 0.013066 0.00726226 0.0103252 
519 0.0262196 0.386362 0.186618 0.0925011 0.0766818 0.0570802 0.0390646 0.0515576 0.054703 0.0292126 
520 0.20636 0.267438 0.323875 0.182063 0.0149101 0.00372922 0.00066623 0.000437372 0.00025915 0.000261077 
521 0.0488166 0.673042 0.117368 0.0418586 0.0410965 0.0257091 0.0175291 0.0139913 0.00830441 0.012285 
522 0.0489014 0.736501 0.165279 0.0234831 0.00985304 0.0068438 0.00360537 0.00217334 0.00158605 0.00177379 
523 0.346537 0.610905 0.0335065 0.00519777 0.00160909 0.00103297 0.00049691 0.000326381 0.000193386 0.000194824 
524 0.112728 0.557058 0.221523 0.0604377 0.0312188 0.00798598 0.00356985 0.00215193 0.00157043 0.00175631 
525 0.252547 0.577977 0.150656 0.0179512 0.000497097 0.000142954 0.000113687 3.74281e-05 4.21955e-05 3.5251e-05 
526 0.0634477 0.575475 0.303842 0.0304675 0.0102086 0.00709075 0.00373546 0.00225176 0.00164328 0.00183779 
527 0.126137 0.322504 0.296576 0.180313 0.0338023 0.0244035 0.0045901 0.00749443 0.00216695 0.0020143 
528 0.0287037 0.809 0.0852022 0.0305666 0.0165874 0.0103268 0.00732301 0.00523874 0.00291175 0.00413983 
529 0.0809997 0.539503 0.231509 0.0776792 0.0343283 0.0160148 0.00787695 0.00474827 0.00346518 0.00387534 
530 0.173677 0.527898 0.22142 0.0514218 0.01656 0.00415279 0.00199768 0.00131212 0.00077745 0.000783231 
531 0.125713 0.586652 0.154967 0.089281 0.0166165 0.0114634 0.00603899 0.00364034 0.00265664 0.00297109 
532 0.201667 0.619126 0.149865 0.0158403 0.00877483 0.0021753 0.0010464 0.000687299 0.000407235 0.000410264 
533 0.0806084 0.428155 0.238616 0.178607 0.0338579 0.0171951 0.00905849 0.00546051 0.00398496 0.00445664 
534 0.048041 0.501013 0.18816 0.0982928 0.068322 0.033171 0.0235224 0.0168275 0.0093529 0.0132976 
535 0.046628 0.500983 0.182625 0.0956599 0.0660538 0.0321961 0.0237543 0.0301147 0.00907784 0.0129065 
536 0.100039 0.762329 0.119197 0.0106101 0.00326744 0.00209757 0.00100903 0.000662752 0.000392691 0.000395611 
537 0.147304 0.472363 0.248862 0.120807 0.00445961 0.00285502 0.0013734 0.00090208 0.000534497 0.000538471 
538 0.112859 0.518062 0.203744 0.0715029 0.030007 0.0208425 0.012017 0.0177649 0.0077986 0.00540199 
539 0.110325 0.511179 0.200703 0.0706172 0.0464968 0.0316963 0.0123828 0.00652002 0.00475816 0.00532136 
540 0.0849309 0.698651 0.135829 0.0383701 0.0161013 0.0111838 0.0058917 0.00355155 0.00259184 0.00289863 
541 0.0599877 0.50124 0.218717 0.162228 0.028081 0.0127382 0.00670999 0.00404482 0.00295182 0.00330121 
542 0.251025 0.551208 0.126154 0.0420093 0.0139898 0.00669728 0.00351786 0.00212059 0.00154756 0.00173073 
543 0.048041 0.486144 0.203018 0.0981932 0.0534437 0.0480439 0.0236381 0.0168275 0.0093529 0.0132976 
544 0.0274297 0.404194 0.195231 0.0967704 0.080221 0.0597173 0.0561033 0.0325029 0.0192918 0.028539 
545 0.135697 0.457204 0.202308 0.111258 0.0284305 0.0280935 0.0208184 0.00716627 0.00439468 0.00463027 
546 0.19362 0.548397 0.187177 0.0318264 0.0103185 0.0212253 0.00306104 0.00199845 0.00118412 0.00119292 
547 0.104611 0.797287 0.0573113 0.0194205 0.00815004 0.00566092 0.00298222 0.0017977 0.00131192 0.00146721 
548 0.0642086 0.569113 0.177517 0.081767 0.0391437 0.0235407 0.0166933 0.0119421 0.00663755 0.00943703 
549 0.101128 0.830168 0.0337026 0.0140137 0.00748198 0.00465805 0.00330314 0.00236301 0.00131339 0.00186733 
550 0.0867107 0.585672 0.201896 0.0489693 0.0310815 0.0157569 0.0111689 0.00799003 0.00444095 0.00631399 
551 0.0992104 0.526032 0.222263 0.0726029 0.0304686 0.0211632 0.0111489 0.00672063 0.00490456 0.00548509 
552 0.031051 0.814558 0.0726661 0.0324055 0.0175827 0.0109464 0.00776239 0.00555307 0.00308646 0.00438822 
553 0.0883779 0.605154 0.289549 0.00988395 0.0029377 0.00188589 0.000907202 0.000595869 0.000353062 0.000355687 
554 0.398347 0.540591 0.0511677 0.00571542 0.00174501 0.00112023 0.000538883 0.000353949 0.000209721 0.00021128 
555 0.03523 0.644959 0.138212 0.0720005 0.0390726 0.0243254 0.0172498 0.0123402 0.0068588 0.0097516 
556 0.0992104 0.526032 0.207287 0.0852629 0.032785 0.0211632 0.0111489 0.00672063 0.00490456 0.00548509 
557 0.105792 0.380889 0.432641 0.0410338 0.0151216 0.0105008 0.0055319 0.00333466 0.00243356 0.00272161 
558 0.0270141 0.413199 0.193302 0.105663 0.0827915 0.0588099 0.0401044 0.0320103 0.0189995 0.0281066 
559 0.0473242 0.508444 0.185367 0.111642 0.0524856 0.0326759 0.0231713 0.0165763 0.00921331 0.0130992 
560 0.0555421 0.508048 0.379179 0.0361143 0.0080584 0.00559189 0.00294585 0.00177578 0.00129592 0.00144931 
561 0.0270141 0.39807 0.192273 0.0958245 0.0929805 0.0746178 0.0401044 0.0320103 0.0189995 0.0281066 
562 0.0516673 0.419886 0.191294 0.171208 0.0750737 0.0297493 0.0284679 0.0141983 0.00762089 0.0108351 
563 0.136995 0.631978 0.224884 0.00387798 0.000945966 0.000607272 0.000292127 0.000191875 0.000113689 0.000114534 
564 0.206785 0.707833 0.0707323 0.00841465 0.00260333 0.00167123 0.000803944 0.000528047 0.000312876 0.000315203 
565 0.0806106 0.466529 0.232657 0.104661 0.0256634 0.0544178 0.00905895 0.00546051 0.00681707 0.0141245 
566 0.0334324 0.72633 0.107361 0.0526833 0.0285897 0.0177991 0.0126218 0.00902938 0.00501863 0.00713532 
567 0.0746426 0.564467 0.205141 0.0626943 0.0331748 0.0206536 0.014646 0.0104775 0.00582351 0.00827966 
568 0.165809 0.655817 0.140049 0.0220085 0.00681297 0.00437365 0.00210394 0.00138191 0.000818803 0.000824892 
569 0.0193815 0.397783 0.301793 0.0755182 0.0764626 0.0435341 0.0287705 0.0229639 0.0136301 0.0201634 
570 0.0473239 0.478614 0.200273 0.0967171 0.0524856 0.034426 0.0483074 0.0195408 0.00921331 0.0130992 
571 0.11467 0.373972 0.457335 0.0257377 0.0194353 0.00380411 0.00199088 0.00120011 0.000875815 0.000979481 
572 0.114169 0.516973 0.195273 0.0767644 0.0428501 0.0291482 0.00979299 0.00590326 0.00430806 0.00481799 
573 0.0934591 0.501746 0.21941 0.0963362 0.0414922 0.020936 0.0105026 0.00633103 0.00462024 0.00516712 
574 0.101487 0.488608 0.237987 0.074869 0.0400833 0.01863 0.00979296 0.00926781 0.014457 0.00481802 
575 0.212983 0.559745 0.159069 0.0372976 0.0200118 0.0050137 0.00241183 0.00158414 0.000938628 0.000945608 
576 0.332136 0.417457 0.158018 0.0806418 0.00309092 0.00638858 0.00095127 0.000601386 0.000356331 0.000358981 
577 0.089565 0.474964 0.200743 0.0792639 0.0275138 0.0194729 0.0929531 0.0061452 0.00442773 0.00495182 
578 0.158476 0.732366 0.0859166 0.0133472 0.00413173 0.00265241 0.00127594 0.000838061 0.000496564 0.000500257 
579 0.122196 0.807453 0.04335 0.0141477 0.00490213 0.00340496 0.00179376 0.00108129 0.0007891 0.000882502 
580 0.216491 0.538353 0.193171 0.0306835 0.00889471 0.00571004 0.00274681 0.00180416 0.00106899 0.00107694 
581 0.0155889 0.344886 0.181174 0.112776 0.10926 0.0699028 0.0576939 0.0443269 0.0244783 0.0399142 
582 0.0274297 0.404194 0.19556 0.111821 0.0802265 0.0597147 0.0407214 0.0325028 0.0192918 0.028539 
583 0.0411837 0.572166 0.161405 0.0843277 0.058485 0.0284323 0.020162 0.0144236 0.00801678 0.011398 
584 0.109539 0.517531 0.197814 0.0840375 0.0291399 0.0347055 0.0108774 0.00642413 0.00468818 0.0052431 
585 0.0517098 0.855391 0.0728328 0.0138873 0.00235921 0.00163568 0.000861686 0.00051943 0.000379068 0.000423937 
586 0.119846 0.469315 0.313442 0.0712617 0.0144085 0.00502284 0.00264481 0.00159431 0.00116349 0.00130121 
587 0.0360393 0.465459 0.289441 0.0888808 0.0540508 0.0228161 0.0161716 0.0115689 0.00643012 0.00914213 
588 0.00749985 0.191424 0.158913 0.179416 0.159572 0.0527986 0.129534 0.0344434 0.0472454 0.0391533 
589 0.0779118 0.411994 0.374985 0.0957893 0.0153461 0.0102657 0.00540805 0.00326001 0.00237908 0.00266068 
590 0.0858071 0.323266 0.340957 0.213137 0.0223342 0.00647753 0.00316454 0.0019076 0.00139212 0.0015569 
591 0.0158106 0.152089 0.718277 0.0314297 0.0312363 0.0169457 0.0115082 0.00918557 0.00545202 0.00806536 
592 0.0856283 0.448309 0.224448 0.0922109 0.0611877 0.0304658 0.0215622 0.0154252 0.0085735 0.0121895 
593 0.109834 0.472846 0.20456 0.0605423 0.0504683 0.0350668 0.0224313 0.0179041 0.0106268 0.0157206 
594 0.149152 0.494077 0.207517 0.0790413 0.0268007 0.0185893 0.00979296 0.00590326 0.00430806 0.00481799 
595 0.0397011 0.639423 0.14021 0.0675006 0.0366306 0.0271026 0.0222907 0.0115689 0.00643012 0.00914212 
596 0.00890857 0.882796 0.0600687 0.0205193 0.0098779 0.00614967 0.00436089 0.0031197 0.00173397 0.00246529 
597 0.112858 0.518062 0.203744 0.0715029 0.0333817 0.0326184 0.0109808 0.0066188 0.00483025 0.00540199 
598 0.0617846 0.748129 0.0830253 0.04019 0.0276265 0.0135776 0.0095832 0.00685564 0.00381044 0.00541756 
599 0.174562 0.665226 0.131254 0.0178416 0.00713656 0.00186502 0.000867413 0.000569734 0.000337577 0.000340087 
600 0.0293153 0.11184 0.814007 0.0340526 0.00527464 0.00243393 0.00121387 0.000731727 0.000533998 0.000597205 
601 0.0266109 0.407404 0.203978 0.0938817 0.0778263 0.0579322 0.040059 0.0456676 0.018953 0.0276871 
602 0.113376 0.718006 0.112099 0.0273463 0.0111262 0.00772812 0.00407123 0.00245416 0.00179099 0.00200298 
603 0.0274297 0.404194 0.195231 0.0967784 0.0955975 0.0597148 0.0407214 0.0325028 0.0192918 0.028539 
604 0.0258396 0.422011 0.200649 0.105639 0.0755705 0.056253 0.0383607 0.0306186 0.0181734 0.0268845 
605 0.292904 0.265635 0.266293 0.0329986 0.136865 0.0027803 0.00103545 0.000680102 0.000402971 0.000405968 
606 0.011377 0.738552 0.0787708 0.0451071 0.0398982 0.0255263 0.021068 0.0161868 0.0089387 0.0145754 
607 0.0545534 0.534668 0.179526 0.0864049 0.0601962 0.0292108 0.0206997 0.0148082 0.00823056 0.0117019 
608 0.159527 0.513873 0.298083 0.0194028 0.00311613 0.00335942 0.0010413 0.000627645 0.000458041 0.000512257 
609 0.197728 0.521229 0.236716 0.0295541 0.00618375 0.00395311 0.00190164 0.00124903 0.000740072 0.000745575 
610 0.082676 0.460041 0.203083 0.155699 0.0447147 0.0293007 0.0102272 0.00560053 0.00408713 0.00457091 
611 0.0598013 0.281174 0.21306 0.292696 0.112606 0.0164592 0.0155684 0.00433435 0.00203055 0.0022709 
612 0.0383476 0.348828 0.198593 0.232897 0.091732 0.0401414 0.0241906 0.0108969 0.0059355 0.00843888 
613 0.301303 0.626912 0.0581124 0.0133486 0.00017602 5.7087e-05 4.53997e-05 1.49465e-05 1.68503e-05 1.40771e-05 
614 0.0155889 0.329503 0.181172 0.112776 0.10926 0.0699028 0.0576939 0.0443269 0.0245279 0.0552491 
615 0.0274297 0.404194 0.195231 0.0977508 0.0945916 0.0597483 0.0407214 0.0325028 0.0192918 0.028539 
616 0.0265437 0.417107 0.209856 0.102441 0.0761937 0.0554494 0.0378127 0.0301812 0.0179138 0.0265005 
617 0.11514 0.51439 0.234604 0.0647309 0.0271296 0.0188439 0.00992711 0.00598412 0.00436708 0.00488399 
618 0.0274297 0.404194 0.195232 0.112149 0.0802267 0.0597147 0.0407214 0.0325028 0.0192918 0.028539 
619 0.120709 0.50273 0.193171 0.108899 0.0285979 0.0196515 0.0103526 0.00624059 0.00455424 0.0050933 
620 0.0784835 0.510954 0.306581 0.0558964 0.0183405 0.0127371 0.00670999 0.00404482 0.00295182 0.00330121 
621 0.0937255 0.820229 0.0564976 0.0153428 0.00542781 0.00375848 0.00198 0.00119355 0.000871029 0.000974128 
622 0.0967366 0.48466 0.199904 0.126698 0.0371661 0.0179922 0.00941142 0.00567326 0.00414904 0.0176085 
623 0.0763167 0.579561 0.211485 0.0709382 0.0239052 0.0161836 0.00852564 0.00513931 0.00375055 0.00419448 
624 0.0886426 0.467051 0.284265 0.117594 0.0173134 0.0168544 0.00362719 0.00182779 0.00133388 0.00149176 
625 0.0390424 0.67692 0.126856 0.0623362 0.0338128 0.0210508 0.0149277 0.010679 0.0059355 0.00843888 
626 0.232177 0.486724 0.264107 0.00858251 0.00822569 7.03206e-05 5.59192e-05 1.84097e-05 2.07547e-05 1.73389e-05 
627 0.100178 0.353795 0.30326 0.151455 0.0507511 0.0210421 0.0085072 0.00432516 0.0031564 0.00353001 
628 0.0274297 0.404194 0.195231 0.0967704 0.080221 0.0597147 0.0416461 0.0466867 0.0195677 0.028539 
629 0.153662 0.408598 0.409561 0.0146458 0.00742336 0.00261796 0.00137772 0.000830497 0.000606077 0.000677816 
630 0.0293554 0.31528 0.187602 0.108026 0.11914 0.0668193 0.0551485 0.0423713 0.025208 0.0510495 
631 0.046033 0.500184 0.202558 0.103854 0.0591021 0.0305186 0.0215622 0.0154252 0.0085735 0.0121895 
632 0.0434347 0.451004 0.219322 0.137024 0.0485674 0.0299903 0.0349653 0.0152139 0.00845605 0.0120225 
633 0.222635 0.379783 0.304747 0.0461322 0.0218828 0.0106898 0.00557445 0.00336032 0.00245228 0.00274255 
634 0.0490569 0.468429 0.209844 0.121535 0.0494857 0.0389419 0.0265201 0.0154252 0.0085735 0.0121895 
635 0.166906 0.43648 0.1257 0.185046 0.0766282 0.00432082 0.00201806 0.0013255 0.000785383 0.000791223 
636 0.0534706 0.563751 0.160421 0.0830775 0.0451789 0.0393723 0.0213244 0.0142386 0.007914 0.0112518 
637 0.194925 0.587698 0.175622 0.024523 0.00719572 0.00461936 0.00222214 0.00145954 0.000864803 0.000871234 
638 0.024763 0.462585 0.188893 0.0881424 0.0724217 0.0539091 0.0367623 0.0293428 0.0174162 0.0257643 
639 0.142685 0.406371 0.449885 0.000799425 0.000133276 4.8725e-05 3.87496e-05 1.27572e-05 1.43821e-05 1.20151e-05 
640 0.0993956 0.625773 0.158219 0.0555199 0.0232995 0.0161836 0.00852564 0.00513931 0.00375055 0.00419448 
641 0.0556092 0.508225 0.2049 0.0864147 0.0468871 0.0291911 0.034032 0.0148085 0.00823056 0.0117019 
642 0.334225 0.61622 0.0212272 0.0270466 0.000656951 0.000240241 0.000191057 6.28999e-05 7.09118e-05 5.92412e-05 
643 0.0996158 0.666367 0.147032 0.041179 0.0159411 0.0165519 0.00525463 0.00316551 0.00231012 0.00258356 
644 0.0948335 0.532279 0.212415 0.0693998 0.0291244 0.0202295 0.0109876 0.0197791 0.00570857 0.0052431 
645 0.089565 0.544122 0.188856 0.0775534 0.0302871 0.0393018 0.0148678 0.00606724 0.00442773 0.00495182 
646 0.0756018 0.506622 0.235087 0.087374 0.034675 0.0280317 0.00833042 0.00993858 0.0095203 0.00481892 
647 0.0487801 0.493336 0.191054 0.099744 0.0677131 0.0354024 0.0238843 0.0170864 0.0094968 0.0135022 
648 0.405975 0.570776 0.0221654 0.000700863 0.000196267 7.17733e-05 5.70793e-05 1.87917e-05 2.11853e-05 1.76986e-05 
649 0.143584 0.630075 0.185086 0.0272583 0.00587505 0.00373748 0.00179791 0.0011809 0.000699705 0.000704908 
650 0.0155889 0.331029 0.194974 0.112833 0.10926 0.0699028 0.0576939 0.0443269 0.0244783 0.0399142 
651 0.092124 0.50359 0.205647 0.0816023 0.0421474 0.0355906 0.0234099 0.00624061 0.00455424 0.0050933 
652 0.0487801 0.493337 0.191054 0.099693 0.0541005 0.0336813 0.0238843 0.0171006 0.0232283 0.015141 
653 0.0992104 0.526032 0.206908 0.0879533 0.0304733 0.0211632 0.0111489 0.00672063 0.00490456 0.00548509 
654 0.114147 0.500832 0.275994 0.052583 0.0215268 0.0149522 0.00787695 0.00474827 0.00346518 0.00387534 
655 0.0155889 0.329503 0.182796 0.126536 0.10926 0.0699028 0.0576939 0.0443269 0.0244783 0.0399142 
656 0.122114 0.524214 0.207812 0.0694935 0.0291244 0.0202295 0.010657 0.00642413 0.00468818 0.0052431 
657 0.193267 0.607006 0.164034 0.0205076 0.00634078 0.00407053 0.00195812 0.00128613 0.000762055 0.000767721 
658 0.18784 0.547642 0.195825 0.0309157 0.0235215 0.00705925 0.00295179 0.0019388 0.00114877 0.00115731 
659 0.164313 0.65551 0.141909 0.0235192 0.0061588 0.00395311 0.00190164 0.00124903 0.000740072 0.000745575 
660 0.0487801 0.493337 0.191054 0.099693 0.0541005 0.0336813 0.0238843 0.0172725 0.0246952 0.0135022 
661 0.224364 0.54465 0.192905 0.0233947 0.00374875 0.00815064 0.00114318 0.000750864 0.000444899 0.000448207 
662 0.183974 0.513974 0.22421 0.0287623 0.00924069 0.03273 0.00315865 0.00180416 0.00106899 0.00107694 
663 0.0867198 0.814869 0.0555495 0.019839 0.00736313 0.00683911 0.00468481 0.00162524 0.00118512 0.00132539 
664 0.231504 0.448774 0.25742 0.0383964 0.00608435 0.013272 0.0018658 0.00122547 0.000726108 0.000731508 
665 0.127128 0.703351 0.133133 0.0208961 0.00646888 0.00415276 0.00199768 0.00131212 0.000777449 0.000783231 
666 0.190686 0.555239 0.184341 0.0314576 0.0245881 0.00638249 0.00299652 0.00196817 0.00116617 0.00117485 
667 0.0992104 0.526033 0.222261 0.0726051 0.0304686 0.0211632 0.0111489 0.00672063 0.00490456 0.00548509 
668 0.0487801 0.493337 0.191054 0.099693 0.0541005 0.0336813 0.0247646 0.0315906 0.0094968 0.0135022 
669 0.132511 0.487443 0.192646 0.0874922 0.0277134 0.0327944 0.0129003 0.0171208 0.00442775 0.00495182 
670 0.0487801 0.493337 0.191054 0.099693 0.0541005 0.0336813 0.0241164 0.0322387 0.00949695 0.0135022 
671 0.0921431 0.523163 0.207457 0.110203 0.0263703 0.0174127 0.00917315 0.00552963 0.0040354 0.00451305 
672 0.0453041 0.410038 0.3131 0.124332 0.0382331 0.0237966 0.0168748 0.0120719 0.00670969 0.00953961 
673 0.117759 0.478026 0.247282 0.0795185 0.0247588 0.017436 0.021127 0.00565112 0.00398496 0.00445664 
674 0.304779 0.580496 0.0724874 0.0100753 0.0148685 0.0170017 0.000145571 4.76715e-05 5.37437e-05 4.48986e-05 
675 0.105594 0.501182 0.256805 0.0593673 0.0333055 0.0207855 0.00905849 0.00546051 0.00398496 0.00445664 
676 0.227638 0.549025 0.194837 0.0166121 0.00496449 0.003187 0.0015331 0.00100697 0.000596647 0.000601084 
677 0.204278 0.483389 0.186194 0.0441445 0.0181757 0.0569335 0.00314368 0.0017092 0.00101273 0.00102026 
678 0.0440463 0.456324 0.241428 0.09527 0.057924 0.036006 0.0297666 0.0184722 0.0085735 0.0121895 
679 0.086613 0.467726 0.238021 0.100575 0.0483486 0.0373412 0.00844278 0.00507955 0.00370694 0.00414571 
680 0.0151235 0.319668 0.175764 0.124212 0.10612 0.069931 0.0835533 0.0431579 0.0237476 0.0387227 
681 0.208452 0.510659 0.209049 0.0391183 0.00844859 0.00527096 0.0153559 0.00166538 0.000986763 0.0009941 
682 0.0282352 0.67245 0.139874 0.0736661 0.0305807 0.0190373 0.0134998 0.00965751 0.00536775 0.00763169 
683 0.110397 0.505074 0.25572 0.0614862 0.0323954 0.0149609 0.00787695 0.00474827 0.00346518 0.00387534 
684 0.0970492 0.53002 0.197753 0.0696497 0.0582863 0.0202296 0.010657 0.00642413 0.00468818 0.0052431 
685 0.0934591 0.52423 0.222588 0.0699707 0.0287023 0.0199363 0.0110135 0.0201437 0.00478941 0.00516712 
686 0.0982256 0.482646 0.2117 0.112344 0.0381105 0.0198492 0.0138614 0.00991619 0.00551153 0.00783611 
687 0.335949 0.619941 0.0377909 0.00391512 0.00100588 0.000643385 0.000309499 0.000203285 0.00012045 0.000121346 
688 0.0452958 0.458098 0.177506 0.121945 0.0779071 0.0312755 0.0237134 0.0428967 0.00882389 0.0125378 
689 0.0645925 0.720284 0.150725 0.0306788 0.0128601 0.0089325 0.00470571 0.00283663 0.00207011 0.00231514 
690 0.024424 0.394095 0.20834 0.140753 0.0714298 0.0531706 0.0362587 0.0289408 0.0171776 0.0254114 
691 0.107082 0.49266 0.211532 0.0726499 0.0378064 0.0290649 0.0104646 0.0162659 0.00556728 0.0169067 
692 0.211718 0.622213 0.128148 0.0217759 0.00674125 0.00432761 0.00208179 0.00136736 0.000810184 0.000816209 
693 0.0421655 0.39807 0.192273 0.0953042 0.0790055 0.0588099 0.0401433 0.0471229 0.0189995 0.0281066 
694 0.107952 0.495538 0.195048 0.0970994 0.0433135 0.0199363 0.0105026 0.00633103 0.0068957 0.0173844 
695 0.294796 0.541303 0.16132 0.00174964 0.00042613 0.000155832 0.000123929 4.07999e-05 4.59969e-05 3.84267e-05 
696 0.176728 0.536181 0.242203 0.0184453 0.0124589 0.0102637 0.00153261 0.000999227 0.000592058 0.00059646 
697 0.0646594 0.607913 0.228847 0.0471653 0.0196085 0.0136199 0.00717504 0.00432516 0.0031564 0.00353001 
698 0.148388 0.58217 0.120784 0.0684636 0.0285897 0.0177991 0.0126218 0.00902938 0.00501863 0.00713532 
699 0.135476 0.474617 0.215482 0.105994 0.038056 0.0132077 0.0067727 0.00408263 0.00297941 0.00333207 
700 0.198583 0.63369 0.140701 0.0162261 0.00450999 0.00289523 0.00139275 0.000914785 0.000542025 0.000546055 
701 0.0877751 0.479296 0.234312 0.0760443 0.0270317 0.0433669 0.012907 0.0269307 0.00758213 0.00475375 
702 0.150398 0.793919 0.0440618 0.00667327 0.00206587 0.0013262 0.000637968 0.00041903 0.000248282 0.000250128 
703 0.231322 0.637689 0.110042 0.0120303 0.00372337 0.00239025 0.00114983 0.00075523 0.000447485 0.000450813 
704 0.0446578 0.457901 0.251655 0.0930222 0.063209 0.0309911 0.0218659 0.0156424 0.00869425 0.0123612 
705 0.212197 0.593862 0.159991 0.015723 0.00460733 0.00295772 0.0014925 0.00805819 0.000554614 0.000557841 
706 0.162159 0.347804 0.327632 0.100935 0.0534745 0.00404337 0.00162107 0.00106475 0.000630881 0.000635572 
707 0.197226 0.560444 0.190121 0.0299814 0.00928143 0.00595831 0.00286623 0.0018826 0.00111547 0.00112377 
708 0.046628 0.500714 0.21223 0.0953709 0.0517137 0.0321954 0.0228306 0.0163326 0.00907782 0.0129065 
709 0.20282 0.545501 0.182986 0.0308763 0.00959581 0.0210242 0.00295182 0.0019388 0.00114877 0.00115731 
710 0.15733 0.588995 0.223318 0.0162464 0.00538171 0.00373806 0.00196924 0.00118707 0.000866295 0.000968835 
711 0.0155889 0.34488 0.18118 0.112776 0.10926 0.0699028 0.0576939 0.0443269 0.0244783 0.0399142 
712 0.0274297 0.419578 0.195231 0.0967704 0.080221 0.0597147 0.0407214 0.0325028 0.0192918 0.028539 
713 0.0251117 0.370217 0.237944 0.127711 0.0735225 0.0546684 0.0372801 0.0297561 0.0176615 0.0261272 
714 0.0608891 0.560403 0.294369 0.0609362 0.0110489 0.0040672 0.00443376 0.00187189 0.000934887 0.00104555 
715 0.343377 0.591968 0.0213563 0.0281837 0.00118199 0.000786723 0.0129607 6.03839e-05 6.80754e-05 5.68715e-05 
716 0.133004 0.479056 0.251906 0.0648982 0.0271296 0.0188439 0.00992711 0.00598412 0.00436708 0.00488399 
717 0.5663 0.415582 0.0163028 0.00117429 0.000328475 0.000120121 9.55286e-05 3.145e-05 3.54559e-05 2.96206e-05 
718 0.147098 0.513027 0.254303 0.0470084 0.0213826 0.00735859 0.00387529 0.00233605 0.00170479 0.00190658 
719 0.213925 0.554168 0.10595 0.014765 0.100034 0.0091143 0.000838513 0.000550422 0.000326134 0.000328559 
720 0.0352311 0.367903 0.15128 0.205284 0.119253 0.0619236 0.0300972 0.0124173 0.0068588 0.0097516 
721 0.198658 0.722908 0.060689 0.0128865 0.00204058 0.00129692 0.00062388 0.000409777 0.0002428 0.000244605 
722 0.174889 0.526264 0.244611 0.0284944 0.0169607 0.00414503 0.00190164 0.00124903 0.000740072 0.000745575 
723 0.102348 0.538331 0.22085 0.0736054 0.027512 0.0159954 0.0084265 0.00507955 0.00370694 0.00414571 
724 0.0256672 0.386052 0.173836 0.101317 0.107762 0.0730436 0.0607902 0.0289431 0.0171776 0.0254114 
725 0.0962492 0.519265 0.206728 0.0853235 0.0295613 0.0205314 0.0108161 0.00652002 0.00831651 0.0166884 
726 0.203074 0.339207 0.196792 0.239196 0.00360913 0.0134512 0.00435919 0.000146362 8.19675e-05 8.2577e-05 
727 0.17384 0.541374 0.231293 0.0364516 0.00711577 0.00456803 0.00219745 0.00144333 0.000855194 0.000861554 
728 0.0729668 0.337672 0.345354 0.0824914 0.138411 0.0102593 0.00506768 0.00305483 0.00222935 0.00249322 
729 0.0258396 0.409742 0.183919 0.0911833 0.10446 0.0584645 0.048042 0.0332916 0.0181734 0.0268845 
730 0.0794112 0.771053 0.0933971 0.0269651 0.0111262 0.00772812 0.00407123 0.00245416 0.00179099 0.00200298 
731 0.0596104 0.486795 0.190469 0.107845 0.0503185 0.0315152 0.0361232 0.015967 0.00881845 0.0125378 
732 0.0574041 0.487678 0.198306 0.0920289 0.0622927 0.0445403 0.0215623 0.0154252 0.0085735 0.0121895 
733 0.353967 0.611745 0.0174848 0.0155593 0.000644084 0.000230632 0.000183415 6.03839e-05 6.80753e-05 5.68715e-05 
734 0.191106 0.58934 0.169519 0.0287321 0.00889471 0.00571004 0.00274681 0.00180416 0.00106899 0.00107694 
735 0.0729853 0.701653 0.139913 0.0406827 0.0170729 0.0118587 0.00624723 0.00376587 0.00274825 0.00307354 
736 0.114804 0.581822 0.193132 0.0576276 0.0201653 0.013895 0.00731999 0.00441254 0.00322017 0.00360132 
737 0.114171 0.502879 0.208686 0.0766483 0.0277649 0.0293303 0.0254904 0.00590327 0.00430806 0.00481799 
738 0.0575781 0.685443 0.168391 0.0422228 0.0176827 0.0122822 0.00647035 0.00390037 0.0028464 0.00318331 
739 0.161012 0.470336 0.217941 0.113068 0.018116 0.0145479 0.00204576 0.00133917 0.000793479 0.00079938 
740 0.119128 0.502837 0.168202 0.155676 0.021708 0.013895 0.00731999 0.00441254 0.00322017 0.00360132 
741 0.0816321 0.610037 0.182862 0.0597366 0.0250691 0.0174127 0.00917315 0.00552963 0.0040354 0.00451305 
742 0.179691 0.69343 0.095938 0.0115253 0.00908199 0.00768445 0.00108679 0.000713733 0.000422898 0.000426043 
743 0.130495 0.579233 0.19039 0.0486804 0.0230227 0.0120667 0.00635683 0.00383194 0.00279646 0.00312747 
744 0.0912594 0.640897 0.185526 0.0459459 0.0139071 0.00961961 0.00506768 0.00305483 0.00222935 0.00249322 
745 0.115731 0.538162 0.196574 0.0783974 0.0271304 0.0188439 0.00992711 0.00598412 0.00436708 0.00488399 
746 0.102253 0.771635 0.0989764 0.0156041 0.00481518 0.00309115 0.00148699 0.000976688 0.000578703 0.000583006 
747 0.121788 0.401922 0.44642 0.0232087 0.00495689 0.000784817 0.000377424 0.0002479 0.000146885 0.000147977 
748 0.0932454 0.533389 0.205648 0.0800052 0.041582 0.0202597 0.0102067 0.00615269 0.00449009 0.00502157 
749 0.202766 0.532027 0.21144 0.0308765 0.00955849 0.00613617 0.00295179 0.0019388 0.00114877 0.00115731 
750 0.126084 0.510346 0.200703 0.0704357 0.0295591 0.0205314 0.0138177 0.016084 0.00711798 0.00532136 
751 0.109539 0.502825 0.197784 0.0967097 0.0311943 0.0202295 0.010657 0.00793579 0.0178313 0.0052942 
752 0.171098 0.54635 0.223367 0.0461046 0.00550983 0.00348409 0.00167602 0.00110084 0.000652267 0.000657117 
753 0.0649066 0.880003 0.0318722 0.0127903 0.00397688 0.00276226 0.00145518 0.000877191 0.000640153 0.000715926 
754 0.158893 0.408939 0.209352 0.151083 0.0374897 0.0295055 0.00197532 0.00126116 0.000747257 0.000752814 
755 0.112859 0.518062 0.203744 0.0715029 0.030007 0.0209247 0.0260482 0.00661986 0.00483025 0.00540199 
756 0.11192 0.484928 0.245188 0.0933433 0.0249721 0.0214618 0.00717511 0.00432516 0.0031564 0.00353001 
757 0.0728174 0.492926 0.175892 0.105353 0.0495287 0.030835 0.0218659 0.0156424 0.00904851 0.0260914 
758 0.57961 0.406528 0.0107206 0.000431935 0.00259834 4.29215e-05 3.41343e-05 1.12377e-05 1.26691e-05 1.0584e-05 
759 0.190162 0.657084 0.129803 0.0131819 0.0040791 0.00261862 0.00125968 0.000827385 0.000490239 0.000493884 
760 0.0977072 0.518062 0.203894 0.101646 0.0300171 0.0208425 0.01098 0.0066188 0.00483025 0.00540199 
761 0.123546 0.408908 0.2358 0.152578 0.0459702 0.0146431 0.00731999 0.00441254 0.00322017 0.00360132 
762 0.0871446 0.543835 0.208553 0.0767194 0.0272972 0.0315181 0.00990295 0.00590326 0.00430806 0.00481799 
763 0.0813958 0.625225 0.171008 0.0582616 0.0244501 0.0169828 0.00894665 0.0053931 0.00393576 0.00440162 
764 0.101039 0.45304 0.32318 0.0622942 0.0230969 0.02372 0.00539159 0.00323586 0.00236146 0.00264097 
765 0.0992109 0.541407 0.206889 0.0726029 0.0304686 0.0211632 0.0111489 0.00672063 0.00490456 0.00548509 
766 0.0772999 0.639126 0.145196 0.0654472 0.0294559 0.0149951 0.0106334 0.00760694 0.00422803 0.00601126 
767 0.0274297 0.404194 0.195231 0.0967704 0.080221 0.0597147 0.0409005 0.0474262 0.0195738 0.028539 
768 0.0511496 0.864485 0.0521719 0.0139515 0.0087655 0.00405786 0.0021377 0.00128862 0.000940403 0.00105171 
769 0.24399 0.452687 0.168592 0.107173 0.0134317 0.0102981 0.0016065 0.00101484 0.000601309 0.00060578 
770 0.181448 0.402433 0.384703 0.0236704 0.00323458 0.00207638 0.000998839 0.000656058 0.000388725 0.000391615 
771 0.0992104 0.526118 0.222164 0.0726164 0.0304686 0.0211632 0.0111489 0.00672063 0.00490456 0.00548509 
772 0.0992104 0.526032 0.206879 0.0726029 0.0304686 0.0215778 0.0261186 0.00672089 0.00490456 0.00548509 
773 0.307353 0.502094 0.182314 0.00804638 0.000101395 3.48737e-05 2.77341e-05 9.13063e-06 1.02937e-05 8.59953e-06 
774 0.0452958 0.459467 0.222266 0.119809 0.062474 0.0312872 0.0221783 0.0158659 0.00881845 0.0125378 
775 0.0155889 0.329503 0.181172 0.112776 0.10926 0.072503 0.0704782 0.0443269 0.0244783 0.0399142 
776 0.25339 0.538415 0.14305 0.0240548 0.00744673 0.0047805 0.00231272 0.0131201 0.000921309 0.0125083 
777 0.10108 0.49742 0.185166 0.0708274 0.0707589 0.0323039 0.0289778 0.00532955 0.00384092 0.00429556 
778 0.0434343 0.446252 0.253996 0.0966108 0.0727575 0.0299904 0.0212668 0.0152139 0.00845605 0.0120225 
779 0.146571 0.545058 0.0670078 0.211374 0.00983369 0.00723367 0.00758262 0.00210774 0.00152534 0.00170589 
780 0.181972 0.630054 0.132044 0.0405935 0.0064042 0.00411123 0.0019777 0.00129899 0.000769675 0.000775398 
781 0.0992104 0.526032 0.211727 0.0831173 0.0304903 0.0211632 0.0111489 0.00672063 0.00490456 0.00548509 
782 0.0514709 0.494862 0.251888 0.0800029 0.043414 0.0270282 0.0191664 0.0137113 0.00762089 0.0108351 
783 0.112635 0.576214 0.190657 0.0586744 0.0235769 0.0163762 0.00862713 0.00520049 0.0037952 0.00424442 
784 0.0434284 0.496216 0.184526 0.0884806 0.05153 0.0540611 0.0358659 0.0252749 0.00875728 0.0118601 
785 0.125807 0.534502 0.257198 0.0707901 0.00784117 0.00179225 0.000848799 0.000557508 0.000330333 0.000332789 
786 0.0754901 0.533499 0.260405 0.0740501 0.0220134 0.0147915 0.00779225 0.00469722 0.00342792 0.00383367 
787 0.0258396 0.380762 0.188177 0.099099 0.0778607 0.056253 0.0383607 0.0392823 0.0447791 0.0495862 
788 0.223619 0.549905 0.150031 0.0476339 0.0077691 0.0126095 0.00629215 0.000977862 0.000578703 0.000583006 
789 0.210009 0.517978 0.176326 0.0299814 0.00928143 0.00595831 0.00311802 0.0450955 0.00112902 0.00112377 
790 0.209296 0.492165 0.170255 0.072958 0.0360419 0.00930126 0.00393847 0.00237414 0.00173259 0.00193767 
791 0.0251117 0.380252 0.196335 0.089119 0.0873409 0.0547655 0.0805581 0.0426198 0.017771 0.0261272 
792 0.0695541 0.578688 0.255748 0.071834 0.0113134 0.00551438 0.00289872 0.00174736 0.00127519 0.00142612 
793 0.177474 0.771038 0.0416987 0.0056215 0.00174027 0.00111718 0.000537419 0.000352988 0.000209151 0.000210706 
794 0.122793 0.597574 0.161132 0.0655119 0.0202088 0.0140368 0.00739468 0.00445756 0.00325303 0.00363807 
795 0.0270141 0.39807 0.192273 0.0953042 0.0790055 0.0603241 0.0536802 0.0471738 0.019049 0.0281066 
796 0.173137 0.573376 0.189876 0.0353734 0.00720126 0.00460552 0.0131723 0.00154208 0.000855194 0.000861554 
797 0.0473239 0.47861 0.185352 0.111641 0.0524864 0.0326759 0.0261044 0.0434895 0.00921781 0.0130992 
798 0.0440377 0.487036 0.184637 0.145493 0.0506395 0.0304067 0.0215622 0.0154252 0.0085735 0.0121895 
799 0.0965989 0.441996 0.27657 0.102191 0.0421035 0.0142237 0.00982581 0.0070292 0.00390691 0.00555471 
800 0.0201338 0.808586 0.0516301 0.0294395 0.0285216 0.0182477 0.0150606 0.0115713 0.00638992 0.0104194 
801 0.0149011 0.343286 0.174271 0.1078 0.104612 0.0819788 0.0677026 0.0438961 0.0233984 0.0381533 
802 0.263756 0.477923 0.160835 0.0705624 0.0102788 0.00712749 0.00375481 0.00226343 0.0016518 0.00184731 
803 0.131785 0.406157 0.34631 0.0904216 0.0107897 0.00622445 0.00327909 0.00197666 0.00144252 0.00161326 
804 0.124641 0.523721 0.19055 0.088027 0.0345456 0.0210212 0.00690171 0.00416039 0.00303616 0.00339553 
805 0.0446871 0.507977 0.188971 0.0912682 0.0504865 0.0391455 0.0407665 0.0156424 0.00869425 0.0123612 
806 0.102073 0.593771 0.244555 0.0301328 0.012118 0.0059892 0.00424174 0.00303446 0.00168659 0.00239793 
807 0.194969 0.559782 0.202366 0.0390315 0.00186715 0.000913607 0.000439489 0.000288665 0.000171039 0.000172311 
808 0.0863432 0.448921 0.27104 0.0979966 0.0583272 0.0160136 0.0084265 0.00507955 0.00370694 0.00414571 
809 0.0588408 0.480832 0.179981 0.0956402 0.0782161 0.0317359 0.0224997 0.0160959 0.00918045 0.026978 
810 0.20581 0.540115 0.184341 0.0313441 0.00970331 0.00622914 0.00299652 0.00196817 0.00116933 0.0163232 
811 0.0618032 0.429721 0.244101 0.145444 0.0597542 0.0236373 0.0132691 0.00949242 0.005276 0.00750123 
812 0.070032 0.795747 0.0923787 0.0199312 0.00835637 0.00580424 0.00305772 0.00184321 0.00134513 0.00150435 
813 0.10641 0.516877 0.235102 0.0674261 0.0282923 0.0196515 0.0103526 0.00624059 0.00455424 0.0050933 
814 0.221155 0.514441 0.181022 0.0495982 0.00853921 0.00584613 0.0149163 0.00242151 0.00102623 0.00103386 
815 0.0962489 0.525545 0.215338 0.0704357 0.0295591 0.0255244 0.0207485 0.00652007 0.00475816 0.00532136 
816 0.115439 0.518444 0.187325 0.0927792 0.0275067 0.0191056 0.010065 0.00722904 0.0171025 0.00500415 
817 0.215409 0.445327 0.223964 0.0599772 0.0211479 0.0146341 0.00770935 0.00464725 0.00339145 0.00379288 
818 0.0567057 0.500113 0.390809 0.0286907 0.00908033 0.00625275 0.003294 0.00198564 0.00144907 0.0016206 
819 0.0948335 0.502825 0.212484 0.0840799 0.0584952 0.0202696 0.010657 0.00642413 0.00468818 0.0052431 
820 0.314578 0.416253 0.209288 0.0258678 0.0287935 0.00257111 0.00108665 0.000713733 0.000422898 0.000426043 
821 0.0438021 0.454085 0.225062 0.104579 0.0646259 0.0363124 0.0240626 0.0192062 0.0113997 0.0168639 
822 0.0540948 0.469428 0.200508 0.108873 0.0716319 0.0414538 0.0201719 0.0144236 0.00801678 0.011398 
823 0.253627 0.666052 0.0654353 0.00854845 0.00264636 0.00169886 0.000817232 0.000536775 0.000318048 0.000320413 
824 0.0449182 0.500127 0.186326 0.103853 0.0488408 0.0304067 0.0219522 0.0254997 0.0121359 0.0259403 
825 0.172275 0.300164 0.461668 0.0369522 0.0111924 0.00760002 0.00400375 0.00241349 0.00176131 0.00196978 
826 0.105913 0.467481 0.23346 0.124419 0.0280628 0.0174127 0.00917315 0.00552963 0.0040354 0.00451305 
827 0.0240514 0.842148 0.0577824 0.0301397 0.016356 0.0101827 0.00722083 0.00516564 0.00287112 0.00408206 
828 0.248391 0.658297 0.073347 0.0096814 0.00392171 0.00272397 0.00143501 0.000865032 0.00063128 0.000706002 
829 0.164217 0.503842 0.215895 0.0608019 0.0210689 0.0146341 0.00770935 0.00464725 0.00339145 0.00379288 
830 0.0584147 0.461089 0.439684 0.0213624 0.00741854 0.00515208 0.00271415 0.00163611 0.00119399 0.00133532 
831 0.243256 0.595045 0.147597 0.0133462 0.00066915 3.36525e-05 2.67629e-05 8.81089e-06 9.93318e-06 8.29838e-06 
832 0.0155038 0.620631 0.152617 0.0637319 0.0453423 0.0337518 0.0230164 0.0183711 0.010904 0.0161307 
833 0.0243791 0.821063 0.0773467 0.0306833 0.0165874 0.0103268 0.00732301 0.00523874 0.00291175 0.00413983 
834 0.255629 0.550233 0.159951 0.028904 0.00343337 0.00085175 0.000409462 0.000268943 0.000159353 0.000160538 
835 0.0417198 0.423782 0.247759 0.152774 0.0504475 0.0288064 0.0204273 0.0146133 0.00812226 0.0115479 
836 0.241427 0.511425 0.213004 0.0174647 0.0106416 0.00280246 0.00132732 0.000871808 0.00051656 0.000520401 
837 0.102644 0.476242 0.188862 0.119239 0.034628 0.0505659 0.0137408 0.00552963 0.0040354 0.00451305 
838 0.0532793 0.344149 0.378402 0.117056 0.0330518 0.0300733 0.0202208 0.0103005 0.00556119 0.0079067 
839 0.127229 0.568856 0.244843 0.0200469 0.0305682 0.00366022 0.00189211 0.00114058 0.000832367 0.000930891 
840 0.0767701 0.602969 0.191612 0.0668264 0.0235794 0.0163762 0.00862713 0.00520049 0.0037952 0.00424442 
841 0.0168578 0.924979 0.0305492 0.0109517 0.00594009 0.00369811 0.00262243 0.00187604 0.00104272 0.00148251 
842 0.0749259 0.479627 0.159355 0.126689 0.0567464 0.0401435 0.0303454 0.0137113 0.00762089 0.0108351 
843 0.191912 0.534398 0.187166 0.0531857 0.00842675 0.0054316 0.0157376 0.00170965 0.00101273 0.00102026 
844 0.173299 0.558663 0.178572 0.0712041 0.00775306 0.00483674 0.00232671 0.00152823 0.0009055 0.000912233 
845 0.0992104 0.526032 0.206879 0.0726029 0.0304686 0.0216481 0.0258535 0.00691572 0.00490456 0.00548509 
846 0.104315 0.453715 0.328872 0.0621754 0.0194281 0.0134863 0.0071047 0.00428276 0.00312546 0.0034954 
847 0.034473 0.520604 0.223261 0.0909434 0.0399871 0.0266981 0.0239804 0.0235966 0.00691694 0.00953961 
848 0.134976 0.517018 0.192119 0.067417 0.0282923 0.0213314 0.020241 0.0089579 0.00455424 0.0050933 
849 0.130886 0.175135 0.639992 0.0334378 0.00869526 0.00507603 0.00267409 0.00161196 0.00117637 0.00131561 
850 0.0487801 0.493336 0.191054 0.099693 0.0541005 0.0342405 0.0387075 0.0170885 0.0094968 0.0135022 
851 0.0977072 0.518062 0.204631 0.0849438 0.0459793 0.0208455 0.01098 0.0066188 0.00483025 0.00540199 
852 0.171708 0.543689 0.212727 0.0460182 0.00653765 0.00419513 0.00201806 0.0013255 0.0109895 0.000791224 
853 0.0921248 0.539268 0.251898 0.0869829 0.015819 0.00595601 0.00313714 0.00189109 0.00138007 0.00154342 
854 0.0487801 0.493336 0.191054 0.099693 0.0541005 0.0336813 0.0248274 0.0314284 0.00959625 0.0135022 
855 0.125009 0.440294 0.284642 0.0764069 0.0212238 0.0239536 0.0171554 0.00449383 0.00322017 0.00360132 
856 0.189598 0.691378 0.0870766 0.0152497 0.00636804 0.00442317 0.00233016 0.00140463 0.00102507 0.0011464 
857 0.0285792 0.684069 0.140109 0.058379 0.0316805 0.0197233 0.0139863 0.0100055 0.00556119 0.0079067 
858 0.113015 0.25884 0.316944 0.273291 0.0138485 0.0115359 0.00720124 0.00216865 0.0014897 0.00166603 
859 0.0549018 0.421574 0.429319 0.0408874 0.0190084 0.011834 0.00839177 0.00600332 0.00333671 0.00474402 
860 0.122305 0.495678 0.210105 0.0820093 0.0433452 0.0199363 0.0105026 0.00633103 0.00462024 0.00516712 
861 0.0487801 0.493337 0.191054 0.099693 0.0541005 0.0336813 0.0243574 0.0319979 0.0094968 0.0135022 
862 0.209276 0.43781 0.323717 0.0171206 0.0050427 0.00323719 0.00155725 0.00102283 0.000606043 0.00061055 
863 0.0492974 0.71019 0.166452 0.0440341 0.0114576 0.00795147 0.0041889 0.00252509 0.00184275 0.00206087 
864 0.0270141 0.39807 0.192275 0.111068 0.0935423 0.05881 0.0401044 0.0320103 0.0189995 0.0281066 
865 0.113225 0.541028 0.254552 0.0865025 0.00218439 0.0011612 0.000552431 0.000362848 0.000214993 0.000216592 
866 0.0828575 0.542047 0.200974 0.0959955 0.0369023 0.017675 0.00929076 0.00560053 0.00408713 0.00457091 
867 0.0556124 0.480776 0.21061 0.12147 0.0469017 0.0291905 0.0206997 0.0148082 0.00823056 0.0117019 
868 0.0806265 0.488705 0.254498 0.0986191 0.0248954 0.0172017 0.0215518 0.00546052 0.00398496 0.00445664 
869 0.0954937 0.542544 0.195249 0.0617506 0.0389992 0.0423015 0.00940418 0.00560053 0.00408713 0.00457091 
870 0.0701758 0.428055 0.188923 0.113209 0.115705 0.0299316 0.020162 0.0144236 0.00801678 0.011398 
871 0.0149011 0.344376 0.173183 0.122401 0.104543 0.0668188 0.0551485 0.0423713 0.0233984 0.0528591 
872 0.0940967 0.705217 0.126138 0.0355037 0.0148907 0.0103429 0.00544871 0.00328452 0.00239697 0.00268068 
873 0.126917 0.49197 0.17264 0.0736614 0.0488359 0.0284985 0.0278686 0.0126206 0.00701468 0.00997323 
874 0.0915149 0.397233 0.380276 0.0569644 0.0445336 0.0126264 0.00664843 0.00400772 0.00292474 0.00327093 
875 0.332875 0.621009 0.0445974 0.000982051 0.000275003 0.000100566 7.99774e-05 2.63302e-05 2.9684e-05 2.47986e-05 
876 0.0935729 0.432315 0.273224 0.0563482 0.106387 0.0177441 0.00805199 0.00485379 0.00354218 0.00396146 
877 0.124864 0.654104 0.189921 0.0178896 0.00552085 0.00354417 0.00170492 0.00111982 0.000663513 0.000668447 
878 0.0487801 0.493336 0.191054 0.0998439 0.0693341 0.0336814 0.0238843 0.0170864 0.0094968 0.0135022 
879 0.175715 0.532412 0.200555 0.0728361 0.00771875 0.00495329 0.00238277 0.00156505 0.000927319 0.000934215 
880 0.0274297 0.404194 0.210615 0.0967704 0.080221 0.0597147 0.0407214 0.0325028 0.0192918 0.028539 
881 0.048041 0.516165 0.18816 0.0981825 0.0532808 0.033171 0.0235224 0.0168275 0.0093529 0.0132976 
882 0.215212 0.600662 0.123369 0.0290933 0.012076 0.00838783 0.00441877 0.00266366 0.00194388 0.00217397 
883 0.0155889 0.329504 0.181172 0.112777 0.122854 0.0716912 0.0576939 0.0443269 0.0244783 0.0399142 
884 0.0754544 0.700059 0.135985 0.0421362 0.0176827 0.0122822 0.00647035 0.00390037 0.0028464 0.00318331 
885 0.466139 0.443641 0.078935 0.00800795 0.00137633 0.00087473 0.000420787 0.000276382 0.000163761 0.000164978 
886 0.148175 0.526302 0.207519 0.0561828 0.0235769 0.0163762 0.00862713 0.00520049 0.0037952 0.00424442 
887 0.0446578 0.451717 0.217991 0.132528 0.0496225 0.0316019 0.0351752 0.0156507 0.00869425 0.0123612 
888 0.112733 0.518537 0.261608 0.0464071 0.0194163 0.0135172 0.0148279 0.00633263 0.00312546 0.0034954 
889 0.0708646 0.446199 0.339619 0.0857632 0.0222527 0.0151165 0.00796351 0.00480045 0.00350326 0.00391792 
890 0.0215768 0.760549 0.0981023 0.0526707 0.023922 0.0148931 0.0105611 0.00755519 0.00419926 0.00597037 
891 0.106719 0.514788 0.215613 0.0853741 0.0295591 0.0205314 0.0108161 0.00652002 0.00475816 0.00532136 
892 0.0455171 0.654417 0.283667 0.0143697 0.000847693 0.000543814 0.000261601 0.000171825 0.000101809 0.000102566 
893 0.141494 0.393082 0.340139 0.101598 0.0143817 0.00428254 0.00206011 0.00135312 0.000801745 0.000807707 
894 0.0422797 0.453039 0.166881 0.178798 0.0738773 0.0296845 0.0206997 0.0148082 0.00823056 0.0117019 
895 0.0491746 0.64853 0.158957 0.0604044 0.0304765 0.0180933 0.0128304 0.00917862 0.00510158 0.00725326 
896 0.0555923 0.454486 0.189278 0.142346 0.0603334 0.0291905 0.0207513 0.0280899 0.00823058 0.0117019 
897 0.124953 0.44397 0.264555 0.0896381 0.0394621 0.0160623 0.0084265 0.00507955 0.00370694 0.00414571 
898 0 0.246981 0.179472 0.12252 0.0976814 0.131471 0.16469 0.0171625 0.00485877 0.0351628 
899 0.11633 0.501968 0.220726 0.0638002 0.0399537 0.0237358 0.0172276 0.00713305 0.00430806 0.00481799 
900 0.167875 0.558255 0.199182 0.041187 0.021464 0.00560828 0.00263694 0.00173199 0.00102623 0.00103386 
901 0.179381 0.343648 0.458173 0.0128906 0.00161327 0.00316139 0.000469184 0.000302796 0.000179411 0.000180745 
902 0.109304 0.517269 0.212449 0.0781218 0.0354077 0.0204365 0.010657 0.00642413 0.00468818 0.0052431 
903 0.188685 0.549228 0.170387 0.0318145 0.034119 0.01907 0.00274681 0.00180416 0.00106899 0.00107694 
904 0.0155889 0.329503 0.181172 0.112776 0.109305 0.0852419 0.0576939 0.0443269 0.0244783 0.0399142 
905 0.0619165 0.422151 0.278883 0.113064 0.0564832 0.0328524 0.0129374 0.00925511 0.0051441 0.0073137 
906 0.135596 0.624832 0.217325 0.015039 0.00184446 0.0016707 0.00288423 0.000370828 0.000218038 0.00021966 
907 0.178644 0.51834 0.201899 0.0538711 0.0105043 0.0302785 0.00267101 0.00173199 0.00102623 0.00103386 
908 0.0274297 0.404194 0.195231 0.0967704 0.0803357 0.0749846 0.0407214 0.0325028 0.0192918 0.028539 
909 0.315113 0.535419 0.121746 0.0166883 0.00460733 0.00295772 0.00142281 0.000934529 0.000553723 0.000557841 
910 0.101481 0.73507 0.0904305 0.0394644 0.0137237 0.00849139 0.00447333 0.00269655 0.00196788 0.00220081 
911 0.0412447 0.381403 0.211564 0.291851 0.0249554 0.015675 0.0151899 0.00815096 0.00411528 0.00585096 
912 0.0594125 0.253882 0.330185 0.301521 0.040757 0.00611458 0.00320654 0.00193292 0.0014106 0.00157757 
913 0.0266109 0.392128 0.189929 0.123194 0.0778391 0.0579322 0.0395058 0.0350668 0.0300321 0.027762 
914 0.0274297 0.404194 0.195231 0.102594 0.0897765 0.0597204 0.0407214 0.0325028 0.0192918 0.028539 
915 0.0459522 0.47923 0.181451 0.123658 0.0636502 0.0457969 0.0224997 0.0160958 0.00894626 0.0127195 
916 0.0270141 0.41322 0.192274 0.0953042 0.0790055 0.0588099 0.0411153 0.0440687 0.0210817 0.0281066 
917 0.113397 0.452571 0.23126 0.12818 0.0323664 0.0238572 0.0072468 0.00436841 0.00318797 0.00356531 
918 0.150867 0.835889 0.0102407 0.0028379 8.46408e-05 3.09434e-05 2.46084e-05 8.1016e-06 9.13354e-06 7.63035e-06 
919 0.149182 0.58235 0.0917383 0.126918 0.0186981 0.0107318 0.00761018 0.00544418 0.00302594 0.00430218 
920 0.0430009 0.400608 0.270201 0.153144 0.0572954 0.0227026 0.0261872 0.0114496 0.00636383 0.00904788 
921 0.195478 0.370576 0.361545 0.031901 0.0209287 0.00843856 0.00439199 0.00264752 0.0019321 0.00216079 
922 0.114157 0.555323 0.179095 0.0833682 0.0222455 0.0256257 0.00796351 0.00480045 0.00350326 0.00391792 
923 0.103939 0.454578 0.312474 0.0648993 0.0244509 0.0169828 0.00894666 0.0053931 0.00393576 0.00440162 
924 0.108608 0.549311 0.192353 0.0667372 0.0395891 0.0220303 0.00844049 0.00507955 0.00370694 0.00414571 
925 0.0992104 0.541413 0.206882 0.0726029 0.0304686 0.0211632 0.0111489 0.00672063 0.00490456 0.00548509 
926 0.048041 0.485862 0.189 0.113659 0.0667326 0.0337052 0.0235224 0.0168275 0.0093529 0.0132976 
927 0.107882 0.514982 0.189636 0.0824331 0.0495682 0.0313105 0.00992941 0.00560053 0.00408714 0.00457091 
928 0.0561049 0.721799 0.135904 0.0410364 0.0172214 0.0119618 0.00630156 0.00379862 0.00277214 0.00310027 
929 0.0275747 0.703319 0.126986 0.0563483 0.0305785 0.0190373 0.0134998 0.00965751 0.00536775 0.00763169 
930 0.0948335 0.561625 0.197775 0.0693999 0.0291244 0.0202295 0.010657 0.00642413 0.00468818 0.0052431 
931 0.0934591 0.524504 0.194905 0.0719745 0.067646 0.0208904 0.0105026 0.00633103 0.00462024 0.00516712 
932 0.138762 0.611997 0.192631 0.0209157 0.00646888 0.00446134 0.0116762 0.00145996 0.0108444 0.000783292 
933 0.180731 0.766779 0.0405212 0.0068728 0.00212764 0.00136586 0.000657044 0.00043156 0.000255706 0.000257607 
934 0.048041 0.485862 0.205961 0.110684 0.0532808 0.033171 0.0235224 0.0168275 0.0093529 0.0132976 
935 0.148095 0.336517 0.11405 0.360776 0.0237231 0.00741924 0.0037163 0.00224021 0.00163485 0.00182836 
936 0.114756 0.517056 0.215153 0.107394 0.0240048 0.00930776 0.00486362 0.00293182 0.00213957 0.00239283 
937 0.257447 0.525403 0.149916 0.0376886 0.00543865 0.0117554 0.00195502 0.00910887 0.000641456 0.000646165 
938 0.048041 0.500924 0.188249 0.0994043 0.0670137 0.0333678 0.0235224 0.0168275 0.0093529 0.0132976 
939 0.131597 0.61154 0.159685 0.0462676 0.0194163 0.0134863 0.0071047 0.00428276 0.00312546 0.0034954 
940 0.194025 0.387784 0.304358 0.0687363 0.0216479 0.0117574 0.00465283 0.00276482 0.0020177 0.00225653 
