1 0 100 2 1
1 1 100 2 0.0111279
2 1 100 2 0.988872
1 2 100 2 1
1 3 100 2 1
1 4 100 2 0.00164651
2 4 100 2 0.998353
1 5 100 2 2.47083e-05
2 5 100 2 0.999975
1 6 100 2 1
1 0 100 3 0.282033
2 0 100 3 0.717943
3 0 100 3 2.41456e-05
1 1 100 3 0.921099
2 1 100 3 0.0789005
2 2 100 3 1
1 3 100 3 0.0953752
2 3 100 3 0.856937
3 3 100 3 0.0476879
2 4 100 3 0.489156
3 4 100 3 0.510844
1 5 100 3 5.42637e-06
2 5 100 3 0.00792585
3 5 100 3 0.992069
1 6 100 3 0.303167
2 6 100 3 0.0904501
3 6 100 3 0.606383
2 7 100 3 0.000629012
3 7 100 3 0.999371
2 8 100 3 5.75803e-06
3 8 100 3 0.999994
2 9 100 3 1
1 0 100 4 0.314083
2 0 100 4 0.392409
3 0 100 4 0.130657
4 0 100 4 0.162851
1 1 100 4 0.834086
2 1 100 4 0.116215
3 1 100 4 0.0190946
4 1 100 4 0.0306046
1 2 100 4 0.612199
2 2 100 4 0.157121
3 2 100 4 0.14568
4 2 100 4 0.0849999
1 3 100 4 0.126286
2 3 100 4 0.642771
3 3 100 4 0.198865
4 3 100 4 0.0320782
1 4 100 4 0.000957932
2 4 100 4 0.494036
3 4 100 4 0.505007
2 5 100 4 0.12789
3 5 100 4 0.603903
4 5 100 4 0.268207
1 6 100 4 1.07305e-05
2 6 100 4 0.182705
3 6 100 4 0.004079
4 6 100 4 0.813205
1 7 100 4 9.65985e-05
2 7 100 4 0.00565044
3 7 100 4 0.232744
4 7 100 4 0.761509
1 8 100 4 0.000153191
2 8 100 4 0.000605964
3 8 100 4 0.00680248
4 8 100 4 0.992438
1 9 100 4 0.000275255
2 9 100 4 0.00469312
3 9 100 4 0.0110903
4 9 100 4 0.983941
4 10 100 4 1
3 12 100 4 1
1 14 100 4 0.00142715
2 14 100 4 0.00490538
3 14 100 4 0.0506518
4 14 100 4 0.943016
1 0 100 5 0.144463
2 0 100 5 0.165474
3 0 100 5 0.196914
4 0 100 5 0.379021
5 0 100 5 0.114128
1 1 100 5 0.833674
2 1 100 5 0.0776378
3 1 100 5 0.0791159
4 1 100 5 0.000305482
5 1 100 5 0.00926636
1 2 100 5 0.491198
2 2 100 5 0.307501
3 2 100 5 0.161448
4 2 100 5 0.0396738
5 2 100 5 0.000178863
1 3 100 5 0.119576
2 3 100 5 0.65222
3 3 100 5 0.188553
4 3 100 5 0.0394363
5 3 100 5 0.000215014
1 4 100 5 0.0461471
2 4 100 5 0.396265
3 4 100 5 0.331635
4 4 100 5 0.205806
5 4 100 5 0.0201467
1 5 100 5 0.0215918
2 5 100 5 0.238108
3 5 100 5 0.310636
4 5 100 5 0.228
5 5 100 5 0.201664
1 6 100 5 0.0158742
2 6 100 5 0.0637532
3 6 100 5 0.397961
4 6 100 5 0.293726
5 6 100 5 0.228686
1 7 100 5 0.0267735
2 7 100 5 0.0285693
3 7 100 5 0.19408
4 7 100 5 0.437724
5 7 100 5 0.312853
1 8 100 5 0.000105716
2 8 100 5 0.017497
3 8 100 5 0.0309899
4 8 100 5 0.243097
5 8 100 5 0.708311
1 9 100 5 0.0263784
2 9 100 5 0.0221633
3 9 100 5 0.0752842
4 9 100 5 0.35088
5 9 100 5 0.525294
1 10 100 5 0.102045
2 10 100 5 7.4492e-05
3 10 100 5 0.101205
4 10 100 5 0.119567
5 10 100 5 0.677109
1 11 100 5 0.000119103
2 11 100 5 0.0477878
3 11 100 5 0.172569
4 11 100 5 0.320925
5 11 100 5 0.458598
1 12 100 5 3.20145e-05
2 12 100 5 0.0938731
3 12 100 5 0.000677956
4 12 100 5 0.00208688
5 12 100 5 0.90333
1 13 100 5 1.19774e-06
2 13 100 5 0.0360642
3 13 100 5 0.000106845
4 13 100 5 0.317683
5 13 100 5 0.646144
1 14 100 5 0.129301
2 14 100 5 0.0254164
3 14 100 5 0.324378
4 14 100 5 0.132848
5 14 100 5 0.388056
2 15 100 5 0.0116556
4 15 100 5 0.000954045
5 15 100 5 0.98739
2 16 100 5 0.000472226
3 16 100 5 0.0802793
4 16 100 5 0.901767
5 16 100 5 0.0174816
3 17 100 5 6.55587e-06
4 17 100 5 0.999993
1 18 100 5 3.48908e-06
2 18 100 5 2.47907e-06
3 18 100 5 0.000388244
4 18 100 5 0.507625
5 18 100 5 0.491981
4 19 100 5 0.000102769
5 19 100 5 0.999897
3 20 100 5 0.000121028
5 20 100 5 0.999879
4 21 100 5 1
4 22 100 5 1
1 0 100 6 0.119352
2 0 100 6 0.121812
3 0 100 6 0.114542
4 0 100 6 0.35153
5 0 100 6 0.185536
6 0 100 6 0.107229
1 1 100 6 0.912405
2 1 100 6 0.0453755
3 1 100 6 0.0158713
4 1 100 6 0.0118804
5 1 100 6 1.09371e-05
6 1 100 6 0.0144564
1 2 100 6 0.402477
2 2 100 6 0.380297
3 2 100 6 0.150748
4 2 100 6 0.0383512
5 2 100 6 0.0281161
6 2 100 6 1.11021e-05
1 3 100 6 0.14292
2 3 100 6 0.44193
3 3 100 6 0.358323
4 3 100 6 0.0379268
5 3 100 6 0.0112445
6 3 100 6 0.00765591
1 4 100 6 0.0588251
2 4 100 6 0.641053
3 4 100 6 0.210649
4 4 100 6 0.0556457
5 4 100 6 0.00876105
6 4 100 6 0.0250661
1 5 100 6 0.0456957
2 5 100 6 0.173045
3 5 100 6 0.31067
4 5 100 6 0.424884
5 5 100 6 0.0372016
6 5 100 6 0.00850313
1 6 100 6 0.0276168
2 6 100 6 0.071762
3 6 100 6 0.359166
4 6 100 6 0.136525
5 6 100 6 0.355388
6 6 100 6 0.0495424
1 7 100 6 0.0176349
2 7 100 6 0.0569022
3 7 100 6 0.303779
4 7 100 6 0.320785
5 7 100 6 0.211106
6 7 100 6 0.0897923
1 8 100 6 0.000524387
2 8 100 6 0.0230907
3 8 100 6 0.071101
4 8 100 6 0.275166
5 8 100 6 0.191446
6 8 100 6 0.438672
1 9 100 6 0.000248732
2 9 100 6 0.0126237
3 9 100 6 0.0384085
4 9 100 6 0.202048
5 9 100 6 0.524692
6 9 100 6 0.221979
1 10 100 6 0.0129745
2 10 100 6 0.031378
3 10 100 6 0.0365673
4 10 100 6 0.239672
5 10 100 6 0.282326
6 10 100 6 0.397082
1 11 100 6 4.64924e-05
2 11 100 6 0.00245152
3 11 100 6 0.0280795
4 11 100 6 0.101357
5 11 100 6 0.200944
6 11 100 6 0.667122
1 12 100 6 0.0143979
2 12 100 6 0.0397699
3 12 100 6 0.0261999
4 12 100 6 0.148643
5 12 100 6 0.431669
6 12 100 6 0.339319
1 13 100 6 0.00187884
2 13 100 6 0.00471137
3 13 100 6 0.0418306
4 13 100 6 0.0776208
5 13 100 6 0.311564
6 13 100 6 0.562394
1 14 100 6 0.00453152
2 14 100 6 0.0127015
3 14 100 6 0.0602876
4 14 100 6 0.0680445
5 14 100 6 0.256259
6 14 100 6 0.598176
1 15 100 6 9.01061e-05
2 15 100 6 0.00349452
3 15 100 6 0.0440028
4 15 100 6 0.109822
5 15 100 6 0.212429
6 15 100 6 0.630162
1 16 100 6 4.08048e-06
2 16 100 6 0.000135212
3 16 100 6 2.77148e-05
4 16 100 6 0.0732543
5 16 100 6 0.342186
6 16 100 6 0.584393
1 17 100 6 6.4146e-07
2 17 100 6 0.00049197
3 17 100 6 2.3398e-05
4 17 100 6 0.158717
5 17 100 6 0.350951
6 17 100 6 0.489817
2 18 100 6 0.0678366
3 18 100 6 0.128703
4 18 100 6 0.160253
5 18 100 6 0.268682
6 18 100 6 0.374525
1 19 100 6 0.196995
2 19 100 6 0.721143
4 19 100 6 0.00103178
5 19 100 6 0.0803241
6 19 100 6 0.000506883
1 20 100 6 2.95156e-06
3 20 100 6 1.88026e-06
4 20 100 6 0.000262073
5 20 100 6 0.000900547
6 20 100 6 0.998833
2 21 100 6 0.998513
5 21 100 6 0.00148661
5 23 100 6 1
1 0 100 7 0.0838861
2 0 100 7 0.146797
3 0 100 7 0.145609
4 0 100 7 0.180098
5 0 100 7 0.180206
6 0 100 7 0.175811
7 0 100 7 0.0875937
1 1 100 7 0.829624
2 1 100 7 0.0581572
3 1 100 7 0.0426418
4 1 100 7 0.0223004
5 1 100 7 0.0190334
6 1 100 7 0.0115188
7 1 100 7 0.0167246
1 2 100 7 0.411745
2 2 100 7 0.374628
3 2 100 7 0.147825
4 2 100 7 0.0424366
5 2 100 7 0.00921929
6 2 100 7 0.00352251
7 2 100 7 0.0106228
1 3 100 7 0.212674
2 3 100 7 0.420415
3 3 100 7 0.258565
4 3 100 7 0.0651981
5 3 100 7 0.0231705
6 3 100 7 0.0123447
7 3 100 7 0.00763224
1 4 100 7 0.069185
2 4 100 7 0.443543
3 4 100 7 0.270663
4 4 100 7 0.136273
5 4 100 7 0.0439656
6 4 100 7 0.0181367
7 4 100 7 0.0182331
1 5 100 7 0.0416792
2 5 100 7 0.212119
3 5 100 7 0.331752
4 5 100 7 0.218866
5 5 100 7 0.112728
6 5 100 7 0.0395098
7 5 100 7 0.0433464
1 6 100 7 0.0350181
2 6 100 7 0.0953248
3 6 100 7 0.34633
4 6 100 7 0.27725
5 6 100 7 0.149085
6 6 100 7 0.0638447
7 6 100 7 0.0331483
1 7 100 7 0.00617356
2 7 100 7 0.0845205
3 7 100 7 0.183676
4 7 100 7 0.345026
5 7 100 7 0.170352
6 7 100 7 0.137583
7 7 100 7 0.0726683
1 8 100 7 0.0173178
2 8 100 7 0.0607097
3 8 100 7 0.10934
4 8 100 7 0.232568
5 8 100 7 0.298027
6 8 100 7 0.172716
7 8 100 7 0.109321
1 9 100 7 0.0131443
2 9 100 7 0.0225452
3 9 100 7 0.066603
4 9 100 7 0.182027
5 9 100 7 0.265328
6 9 100 7 0.240104
7 9 100 7 0.210249
1 10 100 7 0.00607915
2 10 100 7 0.0233623
3 10 100 7 0.0527494
4 10 100 7 0.120083
5 10 100 7 0.213923
6 10 100 7 0.288304
7 10 100 7 0.2955
1 11 100 7 0.00244304
2 11 100 7 0.0252583
3 11 100 7 0.0276153
4 11 100 7 0.111001
5 11 100 7 0.215019
6 11 100 7 0.264217
7 11 100 7 0.354447
1 12 100 7 6.88535e-05
2 12 100 7 0.0106984
3 12 100 7 0.0335543
4 12 100 7 0.0750717
5 12 100 7 0.282928
6 12 100 7 0.311903
7 12 100 7 0.285775
1 13 100 7 0.00700615
2 13 100 7 0.0238567
3 13 100 7 0.0230309
4 13 100 7 0.0697291
5 13 100 7 0.190383
6 13 100 7 0.229773
7 13 100 7 0.456221
1 14 100 7 0.000242537
2 14 100 7 0.00961911
3 14 100 7 0.00425676
4 14 100 7 0.0582107
5 14 100 7 0.131335
6 14 100 7 0.323742
7 14 100 7 0.472594
1 15 100 7 0.000600053
2 15 100 7 0.0364806
3 15 100 7 0.0220081
4 15 100 7 0.0699763
5 15 100 7 0.0884764
6 15 100 7 0.445025
7 15 100 7 0.337433
1 16 100 7 0.0149013
2 16 100 7 0.0278112
3 16 100 7 0.0157337
4 16 100 7 0.0315445
5 16 100 7 0.154239
6 16 100 7 0.357553
7 16 100 7 0.398217
1 17 100 7 1.36628e-05
2 17 100 7 0.00066336
3 17 100 7 0.0649327
4 17 100 7 0.0146572
5 17 100 7 0.144803
6 17 100 7 0.140062
7 17 100 7 0.634868
1 18 100 7 0.0259587
2 18 100 7 0.0407143
3 18 100 7 0.111803
4 18 100 7 0.0952614
5 18 100 7 0.048815
6 18 100 7 0.171795
7 18 100 7 0.505653
1 19 100 7 3.52052e-06
2 19 100 7 0.119373
3 19 100 7 0.00509607
4 19 100 7 0.026752
5 19 100 7 0.141751
6 19 100 7 0.142901
7 19 100 7 0.564124
1 20 100 7 1.36369e-05
2 20 100 7 1.50324e-05
3 20 100 7 0.000626337
4 20 100 7 0.0120359
5 20 100 7 0.098356
6 20 100 7 0.251023
7 20 100 7 0.63793
1 21 100 7 0.32151
2 21 100 7 0.284103
3 21 100 7 0.000354701
4 21 100 7 0.000755365
5 21 100 7 0.00832621
6 21 100 7 0.000183028
7 21 100 7 0.384768
1 22 100 7 2.58737e-05
2 22 100 7 2.20822e-05
3 22 100 7 0.0879174
4 22 100 7 0.000274443
6 22 100 7 0.000541748
7 22 100 7 0.911219
1 23 100 7 0.0206341
2 23 100 7 2.98416e-05
3 23 100 7 0.000105624
4 23 100 7 0.0205973
5 23 100 7 0.00111962
6 23 100 7 0.957419
7 23 100 7 9.48945e-05
2 24 100 7 0.118118
3 24 100 7 0.881498
6 24 100 7 0.000286086
7 24 100 7 9.74662e-05
2 25 100 7 0.00751935
3 25 100 7 0.00974078
6 25 100 7 0.98274
2 26 100 7 4.76841e-05
3 26 100 7 0.00328138
5 26 100 7 0.0486595
7 26 100 7 0.948011
2 27 100 7 0.0698673
3 27 100 7 0.000167301
4 27 100 7 0.929965
5 28 100 7 1
4 29 100 7 0.892732
5 29 100 7 0.0161396
7 29 100 7 0.091128
2 30 100 7 1.47809e-05
3 30 100 7 0.000637613
6 30 100 7 0.999348
7 31 100 7 1
2 32 100 7 0.0309774
3 32 100 7 0.951039
6 32 100 7 0.0179835
1 0 100 8 0.0553884
2 0 100 8 0.116386
3 0 100 8 0.139841
4 0 100 8 0.133926
5 0 100 8 0.186208
6 0 100 8 0.148565
7 0 100 8 0.136566
8 0 100 8 0.0831205
1 1 100 8 0.831679
2 1 100 8 0.071012
3 1 100 8 0.0377272
4 1 100 8 0.023661
5 1 100 8 0.0132084
6 1 100 8 0.00802099
7 1 100 8 0.00991923
8 1 100 8 0.00477235
1 2 100 8 0.417194
2 2 100 8 0.353006
3 2 100 8 0.111201
4 2 100 8 0.0754851
5 2 100 8 0.0246991
6 2 100 8 0.00557119
7 2 100 8 0.010425
8 2 100 8 0.00241836
1 3 100 8 0.247109
2 3 100 8 0.443468
3 3 100 8 0.201813
4 3 100 8 0.0424925
5 3 100 8 0.0251398
6 3 100 8 0.0119
7 3 100 8 0.00606472
8 3 100 8 0.0220136
1 4 100 8 0.10724
2 4 100 8 0.378674
3 4 100 8 0.293177
4 4 100 8 0.131055
5 4 100 8 0.0545017
6 4 100 8 0.014834
7 4 100 8 0.0111626
8 4 100 8 0.00935615
1 5 100 8 0.0435142
2 5 100 8 0.263212
3 5 100 8 0.308206
4 5 100 8 0.253193
5 5 100 8 0.0587362
6 5 100 8 0.0463618
7 5 100 8 0.0166009
8 5 100 8 0.0101762
1 6 100 8 0.040513
2 6 100 8 0.120109
3 6 100 8 0.283385
4 6 100 8 0.303646
5 6 100 8 0.146956
6 6 100 8 0.0507173
7 6 100 8 0.0425041
8 6 100 8 0.01217
1 7 100 8 0.0223328
2 7 100 8 0.0623277
3 7 100 8 0.239815
4 7 100 8 0.29103
5 7 100 8 0.218368
6 7 100 8 0.0855976
7 7 100 8 0.0460418
8 7 100 8 0.034487
1 8 100 8 0.0141098
2 8 100 8 0.0357362
3 8 100 8 0.140921
4 8 100 8 0.269554
5 8 100 8 0.232943
6 8 100 8 0.183902
7 8 100 8 0.055223
8 8 100 8 0.0676105
1 9 100 8 0.00882905
2 9 100 8 0.0322875
3 9 100 8 0.09325
4 9 100 8 0.155894
5 9 100 8 0.251508
6 9 100 8 0.200216
7 9 100 8 0.172267
8 9 100 8 0.0857482
1 10 100 8 0.000856025
2 10 100 8 0.0186762
3 10 100 8 0.0258187
4 10 100 8 0.120443
5 10 100 8 0.256929
6 10 100 8 0.237837
7 10 100 8 0.169604
8 10 100 8 0.169837
1 11 100 8 0.0083232
2 11 100 8 0.0215526
3 11 100 8 0.0380781
4 11 100 8 0.0753235
5 11 100 8 0.157775
6 11 100 8 0.270465
7 11 100 8 0.203573
8 11 100 8 0.224909
1 12 100 8 0.00668878
2 12 100 8 0.018741
3 12 100 8 0.024661
4 12 100 8 0.0495059
5 12 100 8 0.146371
6 12 100 8 0.234264
7 12 100 8 0.257022
8 12 100 8 0.262747
1 13 100 8 0.00346337
2 13 100 8 0.0172178
3 13 100 8 0.0139678
4 13 100 8 0.0394558
5 13 100 8 0.130373
6 13 100 8 0.244178
7 13 100 8 0.298613
8 13 100 8 0.252732
1 14 100 8 0.00138356
2 14 100 8 0.00187849
3 14 100 8 0.0028208
4 14 100 8 0.0312297
5 14 100 8 0.0813092
6 14 100 8 0.254103
7 14 100 8 0.295765
8 14 100 8 0.331511
1 15 100 8 0.00702564
2 15 100 8 0.00777064
3 15 100 8 0.0190405
4 15 100 8 0.0356207
5 15 100 8 0.077721
6 15 100 8 0.16762
7 15 100 8 0.274852
8 15 100 8 0.410349
1 16 100 8 0.00821643
2 16 100 8 0.0195695
3 16 100 8 0.0248367
4 16 100 8 0.039272
5 16 100 8 0.0550461
6 16 100 8 0.132588
7 16 100 8 0.321361
8 16 100 8 0.39911
1 17 100 8 0.00679666
2 17 100 8 0.0168486
3 17 100 8 0.0243491
4 17 100 8 0.048938
5 17 100 8 0.0812603
6 17 100 8 0.139406
7 17 100 8 0.256219
8 17 100 8 0.426182
1 18 100 8 0.0102185
2 18 100 8 0.0297842
3 18 100 8 0.0226885
4 18 100 8 0.0329812
5 18 100 8 0.0543189
6 18 100 8 0.0944482
7 18 100 8 0.287546
8 18 100 8 0.468014
1 19 100 8 0.000132207
2 19 100 8 0.0466125
3 19 100 8 0.0663394
4 19 100 8 0.0636509
5 19 100 8 0.0758725
6 19 100 8 0.102805
7 19 100 8 0.243146
8 19 100 8 0.401442
1 20 100 8 0.000968708
2 20 100 8 2.34971e-05
3 20 100 8 0.000894793
4 20 100 8 0.02091
5 20 100 8 0.00277112
6 20 100 8 0.29839
7 20 100 8 0.327095
8 20 100 8 0.348947
1 21 100 8 7.32219e-05
2 21 100 8 0.0436668
3 21 100 8 5.2086e-05
4 21 100 8 0.00472611
5 21 100 8 0.13042
6 21 100 8 0.176996
7 21 100 8 0.199967
8 21 100 8 0.444098
1 22 100 8 0.000135899
2 22 100 8 8.97036e-05
3 22 100 8 0.000889826
4 22 100 8 0.00063096
5 22 100 8 0.0416698
6 22 100 8 0.0907873
7 22 100 8 0.345602
8 22 100 8 0.520194
1 23 100 8 0.000561943
2 23 100 8 4.38504e-06
3 23 100 8 0.000441318
4 23 100 8 0.0500493
5 23 100 8 0.405337
6 23 100 8 0.00471997
7 23 100 8 0.0181512
8 23 100 8 0.520734
1 24 100 8 0.248064
2 24 100 8 0.247999
3 24 100 8 2.66646e-05
4 24 100 8 0.00290339
5 24 100 8 0.000901677
6 24 100 8 0.000205859
7 24 100 8 0.251131
8 24 100 8 0.248769
2 25 100 8 0.115774
3 25 100 8 0.080487
4 25 100 8 0.161594
5 25 100 8 0.0112816
6 25 100 8 0.046895
7 25 100 8 0.0543819
8 25 100 8 0.529587
1 26 100 8 0.00708972
2 26 100 8 0.000146251
3 26 100 8 0.00119585
4 26 100 8 0.000751767
5 26 100 8 0.253174
6 26 100 8 0.00499615
7 26 100 8 0.732646
2 27 100 8 1.46327e-06
3 27 100 8 2.68926e-06
5 27 100 8 1.21043e-05
7 27 100 8 0.00110936
8 27 100 8 0.998874
1 28 100 8 2.35887e-06
2 28 100 8 0.011015
3 28 100 8 1.89206e-06
4 28 100 8 0.00566087
5 28 100 8 0.00628488
6 28 100 8 0.485972
7 28 100 8 0.490953
8 28 100 8 0.00010936
1 29 100 8 0.0143238
3 29 100 8 0.789568
4 29 100 8 0.195692
5 29 100 8 0.000417099
1 0 100 9 0.054989
2 0 100 9 0.100637
3 0 100 9 0.118672
4 0 100 9 0.11565
5 0 100 9 0.163225
6 0 100 9 0.130409
7 0 100 9 0.136464
8 0 100 9 0.10091
9 0 100 9 0.0790436
1 1 100 9 0.848471
2 1 100 9 0.0751728
3 1 100 9 0.0228309
4 1 100 9 0.0155863
5 1 100 9 0.01591
6 1 100 9 0.00329561
7 1 100 9 0.00758385
8 1 100 9 0.00348863
9 1 100 9 0.00766112
1 2 100 9 0.339102
2 2 100 9 0.364436
3 2 100 9 0.170951
4 2 100 9 0.0778369
5 2 100 9 0.0222456
6 2 100 9 0.0109778
7 2 100 9 0.00407398
8 2 100 9 0.00635318
9 2 100 9 0.00402385
1 3 100 9 0.210317
2 3 100 9 0.406399
3 3 100 9 0.227187
4 3 100 9 0.0911555
5 3 100 9 0.0406906
6 3 100 9 0.011291
7 3 100 9 0.00729243
8 3 100 9 0.0026013
9 3 100 9 0.00306578
1 4 100 9 0.108229
2 4 100 9 0.369305
3 4 100 9 0.312324
4 4 100 9 0.132313
5 4 100 9 0.0411604
6 4 100 9 0.0187275
7 4 100 9 0.00696423
8 4 100 9 0.00738712
9 4 100 9 0.00358825
1 5 100 9 0.0719333
2 5 100 9 0.231908
3 5 100 9 0.280106
4 5 100 9 0.251127
5 5 100 9 0.0936048
6 5 100 9 0.0361169
7 5 100 9 0.0188462
8 5 100 9 0.0085092
9 5 100 9 0.00784853
1 6 100 9 0.0345079
2 6 100 9 0.114864
3 6 100 9 0.25784
4 6 100 9 0.313231
5 6 100 9 0.183493
6 6 100 9 0.0530172
7 6 100 9 0.027151
8 6 100 9 0.0136563
9 6 100 9 0.00223997
1 7 100 9 0.0170963
2 7 100 9 0.0926573
3 7 100 9 0.210643
4 7 100 9 0.261118
5 7 100 9 0.188459
6 7 100 9 0.139134
7 7 100 9 0.0386708
8 7 100 9 0.0337903
9 7 100 9 0.0184305
1 8 100 9 0.0158991
2 8 100 9 0.047628
3 8 100 9 0.125575
4 8 100 9 0.228547
5 8 100 9 0.279022
6 8 100 9 0.159441
7 8 100 9 0.0753399
8 8 100 9 0.0349194
9 8 100 9 0.033628
1 9 100 9 0.00755195
2 9 100 9 0.0321198
3 9 100 9 0.0627268
4 9 100 9 0.160798
5 9 100 9 0.23187
6 9 100 9 0.226451
7 9 100 9 0.13896
8 9 100 9 0.0820107
9 9 100 9 0.0575118
1 10 100 9 0.0121176
2 10 100 9 0.00679881
3 10 100 9 0.0570986
4 10 100 9 0.118664
5 10 100 9 0.196844
6 10 100 9 0.234111
7 10 100 9 0.16056
8 10 100 9 0.115498
9 10 100 9 0.098308
1 11 100 9 0.00983685
2 11 100 9 0.014099
3 11 100 9 0.0228777
4 11 100 9 0.0543718
5 11 100 9 0.141786
6 11 100 9 0.230641
7 11 100 9 0.201137
8 11 100 9 0.155171
9 11 100 9 0.170079
1 12 100 9 0.00375471
2 12 100 9 0.0166243
3 12 100 9 0.0140131
4 12 100 9 0.0375609
5 12 100 9 0.0988468
6 12 100 9 0.21801
7 12 100 9 0.223432
8 12 100 9 0.214914
9 12 100 9 0.172844
1 13 100 9 0.00293711
2 13 100 9 0.00428856
3 13 100 9 0.00659292
4 13 100 9 0.0194794
5 13 100 9 0.0657597
6 13 100 9 0.170628
7 13 100 9 0.257829
8 13 100 9 0.237071
9 13 100 9 0.235414
1 14 100 9 0.000790004
2 14 100 9 0.00661779
3 14 100 9 0.0107114
4 14 100 9 0.0216728
5 14 100 9 0.0350588
6 14 100 9 0.145556
7 14 100 9 0.225235
8 14 100 9 0.26761
9 14 100 9 0.286748
1 15 100 9 0.00368967
2 15 100 9 0.0144778
3 15 100 9 0.0171483
4 15 100 9 0.0125902
5 15 100 9 0.0485782
6 15 100 9 0.112626
7 15 100 9 0.224105
8 15 100 9 0.274129
9 15 100 9 0.292656
1 16 100 9 0.0065108
2 16 100 9 0.0196895
3 16 100 9 0.0111663
4 16 100 9 0.0360459
5 16 100 9 0.0304898
6 16 100 9 0.09059
7 16 100 9 0.18739
8 16 100 9 0.28693
9 16 100 9 0.331187
1 17 100 9 0.000689386
2 17 100 9 0.00829988
3 17 100 9 0.00884518
4 17 100 9 0.0192271
5 17 100 9 0.0194857
6 17 100 9 0.0694157
7 17 100 9 0.172611
8 17 100 9 0.319763
9 17 100 9 0.381662
1 18 100 9 0.0156467
2 18 100 9 0.00894578
3 18 100 9 0.0159002
4 18 100 9 0.00998201
5 18 100 9 0.0185456
6 18 100 9 0.047907
7 18 100 9 0.145266
8 18 100 9 0.323921
9 18 100 9 0.413886
1 19 100 9 0.0122377
2 19 100 9 0.0144781
3 19 100 9 0.0147201
4 19 100 9 0.0107845
5 19 100 9 0.0179041
6 19 100 9 0.0270811
7 19 100 9 0.143413
8 19 100 9 0.340169
9 19 100 9 0.419212
1 20 100 9 0.0173195
2 20 100 9 0.0139282
3 20 100 9 0.00211895
4 20 100 9 0.0187089
5 20 100 9 0.0350308
6 20 100 9 0.0765393
7 20 100 9 0.136306
8 20 100 9 0.214093
9 20 100 9 0.485955
1 21 100 9 0.0114018
2 21 100 9 0.0228865
3 21 100 9 0.00758753
4 21 100 9 0.0257275
5 21 100 9 0.0433084
6 21 100 9 0.0575422
7 21 100 9 0.0870894
8 21 100 9 0.270911
9 21 100 9 0.473546
1 22 100 9 0.000223618
2 22 100 9 0.000534282
3 22 100 9 0.0766586
4 22 100 9 0.00014798
5 22 100 9 0.0717459
6 22 100 9 0.00751715
7 22 100 9 0.136899
8 22 100 9 0.272533
9 22 100 9 0.433741
1 23 100 9 4.09575e-07
2 23 100 9 2.38977e-05
3 23 100 9 2.7613e-05
4 23 100 9 0.0965911
5 23 100 9 0.0643673
6 23 100 9 0.0539778
7 23 100 9 0.241061
8 23 100 9 0.179907
9 23 100 9 0.364044
1 24 100 9 0.101156
2 24 100 9 0.0091276
3 24 100 9 0.000900399
4 24 100 9 0.00101642
5 24 100 9 0.000427296
6 24 100 9 0.109472
7 24 100 9 0.0114621
8 24 100 9 0.162838
9 24 100 9 0.603601
1 25 100 9 1.61982e-06
2 25 100 9 0.227474
3 25 100 9 0.000125398
4 25 100 9 3.1971e-06
5 25 100 9 0.00761432
6 25 100 9 0.0100032
7 25 100 9 0.00281468
8 25 100 9 0.29922
9 25 100 9 0.452744
2 26 100 9 0.000133544
3 26 100 9 0.00333124
4 26 100 9 0.0161117
5 26 100 9 0.0254795
6 26 100 9 5.40247e-05
7 26 100 9 0.000719125
8 26 100 9 0.194375
9 26 100 9 0.759796
1 27 100 9 0.00094643
2 27 100 9 2.63781e-06
3 27 100 9 0.0607103
4 27 100 9 0.177679
5 27 100 9 0.058305
6 27 100 9 0.000341857
7 27 100 9 0.169381
8 27 100 9 0.355079
9 27 100 9 0.177555
1 28 100 9 8.13575e-06
2 28 100 9 1.56876e-06
3 28 100 9 0.000347127
4 28 100 9 8.55312e-05
5 28 100 9 1.32564e-05
6 28 100 9 0.00708275
8 28 100 9 0.239622
9 28 100 9 0.752839
2 29 100 9 0.0964961
3 29 100 9 0.00506361
4 29 100 9 0.0453106
6 29 100 9 0.290012
7 29 100 9 0.505887
8 29 100 9 4.35783e-05
9 29 100 9 0.057187
3 30 100 9 0.000419705
5 30 100 9 7.4496e-05
6 30 100 9 0.00416228
8 30 100 9 8.48867e-05
9 30 100 9 0.995259
1 31 100 9 4.95713e-06
2 31 100 9 0.000142475
4 31 100 9 0.000667697
5 31 100 9 0.475428
6 31 100 9 1.94448e-06
7 31 100 9 0.475425
8 31 100 9 0.00235361
9 31 100 9 0.0459768
6 32 100 9 0.995297
8 32 100 9 0.00470259
3 33 100 9 0.000164129
6 33 100 9 0.0551913
8 33 100 9 0.944645
8 34 100 9 0.904972
9 34 100 9 0.0950276
3 35 100 9 0.0297336
6 35 100 9 0.804223
8 35 100 9 0.166044
1 0 100 10 0.05086
2 0 100 10 0.0906081
3 0 100 10 0.102353
4 0 100 10 0.0970308
5 0 100 10 0.111852
6 0 100 10 0.123474
7 0 100 10 0.108431
8 0 100 10 0.123937
9 0 100 10 0.109376
10 0 100 10 0.0820794
1 1 100 10 0.821605
2 1 100 10 0.0761817
3 1 100 10 0.0290006
4 1 100 10 0.0194169
5 1 100 10 0.0141447
6 1 100 10 0.00839619
7 1 100 10 0.0124137
8 1 100 10 0.00654373
9 1 100 10 0.00651484
10 1 100 10 0.00578301
1 2 100 10 0.26988
2 2 100 10 0.40296
3 2 100 10 0.199678
4 2 100 10 0.0662372
5 2 100 10 0.0395429
6 2 100 10 0.0104046
7 2 100 10 0.00476007
8 2 100 10 0.0029205
9 2 100 10 0.000513358
10 2 100 10 0.00310374
1 3 100 10 0.194705
2 3 100 10 0.381991
3 3 100 10 0.239824
4 3 100 10 0.0945853
5 3 100 10 0.0448078
6 3 100 10 0.0121182
7 3 100 10 0.00609014
8 3 100 10 0.0116316
9 3 100 10 0.0087585
10 3 100 10 0.00548887
1 4 100 10 0.070194
2 4 100 10 0.352866
3 4 100 10 0.268143
4 4 100 10 0.162449
5 4 100 10 0.0826911
6 4 100 10 0.0208579
7 4 100 10 0.0112776
8 4 100 10 0.0176882
9 4 100 10 0.00744987
10 4 100 10 0.00638299
1 5 100 10 0.0338342
2 5 100 10 0.210278
3 5 100 10 0.285415
4 5 100 10 0.252984
5 5 100 10 0.132855
6 5 100 10 0.038689
7 5 100 10 0.0200942
8 5 100 10 0.0117215
9 5 100 10 0.00684256
10 5 100 10 0.00728648
1 6 100 10 0.0213251
2 6 100 10 0.101663
3 6 100 10 0.272258
4 6 100 10 0.276829
5 6 100 10 0.198437
6 6 100 10 0.0611205
7 6 100 10 0.0303301
8 6 100 10 0.0198517
9 6 100 10 0.0133067
10 6 100 10 0.00487808
1 7 100 10 0.00758061
2 7 100 10 0.0668057
3 7 100 10 0.157805
4 7 100 10 0.266096
5 7 100 10 0.23181
6 7 100 10 0.143889
7 7 100 10 0.077085
8 7 100 10 0.0301135
9 7 100 10 0.00984311
10 7 100 10 0.00897171
1 8 100 10 0.00784485
2 8 100 10 0.0458396
3 8 100 10 0.0928139
4 8 100 10 0.224904
5 8 100 10 0.227328
6 8 100 10 0.218986
7 8 100 10 0.0917115
8 8 100 10 0.0483186
9 8 100 10 0.024015
10 8 100 10 0.0182387
1 9 100 10 0.00853469
2 9 100 10 0.015638
3 9 100 10 0.0488687
4 9 100 10 0.159037
5 9 100 10 0.222549
6 9 100 10 0.22638
7 9 100 10 0.146732
8 9 100 10 0.0709728
9 9 100 10 0.04456
10 9 100 10 0.0567279
1 10 100 10 0.000936312
2 10 100 10 0.0131248
3 10 100 10 0.0288421
4 10 100 10 0.0863364
5 10 100 10 0.19075
6 10 100 10 0.234417
7 10 100 10 0.201476
8 10 100 10 0.11612
9 10 100 10 0.0700614
10 10 100 10 0.0579364
1 11 100 10 0.00314399
2 11 100 10 0.0130369
3 11 100 10 0.0351172
4 11 100 10 0.051634
5 11 100 10 0.126122
6 11 100 10 0.211725
7 11 100 10 0.229504
8 11 100 10 0.158636
9 11 100 10 0.0994051
10 11 100 10 0.0716761
1 12 100 10 0.00600329
2 12 100 10 0.0144614
3 12 100 10 0.0162014
4 12 100 10 0.0230134
5 12 100 10 0.0778548
6 12 100 10 0.172506
7 12 100 10 0.211019
8 12 100 10 0.1888
9 12 100 10 0.147027
10 12 100 10 0.143114
1 13 100 10 0.00194176
2 13 100 10 0.0106605
3 13 100 10 0.013469
4 13 100 10 0.030902
5 13 100 10 0.0597878
6 13 100 10 0.128038
7 13 100 10 0.202098
8 13 100 10 0.20434
9 13 100 10 0.192983
10 13 100 10 0.15578
1 14 100 10 0.00330374
2 14 100 10 0.0121975
3 14 100 10 0.00752854
4 14 100 10 0.0215538
5 14 100 10 0.026728
6 14 100 10 0.0768332
7 14 100 10 0.180393
8 14 100 10 0.218548
9 14 100 10 0.239781
10 14 100 10 0.213133
1 15 100 10 0.00637994
2 15 100 10 0.0103362
3 15 100 10 0.0105385
4 15 100 10 0.0207817
5 15 100 10 0.0237393
6 15 100 10 0.0865367
7 15 100 10 0.146379
8 15 100 10 0.207883
9 15 100 10 0.224081
10 15 100 10 0.263344
1 16 100 10 0.00278527
2 16 100 10 0.00645683
3 16 100 10 0.0148834
4 16 100 10 0.00587284
5 16 100 10 0.0305245
6 16 100 10 0.0496364
7 16 100 10 0.105051
8 16 100 10 0.213353
9 16 100 10 0.294422
10 16 100 10 0.277015
1 17 100 10 0.000131104
2 17 100 10 0.0166424
3 17 100 10 0.00714269
4 17 100 10 0.0124297
5 17 100 10 0.0141664
6 17 100 10 0.0469397
7 17 100 10 0.119571
8 17 100 10 0.188061
9 17 100 10 0.259164
10 17 100 10 0.335752
1 18 100 10 0.0219541
2 18 100 10 0.0112264
3 18 100 10 0.0216202
4 18 100 10 0.0105858
5 18 100 10 0.0339484
6 18 100 10 0.0316138
7 18 100 10 0.121612
8 18 100 10 0.160084
9 18 100 10 0.227084
10 18 100 10 0.360272
1 19 100 10 0.00141552
2 19 100 10 0.0164101
3 19 100 10 0.0107337
4 19 100 10 0.0160723
5 19 100 10 0.0226961
6 19 100 10 0.0298056
7 19 100 10 0.0626922
8 19 100 10 0.134589
9 19 100 10 0.27546
10 19 100 10 0.430125
1 20 100 10 0.00775907
2 20 100 10 0.0204368
3 20 100 10 0.021238
4 20 100 10 0.010962
5 20 100 10 0.0112112
6 20 100 10 0.0863832
7 20 100 10 0.0776909
8 20 100 10 0.13365
9 20 100 10 0.269885
10 20 100 10 0.360784
1 21 100 10 0.00665813
2 21 100 10 0.000815577
3 21 100 10 0.010001
4 21 100 10 0.0382479
5 21 100 10 0.0240194
6 21 100 10 0.0311955
7 21 100 10 0.052966
8 21 100 10 0.110086
9 21 100 10 0.260039
10 21 100 10 0.465972
1 22 100 10 5.4671e-05
2 22 100 10 0.0257036
3 22 100 10 0.0125002
4 22 100 10 0.00543739
5 22 100 10 0.0244932
6 22 100 10 0.046455
7 22 100 10 0.0558125
8 22 100 10 0.183642
9 22 100 10 0.292719
10 22 100 10 0.353183
1 23 100 10 1.02691e-05
2 23 100 10 0.000757856
3 23 100 10 0.000615023
4 23 100 10 0.00377795
5 23 100 10 0.000190357
6 23 100 10 0.00305597
7 23 100 10 0.0403513
8 23 100 10 0.0832451
9 23 100 10 0.244195
10 23 100 10 0.623801
1 24 100 10 0.0123186
2 24 100 10 0.0386715
3 24 100 10 0.00045778
4 24 100 10 0.000330957
5 24 100 10 0.00045782
6 24 100 10 0.000131578
7 24 100 10 0.00180134
8 24 100 10 0.0829469
9 24 100 10 0.31026
10 24 100 10 0.552624
1 25 100 10 0.0030802
2 25 100 10 7.94412e-05
3 25 100 10 0.0566521
4 25 100 10 0.00448038
5 25 100 10 0.0449419
6 25 100 10 0.0377086
7 25 100 10 0.28313
8 25 100 10 0.0273825
9 25 100 10 0.216889
10 25 100 10 0.325656
1 26 100 10 0.000725952
2 26 100 10 6.56352e-05
3 26 100 10 0.00191487
4 26 100 10 0.000288831
5 26 100 10 0.00938785
6 26 100 10 3.46154e-05
7 26 100 10 0.16356
8 26 100 10 0.0618079
9 26 100 10 0.342853
10 26 100 10 0.419361
1 27 100 10 2.68303e-07
3 27 100 10 1.48076e-05
4 27 100 10 3.53651e-05
5 27 100 10 0.100855
6 27 100 10 0.100436
7 27 100 10 5.69548e-05
8 27 100 10 0.456954
9 27 100 10 0.137777
10 27 100 10 0.203871
1 28 100 10 4.78712e-07
3 28 100 10 0.000240808
4 28 100 10 0.342196
5 28 100 10 3.88814e-06
6 28 100 10 0.000174622
7 28 100 10 0.023212
8 28 100 10 0.00748654
9 28 100 10 0.284229
10 28 100 10 0.342457
1 29 100 10 2.55858e-05
3 29 100 10 9.97743e-05
4 29 100 10 1.37798e-05
5 29 100 10 0.993187
6 29 100 10 0.00262656
7 29 100 10 6.14731e-05
8 29 100 10 0.000728725
9 29 100 10 0.00325738
1 30 100 10 3.41273e-05
3 30 100 10 7.92342e-05
5 30 100 10 7.41768e-05
6 30 100 10 0.000917058
7 30 100 10 0.979342
8 30 100 10 0.0143957
9 30 100 10 0.00515755
6 31 100 10 0.220813
7 31 100 10 0.000170913
8 31 100 10 0.336868
9 31 100 10 0.221077
10 31 100 10 0.221071
1 32 100 10 0.074701
3 32 100 10 0.000582649
5 32 100 10 0.00121586
6 32 100 10 0.0113301
7 32 100 10 0.0791102
8 32 100 10 1.35317e-06
9 32 100 10 0.833059
3 33 100 10 2.38809e-06
6 33 100 10 0.999196
7 33 100 10 5.98867e-05
9 33 100 10 0.000742153
1 34 100 10 1.65837e-06
2 34 100 10 6.19228e-06
3 34 100 10 1.36267e-05
4 34 100 10 2.01378e-05
5 34 100 10 9.27901e-06
6 34 100 10 0.000277928
7 34 100 10 0.0011034
8 34 100 10 0.111511
9 34 100 10 0.0013546
10 34 100 10 0.885702
7 35 100 10 0.0766238
8 35 100 10 0.024676
9 35 100 10 0.8987
9 36 100 10 1
1 37 100 10 0.741443
7 37 100 10 0.177837
8 37 100 10 0.0807193
7 38 100 10 0.806159
8 38 100 10 0.193841
6 39 100 10 0.000380851
10 39 100 10 0.999619
8 40 100 10 1
1 41 100 10 0.380562
3 41 100 10 0.177139
6 41 100 10 0.00109321
7 41 100 10 0.0308531
8 41 100 10 0.410353
1 0 100 11 0.0478312
2 0 100 11 0.0725885
3 0 100 11 0.100123
4 0 100 11 0.0969636
5 0 100 11 0.092088
6 0 100 11 0.10719
7 0 100 11 0.0983545
8 0 100 11 0.0969207
9 0 100 11 0.113364
10 0 100 11 0.0998544
11 0 100 11 0.0747224
1 1 100 11 0.835372
2 1 100 11 0.0760317
3 1 100 11 0.0222082
4 1 100 11 0.0149499
5 1 100 11 0.0166639
6 1 100 11 0.00588192
7 1 100 11 0.00991895
8 1 100 11 0.00737772
9 1 100 11 0.00534395
10 1 100 11 0.0046072
11 1 100 11 0.00164481
1 2 100 11 0.250283
2 2 100 11 0.43279
3 2 100 11 0.182305
4 2 100 11 0.0528081
5 2 100 11 0.0309769
6 2 100 11 0.0174088
7 2 100 11 0.0109382
8 2 100 11 0.00898454
9 2 100 11 0.00490773
10 2 100 11 0.00281437
11 2 100 11 0.0057834
1 3 100 11 0.13153
2 3 100 11 0.428645
3 3 100 11 0.235491
4 3 100 11 0.0894752
5 3 100 11 0.0489376
6 3 100 11 0.0318167
7 3 100 11 0.00938976
8 3 100 11 0.00818445
9 3 100 11 0.00941314
10 3 100 11 0.00707274
11 3 100 11 4.42233e-05
1 4 100 11 0.0813629
2 4 100 11 0.320116
3 4 100 11 0.281717
4 4 100 11 0.165513
5 4 100 11 0.0668453
6 4 100 11 0.0427859
7 4 100 11 0.0158274
8 4 100 11 0.00708437
9 4 100 11 0.00676335
10 4 100 11 0.00582318
11 4 100 11 0.00616224
1 5 100 11 0.0290781
2 5 100 11 0.181086
3 5 100 11 0.303242
4 5 100 11 0.263734
5 5 100 11 0.123123
6 5 100 11 0.0490804
7 5 100 11 0.0241701
8 5 100 11 0.00895366
9 5 100 11 0.00862218
10 5 100 11 0.00399615
11 5 100 11 0.00491449
1 6 100 11 0.018623
2 6 100 11 0.0920024
3 6 100 11 0.220489
4 6 100 11 0.254127
5 6 100 11 0.241021
6 6 100 11 0.0953222
7 6 100 11 0.0374674
8 6 100 11 0.0177142
9 6 100 11 0.0126538
10 6 100 11 0.00424118
11 6 100 11 0.00633843
1 7 100 11 0.0173251
2 7 100 11 0.0525217
3 7 100 11 0.16236
4 7 100 11 0.276677
5 7 100 11 0.235104
6 7 100 11 0.139879
7 7 100 11 0.0709001
8 7 100 11 0.0264702
9 7 100 11 0.0083873
10 7 100 11 0.00362488
11 7 100 11 0.00675001
1 8 100 11 0.0056281
2 8 100 11 0.0298738
3 8 100 11 0.0884583
4 8 100 11 0.210078
5 8 100 11 0.240709
6 8 100 11 0.209177
7 8 100 11 0.112284
8 8 100 11 0.0371467
9 8 100 11 0.0356083
10 8 100 11 0.0239783
11 8 100 11 0.00705912
1 9 100 11 0.00128143
2 9 100 11 0.0306471
3 9 100 11 0.0466363
4 9 100 11 0.132907
5 9 100 11 0.235578
6 9 100 11 0.226443
7 9 100 11 0.160908
8 9 100 11 0.0828911
9 9 100 11 0.0328423
10 9 100 11 0.0302023
11 9 100 11 0.0196641
1 10 100 11 0.00257281
2 10 100 11 0.00957135
3 10 100 11 0.0212463
4 10 100 11 0.0751371
5 10 100 11 0.17126
6 10 100 11 0.226201
7 10 100 11 0.195585
8 10 100 11 0.134292
9 10 100 11 0.0724513
10 10 100 11 0.0443916
11 10 100 11 0.0472922
1 11 100 11 0.00288331
2 11 100 11 0.0116323
3 11 100 11 0.0195335
4 11 100 11 0.0424623
5 11 100 11 0.0991593
6 11 100 11 0.19074
7 11 100 11 0.211151
8 11 100 11 0.169842
9 11 100 11 0.112936
10 11 100 11 0.0699882
11 11 100 11 0.069673
1 12 100 11 0.00146252
2 12 100 11 0.00518944
3 12 100 11 0.00933348
4 12 100 11 0.0191946
5 12 100 11 0.0574139
6 12 100 11 0.135933
7 12 100 11 0.231674
8 12 100 11 0.195511
9 12 100 11 0.150587
10 12 100 11 0.110865
11 12 100 11 0.0828358
1 13 100 11 0.00469985
2 13 100 11 0.00523047
3 13 100 11 0.00550677
4 13 100 11 0.018123
5 13 100 11 0.0495376
6 13 100 11 0.0888397
7 13 100 11 0.162765
8 13 100 11 0.216341
9 13 100 11 0.195715
10 13 100 11 0.118312
11 13 100 11 0.134929
1 14 100 11 0.00154006
2 14 100 11 0.00510308
3 14 100 11 0.0138324
4 14 100 11 0.0142825
5 14 100 11 0.0198391
6 14 100 11 0.0583927
7 14 100 11 0.139097
8 14 100 11 0.222961
9 14 100 11 0.201334
10 14 100 11 0.169075
11 14 100 11 0.154543
1 15 100 11 0.00162514
2 15 100 11 0.00563565
3 15 100 11 0.00809874
4 15 100 11 0.0168708
5 15 100 11 0.0104693
6 15 100 11 0.0431168
7 15 100 11 0.111527
8 15 100 11 0.197733
9 15 100 11 0.191397
10 15 100 11 0.20166
11 15 100 11 0.211867
1 16 100 11 0.00122383
2 16 100 11 0.00860636
3 16 100 11 0.0077638
4 16 100 11 0.00829804
5 16 100 11 0.0160567
6 16 100 11 0.030986
7 16 100 11 0.0818258
8 16 100 11 0.164996
9 16 100 11 0.206135
10 16 100 11 0.232109
11 16 100 11 0.242
1 17 100 11 0.000441767
2 17 100 11 0.0034311
3 17 100 11 0.00853896
4 17 100 11 0.00835601
5 17 100 11 0.018727
6 17 100 11 0.0370871
7 17 100 11 0.0675009
8 17 100 11 0.115571
9 17 100 11 0.233265
10 17 100 11 0.273042
11 17 100 11 0.234038
1 18 100 11 0.00309813
2 18 100 11 0.0065717
3 18 100 11 0.00948058
4 18 100 11 0.0145951
5 18 100 11 0.0185784
6 18 100 11 0.0269466
7 18 100 11 0.0612523
8 18 100 11 0.0795242
9 18 100 11 0.180347
10 18 100 11 0.255896
11 18 100 11 0.34371
1 19 100 11 0.000284965
2 19 100 11 0.00606789
3 19 100 11 0.00401053
4 19 100 11 0.00135194
5 19 100 11 0.0113497
6 19 100 11 0.0266926
7 19 100 11 0.0457087
8 19 100 11 0.0955631
9 19 100 11 0.171476
10 19 100 11 0.325762
11 19 100 11 0.311733
1 20 100 11 0.0003711
2 20 100 11 0.0038802
3 20 100 11 0.0131147
4 20 100 11 0.00827428
5 20 100 11 0.00923634
6 20 100 11 0.0203914
7 20 100 11 0.0337423
8 20 100 11 0.0856716
9 20 100 11 0.108802
10 20 100 11 0.294882
11 20 100 11 0.421634
1 21 100 11 1.59666e-05
2 21 100 11 0.00928373
3 21 100 11 0.00776684
4 21 100 11 0.0235767
5 21 100 11 0.00870445
6 21 100 11 0.0170529
7 21 100 11 0.0217369
8 21 100 11 0.0677185
9 21 100 11 0.122235
10 21 100 11 0.276575
11 21 100 11 0.445334
1 22 100 11 0.000193934
2 22 100 11 0.00295695
3 22 100 11 0.000487035
4 22 100 11 0.0194801
5 22 100 11 0.0137797
6 22 100 11 0.027995
7 22 100 11 0.0078709
8 22 100 11 0.0896392
9 22 100 11 0.12568
10 22 100 11 0.252701
11 22 100 11 0.459217
1 23 100 11 0.0122215
2 23 100 11 0.0126067
3 23 100 11 0.0146653
4 23 100 11 0.0130702
5 23 100 11 0.0302778
6 23 100 11 0.038285
7 23 100 11 0.0153416
8 23 100 11 0.0782291
9 23 100 11 0.198852
10 23 100 11 0.150019
11 23 100 11 0.436431
1 24 100 11 1.5188e-05
2 24 100 11 7.81698e-05
3 24 100 11 3.31632e-05
4 24 100 11 0.000914564
5 24 100 11 0.0136187
6 24 100 11 8.26888e-05
7 24 100 11 0.0376268
8 24 100 11 0.100485
9 24 100 11 0.0870407
10 24 100 11 0.269685
11 24 100 11 0.49042
1 25 100 11 7.13059e-05
2 25 100 11 1.41971e-05
3 25 100 11 0.000885857
4 25 100 11 2.70734e-05
5 25 100 11 0.00040176
6 25 100 11 0.00936391
7 25 100 11 0.0602394
8 25 100 11 0.0362454
9 25 100 11 0.0953243
10 25 100 11 0.367735
11 25 100 11 0.429691
1 26 100 11 7.46077e-05
2 26 100 11 0.0526415
3 26 100 11 6.47912e-05
4 26 100 11 0.00556622
5 26 100 11 0.0709501
6 26 100 11 0.0512996
7 26 100 11 0.0509326
8 26 100 11 0.0723258
9 26 100 11 0.107703
10 26 100 11 0.160043
11 26 100 11 0.428399
1 27 100 11 1.55198e-05
2 27 100 11 5.05767e-05
3 27 100 11 2.24128e-05
4 27 100 11 0.000342338
5 27 100 11 5.37411e-05
6 27 100 11 0.031423
7 27 100 11 0.111916
8 27 100 11 0.0988974
9 27 100 11 0.0382202
10 27 100 11 0.287247
11 27 100 11 0.431812
1 28 100 11 2.78717e-05
2 28 100 11 0.0620215
3 28 100 11 0.0642288
5 28 100 11 0.0624961
6 28 100 11 0.0614228
7 28 100 11 0.00461482
8 28 100 11 0.129426
9 28 100 11 0.00647883
10 28 100 11 0.23609
11 28 100 11 0.373193
1 29 100 11 6.16927e-05
3 29 100 11 8.76264e-06
4 29 100 11 0.0135595
5 29 100 11 2.8487e-06
6 29 100 11 0.000412732
7 29 100 11 0.0162516
8 29 100 11 0.000169481
9 29 100 11 0.196236
10 29 100 11 0.000231106
11 29 100 11 0.773066
1 30 100 11 3.01681e-05
2 30 100 11 7.30906e-06
3 30 100 11 0.00299578
4 30 100 11 3.96044e-07
5 30 100 11 7.67979e-06
6 30 100 11 9.57441e-05
7 30 100 11 0.026999
8 30 100 11 0.12159
9 30 100 11 0.000744587
10 30 100 11 0.169384
11 30 100 11 0.678145
1 31 100 11 3.21768e-06
2 31 100 11 6.7287e-06
3 31 100 11 6.55086e-06
4 31 100 11 4.46204e-06
5 31 100 11 0.00420584
6 31 100 11 0.000116513
7 31 100 11 5.07742e-06
8 31 100 11 0.00205303
9 31 100 11 0.50797
10 31 100 11 2.40779e-05
11 31 100 11 0.485604
1 32 100 11 0.00311432
2 32 100 11 2.47013e-05
3 32 100 11 6.62797e-05
4 32 100 11 3.10841e-06
5 32 100 11 0.000294914
6 32 100 11 0.198995
7 32 100 11 0.287014
8 32 100 11 0.00406186
9 32 100 11 2.16436e-06
10 32 100 11 0.307421
11 32 100 11 0.199004
1 33 100 11 9.4951e-07
7 33 100 11 0.205751
9 33 100 11 0.794233
10 33 100 11 1.48594e-05
3 34 100 11 1.64906e-06
5 34 100 11 0.00620318
7 34 100 11 0.00130248
8 34 100 11 0.0595791
9 34 100 11 1.03951e-05
10 34 100 11 1.86855e-05
11 34 100 11 0.932885
3 35 100 11 8.29041e-05
8 35 100 11 0.978876
9 35 100 11 0.0209962
10 35 100 11 4.53867e-05
3 36 100 11 2.11967e-06
5 36 100 11 0.000108999
8 36 100 11 0.000728262
11 36 100 11 0.999161
11 37 100 11 1
3 38 100 11 0.0822724
5 38 100 11 0.221505
8 38 100 11 0.696223
5 39 100 11 0.411671
8 39 100 11 0.588329
3 40 100 11 4.16508e-07
4 40 100 11 0.141135
6 40 100 11 0.17343
7 40 100 11 0.24791
9 40 100 11 0.188237
10 40 100 11 0.249282
11 40 100 11 6.24659e-06
3 41 100 11 9.15551e-05
5 41 100 11 0.882815
8 41 100 11 0.0588174
11 41 100 11 0.0582762
9 42 100 11 1
3 43 100 11 1.85512e-05
5 43 100 11 4.91636e-05
8 43 100 11 0.999932
5 44 100 11 0.0738373
8 44 100 11 0.777307
11 44 100 11 0.148855
9 45 100 11 1
3 46 100 11 0.0377838
5 46 100 11 0.315309
8 46 100 11 0.646908
8 47 100 11 0.995744
11 47 100 11 0.00425624
3 48 100 11 0.00779304
11 48 100 11 0.992207
3 49 100 11 5.32854e-05
5 49 100 11 0.981074
8 49 100 11 0.0178615
11 49 100 11 0.00101089
1 50 100 11 1
11 51 100 11 1
3 52 100 11 0.00911289
8 52 100 11 0.01415
11 52 100 11 0.976737
5 53 100 11 0.00208769
11 53 100 11 0.997912
11 54 100 11 1
3 55 100 11 0.0914404
5 55 100 11 0.32238
8 55 100 11 0.58618
1 0 100 12 0.0403922
2 0 100 12 0.0611929
3 0 100 12 0.0953262
4 0 100 12 0.096521
5 0 100 12 0.0893382
6 0 100 12 0.0901854
7 0 100 12 0.0983475
8 0 100 12 0.0859202
9 0 100 12 0.0923435
10 0 100 12 0.103497
11 0 100 12 0.0880102
12 0 100 12 0.0589254
1 1 100 12 0.872037
2 1 100 12 0.0581721
3 1 100 12 0.0302478
4 1 100 12 0.0126076
5 1 100 12 0.00729689
6 1 100 12 0.00211656
7 1 100 12 0.00283379
8 1 100 12 0.00470617
9 1 100 12 0.0028574
10 1 100 12 0.00616733
11 1 100 12 0.000946013
12 1 100 12 1.12794e-05
1 2 100 12 0.16551
2 2 100 12 0.48559
3 2 100 12 0.199921
4 2 100 12 0.0472867
5 2 100 12 0.0454627
6 2 100 12 0.0264106
7 2 100 12 0.0114827
8 2 100 12 0.00554079
9 2 100 12 0.00362145
10 2 100 12 0.000438023
11 2 100 12 0.00347577
12 2 100 12 0.00526065
1 3 100 12 0.134376
2 3 100 12 0.410738
3 3 100 12 0.261481
4 3 100 12 0.0849768
5 3 100 12 0.0378153
6 3 100 12 0.0147592
7 3 100 12 0.0176363
8 3 100 12 0.0109388
9 3 100 12 0.0139192
10 3 100 12 0.00486637
11 3 100 12 0.00483949
12 3 100 12 0.00365255
1 4 100 12 0.0679278
2 4 100 12 0.301533
3 4 100 12 0.26688
4 4 100 12 0.162726
5 4 100 12 0.0933342
6 4 100 12 0.0483775
7 4 100 12 0.0155777
8 4 100 12 0.0138935
9 4 100 12 0.00903894
10 4 100 12 0.0130935
11 4 100 12 0.00623121
12 4 100 12 0.00138741
1 5 100 12 0.028983
2 5 100 12 0.170806
3 5 100 12 0.273011
4 5 100 12 0.259053
5 5 100 12 0.134537
6 5 100 12 0.0727322
7 5 100 12 0.023268
8 5 100 12 0.0194211
9 5 100 12 0.00347211
10 5 100 12 0.00677937
11 5 100 12 0.00255067
12 5 100 12 0.00538629
1 6 100 12 0.013722
2 6 100 12 0.0933194
3 6 100 12 0.182563
4 6 100 12 0.268682
5 6 100 12 0.211081
6 6 100 12 0.117629
7 6 100 12 0.0421462
8 6 100 12 0.0261602
9 6 100 12 0.0181189
10 6 100 12 0.00802436
11 6 100 12 0.0147435
12 6 100 12 0.00381149
1 7 100 12 0.0130135
2 7 100 12 0.0558333
3 7 100 12 0.101782
4 7 100 12 0.214925
5 7 100 12 0.267393
6 7 100 12 0.182336
7 7 100 12 0.0880293
8 7 100 12 0.0452799
9 7 100 12 0.0162813
10 7 100 12 0.00700465
11 7 100 12 0.00668411
12 7 100 12 0.00143783
1 8 100 12 0.00351336
2 8 100 12 0.0330297
3 8 100 12 0.0659545
4 8 100 12 0.205167
5 8 100 12 0.223168
6 8 100 12 0.194757
7 8 100 12 0.13827
8 8 100 12 0.0749546
9 8 100 12 0.0295102
10 8 100 12 0.017564
11 8 100 12 0.00735385
12 8 100 12 0.00675762
1 9 100 12 0.00156439
2 9 100 12 0.00633933
3 9 100 12 0.059923
4 9 100 12 0.103396
5 9 100 12 0.166125
6 9 100 12 0.244741
7 9 100 12 0.182463
8 9 100 12 0.105357
9 9 100 12 0.0710424
10 9 100 12 0.0252481
11 9 100 12 0.0164966
12 9 100 12 0.0173044
1 10 100 12 0.00216675
2 10 100 12 0.0221131
3 10 100 12 0.0214262
4 10 100 12 0.0551132
5 10 100 12 0.128274
6 10 100 12 0.214827
7 10 100 12 0.207145
8 10 100 12 0.145733
9 10 100 12 0.0943057
10 10 100 12 0.0603942
11 10 100 12 0.0213317
12 10 100 12 0.02717
1 11 100 12 0.00132178
2 11 100 12 0.0108717
3 11 100 12 0.0178403
4 11 100 12 0.0480234
5 11 100 12 0.0911913
6 11 100 12 0.151146
7 11 100 12 0.206397
8 11 100 12 0.183019
9 11 100 12 0.121778
10 11 100 12 0.081229
11 11 100 12 0.0518043
12 11 100 12 0.0353781
1 12 100 12 0.00145021
2 12 100 12 0.00529095
3 12 100 12 0.015494
4 12 100 12 0.0192999
5 12 100 12 0.0667722
6 12 100 12 0.116407
7 12 100 12 0.159121
8 12 100 12 0.223843
9 12 100 12 0.14657
10 12 100 12 0.115721
11 12 100 12 0.0650087
12 12 100 12 0.065022
1 13 100 12 0.00455868
2 13 100 12 0.0078248
3 13 100 12 0.0115821
4 13 100 12 0.0170554
5 13 100 12 0.0539374
6 13 100 12 0.0916417
7 13 100 12 0.137237
8 13 100 12 0.171471
9 13 100 12 0.17959
10 13 100 12 0.12184
11 13 100 12 0.108494
12 13 100 12 0.0947675
1 14 100 12 0.000307909
2 14 100 12 0.0128281
3 14 100 12 0.00611452
4 14 100 12 0.0159087
5 14 100 12 0.0273559
6 14 100 12 0.0484864
7 14 100 12 0.140479
8 14 100 12 0.17206
9 14 100 12 0.169298
10 14 100 12 0.146111
11 14 100 12 0.113722
12 14 100 12 0.147329
1 15 100 12 0.00403674
2 15 100 12 0.00692814
3 15 100 12 0.00676442
4 15 100 12 0.00914748
5 15 100 12 0.0137993
6 15 100 12 0.0389263
7 15 100 12 0.0772805
8 15 100 12 0.150352
9 15 100 12 0.193335
10 15 100 12 0.217082
11 15 100 12 0.164934
12 15 100 12 0.117414
1 16 100 12 0.00119015
2 16 100 12 0.00439114
3 16 100 12 0.00675873
4 16 100 12 0.00691674
5 16 100 12 0.0135433
6 16 100 12 0.0268078
7 16 100 12 0.0886029
8 16 100 12 0.113125
9 16 100 12 0.164829
10 16 100 12 0.169381
11 16 100 12 0.197327
12 16 100 12 0.207127
1 17 100 12 0.00568453
2 17 100 12 0.0136096
3 17 100 12 0.00316643
4 17 100 12 0.0109144
5 17 100 12 0.011795
6 17 100 12 0.0315773
7 17 100 12 0.0391689
8 17 100 12 0.111922
9 17 100 12 0.147052
10 17 100 12 0.175838
11 17 100 12 0.222323
12 17 100 12 0.226949
1 18 100 12 0.00240681
2 18 100 12 0.00513669
3 18 100 12 0.00304246
4 18 100 12 0.00462076
5 18 100 12 0.00598777
6 18 100 12 0.0208547
7 18 100 12 0.0534096
8 18 100 12 0.0805382
9 18 100 12 0.138887
10 18 100 12 0.202127
11 18 100 12 0.224446
12 18 100 12 0.258543
1 19 100 12 0.00373423
2 19 100 12 0.00528048
3 19 100 12 0.0044722
4 19 100 12 0.0111779
5 19 100 12 0.020007
6 19 100 12 0.0233784
7 19 100 12 0.0199051
8 19 100 12 0.0608476
9 19 100 12 0.145941
10 19 100 12 0.205137
11 19 100 12 0.227492
12 19 100 12 0.272626
1 20 100 12 0.00197012
2 20 100 12 0.000314797
3 20 100 12 0.0040194
4 20 100 12 0.00914598
5 20 100 12 0.00841526
6 20 100 12 0.0160042
7 20 100 12 0.0156463
8 20 100 12 0.0477565
9 20 100 12 0.119101
10 20 100 12 0.174317
11 20 100 12 0.299257
12 20 100 12 0.304052
1 21 100 12 0.00695441
2 21 100 12 0.00463825
3 21 100 12 0.00732596
4 21 100 12 0.0128106
5 21 100 12 0.0250615
6 21 100 12 0.0103595
7 21 100 12 0.0418156
8 21 100 12 0.0391268
9 21 100 12 0.115075
10 21 100 12 0.156988
11 21 100 12 0.272654
12 21 100 12 0.30719
1 22 100 12 0.00437307
2 22 100 12 0.0135028
3 22 100 12 0.00693567
4 22 100 12 0.0122379
5 22 100 12 0.00836385
6 22 100 12 0.0230535
7 22 100 12 0.0266762
8 22 100 12 0.0441654
9 22 100 12 0.0634371
10 22 100 12 0.134662
11 22 100 12 0.301944
12 22 100 12 0.360648
1 23 100 12 0.00313102
2 23 100 12 0.0114812
3 23 100 12 0.000993329
4 23 100 12 0.00179977
5 23 100 12 0.000920147
6 23 100 12 0.00891307
7 23 100 12 0.0166389
8 23 100 12 0.0211351
9 23 100 12 0.102283
10 23 100 12 0.164459
11 23 100 12 0.235508
12 23 100 12 0.432738
1 24 100 12 6.19227e-05
2 24 100 12 0.0128404
3 24 100 12 0.0119914
4 24 100 12 0.0215175
5 24 100 12 0.0191078
6 24 100 12 0.01043
7 24 100 12 0.0426596
8 24 100 12 0.0573706
9 24 100 12 0.0601616
10 24 100 12 0.109788
11 24 100 12 0.190156
12 24 100 12 0.463916
1 25 100 12 0.000215358
2 25 100 12 0.000340639
3 25 100 12 0.000101329
4 25 100 12 0.0136569
5 25 100 12 0.00034573
6 25 100 12 0.00107342
7 25 100 12 0.0468266
8 25 100 12 0.0382557
9 25 100 12 0.0642024
10 25 100 12 0.0414135
11 25 100 12 0.272112
12 25 100 12 0.521456
1 26 100 12 0.0217907
2 26 100 12 0.0176731
3 26 100 12 0.0175
4 26 100 12 7.19813e-05
5 26 100 12 0.0166455
6 26 100 12 0.00021012
7 26 100 12 0.0621729
8 26 100 12 0.0401987
9 26 100 12 0.152356
10 26 100 12 0.135879
11 26 100 12 0.109272
12 26 100 12 0.426231
1 27 100 12 2.39895e-05
2 27 100 12 3.93429e-05
3 27 100 12 0.000474278
4 27 100 12 0.00230606
5 27 100 12 0.000366367
6 27 100 12 0.000186731
7 27 100 12 0.000843072
8 27 100 12 0.0310441
9 27 100 12 0.048697
10 27 100 12 0.180199
11 27 100 12 0.27258
12 27 100 12 0.46324
1 28 100 12 4.37756e-05
2 28 100 12 0.0308804
3 28 100 12 0.000111047
4 28 100 12 0.00122208
5 28 100 12 0.00010459
6 28 100 12 0.0398811
7 28 100 12 0.000276043
8 28 100 12 0.126298
9 28 100 12 0.0851002
10 28 100 12 0.128863
11 28 100 12 0.278764
12 28 100 12 0.308456
1 29 100 12 3.83141e-06
2 29 100 12 0.031351
3 29 100 12 0.000840425
4 29 100 12 0.0086609
5 29 100 12 0.000471787
6 29 100 12 2.52182e-05
7 29 100 12 0.00113555
8 29 100 12 0.000858269
9 29 100 12 0.00284092
10 29 100 12 0.0800686
11 29 100 12 0.361847
12 29 100 12 0.511897
1 30 100 12 8.63003e-07
2 30 100 12 0.0227448
3 30 100 12 0.11701
4 30 100 12 0.000427967
5 30 100 12 0.000735186
6 30 100 12 0.00131098
7 30 100 12 0.0632206
8 30 100 12 0.000112482
9 30 100 12 0.266175
10 30 100 12 0.00133382
11 30 100 12 0.182298
12 30 100 12 0.344631
2 31 100 12 0.000403089
3 31 100 12 0.00079353
4 31 100 12 5.27715e-05
5 31 100 12 0.00580205
6 31 100 12 0.0585509
7 31 100 12 0.00223472
8 31 100 12 0.0598451
9 31 100 12 0.118067
10 31 100 12 0.11434
11 31 100 12 0.175221
12 31 100 12 0.46469
1 32 100 12 0.139625
2 32 100 12 8.03626e-06
3 32 100 12 0.000316549
4 32 100 12 0.0169582
5 32 100 12 0.00116149
6 32 100 12 8.45939e-05
7 32 100 12 0.0183903
8 32 100 12 0.000144247
9 32 100 12 0.179614
10 32 100 12 0.111981
11 32 100 12 0.18392
12 32 100 12 0.347796
1 33 100 12 9.66048e-06
2 33 100 12 2.30764e-06
4 33 100 12 1.16184e-05
5 33 100 12 0.000164385
6 33 100 12 0.000806803
7 33 100 12 0.0426686
8 33 100 12 0.109607
9 33 100 12 1.05293e-05
10 33 100 12 0.225949
11 33 100 12 0.0106901
12 33 100 12 0.61008
1 34 100 12 1.20624e-06
2 34 100 12 8.16623e-07
3 34 100 12 3.2903e-05
4 34 100 12 2.18555e-05
5 34 100 12 0.000415497
6 34 100 12 0.000421284
7 34 100 12 0.00100371
8 34 100 12 0.000542858
9 34 100 12 0.000875885
10 34 100 12 0.0577746
11 34 100 12 0.0317294
12 34 100 12 0.90718
1 35 100 12 0.989244
2 35 100 12 6.76268e-05
4 35 100 12 0.000374776
5 35 100 12 3.23404e-05
6 35 100 12 2.89295e-05
7 35 100 12 1.8035e-05
8 35 100 12 0.00811199
9 35 100 12 0.000126192
10 35 100 12 6.85004e-05
11 35 100 12 0.00181538
12 35 100 12 0.000112409
1 36 100 12 3.33821e-06
2 36 100 12 9.49635e-05
4 36 100 12 0.00431866
5 36 100 12 0.974541
7 36 100 12 0.00495153
9 36 100 12 0.00181759
11 36 100 12 0.0142731
1 37 100 12 3.03631e-07
2 37 100 12 0.0393326
3 37 100 12 0.171663
4 37 100 12 4.28756e-05
5 37 100 12 0.0017308
6 37 100 12 0.192512
7 37 100 12 0.00261756
8 37 100 12 0.184076
9 37 100 12 0.0186865
10 37 100 12 0.19432
12 37 100 12 0.195017
2 38 100 12 0.00393155
4 38 100 12 0.302763
5 38 100 12 0.000518804
7 38 100 12 0.426217
9 38 100 12 0.000917231
11 38 100 12 0.265653
1 0 100 13 0.040172
2 0 100 13 0.0602211
3 0 100 13 0.0785235
4 0 100 13 0.0836748
5 0 100 13 0.0824432
6 0 100 13 0.0759736
7 0 100 13 0.0882469
8 0 100 13 0.0876531
9 0 100 13 0.0777815
10 0 100 13 0.0841828
11 0 100 13 0.0938882
12 0 100 13 0.0907747
13 0 100 13 0.0564646
1 1 100 13 0.872091
2 1 100 13 0.0542526
3 1 100 13 0.0242356
4 1 100 13 0.0119392
5 1 100 13 0.0119926
6 1 100 13 0.00373873
7 1 100 13 0.00527195
8 1 100 13 0.00368817
9 1 100 13 0.00560802
10 1 100 13 0.00524926
11 1 100 13 0.000136745
12 1 100 13 7.5246e-05
13 1 100 13 0.00172137
1 2 100 13 0.150836
2 2 100 13 0.44896
3 2 100 13 0.289572
4 2 100 13 0.0553052
5 2 100 13 0.0303432
6 2 100 13 0.00678693
7 2 100 13 0.0101785
8 2 100 13 0.00421024
9 2 100 13 9.33211e-05
10 2 100 13 0.00186494
11 2 100 13 0.00171354
12 2 100 13 1.95505e-05
13 2 100 13 0.000117137
1 3 100 13 0.0942006
2 3 100 13 0.429139
3 3 100 13 0.263255
4 3 100 13 0.104406
5 3 100 13 0.0439429
6 3 100 13 0.0279605
7 3 100 13 0.0110025
8 3 100 13 0.00717938
9 3 100 13 0.00755759
10 3 100 13 0.00278702
11 3 100 13 0.00368433
12 3 100 13 0.00364754
13 3 100 13 0.00123748
1 4 100 13 0.0484088
2 4 100 13 0.293534
3 4 100 13 0.302328
4 4 100 13 0.218588
5 4 100 13 0.0706891
6 4 100 13 0.0377178
7 4 100 13 0.0107132
8 4 100 13 0.0034104
9 4 100 13 0.00772152
10 4 100 13 0.00236035
11 4 100 13 0.00161883
12 4 100 13 0.00288458
13 4 100 13 2.48482e-05
1 5 100 13 0.019061
2 5 100 13 0.155799
3 5 100 13 0.243429
4 5 100 13 0.30261
5 5 100 13 0.156886
6 5 100 13 0.0658737
7 5 100 13 0.0280775
8 5 100 13 0.00959101
9 5 100 13 0.00143655
10 5 100 13 0.00582548
11 5 100 13 0.00438066
12 5 100 13 0.00423016
13 5 100 13 0.00279961
1 6 100 13 0.0197857
2 6 100 13 0.0914593
3 6 100 13 0.188085
4 6 100 13 0.232406
5 6 100 13 0.25112
6 6 100 13 0.127133
7 6 100 13 0.0476702
8 6 100 13 0.0264405
9 6 100 13 0.0043327
10 6 100 13 0.00840735
11 6 100 13 0.00294545
12 6 100 13 8.76577e-05
13 6 100 13 0.000126741
1 7 100 13 0.015896
2 7 100 13 0.0539264
3 7 100 13 0.105558
4 7 100 13 0.212022
5 7 100 13 0.242079
6 7 100 13 0.168063
7 7 100 13 0.0876123
8 7 100 13 0.0482649
9 7 100 13 0.0295693
10 7 100 13 0.0127881
11 7 100 13 0.016783
12 7 100 13 0.00440127
13 7 100 13 0.00303665
1 8 100 13 0.00777983
2 8 100 13 0.0262609
3 8 100 13 0.0577421
4 8 100 13 0.138472
5 8 100 13 0.210493
6 8 100 13 0.251027
7 8 100 13 0.156019
8 8 100 13 0.0884833
9 8 100 13 0.0364185
10 8 100 13 0.014571
11 8 100 13 0.0060742
12 8 100 13 0.00487373
13 8 100 13 0.00178592
1 9 100 13 0.00140763
2 9 100 13 0.0268925
3 9 100 13 0.0417527
4 9 100 13 0.103238
5 9 100 13 0.184018
6 9 100 13 0.19814
7 9 100 13 0.179719
8 9 100 13 0.115535
9 9 100 13 0.0752699
10 9 100 13 0.0437087
11 9 100 13 0.0116874
12 9 100 13 0.00696266
13 9 100 13 0.0116692
1 10 100 13 0.00162353
2 10 100 13 0.0177502
3 10 100 13 0.017846
4 10 100 13 0.0496054
5 10 100 13 0.143096
6 10 100 13 0.207936
7 10 100 13 0.215897
8 10 100 13 0.159631
9 10 100 13 0.0850549
10 10 100 13 0.0552118
11 10 100 13 0.0240716
12 10 100 13 0.012132
13 10 100 13 0.0101438
1 11 100 13 0.00271283
2 11 100 13 0.0139662
3 11 100 13 0.0166224
4 11 100 13 0.0382158
5 11 100 13 0.0958805
6 11 100 13 0.169641
7 11 100 13 0.198693
8 11 100 13 0.172414
9 11 100 13 0.120851
10 11 100 13 0.086001
11 11 100 13 0.0456274
12 11 100 13 0.0176439
13 11 100 13 0.0217308
1 12 100 13 0.00155081
2 12 100 13 0.00757208
3 12 100 13 0.0106897
4 12 100 13 0.03238
5 12 100 13 0.049992
6 12 100 13 0.130952
7 12 100 13 0.184332
8 12 100 13 0.183757
9 12 100 13 0.160226
10 12 100 13 0.104435
11 12 100 13 0.0676027
12 12 100 13 0.0376837
13 12 100 13 0.0288264
1 13 100 13 0.00158879
2 13 100 13 0.0029129
3 13 100 13 0.0123303
4 13 100 13 0.0217116
5 13 100 13 0.0368582
6 13 100 13 0.0736281
7 13 100 13 0.131891
8 13 100 13 0.197365
9 13 100 13 0.173527
10 13 100 13 0.154787
11 13 100 13 0.0746428
12 13 100 13 0.0618239
13 13 100 13 0.0569333
1 14 100 13 6.19354e-05
2 14 100 13 0.00519321
3 14 100 13 0.00455345
4 14 100 13 0.0152709
5 14 100 13 0.024085
6 14 100 13 0.059089
7 14 100 13 0.105234
8 14 100 13 0.16466
9 14 100 13 0.206192
10 14 100 13 0.144647
11 14 100 13 0.135456
12 14 100 13 0.0791246
13 14 100 13 0.0564323
1 15 100 13 0.000930647
2 15 100 13 0.00398338
3 15 100 13 0.00274514
4 15 100 13 0.00328558
5 15 100 13 0.0158426
6 15 100 13 0.0401059
7 15 100 13 0.0922321
8 15 100 13 0.134059
9 15 100 13 0.166096
10 15 100 13 0.175819
11 15 100 13 0.155118
12 15 100 13 0.111146
13 15 100 13 0.0986377
1 16 100 13 0.00735061
2 16 100 13 0.00609113
3 16 100 13 0.00592519
4 16 100 13 0.00778273
5 16 100 13 0.0155818
6 16 100 13 0.0265596
7 16 100 13 0.0579721
8 16 100 13 0.0969447
9 16 100 13 0.151659
10 16 100 13 0.201799
11 16 100 13 0.147114
12 16 100 13 0.157211
13 16 100 13 0.11801
1 17 100 13 0.000217479
2 17 100 13 0.00483683
3 17 100 13 0.0050473
4 17 100 13 0.00954918
5 17 100 13 0.0140147
6 17 100 13 0.0185198
7 17 100 13 0.0315807
8 17 100 13 0.0740247
9 17 100 13 0.140423
10 17 100 13 0.170443
11 17 100 13 0.191111
12 17 100 13 0.149648
13 17 100 13 0.190585
1 18 100 13 0.000233988
2 18 100 13 0.00429956
3 18 100 13 0.00702526
4 18 100 13 0.0150119
5 18 100 13 0.00993368
6 18 100 13 0.0253809
7 18 100 13 0.0368297
8 18 100 13 0.0549213
9 18 100 13 0.117168
10 18 100 13 0.130693
11 18 100 13 0.180831
12 18 100 13 0.206083
13 18 100 13 0.21159
1 19 100 13 0.000773301
2 19 100 13 0.00642497
3 19 100 13 0.00957988
4 19 100 13 0.010599
5 19 100 13 0.00196669
6 19 100 13 0.0136787
7 19 100 13 0.0196144
8 19 100 13 0.0509191
9 19 100 13 0.0797971
10 19 100 13 0.166975
11 19 100 13 0.169739
12 19 100 13 0.211094
13 19 100 13 0.258839
1 20 100 13 0.000362026
2 20 100 13 0.00661186
3 20 100 13 0.000543556
4 20 100 13 0.00100742
5 20 100 13 0.00734909
6 20 100 13 0.0179551
7 20 100 13 0.0211596
8 20 100 13 0.0408414
9 20 100 13 0.0880261
10 20 100 13 0.128358
11 20 100 13 0.198769
12 20 100 13 0.227493
13 20 100 13 0.261524
1 21 100 13 6.43087e-05
2 21 100 13 0.00402634
3 21 100 13 0.00926887
4 21 100 13 0.00347552
5 21 100 13 0.00583645
6 21 100 13 0.00841861
7 21 100 13 0.00983186
8 21 100 13 0.0393488
9 21 100 13 0.0681834
10 21 100 13 0.0924965
11 21 100 13 0.169872
12 21 100 13 0.274131
13 21 100 13 0.315046
1 22 100 13 2.56916e-05
2 22 100 13 0.00406739
3 22 100 13 0.00429923
4 22 100 13 0.0183409
5 22 100 13 0.0136485
6 22 100 13 0.0185862
7 22 100 13 0.01772
8 22 100 13 0.0186242
9 22 100 13 0.058288
10 22 100 13 0.0721499
11 22 100 13 0.188309
12 22 100 13 0.258713
13 22 100 13 0.327228
1 23 100 13 0.00338558
2 23 100 13 0.0173248
3 23 100 13 0.00139687
4 23 100 13 0.0138951
5 23 100 13 0.0105567
6 23 100 13 0.0191461
7 23 100 13 0.0188107
8 23 100 13 0.0303746
9 23 100 13 0.0466679
10 23 100 13 0.124474
11 23 100 13 0.161345
12 23 100 13 0.244525
13 23 100 13 0.308098
1 24 100 13 0.00326301
2 24 100 13 0.0133116
3 24 100 13 0.0037904
4 24 100 13 0.020366
5 24 100 13 0.0228124
6 24 100 13 0.016829
7 24 100 13 0.0253081
8 24 100 13 0.0320418
9 24 100 13 0.0548555
10 24 100 13 0.0814092
11 24 100 13 0.151394
12 24 100 13 0.179908
13 24 100 13 0.394711
1 25 100 13 0.00759121
2 25 100 13 3.30637e-05
3 25 100 13 0.00114098
4 25 100 13 0.017809
5 25 100 13 0.00106394
6 25 100 13 0.0102788
7 25 100 13 0.0218233
8 25 100 13 0.0184218
9 25 100 13 0.046431
10 25 100 13 0.113995
11 25 100 13 0.165525
12 25 100 13 0.228235
13 25 100 13 0.367651
1 26 100 13 0.0110226
2 26 100 13 0.0225032
3 26 100 13 0.0057162
4 26 100 13 0.00414978
5 26 100 13 0.000162616
6 26 100 13 5.92405e-05
7 26 100 13 0.00254079
8 26 100 13 0.0114497
9 26 100 13 0.0069333
10 26 100 13 0.0549648
11 26 100 13 0.165282
12 26 100 13 0.354195
13 26 100 13 0.361021
1 27 100 13 7.19397e-05
2 27 100 13 0.0150605
3 27 100 13 0.0124815
4 27 100 13 0.0033989
5 27 100 13 0.00357269
6 27 100 13 0.00314324
7 27 100 13 0.00362612
8 27 100 13 0.0166391
9 27 100 13 0.0550971
10 27 100 13 0.0543195
11 27 100 13 0.108515
12 27 100 13 0.319548
13 27 100 13 0.404526
1 28 100 13 1.04231e-05
2 28 100 13 4.30087e-05
3 28 100 13 0.000389159
4 28 100 13 2.35936e-05
5 28 100 13 0.0336007
6 28 100 13 8.00533e-05
7 28 100 13 0.0179238
8 28 100 13 0.0499105
9 28 100 13 0.0721242
10 28 100 13 0.0987129
11 28 100 13 0.170387
12 28 100 13 0.184786
13 28 100 13 0.372009
1 29 100 13 1.67079e-06
2 29 100 13 4.0749e-05
3 29 100 13 0.0222393
4 29 100 13 0.00741756
5 29 100 13 0.00323253
6 29 100 13 0.000207911
7 29 100 13 0.0128867
8 29 100 13 0.0471608
9 29 100 13 0.0631377
10 29 100 13 0.0912143
11 29 100 13 0.157189
12 29 100 13 0.2249
13 29 100 13 0.370373
1 30 100 13 2.22739e-06
2 30 100 13 8.37785e-06
3 30 100 13 5.10674e-05
4 30 100 13 8.8795e-05
5 30 100 13 0.00185743
6 30 100 13 0.0578301
7 30 100 13 0.0400712
8 30 100 13 0.00755607
9 30 100 13 0.00644369
10 30 100 13 0.0424798
11 30 100 13 0.182943
12 30 100 13 0.189637
13 30 100 13 0.471031
2 31 100 13 1.24876e-05
3 31 100 13 1.53133e-05
4 31 100 13 3.49693e-05
5 31 100 13 3.85729e-05
6 31 100 13 0.000206066
7 31 100 13 3.93547e-05
8 31 100 13 0.000151971
9 31 100 13 5.80178e-05
10 31 100 13 0.0142048
11 31 100 13 0.217903
12 31 100 13 0.140735
13 31 100 13 0.626601
1 32 100 13 9.18648e-05
2 32 100 13 4.59262e-06
3 32 100 13 3.58066e-05
4 32 100 13 0.173025
5 32 100 13 8.59032e-06
6 32 100 13 0.00102128
7 32 100 13 6.13436e-06
8 32 100 13 4.90728e-05
9 32 100 13 4.15532e-05
10 32 100 13 0.000606868
11 32 100 13 0.147902
12 32 100 13 0.234947
13 32 100 13 0.44226
1 33 100 13 8.89497e-06
2 33 100 13 4.08798e-05
4 33 100 13 0.000168445
5 33 100 13 0.000282391
6 33 100 13 7.20074e-07
7 33 100 13 7.55203e-05
8 33 100 13 0.000932155
9 33 100 13 1.48689e-06
11 33 100 13 0.00108607
12 33 100 13 0.260817
13 33 100 13 0.736587
1 34 100 13 1.59469e-06
2 34 100 13 1.51921e-05
6 34 100 13 0.00141327
8 34 100 13 3.00173e-05
10 34 100 13 7.05922e-05
11 34 100 13 0.000216177
12 34 100 13 0.332921
13 34 100 13 0.665332
1 35 100 13 6.8036e-07
4 35 100 13 5.29441e-05
5 35 100 13 0.41476
6 35 100 13 1.60156e-06
7 35 100 13 9.30817e-07
8 35 100 13 1.56124e-06
9 35 100 13 0.000235764
11 35 100 13 0.000185482
12 35 100 13 0.584761
2 36 100 13 0.00116802
6 36 100 13 0.992964
9 36 100 13 0.000510615
10 36 100 13 0.00230315
11 36 100 13 0.00305439
2 37 100 13 0.00193272
3 37 100 13 0.113654
4 37 100 13 0.147681
5 37 100 13 1.93735e-05
6 37 100 13 3.4651e-06
7 37 100 13 0.140305
8 37 100 13 0.149305
10 37 100 13 0.149305
11 37 100 13 0.000240824
12 37 100 13 7.69906e-05
13 37 100 13 0.297477
1 38 100 13 1.40119e-05
2 38 100 13 7.11335e-07
3 38 100 13 2.52681e-06
4 38 100 13 0.000428586
5 38 100 13 0.00963237
6 38 100 13 0.0973771
9 38 100 13 0.00302458
11 38 100 13 0.113925
12 38 100 13 0.171814
13 38 100 13 0.603782
2 39 100 13 0.00423161
6 39 100 13 0.995768
1 0 100 14 0.040121
2 0 100 14 0.04837
3 0 100 14 0.0720346
4 0 100 14 0.0837249
5 0 100 14 0.0796414
6 0 100 14 0.0720047
7 0 100 14 0.0845469
8 0 100 14 0.0807565
9 0 100 14 0.0729924
10 0 100 14 0.0766997
11 0 100 14 0.0724364
12 0 100 14 0.0902065
13 0 100 14 0.0749022
14 0 100 14 0.0515628
1 1 100 14 0.877101
2 1 100 14 0.0552345
3 1 100 14 0.0182335
4 1 100 14 0.016984
5 1 100 14 0.0085803
6 1 100 14 0.00871671
7 1 100 14 0.00453161
8 1 100 14 0.00166286
9 1 100 14 0.00197197
10 1 100 14 0.000431739
11 1 100 14 0.00250569
12 1 100 14 0.00257835
13 1 100 14 0.00146651
14 1 100 14 1.2882e-06
1 2 100 14 0.151384
2 2 100 14 0.452241
3 2 100 14 0.252372
4 2 100 14 0.053719
5 2 100 14 0.0315479
6 2 100 14 0.0212914
7 2 100 14 0.00849863
8 2 100 14 0.0074846
9 2 100 14 0.0022928
10 2 100 14 0.00386497
11 2 100 14 0.00309347
12 2 100 14 0.00529606
13 2 100 14 0.00308326
14 2 100 14 0.00383097
1 3 100 14 0.109594
2 3 100 14 0.450672
3 3 100 14 0.245631
4 3 100 14 0.104097
5 3 100 14 0.0360602
6 3 100 14 0.0150829
7 3 100 14 0.0109326
8 3 100 14 0.0141799
9 3 100 14 0.0039364
10 3 100 14 0.00391457
11 3 100 14 0.00298012
12 3 100 14 0.00154034
13 3 100 14 9.42413e-06
14 3 100 14 0.00136936
1 4 100 14 0.0479937
2 4 100 14 0.320169
3 4 100 14 0.291413
4 4 100 14 0.178734
5 4 100 14 0.0894501
6 4 100 14 0.0198489
7 4 100 14 0.0255353
8 4 100 14 0.00562292
9 4 100 14 0.00669219
10 4 100 14 0.00400874
11 4 100 14 0.002386
12 4 100 14 0.00530131
13 4 100 14 0.00275128
14 4 100 14 9.41272e-05
1 5 100 14 0.0215518
2 5 100 14 0.163437
3 5 100 14 0.277712
4 5 100 14 0.239416
5 5 100 14 0.15043
6 5 100 14 0.072718
7 5 100 14 0.0277558
8 5 100 14 0.017562
9 5 100 14 0.010697
10 5 100 14 0.00922328
11 5 100 14 0.00118759
12 5 100 14 0.00405676
13 5 100 14 0.00408797
14 5 100 14 0.000165276
1 6 100 14 0.00668669
2 6 100 14 0.095461
3 6 100 14 0.196515
4 6 100 14 0.279451
5 6 100 14 0.199234
6 6 100 14 0.101089
7 6 100 14 0.0598271
8 6 100 14 0.0194849
9 6 100 14 0.00880794
10 6 100 14 0.0136294
11 6 100 14 0.00576713
12 6 100 14 0.0060217
13 6 100 14 0.0042513
14 6 100 14 0.00377412
1 7 100 14 0.0081075
2 7 100 14 0.0616638
3 7 100 14 0.110697
4 7 100 14 0.222757
5 7 100 14 0.221678
6 7 100 14 0.162954
7 7 100 14 0.0825599
8 7 100 14 0.0625183
9 7 100 14 0.0271529
10 7 100 14 0.0178331
11 7 100 14 0.00701357
12 7 100 14 0.0041388
13 7 100 14 0.00818654
14 7 100 14 0.00273989
1 8 100 14 0.00592752
2 8 100 14 0.0289031
3 8 100 14 0.0720778
4 8 100 14 0.166369
5 8 100 14 0.238821
6 8 100 14 0.240582
7 8 100 14 0.129124
8 8 100 14 0.0605907
9 8 100 14 0.0273968
10 8 100 14 0.015231
11 8 100 14 0.00462824
12 8 100 14 0.0043155
13 8 100 14 0.00306999
14 8 100 14 0.00296242
1 9 100 14 0.00367996
2 9 100 14 0.0232877
3 9 100 14 0.0456779
4 9 100 14 0.102137
5 9 100 14 0.205135
6 9 100 14 0.206158
7 9 100 14 0.179298
8 9 100 14 0.10073
9 9 100 14 0.0754912
10 9 100 14 0.0252185
11 9 100 14 0.0231395
12 9 100 14 0.00570005
13 9 100 14 0.00145923
14 9 100 14 0.00288753
1 10 100 14 3.65133e-05
2 10 100 14 0.00763075
3 10 100 14 0.0234405
4 10 100 14 0.0649683
5 10 100 14 0.126539
6 10 100 14 0.205054
7 10 100 14 0.215917
8 10 100 14 0.157394
9 10 100 14 0.0894172
10 10 100 14 0.0415904
11 10 100 14 0.0291876
12 10 100 14 0.0170624
13 10 100 14 0.00950815
14 10 100 14 0.0122554
1 11 100 14 0.000280907
2 11 100 14 0.00370068
3 11 100 14 0.0212428
4 11 100 14 0.0326584
5 11 100 14 0.0918962
6 11 100 14 0.190952
7 11 100 14 0.182255
8 11 100 14 0.180632
9 11 100 14 0.136667
10 11 100 14 0.0843383
11 11 100 14 0.0327957
12 11 100 14 0.0180351
13 11 100 14 0.0117915
14 11 100 14 0.0127535
1 12 100 14 0.00175913
2 12 100 14 0.00785954
3 12 100 14 0.0154174
4 12 100 14 0.0204306
5 12 100 14 0.0601687
6 12 100 14 0.116668
7 12 100 14 0.185702
8 12 100 14 0.184207
9 12 100 14 0.169705
10 12 100 14 0.113778
11 12 100 14 0.0606984
12 12 100 14 0.0267264
13 12 100 14 0.0176175
14 12 100 14 0.0192633
1 13 100 14 0.00145982
2 13 100 14 0.00432498
3 13 100 14 0.00906387
4 13 100 14 0.0187354
5 13 100 14 0.0507176
6 13 100 14 0.0771621
7 13 100 14 0.143367
8 13 100 14 0.196877
9 13 100 14 0.139639
10 13 100 14 0.130139
11 13 100 14 0.11622
12 13 100 14 0.0602464
13 13 100 14 0.0264254
14 13 100 14 0.0256222
1 14 100 14 1.96255e-05
2 14 100 14 0.000109054
3 14 100 14 0.00183497
4 14 100 14 0.0102505
5 14 100 14 0.0279247
6 14 100 14 0.0795519
7 14 100 14 0.105822
8 14 100 14 0.159816
9 14 100 14 0.185733
10 14 100 14 0.153328
11 14 100 14 0.101312
12 14 100 14 0.0769011
13 14 100 14 0.0454882
14 14 100 14 0.0519088
1 15 100 14 0.00163281
2 15 100 14 0.00286029
3 15 100 14 0.00949934
4 15 100 14 0.0112133
5 15 100 14 0.0188606
6 15 100 14 0.0536019
7 15 100 14 0.0597914
8 15 100 14 0.139387
9 15 100 14 0.162244
10 15 100 14 0.163191
11 15 100 14 0.150036
12 15 100 14 0.0929605
13 15 100 14 0.0810526
14 15 100 14 0.0536699
1 16 100 14 0.00303912
2 16 100 14 0.00366904
3 16 100 14 0.00495139
4 16 100 14 0.00638334
5 16 100 14 0.0127508
6 16 100 14 0.0336482
7 16 100 14 0.0562016
8 16 100 14 0.0917728
9 16 100 14 0.153495
10 16 100 14 0.171374
11 16 100 14 0.158645
12 16 100 14 0.129314
13 16 100 14 0.0984273
14 16 100 14 0.0763291
1 17 100 14 0.000734251
2 17 100 14 0.00352104
3 17 100 14 0.00601966
4 17 100 14 0.0106112
5 17 100 14 0.018061
6 17 100 14 0.0165792
7 17 100 14 0.0457715
8 17 100 14 0.0644183
9 17 100 14 0.120647
10 17 100 14 0.167408
11 17 100 14 0.18018
12 17 100 14 0.144761
13 17 100 14 0.122304
14 17 100 14 0.0989841
1 18 100 14 1.74729e-05
2 18 100 14 0.00419666
3 18 100 14 0.000724195
4 18 100 14 0.0026805
5 18 100 14 0.00178268
6 18 100 14 0.0100388
7 18 100 14 0.0273321
8 18 100 14 0.0528025
9 18 100 14 0.0983024
10 18 100 14 0.136344
11 18 100 14 0.173093
12 18 100 14 0.187983
13 18 100 14 0.154193
14 18 100 14 0.15051
1 19 100 14 1.60068e-05
2 19 100 14 0.00451229
3 19 100 14 0.00523778
4 19 100 14 0.00716527
5 19 100 14 0.0109323
6 19 100 14 0.00506165
7 19 100 14 0.0267941
8 19 100 14 0.0434898
9 19 100 14 0.0873181
10 19 100 14 0.138199
11 19 100 14 0.175616
12 19 100 14 0.171868
13 19 100 14 0.134162
14 19 100 14 0.189627
1 20 100 14 8.06483e-06
2 20 100 14 0.00222569
3 20 100 14 0.00661356
4 20 100 14 0.000499935
5 20 100 14 0.00657243
6 20 100 14 0.00930015
7 20 100 14 0.0120417
8 20 100 14 0.030292
9 20 100 14 0.0792152
10 20 100 14 0.106578
11 20 100 14 0.153121
12 20 100 14 0.138688
13 20 100 14 0.254201
14 20 100 14 0.200644
1 21 100 14 0.00212755
2 21 100 14 0.00566478
3 21 100 14 0.00478478
4 21 100 14 0.00648091
5 21 100 14 0.00133826
6 21 100 14 0.00754377
7 21 100 14 0.0120806
8 21 100 14 0.0227703
9 21 100 14 0.0632121
10 21 100 14 0.0898803
11 21 100 14 0.18891
12 21 100 14 0.168496
13 21 100 14 0.192562
14 21 100 14 0.234148
1 22 100 14 0.00254541
2 22 100 14 0.00602648
3 22 100 14 0.00340372
4 22 100 14 0.00860026
5 22 100 14 0.00355328
6 22 100 14 0.00297501
7 22 100 14 0.0165105
8 22 100 14 0.0159129
9 22 100 14 0.0467909
10 22 100 14 0.0932502
11 22 100 14 0.104439
12 22 100 14 0.19324
13 22 100 14 0.251041
14 22 100 14 0.251713
1 23 100 14 0.00643678
2 23 100 14 0.00788878
3 23 100 14 0.00795271
4 23 100 14 0.0147213
5 23 100 14 0.00919795
6 23 100 14 0.0116982
7 23 100 14 0.016791
8 23 100 14 0.012411
9 23 100 14 0.0203829
10 23 100 14 0.0759458
11 23 100 14 0.111853
12 23 100 14 0.193519
13 23 100 14 0.222485
14 23 100 14 0.288717
1 24 100 14 1.67442e-05
2 24 100 14 0.00452731
3 24 100 14 0.00674608
4 24 100 14 0.00728722
5 24 100 14 0.0052848
6 24 100 14 0.00708443
7 24 100 14 0.00586628
8 24 100 14 0.0337021
9 24 100 14 0.0430976
10 24 100 14 0.0331831
11 24 100 14 0.114609
12 24 100 14 0.177829
13 24 100 14 0.266945
14 24 100 14 0.293821
1 25 100 14 5.36916e-05
2 25 100 14 0.000990712
3 25 100 14 6.75432e-05
4 25 100 14 0.00392976
5 25 100 14 0.00779978
6 25 100 14 0.00947221
7 25 100 14 0.00930768
8 25 100 14 0.00913348
9 25 100 14 0.0264761
10 25 100 14 0.0527818
11 25 100 14 0.0804001
12 25 100 14 0.187381
13 25 100 14 0.233011
14 25 100 14 0.379195
1 26 100 14 0.000126887
2 26 100 14 0.000439241
3 26 100 14 0.00784554
4 26 100 14 0.017799
5 26 100 14 0.000319582
6 26 100 14 9.5212e-05
7 26 100 14 0.00215662
8 26 100 14 0.00680398
9 26 100 14 0.0134691
10 26 100 14 0.0472778
11 26 100 14 0.0749534
12 26 100 14 0.176849
13 26 100 14 0.279933
14 26 100 14 0.371932
1 27 100 14 4.33888e-05
2 27 100 14 0.000187415
3 27 100 14 0.00038736
4 27 100 14 0.000149837
5 27 100 14 0.000670625
6 27 100 14 0.00844344
7 27 100 14 0.00775503
8 27 100 14 0.025721
9 27 100 14 0.0244786
10 27 100 14 0.0324334
11 27 100 14 0.107619
12 27 100 14 0.130392
13 27 100 14 0.263462
14 27 100 14 0.398257
1 28 100 14 7.12671e-06
2 28 100 14 8.12935e-05
3 28 100 14 0.00760573
4 28 100 14 0.00141125
5 28 100 14 0.000304766
6 28 100 14 0.000180658
7 28 100 14 0.0074501
8 28 100 14 0.00207756
9 28 100 14 0.0233103
10 28 100 14 0.0421626
11 28 100 14 0.0749491
12 28 100 14 0.0944353
13 28 100 14 0.312614
14 28 100 14 0.43341
1 29 100 14 1.4856e-05
2 29 100 14 0.034421
3 29 100 14 0.00120186
4 29 100 14 0.0260864
5 29 100 14 0.0135191
6 29 100 14 0.0241837
7 29 100 14 0.0362857
8 29 100 14 0.000478755
9 29 100 14 0.022871
10 29 100 14 0.0462073
11 29 100 14 0.0494255
12 29 100 14 0.213163
13 29 100 14 0.218305
14 29 100 14 0.313837
1 30 100 14 2.56314e-05
2 30 100 14 3.64536e-05
3 30 100 14 0.0272181
4 30 100 14 0.000214095
5 30 100 14 0.0018192
6 30 100 14 0.00355356
7 30 100 14 0.0376551
8 30 100 14 0.00771173
9 30 100 14 0.0364277
10 30 100 14 0.0666438
11 30 100 14 0.125557
12 30 100 14 0.105489
13 30 100 14 0.167757
14 30 100 14 0.419892
1 31 100 14 1.47739e-06
2 31 100 14 0.00027428
3 31 100 14 5.26858e-05
4 31 100 14 1.08214e-05
5 31 100 14 0.00195155
6 31 100 14 8.0897e-05
7 31 100 14 8.20597e-05
8 31 100 14 0.000617977
9 31 100 14 0.00740412
10 31 100 14 0.052121
11 31 100 14 0.0562812
12 31 100 14 0.13541
13 31 100 14 0.301345
14 31 100 14 0.444367
1 32 100 14 3.34202e-05
2 32 100 14 0.0530589
3 32 100 14 0.0449603
4 32 100 14 0.0542955
5 32 100 14 0.000302655
6 32 100 14 0.0479987
7 32 100 14 0.0550055
8 32 100 14 1.41285e-05
9 32 100 14 0.0059492
10 32 100 14 0.000288864
11 32 100 14 0.07656
12 32 100 14 0.0404264
13 32 100 14 0.107792
14 32 100 14 0.513314
1 33 100 14 1.26568e-05
2 33 100 14 4.43051e-05
3 33 100 14 7.61112e-06
4 33 100 14 9.27902e-06
5 33 100 14 0.0226851
6 33 100 14 0.000548425
7 33 100 14 0.000423682
8 33 100 14 0.000157526
9 33 100 14 0.000102711
10 33 100 14 0.0498344
11 33 100 14 0.0330833
12 33 100 14 0.229597
13 33 100 14 0.354483
14 33 100 14 0.309011
1 34 100 14 2.0792e-06
2 34 100 14 6.01649e-07
3 34 100 14 0.0192441
4 34 100 14 0.0389152
5 34 100 14 0.0544697
6 34 100 14 0.100636
7 34 100 14 0.00018475
8 34 100 14 0.0751473
9 34 100 14 5.07815e-05
10 34 100 14 0.0305226
11 34 100 14 0.000143239
12 34 100 14 0.0893636
13 34 100 14 0.0888567
14 34 100 14 0.502464
3 35 100 14 0.000100851
4 35 100 14 1.70282e-05
5 35 100 14 0.00077148
6 35 100 14 0.0002232
7 35 100 14 0.00132408
8 35 100 14 4.67861e-05
9 35 100 14 6.69066e-05
10 35 100 14 0.000479339
11 35 100 14 0.00132285
12 35 100 14 0.000165207
13 35 100 14 0.66097
14 35 100 14 0.334512
1 36 100 14 7.42271e-06
3 36 100 14 5.61186e-07
4 36 100 14 2.94228e-06
5 36 100 14 3.77669e-06
7 36 100 14 6.77866e-06
8 36 100 14 0.00124269
9 36 100 14 1.44528e-06
10 36 100 14 6.35949e-06
11 36 100 14 0.00016433
12 36 100 14 0.00013416
13 36 100 14 0.159817
14 36 100 14 0.838612
2 37 100 14 3.83082e-05
3 37 100 14 4.35666e-06
4 37 100 14 1.60996e-05
8 37 100 14 3.56431e-05
9 37 100 14 6.31495e-06
10 37 100 14 2.24826e-06
11 37 100 14 0.110402
12 37 100 14 0.258868
13 37 100 14 0.186986
14 37 100 14 0.443642
2 38 100 14 0.000972816
3 38 100 14 1.84741e-05
5 38 100 14 1.16884e-06
7 38 100 14 1.41645e-05
8 38 100 14 0.116948
9 38 100 14 2.12187e-05
10 38 100 14 6.47052e-07
11 38 100 14 0.000859574
12 38 100 14 0.404083
13 38 100 14 0.398673
14 38 100 14 0.0784087
5 39 100 14 1.074e-05
8 39 100 14 1.7575e-06
10 39 100 14 0.000297968
11 39 100 14 0.000143426
12 39 100 14 0.0106556
13 39 100 14 0.904987
14 39 100 14 0.0839033
3 40 100 14 0.000394435
4 40 100 14 0.000164222
5 40 100 14 0.012008
7 40 100 14 0.000222599
8 40 100 14 0.020215
9 40 100 14 5.94957e-05
10 40 100 14 0.000826711
11 40 100 14 0.114766
12 40 100 14 0.492562
13 40 100 14 0.358782
1 0 100 15 0.0311818
2 0 100 15 0.050414
3 0 100 15 0.0692601
4 0 100 15 0.0767442
5 0 100 15 0.0698902
6 0 100 15 0.0690573
7 0 100 15 0.0714417
8 0 100 15 0.072606
9 0 100 15 0.0724846
10 0 100 15 0.0740663
11 0 100 15 0.0698034
12 0 100 15 0.0689786
13 0 100 15 0.0862167
14 0 100 15 0.0710088
15 0 100 15 0.0468461
1 1 100 15 0.866542
2 1 100 15 0.0601411
3 1 100 15 0.0283908
4 1 100 15 0.00937452
5 1 100 15 0.00716134
6 1 100 15 0.00417055
7 1 100 15 0.0035943
8 1 100 15 0.00326298
9 1 100 15 0.00471026
10 1 100 15 0.00356848
11 1 100 15 0.00284862
12 1 100 15 0.0025783
13 1 100 15 0.00036659
14 1 100 15 0.00328912
15 1 100 15 7.54459e-07
1 2 100 15 0.137985
2 2 100 15 0.469675
3 2 100 15 0.223213
4 2 100 15 0.0525021
5 2 100 15 0.0557208
6 2 100 15 0.0167493
7 2 100 15 0.0129767
8 2 100 15 0.00983959
9 2 100 15 0.00801941
10 2 100 15 0.00432411
11 2 100 15 0.00378871
12 2 100 15 0.00431627
13 2 100 15 0.000576837
14 2 100 15 7.41071e-07
15 2 100 15 0.000312388
1 3 100 15 0.102346
2 3 100 15 0.43278
3 3 100 15 0.261982
4 3 100 15 0.0814303
5 3 100 15 0.053312
6 3 100 15 0.0268268
7 3 100 15 0.0133809
8 3 100 15 0.0098089
9 3 100 15 0.0060275
10 3 100 15 0.00120409
11 3 100 15 0.00353196
12 3 100 15 3.5181e-05
13 3 100 15 0.00609196
14 3 100 15 0.00122389
15 3 100 15 1.85832e-05
1 4 100 15 0.0361774
2 4 100 15 0.262116
3 4 100 15 0.291143
4 4 100 15 0.209094
5 4 100 15 0.101339
6 4 100 15 0.0377742
7 4 100 15 0.0161785
8 4 100 15 0.0158943
9 4 100 15 0.00253719
10 4 100 15 0.00759533
11 4 100 15 0.00505193
12 4 100 15 0.00257462
13 4 100 15 0.00622411
14 4 100 15 0.0037571
15 4 100 15 0.0025439
1 5 100 15 0.0231831
2 5 100 15 0.148519
3 5 100 15 0.243702
4 5 100 15 0.302854
5 5 100 15 0.137491
6 5 100 15 0.0671227
7 5 100 15 0.0290757
8 5 100 15 0.0189131
9 5 100 15 0.0132968
10 5 100 15 0.00502536
11 5 100 15 0.00527001
12 5 100 15 2.9554e-05
13 5 100 15 0.0026475
14 5 100 15 0.00282282
15 5 100 15 4.67027e-05
1 6 100 15 0.0164031
2 6 100 15 0.0649348
3 6 100 15 0.187807
4 6 100 15 0.247145
5 6 100 15 0.215017
6 6 100 15 0.125022
7 6 100 15 0.0665714
8 6 100 15 0.028077
9 6 100 15 0.0137462
10 6 100 15 0.010081
11 6 100 15 0.0113575
12 6 100 15 0.00741302
13 6 100 15 0.00359832
14 6 100 15 0.00263347
15 6 100 15 0.000192979
1 7 100 15 0.0162915
2 7 100 15 0.0564178
3 7 100 15 0.106086
4 7 100 15 0.206611
5 7 100 15 0.244979
6 7 100 15 0.15128
7 7 100 15 0.0919772
8 7 100 15 0.0524372
9 7 100 15 0.0286697
10 7 100 15 0.0192665
11 7 100 15 0.0133454
12 7 100 15 0.00540013
13 7 100 15 0.00285403
14 7 100 15 0.0013275
15 7 100 15 0.00305721
1 8 100 15 0.00230854
2 8 100 15 0.0277796
3 8 100 15 0.0679407
4 8 100 15 0.150362
5 8 100 15 0.195543
6 8 100 15 0.236072
7 8 100 15 0.162859
8 8 100 15 0.0647165
9 8 100 15 0.035694
10 8 100 15 0.0218966
11 8 100 15 0.0148258
12 8 100 15 0.0105941
13 8 100 15 0.00549232
14 8 100 15 0.00252476
15 8 100 15 0.00139093
1 9 100 15 0.00054009
2 9 100 15 0.0191886
3 9 100 15 0.0428941
4 9 100 15 0.096829
5 9 100 15 0.162911
6 9 100 15 0.237344
7 9 100 15 0.168613
8 9 100 15 0.126898
9 9 100 15 0.0659505
10 9 100 15 0.0291907
11 9 100 15 0.0164562
12 9 100 15 0.0139002
13 9 100 15 0.0102963
14 9 100 15 0.00261948
15 9 100 15 0.00636886
1 10 100 15 0.00166313
2 10 100 15 0.0106652
3 10 100 15 0.0203027
4 10 100 15 0.0577121
5 10 100 15 0.136335
6 10 100 15 0.174115
7 10 100 15 0.216772
8 10 100 15 0.174936
9 10 100 15 0.0926111
10 10 100 15 0.0488887
11 10 100 15 0.0313885
12 10 100 15 0.0193333
13 10 100 15 0.00294537
14 10 100 15 0.0080724
15 10 100 15 0.00425894
1 11 100 15 0.00416217
2 11 100 15 0.00841601
3 11 100 15 0.0121473
4 11 100 15 0.0251763
5 11 100 15 0.0778738
6 11 100 15 0.15477
7 11 100 15 0.200885
8 11 100 15 0.182426
9 11 100 15 0.149352
10 11 100 15 0.0831917
11 11 100 15 0.0512535
12 11 100 15 0.0259187
13 11 100 15 0.0119833
14 11 100 15 0.00284988
15 11 100 15 0.00959447
1 12 100 15 0.00176963
2 12 100 15 0.00290489
3 12 100 15 0.0094792
4 12 100 15 0.0109026
5 12 100 15 0.0584327
6 12 100 15 0.117024
7 12 100 15 0.171444
8 12 100 15 0.191936
9 12 100 15 0.160631
10 12 100 15 0.112969
11 12 100 15 0.0548324
12 12 100 15 0.0464631
13 12 100 15 0.0326523
14 12 100 15 0.0147622
15 12 100 15 0.013797
1 13 100 15 0.00139639
2 13 100 15 0.00657271
3 13 100 15 0.00261008
4 13 100 15 0.0171085
5 13 100 15 0.0420714
6 13 100 15 0.0610389
7 13 100 15 0.115993
8 13 100 15 0.172877
9 13 100 15 0.187673
10 13 100 15 0.153541
11 13 100 15 0.0806689
12 13 100 15 0.068547
13 13 100 15 0.0464514
14 13 100 15 0.028769
15 13 100 15 0.0146822
1 14 100 15 2.28337e-05
2 14 100 15 0.00438633
3 14 100 15 0.00561185
4 14 100 15 0.0048622
5 14 100 15 0.0206972
6 14 100 15 0.0523059
7 14 100 15 0.0830676
8 14 100 15 0.120918
9 14 100 15 0.176603
10 14 100 15 0.168768
11 14 100 15 0.149859
12 14 100 15 0.0690876
13 14 100 15 0.0690149
14 14 100 15 0.0403379
15 14 100 15 0.0344576
1 15 100 15 0.00281761
2 15 100 15 0.00427364
3 15 100 15 0.00418399
4 15 100 15 0.005438
5 15 100 15 0.0120432
6 15 100 15 0.0510137
7 15 100 15 0.0770947
8 15 100 15 0.115714
9 15 100 15 0.139714
10 15 100 15 0.159012
11 15 100 15 0.163065
12 15 100 15 0.109434
13 15 100 15 0.070223
14 15 100 15 0.0458185
15 15 100 15 0.040154
1 16 100 15 2.92553e-05
2 16 100 15 0.000120989
3 16 100 15 0.00298127
4 16 100 15 0.00264503
5 16 100 15 0.00662232
6 16 100 15 0.0217001
7 16 100 15 0.0457538
8 16 100 15 0.0939845
9 16 100 15 0.150806
10 16 100 15 0.157243
11 16 100 15 0.153424
12 16 100 15 0.133032
13 16 100 15 0.111883
14 16 100 15 0.0643174
15 16 100 15 0.0554576
1 17 100 15 2.39921e-05
2 17 100 15 0.00566707
3 17 100 15 0.00194006
4 17 100 15 0.00225433
5 17 100 15 0.00140126
6 17 100 15 0.0123372
7 17 100 15 0.036112
8 17 100 15 0.0728863
9 17 100 15 0.112261
10 17 100 15 0.121798
11 17 100 15 0.155181
12 17 100 15 0.173854
13 17 100 15 0.107152
14 17 100 15 0.095043
15 17 100 15 0.102089
1 18 100 15 0.000720526
2 18 100 15 0.00973765
3 18 100 15 0.00588535
4 18 100 15 0.00297577
5 18 100 15 0.00724186
6 18 100 15 0.0156982
7 18 100 15 0.03689
8 18 100 15 0.0483411
9 18 100 15 0.0772388
10 18 100 15 0.118164
11 18 100 15 0.147447
12 18 100 15 0.156539
13 18 100 15 0.142399
14 18 100 15 0.125001
15 18 100 15 0.105721
1 19 100 15 0.00135343
2 19 100 15 0.00254821
3 19 100 15 0.00471245
4 19 100 15 0.00467548
5 19 100 15 0.0027526
6 19 100 15 0.0132532
7 19 100 15 0.0130469
8 19 100 15 0.0479728
9 19 100 15 0.0716261
10 19 100 15 0.108647
11 19 100 15 0.126064
12 19 100 15 0.174652
13 19 100 15 0.141834
14 19 100 15 0.149804
15 19 100 15 0.137057
1 20 100 15 7.36075e-06
2 20 100 15 0.00182231
3 20 100 15 0.00558027
4 20 100 15 0.00905976
5 20 100 15 0.00838429
6 20 100 15 0.0106523
7 20 100 15 0.0131777
8 20 100 15 0.0181525
9 20 100 15 0.0648975
10 20 100 15 0.0879332
11 20 100 15 0.136278
12 20 100 15 0.137218
13 20 100 15 0.153463
14 20 100 15 0.169546
15 20 100 15 0.183828
1 21 100 15 0.000353212
2 21 100 15 0.00250928
3 21 100 15 6.31696e-05
4 21 100 15 0.0034691
5 21 100 15 0.00234485
6 21 100 15 0.00149132
7 21 100 15 0.00642986
8 21 100 15 0.0236027
9 21 100 15 0.0269732
10 21 100 15 0.073591
11 21 100 15 0.164134
12 21 100 15 0.142673
13 21 100 15 0.17465
14 21 100 15 0.185858
15 21 100 15 0.191857
1 22 100 15 0.00272188
2 22 100 15 0.00198484
3 22 100 15 0.00201739
4 22 100 15 0.010312
5 22 100 15 0.0104787
6 22 100 15 0.00908241
7 22 100 15 0.0120545
8 22 100 15 0.020724
9 22 100 15 0.0378478
10 22 100 15 0.0732591
11 22 100 15 0.0997064
12 22 100 15 0.15212
13 22 100 15 0.169475
14 22 100 15 0.150204
15 22 100 15 0.248011
1 23 100 15 0.000248921
2 23 100 15 0.00444749
3 23 100 15 0.00251149
4 23 100 15 0.00128031
5 23 100 15 0.0012938
6 23 100 15 0.00394619
7 23 100 15 0.0103255
8 23 100 15 0.00289015
9 23 100 15 0.0280552
10 23 100 15 0.0489226
11 23 100 15 0.0985681
12 23 100 15 0.17852
13 23 100 15 0.16305
14 23 100 15 0.207066
15 23 100 15 0.248873
1 24 100 15 0.00264988
2 24 100 15 0.00590586
3 24 100 15 0.00208869
4 24 100 15 0.0100622
5 24 100 15 0.00571721
6 24 100 15 0.00284158
7 24 100 15 0.0128708
8 24 100 15 0.0139205
9 24 100 15 0.0153739
10 24 100 15 0.0547518
11 24 100 15 0.0720417
12 24 100 15 0.132389
13 24 100 15 0.148001
14 24 100 15 0.235982
15 24 100 15 0.285405
1 25 100 15 1.07168e-05
2 25 100 15 0.00399541
3 25 100 15 0.000676397
4 25 100 15 0.00747319
5 25 100 15 0.0205769
6 25 100 15 0.0186191
7 25 100 15 0.0135168
8 25 100 15 0.0168847
9 25 100 15 0.00556909
10 25 100 15 0.0308261
11 25 100 15 0.0604504
12 25 100 15 0.110495
13 25 100 15 0.203426
14 25 100 15 0.227149
15 25 100 15 0.280332
1 26 100 15 0.00609489
2 26 100 15 0.00433059
3 26 100 15 0.000643499
4 26 100 15 0.00906772
5 26 100 15 0.0189991
6 26 100 15 0.0142698
7 26 100 15 0.00885693
8 26 100 15 0.0113431
9 26 100 15 0.0262807
10 26 100 15 0.0277043
11 26 100 15 0.0707372
12 26 100 15 0.132022
13 26 100 15 0.175349
14 26 100 15 0.278254
15 26 100 15 0.216047
1 27 100 15 0.00518849
2 27 100 15 0.00774979
3 27 100 15 0.00233228
4 27 100 15 0.00923007
5 27 100 15 0.0162375
6 27 100 15 0.00578393
7 27 100 15 0.0115942
8 27 100 15 0.0211603
9 27 100 15 0.0151637
10 27 100 15 0.0405698
11 27 100 15 0.0405464
12 27 100 15 0.0876018
13 27 100 15 0.149396
14 27 100 15 0.297738
15 27 100 15 0.289707
1 28 100 15 0.00268188
2 28 100 15 0.00686123
3 28 100 15 0.000166281
4 28 100 15 0.00783809
5 28 100 15 0.000187787
6 28 100 15 8.81117e-05
7 28 100 15 0.0149316
8 28 100 15 0.00539692
9 28 100 15 0.00866988
10 28 100 15 0.0246915
11 28 100 15 0.0394064
12 28 100 15 0.0635322
13 28 100 15 0.144123
14 28 100 15 0.291479
15 28 100 15 0.389946
1 29 100 15 2.84702e-06
2 29 100 15 0.00798815
3 29 100 15 0.00803495
4 29 100 15 5.01731e-05
5 29 100 15 0.00115391
6 29 100 15 0.00887854
7 29 100 15 3.38716e-05
8 29 100 15 0.0228886
9 29 100 15 0.0277789
10 29 100 15 0.0189671
11 29 100 15 0.0441533
12 29 100 15 0.0478469
13 29 100 15 0.137745
14 29 100 15 0.200346
15 29 100 15 0.474131
1 30 100 15 0.0100649
2 30 100 15 0.000213631
3 30 100 15 0.00160833
4 30 100 15 0.000396274
5 30 100 15 0.00864724
6 30 100 15 0.00401624
7 30 100 15 0.00320706
8 30 100 15 0.000281697
9 30 100 15 0.00638643
10 30 100 15 0.0382184
11 30 100 15 0.0341858
12 30 100 15 0.10225
13 30 100 15 0.131922
14 30 100 15 0.231633
15 30 100 15 0.426968
1 31 100 15 0.000167336
2 31 100 15 0.00582991
3 31 100 15 5.24108e-05
4 31 100 15 0.0152874
5 31 100 15 0.0017634
6 31 100 15 0.000382272
7 31 100 15 0.0401355
8 31 100 15 0.000182903
9 31 100 15 0.0393979
10 31 100 15 0.0145699
11 31 100 15 0.0658807
12 31 100 15 0.0373825
13 31 100 15 0.135323
14 31 100 15 0.247943
15 31 100 15 0.395702
1 32 100 15 5.56037e-06
2 32 100 15 6.14535e-06
3 32 100 15 0.000374967
4 32 100 15 0.000112214
5 32 100 15 5.65138e-05
6 32 100 15 3.24526e-05
7 32 100 15 3.55519e-05
8 32 100 15 3.88394e-05
9 32 100 15 0.0070567
10 32 100 15 8.62624e-05
11 32 100 15 0.0126132
12 32 100 15 0.0920518
13 32 100 15 0.113422
14 32 100 15 0.299925
15 32 100 15 0.474183
1 33 100 15 7.58578e-06
2 33 100 15 0.0217896
3 33 100 15 0.00776123
4 33 100 15 9.6499e-06
5 33 100 15 0.00134061
6 33 100 15 2.72985e-05
7 33 100 15 0.000195894
8 33 100 15 0.00678905
9 33 100 15 0.000252549
10 33 100 15 0.0243181
11 33 100 15 0.0323828
12 33 100 15 0.0561921
13 33 100 15 0.0801554
14 33 100 15 0.328115
15 33 100 15 0.440663
1 34 100 15 5.24955e-06
2 34 100 15 9.93872e-06
3 34 100 15 1.09968e-05
4 34 100 15 0.000401997
5 34 100 15 9.32975e-06
6 34 100 15 0.000169709
7 34 100 15 9.88854e-06
8 34 100 15 0.000144707
9 34 100 15 0.000210977
10 34 100 15 0.0545318
11 34 100 15 0.0398033
12 34 100 15 0.163889
13 34 100 15 0.148036
14 34 100 15 0.13455
15 34 100 15 0.458217
1 35 100 15 1.19863e-06
2 35 100 15 1.45795e-06
3 35 100 15 1.45054e-05
4 35 100 15 0.000631547
5 35 100 15 3.49056e-06
6 35 100 15 9.77398e-05
7 35 100 15 3.87722e-05
8 35 100 15 1.88477e-05
9 35 100 15 0.00068631
10 35 100 15 0.0424938
11 35 100 15 0.000100722
12 35 100 15 0.00295022
13 35 100 15 0.222581
14 35 100 15 0.160767
15 35 100 15 0.569613
1 36 100 15 0.105875
2 36 100 15 0.105328
3 36 100 15 4.58775e-05
4 36 100 15 0.000526083
5 36 100 15 8.77766e-06
6 36 100 15 4.24926e-06
8 36 100 15 4.21844e-05
9 36 100 15 1.08824e-05
10 36 100 15 4.81924e-05
11 36 100 15 0.000147573
12 36 100 15 0.000914906
13 36 100 15 0.262809
14 36 100 15 0.509095
15 36 100 15 0.0151446
1 37 100 15 4.64163e-07
2 37 100 15 1.68922e-05
3 37 100 15 0.000117913
4 37 100 15 5.82828e-06
5 37 100 15 4.40098e-06
6 37 100 15 0.0609593
7 37 100 15 3.58029e-05
8 37 100 15 0.161043
9 37 100 15 0.00123679
10 37 100 15 4.36218e-05
11 37 100 15 0.0244296
12 37 100 15 0.21337
13 37 100 15 0.000349304
14 37 100 15 0.27633
15 37 100 15 0.262058
1 38 100 15 9.55498e-06
2 38 100 15 0.0728811
3 38 100 15 1.03738e-05
4 38 100 15 3.7822e-05
5 38 100 15 0.073022
7 38 100 15 0.0730224
8 38 100 15 0.000742944
9 38 100 15 0.0730429
10 38 100 15 0.0730478
11 38 100 15 0.0272402
12 38 100 15 0.0653803
13 38 100 15 0.000531715
14 38 100 15 0.154017
15 38 100 15 0.387014
1 39 100 15 5.55649e-06
3 39 100 15 4.13895e-06
4 39 100 15 4.57302e-05
5 39 100 15 4.9665e-06
6 39 100 15 0.00145838
7 39 100 15 0.000117259
8 39 100 15 3.51365e-05
9 39 100 15 1.62066e-06
10 39 100 15 4.1578e-05
11 39 100 15 0.0268616
12 39 100 15 0.000142918
13 39 100 15 0.184435
14 39 100 15 0.00319851
15 39 100 15 0.783648
4 40 100 15 4.13042e-06
6 40 100 15 1.48221e-06
7 40 100 15 0.462275
8 40 100 15 0.00182286
9 40 100 15 1.84492e-06
11 40 100 15 0.00261519
12 40 100 15 0.533279
4 41 100 15 0.998801
9 41 100 15 0.00119948
2 42 100 15 0.996086
9 42 100 15 0.00338697
15 42 100 15 0.000527436
2 43 100 15 0.0200615
4 43 100 15 0.97112
9 43 100 15 0.00881824
1 0 100 16 0.0269517
2 0 100 16 0.0427348
3 0 100 16 0.0616743
4 0 100 16 0.0646433
5 0 100 16 0.0718532
6 0 100 16 0.0582289
7 0 100 16 0.0692808
8 0 100 16 0.0714797
9 0 100 16 0.0686519
10 0 100 16 0.0678714
11 0 100 16 0.0649197
12 0 100 16 0.0733722
13 0 100 16 0.0628691
14 0 100 16 0.0813609
15 0 100 16 0.0659155
16 0 100 16 0.0481925
1 1 100 16 0.864871
2 1 100 16 0.0636916
3 1 100 16 0.0251437
4 1 100 16 0.015037
5 1 100 16 0.00988882
6 1 100 16 0.00600393
7 1 100 16 0.00256728
8 1 100 16 0.00299382
9 1 100 16 0.00173606
10 1 100 16 0.00086339
11 1 100 16 0.00279824
12 1 100 16 0.000852452
13 1 100 16 0.0017349
14 1 100 16 5.10875e-05
15 1 100 16 0.00176063
16 1 100 16 6.144e-06
1 2 100 16 0.144338
2 2 100 16 0.43309
3 2 100 16 0.247182
4 2 100 16 0.0616716
5 2 100 16 0.0364856
6 2 100 16 0.0217355
7 2 100 16 0.00801649
8 2 100 16 0.00586945
9 2 100 16 0.0064676
10 2 100 16 0.00962334
11 2 100 16 0.00801221
12 2 100 16 0.00640399
13 2 100 16 0.00604768
14 2 100 16 0.00324552
15 2 100 16 0.00167199
16 2 100 16 0.000139727
1 3 100 16 0.0952272
2 3 100 16 0.457852
3 3 100 16 0.245437
4 3 100 16 0.103573
5 3 100 16 0.036704
6 3 100 16 0.0231938
7 3 100 16 0.0200649
8 3 100 16 0.00790544
9 3 100 16 0.0027597
10 3 100 16 0.00316855
11 3 100 16 0.000111437
12 3 100 16 0.00161499
13 3 100 16 3.57222e-06
14 3 100 16 0.0011763
15 3 100 16 4.58353e-06
16 3 100 16 0.00120311
1 4 100 16 0.0427224
2 4 100 16 0.295482
3 4 100 16 0.260883
4 4 100 16 0.20182
5 4 100 16 0.0883443
6 4 100 16 0.0487965
7 4 100 16 0.0191603
8 4 100 16 0.00867056
9 4 100 16 0.00901272
10 4 100 16 0.0029339
11 4 100 16 0.0051068
12 4 100 16 0.00886631
13 4 100 16 0.00432121
14 4 100 16 0.00127769
15 4 100 16 0.00257003
16 4 100 16 3.19994e-05
1 5 100 16 0.028429
2 5 100 16 0.139946
3 5 100 16 0.277544
4 5 100 16 0.245643
5 5 100 16 0.146916
6 5 100 16 0.0551441
7 5 100 16 0.036217
8 5 100 16 0.0249437
9 5 100 16 0.0135862
10 5 100 16 0.00830234
11 5 100 16 0.00352626
12 5 100 16 0.00524615
13 5 100 16 0.000199845
14 5 100 16 0.00245307
15 5 100 16 0.00874039
16 5 100 16 0.00316241
1 6 100 16 0.0220613
2 6 100 16 0.0674678
3 6 100 16 0.184973
4 6 100 16 0.259628
5 6 100 16 0.230513
6 6 100 16 0.120675
7 6 100 16 0.0465042
8 6 100 16 0.0232766
9 6 100 16 0.0129799
10 6 100 16 0.0089193
11 6 100 16 0.00623109
12 6 100 16 0.00507346
13 6 100 16 0.00666144
14 6 100 16 0.00213152
15 6 100 16 0.00262879
16 6 100 16 0.000276034
1 7 100 16 0.00362193
2 7 100 16 0.0779925
3 7 100 16 0.083523
4 7 100 16 0.223466
5 7 100 16 0.234437
6 7 100 16 0.170552
7 7 100 16 0.0894664
8 7 100 16 0.0421331
9 7 100 16 0.0335193
10 7 100 16 0.0133605
11 7 100 16 0.0142228
12 7 100 16 3.75877e-05
13 7 100 16 0.00534658
14 7 100 16 0.0028658
15 7 100 16 0.00138596
16 7 100 16 0.00407061
1 8 100 16 0.00452377
2 8 100 16 0.0351257
3 8 100 16 0.0639573
4 8 100 16 0.158911
5 8 100 16 0.215667
6 8 100 16 0.216449
7 8 100 16 0.130916
8 8 100 16 0.0784577
9 8 100 16 0.0357492
10 8 100 16 0.0182996
11 8 100 16 0.0124298
12 8 100 16 0.00650796
13 8 100 16 0.00545503
14 8 100 16 0.00809544
15 8 100 16 0.0080237
16 8 100 16 0.00143122
1 9 100 16 0.00719929
2 9 100 16 0.0180133
3 9 100 16 0.0508909
4 9 100 16 0.0830484
5 9 100 16 0.164579
6 9 100 16 0.245094
7 9 100 16 0.185528
8 9 100 16 0.08694
9 9 100 16 0.0727613
10 9 100 16 0.0303605
11 9 100 16 0.0149038
12 9 100 16 0.015749
13 9 100 16 0.0112989
14 9 100 16 0.0043933
15 9 100 16 0.0029704
16 9 100 16 0.00626975
1 10 100 16 0.00409185
2 10 100 16 0.00722875
3 10 100 16 0.0351335
4 10 100 16 0.0520746
5 10 100 16 0.11747
6 10 100 16 0.19577
7 10 100 16 0.200039
8 10 100 16 0.162196
9 10 100 16 0.0920661
10 10 100 16 0.0628592
11 10 100 16 0.0286038
12 10 100 16 0.0178559
13 10 100 16 0.00829511
14 10 100 16 0.00733229
15 10 100 16 0.00720752
16 10 100 16 0.00177617
1 11 100 16 0.00334344
2 11 100 16 0.0095346
3 11 100 16 0.0157517
4 11 100 16 0.0455042
5 11 100 16 0.0795307
6 11 100 16 0.164351
7 11 100 16 0.19937
8 11 100 16 0.181534
9 11 100 16 0.115777
10 11 100 16 0.0824167
11 11 100 16 0.0390937
12 11 100 16 0.0235195
13 11 100 16 0.0120889
14 11 100 16 0.0107155
15 11 100 16 0.0088497
16 11 100 16 0.00861909
1 12 100 16 0.00179445
2 12 100 16 0.0100411
3 12 100 16 0.00810207
4 12 100 16 0.018024
5 12 100 16 0.0446856
6 12 100 16 0.13253
7 12 100 16 0.20111
8 12 100 16 0.186041
9 12 100 16 0.14308
10 12 100 16 0.103266
11 12 100 16 0.0690855
12 12 100 16 0.0374998
13 12 100 16 0.0188563
14 12 100 16 0.0128156
15 12 100 16 0.00872466
16 12 100 16 0.00434515
1 13 100 16 0.0012563
2 13 100 16 0.00825767
3 13 100 16 0.0125614
4 13 100 16 0.00842058
5 13 100 16 0.0397299
6 13 100 16 0.056077
7 13 100 16 0.132365
8 13 100 16 0.207198
9 13 100 16 0.187153
10 13 100 16 0.12084
11 13 100 16 0.0963981
12 13 100 16 0.057934
13 13 100 16 0.0246691
14 13 100 16 0.0161214
15 13 100 16 0.0182735
16 13 100 16 0.0127461
1 14 100 16 0.00240063
2 14 100 16 0.00764214
3 14 100 16 0.00718267
4 14 100 16 0.00937832
5 14 100 16 0.0201117
6 14 100 16 0.0623808
7 14 100 16 0.0938606
8 14 100 16 0.149009
9 14 100 16 0.172378
10 14 100 16 0.159884
11 14 100 16 0.132793
12 14 100 16 0.0818
13 14 100 16 0.0454954
14 14 100 16 0.016842
15 14 100 16 0.0190911
16 14 100 16 0.0197504
1 15 100 16 0.00284719
2 15 100 16 0.00567138
3 15 100 16 0.00158376
4 15 100 16 0.00814933
5 15 100 16 0.0133161
6 15 100 16 0.0277803
7 15 100 16 0.0655349
8 15 100 16 0.111451
9 15 100 16 0.16476
10 15 100 16 0.182224
11 15 100 16 0.134229
12 15 100 16 0.112464
13 15 100 16 0.0777408
14 15 100 16 0.0438322
15 15 100 16 0.0340028
16 15 100 16 0.0144145
1 16 100 16 0.00172969
2 16 100 16 0.0044926
3 16 100 16 0.00900541
4 16 100 16 0.00299427
5 16 100 16 0.0100336
6 16 100 16 0.0118879
7 16 100 16 0.0585563
8 16 100 16 0.0980053
9 16 100 16 0.144714
10 16 100 16 0.16701
11 16 100 16 0.15024
12 16 100 16 0.116845
13 16 100 16 0.100862
14 16 100 16 0.0542424
15 16 100 16 0.0275148
16 16 100 16 0.0418658
1 17 100 16 0.000432749
2 17 100 16 0.00360612
3 17 100 16 0.00156777
4 17 100 16 0.00675224
5 17 100 16 0.00722894
6 17 100 16 0.0245397
7 17 100 16 0.0280445
8 17 100 16 0.0689306
9 17 100 16 0.113185
10 17 100 16 0.143309
11 17 100 16 0.158248
12 17 100 16 0.131097
13 17 100 16 0.124441
14 17 100 16 0.0716566
15 17 100 16 0.0701299
16 17 100 16 0.04683
1 18 100 16 1.30793e-05
2 18 100 16 0.00655216
3 18 100 16 0.00569922
4 18 100 16 0.00389534
5 18 100 16 0.00497841
6 18 100 16 0.00859145
7 18 100 16 0.0223277
8 18 100 16 0.0445333
9 18 100 16 0.0908946
10 18 100 16 0.134014
11 18 100 16 0.162966
12 18 100 16 0.13563
13 18 100 16 0.132506
14 18 100 16 0.105371
15 18 100 16 0.0805738
16 18 100 16 0.0614538
1 19 100 16 8.42948e-06
2 19 100 16 0.00091657
3 19 100 16 0.00259204
4 19 100 16 0.00291765
5 19 100 16 0.00625737
6 19 100 16 0.0116626
7 19 100 16 0.0124673
8 19 100 16 0.0343023
9 19 100 16 0.0647779
10 19 100 16 0.119268
11 19 100 16 0.129723
12 19 100 16 0.157062
13 19 100 16 0.151935
14 19 100 16 0.121537
15 19 100 16 0.0996486
16 19 100 16 0.084925
1 20 100 16 6.82308e-05
2 20 100 16 0.00140382
3 20 100 16 0.00125332
4 20 100 16 0.0052237
5 20 100 16 0.00229091
6 20 100 16 0.00404212
7 20 100 16 0.0221518
8 20 100 16 0.0246195
9 20 100 16 0.0539948
10 20 100 16 0.0794964
11 20 100 16 0.110736
12 20 100 16 0.143933
13 20 100 16 0.170174
14 20 100 16 0.139312
15 20 100 16 0.110404
16 20 100 16 0.130897
1 21 100 16 0.00205479
2 21 100 16 0.00191458
3 21 100 16 0.00526956
4 21 100 16 0.00282429
5 21 100 16 0.00212618
6 21 100 16 0.00584275
7 21 100 16 0.00522694
8 21 100 16 0.0109875
9 21 100 16 0.0347785
10 21 100 16 0.0508123
11 21 100 16 0.124417
12 21 100 16 0.137011
13 21 100 16 0.169641
14 21 100 16 0.152917
15 21 100 16 0.143186
16 21 100 16 0.15099
1 22 100 16 0.000139582
2 22 100 16 0.00626094
3 22 100 16 0.00587425
4 22 100 16 0.0031989
5 22 100 16 0.00824536
6 22 100 16 0.00798799
7 22 100 16 0.00718235
8 22 100 16 0.0111586
9 22 100 16 0.0245841
10 22 100 16 0.057907
11 22 100 16 0.0885695
12 22 100 16 0.130796
13 22 100 16 0.169965
14 22 100 16 0.179576
15 22 100 16 0.14097
16 22 100 16 0.157585
1 23 100 16 0.00340569
2 23 100 16 0.00651983
3 23 100 16 0.00782916
4 23 100 16 0.00697003
5 23 100 16 0.00409001
6 23 100 16 0.00758547
7 23 100 16 0.00727721
8 23 100 16 0.0103546
9 23 100 16 0.0121522
10 23 100 16 0.0528793
11 23 100 16 0.088822
12 23 100 16 0.106684
13 23 100 16 0.160826
14 23 100 16 0.157527
15 23 100 16 0.198456
16 23 100 16 0.168621
1 24 100 16 0.000989056
2 24 100 16 0.00515737
3 24 100 16 0.00321006
4 24 100 16 0.0128684
5 24 100 16 0.0086655
6 24 100 16 0.00990727
7 24 100 16 0.00541049
8 24 100 16 0.00744673
9 24 100 16 0.0207879
10 24 100 16 0.0227932
11 24 100 16 0.0690251
12 24 100 16 0.13529
13 24 100 16 0.111617
14 24 100 16 0.196451
15 24 100 16 0.173233
16 24 100 16 0.217148
1 25 100 16 0.00239542
2 25 100 16 0.000481288
3 25 100 16 0.00423338
4 25 100 16 0.00133044
5 25 100 16 0.0126859
6 25 100 16 0.00950034
7 25 100 16 0.0123461
8 25 100 16 0.0126058
9 25 100 16 0.0229929
10 25 100 16 0.0173224
11 25 100 16 0.0481513
12 25 100 16 0.0974217
13 25 100 16 0.136284
14 25 100 16 0.162224
15 25 100 16 0.213875
16 25 100 16 0.24615
1 26 100 16 2.10974e-05
2 26 100 16 0.00211447
3 26 100 16 0.002745
4 26 100 16 0.00342721
5 26 100 16 0.0074642
6 26 100 16 0.00352348
7 26 100 16 0.000581352
8 26 100 16 0.00459639
9 26 100 16 0.00443443
10 26 100 16 0.0269385
11 26 100 16 0.0398688
12 26 100 16 0.0917403
13 26 100 16 0.155294
14 26 100 16 0.192203
15 26 100 16 0.205688
16 26 100 16 0.25936
1 27 100 16 0.00441185
2 27 100 16 0.00857407
3 27 100 16 0.0132667
4 27 100 16 0.0103757
5 27 100 16 0.00667706
6 27 100 16 0.009165
7 27 100 16 0.00651955
8 27 100 16 0.0159398
9 27 100 16 0.0170091
10 27 100 16 0.0243757
11 27 100 16 0.0472527
12 27 100 16 0.0605916
13 27 100 16 0.0788955
14 27 100 16 0.150621
15 27 100 16 0.261103
16 27 100 16 0.285223
1 28 100 16 6.06961e-05
2 28 100 16 1.03309e-05
3 28 100 16 2.10963e-05
4 28 100 16 3.90354e-05
5 28 100 16 0.000550338
6 28 100 16 0.00577158
7 28 100 16 0.0145899
8 28 100 16 0.0143213
9 28 100 16 0.0107924
10 28 100 16 0.016425
11 28 100 16 0.0142713
12 28 100 16 0.0451298
13 28 100 16 0.136026
14 28 100 16 0.181482
15 28 100 16 0.234859
16 28 100 16 0.325651
1 29 100 16 1.60587e-05
2 29 100 16 0.00871691
3 29 100 16 0.00362465
4 29 100 16 0.00875335
5 29 100 16 5.35442e-05
6 29 100 16 0.0117837
7 29 100 16 0.00150892
8 29 100 16 0.0109418
9 29 100 16 0.013108
10 29 100 16 0.0154289
11 29 100 16 0.0199691
12 29 100 16 0.0560463
13 29 100 16 0.0858057
14 29 100 16 0.172063
15 29 100 16 0.241882
16 29 100 16 0.350298
1 30 100 16 2.61149e-06
2 30 100 16 0.000161673
3 30 100 16 0.00147449
4 30 100 16 0.0092175
5 30 100 16 0.000220345
6 30 100 16 0.00719022
7 30 100 16 0.000172974
8 30 100 16 0.00198355
9 30 100 16 0.00793232
10 30 100 16 0.0150971
11 30 100 16 0.0280557
12 30 100 16 0.0512528
13 30 100 16 0.0732797
14 30 100 16 0.14949
15 30 100 16 0.270596
16 30 100 16 0.383873
1 31 100 16 2.03993e-05
2 31 100 16 8.94337e-05
3 31 100 16 2.20222e-05
4 31 100 16 2.53441e-05
5 31 100 16 0.00627451
6 31 100 16 0.000329225
7 31 100 16 0.000413345
8 31 100 16 0.00053081
9 31 100 16 0.00159386
10 31 100 16 0.00820418
11 31 100 16 0.0108165
12 31 100 16 0.00997538
13 31 100 16 0.0853489
14 31 100 16 0.140579
15 31 100 16 0.290122
16 31 100 16 0.445656
1 32 100 16 9.96697e-06
2 32 100 16 4.14551e-05
3 32 100 16 0.022854
4 32 100 16 1.64572e-05
5 32 100 16 0.0126576
6 32 100 16 0.0113585
7 32 100 16 0.0229148
8 32 100 16 0.0123514
9 32 100 16 0.0166544
10 32 100 16 0.0496799
11 32 100 16 0.0135957
12 32 100 16 0.00472884
13 32 100 16 0.0917327
14 32 100 16 0.143177
15 32 100 16 0.221436
16 32 100 16 0.376791
1 33 100 16 5.61485e-06
2 33 100 16 1.52303e-05
3 33 100 16 2.07628e-05
4 33 100 16 0.0168587
5 33 100 16 1.46451e-05
6 33 100 16 0.0325906
7 33 100 16 0.0301276
8 33 100 16 0.0198387
9 33 100 16 0.0203539
10 33 100 16 0.042805
11 33 100 16 0.00333012
12 33 100 16 0.0229592
13 33 100 16 0.0979863
14 33 100 16 0.148424
15 33 100 16 0.285964
16 33 100 16 0.278706
1 34 100 16 2.5635e-07
2 34 100 16 7.68035e-06
3 34 100 16 1.2514e-05
4 34 100 16 8.09061e-05
5 34 100 16 3.58305e-05
6 34 100 16 0.000611953
7 34 100 16 1.62954e-05
8 34 100 16 1.14533e-05
9 34 100 16 0.000433358
10 34 100 16 0.000377044
11 34 100 16 0.0349431
12 34 100 16 0.0670454
13 34 100 16 0.0256776
14 34 100 16 0.0681533
15 34 100 16 0.216414
16 34 100 16 0.586179
1 35 100 16 5.70464e-07
2 35 100 16 0.0368891
3 35 100 16 7.67683e-06
4 35 100 16 2.03113e-05
5 35 100 16 5.78658e-05
6 35 100 16 0.000959638
7 35 100 16 9.84646e-05
8 35 100 16 0.000671754
9 35 100 16 0.00161655
10 35 100 16 0.00129478
11 35 100 16 0.0777948
12 35 100 16 0.129156
13 35 100 16 0.11961
14 35 100 16 0.110635
15 35 100 16 0.209611
16 35 100 16 0.311576
1 36 100 16 0.0409653
2 36 100 16 1.28294e-07
3 36 100 16 1.94422e-05
4 36 100 16 0.0342967
5 36 100 16 1.04957e-05
6 36 100 16 0.0421824
7 36 100 16 0.0164474
8 36 100 16 0.0407425
9 36 100 16 0.0407758
10 36 100 16 0.05831
11 36 100 16 0.000113789
12 36 100 16 0.000334082
13 36 100 16 0.062154
14 36 100 16 0.0412343
15 36 100 16 0.213544
16 36 100 16 0.40887
1 37 100 16 5.26965e-06
2 37 100 16 1.02089e-05
3 37 100 16 7.77063e-05
4 37 100 16 1.51104e-06
5 37 100 16 0.000396507
6 37 100 16 0.000278723
7 37 100 16 7.22647e-06
8 37 100 16 6.95695e-05
9 37 100 16 5.45777e-06
10 37 100 16 1.49603e-05
11 37 100 16 5.74336e-05
12 37 100 16 0.00112106
13 37 100 16 0.065556
14 37 100 16 0.100958
15 37 100 16 0.0944518
16 37 100 16 0.736988
1 38 100 16 4.79421e-07
2 38 100 16 1.19709e-06
3 38 100 16 7.1582e-06
4 38 100 16 5.14526e-06
5 38 100 16 2.25846e-05
6 38 100 16 6.71439e-06
7 38 100 16 3.36176e-05
8 38 100 16 4.3644e-06
9 38 100 16 1.58989e-05
10 38 100 16 9.94561e-07
11 38 100 16 0.0474978
12 38 100 16 1.77107e-05
13 38 100 16 0.103645
14 38 100 16 0.10806
15 38 100 16 0.312692
16 38 100 16 0.42799
2 39 100 16 0.0978689
3 39 100 16 0.0979526
4 39 100 16 8.18544e-06
5 39 100 16 0.145696
6 39 100 16 0.00148089
7 39 100 16 0.0980575
8 39 100 16 8.05037e-06
9 39 100 16 0.0978407
10 39 100 16 1.82988e-05
11 39 100 16 0.0979326
12 39 100 16 0.00109104
13 39 100 16 0.0978939
14 39 100 16 0.0586866
15 39 100 16 0.0978364
16 39 100 16 0.107629
3 40 100 16 1.19683e-06
5 40 100 16 1.00974e-05
7 40 100 16 6.5478e-07
8 40 100 16 0.00109139
11 40 100 16 2.39125e-05
12 40 100 16 1.57982e-05
13 40 100 16 5.20197e-06
14 40 100 16 0.39113
15 40 100 16 0.402216
16 40 100 16 0.205506
1 41 100 16 4.10253e-06
3 41 100 16 3.80851e-06
5 41 100 16 3.65454e-06
6 41 100 16 0.000160677
7 41 100 16 1.68744e-05
8 41 100 16 4.79511e-06
12 41 100 16 7.79308e-05
14 41 100 16 0.00180293
15 41 100 16 0.00872101
16 41 100 16 0.989204
4 42 100 16 0.000714135
6 42 100 16 0.000172354
7 42 100 16 5.67503e-05
8 42 100 16 0.996936
9 42 100 16 0.000693383
10 42 100 16 0.000110162
12 42 100 16 6.00914e-05
14 42 100 16 0.00125707
1 43 100 16 0.00226853
4 43 100 16 0.00193164
7 43 100 16 8.33403e-05
8 43 100 16 0.995652
11 43 100 16 6.43691e-05
1 44 100 16 0.000955814
5 44 100 16 0.00056156
8 44 100 16 0.997546
14 44 100 16 0.000936286
14 45 100 16 0.333166
15 45 100 16 0.333446
16 45 100 16 0.333388
7 46 100 16 0.961321
8 46 100 16 0.0379591
9 46 100 16 0.000192404
12 46 100 16 0.000527136
1 0 100 17 0.0286037
2 0 100 17 0.0384535
3 0 100 17 0.0590973
4 0 100 17 0.0672683
5 0 100 17 0.0604647
6 0 100 17 0.0612432
7 0 100 17 0.0629018
8 0 100 17 0.0531662
9 0 100 17 0.0615836
10 0 100 17 0.0621436
11 0 100 17 0.0661825
12 0 100 17 0.0648099
13 0 100 17 0.0606351
14 0 100 17 0.0649989
15 0 100 17 0.0790437
16 0 100 17 0.0649415
17 0 100 17 0.0444625
1 1 100 17 0.881212
2 1 100 17 0.0536304
3 1 100 17 0.021505
4 1 100 17 0.00802239
5 1 100 17 0.00830341
6 1 100 17 0.00442341
7 1 100 17 0.00324709
8 1 100 17 0.00322775
9 1 100 17 0.00303341
