0 1 2 100 2.05251e-06
1 1 2 100 4.76906e-05
2 1 2 100 0.99995
0 2 2 100 0.199998
1 2 2 100 0.2
2 2 2 100 0.600001
0 3 2 100 0.282844
1 3 2 100 0.710775
2 3 2 100 0.00638058
2 4 2 100 1
0 5 2 100 0.333334
2 5 2 100 0.666666
0 6 2 100 0.5
2 6 2 100 0.5
2 7 2 100 1
0 8 2 100 2.82292e-05
2 8 2 100 0.999972
2 9 2 100 1
0 10 2 100 1
0 1 3 100 5.07461e-05
1 1 3 100 0.800141
2 1 3 100 0.122311
3 1 3 100 0.0774977
0 2 3 100 0.553444
1 2 3 100 0.180686
2 2 3 100 0.172158
3 2 3 100 0.0937121
0 3 3 100 0.0422032
1 3 3 100 0.187919
2 3 3 100 0.596083
3 3 3 100 0.173795
0 4 3 100 0.461985
1 4 3 100 0.0964347
2 4 3 100 0.172697
3 4 3 100 0.268882
0 5 3 100 0.137839
1 5 3 100 0.0827884
2 5 3 100 0.156388
3 5 3 100 0.622985
0 6 3 100 0.729178
1 6 3 100 0.0571347
2 6 3 100 0.0597359
3 6 3 100 0.153951
0 7 3 100 0.691506
1 7 3 100 0.00189656
2 7 3 100 0.0564824
3 7 3 100 0.250116
0 8 3 100 0.000102038
1 8 3 100 0.000739513
3 8 3 100 0.999158
0 9 3 100 1
0 1 4 100 0.000132435
1 1 4 100 0.706652
2 1 4 100 0.19562
3 1 4 100 0.00876991
4 1 4 100 0.0888248
0 2 4 100 0.370819
1 2 4 100 0.236828
2 2 4 100 0.21264
3 2 4 100 0.0943896
4 2 4 100 0.0853234
0 3 4 100 0.16466
1 3 4 100 0.122411
2 3 4 100 0.432708
3 3 4 100 0.176293
4 3 4 100 0.103927
0 4 4 100 0.380956
1 4 4 100 0.0725157
2 4 4 100 0.184243
3 4 4 100 0.22851
4 4 4 100 0.133775
0 5 4 100 0.135133
1 5 4 100 0.0267352
2 5 4 100 0.106009
3 5 4 100 0.334427
4 5 4 100 0.397696
0 6 4 100 0.468042
1 6 4 100 0.0261077
2 6 4 100 0.0352064
3 6 4 100 0.0442601
4 6 4 100 0.426384
0 7 4 100 0.168291
1 7 4 100 0.00350696
2 7 4 100 0.0993652
3 7 4 100 0.107275
4 7 4 100 0.621561
0 8 4 100 0.708649
1 8 4 100 0.000258921
2 8 4 100 0.0407929
3 8 4 100 0.00257314
4 8 4 100 0.247726
0 9 4 100 0.620516
3 9 4 100 0.0914652
4 9 4 100 0.288019
0 10 4 100 0.325746
1 10 4 100 0.00303492
3 10 4 100 0.421219
4 10 4 100 0.25
0 11 4 100 0.345567
3 11 4 100 0.3211
4 11 4 100 0.333333
0 12 4 100 0.499737
1 12 4 100 0.000262626
3 12 4 100 0.500001
0 13 4 100 0.500001
4 13 4 100 0.499999
4 14 4 100 1
0 15 4 100 0.999828
1 15 4 100 0.000171841
0 16 4 100 0.993508
3 16 4 100 0.00626328
4 16 4 100 0.00022856
0 17 4 100 1
4 18 4 100 1
0 19 4 100 0.999732
1 19 4 100 0.000268128
0 1 5 100 9.39728e-05
1 1 5 100 0.763298
2 1 5 100 0.115755
3 1 5 100 0.0755737
4 1 5 100 0.0138326
5 1 5 100 0.0314466
0 2 5 100 0.238298
1 2 5 100 0.210282
2 2 5 100 0.357079
3 2 5 100 0.144678
4 2 5 100 0.0451257
5 2 5 100 0.00453728
0 3 5 100 0.265036
1 3 5 100 0.105771
2 3 5 100 0.41377
3 3 5 100 0.146247
4 3 5 100 0.0329782
5 3 5 100 0.036198
0 4 5 100 0.338894
1 4 5 100 0.0476362
2 4 5 100 0.238761
3 4 5 100 0.211362
4 4 5 100 0.125283
5 4 5 100 0.0380634
0 5 5 100 0.230398
1 5 5 100 0.0199719
2 5 5 100 0.191707
3 5 5 100 0.243911
4 5 5 100 0.143317
5 5 5 100 0.170695
0 6 5 100 0.372807
1 6 5 100 0.00522884
2 6 5 100 0.0746382
3 6 5 100 0.170401
4 6 5 100 0.171604
5 6 5 100 0.205321
0 7 5 100 0.177079
1 7 5 100 0.00035299
2 7 5 100 0.0667542
3 7 5 100 0.123348
4 7 5 100 0.291
5 7 5 100 0.341466
0 8 5 100 0.302152
1 8 5 100 7.74796e-05
2 8 5 100 0.0383135
3 8 5 100 0.0618552
4 8 5 100 0.180074
5 8 5 100 0.417528
0 9 5 100 0.321015
1 9 5 100 0.0190873
2 9 5 100 0.0682586
3 9 5 100 0.0381472
4 9 5 100 0.162023
5 9 5 100 0.391469
0 10 5 100 0.48898
1 10 5 100 0.0243236
2 10 5 100 0.0965971
3 10 5 100 0.0387553
4 10 5 100 0.0980693
5 10 5 100 0.253275
0 11 5 100 0.538027
1 11 5 100 3.98649e-06
2 11 5 100 0.0434112
3 11 5 100 3.83337e-05
4 11 5 100 0.220015
5 11 5 100 0.198505
0 12 5 100 0.475011
2 12 5 100 0.161537
3 12 5 100 0.000242743
4 12 5 100 0.0714998
5 12 5 100 0.29171
0 13 5 100 0.417842
2 13 5 100 0.249594
3 13 5 100 0.0453818
4 13 5 100 0.0385146
5 13 5 100 0.248667
0 14 5 100 0.31243
1 14 5 100 0.00106358
2 14 5 100 0.165614
3 14 5 100 0.0947196
4 14 5 100 0.00541267
5 14 5 100 0.420761
0 15 5 100 0.465318
2 15 5 100 0.200001
3 15 5 100 0.0681608
4 15 5 100 0.119681
5 15 5 100 0.146839
0 16 5 100 0.454693
2 16 5 100 0.181811
3 16 5 100 0.0909091
4 16 5 100 0.181677
5 16 5 100 0.0909091
0 17 5 100 0.319164
1 17 5 100 0.00028152
2 17 5 100 0.0132342
3 17 5 100 0.125
4 17 5 100 0.130301
5 17 5 100 0.412019
0 18 5 100 0.147552
2 18 5 100 0.138027
3 18 5 100 0.00018418
4 18 5 100 0.285694
5 18 5 100 0.428542
0 19 5 100 0.165538
3 19 5 100 1.5348e-05
4 19 5 100 0.272227
5 19 5 100 0.562219
0 20 5 100 0.340657
1 20 5 100 1.62951e-05
4 20 5 100 0.0188925
5 20 5 100 0.640434
0 21 5 100 0.334293
1 21 5 100 0.000143475
4 21 5 100 0.000740424
5 21 5 100 0.664823
0 22 5 100 0.400039
2 22 5 100 0.399961
5 22 5 100 0.2
0 23 5 100 0.0275729
2 23 5 100 0.25
3 23 5 100 0.246961
5 23 5 100 0.475466
0 24 5 100 0.24784
2 24 5 100 0.499884
5 24 5 100 0.252277
0 25 5 100 0.495431
2 25 5 100 0.249995
3 25 5 100 6.49337e-05
4 25 5 100 0.000443912
5 25 5 100 0.254065
0 26 5 100 0.250128
2 26 5 100 0.250001
3 26 5 100 0.499872
0 27 5 100 8.12419e-06
2 27 5 100 0.333334
3 27 5 100 0.666645
4 27 5 100 1.31343e-05
0 28 5 100 0.999902
4 28 5 100 9.84068e-05
0 29 5 100 0.010008
4 29 5 100 0.989992
0 30 5 100 2.18892e-05
1 30 5 100 1.4365e-05
2 30 5 100 0.999964
2 31 5 100 1
0 32 5 100 0.000138093
2 32 5 100 0.999862
3 33 5 100 1
0 34 5 100 0.000910562
5 34 5 100 0.999089
5 35 5 100 1
0 36 5 100 1
0 1 6 100 0.000435176
1 1 6 100 0.722413
2 1 6 100 0.136421
3 1 6 100 0.0358608
4 1 6 100 0.0341686
5 1 6 100 0.00817822
6 1 6 100 0.0625232
0 2 6 100 0.375044
1 2 6 100 0.222028
2 2 6 100 0.201577
3 2 6 100 0.0950668
4 2 6 100 0.0416176
5 2 6 100 0.0137629
6 2 6 100 0.0509043
0 3 6 100 0.220712
1 3 6 100 0.141477
2 3 6 100 0.275034
3 3 6 100 0.243874
4 3 6 100 0.0480449
5 3 6 100 0.0200409
6 3 6 100 0.0508178
0 4 6 100 0.258503
1 4 6 100 0.0778193
2 4 6 100 0.397281
3 4 6 100 0.138751
4 4 6 100 0.0653615
5 4 6 100 0.0296295
6 4 6 100 0.0326553
0 5 6 100 0.282277
1 5 6 100 0.060826
2 5 6 100 0.129529
3 5 6 100 0.161119
4 5 6 100 0.272408
5 5 6 100 0.0359718
6 5 6 100 0.057869
0 6 6 100 0.266096
1 6 6 100 0.0347328
2 6 6 100 0.0909521
3 6 6 100 0.220174
4 6 6 100 0.0839186
5 6 6 100 0.225687
6 6 6 100 0.0784406
0 7 6 100 0.33976
1 7 6 100 0.0359185
2 7 6 100 0.13022
3 7 6 100 0.130549
4 7 6 100 0.156003
5 7 6 100 0.102246
6 7 6 100 0.105305
0 8 6 100 0.210145
1 8 6 100 0.0196944
2 8 6 100 0.0378874
3 8 6 100 0.0768714
4 8 6 100 0.22408
5 8 6 100 0.151529
6 8 6 100 0.279793
0 9 6 100 0.408054
1 9 6 100 0.0171379
2 9 6 100 0.0228523
3 9 6 100 0.0475962
4 9 6 100 0.114309
5 9 6 100 0.251588
6 9 6 100 0.138463
0 10 6 100 0.41123
1 10 6 100 0.00991988
2 10 6 100 0.0134346
3 10 6 100 0.0329749
4 10 6 100 0.139532
5 10 6 100 0.186052
6 10 6 100 0.206857
0 11 6 100 0.268654
1 11 6 100 0.025532
2 11 6 100 0.014177
3 11 6 100 0.0345741
4 11 6 100 0.0802941
5 11 6 100 0.204583
6 11 6 100 0.372186
0 12 6 100 0.503276
1 12 6 100 0.0256684
2 12 6 100 0.020217
3 12 6 100 0.0254464
4 12 6 100 0.0629427
5 12 6 100 0.187871
6 12 6 100 0.174579
0 13 6 100 0.305838
1 13 6 100 0.0184761
2 13 6 100 0.0310002
3 13 6 100 0.047295
4 13 6 100 0.0881642
5 13 6 100 0.2201
6 13 6 100 0.289127
0 14 6 100 0.409924
1 14 6 100 0.0283222
2 14 6 100 0.0360279
3 14 6 100 0.0224875
4 14 6 100 0.0640905
5 14 6 100 0.155356
6 14 6 100 0.283792
0 15 6 100 0.370521
1 15 6 100 0.0221744
2 15 6 100 0.019686
3 15 6 100 0.0369438
4 15 6 100 0.146591
5 15 6 100 0.154957
6 15 6 100 0.249127
0 16 6 100 0.33081
1 16 6 100 0.0117948
2 16 6 100 0.000128816
3 16 6 100 0.0231927
4 16 6 100 0.0989067
5 16 6 100 0.170694
6 16 6 100 0.364473
0 17 6 100 0.36804
1 17 6 100 0.0301958
2 17 6 100 0.0507878
3 17 6 100 0.000597921
4 17 6 100 0.104323
5 17 6 100 0.239914
6 17 6 100 0.206141
0 18 6 100 0.276358
1 18 6 100 0.0411965
2 18 6 100 0.0987607
3 18 6 100 0.057121
4 18 6 100 0.093071
5 18 6 100 0.274589
6 18 6 100 0.158904
0 19 6 100 0.471669
2 19 6 100 0.057146
3 19 6 100 2.27079e-05
4 19 6 100 0.107527
5 19 6 100 0.0884054
6 19 6 100 0.27523
0 20 6 100 0.356369
2 20 6 100 0.106524
3 20 6 100 3.31757e-05
4 20 6 100 0.0699369
5 20 6 100 0.108635
6 20 6 100 0.358502
0 21 6 100 0.436077
1 21 6 100 0.0313152
2 21 6 100 0.0869485
3 21 6 100 1.90957e-05
4 21 6 100 0.133629
5 21 6 100 0.135819
6 21 6 100 0.176193
0 22 6 100 0.224897
1 22 6 100 0.000485033
2 22 6 100 0.218682
3 22 6 100 1.91959e-05
4 22 6 100 0.0540333
5 22 6 100 0.269235
6 22 6 100 0.232649
0 23 6 100 0.324753
1 23 6 100 0.0553228
2 23 6 100 0.165855
3 23 6 100 0.00143941
4 23 6 100 0.111043
5 23 6 100 0.230481
6 23 6 100 0.111106
0 24 6 100 0.327166
1 24 6 100 0.0289948
2 24 6 100 0.0591526
3 24 6 100 0.0565073
4 24 6 100 0.117807
5 24 6 100 0.0574812
6 24 6 100 0.352891
0 25 6 100 0.372854
2 25 6 100 0.187528
3 25 6 100 0.00251194
4 25 6 100 0.125
5 25 6 100 0.249607
6 25 6 100 0.0624988
0 26 6 100 0.284463
1 26 6 100 0.0714279
2 26 6 100 0.142857
3 26 6 100 0.00117726
4 26 6 100 0.0715029
5 26 6 100 0.0714286
6 26 6 100 0.357143
0 27 6 100 0.219842
1 27 6 100 0.0714286
2 27 6 100 0.0714313
3 27 6 100 0.0707205
4 27 6 100 0.211469
5 27 6 100 0.0714316
6 27 6 100 0.283677
0 28 6 100 0.250121
1 28 6 100 0.083333
2 28 6 100 0.0827526
3 28 6 100 0.0829025
4 28 6 100 0.0838249
5 28 6 100 8.47726e-05
6 28 6 100 0.416981
0 29 6 100 0.699755
2 29 6 100 0.100012
3 29 6 100 0.1
4 29 6 100 0.000107523
6 29 6 100 0.100125
0 30 6 100 0.000131774
2 30 6 100 0.249902
3 30 6 100 0.125036
4 30 6 100 0.125
6 30 6 100 0.499929
0 31 6 100 0.496837
2 31 6 100 8.20734e-06
5 31 6 100 0.125032
6 31 6 100 0.378123
0 32 6 100 0.504403
2 32 6 100 1.5257e-05
3 32 6 100 0.12488
4 32 6 100 0.124971
5 32 6 100 0.24561
6 32 6 100 0.000121482
0 33 6 100 0.142772
2 33 6 100 0.283379
3 33 6 100 0.142857
4 33 6 100 0.28806
5 33 6 100 5.4599e-05
6 33 6 100 0.142877
0 34 6 100 0.11421
2 34 6 100 0.411303
3 34 6 100 0.142885
4 34 6 100 0.170778
6 34 6 100 0.160824
0 35 6 100 0.428617
2 35 6 100 0.142856
4 35 6 100 0.00590367
5 35 6 100 0.1429
6 35 6 100 0.279724
0 36 6 100 0.193516
1 36 6 100 0.0992953
3 36 6 100 1.13878e-05
5 36 6 100 0.428585
6 36 6 100 0.278592
0 37 6 100 0.287648
2 37 6 100 0.28531
3 37 6 100 0.142857
4 37 6 100 0.142834
5 37 6 100 0.14135
0 38 6 100 0.168353
1 38 6 100 0.165727
4 38 6 100 0.166602
6 38 6 100 0.499317
0 39 6 100 0.399787
1 39 6 100 7.21003e-06
3 39 6 100 0.199295
4 39 6 100 0.000297007
5 39 6 100 0.200663
6 39 6 100 0.199951
0 40 6 100 0.40001
2 40 6 100 0.399991
4 40 6 100 0.199999
0 41 6 100 0.333333
6 41 6 100 0.666667
0 42 6 100 0.514149
6 42 6 100 0.485851
6 43 6 100 1
0 44 6 100 1
0 1 7 100 0.000534373
1 1 7 100 0.689739
2 1 7 100 0.113713
3 1 7 100 0.0656566
4 1 7 100 0.0430301
5 1 7 100 0.0276751
6 1 7 100 0.0251663
7 1 7 100 0.0344856
0 2 7 100 0.166717
1 2 7 100 0.283689
2 2 7 100 0.298116
3 2 7 100 0.122653
4 2 7 100 0.0411725
5 2 7 100 0.0344459
6 2 7 100 0.0217308
7 2 7 100 0.0314749
0 3 7 100 0.193319
1 3 7 100 0.174432
2 3 7 100 0.271612
3 3 7 100 0.185986
4 3 7 100 0.0716563
5 3 7 100 0.0382322
6 3 7 100 0.0189194
7 3 7 100 0.0458437
0 4 7 100 0.21811
1 4 7 100 0.0646598
2 4 7 100 0.270016
3 4 7 100 0.208099
4 4 7 100 0.104216
5 4 7 100 0.0486931
6 4 7 100 0.0316906
7 4 7 100 0.0545146
0 5 7 100 0.264288
1 5 7 100 0.0495244
2 5 7 100 0.135566
3 5 7 100 0.217027
4 5 7 100 0.153967
5 5 7 100 0.0795755
6 5 7 100 0.0525786
7 5 7 100 0.0474742
0 6 7 100 0.268503
1 6 7 100 0.0229485
2 6 7 100 0.0750253
3 6 7 100 0.210455
4 6 7 100 0.162668
5 6 7 100 0.13026
6 6 7 100 0.0619834
7 6 7 100 0.0681566
0 7 7 100 0.24203
1 7 7 100 0.0174265
2 7 7 100 0.0808469
3 7 7 100 0.11178
4 7 7 100 0.211446
5 7 7 100 0.131395
6 7 7 100 0.110192
7 7 7 100 0.0948835
0 8 7 100 0.273612
1 8 7 100 0.0154074
2 8 7 100 0.0587349
3 8 7 100 0.087457
4 8 7 100 0.149245
5 8 7 100 0.173826
6 8 7 100 0.11428
7 8 7 100 0.127438
0 9 7 100 0.289221
1 9 7 100 0.0173588
2 9 7 100 0.0361982
3 9 7 100 0.0587903
4 9 7 100 0.109814
5 9 7 100 0.182705
6 9 7 100 0.142815
7 9 7 100 0.163098
0 10 7 100 0.333967
1 10 7 100 0.0157864
2 10 7 100 0.0267491
3 10 7 100 0.0387482
4 10 7 100 0.113939
5 10 7 100 0.128644
6 10 7 100 0.15584
7 10 7 100 0.186326
0 11 7 100 0.286602
1 11 7 100 0.015572
2 11 7 100 0.0227699
3 11 7 100 0.0278817
4 11 7 100 0.091245
5 11 7 100 0.143899
6 11 7 100 0.172767
7 11 7 100 0.239263
0 12 7 100 0.30455
1 12 7 100 0.0165496
2 12 7 100 0.0235625
3 12 7 100 0.0260588
4 12 7 100 0.0711067
5 12 7 100 0.15129
6 12 7 100 0.17426
7 12 7 100 0.232622
0 13 7 100 0.277538
1 13 7 100 0.0171867
2 13 7 100 0.0204097
3 13 7 100 0.0289746
4 13 7 100 0.0587441
5 13 7 100 0.138633
6 13 7 100 0.172708
7 13 7 100 0.285806
0 14 7 100 0.359596
1 14 7 100 0.0118955
2 14 7 100 0.0125094
3 14 7 100 0.0159235
4 14 7 100 0.0466474
5 14 7 100 0.113313
6 14 7 100 0.159604
7 14 7 100 0.28051
0 15 7 100 0.386927
1 15 7 100 0.0187483
2 15 7 100 0.000552921
3 15 7 100 0.0217536
4 15 7 100 0.0403338
5 15 7 100 0.0866394
6 15 7 100 0.209296
7 15 7 100 0.235749
0 16 7 100 0.371126
1 16 7 100 0.00546258
2 16 7 100 0.0105453
3 16 7 100 0.00622894
4 16 7 100 0.0323977
5 16 7 100 0.105974
6 16 7 100 0.174566
7 16 7 100 0.2937
0 17 7 100 0.370788
1 17 7 100 0.017745
2 17 7 100 0.00784286
3 17 7 100 0.000116986
4 17 7 100 0.0315756
5 17 7 100 0.0694473
6 17 7 100 0.11926
7 17 7 100 0.383224
0 18 7 100 0.344848
1 18 7 100 0.0403138
2 18 7 100 0.00879488
3 18 7 100 0.0165747
4 18 7 100 0.0414788
5 18 7 100 0.0321181
6 18 7 100 0.135166
7 18 7 100 0.380705
0 19 7 100 0.356718
1 19 7 100 0.0106745
2 19 7 100 0.0525338
3 19 7 100 0.0533788
4 19 7 100 0.0626367
5 19 7 100 0.0417112
6 19 7 100 0.119139
7 19 7 100 0.303208
0 20 7 100 0.463498
1 20 7 100 0.0131048
2 20 7 100 0.0302972
3 20 7 100 0.0290126
4 20 7 100 0.0766385
5 20 7 100 0.0446463
6 20 7 100 0.104484
7 20 7 100 0.238319
0 21 7 100 0.383176
1 21 7 100 0.0396714
2 21 7 100 0.020869
3 21 7 100 0.0643438
4 21 7 100 0.130305
5 21 7 100 0.0800014
6 21 7 100 0.0627317
7 21 7 100 0.218901
0 22 7 100 0.343611
1 22 7 100 0.0443955
2 22 7 100 0.0540826
3 22 7 100 0.0807663
4 22 7 100 0.16862
5 22 7 100 0.0385513
6 22 7 100 0.134457
7 22 7 100 0.135516
0 23 7 100 0.485098
1 23 7 100 0.0324964
2 23 7 100 0.0322578
3 23 7 100 0.0967541
4 23 7 100 0.135596
5 23 7 100 0.0241704
6 23 7 100 0.129033
7 23 7 100 0.0645938
0 24 7 100 0.341533
1 24 7 100 2.23509e-05
2 24 7 100 0.0833344
3 24 7 100 0.0833424
4 24 7 100 0.200468
5 24 7 100 0.00150376
6 24 7 100 0.166186
7 24 7 100 0.12361
0 25 7 100 0.471069
2 25 7 100 0.0434841
3 25 7 100 0.0434854
4 25 7 100 0.000705254
5 25 7 100 0.00779329
6 25 7 100 0.173303
7 25 7 100 0.26016
0 26 7 100 0.18529
2 26 7 100 0.136291
3 26 7 100 0.0450045
4 26 7 100 0.135988
5 26 7 100 0.0434253
6 26 7 100 0.272791
7 26 7 100 0.181209
0 27 7 100 0.424865
1 27 7 100 4.05308e-05
2 27 7 100 0.000803966
3 27 7 100 0.0690045
4 27 7 100 0.0500026
5 27 7 100 0.0816502
6 27 7 100 0.244785
7 27 7 100 0.128848
0 28 7 100 0.272305
4 28 7 100 0.125174
5 28 7 100 0.125297
6 28 7 100 0.230389
7 28 7 100 0.246835
0 29 7 100 0.33366
1 29 7 100 3.90241e-06
2 29 7 100 2.08251e-05
3 29 7 100 0.067083
4 29 7 100 0.199632
5 29 7 100 0.132622
6 29 7 100 0.199978
7 29 7 100 0.0669993
0 30 7 100 0.362939
1 30 7 100 0.000119532
2 30 7 100 8.3306e-06
3 30 7 100 1.77722e-05
4 30 7 100 0.0714431
5 30 7 100 0.213768
6 30 7 100 0.209955
7 30 7 100 0.14175
0 31 7 100 0.335295
1 31 7 100 0.163818
2 31 7 100 0.084218
5 31 7 100 0.0833336
6 31 7 100 0.250001
7 31 7 100 0.0833344
0 32 7 100 0.315428
1 32 7 100 7.76337e-06
2 32 7 100 0.115398
3 32 7 100 0.000902326
4 32 7 100 0.25
5 32 7 100 0.126333
7 32 7 100 0.19193
0 33 7 100 0.14288
2 33 7 100 0.142853
4 33 7 100 0.142857
6 33 7 100 0.428564
7 33 7 100 0.142846
0 34 7 100 0.262555
1 34 7 100 0.141107
2 34 7 100 5.78245e-05
3 34 7 100 0.14117
5 34 7 100 0.169336
6 34 7 100 0.285774
0 35 7 100 0.142859
2 35 7 100 0.142855
4 35 7 100 0.142875
5 35 7 100 0.142857
6 35 7 100 0.304414
7 35 7 100 0.12414
0 36 7 100 0.476243
2 36 7 100 0.0947117
4 36 7 100 0.142857
6 36 7 100 0.143334
7 36 7 100 0.142855
0 37 7 100 0.195325
1 37 7 100 0.199966
3 37 7 100 0.00471203
4 37 7 100 0.199997
6 37 7 100 0.2
7 37 7 100 0.199999
0 38 7 100 0.200019
1 38 7 100 0.200403
3 38 7 100 0.198862
5 38 7 100 0.000740539
6 38 7 100 0.2
7 38 7 100 0.199975
0 39 7 100 0.40219
3 39 7 100 0.197388
4 39 7 100 0.000421644
6 39 7 100 0.2
7 39 7 100 0.2
0 40 7 100 0.197453
1 40 7 100 0.200338
2 40 7 100 3.76044e-06
3 40 7 100 0.598673
5 40 7 100 0.000865458
6 40 7 100 0.00266667
0 41 7 100 0.236622
1 41 7 100 0.2
4 41 7 100 0.00499149
6 41 7 100 0.364448
7 41 7 100 0.193938
0 42 7 100 0.385381
1 42 7 100 0.4
5 42 7 100 0.199997
6 42 7 100 0.0146193
7 42 7 100 2.82597e-06
0 43 7 100 0.435572
2 43 7 100 0.2
3 43 7 100 0.164429
4 43 7 100 0.199999
0 44 7 100 0.499999
1 44 7 100 0.25
4 44 7 100 0.25
0 45 7 100 0.389551
1 45 7 100 0.333035
3 45 7 100 1.56035e-05
4 45 7 100 0.277399
0 46 7 100 0.277034
4 46 7 100 0.0559923
5 46 7 100 0.666669
6 46 7 100 0.000304896
0 47 7 100 0.333333
4 47 7 100 0.333333
5 47 7 100 0.333333
0 48 7 100 0.0129745
3 48 7 100 1.98167e-05
4 48 7 100 0.662377
5 48 7 100 0.324629
4 49 7 100 0.333352
5 49 7 100 0.333334
7 49 7 100 0.333314
0 50 7 100 0.339791
2 50 7 100 0.660209
0 51 7 100 0.499545
3 51 7 100 0.500128
5 51 7 100 0.000326518
0 52 7 100 8.30613e-05
4 52 7 100 0.499918
5 52 7 100 0.499999
0 53 7 100 0.499978
1 53 7 100 0.5
7 53 7 100 2.18267e-05
0 54 7 100 5.11901e-05
1 54 7 100 0.999949
0 55 7 100 1
0 1 8 100 0.000434736
1 1 8 100 0.663803
2 1 8 100 0.106254
3 1 8 100 0.0491728
4 1 8 100 0.0531435
5 1 8 100 0.0306782
6 1 8 100 0.0220675
7 1 8 100 0.0186701
8 1 8 100 0.0557757
0 2 8 100 0.152041
1 2 8 100 0.314121
2 2 8 100 0.266748
3 2 8 100 0.0934909
4 2 8 100 0.0667655
5 2 8 100 0.0370846
6 2 8 100 0.0171376
7 2 8 100 0.0151031
8 2 8 100 0.0375076
0 3 8 100 0.196085
1 3 8 100 0.191346
2 3 8 100 0.287035
3 3 8 100 0.134927
4 3 8 100 0.0620532
5 3 8 100 0.0476373
6 3 8 100 0.0235558
7 3 8 100 0.0149572
8 3 8 100 0.0424042
0 4 8 100 0.175254
1 4 8 100 0.111732
2 4 8 100 0.256391
3 4 8 100 0.198322
4 4 8 100 0.112527
5 4 8 100 0.053314
6 4 8 100 0.0320829
7 4 8 100 0.0236582
8 4 8 100 0.0367186
0 5 8 100 0.227394
1 5 8 100 0.0680796
2 5 8 100 0.173138
3 5 8 100 0.215332
4 5 8 100 0.154644
5 5 8 100 0.0579456
6 5 8 100 0.0423033
7 5 8 100 0.0245705
8 5 8 100 0.0365925
0 6 8 100 0.294219
1 6 8 100 0.042303
2 6 8 100 0.099359
3 6 8 100 0.186376
4 6 8 100 0.163439
5 6 8 100 0.0843648
6 6 8 100 0.0515275
7 6 8 100 0.025783
8 6 8 100 0.0526292
0 7 8 100 0.269287
1 7 8 100 0.0346383
2 7 8 100 0.0485382
3 7 8 100 0.149912
4 7 8 100 0.179617
5 7 8 100 0.130649
6 7 8 100 0.0751549
7 7 8 100 0.0454913
8 7 8 100 0.0667121
0 8 8 100 0.272812
1 8 8 100 0.0218574
2 8 8 100 0.0296819
3 8 8 100 0.109578
4 8 8 100 0.155619
5 8 8 100 0.164454
6 8 8 100 0.10851
7 8 8 100 0.0493589
8 8 8 100 0.0881296
0 9 8 100 0.27096
1 9 8 100 0.0228799
2 9 8 100 0.0258644
3 9 8 100 0.0632031
4 9 8 100 0.114533
5 9 8 100 0.165265
6 9 8 100 0.124434
7 9 8 100 0.111034
8 9 8 100 0.101825
0 10 8 100 0.272274
1 10 8 100 0.0229665
2 10 8 100 0.0199721
3 10 8 100 0.039661
4 10 8 100 0.0853602
5 10 8 100 0.153139
6 10 8 100 0.143533
7 10 8 100 0.111696
8 10 8 100 0.151397
0 11 8 100 0.273669
1 11 8 100 0.0251333
2 11 8 100 0.0257688
3 11 8 100 0.0370282
4 11 8 100 0.052921
5 11 8 100 0.126755
6 11 8 100 0.163518
7 11 8 100 0.118636
8 11 8 100 0.17657
0 12 8 100 0.262556
1 12 8 100 0.0207704
2 12 8 100 0.0147722
3 12 8 100 0.0314948
4 12 8 100 0.0412935
5 12 8 100 0.107215
6 12 8 100 0.173755
7 12 8 100 0.146981
8 12 8 100 0.201161
0 13 8 100 0.262482
1 13 8 100 0.018137
2 13 8 100 0.00865118
3 13 8 100 0.0222076
4 13 8 100 0.0393025
5 13 8 100 0.0996301
6 13 8 100 0.176921
7 13 8 100 0.169646
8 13 8 100 0.203022
0 14 8 100 0.338154
1 14 8 100 0.0120968
2 14 8 100 0.011905
3 14 8 100 0.0215859
4 14 8 100 0.0189346
5 14 8 100 0.0699322
6 14 8 100 0.139595
7 14 8 100 0.156431
8 14 8 100 0.231366
0 15 8 100 0.331903
1 15 8 100 0.0199381
2 15 8 100 0.0146153
3 15 8 100 0.0162356
4 15 8 100 0.0280823
5 15 8 100 0.0484941
6 15 8 100 0.101157
7 15 8 100 0.151065
8 15 8 100 0.288509
0 16 8 100 0.335017
1 16 8 100 0.0176587
2 16 8 100 0.0113454
3 16 8 100 0.0135897
4 16 8 100 0.0181607
5 16 8 100 0.0497767
6 16 8 100 0.106048
7 16 8 100 0.169005
8 16 8 100 0.279398
0 17 8 100 0.405202
1 17 8 100 0.0150977
2 17 8 100 0.0209327
3 17 8 100 0.0188998
4 17 8 100 0.0240825
5 17 8 100 0.0383064
6 17 8 100 0.0855525
7 17 8 100 0.135417
8 17 8 100 0.256509
0 18 8 100 0.386169
1 18 8 100 0.0145974
2 18 8 100 0.00651515
3 18 8 100 0.0226773
4 18 8 100 0.0256416
5 18 8 100 0.0331441
6 18 8 100 0.0699434
7 18 8 100 0.180638
8 18 8 100 0.260674
0 19 8 100 0.410889
1 19 8 100 0.00842606
2 19 8 100 0.0205207
3 19 8 100 0.0343315
4 19 8 100 0.0442258
5 19 8 100 0.0317545
6 19 8 100 0.0774922
7 19 8 100 0.120295
8 19 8 100 0.252066
0 20 8 100 0.433859
1 20 8 100 0.00593273
2 20 8 100 0.024691
3 20 8 100 0.0295667
4 20 8 100 0.0265573
5 20 8 100 0.0411892
6 20 8 100 0.0981177
7 20 8 100 0.162854
8 20 8 100 0.177232
0 21 8 100 0.373685
2 21 8 100 0.0161987
3 21 8 100 0.0460378
4 21 8 100 0.0331285
5 21 8 100 0.0670718
6 21 8 100 0.088782
7 21 8 100 0.0976743
8 21 8 100 0.277422
0 22 8 100 0.360191
1 22 8 100 0.0206198
2 22 8 100 0.0413067
3 22 8 100 0.0206775
4 22 8 100 0.0409661
5 22 8 100 0.0412713
6 22 8 100 0.0617655
7 22 8 100 0.132912
8 22 8 100 0.28029
0 23 8 100 0.398497
1 23 8 100 0.0133011
2 23 8 100 0.0132605
3 23 8 100 0.0400004
4 23 8 100 0.0549384
5 23 8 100 0.066658
6 23 8 100 0.0455102
7 23 8 100 0.0809728
8 23 8 100 0.286861
0 24 8 100 0.538673
1 24 8 100 1.8643e-06
2 24 8 100 0.0181939
3 24 8 100 0.0363637
4 24 8 100 0.0363793
5 24 8 100 0.0480795
6 24 8 100 0.109073
7 24 8 100 0.0546975
8 24 8 100 0.158539
0 25 8 100 0.165737
1 25 8 100 0.0256381
2 25 8 100 0.0437213
3 25 8 100 0.0511197
4 25 8 100 0.0256474
5 25 8 100 0.0512315
6 25 8 100 0.12812
7 25 8 100 0.150215
8 25 8 100 0.35857
0 26 8 100 0.439552
1 26 8 100 0.0270299
2 26 8 100 0.0269897
3 26 8 100 3.65401e-06
4 26 8 100 0.0536666
5 26 8 100 0.0270732
6 26 8 100 0.104625
7 26 8 100 0.134158
8 26 8 100 0.186901
0 27 8 100 0.205688
1 27 8 100 0.0292785
2 27 8 100 0.0333841
3 27 8 100 6.88445e-05
4 27 8 100 0.00620211
5 27 8 100 0.0333242
6 27 8 100 0.0994718
7 27 8 100 0.133162
8 27 8 100 0.45942
0 28 8 100 0.291972
1 28 8 100 0.0346702
2 28 8 100 1.94711e-06
3 28 8 100 0.00179833
4 28 8 100 0.0688273
5 28 8 100 0.0689686
6 28 8 100 0.103461
7 28 8 100 0.167401
8 28 8 100 0.2629
0 29 8 100 0.467269
1 29 8 100 0.0698812
3 29 8 100 0.0384616
4 29 8 100 4.48576e-06
5 29 8 100 0.115384
6 29 8 100 0.0770043
7 29 8 100 0.0383718
8 29 8 100 0.193624
0 30 8 100 0.374809
3 30 8 100 0.0527946
4 30 8 100 0.105239
5 30 8 100 0.105263
6 30 8 100 0.157901
7 30 8 100 0.132402
8 30 8 100 0.0715921
0 31 8 100 0.330687
2 31 8 100 0.0526281
3 31 8 100 0.101055
5 31 8 100 0.1477
6 31 8 100 0.105263
7 31 8 100 0.0606068
8 31 8 100 0.20206
0 32 8 100 0.23041
1 32 8 100 0.111058
2 32 8 100 0.102236
3 32 8 100 0.110369
4 32 8 100 3.56331e-06
6 32 8 100 0.166636
7 32 8 100 0.00156694
8 32 8 100 0.277721
0 33 8 100 0.288278
1 33 8 100 0.0658611
2 33 8 100 0.175815
3 33 8 100 0.0582424
4 33 8 100 0.0588445
6 33 8 100 4.55374e-06
7 33 8 100 0.117623
8 33 8 100 0.235331
0 34 8 100 0.364817
1 34 8 100 0.0666667
2 34 8 100 0.199879
3 34 8 100 0.169305
7 34 8 100 0.132913
8 34 8 100 0.0664203
0 35 8 100 0.338761
1 35 8 100 2.47237e-05
3 35 8 100 0.0259102
4 35 8 100 0.0714285
5 35 8 100 0.0714256
7 35 8 100 0.280989
8 35 8 100 0.21146
0 36 8 100 0.250073
1 36 8 100 0.0832527
2 36 8 100 0.166667
3 36 8 100 0.0833331
4 36 8 100 3.91994e-06
6 36 8 100 0.0833335
7 36 8 100 0.249998
8 36 8 100 0.0833391
0 37 8 100 0.272377
1 37 8 100 0.000190398
2 37 8 100 0.27272
3 37 8 100 0.0910837
4 37 8 100 0.090901
7 37 8 100 0.0909091
8 37 8 100 0.181818
0 38 8 100 0.18436
1 38 8 100 4.61108e-05
2 38 8 100 0.152773
3 38 8 100 0.149993
5 38 8 100 0.0909021
6 38 8 100 0.0909091
7 38 8 100 0.331016
0 39 8 100 0.0088951
3 39 8 100 0.173036
4 39 8 100 0.0909091
7 39 8 100 0.545341
8 39 8 100 0.181818
0 40 8 100 0.185539
1 40 8 100 0.0906208
2 40 8 100 0.181805
3 40 8 100 7.41734e-05
4 40 8 100 3.7537e-06
6 40 8 100 0.0908963
7 40 8 100 0.363552
8 40 8 100 0.0875096
0 41 8 100 0.278192
2 41 8 100 0.22222
3 41 8 100 0.0551429
7 41 8 100 0.444445
0 42 8 100 0.111111
2 42 8 100 0.111111
4 42 8 100 0.111111
7 42 8 100 0.444444
8 42 8 100 0.222222
0 43 8 100 0.43636
3 43 8 100 0.111266
4 43 8 100 0.111111
6 43 8 100 0.111111
7 43 8 100 0.230152
0 44 8 100 0.286937
1 44 8 100 0.141545
3 44 8 100 0.142855
7 44 8 100 0.428559
8 44 8 100 0.000104197
0 45 8 100 0.294977
3 45 8 100 0.166666
5 45 8 100 0.16664
6 45 8 100 0.166763
7 45 8 100 0.166666
8 45 8 100 0.0382875
0 46 8 100 0.00676612
2 46 8 100 0.199995
4 46 8 100 0.39322
6 46 8 100 0.2
7 46 8 100 0.199993
8 46 8 100 2.57422e-05
0 47 8 100 0.208586
1 47 8 100 0.00016981
2 47 8 100 0.191253
3 47 8 100 0.199999
4 47 8 100 0.199992
6 47 8 100 0.2
0 48 8 100 0.0467452
2 48 8 100 0.2
4 48 8 100 0.2
5 48 8 100 0.153264
7 48 8 100 0.199991
8 48 8 100 0.2
0 49 8 100 0.200021
2 49 8 100 0.2
3 49 8 100 0.199979
4 49 8 100 0.200748
6 49 8 100 0.199251
0 50 8 100 0.249989
2 50 8 100 0.25
4 50 8 100 0.499995
8 50 8 100 1.61757e-05
0 51 8 100 0.666269
3 51 8 100 0.333333
7 51 8 100 0.000398172
0 52 8 100 0.33341
4 52 8 100 0.666579
8 52 8 100 1.10591e-05
0 53 8 100 0.499994
1 53 8 100 6.07794e-06
4 53 8 100 0.499999
1 54 8 100 0.5
6 54 8 100 0.5
0 55 8 100 0.0104209
1 55 8 100 0.489579
6 55 8 100 0.5
0 56 8 100 0.217779
3 56 8 100 0.782221
0 57 8 100 1
0 1 9 100 0.00135089
1 1 9 100 0.628403
2 1 9 100 0.127592
3 1 9 100 0.0512696
4 1 9 100 0.0526792
5 1 9 100 0.0217465
6 1 9 100 0.0170036
7 1 9 100 0.0263223
8 1 9 100 0.016898
9 1 9 100 0.0567349
0 2 9 100 0.159553
1 2 9 100 0.250761
2 2 9 100 0.269742
3 2 9 100 0.130476
4 2 9 100 0.0613023
5 2 9 100 0.0268615
6 2 9 100 0.0183817
7 2 9 100 0.0203847
8 2 9 100 0.0185474
9 2 9 100 0.0439909
0 3 9 100 0.155609
1 3 9 100 0.170697
2 3 9 100 0.275812
3 3 9 100 0.174678
4 3 9 100 0.0790663
5 3 9 100 0.0373199
6 3 9 100 0.0264812
7 3 9 100 0.0246897
8 3 9 100 0.0147824
9 3 9 100 0.0408647
0 4 9 100 0.173188
1 4 9 100 0.105089
2 4 9 100 0.250364
3 4 9 100 0.201089
4 4 9 100 0.106662
5 4 9 100 0.0521196
6 4 9 100 0.0268419
7 4 9 100 0.0254223
8 4 9 100 0.0174308
9 4 9 100 0.0417929
0 5 9 100 0.214683
1 5 9 100 0.071657
2 5 9 100 0.148921
3 5 9 100 0.19806
4 5 9 100 0.175208
5 5 9 100 0.0795516
6 5 9 100 0.0345973
7 5 9 100 0.0288635
8 5 9 100 0.0165389
9 5 9 100 0.0319196
0 6 9 100 0.245926
1 6 9 100 0.0458728
2 6 9 100 0.0846071
3 6 9 100 0.178132
4 6 9 100 0.184223
5 6 9 100 0.119508
6 6 9 100 0.0508882
7 6 9 100 0.0395538
8 6 9 100 0.0224753
9 6 9 100 0.0288143
0 7 9 100 0.294487
1 7 9 100 0.0318385
2 7 9 100 0.0685184
3 7 9 100 0.126476
4 7 9 100 0.16795
5 7 9 100 0.129466
6 7 9 100 0.084033
7 7 9 100 0.0318077
8 7 9 100 0.027517
9 7 9 100 0.0379056
0 8 9 100 0.293738
1 8 9 100 0.0251053
2 8 9 100 0.0439042
3 8 9 100 0.0861908
4 8 9 100 0.143644
5 8 9 100 0.14278
6 8 9 100 0.109433
7 8 9 100 0.0618116
8 8 9 100 0.0364442
9 8 9 100 0.0569483
0 9 9 100 0.282195
1 9 9 100 0.0218304
2 9 9 100 0.0261494
3 9 9 100 0.0535962
4 9 9 100 0.100324
5 9 9 100 0.138383
6 9 9 100 0.141037
7 9 9 100 0.0960255
8 9 9 100 0.0679783
9 9 9 100 0.0724812
0 10 9 100 0.263344
1 10 9 100 0.0175262
2 10 9 100 0.017257
3 10 9 100 0.0412006
4 10 9 100 0.0767362
5 10 9 100 0.12436
6 10 9 100 0.158077
7 10 9 100 0.117812
8 10 9 100 0.0798454
9 10 9 100 0.103842
0 11 9 100 0.265388
1 11 9 100 0.0149092
2 11 9 100 0.0210598
3 11 9 100 0.0225102
4 11 9 100 0.0451765
5 11 9 100 0.105093
6 11 9 100 0.140323
7 11 9 100 0.141918
8 11 9 100 0.10047
9 11 9 100 0.143152
0 12 9 100 0.24332
1 12 9 100 0.0254353
2 12 9 100 0.0181898
3 12 9 100 0.0185581
4 12 9 100 0.0432825
5 12 9 100 0.073872
6 12 9 100 0.136854
7 12 9 100 0.142097
8 12 9 100 0.137419
9 12 9 100 0.160972
0 13 9 100 0.237662
1 13 9 100 0.0126774
2 13 9 100 0.0186546
3 13 9 100 0.0152483
4 13 9 100 0.0265273
5 13 9 100 0.0504137
6 13 9 100 0.129368
7 13 9 100 0.164899
8 13 9 100 0.151356
9 13 9 100 0.193194
0 14 9 100 0.287606
1 14 9 100 0.0100312
2 14 9 100 0.0188445
3 14 9 100 0.0187983
4 14 9 100 0.0264768
5 14 9 100 0.0377684
6 14 9 100 0.0972771
7 14 9 100 0.142171
8 14 9 100 0.152144
9 14 9 100 0.208883
0 15 9 100 0.324883
1 15 9 100 0.0106274
2 15 9 100 0.0164084
3 15 9 100 0.0121968
4 15 9 100 0.0175765
5 15 9 100 0.0346577
6 15 9 100 0.0705668
7 15 9 100 0.117823
8 15 9 100 0.165538
9 15 9 100 0.229722
0 16 9 100 0.322297
1 16 9 100 0.0098029
2 16 9 100 0.0131743
3 16 9 100 0.0107294
4 16 9 100 0.0174976
5 16 9 100 0.0248989
6 16 9 100 0.0592317
7 16 9 100 0.13862
8 16 9 100 0.164215
9 16 9 100 0.239533
0 17 9 100 0.346877
1 17 9 100 0.0101646
2 17 9 100 0.0150021
3 17 9 100 0.0155811
4 17 9 100 0.0245589
5 17 9 100 0.0144853
6 17 9 100 0.0585513
7 17 9 100 0.0985292
8 17 9 100 0.171188
9 17 9 100 0.245063
0 18 9 100 0.387878
1 18 9 100 0.00661285
2 18 9 100 0.0106726
3 18 9 100 0.0167718
4 18 9 100 0.0110891
5 18 9 100 0.0196458
6 18 9 100 0.0350088
7 18 9 100 0.0885206
8 18 9 100 0.167225
9 18 9 100 0.256575
0 19 9 100 0.407328
1 19 9 100 0.00916857
2 19 9 100 0.00840889
3 19 9 100 0.00959957
4 19 9 100 0.0241614
5 19 9 100 0.0129628
6 19 9 100 0.0360838
7 19 9 100 0.0628282
8 19 9 100 0.15607
9 19 9 100 0.273389
0 20 9 100 0.381526
1 20 9 100 0.0117026
2 20 9 100 0.0215021
3 20 9 100 0.0115933
4 20 9 100 0.0221354
5 20 9 100 0.0146934
6 20 9 100 0.0327738
7 20 9 100 0.0815593
8 20 9 100 0.168103
9 20 9 100 0.254411
0 21 9 100 0.450659
1 21 9 100 0.00439253
2 21 9 100 0.0241972
3 21 9 100 0.0203859
4 21 9 100 0.0141782
5 21 9 100 0.0234994
6 21 9 100 0.045042
7 21 9 100 0.0604006
8 21 9 100 0.126318
9 21 9 100 0.230927
0 22 9 100 0.46411
1 22 9 100 0.0115814
2 22 9 100 0.0228398
3 22 9 100 0.0116627
4 22 9 100 0.028803
5 22 9 100 0.0349769
6 22 9 100 0.0807708
7 22 9 100 0.0573873
8 22 9 100 0.0968506
9 22 9 100 0.191018
0 23 9 100 0.379282
1 23 9 100 9.2834e-05
2 23 9 100 0.0442347
3 23 9 100 0.0691224
4 23 9 100 0.0620648
5 23 9 100 0.0314444
6 23 9 100 0.0541285
7 23 9 100 0.0970715
8 23 9 100 0.0956908
9 23 9 100 0.166869
0 24 9 100 0.353454
1 24 9 100 0.0224768
2 24 9 100 0.0337533
3 24 9 100 0.0459738
4 24 9 100 0.0227045
5 24 9 100 0.0217798
6 24 9 100 0.0473431
7 24 9 100 0.107851
8 24 9 100 0.12889
9 24 9 100 0.215774
0 25 9 100 0.390697
1 25 9 100 2.82285e-05
2 25 9 100 0.0769053
3 25 9 100 0.0510944
4 25 9 100 0.0284039
5 25 9 100 0.0417677
6 25 9 100 0.043603
7 25 9 100 0.138468
8 25 9 100 0.0577159
9 25 9 100 0.171317
0 26 9 100 0.319729
1 26 9 100 0.0170469
2 26 9 100 0.0503695
3 26 9 100 0.086836
4 26 9 100 0.0337381
5 26 9 100 0.0482294
6 26 9 100 0.0555854
7 26 9 100 0.152098
8 26 9 100 0.0686723
9 26 9 100 0.167695
0 27 9 100 0.341199
1 27 9 100 0.0391296
2 27 9 100 0.0196011
3 27 9 100 0.112419
4 27 9 100 0.0964363
5 27 9 100 0.0197457
6 27 9 100 0.0788987
7 27 9 100 0.0782909
8 27 9 100 0.0980906
9 27 9 100 0.116189
0 28 9 100 0.364645
1 28 9 100 0.0173373
2 28 9 100 0.0833897
3 28 9 100 0.0208334
4 28 9 100 0.0416601
5 28 9 100 0.0815869
6 28 9 100 0.0646403
7 28 9 100 0.164821
8 28 9 100 0.0721191
9 28 9 100 0.0889668
0 29 9 100 0.370089
1 29 9 100 0.0474728
2 29 9 100 0.114576
3 29 9 100 0.0238117
4 29 9 100 0.0630139
5 29 9 100 0.095323
6 29 9 100 0.0900285
7 29 9 100 0.047664
8 29 9 100 0.0765913
9 29 9 100 0.0714304
0 30 9 100 0.306047
1 30 9 100 0.0270279
2 30 9 100 0.00192189
3 30 9 100 0.0540959
4 30 9 100 0.0816777
5 30 9 100 0.160701
6 30 9 100 0.0329847
7 30 9 100 0.132753
8 30 9 100 0.0946753
9 30 9 100 0.108116
0 31 9 100 0.294756
1 31 9 100 0.0620814
2 31 9 100 0.0311774
3 31 9 100 1.1866e-05
4 31 9 100 0.0829539
5 31 9 100 0.122492
6 31 9 100 0.0624978
7 31 9 100 0.249772
8 31 9 100 0.0624995
9 31 9 100 0.0317579
0 32 9 100 0.361355
1 32 9 100 0.102083
2 32 9 100 0.0322582
3 32 9 100 0.0322594
4 32 9 100 0.0324516
5 32 9 100 0.0967224
6 32 9 100 0.128055
7 32 9 100 0.128813
8 32 9 100 0.053726
9 32 9 100 0.0322767
0 33 9 100 0.40908
1 33 9 100 0.110042
2 33 9 100 4.9504e-05
3 33 9 100 5.2999e-07
4 33 9 100 1.67058e-06
5 33 9 100 0.0740561
6 33 9 100 0.0372094
7 33 9 100 0.148147
8 33 9 100 0.145246
9 33 9 100 0.0761677
0 34 9 100 0.314414
2 34 9 100 0.0433555
3 34 9 100 0.0434784
4 34 9 100 0.164293
5 34 9 100 0.0434895
7 34 9 100 0.0869437
8 34 9 100 0.130255
9 34 9 100 0.173771
0 35 9 100 0.312142
1 35 9 100 0.0426401
2 35 9 100 0.0764594
3 35 9 100 0.0870876
4 35 9 100 0.0435488
6 35 9 100 0.138686
7 35 9 100 0.125505
8 35 9 100 0.173912
9 35 9 100 1.80563e-05
0 36 9 100 0.20017
1 36 9 100 6.03544e-07
2 36 9 100 2.98708e-06
3 36 9 100 0.349997
5 36 9 100 0.100003
6 36 9 100 0.099884
8 36 9 100 0.0999482
9 36 9 100 0.149995
0 37 9 100 0.482469
1 37 9 100 0.0526317
3 37 9 100 0.052631
4 37 9 100 0.157767
5 37 9 100 0.0526571
8 37 9 100 0.14997
9 37 9 100 0.0518741
0 38 9 100 0.24456
1 38 9 100 0.357128
2 38 9 100 0.0441826
3 38 9 100 0.0684173
7 38 9 100 0.214283
9 38 9 100 0.0714286
0 39 9 100 0.308792
1 39 9 100 0.0769231
2 39 9 100 0.0769246
4 39 9 100 0.0769231
6 39 9 100 0.0760615
7 39 9 100 0.307452
9 39 9 100 0.0769231
0 40 9 100 0.156994
1 40 9 100 0.0769191
2 40 9 100 1.96682e-06
3 40 9 100 0.0769022
4 40 9 100 0.153603
5 40 9 100 0.0769231
7 40 9 100 0.303074
9 40 9 100 0.155582
0 41 9 100 0.192022
2 41 9 100 0.141329
4 41 9 100 0.0833333
7 41 9 100 0.333332
9 41 9 100 0.249984
0 42 9 100 0.124514
1 42 9 100 0.1
2 42 9 100 0.1
4 42 9 100 0.1
6 42 9 100 0.0997654
7 42 9 100 0.0757492
8 42 9 100 1.11621e-05
9 42 9 100 0.399961
0 43 9 100 0.1005
1 43 9 100 0.1
5 43 9 100 0.0994976
6 43 9 100 0.0999999
7 43 9 100 0.200107
9 43 9 100 0.399896
0 44 9 100 0.177566
4 44 9 100 0.0999602
5 44 9 100 0.0999997
7 44 9 100 0.1
8 44 9 100 0.322475
9 44 9 100 0.2
0 45 9 100 0.111763
1 45 9 100 1.1079e-05
4 45 9 100 0.111111
5 45 9 100 1.04491e-05
7 45 9 100 0.11105
8 45 9 100 0.221576
9 45 9 100 0.444478
0 46 9 100 0.250074
1 46 9 100 0.249946
2 46 9 100 0.125
6 46 9 100 0.24998
9 46 9 100 0.125
0 47 9 100 0.143511
1 47 9 100 0.142857
2 47 9 100 0.142857
3 47 9 100 3.91512e-05
5 47 9 100 0.28506
6 47 9 100 0.142857
9 47 9 100 0.142818
0 48 9 100 0.377416
2 48 9 100 0.122779
4 48 9 100 0.000125229
5 48 9 100 0.166303
6 48 9 100 0.333333
9 48 9 100 4.40195e-05
0 49 9 100 0.000134508
1 49 9 100 0.199999
2 49 9 100 0.39987
8 49 9 100 0.199997
9 49 9 100 0.199999
0 50 9 100 0.23706
3 50 9 100 0.188603
4 50 9 100 2.79973e-06
8 50 9 100 0.374312
9 50 9 100 0.200023
0 51 9 100 0.00828034
1 51 9 100 0.332847
5 51 9 100 0.325508
6 51 9 100 3.77673e-06
8 51 9 100 2.70645e-05
9 51 9 100 0.333333
0 52 9 100 0.333998
2 52 9 100 0.333333
6 52 9 100 0.332669
5 53 9 100 1
0 54 9 100 0.499488
1 54 9 100 0.5
5 54 9 100 0.000470678
9 54 9 100 4.12143e-05
0 55 9 100 0.0118729
4 55 9 100 1.4443e-05
5 55 9 100 0.488126
8 55 9 100 0.499986
0 56 9 100 0.500001
3 56 9 100 0.499999
0 57 9 100 1
0 1 10 100 0.00057284
1 1 10 100 0.662775
2 1 10 100 0.107059
3 1 10 100 0.0470704
4 1 10 100 0.0391234
5 1 10 100 0.0268656
6 1 10 100 0.0130576
7 1 10 100 0.0253114
8 1 10 100 0.0202758
9 1 10 100 0.0154751
10 1 10 100 0.0424138
0 2 10 100 0.168488
1 2 10 100 0.223984
2 2 10 100 0.291939
3 2 10 100 0.114714
4 2 10 100 0.0645815
5 2 10 100 0.03764
6 2 10 100 0.0185498
7 2 10 100 0.0170074
8 2 10 100 0.0163859
9 2 10 100 0.0117176
10 2 10 100 0.0349921
0 3 10 100 0.166691
1 3 10 100 0.157949
2 3 10 100 0.25975
3 3 10 100 0.163629
4 3 10 100 0.0864248
5 3 10 100 0.0539977
6 3 10 100 0.0166049
7 3 10 100 0.0229482
8 3 10 100 0.0203942
9 3 10 100 0.017521
10 3 10 100 0.0340905
0 4 10 100 0.185335
1 4 10 100 0.0801681
2 4 10 100 0.227523
3 4 10 100 0.182929
4 4 10 100 0.122793
5 4 10 100 0.07971
6 4 10 100 0.0241359
7 4 10 100 0.0265732
8 4 10 100 0.0174952
9 4 10 100 0.012232
10 4 10 100 0.0411048
0 5 10 100 0.212369
1 5 10 100 0.0560395
2 5 10 100 0.146903
3 5 10 100 0.182297
4 5 10 100 0.177713
5 5 10 100 0.0981307
6 5 10 100 0.033834
7 5 10 100 0.0293333
8 5 10 100 0.0204952
9 5 10 100 0.0108511
10 5 10 100 0.0320353
0 6 10 100 0.239696
1 6 10 100 0.0323423
2 6 10 100 0.0820963
3 6 10 100 0.163064
4 6 10 100 0.190911
5 6 10 100 0.134292
6 6 10 100 0.0518846
7 6 10 100 0.0339837
8 6 10 100 0.0235989
9 6 10 100 0.0154616
10 6 10 100 0.0326698
0 7 10 100 0.271796
1 7 10 100 0.0260016
2 7 10 100 0.0573008
3 7 10 100 0.105631
4 7 10 100 0.163281
5 7 10 100 0.153634
6 7 10 100 0.0819049
7 7 10 100 0.0629132
8 7 10 100 0.0286682
9 7 10 100 0.0215177
10 7 10 100 0.0273518
0 8 10 100 0.301336
1 8 10 100 0.0177166
2 8 10 100 0.0347883
3 8 10 100 0.0595408
4 8 10 100 0.138508
5 8 10 100 0.156347
6 8 10 100 0.126329
7 8 10 100 0.0643056
8 8 10 100 0.0385455
9 8 10 100 0.02567
10 8 10 100 0.0369128
0 9 10 100 0.288327
1 9 10 100 0.0171645
2 9 10 100 0.0189386
3 9 10 100 0.0365944
4 9 10 100 0.0968259
5 9 10 100 0.14227
6 9 10 100 0.130696
7 9 10 100 0.116835
8 9 10 100 0.0590423
9 9 10 100 0.0343163
10 9 10 100 0.0589902
0 10 10 100 0.274545
1 10 10 100 0.017309
2 10 10 100 0.0205812
3 10 10 100 0.0210419
4 10 10 100 0.0694862
5 10 10 100 0.121669
6 10 10 100 0.137101
7 10 10 100 0.140058
8 10 10 100 0.0772653
9 10 10 100 0.0461828
10 10 10 100 0.0747603
0 11 10 100 0.251702
1 11 10 100 0.0128999
2 11 10 100 0.0180643
3 11 10 100 0.0206335
4 11 10 100 0.0485402
5 11 10 100 0.0781824
6 11 10 100 0.130893
7 11 10 100 0.171073
8 11 10 100 0.110673
9 11 10 100 0.0687675
10 11 10 100 0.0885716
0 12 10 100 0.257566
1 12 10 100 0.0112796
2 12 10 100 0.0199703
3 12 10 100 0.0187278
4 12 10 100 0.0275516
5 12 10 100 0.0517859
6 12 10 100 0.108685
7 12 10 100 0.15291
8 12 10 100 0.137327
9 12 10 100 0.0975638
10 12 10 100 0.116634
0 13 10 100 0.222865
1 13 10 100 0.0134768
2 13 10 100 0.0119229
3 13 10 100 0.0148022
4 13 10 100 0.021639
5 13 10 100 0.0470028
6 13 10 100 0.0914792
7 13 10 100 0.145607
8 13 10 100 0.155746
9 13 10 100 0.130566
10 13 10 100 0.144892
0 14 10 100 0.279859
1 14 10 100 0.012159
2 14 10 100 0.012797
3 14 10 100 0.00886468
4 14 10 100 0.0216248
5 14 10 100 0.0317066
6 14 10 100 0.0585141
7 14 10 100 0.127214
8 14 10 100 0.150946
9 14 10 100 0.136863
10 14 10 100 0.159452
0 15 10 100 0.281751
1 15 10 100 0.00741774
2 15 10 100 0.0125367
3 15 10 100 0.0097882
4 15 10 100 0.013592
5 15 10 100 0.0242365
6 15 10 100 0.0603216
7 15 10 100 0.110168
8 15 10 100 0.136609
9 15 10 100 0.142684
10 15 10 100 0.200896
0 16 10 100 0.3135
1 16 10 100 0.0119866
2 16 10 100 0.0108458
3 16 10 100 0.00839378
4 16 10 100 0.0151238
5 16 10 100 0.0222687
6 16 10 100 0.0532114
7 16 10 100 0.0753556
8 16 10 100 0.125605
9 16 10 100 0.161155
10 16 10 100 0.202553
0 17 10 100 0.326181
1 17 10 100 0.00704905
2 17 10 100 0.012466
3 17 10 100 0.00867739
4 17 10 100 0.0126497
5 17 10 100 0.0175599
6 17 10 100 0.0394038
7 17 10 100 0.0771627
8 17 10 100 0.117271
9 17 10 100 0.147575
10 17 10 100 0.234004
0 18 10 100 0.324064
1 18 10 100 0.00698176
2 18 10 100 0.0078645
3 18 10 100 0.00263235
4 18 10 100 0.00768854
5 18 10 100 0.024353
6 18 10 100 0.0389525
7 18 10 100 0.0861623
8 18 10 100 0.105851
9 18 10 100 0.153219
10 18 10 100 0.242231
0 19 10 100 0.391659
1 19 10 100 0.00584073
2 19 10 100 0.00997301
3 19 10 100 0.00870014
4 19 10 100 0.0128399
5 19 10 100 0.0208399
6 19 10 100 0.0219042
7 19 10 100 0.0637039
8 19 10 100 0.084407
9 19 10 100 0.148249
10 19 10 100 0.231883
0 20 10 100 0.380528
1 20 10 100 0.00753138
2 20 10 100 0.00956543
3 20 10 100 0.0125416
4 20 10 100 0.00631764
5 20 10 100 0.00738407
6 20 10 100 0.0423939
7 20 10 100 0.0498174
8 20 10 100 0.0717167
9 20 10 100 0.154278
10 20 10 100 0.257925
0 21 10 100 0.393413
1 21 10 100 0.00516736
2 21 10 100 0.00946398
3 21 10 100 0.00783115
4 21 10 100 0.0131639
5 21 10 100 0.00998323
6 21 10 100 0.0311803
7 21 10 100 0.0541623
8 21 10 100 0.0664554
9 21 10 100 0.15561
10 21 10 100 0.253568
0 22 10 100 0.409541
1 22 10 100 0.00765553
2 22 10 100 0.0181349
3 22 10 100 0.01258
4 22 10 100 0.0146117
5 22 10 100 0.0257936
6 22 10 100 0.0365076
7 22 10 100 0.0366419
8 22 10 100 0.106908
9 22 10 100 0.111585
10 22 10 100 0.220042
0 23 10 100 0.474114
1 23 10 100 3.75231e-05
2 23 10 100 0.015957
3 23 10 100 0.0107119
4 23 10 100 0.0323094
5 23 10 100 0.0111641
6 23 10 100 0.0222611
7 23 10 100 0.0369416
8 23 10 100 0.0851461
9 23 10 100 0.107292
10 23 10 100 0.204065
0 24 10 100 0.479067
1 24 10 100 0.00735242
2 24 10 100 0.0232611
3 24 10 100 0.0156265
4 24 10 100 0.0158686
5 24 10 100 0.0210886
6 24 10 100 0.0291274
7 24 10 100 0.0379398
8 24 10 100 0.0542368
9 24 10 100 0.109392
10 24 10 100 0.207039
0 25 10 100 0.424019
1 25 10 100 8.09965e-06
2 25 10 100 0.0105298
3 25 10 100 0.0415798
4 25 10 100 0.0109268
5 25 10 100 0.0282874
6 25 10 100 0.0316619
7 25 10 100 0.0210899
8 25 10 100 0.096723
9 25 10 100 0.197028
10 25 10 100 0.138146
0 26 10 100 0.361547
1 26 10 100 2.33589e-05
2 26 10 100 0.0279959
3 26 10 100 0.0362035
4 26 10 100 0.000859449
5 26 10 100 0.0141981
6 26 10 100 0.0983902
7 26 10 100 0.056387
8 26 10 100 0.0563427
9 26 10 100 0.180896
10 26 10 100 0.167156
0 27 10 100 0.341362
1 27 10 100 0.0142855
2 27 10 100 0.0349494
3 27 10 100 0.0341815
4 27 10 100 9.66557e-05
5 27 10 100 0.0172822
6 27 10 100 0.103808
7 27 10 100 0.0513886
8 27 10 100 0.156386
9 27 10 100 0.073867
10 27 10 100 0.172393
0 28 10 100 0.376133
1 28 10 100 1.33879e-06
2 28 10 100 0.101819
3 28 10 100 0.0374432
4 28 10 100 0.0611899
5 28 10 100 0.0410301
6 28 10 100 0.0387343
7 28 10 100 0.0161628
8 28 10 100 0.0823217
9 28 10 100 0.12276
10 28 10 100 0.122406
0 29 10 100 0.320785
2 29 10 100 0.0444432
3 29 10 100 0.0666599
4 29 10 100 2.684e-06
5 29 10 100 0.0445301
6 29 10 100 0.133107
7 29 10 100 0.21229
8 29 10 100 0.0444067
9 29 10 100 0.0448388
10 29 10 100 0.0889359
0 30 10 100 0.239552
1 30 10 100 0.0511224
2 30 10 100 0.000125793
3 30 10 100 0.0256418
4 30 10 100 0.128431
5 30 10 100 0.0763514
6 30 10 100 0.170592
7 30 10 100 0.0261552
8 30 10 100 0.152648
9 30 10 100 0.0260545
10 30 10 100 0.103325
0 31 10 100 0.378463
1 31 10 100 0.0262604
2 31 10 100 0.0526307
3 31 10 100 0.0526314
4 31 10 100 0.0525613
5 31 10 100 0.0789474
6 31 10 100 0.0166432
7 31 10 100 0.052636
8 31 10 100 0.0810707
9 31 10 100 0.0789895
10 31 10 100 0.129167
0 32 10 100 0.250579
1 32 10 100 0.0791495
2 32 10 100 0.000379235
3 32 10 100 3.30992e-06
4 32 10 100 0.0263142
5 32 10 100 0.104662
6 32 10 100 0.0263182
7 32 10 100 0.0294113
8 32 10 100 0.105302
9 32 10 100 0.298937
10 32 10 100 0.0789451
0 33 10 100 0.25867
1 33 10 100 0.0588634
2 33 10 100 0.00278242
3 33 10 100 0.0294673
4 33 10 100 2.16566e-05
5 33 10 100 0.0881144
6 33 10 100 0.00965817
7 33 10 100 2.7887e-05
8 33 10 100 0.0882354
9 33 10 100 0.434682
10 33 10 100 0.0294772
0 34 10 100 0.208359
1 34 10 100 0.0666031
2 34 10 100 0.0997129
3 34 10 100 3.72882e-07
4 34 10 100 0.00650554
5 34 10 100 0.0344609
6 34 10 100 0.0333211
7 34 10 100 8.5897e-06
8 34 10 100 0.0670703
9 34 10 100 0.150435
10 34 10 100 0.333523
0 35 10 100 0.456964
1 35 10 100 5.65674e-06
2 35 10 100 0.0714341
4 35 10 100 0.0343723
5 35 10 100 0.0357143
6 35 10 100 0.000639118
7 35 10 100 8.36922e-06
8 35 10 100 0.00375128
9 35 10 100 0.289965
10 35 10 100 0.107146
0 36 10 100 0.333005
1 36 10 100 1.37151e-06
2 36 10 100 0.109576
3 36 10 100 3.5062e-05
5 36 10 100 0.112602
7 36 10 100 0.000264659
9 36 10 100 0.333334
10 36 10 100 0.111183
0 37 10 100 0.205067
1 37 10 100 0.0624961
3 37 10 100 0.000182741
4 37 10 100 0.123431
5 37 10 100 0.058421
7 37 10 100 0.0625197
9 37 10 100 0.112959
10 37 10 100 0.374924
0 38 10 100 0.191749
2 38 10 100 0.125883
3 38 10 100 0.125004
4 38 10 100 0.186463
7 38 10 100 0.000578387
9 38 10 100 0.0578269
10 38 10 100 0.312496
0 39 10 100 0.362565
1 39 10 100 3.68082e-05
2 39 10 100 0.137874
3 39 10 100 0.0708092
4 39 10 100 0.0715348
8 39 10 100 3.46431e-05
9 39 10 100 0.071431
10 39 10 100 0.285715
0 40 10 100 0.078514
1 40 10 100 0.0757607
2 40 10 100 0.153772
4 40 10 100 0.230464
5 40 10 100 0.0769167
7 40 10 100 0.0768451
9 40 10 100 0.153845
10 40 10 100 0.153883
0 41 10 100 0.322766
2 41 10 100 0.139137
4 41 10 100 0.0808943
9 41 10 100 0.226434
10 41 10 100 0.230769
0 42 10 100 0.114118
2 42 10 100 0.111099
4 42 10 100 0.220622
5 42 10 100 0.11111
6 42 10 100 7.57183e-06
7 42 10 100 0.222222
8 42 10 100 9.60784e-06
9 42 10 100 0.109701
10 42 10 100 0.111111
0 43 10 100 0.0240939
1 43 10 100 0.125
4 43 10 100 0.125012
6 43 10 100 3.03102e-06
7 43 10 100 1.68423e-06
9 43 10 100 0.101705
10 43 10 100 0.624185
0 44 10 100 0.377564
1 44 10 100 0.00377967
4 44 10 100 0.125
5 44 10 100 1.50348e-05
7 44 10 100 7.23627e-06
8 44 10 100 0.118633
9 44 10 100 0.125
10 44 10 100 0.250001
0 45 10 100 0.149003
2 45 10 100 0.000275386
7 45 10 100 0.422423
10 45 10 100 0.428299
0 46 10 100 0.833825
3 46 10 100 4.92586e-06
7 46 10 100 0.166018
8 46 10 100 0.000152362
0 47 10 100 0.199986
1 47 10 100 1.43712e-05
2 47 10 100 0.2
7 47 10 100 0.399999
10 47 10 100 0.2
0 48 10 100 0.49143
1 48 10 100 7.26575e-05
2 48 10 100 0.319563
3 48 10 100 0.000736343
5 48 10 100 6.45514e-05
7 48 10 100 0.188133
0 49 10 100 1.47096e-05
2 49 10 100 7.78758e-05
4 49 10 100 0.499908
10 49 10 100 0.499999
0 50 10 100 0.5
2 50 10 100 0.249997
10 50 10 100 0.250003
0 51 10 100 5.11865e-05
2 51 10 100 1.42216e-05
6 51 10 100 0.499934
10 51 10 100 0.500001
0 52 10 100 0.500001
3 52 10 100 0.499999
3 53 10 100 3.62729e-05
10 53 10 100 0.999964
0 54 10 100 1
0 1 11 100 0.000979154
1 1 11 100 0.692671
2 1 11 100 0.107567
3 1 11 100 0.0449724
4 1 11 100 0.0267328
5 1 11 100 0.0223804
6 1 11 100 0.0233947
7 1 11 100 0.0145987
8 1 11 100 0.0141797
9 1 11 100 0.0124047
10 1 11 100 0.0118103
11 1 11 100 0.0283094
0 2 11 100 0.19434
1 2 11 100 0.194917
2 2 11 100 0.315402
3 2 11 100 0.116432
4 2 11 100 0.0460854
5 2 11 100 0.0322616
6 2 11 100 0.0231863
7 2 11 100 0.016727
8 2 11 100 0.0145915
9 2 11 100 0.00736232
10 2 11 100 0.0127532
11 2 11 100 0.0259421
0 3 11 100 0.14547
1 3 11 100 0.135198
2 3 11 100 0.310404
3 3 11 100 0.1653
4 3 11 100 0.0783252
5 3 11 100 0.0410631
6 3 11 100 0.033553
7 3 11 100 0.0209737
8 3 11 100 0.0157607
9 3 11 100 0.0101708
10 3 11 100 0.0129728
11 3 11 100 0.0308086
0 4 11 100 0.179463
1 4 11 100 0.0811399
2 4 11 100 0.237482
3 4 11 100 0.198954
4 4 11 100 0.119007
5 4 11 100 0.0499257
6 4 11 100 0.0395929
7 4 11 100 0.0273553
8 4 11 100 0.0151745
9 4 11 100 0.00975722
10 4 11 100 0.0121561
11 4 11 100 0.0299934
0 5 11 100 0.215064
1 5 11 100 0.0385559
2 5 11 100 0.142832
3 5 11 100 0.206043
4 5 11 100 0.157076
5 5 11 100 0.097336
6 5 11 100 0.0439416
7 5 11 100 0.0276708
8 5 11 100 0.0169929
9 5 11 100 0.00988606
10 5 11 100 0.0176669
11 5 11 100 0.0269348
0 6 11 100 0.24944
1 6 11 100 0.0329414
2 6 11 100 0.0837034
3 6 11 100 0.145585
4 6 11 100 0.164656
5 6 11 100 0.158845
6 6 11 100 0.0620186
7 6 11 100 0.0318715
8 6 11 100 0.0226959
9 6 11 100 0.0152572
10 6 11 100 0.0154958
11 6 11 100 0.0174908
0 7 11 100 0.277897
1 7 11 100 0.0208785
2 7 11 100 0.0475534
3 7 11 100 0.102459
4 7 11 100 0.169935
5 7 11 100 0.159015
6 7 11 100 0.0786239
7 7 11 100 0.054211
8 7 11 100 0.0295027
9 7 11 100 0.0149675
10 7 11 100 0.0164537
11 7 11 100 0.0285031
0 8 11 100 0.268934
1 8 11 100 0.0204125
2 8 11 100 0.0362122
3 8 11 100 0.0588912
4 8 11 100 0.144417
5 8 11 100 0.157206
6 8 11 100 0.126684
7 8 11 100 0.0666806
8 8 11 100 0.0395792
9 8 11 100 0.0303263
10 8 11 100 0.0236604
11 8 11 100 0.0269977
0 9 11 100 0.276714
1 9 11 100 0.015307
2 9 11 100 0.0214834
3 9 11 100 0.031514
4 9 11 100 0.0908622
5 9 11 100 0.137351
6 9 11 100 0.144772
7 9 11 100 0.114794
8 9 11 100 0.0620503
9 9 11 100 0.0383799
10 9 11 100 0.0271622
11 9 11 100 0.0396106
0 10 11 100 0.273156
1 10 11 100 0.0153652
2 10 11 100 0.0153263
3 10 11 100 0.0232951
4 10 11 100 0.0549512
5 10 11 100 0.099047
6 10 11 100 0.139587
7 10 11 100 0.141986
8 10 11 100 0.0875651
9 10 11 100 0.0572848
10 10 11 100 0.0333391
11 10 11 100 0.0590971
0 11 11 100 0.26414
1 11 11 100 0.0149459
2 11 11 100 0.0174378
3 11 11 100 0.0204139
4 11 11 100 0.0354046
5 11 11 100 0.0628017
6 11 11 100 0.126491
7 11 11 100 0.13469
8 11 11 100 0.111598
9 11 11 100 0.0890939
10 11 11 100 0.0488567
11 11 11 100 0.0741266
0 12 11 100 0.252124
1 12 11 100 0.00998646
2 12 11 100 0.0145745
3 12 11 100 0.016822
4 12 11 100 0.0268233
5 12 11 100 0.0417617
6 12 11 100 0.0929864
7 12 11 100 0.145546
8 12 11 100 0.140962
9 12 11 100 0.1024
10 12 11 100 0.068242
11 12 11 100 0.0877707
0 13 11 100 0.23413
1 13 11 100 0.0115
2 13 11 100 0.0174086
3 13 11 100 0.013014
4 13 11 100 0.021366
5 13 11 100 0.039583
6 13 11 100 0.078146
7 13 11 100 0.122258
8 13 11 100 0.140127
9 13 11 100 0.114935
10 13 11 100 0.0954024
11 13 11 100 0.11213
0 14 11 100 0.247952
1 14 11 100 0.0134498
2 14 11 100 0.0123491
3 14 11 100 0.0163787
4 14 11 100 0.0161467
5 14 11 100 0.0201316
6 14 11 100 0.0471733
7 14 11 100 0.105312
8 14 11 100 0.148917
9 14 11 100 0.124881
10 14 11 100 0.10637
11 14 11 100 0.140938
0 15 11 100 0.262029
1 15 11 100 0.00854763
2 15 11 100 0.0113579
3 15 11 100 0.0138667
4 15 11 100 0.0192197
5 15 11 100 0.0188896
6 15 11 100 0.0400095
7 15 11 100 0.0807945
8 15 11 100 0.130445
9 15 11 100 0.139644
10 15 11 100 0.120754
11 15 11 100 0.154442
0 16 11 100 0.310679
1 16 11 100 0.00822463
2 16 11 100 0.0128543
3 16 11 100 0.00993106
4 16 11 100 0.0142497
5 16 11 100 0.0146347
6 16 11 100 0.0307388
7 16 11 100 0.0659727
8 16 11 100 0.0989562
9 16 11 100 0.126644
10 16 11 100 0.136136
11 16 11 100 0.170979
0 17 11 100 0.329939
1 17 11 100 0.00993263
2 17 11 100 0.0143939
3 17 11 100 0.00758328
4 17 11 100 0.0122217
5 17 11 100 0.0226305
6 17 11 100 0.0274323
7 17 11 100 0.0475306
8 17 11 100 0.0842805
9 17 11 100 0.126971
10 17 11 100 0.142515
11 17 11 100 0.17457
0 18 11 100 0.323365
1 18 11 100 0.00704541
2 18 11 100 0.00932146
3 18 11 100 0.00462245
4 18 11 100 0.0148986
5 18 11 100 0.0239509
6 18 11 100 0.0268341
7 18 11 100 0.0439753
8 18 11 100 0.0711079
9 18 11 100 0.106125
10 18 11 100 0.157824
11 18 11 100 0.21093
0 19 11 100 0.357005
1 19 11 100 0.00857198
2 19 11 100 0.0100605
3 19 11 100 0.00931625
4 19 11 100 0.0107461
5 19 11 100 0.0183564
6 19 11 100 0.0229835
7 19 11 100 0.0331069
8 19 11 100 0.0616355
9 19 11 100 0.0968897
10 19 11 100 0.178055
11 19 11 100 0.193273
0 20 11 100 0.374901
1 20 11 100 0.00474393
2 20 11 100 0.0137362
3 20 11 100 0.00924386
4 20 11 100 0.0125497
5 20 11 100 0.0132068
6 20 11 100 0.0148554
7 20 11 100 0.0212897
8 20 11 100 0.0447969
9 20 11 100 0.0848593
10 20 11 100 0.178271
11 20 11 100 0.227546
0 21 11 100 0.394957
1 21 11 100 0.00399628
2 21 11 100 0.0121287
3 21 11 100 0.00852257
4 21 11 100 0.0180752
5 21 11 100 0.00848621
6 21 11 100 0.0184602
7 21 11 100 0.0247538
8 21 11 100 0.0537995
9 21 11 100 0.0786381
10 21 11 100 0.144315
11 21 11 100 0.233867
0 22 11 100 0.348826
1 22 11 100 0.00554824
2 22 11 100 0.0113651
3 22 11 100 0.00964443
4 22 11 100 0.00786392
5 22 11 100 0.010521
6 22 11 100 0.0302506
7 22 11 100 0.0288059
8 22 11 100 0.0586581
9 22 11 100 0.0831557
10 22 11 100 0.143886
11 22 11 100 0.261475
0 23 11 100 0.4138
1 23 11 100 0.0102202
2 23 11 100 0.0100506
3 23 11 100 0.0326354
4 23 11 100 0.0170103
5 23 11 100 0.00827299
6 23 11 100 0.0196843
7 23 11 100 0.0137854
8 23 11 100 0.0462729
9 23 11 100 0.0867413
10 23 11 100 0.115561
11 23 11 100 0.225966
0 24 11 100 0.437599
1 24 11 100 0.0091013
2 24 11 100 0.00498148
3 24 11 100 0.0161997
4 24 11 100 0.0146504
5 24 11 100 0.0100583
6 24 11 100 0.030075
7 24 11 100 0.0231242
8 24 11 100 0.0293514
9 24 11 100 0.0830486
10 24 11 100 0.127582
11 24 11 100 0.214229
0 25 11 100 0.419416
1 25 11 100 0.044642
2 25 11 100 0.0202467
3 25 11 100 0.0197952
4 25 11 100 0.00658943
5 25 11 100 0.0243667
6 25 11 100 0.0209729
7 25 11 100 0.026336
8 25 11 100 0.0346814
9 25 11 100 0.0965247
10 25 11 100 0.131738
11 25 11 100 0.15469
0 26 11 100 0.416691
1 26 11 100 0.015851
2 26 11 100 0.0391116
3 26 11 100 0.0290622
4 26 11 100 0.0264194
5 26 11 100 0.0175132
6 26 11 100 0.0177535
7 26 11 100 0.0236632
8 26 11 100 0.068491
9 26 11 100 0.0790468
10 26 11 100 0.120739
11 26 11 100 0.145658
0 27 11 100 0.375682
1 27 11 100 0.0216297
2 27 11 100 0.0215981
3 27 11 100 0.043334
4 27 11 100 0.0219159
5 27 11 100 0.0454306
6 27 11 100 0.0109107
7 27 11 100 0.0414971
8 27 11 100 0.030809
9 27 11 100 0.0511812
10 27 11 100 0.163697
11 27 11 100 0.172315
0 28 11 100 0.411112
1 28 11 100 0.0506134
2 28 11 100 0.0263857
3 28 11 100 0.0126658
4 28 11 100 0.0249676
5 28 11 100 0.0168179
6 28 11 100 0.053356
7 28 11 100 0.0362891
8 28 11 100 0.0127099
9 28 11 100 0.0380252
10 28 11 100 0.136698
11 28 11 100 0.180359
0 29 11 100 0.335008
1 29 11 100 0.0114554
2 29 11 100 0.0163995
3 29 11 100 0.044699
4 29 11 100 0.0484579
5 29 11 100 0.032375
6 29 11 100 0.0466144
7 29 11 100 0.00221199
8 29 11 100 0.0655543
9 29 11 100 0.050054
10 29 11 100 0.0297429
11 29 11 100 0.317428
0 30 11 100 0.278839
1 30 11 100 0.0371451
2 30 11 100 0.0183105
3 30 11 100 0.0228251
4 30 11 100 0.0365351
6 30 11 100 0.089221
7 30 11 100 0.0219959
8 30 11 100 0.0555936
9 30 11 100 0.0559731
10 30 11 100 0.0889723
11 30 11 100 0.294589
0 31 11 100 0.414956
1 31 11 100 0.0656687
2 31 11 100 0.0661852
3 31 11 100 0.0448876
4 31 11 100 0.044459
5 31 11 100 0.0221715
6 31 11 100 0.0206857
7 31 11 100 0.0583252
8 31 11 100 0.0215117
9 31 11 100 0.048685
10 31 11 100 0.084131
11 31 11 100 0.108333
0 32 11 100 0.171418
1 32 11 100 2.86764e-06
2 32 11 100 3.73075e-06
3 32 11 100 0.0541619
4 32 11 100 0.0802902
5 32 11 100 0.0199521
6 32 11 100 0.053942
7 32 11 100 0.0273198
8 32 11 100 0.21625
9 32 11 100 0.107449
10 32 11 100 0.189923
11 32 11 100 0.0792877
0 33 11 100 0.299405
1 33 11 100 0.0881274
2 33 11 100 0.0251935
3 33 11 100 0.0297054
4 33 11 100 0.0885166
5 33 11 100 0.000409495
6 33 11 100 0.0582379
7 33 11 100 0.029414
8 33 11 100 0.0294462
9 33 11 100 0.147576
10 33 11 100 0.109424
11 33 11 100 0.0945445
0 34 11 100 0.348159
1 34 11 100 0.0644718
2 34 11 100 0.00285352
3 34 11 100 0.0763674
4 34 11 100 0.067299
5 34 11 100 0.0322588
6 34 11 100 1.08082e-05
7 34 11 100 0.0640885
8 34 11 100 0.0322581
9 34 11 100 0.087121
10 34 11 100 0.128281
11 34 11 100 0.0968314
0 35 11 100 0.206836
1 35 11 100 1.21185e-05
2 35 11 100 0.103459
3 35 11 100 0.0664441
4 35 11 100 0.0341439
5 35 11 100 0.0345136
6 35 11 100 0.0696176
7 35 11 100 0.23884
8 35 11 100 0.0344923
9 35 11 100 0.0344982
10 35 11 100 0.102835
11 35 11 100 0.074309
0 36 11 100 0.372683
1 36 11 100 4.49697e-06
2 36 11 100 0.010553
4 36 11 100 0.069157
5 36 11 100 0.0740671
6 36 11 100 0.0657914
7 36 11 100 0.11111
8 36 11 100 0.0370642
9 36 11 100 0.074217
10 36 11 100 0.0739256
11 36 11 100 0.111427
0 37 11 100 0.286607
1 37 11 100 0.090877
3 37 11 100 0.0454546
4 37 11 100 0.0785218
5 37 11 100 5.24012e-07
6 37 11 100 0.045447
7 37 11 100 0.180665
8 37 11 100 0.0451999
9 37 11 100 5.67271e-06
10 37 11 100 0.136312
11 37 11 100 0.0909092
0 38 11 100 0.274934
1 38 11 100 0.0625
3 38 11 100 0.0622927
4 38 11 100 0.000370738
5 38 11 100 0.000779491
6 38 11 100 0.0624991
7 38 11 100 7.91212e-07
8 38 11 100 0.0625087
9 38 11 100 0.249983
10 38 11 100 0.18706
11 38 11 100 0.0370712
0 39 11 100 0.295857
1 39 11 100 0.135499
2 39 11 100 3.22556e-06
3 39 11 100 0.0666652
4 39 11 100 7.03377e-07
5 39 11 100 6.09374e-05
8 39 11 100 0.06667
9 39 11 100 0.170012
10 39 11 100 0.133357
11 39 11 100 0.131875
0 40 11 100 0.333255
1 40 11 100 0.0833334
3 40 11 100 0.166666
7 40 11 100 0.0833954
8 40 11 100 0.0833334
9 40 11 100 1.27966e-05
10 40 11 100 0.166657
11 40 11 100 0.0833483
0 41 11 100 0.356472
2 41 11 100 0.200001
5 41 11 100 0.043528
8 41 11 100 0.199999
9 41 11 100 0.0999995
11 41 11 100 0.1
0 42 11 100 0.321675
2 42 11 100 0.111123
6 42 11 100 0.110827
8 42 11 100 0.111111
9 42 11 100 0.111111
10 42 11 100 0.111111
11 42 11 100 0.123041
0 43 11 100 0.571428
8 43 11 100 0.142858
10 43 11 100 0.142858
11 43 11 100 0.142858
0 44 11 100 0.750003
8 44 11 100 0.249997
8 45 11 100 0.333333
10 45 11 100 0.666667
0 46 11 100 0.666666
10 46 11 100 0.333333
0 47 11 100 0.5
8 47 11 100 0.5
10 48 11 100 1
10 49 11 100 0.5
11 49 11 100 0.5
0 50 11 100 0.000189181
10 50 11 100 0.5
11 50 11 100 0.499811
0 51 11 100 0.500002
10 51 11 100 0.499998
0 52 11 100 1
7 53 11 100 1
7 54 11 100 1
0 55 11 100 2.27766e-05
7 55 11 100 0.999977
0 1 12 100 0.00126979
1 1 12 100 0.725107
2 1 12 100 0.0972083
3 1 12 100 0.0374184
4 1 12 100 0.0274231
5 1 12 100 0.0203155
6 1 12 100 0.0184892
7 1 12 100 0.0141567
8 1 12 100 0.0107382
9 1 12 100 0.0103198
10 1 12 100 0.00945196
11 1 12 100 0.00873011
12 1 12 100 0.0193724
0 2 12 100 0.193944
1 2 12 100 0.154104
2 2 12 100 0.324235
3 2 12 100 0.130255
4 2 12 100 0.046793
5 2 12 100 0.0313536
6 2 12 100 0.0295403
7 2 12 100 0.0142903
8 2 12 100 0.0166591
9 2 12 100 0.0130018
10 2 12 100 0.00831089
11 2 12 100 0.0107911
12 2 12 100 0.0267225
0 3 12 100 0.148577
1 3 12 100 0.126252
2 3 12 100 0.291877
3 3 12 100 0.198058
4 3 12 100 0.0785152
5 3 12 100 0.0425402
6 3 12 100 0.0249236
7 3 12 100 0.0184269
8 3 12 100 0.0166388
9 3 12 100 0.00955961
10 3 12 100 0.014412
11 3 12 100 0.00617203
12 3 12 100 0.0240475
0 4 12 100 0.174552
1 4 12 100 0.0751342
2 4 12 100 0.214683
3 4 12 100 0.199775
4 4 12 100 0.129049
5 4 12 100 0.0662971
6 4 12 100 0.0391561
7 4 12 100 0.0198044
8 4 12 100 0.0214891
9 4 12 100 0.0131507
10 4 12 100 0.0136213
11 4 12 100 0.00933858
12 4 12 100 0.0239483
0 5 12 100 0.210746
1 5 12 100 0.0439499
2 5 12 100 0.118593
3 5 12 100 0.171832
4 5 12 100 0.183481
5 5 12 100 0.110423
6 5 12 100 0.0550012
7 5 12 100 0.0237046
8 5 12 100 0.0245778
9 5 12 100 0.0150489
10 5 12 100 0.0153512
11 5 12 100 0.0114033
12 5 12 100 0.0158879
0 6 12 100 0.247817
1 6 12 100 0.0226692
2 6 12 100 0.0783928
3 6 12 100 0.119743
4 6 12 100 0.167001
5 6 12 100 0.153775
6 6 12 100 0.0899098
7 6 12 100 0.0386011
8 6 12 100 0.0238558
9 6 12 100 0.0153135
10 6 12 100 0.0123029
11 6 12 100 0.00947441
12 6 12 100 0.0211452
0 7 12 100 0.27228
1 7 12 100 0.0130916
2 7 12 100 0.0551244
3 7 12 100 0.081994
4 7 12 100 0.133315
5 7 12 100 0.174626
6 7 12 100 0.112841
7 7 12 100 0.0641385
8 7 12 100 0.0333559
9 7 12 100 0.0175571
10 7 12 100 0.0119697
11 7 12 100 0.0109837
12 7 12 100 0.0187233
0 8 12 100 0.267123
1 8 12 100 0.0134341
2 8 12 100 0.0294849
3 8 12 100 0.0558141
4 8 12 100 0.12103
5 8 12 100 0.162461
6 8 12 100 0.122151
7 8 12 100 0.0933964
8 8 12 100 0.0459271
9 8 12 100 0.0306623
10 8 12 100 0.0224807
11 8 12 100 0.0161266
12 8 12 100 0.0199091
0 9 12 100 0.268933
1 9 12 100 0.0112132
2 9 12 100 0.0178216
3 9 12 100 0.044978
4 9 12 100 0.0744386
5 9 12 100 0.118965
6 9 12 100 0.154757
7 9 12 100 0.119235
8 9 12 100 0.0790793
9 9 12 100 0.0508367
10 9 12 100 0.0264092
11 9 12 100 0.0124057
12 9 12 100 0.0209277
0 10 12 100 0.294654
1 10 12 100 0.00560738
2 10 12 100 0.0168149
3 10 12 100 0.0257103
4 10 12 100 0.03868
5 10 12 100 0.102101
6 10 12 100 0.129334
7 10 12 100 0.124045
8 10 12 100 0.0932153
9 10 12 100 0.0574553
10 10 12 100 0.0482128
11 10 12 100 0.0246497
12 10 12 100 0.0395201
0 11 12 100 0.256045
1 11 12 100 0.00924173
2 11 12 100 0.0203319
3 11 12 100 0.022428
4 11 12 100 0.0362341
5 11 12 100 0.0778268
6 11 12 100 0.104484
7 11 12 100 0.137624
8 11 12 100 0.116684
9 11 12 100 0.0823866
10 11 12 100 0.05911
11 11 12 100 0.0361677
12 11 12 100 0.0414372
0 12 12 100 0.266271
1 12 12 100 0.0112763
2 12 12 100 0.015609
3 12 12 100 0.0232477
4 12 12 100 0.0178078
5 12 12 100 0.0388692
6 12 12 100 0.0788041
7 12 12 100 0.117576
8 12 12 100 0.136988
9 12 12 100 0.105779
10 12 12 100 0.0760286
11 12 12 100 0.0460683
12 12 12 100 0.0656746
0 13 12 100 0.245659
1 13 12 100 0.00896836
2 13 12 100 0.0109636
3 13 12 100 0.0171312
4 13 12 100 0.0152722
5 13 12 100 0.0361459
6 13 12 100 0.0551508
7 13 12 100 0.107959
8 13 12 100 0.13423
9 13 12 100 0.117279
10 13 12 100 0.0876933
11 13 12 100 0.0780432
12 13 12 100 0.0855043
0 14 12 100 0.253939
1 14 12 100 0.00396354
2 14 12 100 0.0117848
3 14 12 100 0.0162941
4 14 12 100 0.0155863
5 14 12 100 0.0206313
6 14 12 100 0.0431757
7 14 12 100 0.10066
8 14 12 100 0.124821
9 14 12 100 0.110249
10 14 12 100 0.109146
11 14 12 100 0.0767935
12 14 12 100 0.112956
0 15 12 100 0.266434
1 15 12 100 0.0102245
2 15 12 100 0.0104352
3 15 12 100 0.01213
4 15 12 100 0.0131779
5 15 12 100 0.021475
6 15 12 100 0.0363012
7 15 12 100 0.0662308
8 15 12 100 0.107246
9 15 12 100 0.117975
10 15 12 100 0.123665
11 15 12 100 0.101381
12 15 12 100 0.113324
0 16 12 100 0.285814
1 16 12 100 0.00826854
2 16 12 100 0.0137816
3 16 12 100 0.011888
4 16 12 100 0.0153588
5 16 12 100 0.0244468
6 16 12 100 0.0289807
7 16 12 100 0.0483353
8 16 12 100 0.0876259
9 16 12 100 0.112689
10 16 12 100 0.117704
11 16 12 100 0.110032
12 16 12 100 0.135075
0 17 12 100 0.297987
1 17 12 100 0.00482239
2 17 12 100 0.0155734
3 17 12 100 0.0098433
4 17 12 100 0.0126915
5 17 12 100 0.0173366
6 17 12 100 0.0218585
7 17 12 100 0.0384657
8 17 12 100 0.0772567
9 17 12 100 0.108564
10 17 12 100 0.110593
11 17 12 100 0.120915
12 17 12 100 0.164093
0 18 12 100 0.321266
1 18 12 100 0.00678612
2 18 12 100 0.00965606
3 18 12 100 0.00238176
4 18 12 100 0.00941633
5 18 12 100 0.0143657
6 18 12 100 0.0178091
7 18 12 100 0.039684
8 18 12 100 0.0516886
9 18 12 100 0.0973364
10 18 12 100 0.126161
11 18 12 100 0.130513
12 18 12 100 0.172936
0 19 12 100 0.340291
1 19 12 100 0.0077359
2 19 12 100 0.00602773
3 19 12 100 0.011226
4 19 12 100 0.00907575
5 19 12 100 0.00801316
6 19 12 100 0.0235904
7 19 12 100 0.0284506
8 19 12 100 0.0554117
9 19 12 100 0.0862152
10 19 12 100 0.120652
11 19 12 100 0.131304
12 19 12 100 0.172006
0 20 12 100 0.312015
1 20 12 100 0.00564056
2 20 12 100 0.00783614
3 20 12 100 0.00954841
4 20 12 100 0.0131494
5 20 12 100 0.00667044
6 20 12 100 0.0152808
7 20 12 100 0.0259101
8 20 12 100 0.0387556
9 20 12 100 0.0775259
10 20 12 100 0.137007
11 20 12 100 0.158159
12 20 12 100 0.192502
0 21 12 100 0.36075
1 21 12 100 0.0104076
2 21 12 100 0.00318235
3 21 12 100 0.00916622
4 21 12 100 0.0107058
5 21 12 100 0.00929079
6 21 12 100 0.0193207
7 21 12 100 0.0197451
8 21 12 100 0.0309917
9 21 12 100 0.069971
10 21 12 100 0.105593
11 21 12 100 0.162755
12 21 12 100 0.188121
0 22 12 100 0.351744
1 22 12 100 0.00633261
2 22 12 100 0.00925132
3 22 12 100 0.00590719
4 22 12 100 0.0135139
5 22 12 100 0.00529098
6 22 12 100 0.0186174
7 22 12 100 0.0241501
8 22 12 100 0.0308639
9 22 12 100 0.0481399
10 22 12 100 0.0920719
11 22 12 100 0.161367
12 22 12 100 0.23275
0 23 12 100 0.375023
1 23 12 100 0.0048983
2 23 12 100 0.0116871
3 23 12 100 0.0122766
4 23 12 100 0.00898384
5 23 12 100 0.0136086
6 23 12 100 0.0130832
7 23 12 100 0.0183247
8 23 12 100 0.0198092
9 23 12 100 0.0700411
10 23 12 100 0.0918277
11 23 12 100 0.125934
12 23 12 100 0.234503
0 24 12 100 0.402253
1 24 12 100 0.00308997
2 24 12 100 0.0153062
3 24 12 100 0.0155611
4 24 12 100 0.00338931
5 24 12 100 0.00336779
6 24 12 100 0.0183749
7 24 12 100 0.0277732
8 24 12 100 0.0281932
9 24 12 100 0.0401798
10 24 12 100 0.0556934
11 24 12 100 0.120644
12 24 12 100 0.266174
0 25 12 100 0.432463
1 25 12 100 0.0160832
2 25 12 100 0.00868439
3 25 12 100 0.0123756
4 25 12 100 0.00408887
5 25 12 100 0.0123972
6 25 12 100 0.0120063
7 25 12 100 0.0257546
8 25 12 100 0.0444763
9 25 12 100 0.0604812
10 25 12 100 0.068988
11 25 12 100 0.0926063
12 25 12 100 0.209595
0 26 12 100 0.42066
1 26 12 100 0.0110176
2 26 12 100 0.0218303
3 26 12 100 0.0217623
4 26 12 100 0.0221662
5 26 12 100 0.0261391
6 26 12 100 0.0116558
7 26 12 100 0.0383685
8 26 12 100 0.0220603
9 26 12 100 0.0602296
10 26 12 100 0.0606854
11 26 12 100 0.0656625
12 26 12 100 0.217763
0 27 12 100 0.371147
1 27 12 100 0.0221185
2 27 12 100 0.0376752
3 27 12 100 0.0222597
4 27 12 100 0.0255275
5 27 12 100 0.0525635
6 27 12 100 0.0150957
7 27 12 100 0.028855
8 27 12 100 0.0213252
9 27 12 100 0.0777711
10 27 12 100 0.0534114
11 27 12 100 0.0819698
12 27 12 100 0.19028
0 28 12 100 0.347895
1 28 12 100 0.00962675
2 28 12 100 0.0101794
3 28 12 100 0.0185932
4 28 12 100 0.0285101
5 28 12 100 0.0761017
6 28 12 100 0.0484215
7 28 12 100 0.0208095
8 28 12 100 0.0387551
9 28 12 100 0.0582533
10 28 12 100 0.0679263
11 28 12 100 0.118596
12 28 12 100 0.156333
0 29 12 100 0.386706
1 29 12 100 6.33761e-05
2 29 12 100 0.0442999
3 29 12 100 0.0271143
4 29 12 100 0.0429191
5 29 12 100 0.0240954
6 29 12 100 0.0137736
7 29 12 100 0.0122121
8 29 12 100 0.047414
9 29 12 100 0.067564
10 29 12 100 0.0881096
11 29 12 100 0.0537907
12 29 12 100 0.191938
0 30 12 100 0.359596
2 30 12 100 0.0587779
3 30 12 100 9.07401e-05
4 30 12 100 0.0764301
5 30 12 100 0.0162052
6 30 12 100 0.0582183
7 30 12 100 0.0409642
8 30 12 100 0.0453101
9 30 12 100 0.0853732
10 30 12 100 0.112516
11 30 12 100 0.05834
12 30 12 100 0.0881786
0 31 12 100 0.329801
1 31 12 100 0.0175511
2 31 12 100 0.0175734
3 31 12 100 0.0689714
4 31 12 100 0.0175423
5 31 12 100 0.0876099
6 31 12 100 0.0701848
7 31 12 100 0.000196213
8 31 12 100 0.0350696
9 31 12 100 0.0513779
10 31 12 100 0.0584978
11 31 12 100 0.0877207
12 31 12 100 0.157904
0 32 12 100 0.368114
1 32 12 100 0.0204519
2 32 12 100 0.0408164
3 32 12 100 0.020364
4 32 12 100 0.0821949
5 32 12 100 0.0226613
6 32 12 100 0.0205939
7 32 12 100 0.0244982
8 32 12 100 0.0396383
9 32 12 100 0.0612483
10 32 12 100 0.0752101
11 32 12 100 0.0603756
12 32 12 100 0.163834
0 33 12 100 0.356205
1 33 12 100 1.56573e-05
2 33 12 100 0.0440529
3 33 12 100 0.0222259
4 33 12 100 0.0434835
5 33 12 100 0.0221813
6 33 12 100 0.0905849
7 33 12 100 0.0227115
8 33 12 100 0.0455381
9 33 12 100 0.132754
10 33 12 100 0.0651208
11 33 12 100 0.0217534
12 33 12 100 0.133373
0 34 12 100 0.272804
2 34 12 100 0.0731707
3 34 12 100 2.81378e-05
4 34 12 100 0.0243737
5 34 12 100 0.118134
6 34 12 100 0.0723503
7 34 12 100 0.0705663
8 34 12 100 0.0244227
9 34 12 100 0.0731703
10 34 12 100 0.000462517
11 34 12 100 0.0971224
12 34 12 100 0.173395
0 35 12 100 0.293046
1 35 12 100 0.000109435
2 35 12 100 4.30338e-06
3 35 12 100 0.0881796
4 35 12 100 0.0587218
5 35 12 100 0.0295017
6 35 12 100 0.0622683
7 35 12 100 0.0295921
8 35 12 100 0.0295838
9 35 12 100 0.117611
10 35 12 100 0.0964345
11 35 12 100 0.0018259
12 35 12 100 0.193122
0 36 12 100 0.290709
1 36 12 100 2.69497e-05
3 36 12 100 0.0333347
4 36 12 100 0.0999954
5 36 12 100 0.0693221
6 36 12 100 0.0228128
7 36 12 100 0.00127402
8 36 12 100 0.0309613
9 36 12 100 0.164969
10 36 12 100 0.0861296
11 36 12 100 0.100458
12 36 12 100 0.100007
0 37 12 100 0.313412
1 37 12 100 4.62324e-07
2 37 12 100 0.0734345
3 37 12 100 0.0369672
4 37 12 100 0.0271311
5 37 12 100 0.0368259
7 37 12 100 0.0676113
8 37 12 100 0.0371396
9 37 12 100 0.0740818
10 37 12 100 0.148193
11 37 12 100 0.0740719
12 37 12 100 0.111131
0 38 12 100 0.300364
1 38 12 100 0.0396951
2 38 12 100 0.120993
4 38 12 100 0.0417496
5 38 12 100 0.000106371
6 38 12 100 0.0417151
7 38 12 100 0.0412515
8 38 12 100 0.0416855
10 38 12 100 0.166615
11 38 12 100 0.000283392
12 38 12 100 0.205541
0 39 12 100 0.380984
1 39 12 100 0.0476182
2 39 12 100 0.190202
4 39 12 100 0.0476192
6 39 12 100 7.21117e-05
8 39 12 100 0.0480245
9 39 12 100 0.000115683
10 39 12 100 0.0953928
11 39 12 100 0.0470575
12 39 12 100 0.142913
0 40 12 100 0.224
2 40 12 100 0.105251
3 40 12 100 3.14344e-05
4 40 12 100 0.0946307
5 40 12 100 0.0526166
6 40 12 100 0.0628937
7 40 12 100 1.32263e-06
8 40 12 100 0.100146
9 40 12 100 0.105252
10 40 12 100 0.147788
12 40 12 100 0.107389
0 41 12 100 0.215057
3 41 12 100 1.31316e-06
4 41 12 100 0.111111
6 41 12 100 0.0555671
9 41 12 100 0.111111
10 41 12 100 0.18823
11 41 12 100 0.148793
12 41 12 100 0.170129
0 42 12 100 0.252187
1 42 12 100 2.18051e-06
2 42 12 100 6.3477e-05
3 42 12 100 0.123841
4 42 12 100 0.0614375
5 42 12 100 0.0184953
6 42 12 100 0.0625553
9 42 12 100 0.000116314
10 42 12 100 0.186274
11 42 12 100 0.232405
12 42 12 100 0.0626224
0 43 12 100 0.39893
1 43 12 100 0.0666653
3 43 12 100 0.000566214
4 43 12 100 0.0666947
5 43 12 100 0.0666387
7 43 12 100 6.89588e-07
9 43 12 100 0.0666668
10 43 12 100 0.200091
11 43 12 100 0.000412538
12 43 12 100 0.133334
0 44 12 100 0.239574
1 44 12 100 0.072062
3 44 12 100 0.0769233
6 44 12 100 0.0770669
7 44 12 100 0.0767793
8 44 12 100 0.00392048
10 44 12 100 0.230565
11 44 12 100 0.150175
12 44 12 100 0.0729342
0 45 12 100 0.420461
2 45 12 100 2.15418e-06
3 45 12 100 0.0833307
6 45 12 100 4.91608e-05
7 45 12 100 0.0833353
8 45 12 100 6.92197e-06
9 45 12 100 0.0833411
10 45 12 100 0.166558
11 45 12 100 0.0795827
12 45 12 100 0.0833329
0 46 12 100 0.37499
1 46 12 100 2.15931e-06
4 46 12 100 1.75976e-05
7 46 12 100 3.24054e-06
8 46 12 100 0.124956
9 46 12 100 5.40697e-06
10 46 12 100 0.374988
11 46 12 100 1.5118e-06
12 46 12 100 0.125037
0 47 12 100 0.295823
2 47 12 100 0.133454
6 47 12 100 0.14278
7 47 12 100 1.83458e-06
9 47 12 100 0.42794
0 48 12 100 0.0031377
3 48 12 100 0.163538
7 48 12 100 0.166667
9 48 12 100 0.166667
10 48 12 100 0.33333
11 48 12 100 0.166661
0 49 12 100 0.233323
1 49 12 100 0.166655
3 49 12 100 0.101288
5 49 12 100 0.166604
10 49 12 100 0.166564
11 49 12 100 0.165564
0 50 12 100 0.00575585
5 50 12 100 0.164117
7 50 12 100 0.163461
8 50 12 100 0.166667
9 50 12 100 0.166665
11 50 12 100 0.166667
12 50 12 100 0.166667
0 51 12 100 0.333356
6 51 12 100 0.166654
8 51 12 100 0.333323
11 51 12 100 0.166667
0 52 12 100 0.531399
2 52 12 100 0.218599
12 52 12 100 0.250001
0 53 12 100 0.250006
6 53 12 100 3.50311e-05
10 53 12 100 0.249958
11 53 12 100 0.500002
0 54 12 100 0.35259
4 54 12 100 3.43532e-06
7 54 12 100 0.397411
9 54 12 100 0.249996
0 55 12 100 0.199902
7 55 12 100 0.13345
8 55 12 100 0.666648
0 56 12 100 0.000317137
8 56 12 100 0.999683
0 57 12 100 1
0 1 13 100 0.00098888
1 1 13 100 0.737342
2 1 13 100 0.0898907
3 1 13 100 0.0391016
4 1 13 100 0.0243337
5 1 13 100 0.0214621
6 1 13 100 0.014044
7 1 13 100 0.00913359
8 1 13 100 0.012427
9 1 13 100 0.0105888
10 1 13 100 0.012847
11 1 13 100 0.00713473
12 1 13 100 0.00149854
13 1 13 100 0.0192074
0 2 13 100 0.178962
1 2 13 100 0.150275
2 2 13 100 0.330513
3 2 13 100 0.157752
4 2 13 100 0.0548498
5 2 13 100 0.0358444
6 2 13 100 0.0214827
7 2 13 100 0.0117195
8 2 13 100 0.00720896
9 2 13 100 0.00969567
10 2 13 100 0.0102393
11 2 13 100 0.00595234
12 2 13 100 0.00651413
13 2 13 100 0.0189907
0 3 13 100 0.171889
1 3 13 100 0.0932006
2 3 13 100 0.327912
3 3 13 100 0.173043
4 3 13 100 0.0768422
5 3 13 100 0.0411002
6 3 13 100 0.0309188
7 3 13 100 0.0180258
8 3 13 100 0.0130311
9 3 13 100 0.0112442
10 3 13 100 0.0119801
11 3 13 100 0.00938267
12 3 13 100 0.00448174
13 3 13 100 0.0169486
0 4 13 100 0.183069
1 4 13 100 0.0618106
2 4 13 100 0.209165
3 4 13 100 0.208657
4 4 13 100 0.148849
5 4 13 100 0.0617555
6 4 13 100 0.0387411
7 4 13 100 0.0212866
8 4 13 100 0.0140618
9 4 13 100 0.0115955
10 4 13 100 0.00903343
11 4 13 100 0.0128839
12 4 13 100 0.00502206
13 4 13 100 0.0140689
0 5 13 100 0.207474
1 5 13 100 0.0341492
2 5 13 100 0.117126
3 5 13 100 0.169838
4 5 13 100 0.205975
5 5 13 100 0.105223
6 5 13 100 0.0559155
7 5 13 100 0.0282816
8 5 13 100 0.0198292
9 5 13 100 0.0121319
10 5 13 100 0.0123118
11 5 13 100 0.00835695
12 5 13 100 0.00753776
13 5 13 100 0.0158499
0 6 13 100 0.251766
1 6 13 100 0.0209124
2 6 13 100 0.0609112
3 6 13 100 0.123119
4 6 13 100 0.174471
5 6 13 100 0.160424
6 6 13 100 0.0831382
7 6 13 100 0.0377366
8 6 13 100 0.0278754
9 6 13 100 0.0109179
10 6 13 100 0.0162002
11 6 13 100 0.0136361
12 6 13 100 0.00594287
13 6 13 100 0.0129486
0 7 13 100 0.291501
1 7 13 100 0.0118358
2 7 13 100 0.0408782
3 7 13 100 0.0740974
4 7 13 100 0.143293
5 7 13 100 0.159167
6 7 13 100 0.111549
7 7 13 100 0.063102
8 7 13 100 0.0335975
9 7 13 100 0.0236285
10 7 13 100 0.0175669
11 7 13 100 0.0134128
12 7 13 100 0.00586541
13 7 13 100 0.0105066
0 8 13 100 0.271918
1 8 13 100 0.0147646
2 8 13 100 0.0233113
3 8 13 100 0.0552075
4 8 13 100 0.0967626
5 8 13 100 0.136953
6 8 13 100 0.157405
7 8 13 100 0.0931573
8 8 13 100 0.0552985
9 8 13 100 0.0262116
10 8 13 100 0.0236124
11 8 13 100 0.017629
12 8 13 100 0.0118747
13 8 13 100 0.0158938
0 9 13 100 0.240214
1 9 13 100 0.00854992
2 9 13 100 0.033028
3 9 13 100 0.0322848
4 9 13 100 0.0719668
5 9 13 100 0.119096
6 9 13 100 0.14351
7 9 13 100 0.129295
8 9 13 100 0.0834812
9 9 13 100 0.045314
10 9 13 100 0.0397419
11 9 13 100 0.0212538
12 9 13 100 0.0134426
13 9 13 100 0.0188218
0 10 13 100 0.289419
1 10 13 100 0.0067695
2 10 13 100 0.025912
3 10 13 100 0.0225746
4 10 13 100 0.0421348
5 10 13 100 0.0850882
6 10 13 100 0.122353
7 10 13 100 0.143119
8 10 13 100 0.0967589
9 10 13 100 0.0718665
10 10 13 100 0.0377813
11 10 13 100 0.0299463
12 10 13 100 0.00700587
13 10 13 100 0.0192708
0 11 13 100 0.271079
1 11 13 100 0.00523265
2 11 13 100 0.0231407
3 11 13 100 0.0180013
4 11 13 100 0.0352581
5 11 13 100 0.06727
6 11 13 100 0.11342
7 11 13 100 0.137005
8 11 13 100 0.108084
9 11 13 100 0.0800137
10 11 13 100 0.0576679
11 11 13 100 0.0367425
12 11 13 100 0.0197938
13 11 13 100 0.0272912
0 12 13 100 0.247333
1 12 13 100 0.00376466
2 12 13 100 0.0103756
3 12 13 100 0.0143071
4 12 13 100 0.0280442
5 12 13 100 0.0487397
6 12 13 100 0.0937832
7 12 13 100 0.114543
8 12 13 100 0.11575
9 12 13 100 0.107054
10 12 13 100 0.0896835
11 12 13 100 0.0601261
12 12 13 100 0.0316864
13 12 13 100 0.0348091
0 13 13 100 0.262994
1 13 13 100 0.00430469
2 13 13 100 0.00818856
3 13 13 100 0.017521
4 13 13 100 0.014742
5 13 13 100 0.039635
6 13 13 100 0.0658715
7 13 13 100 0.0866369
8 13 13 100 0.123161
9 13 13 100 0.11147
10 13 13 100 0.101499
11 13 13 100 0.0666896
12 13 13 100 0.0463715
13 13 13 100 0.0509155
0 14 13 100 0.251813
1 14 13 100 0.0054441
2 14 13 100 0.0108868
3 14 13 100 0.00915512
4 14 13 100 0.01223
5 14 13 100 0.0345201
6 14 13 100 0.0486892
7 14 13 100 0.073809
8 14 13 100 0.113456
9 14 13 100 0.123028
10 14 13 100 0.110172
11 14 13 100 0.0906036
12 14 13 100 0.058177
13 14 13 100 0.058016
0 15 13 100 0.257429
1 15 13 100 0.00735729
2 15 13 100 0.00824157
3 15 13 100 0.00655321
4 15 13 100 0.0124982
5 15 13 100 0.0197177
6 15 13 100 0.0353089
7 15 13 100 0.0643027
8 15 13 100 0.0887429
9 15 13 100 0.109655
10 15 13 100 0.122252
11 15 13 100 0.102954
12 15 13 100 0.082041
13 15 13 100 0.082947
0 16 13 100 0.260027
1 16 13 100 0.00453137
2 16 13 100 0.00442839
3 16 13 100 0.00481606
4 16 13 100 0.0105746
5 16 13 100 0.0137559
6 16 13 100 0.0314873
7 16 13 100 0.0475021
8 16 13 100 0.0677164
9 16 13 100 0.113868
10 16 13 100 0.132163
11 16 13 100 0.107929
12 16 13 100 0.101861
13 16 13 100 0.0993404
0 17 13 100 0.265561
1 17 13 100 0.0038783
2 17 13 100 0.00423102
3 17 13 100 0.00600347
4 17 13 100 0.00655927
5 17 13 100 0.0100761
6 17 13 100 0.0131384
7 17 13 100 0.029845
8 17 13 100 0.0542077
9 17 13 100 0.100324
10 17 13 100 0.129098
11 17 13 100 0.12768
12 17 13 100 0.101511
13 17 13 100 0.147886
0 18 13 100 0.301585
1 18 13 100 0.00178916
2 18 13 100 0.00269591
3 18 13 100 0.00729493
4 18 13 100 0.00900259
5 18 13 100 0.0111551
6 18 13 100 0.0160796
7 18 13 100 0.029322
8 18 13 100 0.0444076
9 18 13 100 0.075534
10 18 13 100 0.110068
11 18 13 100 0.120615
12 18 13 100 0.113723
13 18 13 100 0.156727
0 19 13 100 0.31176
1 19 13 100 0.00361713
2 19 13 100 0.00296793
3 19 13 100 0.00186169
4 19 13 100 0.00658743
5 19 13 100 0.00594371
6 19 13 100 0.0130559
7 19 13 100 0.0225712
8 19 13 100 0.0433679
9 19 13 100 0.0675654
10 19 13 100 0.103579
11 19 13 100 0.114116
12 19 13 100 0.1248
13 19 13 100 0.178206
0 20 13 100 0.319166
1 20 13 100 0.00187674
2 20 13 100 0.00568695
3 20 13 100 0.00333177
4 20 13 100 0.00793442
5 20 13 100 0.00756366
6 20 13 100 0.0113345
7 20 13 100 0.0198192
8 20 13 100 0.0405003
9 20 13 100 0.0547156
10 20 13 100 0.0901606
11 20 13 100 0.121031
12 20 13 100 0.135424
13 20 13 100 0.181455
0 21 13 100 0.337855
1 21 13 100 0.00163981
2 21 13 100 0.00520659
3 21 13 100 0.0105013
4 21 13 100 0.00779357
5 21 13 100 0.00914332
6 21 13 100 0.00550394
7 21 13 100 0.0173766
8 21 13 100 0.0288673
9 21 13 100 0.0409938
10 21 13 100 0.0694242
11 21 13 100 0.108592
12 21 13 100 0.142412
13 21 13 100 0.21469
0 22 13 100 0.323125
1 22 13 100 0.00232314
2 22 13 100 0.00466977
3 22 13 100 0.0138674
4 22 13 100 0.00781392
5 22 13 100 0.00614692
6 22 13 100 0.00571636
7 22 13 100 0.026357
8 22 13 100 0.0242927
9 22 13 100 0.0433921
10 22 13 100 0.0646502
11 22 13 100 0.106424
12 22 13 100 0.137137
13 22 13 100 0.234084
0 23 13 100 0.342598
1 23 13 100 0.00260848
2 23 13 100 0.0037139
3 23 13 100 0.00787201
4 23 13 100 0.0155219
5 23 13 100 0.00728694
6 23 13 100 0.0111299
7 23 13 100 0.0279333
8 23 13 100 0.0206583
9 23 13 100 0.0328815
10 23 13 100 0.0866849
11 23 13 100 0.0806695
12 23 13 100 0.141439
13 23 13 100 0.219002
0 24 13 100 0.389189
1 24 13 100 1.58251e-05
2 24 13 100 0.0129029
3 24 13 100 0.00660757
4 24 13 100 0.0114534
5 24 13 100 0.011123
6 24 13 100 0.00673003
7 24 13 100 0.0179387
8 24 13 100 0.0170324
9 24 13 100 0.0274428
10 24 13 100 0.0424991
11 24 13 100 0.116818
12 24 13 100 0.121031
13 24 13 100 0.219217
0 25 13 100 0.356571
1 25 13 100 0.00320198
2 25 13 100 0.0112485
3 25 13 100 0.00562649
4 25 13 100 0.00868429
5 25 13 100 0.0115381
6 25 13 100 0.011202
7 25 13 100 0.0171836
8 25 13 100 0.0142109
9 25 13 100 0.0254553
10 25 13 100 0.0621156
11 25 13 100 0.115512
12 25 13 100 0.163503
13 25 13 100 0.193948
0 26 13 100 0.387824
1 26 13 100 0.00362054
2 26 13 100 0.00364597
3 26 13 100 0.0173832
4 26 13 100 0.0107516
5 26 13 100 3.29624e-05
6 26 13 100 0.0107853
7 26 13 100 0.0109078
8 26 13 100 0.0147944
9 26 13 100 0.0410513
10 26 13 100 0.0563992
11 26 13 100 0.0661936
12 26 13 100 0.181078
13 26 13 100 0.195532
0 27 13 100 0.353737
1 27 13 100 0.00452184
2 27 13 100 0.00168648
3 27 13 100 0.00944634
4 27 13 100 0.0141706
5 27 13 100 0.0233584
6 27 13 100 0.000643871
7 27 13 100 0.0198036
8 27 13 100 0.0181613
9 27 13 100 0.0381198
10 27 13 100 0.0561927
11 27 13 100 0.0699378
12 27 13 100 0.164026
13 27 13 100 0.226195
0 28 13 100 0.399065
1 28 13 100 1.01378e-05
2 28 13 100 0.00627817
3 28 13 100 0.00651257
4 28 13 100 0.0118779
5 28 13 100 0.0121519
6 28 13 100 0.0178545
7 28 13 100 0.0261948
8 28 13 100 0.0119231
9 28 13 100 0.0343784
10 28 13 100 0.0369415
11 28 13 100 0.0895162
12 28 13 100 0.150692
13 28 13 100 0.196604
0 29 13 100 0.399959
1 29 13 100 6.77647e-06
2 29 13 100 0.0077823
3 29 13 100 0.00827622
4 29 13 100 0.0208931
5 29 13 100 1.32028e-06
6 29 13 100 0.0102351
7 29 13 100 0.0170334
8 29 13 100 0.00832062
9 29 13 100 0.04608
10 29 13 100 0.0497237
11 29 13 100 0.0819275
12 29 13 100 0.157311
13 29 13 100 0.192449
0 30 13 100 0.460084
1 30 13 100 0.0350472
3 30 13 100 0.0117644
4 30 13 100 0.0467149
5 30 13 100 0.0100901
6 30 13 100 0.0469873
7 30 13 100 0.0119011
8 30 13 100 0.024739
9 30 13 100 0.0236406
10 30 13 100 0.0345647
11 30 13 100 0.047823
12 30 13 100 0.0944107
13 30 13 100 0.152233
0 31 13 100 0.400476
2 31 13 100 0.0322227
3 31 13 100 0.0171373
4 31 13 100 0.049046
5 31 13 100 0.000234089
6 31 13 100 1.72304e-06
7 31 13 100 0.0164098
8 31 13 100 0.0164487
9 31 13 100 0.0328007
10 31 13 100 0.0748515
11 31 13 100 0.0346114
12 31 13 100 0.133685
13 31 13 100 0.192075
0 32 13 100 0.371078
1 32 13 100 2.02186e-05
2 32 13 100 0.0343729
3 32 13 100 0.0425644
4 32 13 100 0.0635302
5 32 13 100 0.063403
6 32 13 100 0.0214153
7 32 13 100 0.0212766
8 32 13 100 0.000324198
9 32 13 100 0.0639082
10 32 13 100 8.40632e-05
11 32 13 100 0.0850394
12 32 13 100 0.0639251
13 32 13 100 0.169058
0 33 13 100 0.26254
2 33 13 100 0.0280021
4 33 13 100 0.131727
5 33 13 100 0.0508105
6 33 13 100 0.0277787
7 33 13 100 0.0277758
8 33 13 100 0.0278086
9 33 13 100 0.0553013
10 33 13 100 0.0278045
11 33 13 100 0.0832535
12 33 13 100 0.16638
13 33 13 100 0.110819
0 34 13 100 0.323772
2 34 13 100 8.11461e-06
3 34 13 100 0.0312535
4 34 13 100 0.0624874
5 34 13 100 8.34707e-06
6 34 13 100 0.0313489
7 34 13 100 0.0311022
8 34 13 100 0.126408
10 34 13 100 0.123361
11 34 13 100 0.114091
12 34 13 100 0.0622492
13 34 13 100 0.0939107
0 35 13 100 0.248805
2 35 13 100 3.72326e-07
3 35 13 100 0.0344829
4 35 13 100 0.103405
5 35 13 100 0.035144
6 35 13 100 0.0344841
7 35 13 100 0.0345146
10 35 13 100 0.0687493
11 35 13 100 0.304227
12 35 13 100 0.0345541
13 35 13 100 0.101633
0 36 13 100 0.153959
1 36 13 100 0.0382715
2 36 13 100 1.57585e-05
3 36 13 100 0.0384159
4 36 13 100 0.115387
5 36 13 100 7.44899e-06
6 36 13 100 0.000517304
7 36 13 100 0.0768365
8 36 13 100 0.0385115
9 36 13 100 0.0384544
10 36 13 100 0.0386572
11 36 13 100 0.191785
12 36 13 100 0.230716
13 36 13 100 0.0384665
0 37 13 100 0.160383
1 37 13 100 3.36455e-06
3 37 13 100 1.99712e-05
4 37 13 100 0.159345
5 37 13 100 0.0799558
6 37 13 100 0.0400191
7 37 13 100 0.0405891
8 37 13 100 0.120001
10 37 13 100 0.0400013
11 37 13 100 0.159339
12 37 13 100 0.0403557
13 37 13 100 0.159988
0 38 13 100 0.37675
1 38 13 100 2.7333e-06
2 38 13 100 0.0416685
3 38 13 100 0.0416651
4 38 13 100 0.0833277
5 38 13 100 0.0835002
6 38 13 100 1.86641e-06
7 38 13 100 0.124739
10 38 13 100 2.28212e-06
11 38 13 100 0.0833311
12 38 13 100 0.123344
13 38 13 100 0.0416667
0 39 13 100 0.500096
1 39 13 100 1.9556e-05
2 39 13 100 8.55567e-06
3 39 13 100 6.16242e-07
4 39 13 100 0.0560184
5 39 13 100 0.0555661
8 39 13 100 0.0555557
10 39 13 100 2.81348e-06
11 39 13 100 0.0555557
12 39 13 100 0.221648
13 39 13 100 0.0555284
0 40 13 100 0.22493
1 40 13 100 0.0814361
2 40 13 100 0.0666669
3 40 13 100 0.0667674
4 40 13 100 0.0666252
5 40 13 100 0.0659005
7 40 13 100 0.0666373
8 40 13 100 3.18879e-05
10 40 13 100 0.0275944
11 40 13 100 0.0666334
12 40 13 100 0.133444
13 40 13 100 0.133333
0 41 13 100 0.201985
1 41 13 100 0.0666614
2 41 13 100 0.133052
3 41 13 100 9.21171e-07
4 41 13 100 0.0667373
6 41 13 100 8.25197e-06
7 41 13 100 0.0666686
8 41 13 100 0.0666668
9 41 13 100 0.0653019
10 41 13 100 7.022e-07
11 41 13 100 6.85068e-05
12 41 13 100 0.199582
13 41 13 100 0.133266
0 42 13 100 0.213044
2 42 13 100 0.000769084
3 42 13 100 0.000607419
4 42 13 100 0.188711
5 42 13 100 0.264623
8 42 13 100 5.30511e-06
10 42 13 100 0.0666657
11 42 13 100 0.0664978
12 42 13 100 0.199076
0 43 13 100 0.13444
1 43 13 100 0.0426403
4 43 13 100 0.0717032
5 43 13 100 0.142703
7 43 13 100 0.214286
8 43 13 100 0.000113441
11 43 13 100 0.251257
12 43 13 100 0.142857
13 43 13 100 8.87607e-07
0 44 13 100 0.139869
2 44 13 100 0.0769232
3 44 13 100 0.000284683
6 44 13 100 0.152102
7 44 13 100 0.153846
8 44 13 100 0.0919859
11 44 13 100 0.154307
12 44 13 100 0.153846
13 44 13 100 0.0768362
0 45 13 100 0.218461
1 45 13 100 2.7819e-05
2 45 13 100 3.10809e-06
4 45 13 100 0.0912376
6 45 13 100 0.0899754
7 45 13 100 0.0910912
10 45 13 100 0.0909027
11 45 13 100 0.0909107
12 45 13 100 0.0909093
13 45 13 100 0.236481
0 46 13 100 0.108061
3 46 13 100 0.099998
4 46 13 100 0.201256
5 46 13 100 1.94987e-06
7 46 13 100 0.09665
11 46 13 100 4.52615e-05
12 46 13 100 0.297218
13 46 13 100 0.196771
0 47 13 100 0.231203
1 47 13 100 0.100008
2 47 13 100 3.39046e-06
3 47 13 100 0.1
4 47 13 100 0.0999417
7 47 13 100 0.0999621
8 47 13 100 0.1
11 47 13 100 0.168715
12 47 13 100 0.00016713
13 47 13 100 0.0999993
0 48 13 100 0.000146232
2 48 13 100 0.111111
4 48 13 100 0.222184
6 48 13 100 1.73137e-05
7 48 13 100 0.111111
8 48 13 100 0.111111
11 48 13 100 0.22218
12 48 13 100 0.222139
0 49 13 100 0.343691
2 49 13 100 0.000209952
4 49 13 100 0.111111
5 49 13 100 0.111075
6 49 13 100 1.57922e-05
7 49 13 100 0.00503605
8 49 13 100 0.102961
9 49 13 100 0.111105
11 49 13 100 0.214725
12 49 13 100 6.99107e-05
0 50 13 100 0.251229
2 50 13 100 8.79545e-06
3 50 13 100 0.248782
4 50 13 100 0.124989
11 50 13 100 0.125
12 50 13 100 0.125
13 50 13 100 0.124991
0 51 13 100 0.125804
1 51 13 100 0.125006
2 51 13 100 0.125
3 51 13 100 0.124941
4 51 13 100 0.12384
6 51 13 100 0.000138885
7 51 13 100 0.125269
8 51 13 100 0.25
11 51 13 100 1.94659e-06
0 52 13 100 0.346799
2 52 13 100 0.142856
4 52 13 100 8.61051e-06
6 52 13 100 0.142855
7 52 13 100 0.142017
8 52 13 100 0.142857
12 52 13 100 0.0826064
0 53 13 100 0.166718
1 53 13 100 0.166667
3 53 13 100 0.166617
4 53 13 100 0.166667
11 53 13 100 0.333331
0 54 13 100 0.113641
1 54 13 100 0.2
5 54 13 100 0.132719
7 54 13 100 0.153716
8 54 13 100 0.2
11 54 13 100 0.199924
0 55 13 100 0.538002
4 55 13 100 0.211916
8 55 13 100 0.25
12 55 13 100 8.1544e-05
0 56 13 100 0.356538
3 56 13 100 0.310155
4 56 13 100 0.333307
0 57 13 100 0.00045191
3 57 13 100 0.00215203
9 57 13 100 0.997309
11 57 13 100 8.74611e-05
0 58 13 100 0.5
9 58 13 100 0.5
13 59 13 100 1
0 60 13 100 0.138888
13 60 13 100 0.861112
0 1 14 100 0.00136574
1 1 14 100 0.725905
2 1 14 100 0.0981639
3 1 14 100 0.0395927
4 1 14 100 0.0287427
5 1 14 100 0.0163503
6 1 14 100 0.0169432
7 1 14 100 0.00934027
8 1 14 100 0.0067491
9 1 14 100 0.00843348
10 1 14 100 0.00854902
11 1 14 100 0.00666445
12 1 14 100 0.0143273
13 1 14 100 0.00295917
14 1 14 100 0.0159136
0 2 14 100 0.18438
1 2 14 100 0.133183
2 2 14 100 0.353316
3 2 14 100 0.145068
4 2 14 100 0.0497598
5 2 14 100 0.0315749
6 2 14 100 0.0267254
7 2 14 100 0.0116814
8 2 14 100 0.00652481
9 2 14 100 0.00785179
10 2 14 100 0.0143848
11 2 14 100 0.00636339
12 2 14 100 0.00938448
13 2 14 100 0.00445366
14 2 14 100 0.015349
0 3 14 100 0.164952
1 3 14 100 0.107322
2 3 14 100 0.308102
3 3 14 100 0.161781
4 3 14 100 0.0882767
5 3 14 100 0.0393743
6 3 14 100 0.0301478
7 3 14 100 0.0176265
8 3 14 100 0.0138299
9 3 14 100 0.00815949
10 3 14 100 0.012103
11 3 14 100 0.0110185
12 3 14 100 0.0115275
13 3 14 100 0.00721
14 3 14 100 0.0185693
0 4 14 100 0.179008
1 4 14 100 0.0627969
2 4 14 100 0.223597
3 4 14 100 0.199785
4 4 14 100 0.127392
5 4 14 100 0.0645807
6 4 14 100 0.0377491
7 4 14 100 0.0253889
8 4 14 100 0.0137123
9 4 14 100 0.00867024
10 4 14 100 0.0122617
11 4 14 100 0.00877156
12 4 14 100 0.0129734
13 4 14 100 0.00637281
14 4 14 100 0.0169404
0 5 14 100 0.234111
1 5 14 100 0.0372518
2 5 14 100 0.115241
3 5 14 100 0.184453
4 5 14 100 0.162815
5 5 14 100 0.0920717
6 5 14 100 0.0618242
7 5 14 100 0.0292966
8 5 14 100 0.0167905
9 5 14 100 0.0129736
10 5 14 100 0.0116435
11 5 14 100 0.00991668
12 5 14 100 0.0107019
13 5 14 100 0.00711408
14 5 14 100 0.0137947
0 6 14 100 0.252044
1 6 14 100 0.019685
2 6 14 100 0.0909602
3 6 14 100 0.133105
4 6 14 100 0.174442
5 6 14 100 0.123643
6 6 14 100 0.0815936
7 6 14 100 0.0414071
8 6 14 100 0.0208125
9 6 14 100 0.0140054
10 6 14 100 0.0105789
11 6 14 100 0.00517051
12 6 14 100 0.0114341
13 6 14 100 0.00677169
14 6 14 100 0.0143483
0 7 14 100 0.27746
1 7 14 100 0.0128324
2 7 14 100 0.0552023
3 7 14 100 0.0807702
4 7 14 100 0.135231
5 7 14 100 0.146777
6 7 14 100 0.104808
7 7 14 100 0.0609083
8 7 14 100 0.0395977
9 7 14 100 0.026588
10 7 14 100 0.0178169
11 7 14 100 0.0103383
12 7 14 100 0.010172
13 7 14 100 0.00428111
14 7 14 100 0.0172174
0 8 14 100 0.275951
1 8 14 100 0.0126005
2 8 14 100 0.0237359
3 8 14 100 0.059453
4 8 14 100 0.107997
5 8 14 100 0.14636
6 8 14 100 0.133798
7 8 14 100 0.085364
8 8 14 100 0.0534982
9 8 14 100 0.027339
10 8 14 100 0.0229291
11 8 14 100 0.0108004
12 8 14 100 0.0121832
13 8 14 100 0.0101575
14 8 14 100 0.0178329
0 9 14 100 0.286617
1 9 14 100 0.00982713
2 9 14 100 0.0248778
3 9 14 100 0.0383026
4 9 14 100 0.0672426
5 9 14 100 0.119479
6 9 14 100 0.144938
7 9 14 100 0.106795
8 9 14 100 0.0617023
9 9 14 100 0.0520168
10 9 14 100 0.031046
11 9 14 100 0.0160096
12 9 14 100 0.013827
13 9 14 100 0.0114035
14 9 14 100 0.0159154
0 10 14 100 0.249683
1 10 14 100 0.0128129
2 10 14 100 0.0153047
3 10 14 100 0.0239529
4 10 14 100 0.053906
5 10 14 100 0.0890302
6 10 14 100 0.131406
7 10 14 100 0.13058
8 10 14 100 0.103712
9 10 14 100 0.080737
10 10 14 100 0.036889
11 10 14 100 0.0237523
12 10 14 100 0.0171187
13 10 14 100 0.00974588
14 10 14 100 0.0213694
0 11 14 100 0.275524
1 11 14 100 0.00522687
2 11 14 100 0.01501
3 11 14 100 0.0184436
4 11 14 100 0.026876
5 11 14 100 0.0692345
6 11 14 100 0.108215
7 11 14 100 0.131772
8 11 14 100 0.104485
9 11 14 100 0.094649
10 11 14 100 0.0576836
11 11 14 100 0.0346973
12 11 14 100 0.018428
13 11 14 100 0.0153105
14 11 14 100 0.0244442
0 12 14 100 0.244759
1 12 14 100 0.00437513
2 12 14 100 0.0113057
3 12 14 100 0.00930456
4 12 14 100 0.0307863
5 12 14 100 0.0487667
6 12 14 100 0.0896253
7 12 14 100 0.129965
8 12 14 100 0.116088
9 12 14 100 0.110493
10 12 14 100 0.0819007
11 12 14 100 0.0444748
12 12 14 100 0.025657
13 12 14 100 0.0137546
14 12 14 100 0.0387446
0 13 14 100 0.26194
1 13 14 100 0.00251982
2 13 14 100 0.0106975
3 13 14 100 0.00961653
4 13 14 100 0.0154191
5 13 14 100 0.0418148
6 13 14 100 0.0651487
7 13 14 100 0.0937951
8 13 14 100 0.126832
9 13 14 100 0.103839
10 13 14 100 0.085822
11 13 14 100 0.0718383
12 13 14 100 0.0439915
13 13 14 100 0.0231699
14 13 14 100 0.0435558
0 14 14 100 0.252838
1 14 14 100 0.00368362
2 14 14 100 0.0126094
3 14 14 100 0.00904415
4 14 14 100 0.0107294
5 14 14 100 0.0234607
6 14 14 100 0.0501536
7 14 14 100 0.0750429
8 14 14 100 0.110915
9 14 14 100 0.115408
10 14 14 100 0.105453
11 14 14 100 0.0756489
12 14 14 100 0.0623829
13 14 14 100 0.0290784
14 14 14 100 0.063552
0 15 14 100 0.243029
1 15 14 100 0.000757978
2 15 14 100 0.00784339
3 15 14 100 0.00880893
4 15 14 100 0.011248
5 15 14 100 0.0163962
6 15 14 100 0.0423995
7 15 14 100 0.059351
8 15 14 100 0.0936568
9 15 14 100 0.119021
10 15 14 100 0.108948
11 15 14 100 0.0984183
12 15 14 100 0.0807085
13 15 14 100 0.0458265
14 15 14 100 0.0635874
0 16 14 100 0.254442
1 16 14 100 0.0034947
2 16 14 100 0.00810161
3 16 14 100 0.00933355
4 16 14 100 0.0127851
5 16 14 100 0.0155957
6 16 14 100 0.0272586
7 16 14 100 0.0386349
8 16 14 100 0.0596766
9 16 14 100 0.110154
10 16 14 100 0.110196
11 16 14 100 0.105365
12 16 14 100 0.0988858
13 16 14 100 0.0624784
14 16 14 100 0.0835977
0 17 14 100 0.253821
1 17 14 100 0.00305664
2 17 14 100 0.00456096
3 17 14 100 0.00704913
4 17 14 100 0.0106023
5 17 14 100 0.0159972
6 17 14 100 0.0199213
7 17 14 100 0.0302272
8 17 14 100 0.0527228
9 17 14 100 0.0922448
10 17 14 100 0.100663
11 17 14 100 0.128202
12 17 14 100 0.10168
13 17 14 100 0.0777008
14 17 14 100 0.101551
0 18 14 100 0.280079
1 18 14 100 0.00553579
2 18 14 100 0.00642663
3 18 14 100 0.00486199
4 18 14 100 0.00849668
5 18 14 100 0.00957662
6 18 14 100 0.0151994
7 18 14 100 0.0246095
8 18 14 100 0.0407528
9 18 14 100 0.0695699
10 18 14 100 0.0959127
11 18 14 100 0.116315
12 18 14 100 0.114938
13 18 14 100 0.0926277
14 18 14 100 0.115098
0 19 14 100 0.280889
1 19 14 100 0.00507604
2 19 14 100 0.00515434
3 19 14 100 0.00574532
4 19 14 100 0.00928821
5 19 14 100 0.00950725
6 19 14 100 0.0106208
7 19 14 100 0.0203795
8 19 14 100 0.0334764
9 19 14 100 0.0610836
10 19 14 100 0.0904206
11 19 14 100 0.113574
12 19 14 100 0.122966
13 19 14 100 0.0872596
14 19 14 100 0.144559
0 20 14 100 0.291048
1 20 14 100 0.0042949
2 20 14 100 0.00785903
3 20 14 100 0.00496834
4 20 14 100 0.00888661
5 20 14 100 0.0073127
6 20 14 100 0.0154238
7 20 14 100 0.0173304
8 20 14 100 0.0297404
9 20 14 100 0.0638911
10 20 14 100 0.055738
11 20 14 100 0.111237
12 20 14 100 0.0977407
13 20 14 100 0.130228
14 20 14 100 0.1543
0 21 14 100 0.286084
1 21 14 100 0.00234073
2 21 14 100 0.00611965
3 21 14 100 0.00520695
4 21 14 100 0.00651811
5 21 14 100 0.00433792
6 21 14 100 0.0123086
7 21 14 100 0.0178157
8 21 14 100 0.0281174
9 21 14 100 0.0449226
10 21 14 100 0.060944
11 21 14 100 0.121645
12 21 14 100 0.107534
13 21 14 100 0.129836
14 21 14 100 0.16627
0 22 14 100 0.327978
1 22 14 100 0.00216518
2 22 14 100 0.00684692
3 22 14 100 0.00340444
4 22 14 100 0.00783156
5 22 14 100 0.00818925
6 22 14 100 0.0139382
7 22 14 100 0.0108904
8 22 14 100 0.0123074
9 22 14 100 0.0393709
10 22 14 100 0.0551611
11 22 14 100 0.0771559
12 22 14 100 0.114535
13 22 14 100 0.148747
14 22 14 100 0.17148
0 23 14 100 0.377541
1 23 14 100 0.00131478
2 23 14 100 0.00768378
3 23 14 100 0.00392887
4 23 14 100 0.00399411
5 23 14 100 0.00934274
6 23 14 100 0.00795613
7 23 14 100 0.0102621
8 23 14 100 0.0181409
9 23 14 100 0.0263261
10 23 14 100 0.0461
11 23 14 100 0.071917
12 23 14 100 0.112453
13 23 14 100 0.132529
14 23 14 100 0.17051
0 24 14 100 0.315336
1 24 14 100 0.00312343
2 24 14 100 0.00313909
3 24 14 100 0.0124794
4 24 14 100 0.00164227
5 24 14 100 0.0103184
6 24 14 100 0.0139484
7 24 14 100 0.0145408
8 24 14 100 0.0159999
9 24 14 100 0.0249235
10 24 14 100 0.0389133
11 24 14 100 0.0764294
12 24 14 100 0.110169
13 24 14 100 0.151391
14 24 14 100 0.207647
0 25 14 100 0.351104
1 25 14 100 0.00384698
2 25 14 100 0.00543551
3 25 14 100 0.00740567
4 25 14 100 0.00771967
5 25 14 100 0.012898
6 25 14 100 0.00613859
7 25 14 100 0.0148446
8 25 14 100 0.0114641
9 25 14 100 0.0334916
10 25 14 100 0.0383532
11 25 14 100 0.0581482
12 25 14 100 0.112866
13 25 14 100 0.108918
14 25 14 100 0.227366
0 26 14 100 0.362353
1 26 14 100 0.00856295
2 26 14 100 0.00436741
3 26 14 100 0.00444264
4 26 14 100 0.0089119
5 26 14 100 0.0139671
6 26 14 100 0.0129357
7 26 14 100 0.0159478
8 26 14 100 0.00923312
9 26 14 100 0.0222814
10 26 14 100 0.0348991
11 26 14 100 0.032491
12 26 14 100 0.0948461
13 26 14 100 0.154986
14 26 14 100 0.219776
0 27 14 100 0.355658
1 27 14 100 0.00549329
2 27 14 100 6.40306e-05
3 27 14 100 0.0082899
4 27 14 100 0.00824034
5 27 14 100 0.0027563
6 27 14 100 0.017493
7 27 14 100 0.0140399
8 27 14 100 0.00847725
9 27 14 100 0.0345299
10 27 14 100 0.0487891
11 27 14 100 0.0573615
12 27 14 100 0.0683001
13 27 14 100 0.136425
14 27 14 100 0.234082
0 28 14 100 0.357754
1 28 14 100 0.00715729
2 28 14 100 0.00762028
3 28 14 100 0.00713
4 28 14 100 0.00353756
5 28 14 100 0.0158635
6 28 14 100 0.0235481
7 28 14 100 0.00373399
8 28 14 100 0.00722299
9 28 14 100 0.0180815
10 28 14 100 0.0433343
11 28 14 100 0.0571793
12 28 14 100 0.0550266
13 28 14 100 0.127392
14 28 14 100 0.265419
0 29 14 100 0.39332
1 29 14 100 0.00473921
2 29 14 100 0.00460783
3 29 14 100 0.00456632
4 29 14 100 0.0045616
5 29 14 100 0.00484822
6 29 14 100 0.0173479
7 29 14 100 0.0189986
8 29 14 100 9.35243e-06
9 29 14 100 0.0213782
10 29 14 100 0.0481533
11 29 14 100 0.0511393
12 29 14 100 0.0936059
13 29 14 100 0.127365
14 29 14 100 0.205359
0 30 14 100 0.415649
1 30 14 100 0.00633382
2 30 14 100 0.0125294
3 30 14 100 2.13024e-06
4 30 14 100 0.0186914
5 30 14 100 4.41677e-05
6 30 14 100 0.00593349
7 30 14 100 0.0189197
8 30 14 100 0.0125872
9 30 14 100 0.0126022
10 30 14 100 0.036516
11 30 14 100 0.0915542
12 30 14 100 0.0562674
13 30 14 100 0.129761
14 30 14 100 0.18261
0 31 14 100 0.281292
1 31 14 100 0.0207756
2 31 14 100 0.0246154
3 31 14 100 5.19594e-06
4 31 14 100 0.000771215
5 31 14 100 0.0328021
6 31 14 100 0.0079986
7 31 14 100 0.00760183
8 31 14 100 0.00821737
9 31 14 100 0.0410309
10 31 14 100 0.0409005
11 31 14 100 0.0818207
12 31 14 100 0.0409326
13 31 14 100 0.183163
14 31 14 100 0.228072
0 32 14 100 0.367317
1 32 14 100 0.00868152
2 32 14 100 7.58987e-05
3 32 14 100 0.00961553
4 32 14 100 0.0273239
5 32 14 100 7.39511e-06
6 32 14 100 0.0296165
7 32 14 100 0.0189417
8 32 14 100 0.0159955
9 32 14 100 1.38374e-05
10 32 14 100 0.0389057
11 32 14 100 0.0768241
12 32 14 100 0.0769854
13 32 14 100 0.0814468
14 32 14 100 0.248249
0 33 14 100 0.395182
1 33 14 100 0.000278985
2 33 14 100 0.000560399
3 33 14 100 0.0219906
4 33 14 100 0.000861512
5 33 14 100 0.0124685
6 33 14 100 0.0261989
7 33 14 100 0.0494686
8 33 14 100 9.08549e-05
9 33 14 100 2.30644e-05
10 33 14 100 0.0370423
11 33 14 100 0.0495061
12 33 14 100 0.0754079
13 33 14 100 0.136679
14 33 14 100 0.194241
0 34 14 100 0.344131
1 34 14 100 1.70327e-06
2 34 14 100 1.99457e-06
3 34 14 100 0.0447957
4 34 14 100 0.0299504
5 34 14 100 0.0597516
6 34 14 100 0.0149476
7 34 14 100 0.0448528
8 34 14 100 6.4718e-06
9 34 14 100 1.83548e-05
10 34 14 100 0.0746989
11 34 14 100 0.0149254
12 34 14 100 0.0299333
13 34 14 100 0.0898633
14 34 14 100 0.252122
0 35 14 100 0.435959
1 35 14 100 0.032552
2 35 14 100 0.0154468
3 35 14 100 0.0187257
4 35 14 100 8.6607e-06
5 35 14 100 0.0383825
6 35 14 100 0.0226701
7 35 14 100 0.0961117
8 35 14 100 4.95128e-06
9 35 14 100 4.39149e-06
10 35 14 100 0.0573822
11 35 14 100 0.0379146
12 35 14 100 0.0146809
13 35 14 100 0.11547
14 35 14 100 0.114687
0 36 14 100 0.29711
1 36 14 100 0.0565202
2 36 14 100 0.0270252
3 36 14 100 2.37692e-05
4 36 14 100 0.0272248
5 36 14 100 0.000444254
6 36 14 100 7.76345e-06
7 36 14 100 0.0807905
8 36 14 100 0.051388
9 36 14 100 4.21579e-05
10 36 14 100 0.0775297
11 36 14 100 0.0495542
12 36 14 100 0.00251142
13 36 14 100 0.0852095
14 36 14 100 0.244618
0 37 14 100 0.27621
3 37 14 100 6.46574e-06
4 37 14 100 0.0654651
5 37 14 100 3.36055e-07
7 37 14 100 0.0291184
8 37 14 100 0.0294114
9 37 14 100 0.0882251
10 37 14 100 0.0294133
11 37 14 100 0.0872191
12 37 14 100 0.0884886
13 37 14 100 0.159645
14 37 14 100 0.146797
0 38 14 100 0.360258
1 38 14 100 0.0687107
2 38 14 100 0.0357181
5 38 14 100 0.0357181
8 38 14 100 0.0357166
10 38 14 100 0.0714277
11 38 14 100 0.0712657
12 38 14 100 0.0712615
13 38 14 100 0.107144
14 38 14 100 0.14278
0 39 14 100 0.332824
1 39 14 100 0.0476193
2 39 14 100 0.0476192
3 39 14 100 1.65855e-05
5 39 14 100 0.136863
6 39 14 100 0.00478643
7 39 14 100 0.00170238
9 39 14 100 0.0477212
10 39 14 100 0.0476203
11 39 14 100 0.0952383
12 39 14 100 0.0476191
13 39 14 100 0.0476255
14 39 14 100 0.142744
0 40 14 100 0.475849
2 40 14 100 0.12261
3 40 14 100 0.0486061
4 40 14 100 0.0588237
5 40 14 100 0.176283
8 40 14 100 6.37665e-07
10 40 14 100 0.0588237
11 40 14 100 0.0588237
13 40 14 100 0.000180039
0 41 14 100 0.104758
2 41 14 100 0.0992851
3 41 14 100 0.0999928
5 41 14 100 0.199959
8 41 14 100 1.63471e-06
9 41 14 100 0.0999468
11 41 14 100 0.0991519
12 41 14 100 0.0999985
13 41 14 100 0.196906
0 42 14 100 0.126497
1 42 14 100 0.124992
2 42 14 100 0.122006
4 42 14 100 0.249998
5 42 14 100 0.126446
9 42 14 100 0.125004
11 42 14 100 6.4451e-05
13 42 14 100 0.124944
14 42 14 100 4.85776e-05
0 43 14 100 0.25008
1 43 14 100 5.60296e-06
5 43 14 100 0.124929
6 43 14 100 0.124961
7 43 14 100 0.125
10 43 14 100 1.43675e-05
12 43 14 100 0.37501
0 44 14 100 0.414471
2 44 14 100 0.142858
4 44 14 100 4.01642e-05
6 44 14 100 3.02894e-05
9 44 14 100 7.24954e-05
10 44 14 100 0.277953
12 44 14 100 0.0216931
13 44 14 100 0.000134925
14 44 14 100 0.142748
0 45 14 100 0.000102368
2 45 14 100 0.200022
5 45 14 100 0.19998
8 45 14 100 6.53707e-06
9 45 14 100 0.200232
10 45 14 100 0.000638068
11 45 14 100 0.199026
13 45 14 100 0.199968
14 45 14 100 2.37799e-05
0 46 14 100 0.19995
2 46 14 100 0.20005
6 46 14 100 0.2
8 46 14 100 1.34257e-05
11 46 14 100 0.2
13 46 14 100 0.199986
0 47 14 100 0.78561
1 47 14 100 0.19826
5 47 14 100 2.91106e-06
9 47 14 100 0.0160507
10 47 14 100 5.16256e-05
13 47 14 100 2.43142e-05
1 48 14 100 0.333332
11 48 14 100 0.666668
0 49 14 100 0.336578
5 49 14 100 0.333333
11 49 14 100 0.330089
0 50 14 100 0.000113443
3 50 14 100 0.499882
5 50 14 100 2.19994e-05
9 50 14 100 1.22255e-05
10 50 14 100 0.490942
11 50 14 100 7.40054e-05
13 50 14 100 0.00895388
0 51 14 100 0.500013
7 51 14 100 0.49996
12 51 14 100 2.66909e-05
0 52 14 100 0.459005
1 52 14 100 1.24697e-05
3 52 14 100 2.19985e-05
5 52 14 100 0.484756
10 52 14 100 0.00276394
12 52 14 100 0.0529898
13 52 14 100 0.000450558
0 53 14 100 1.13214e-05
6 53 14 100 0.999941
9 53 14 100 4.76547e-05
0 54 14 100 0.499977
7 54 14 100 0.499998
12 54 14 100 2.48346e-05
0 55 14 100 0.449543
5 55 14 100 0.500001
10 55 14 100 0.000412671
12 55 14 100 0.0495959
13 55 14 100 0.000448286
5 56 14 100 0.5
8 56 14 100 0.5
0 57 14 100 0.499995
6 57 14 100 0.5
9 57 14 100 5.00654e-06
0 58 14 100 0.947961
3 58 14 100 2.19955e-05
11 58 14 100 0.052017
8 59 14 100 1
0 60 14 100 1
0 1 15 100 0.000902574
1 1 15 100 0.725285
2 1 15 100 0.0991817
3 1 15 100 0.041461
4 1 15 100 0.0208224
5 1 15 100 0.0218259
6 1 15 100 0.00740588
7 1 15 100 0.0118186
8 1 15 100 0.00509225
9 1 15 100 0.00866401
10 1 15 100 0.00937083
11 1 15 100 0.00486432
12 1 15 100 0.0105204
13 1 15 100 0.00765555
14 1 15 100 0.00317011
15 1 15 100 0.0219593
0 2 15 100 0.207601
1 2 15 100 0.130567
2 2 15 100 0.341335
3 2 15 100 0.138583
4 2 15 100 0.0472707
5 2 15 100 0.0451028
