2 0.236144 0.758908 0.000688859 0.00332733 0.000301674 0.000386639 0.000114617 2.89107e-07 3.89842e-05 8.93044e-05 
3 0.581874 0.413 0.000992734 0.0030886 0.000689515 2.33686e-05 8.26901e-05 8.19784e-07 1.09315e-06 0.000246964 
4 0.0993167 0.383632 0.208186 0.0812747 0.0615059 0.0451704 0.0328722 0.0282839 0.0127041 0.0470533 
5 0.0528008 0.799365 0.0677627 0.01992 0.018098 0.0114378 0.00832342 0.00716162 0.00321674 0.0119141 
6 0.06223 0.199536 0.64431 0.0478588 0.0148389 0.00904278 0.00720774 0.00462362 0.00222906 0.00812244 
7 0.181384 0.817263 0.000933335 4.70252e-05 0.00035314 6.58972e-06 6.02278e-06 1.70697e-06 1.77113e-06 3.65263e-06 
8 0.0863927 0.554967 0.125697 0.14196 0.0326513 0.0169353 0.0134507 0.00862834 0.00415975 0.0151576 
9 0.179401 0.35769 0.217419 0.120835 0.044659 0.0234653 0.0183681 0.0117828 0.00568052 0.0206991 
10 0.235245 0.270963 0.479565 0.0109641 0.000689561 0.0021766 0.000153058 7.74403e-05 5.24514e-05 0.000113941 
11 0.0911836 0.857823 0.0478946 0.00205776 0.00045048 0.00021361 0.000117258 8.00716e-05 4.52799e-05 0.000134183 
12 0.236042 0.33927 0.391978 0.0107812 0.0111796 0.00805512 0.000890883 0.000572817 0.000387977 0.000842809 
13 0.167374 0.778018 0.0425258 0.0050711 0.00170452 0.00155247 0.00259268 0.000368959 0.0002499 0.000542862 
14 0.492235 0.505268 0.000311305 0.001745 0.000251438 2.77742e-06 2.14567e-06 6.13462e-05 8.79781e-07 0.000122534 
15 0.124722 0.446311 0.236216 0.138463 0.0198237 0.012469 0.0068447 0.00467401 0.00264312 0.00783265 
16 0.0839678 0.47079 0.176815 0.107827 0.045576 0.029307 0.0234005 0.0150109 0.00968847 0.0376171 
17 0.129756 0.657562 0.136257 0.0303323 0.0142128 0.0151951 0.00519262 0.0035458 0.00200512 0.00594201 
18 0.315317 0.459407 0.199203 0.0173335 0.00622949 0.000999224 0.000470255 0.000330818 0.000224068 0.000486746 
19 0.0799848 0.836953 0.0511628 0.0139131 0.00598914 0.00434047 0.00238265 0.00162703 0.000920072 0.00272655 
20 0.0967667 0.807541 0.0682254 0.0119803 0.00515686 0.0037373 0.00205155 0.00140093 0.000792215 0.00234766 
21 0.228696 0.198658 0.524425 0.0171222 0.013578 0.00997342 0.00531632 0.000939559 0.00040698 0.000884089 
22 0.888916 0.0985979 0.00333112 0.00381685 0.00087777 0.000647291 0.00273252 8.63182e-07 2.58851e-06 0.00107665 
23 0.0971789 0.467479 0.1702 0.0988217 0.0395457 0.0392663 0.0323764 0.0248339 0.00682214 0.0234758 
24 0.0753185 0.527527 0.162139 0.0876958 0.0410325 0.0313401 0.0293455 0.014548 0.0066872 0.0243673 
25 0.378424 0.392966 0.201421 0.0172321 0.00378234 0.00245665 0.00115615 0.000813337 0.000550885 0.0011967 
26 0.414379 0.580644 0.000978522 0.00248799 0.000159816 0.000580215 8.38017e-05 0.000348766 0.000335008 2.75688e-06 
27 0.0915396 0.454204 0.196879 0.0937118 0.0498684 0.0329141 0.0262805 0.0168584 0.00812751 0.0296157 
28 0.111605 0.443908 0.16664 0.0858136 0.060208 0.0412541 0.0264994 0.0154338 0.00758389 0.0410542 
29 0.142948 0.47972 0.215594 0.0594973 0.0405472 0.0294293 0.0100439 0.00685521 0.00387657 0.0114879 
30 0.0353784 0.306453 0.174143 0.100769 0.105085 0.0626225 0.0663162 0.0499968 0.0258169 0.0734192 
31 0.0837358 0.355714 0.324951 0.10742 0.0390628 0.0257761 0.0205811 0.0132024 0.00636492 0.023193 
32 0.362423 0.529351 0.103408 0.00182526 0.00177792 0.00111152 3.60699e-05 2.14161e-05 1.45054e-05 3.15104e-05 
33 0.443258 0.237582 0.107967 0.0848617 0.022574 0.0991897 0.000334557 0.0003737 0.00201474 0.0018447 
34 0.404752 0.566298 0.0219777 0.00290752 0.00244019 0.000646305 0.000304162 0.000213974 0.000144928 0.000314828 
35 0.238133 0.755656 0.00334773 0.00113574 0.000401575 0.000749225 1.90983e-05 5.3455e-06 9.8079e-06 0.000541936 
36 0.0828042 0.524085 0.165797 0.0843551 0.0478159 0.0277407 0.0219004 0.0140487 0.00677293 0.0246797 
37 0.0605766 0.467919 0.162684 0.0715903 0.0607221 0.0466864 0.0428662 0.0279449 0.0125453 0.0464651 
38 0.16406 0.163254 0.631806 0.0192699 0.00724984 0.00519541 0.00285196 0.0019475 0.0011013 0.0032636 
39 0.0689033 0.382883 0.179475 0.0854798 0.072504 0.0533117 0.0522283 0.0347554 0.0149794 0.0554807 
40 0.0553571 0.908929 0.012494 0.00538324 0.00456556 0.00335381 0.0024457 0.00303485 0.000943267 0.00349361 
41 0.105424 0.379706 0.226376 0.112552 0.045806 0.0272293 0.0619389 0.0130897 0.00600328 0.0218752 
42 0.0770261 0.490851 0.185185 0.105807 0.0457357 0.0271664 0.0185493 0.0159602 0.00716873 0.0265515 
43 0.034846 0.316958 0.171504 0.100154 0.117727 0.061678 0.0501866 0.0492139 0.0254258 0.0723068 
44 0.0359877 0.311708 0.189259 0.11049 0.108436 0.0582511 0.0473188 0.0464017 0.0239729 0.068175 
45 0.118658 0.440639 0.176119 0.0908797 0.0483798 0.0319316 0.025496 0.0163552 0.00789974 0.0436418 
46 0.12747 0.644733 0.136527 0.0485335 0.0142327 0.0103127 0.00566103 0.00386572 0.00218604 0.00647813 
47 0.10373 0.440716 0.19095 0.0910314 0.063173 0.0319315 0.025496 0.0163552 0.0078849 0.0287316 
48 0.172788 0.607234 0.132041 0.0348933 0.0150204 0.0108856 0.00597553 0.00408048 0.00230782 0.0147742 
49 0.0901527 0.447315 0.179004 0.107188 0.0494683 0.0469877 0.0261099 0.016603 0.00800437 0.029167 
50 0.148695 0.494962 0.204659 0.0668548 0.0282473 0.0204715 0.0112376 0.00767375 0.00433944 0.0128596 
51 0.129348 0.414559 0.180723 0.141351 0.0491697 0.0190737 0.0315643 0.00763992 0.0036037 0.0229683 
52 0.613804 0.376101 0.00925492 0.000642314 7.92846e-05 3.94141e-05 3.60261e-05 1.02105e-05 1.05943e-05 2.18487e-05 
53 0.499361 0.495136 0.00124346 0.00242115 0.000382026 0.00141307 3.84768e-05 1.28689e-06 1.33485e-06 2.75289e-06 
54 0.111634 0.616068 0.207081 0.043977 0.00709394 0.00511787 0.00280939 0.00191844 0.00108486 0.00321489 
55 0.275834 0.600323 0.0837875 0.0180398 0.00565999 0.00638583 0.00232979 0.00147318 0.000848884 0.00531824 
56 0.265393 0.182128 0.500193 0.0362109 0.00536488 0.00387454 0.00212688 0.00145238 0.000821307 0.00243387 
57 0.240788 0.188929 0.408881 0.100954 0.03372 0.0143755 0.00587729 0.00299862 0.00199142 0.00148551 
58 0.813911 0.112386 0.0605673 0.00901355 0.00117269 0.000619296 0.000291453 0.000205033 0.000139669 0.00169363 
59 0.0549435 0.349224 0.171468 0.099542 0.0807164 0.0764928 0.0430547 0.0424554 0.0147475 0.0673555 
60 0.0776335 0.36658 0.186619 0.116114 0.0647778 0.0475795 0.0346254 0.0297923 0.0133816 0.0628961 
61 0.0864104 0.172592 0.286724 0.390321 0.0373829 0.0144538 0.00620167 0.0018276 0.001031 0.00305529 
62 0.10041 0.38115 0.294912 0.0927386 0.0374417 0.0335448 0.0199248 0.0123123 0.00593582 0.0216294 
63 0.169515 0.488993 0.308478 0.0168602 0.00463695 0.00329709 0.00410823 0.00134139 0.000698944 0.00207113 
64 0.125307 0.769958 0.0598717 0.0163432 0.00869021 0.00573569 0.00457971 0.0029378 0.00141632 0.00516091 
65 0.108929 0.35518 0.469717 0.0291158 0.018198 0.00682383 0.00374586 0.00255792 0.00144648 0.00428652 
66 0.110424 0.499639 0.159128 0.0871274 0.0400183 0.0264125 0.0210893 0.0135284 0.00653011 0.0361033 
67 0.144992 0.500729 0.20383 0.0656201 0.0282473 0.0204715 0.0112376 0.00767375 0.00433944 0.0128596 
68 0.0523357 0.438055 0.213253 0.0716261 0.0607221 0.0446058 0.0324613 0.0279303 0.0125453 0.0464651 
69 0.0736695 0.409863 0.153107 0.0853133 0.0976953 0.0467807 0.0328722 0.0282839 0.0127041 0.0597115 
70 0.12245 0.568524 0.12804 0.0777 0.0314725 0.020771 0.0165848 0.0106388 0.00512901 0.0186895 
71 0.0901527 0.447315 0.178788 0.0922567 0.0512807 0.0595 0.0269328 0.016603 0.00800437 0.029167 
72 0.530261 0.466126 0.00122658 0.000951622 0.000127583 0.000896182 0.000105052 0.000299572 1.98305e-06 4.08829e-06 
73 0.0806984 0.201811 0.653239 0.034791 0.00981844 0.00710667 0.00390113 0.00266394 0.00150644 0.0044642 
74 0.549254 0.421633 0.0279223 0.000348 0.000473432 0.000355077 6.88375e-06 1.72644e-06 1.79133e-06 3.69429e-06 
75 0.159793 0.499261 0.213153 0.0551459 0.0214115 0.0249373 0.00818472 0.00558849 0.00316025 0.00936512 
76 0.415196 0.475868 0.0780911 0.0137078 0.00485276 0.00608097 0.00193057 0.00131831 0.000745494 0.00220921 
77 0.130659 0.291085 0.413845 0.0510883 0.0526097 0.0282166 0.0107221 0.00672269 0.00324103 0.0118099 
78 0.123922 0.848212 0.0123901 0.00636109 0.00331363 0.00167797 0.00133979 0.00085945 0.000414344 0.00150982 
79 0.294955 0.483498 0.199652 0.0122462 0.00508498 0.000958514 0.000561775 0.00235139 0.000225165 0.000466814 
80 0.350755 0.254757 0.215611 0.125496 0.0193846 0.0265936 0.00252903 0.00150334 0.000850125 0.00251927 
81 0.634486 0.360651 0.000978531 0.00293888 9.56755e-05 0.000830959 1.8886e-05 0 0 0 
82 0.53312 0.459844 0.00455342 0.000610171 0.000383711 0.000279922 0.000781508 7.46445e-06 0.000415532 4.48281e-06 
83 0.110294 0.872905 0.0122698 0.00280307 0.000656667 0.000426322 0.000200636 0.000141145 9.55993e-05 0.000207672 
84 0.0541809 0.375179 0.235714 0.0817099 0.0684192 0.0502601 0.0365761 0.0314708 0.0141355 0.052355 
85 0.034847 0.31694 0.171521 0.099242 0.103493 0.0616723 0.0501866 0.0492139 0.025428 0.0874561 
86 0.0863249 0.456601 0.185101 0.0888107 0.0469775 0.0323239 0.0378142 0.0159987 0.00769205 0.0423559 
87 0.0584073 0.385405 0.181862 0.086775 0.0736025 0.0540676 0.0393654 0.0488653 0.0153293 0.0563213 
88 0.0519736 0.378384 0.248981 0.077711 0.0656455 0.0482225 0.0350933 0.0301949 0.0135625 0.0502325 
89 0.465637 0.523921 0.00963236 9.23489e-05 0.000535555 0.000156121 1.15714e-05 3.27956e-06 3.40282e-06 7.01769e-06 
90 0.16251 0.531008 0.249932 0.0421074 0.00550288 0.00355724 0.00167411 0.00117771 0.000797681 0.00173282 
91 0.0333712 0.317707 0.178463 0.0949272 0.0991449 0.0732883 0.0480485 0.0470742 0.0243205 0.0836556 
92 0.0549435 0.376769 0.172678 0.0961594 0.0986226 0.0628577 0.0386099 0.0319204 0.0143375 0.053103 
93 0.267848 0.490335 0.202727 0.0175878 0.0176223 0.00159211 0.000711781 0.000500728 0.00033915 0.000736741 
94 0.783334 0.132555 0.0475044 0.0335583 0.000145765 5.66635e-05 0.00141595 1.41504e-05 0.000902167 0.000512994 
95 0.918551 0.0535204 0.0190731 0.00252713 0.000383332 0.00330313 0.0012287 6.90618e-06 7.35137e-06 0.00139884 
96 0.37228 0.575027 0.0504071 0.00136069 0.000349325 0.000191972 0.000175471 4.97317e-05 5.16009e-05 0.000106417 
97 0.131881 0.815981 0.0420037 0.00532882 0.00181846 0.00118892 0.000559528 0.00039362 0.000266605 0.000579149 
98 0.0767437 0.264336 0.221868 0.341603 0.0266819 0.0196763 0.0143497 0.0191055 0.00403929 0.0115965 
99 0.235162 0.497243 0.227866 0.0195032 0.00968999 0.00683964 0.0011498 0.000808868 0.000547858 0.00119012 
100 0.327462 0.65213 0.0151146 0.00220187 0.000752027 0.00159571 0.00023129 0.000162667 0.000110177 0.000239339 
101 0.0946824 0.884794 0.0113372 0.00338161 0.00292042 0.00104451 0.00057256 0.000390981 0.000221097 0.000655202 
102 0.208758 0.429511 0.289288 0.0540967 0.00694439 0.00453729 0.00213534 0.00150218 0.00101745 0.00221022 
103 0.0753615 0.908525 0.00738021 0.0029934 0.00182572 0.00167607 0.000744463 0.000461193 0.000222343 0.00081019 
104 0.171957 0.196132 0.623377 0.00634946 0.001256 0.000373455 0.000172517 0.000121364 8.22013e-05 0.000178567 
105 0.154729 0.412348 0.347613 0.0791062 0.00240281 0.00151243 0.000711781 0.000500728 0.00033915 0.000736741 
106 0.0680553 0.781921 0.139278 0.00495484 0.00249815 0.00119267 0.000653574 0.000446303 0.000252381 0.000747909 
107 0.323938 0.674005 0.000790665 0.0010841 1.15443e-05 0.000116124 4.76734e-05 1.52472e-06 1.58203e-06 3.26265e-06 
108 0.32279 0.276 0.372224 0.018608 0.00706563 0.000701203 0.00188545 0.000231268 0.000155797 0.000338441 
109 0.258122 0.699617 0.0321263 0.00532789 0.00181846 0.00118892 0.000559528 0.00039362 0.000266605 0.000579149 
110 0.0885722 0.673536 0.196671 0.0177698 0.010149 0.00481259 0.00264181 0.001804 0.00102015 0.00302313 
111 0.144992 0.468856 0.205856 0.0802781 0.0285118 0.0204715 0.0131872 0.0206495 0.00433945 0.0128596 
112 0.250433 0.651205 0.0680826 0.0218796 0.00317812 0.00207782 0.000977867 0.000687916 0.000465935 0.00101216 
113 0.0418924 0.334985 0.33903 0.0802255 0.0597788 0.036413 0.026499 0.0228003 0.0111069 0.047269 
114 0.0782905 0.416994 0.245096 0.0948389 0.0542583 0.028189 0.0224768 0.0144184 0.00709536 0.0383429 
115 0.0146721 0.1965 0.151263 0.194335 0.116498 0.0617268 0.0896596 0.0596563 0.0214539 0.0942354 
116 0.0151236 0.202547 0.155872 0.169717 0.119955 0.0624738 0.078542 0.0760168 0.0226177 0.0971349 
117 0.082268 0.431086 0.216391 0.110826 0.0475658 0.0398403 0.0234045 0.0150109 0.00723683 0.0263701 
118 0.0557402 0.368778 0.173966 0.0974949 0.0868031 0.0786636 0.0377533 0.032383 0.0145452 0.0538726 
119 0.0353784 0.306453 0.174143 0.100769 0.105301 0.0770792 0.0516697 0.049971 0.0258169 0.0734192 
120 0.128892 0.39431 0.236123 0.155218 0.0436594 0.0152109 0.00827381 0.0056499 0.00319498 0.00946804 
121 0.578471 0.407765 0.00843912 0.00099706 0.00388004 0.000166524 0.000128721 3.6482e-05 3.78532e-05 7.80654e-05 
122 0.12556 0.526652 0.219399 0.0638034 0.0215065 0.0155862 0.00855588 0.00584251 0.0033039 0.00979081 
123 0.375287 0.371095 0.1491 0.0982494 0.001573 0.00111344 0.00255172 0.000328473 0.000221087 0.00048027 
124 0.138019 0.59157 0.263456 0.0015478 0.00417622 0.000744295 0.00016377 0.000102588 6.94844e-05 0.000150942 
125 0.14723 0.364241 0.317453 0.0851027 0.047793 0.0200758 0.00566843 0.00383687 0.00216972 0.00642979 
126 0.151642 0.456606 0.262472 0.107911 0.00713379 0.00207779 0.0100247 0.000688121 0.000455297 0.00098905 
127 0.162192 0.476107 0.193821 0.0666143 0.0286753 0.0210319 0.0261497 0.00794939 0.00440519 0.0130544 
128 0.220585 0.258872 0.161887 0.153981 0.197217 0.0031735 0.00133289 0.000937669 0.000635096 0.00137963 
129 0.101905 0.463857 0.173544 0.0895432 0.0476683 0.031462 0.0251211 0.0161147 0.0100482 0.0407357 
130 0.0582734 0.370389 0.182461 0.099976 0.0755939 0.0682065 0.0397168 0.0338549 0.0152064 0.0563213 
131 0.05917 0.376088 0.184657 0.08811 0.0747349 0.0548995 0.0399524 0.0343758 0.0156523 0.0723604 
132 0.0998109 0.589549 0.283259 0.0134042 0.00564475 0.00301449 0.00165476 0.00112998 0.000638995 0.00189361 
133 0.132291 0.838936 0.0242922 0.00235632 0.000803904 0.000525596 0.000247356 0.000174012 0.000117861 0.00025603 
134 0.149453 0.483281 0.196802 0.0676391 0.0291164 0.0211013 0.0115833 0.0111938 0.0165711 0.0132578 
135 0.0542658 0.358452 0.223937 0.105916 0.0726326 0.0502601 0.0365761 0.0314708 0.0141355 0.052355 
136 0.288518 0.375952 0.233802 0.0644282 0.0154456 0.00591033 0.00583919 0.00198219 0.0048707 0.00325131 
137 0.135399 0.399324 0.324691 0.0686388 0.0239593 0.0173619 0.0095306 0.00650811 0.00368029 0.0109062 
138 0.0966612 0.442261 0.201199 0.101089 0.0611532 0.0248769 0.0203181 0.0221696 0.00788807 0.0223839 
139 0.266933 0.477157 0.13863 0.0966835 0.00336474 0.00952943 0.000603245 0.00329755 0.00277861 0.00102329 
140 0.196769 0.513089 0.20289 0.0553373 0.0178716 0.00508284 0.00278858 0.00190423 0.00107683 0.00319108 
141 0.0729134 0.873907 0.0307797 0.00977009 0.0042057 0.00304797 0.00167315 0.00114254 0.000646095 0.00191465 
142 0.673777 0.316222 0.00239351 0.00589022 3.39852e-05 0.000579125 0.00110434 0 0 0 
143 0.715603 0.261746 0.0200678 0.00146411 0.000297188 0.000360476 0.000452043 2.15706e-06 2.20817e-06 4.55394e-06 
144 0.075417 0.626851 0.185345 0.0392068 0.0263647 0.0135411 0.0108116 0.00693544 0.0033436 0.0121837 
145 0.158549 0.825495 0.0130534 0.000821632 0.000948062 0.000408048 0.000329751 0.000308649 2.70856e-05 5.86836e-05 
146 0.486438 0.48302 0.0234812 0.00171064 0.00286626 0.00194918 0.000166117 0.000116837 7.9135e-05 0.000171906 
147 0.153124 0.249599 0.499764 0.0322322 0.0333053 0.01543 0.0052085 0.00349756 0.00197784 0.00586117 
148 0.229147 0.141366 0.597356 0.0234798 0.00469422 0.00179361 0.00105491 0.000985819 3.9146e-05 8.32124e-05 
149 0.405924 0.502231 0.0876857 0.000750036 0.00269233 2.52634e-05 2.26523e-05 0.000306854 0.000348242 1.39844e-05 
150 0.116323 0.603123 0.169028 0.0656787 0.0152751 0.0110612 0.00607191 0.0041463 0.0023447 0.00694832 
151 0.129038 0.210406 0.303921 0.279334 0.0388661 0.0113338 0.00880533 0.00564845 0.00272314 0.00992278 
152 0.282125 0.715673 0.000794367 0.00105862 0.000332847 5.71623e-06 5.16015e-06 1.46248e-06 1.51745e-06 3.12947e-06 
153 0.17252 0.486743 0.175257 0.0602266 0.0259256 0.0187889 0.0103139 0.00704303 0.00400549 0.0391768 
154 0.057405 0.394702 0.184144 0.0932101 0.0747085 0.0532607 0.0387598 0.0333496 0.0149794 0.0554807 
155 0.0549659 0.392077 0.18574 0.096318 0.0831934 0.0512456 0.0370987 0.0319204 0.0143375 0.053103 
156 0.0348424 0.30181 0.171504 0.0996926 0.117259 0.0626077 0.0501866 0.0492139 0.029544 0.0833397 
157 0.140238 0.251833 0.588952 0.0069893 0.0089673 0.00120179 0.000565577 0.000397876 0.000269487 0.000585411 
158 0.0888071 0.440639 0.180906 0.115588 0.0487363 0.0319315 0.025496 0.0163552 0.00790311 0.0436388 
159 0.0839671 0.447921 0.191611 0.112521 0.0457165 0.0301326 0.0240596 0.0154338 0.00764615 0.040992 
160 0.109935 0.576261 0.19251 0.0736098 0.0191523 0.0112519 0.00537798 0.00367244 0.00207673 0.00615422 
161 0.106747 0.280107 0.224052 0.284143 0.0394445 0.0135765 0.0233185 0.00713553 0.00931766 0.0121582 
162 0.0973526 0.863548 0.0300753 0.00474436 0.00161929 0.0010587 0.000498247 0.00035051 0.000237405 0.000515719 
163 0.0913544 0.701254 0.20246 0.00163581 0.00164154 0.000813127 0.000265519 0.000177657 0.000100464 0.000297716 
164 0.198431 0.662873 0.132015 0.00219115 0.00310803 0.00100981 0.000117139 8.08424e-05 5.47557e-05 0.000118947 
165 0.229176 0.157046 0.596455 0.000706647 0.00797735 0.000760858 0.00653234 0.00117919 0.000155294 1.07959e-05 
166 0.158134 0.780604 0.0484446 0.00770691 0.00193541 0.00066678 0.000313738 0.000220711 0.000150101 0.00182338 
167 0.0833506 0.362681 0.186746 0.0818164 0.0693966 0.0509781 0.0408289 0.0552433 0.0158558 0.053103 
168 0.209447 0.729319 0.0348938 0.010502 0.00684913 0.00325545 0.00178416 0.00121834 0.000688964 0.00204169 
169 0.273398 0.707676 0.0157696 0.00166204 0.000565339 0.000369621 0.000173951 0.000122372 8.28846e-05 0.000180051 
170 0.141628 0.513729 0.163869 0.0631702 0.0607879 0.0166822 0.0130399 0.00836488 0.00403274 0.0146948 
171 0.157035 0.325347 0.189371 0.0942003 0.134989 0.0332417 0.0255457 0.0208796 0.00280004 0.0165904 
172 0.0605756 0.416969 0.201066 0.0716593 0.0627468 0.053426 0.0341164 0.0279303 0.0137582 0.0577521 
173 0.318525 0.663197 0.0135622 0.00349959 0.000461044 0.000300645 0.00014149 9.95362e-05 6.74173e-05 0.000146452 
174 0.188774 0.490157 0.166197 0.0581875 0.035262 0.0175851 0.00974823 0.0192364 0.00380771 0.011046 
175 0.0565595 0.359496 0.191414 0.0958311 0.0889778 0.052543 0.0408213 0.0433342 0.0163585 0.0546648 
176 0.05917 0.376088 0.184657 0.08811 0.0747349 0.0548995 0.0399524 0.0343758 0.0155403 0.0724725 
177 0.15152 0.521444 0.308134 0.0126105 0.00370501 0.00102961 0.000484406 0.000340773 0.00023081 0.000501393 
178 0.150831 0.808979 0.0308312 0.00492007 0.00167927 0.00109791 0.0005167 0.000363491 0.000246198 0.000534819 
179 0.165371 0.460972 0.258457 0.0553724 0.0199221 0.0144378 0.00792544 0.00541201 0.00306045 0.00906938 
180 0.134992 0.585177 0.110927 0.120202 0.0326949 0.00724077 0.00272825 0.00186283 0.00105342 0.00312171 
181 0.188354 0.754345 0.0392281 0.00790567 0.00338563 0.00245364 0.0013469 0.000919751 0.000520112 0.00154131 
182 0.190166 0.803606 0.0022176 0.00369991 0.000117342 6.4418e-05 5.88808e-05 1.66879e-05 1.73152e-05 3.57093e-05 
183 0.114777 0.815887 0.0613301 0.00665679 0.000511987 0.000333324 0.000156869 0.000110355 7.47452e-05 0.00016237 
184 0.113975 0.414264 0.449193 0.0139548 0.0049462 0.00132773 0.00072816 0.000497235 0.000281183 0.00083326 
185 0.21453 0.353184 0.378002 0.031897 0.00840217 0.00367835 0.00410461 0.00486217 0.000422506 0.000917805 
186 0.0663325 0.362077 0.178611 0.134655 0.0785907 0.0488831 0.0355741 0.0306086 0.0137482 0.0509207 
187 0.078218 0.365979 0.1884 0.19167 0.072749 0.0408082 0.0222978 0.0123123 0.00593582 0.0216294 
188 0.361698 0.634645 0.000432148 0.00100892 0.00161175 0.000425713 5.83638e-06 1.65006e-06 0.000166275 4.03877e-06 
189 0.345991 0.352948 0.172413 0.106221 0.00697091 0.00324565 0.00162206 0.00761981 0.00138724 0.00158104 
190 0.190887 0.5826 0.195052 0.0177966 0.0110307 0.000906207 3.70416e-05 0.000836089 8.58763e-06 0.00084552 
191 0.297211 0.683396 0.017165 0.00132594 0.000340846 0.000187313 0.000171212 4.85247e-05 5.03485e-05 0.000103835 
192 0.104065 0.47303 0.1749 0.0968344 0.0421213 0.0277846 0.0221848 0.0142312 0.00841404 0.0364341 
193 0.290447 0.602898 0.103879 0.00261268 6.18696e-05 3.39968e-05 3.10746e-05 8.80712e-06 9.13814e-06 1.88457e-05 
194 0.151884 0.842518 0.00133202 0.00318386 0.000362899 0.000371793 0.000166178 1.7721e-06 1.80881e-06 0.000178127 
195 0.209112 0.393845 0.0749777 0.0231212 0.00863865 0.28353 0.00299714 0.00203933 0.00102576 0.00071371 
196 0.38904 0.42077 0.174842 0.00537908 0.00709619 0.00103702 0.000143973 0.000101109 0.000100834 0.00149004 
197 0.108296 0.799 0.0782991 0.00621924 0.00159982 0.00119184 0.00146224 0.00211231 0.000261688 0.00155771 
198 0.222533 0.731133 0.0432114 0.00187566 0.000471237 0.000258969 0.000236709 6.70878e-05 6.96093e-05 0.000143556 
199 0.190933 0.612717 0.15518 0.0213295 0.00482343 0.00315358 0.00148414 0.00104407 0.000707255 0.00862829 
200 0.101944 0.865151 0.0137002 0.00699074 0.00372152 0.00245627 0.00196123 0.00125809 0.00060653 0.00221012 
201 0.144994 0.483377 0.191329 0.0656201 0.0282473 0.0204715 0.0112376 0.00767375 0.00438735 0.0426624 
202 0.245406 0.428376 0.214661 0.0943556 0.00637886 0.00733224 0.00112539 0.000751092 0.000508725 0.00110511 
203 0.125783 0.308361 0.0980166 0.420433 0.0181922 0.00996833 0.00908404 0.0031352 0.00177282 0.00525361 
204 0.169355 0.722365 0.0677175 0.0167582 0.0089714 0.0042464 0.00233101 0.00159177 0.0009387 0.00572487 
205 0.0911973 0.762776 0.0682739 0.0310922 0.0142186 0.00938339 0.00749225 0.00480613 0.00231705 0.00844306 
206 0.0978932 0.477125 0.177374 0.0944735 0.0426506 0.02818 0.0355925 0.0144308 0.00695116 0.0253292 
207 0.15212 0.501516 0.202357 0.062813 0.0270367 0.0195941 0.010756 0.00734487 0.00415347 0.0123084 
208 0.134813 0.485034 0.218428 0.0792123 0.0243401 0.0282955 0.0093037 0.00634742 0.00358942 0.0106369 
209 0.144992 0.485247 0.204387 0.0656201 0.0282473 0.0353968 0.0112376 0.00767375 0.00433944 0.0128596 
210 0.13134 0.547893 0.160697 0.0633578 0.0294677 0.0194492 0.0155294 0.00996181 0.00480262 0.0175002 
211 0.0710248 0.381043 0.179193 0.0854798 0.072504 0.0532607 0.0387598 0.0333496 0.0150159 0.0703696 
212 0.244787 0.526246 0.167548 0.0256153 0.0214776 0.0057007 0.00268287 0.00188736 0.00127834 0.00277695 
213 0.249062 0.500881 0.177048 0.044719 0.0110982 0.00684084 0.00321944 0.00226483 0.001534 0.00333234 
214 0.298004 0.491801 0.155582 0.0401131 0.00548856 0.00358592 0.00168761 0.00118721 0.000804114 0.00174679 
215 0.146189 0.80062 0.0428391 0.00478493 0.00232555 0.00117273 0.000643519 0.000439437 0.000248498 0.000736403 
216 0.19742 0.670859 0.0948735 0.0180672 0.0101411 0.00346395 0.00160972 0.00113242 0.000767001 0.00166617 
217 0.172955 0.807877 0.015842 0.00174885 0.000596581 0.000390048 0.000183564 0.000129135 8.7465e-05 0.000190002 
218 0.123193 0.53389 0.200768 0.0536712 0.0327289 0.0164463 0.00887556 0.0171824 0.00334205 0.00990335 
219 0.393414 0.428568 0.165338 0.00404516 0.00596781 0.000647791 0.000234092 0.00120843 5.16844e-05 0.000525404 
220 0.109984 0.4976 0.356423 0.0169138 0.00695389 0.00350724 0.00280038 0.00179639 0.000866047 0.00315577 
221 0.30613 0.683379 0.00763311 0.00190133 0.000904424 1.76157e-05 1.59591e-05 4.52311e-06 4.69311e-06 9.67869e-06 
222 0.0793379 0.432713 0.192931 0.156856 0.0421001 0.0277846 0.0221848 0.0142312 0.00686089 0.0250002 
223 0.253785 0.607109 0.119248 0.0123373 0.00262937 0.0017698 0.000971506 0.000663408 0.000375152 0.00111173 
224 0.162249 0.76905 0.0375761 0.0123606 0.00649389 0.00354748 0.00192071 0.00131601 0.00328699 0.00219923 
225 0.188554 0.45514 0.176812 0.0937782 0.024573 0.0301215 0.00965567 0.00659155 0.00372747 0.011046 
226 0.05917 0.376088 0.184657 0.08811 0.0747349 0.0560634 0.0520651 0.0364837 0.0154403 0.0571878 
227 0.0849167 0.661841 0.16834 0.0317107 0.0162072 0.0106971 0.00854117 0.00547899 0.00264144 0.00962509 
228 0.0905872 0.887083 0.0178653 0.0023813 0.000788068 0.000515242 0.000242484 0.000170584 0.000115539 0.000250987 
229 0.292694 0.687747 0.00928502 0.00192354 0.000494467 0.000271735 0.000248378 7.03949e-05 7.30408e-05 0.00719288 
230 0.0979808 0.652252 0.108624 0.0523014 0.0257106 0.0229898 0.0130485 0.00836488 0.00403274 0.0146948 
231 0.05917 0.376088 0.184657 0.0889924 0.0892371 0.0548995 0.0399524 0.0343758 0.0154403 0.0571878 
232 0.107201 0.443566 0.343866 0.0675214 0.0235681 0.00535179 0.00464177 0.00132192 0.000747411 0.00221489 
233 0.0778849 0.663308 0.135582 0.0288055 0.0263403 0.0205563 0.0129199 0.0111165 0.00499314 0.0184936 
234 0.241596 0.60611 0.121533 0.0189341 0.00447436 0.00292536 0.00137673 0.000968513 0.000655988 0.00142501 
235 0.179533 0.41772 0.198633 0.138093 0.0224457 0.0157654 0.00865422 0.00590967 0.00334187 0.00990335 
236 0.287151 0.658292 0.030534 0.0230079 0.000390363 0.000208575 0.000190647 5.40329e-05 5.60637e-05 0.000115621 
237 0.244402 0.529123 0.185635 0.0220539 0.00457538 0.00298426 0.00565002 0.00344126 0.000681788 0.0014537 
238 0.05917 0.376088 0.184657 0.0892947 0.0888376 0.0549965 0.0399524 0.0343758 0.0154403 0.0571878 
239 0.334067 0.645838 0.0180236 0.001796 0.000104341 5.73349e-05 5.24066e-05 1.4853e-05 1.54113e-05 3.17829e-05 
240 0.218797 0.383519 0.172437 0.157982 0.0208286 0.0229462 0.00731009 0.00499166 0.00282275 0.00836497 
241 0.185831 0.517289 0.261758 0.0317314 0.00134739 0.000812897 0.000382566 0.00026913 0.000182285 0.000395982 
242 0.197912 0.47524 0.187266 0.0638146 0.0345829 0.0172299 0.00745463 0.00509051 0.00287864 0.00853061 
243 0.0328824 0.80823 0.105691 0.0184698 0.0126474 0.00638634 0.0050992 0.00327104 0.00157698 0.00574633 
244 0.217549 0.524656 0.152091 0.063603 0.0140191 0.0101599 0.00557716 0.00380845 0.00215365 0.00638216 
245 0.356309 0.629744 0.00615913 0.0069352 0.000771998 2.68651e-05 2.45439e-05 6.95622e-06 7.21767e-06 1.48851e-05 
246 0.0838039 0.443997 0.194352 0.0859014 0.0876828 0.0302159 0.0240596 0.0154338 0.00744068 0.0271129 
247 0.0827984 0.292012 0.266583 0.223066 0.050287 0.0365733 0.0158188 0.0101463 0.00489156 0.0178243 
248 0.0681386 0.31051 0.275184 0.0963982 0.0613358 0.0663308 0.0351617 0.0279303 0.0125453 0.0464651 
249 0.124584 0.438496 0.184673 0.128017 0.0626997 0.0176927 0.00965278 0.00659155 0.00375423 0.0238398 
250 0.206567 0.476051 0.230485 0.0379016 0.0163152 0.011824 0.00649067 0.00443225 0.0025064 0.00742751 
251 0.148811 0.441028 0.242474 0.0748592 0.026292 0.0314434 0.0119462 0.00714085 0.00403809 0.0119665 
252 0.112159 0.332413 0.426804 0.0498265 0.0307659 0.0138931 0.0110924 0.00711558 0.00343044 0.0125001 
253 0.115264 0.573896 0.134764 0.0640941 0.0341205 0.0225201 0.0179814 0.0115347 0.00556093 0.0202634 
254 0.150541 0.442881 0.195183 0.103039 0.0300867 0.0357503 0.0190468 0.00724143 0.00409497 0.0121351 
255 0.169491 0.276579 0.320452 0.146428 0.0248517 0.0158475 0.0126536 0.00811703 0.00581598 0.0197641 
256 0.159066 0.318234 0.267837 0.195503 0.0224758 0.0214741 0.00479571 0.00327478 0.00185186 0.00548784 
257 0.283679 0.582952 0.100789 0.0136773 0.00459529 0.00300442 0.00141394 0.000994689 0.000675621 0.00821838 
258 0.0875011 0.463571 0.173529 0.104249 0.0476684 0.031462 0.0259371 0.0300046 0.00776898 0.0283091 
259 0.203087 0.362091 0.294085 0.0985202 0.0197745 0.0106404 0.00367287 0.00250801 0.00141826 0.00420289 
260 0.0915396 0.4542 0.196919 0.0936769 0.0498684 0.0329141 0.0262805 0.0168584 0.00812751 0.0296157 
261 0.313844 0.392646 0.123262 0.0529852 0.0939514 0.0139599 0.00291699 0.0019851 0.00112256 0.00332661 
262 0.268076 0.584484 0.144292 0.00178579 0.00114113 7.37947e-05 6.74372e-05 1.9113e-05 1.98313e-05 4.08985e-05 
263 0.392508 0.450812 0.119793 0.0128688 0.0105321 0.00283222 0.00133289 0.000937669 0.000637434 0.00774672 
264 0.467794 0.486719 0.0421371 0.00293713 0.000156041 8.57476e-05 7.83769e-05 2.22135e-05 2.30484e-05 4.75331e-05 
265 0.134135 0.48538 0.19426 0.0802198 0.0451426 0.0306202 0.00941149 0.00642676 0.00363428 0.0107699 
266 0.401114 0.399477 0.165502 0.0264098 0.00461045 0.00114903 0.000540733 0.000380398 0.000257649 0.000559695 
267 0.108912 0.722638 0.101693 0.0291179 0.0125336 0.00908336 0.00498621 0.00340491 0.00192545 0.0057059 
268 0.0846754 0.703183 0.128647 0.0384114 0.0137412 0.00906531 0.00723828 0.00464322 0.00223851 0.00815686 
269 0.169571 0.619502 0.155472 0.0322896 0.0103138 0.00465039 0.00255226 0.00174285 0.000985569 0.00292065 
270 0.0982167 0.678082 0.0969803 0.0461283 0.0245564 0.0162077 0.0129412 0.00830151 0.00400219 0.0145835 
271 0.0583129 0.588384 0.317857 0.0220189 0.00448623 0.00323488 0.00177575 0.0012126 0.000685714 0.00203206 
272 0.0653854 0.349318 0.368767 0.0764215 0.0585545 0.0237797 0.0187718 0.0120417 0.00580537 0.0211541 
273 0.194596 0.622832 0.102981 0.0432578 0.0130756 0.00841465 0.00461912 0.00315424 0.0017837 0.00528584 
274 0.252769 0.493501 0.183265 0.0293247 0.0102104 0.0204741 0.00363933 0.00216491 0.00146633 0.00318532 
275 0.131164 0.621117 0.196936 0.0206777 0.00852508 0.00617832 0.00339152 0.00231595 0.00130972 0.00838548 
276 0.147189 0.475959 0.193821 0.0670501 0.0555003 0.0238239 0.0114078 0.00779002 0.00440519 0.0130544 
277 0.0900979 0.65661 0.118135 0.0759017 0.0180241 0.01514 0.00860795 0.00539802 0.00260241 0.00948285 
278 0.205437 0.304906 0.25369 0.201447 0.0105836 0.00629093 0.013921 0.00131014 0.000761146 0.00165345 
279 0.170051 0.439778 0.173312 0.086 0.0276688 0.0446537 0.0330928 0.00987151 0.00392896 0.0116431 
280 0.166983 0.594587 0.190901 0.0289979 0.00701138 0.00458407 0.00215736 0.00151767 0.00102794 0.00223301 
281 0.386001 0.559979 0.0368899 0.00334101 0.000816445 0.000476285 0.0120104 0.000116233 0.000120602 0.00024872 
282 0.206496 0.279654 0.422392 0.0719112 0.0127558 0.00382617 0.000921866 0.00064852 0.000439252 0.000954193 
283 0.287209 0.644843 0.0661009 0.000956777 5.29164e-05 2.89688e-05 4.2384e-05 0.000738828 1.13081e-05 1.60585e-05 
284 0.146724 0.729783 0.0975998 0.0107715 0.00908109 0.00240364 0.00113115 0.000795751 0.000538974 0.00117082 
285 0.17971 0.611627 0.198255 0.00578735 0.00174834 0.00114307 0.000537953 0.000378442 0.000256324 0.000556817 
286 0.227213 0.720639 0.0390466 0.00646078 0.00221099 0.00160232 0.000879576 0.000600632 0.000339653 0.00100653 
287 0.279339 0.546624 0.115077 0.0301079 0.00960862 0.00696237 0.00382191 0.00260985 0.00147585 0.00437356 
288 0.174189 0.464816 0.190757 0.0703618 0.025604 0.0363313 0.0162988 0.00667716 0.00377588 0.0111895 
289 0.150222 0.72588 0.100246 0.00749843 0.00703194 0.00507368 0.000521376 0.000357814 0.00264681 0.000521941 
290 0.145791 0.722352 0.121697 0.00414578 0.00325337 0.000584374 0.0015721 0.000191945 0.00013 0.000282402 
291 0.10178 0.250224 0.363701 0.0864309 0.0716422 0.0343736 0.0249702 0.0214849 0.00965021 0.0357424 
292 0.265136 0.531871 0.11899 0.0366404 0.0157714 0.0114299 0.00627431 0.00428451 0.00242286 0.00717993 
293 0.324521 0.602427 0.0655769 0.00465649 0.00106699 0.000696951 0.000327999 0.000230743 0.000156285 0.000339501 
294 0.0841227 0.496139 0.206778 0.0901133 0.03446 0.0225201 0.0179817 0.0220607 0.00556093 0.0202634 
295 0.164989 0.48535 0.193598 0.0619284 0.0266559 0.0193181 0.0106045 0.00724142 0.00732007 0.0229945 
296 0.149453 0.483282 0.196802 0.0693273 0.0422301 0.0216842 0.0115833 0.00790986 0.00447297 0.0132553 
297 0.193267 0.431996 0.286183 0.042571 0.025644 0.0066267 0.00171527 0.00120667 0.000819515 0.00996992 
298 0.249062 0.500881 0.176362 0.0306558 0.0104672 0.0222214 0.00321945 0.00226483 0.001534 0.00333234 
299 0.0517808 0.112218 0.776766 0.0161942 0.0114996 0.0153038 0.00445266 0.00283886 0.00136862 0.00757777 
300 0.284155 0.441847 0.201343 0.0351826 0.0142049 0.0179271 0.00166203 0.00116837 0.00079135 0.00171906 
301 0.146824 0.444133 0.354769 0.0311652 0.00769835 0.00557556 0.00306064 0.00209 0.00118188 0.0035024 
302 0.280702 0.549378 0.106168 0.0403419 0.00938788 0.00524317 0.00299817 0.00119458 0.00035638 0.00423007 
303 0.4251 0.52383 0.0178348 0.0169898 0.000962362 0.000528581 0.000483146 0.000136933 0.000145593 0.013988 
304 0.113014 0.766878 0.0508355 0.0238105 0.0126619 0.00835708 0.00838869 0.00647067 0.00206377 0.00751961 
305 0.19066 0.502693 0.169189 0.0507298 0.0322847 0.0155862 0.00855588 0.00735589 0.0128954 0.0100495 
306 0.188507 0.787582 0.0182398 0.00278126 0.00173498 0.000459354 0.000216181 0.000152081 0.000103006 0.000223762 
307 0.475962 0.321709 0.198884 0.00096068 0.00233792 5.06081e-05 4.37588e-05 1.24021e-05 1.28682e-05 2.65384e-05 
308 0.0444241 0.703657 0.130141 0.0282887 0.0239299 0.0175786 0.0131328 0.0155929 0.00494399 0.0183114 
309 0.211373 0.567944 0.164784 0.00596615 0.0109298 0.0316835 0.00315493 0.00356928 0.00020153 0.000393822 
310 0.144992 0.468855 0.190928 0.06562 0.0282473 0.0204715 0.0113448 0.0373758 0.00441925 0.0277466 
311 0.11112 0.582743 0.245893 0.0421901 0.00601887 0.00435425 0.00239021 0.00163219 0.000922993 0.00273521 
312 0.0686121 0.90795 0.01312 0.00450004 0.00193712 0.00140387 0.00077064 0.000526244 0.000297587 0.000881873 
313 0.199812 0.500722 0.239856 0.0337177 0.0155461 0.00411717 0.00193763 0.00136309 0.000923242 0.00200557 
314 0.306661 0.556655 0.112193 0.0128938 0.00438776 0.00286874 0.00135009 0.000949768 0.000643291 0.00139743 
315 0.118644 0.54922 0.305334 0.0143988 0.00353215 0.00299147 0.00276242 0.000984341 0.000538412 0.00159554 
316 0.223256 0.427947 0.164899 0.0675295 0.0695798 0.0180793 0.0123922 0.00185264 0.00116237 0.0133026 
317 0.0875011 0.434271 0.187194 0.11995 0.0622778 0.031493 0.0251211 0.0161147 0.00776895 0.0283091 
318 0.146101 0.438619 0.18708 0.0603174 0.116026 0.0153203 0.018614 0.00553205 0.00312627 0.00926442 
319 0.271452 0.355951 0.355119 0.0100796 0.00683898 0.000225055 0.000103904 7.30954e-05 4.95085e-05 0.000107548 
320 0.234624 0.486649 0.194793 0.0298629 0.0378775 0.00644427 0.0030328 0.00213354 0.00144507 0.00313916 
321 0.0851096 0.406725 0.299224 0.116425 0.0281963 0.0186036 0.0148542 0.00952869 0.00459381 0.0167393 
322 0.184837 0.534352 0.162222 0.0517241 0.0222655 0.0161363 0.00885785 0.00604872 0.0034205 0.0101364 
323 0.236136 0.330817 0.241781 0.139519 0.0172832 0.012469 0.0068447 0.00467401 0.00264312 0.00783265 
324 0.0574037 0.364861 0.179145 0.0855394 0.102295 0.0532607 0.0387598 0.0333496 0.0149797 0.0704058 
325 0.0915396 0.454197 0.181538 0.093676 0.0498684 0.0329141 0.0262805 0.0168584 0.00826376 0.044864 
326 0.365026 0.576322 0.0463526 0.011091 0.000457677 0.000250561 0.000229023 6.49096e-05 6.73493e-05 0.000138896 
327 0.193312 0.695035 0.085693 0.0136482 0.00465824 0.00304558 0.00143331 0.00100832 0.000682946 0.00148357 
328 0.419563 0.495997 0.0217208 0.0440214 0.00890865 0.000583839 0.00884826 8.54392e-05 8.86478e-05 0.00018282 
329 0.271967 0.714816 0.00655427 0.00612925 0.000202267 0.000110563 0.000101059 2.86421e-05 2.97186e-05 6.12891e-05 
330 0.239224 0.468398 0.192709 0.0628542 0.00895371 0.00585072 0.0159113 0.00193708 0.00131198 0.00285002 
331 0.349062 0.309675 0.108662 0.0228361 0.195668 0.00945559 0.00144488 0.00101527 0.000687656 0.00149381 
332 0.156934 0.521904 0.160531 0.0657723 0.0236285 0.0385298 0.0121266 0.00634742 0.00358942 0.0106369 
333 0.114252 0.404571 0.226012 0.189072 0.0204841 0.0225624 0.00717528 0.00489658 0.00276898 0.00820563 
334 0.367865 0.450642 0.176508 0.00442413 0.000212238 0.000116575 0.000106555 3.01996e-05 3.13347e-05 6.46221e-05 
335 0.139523 0.212535 0.620952 0.00963732 0.0122228 0.0020435 0.000959924 0.000675294 0.000457386 0.000993587 
336 0.08264 0.448477 0.179231 0.088842 0.056736 0.0472388 0.0331998 0.0156735 0.00778681 0.0401758 
337 0.346062 0.473894 0.179208 0.000704577 4.9998e-05 2.70592e-05 2.47332e-05 7.00987e-06 7.27334e-06 1.49999e-05 
338 0.375951 0.543141 0.0319221 0.0106015 0.000855395 0.0245426 0.000482366 0.0120962 0.000149899 0.00025771 
339 0.114641 0.375699 0.221228 0.101959 0.107909 0.0237996 0.0177941 0.0114146 0.005503 0.0200523 
340 0.148132 0.252747 0.528879 0.0348927 0.0134766 0.0107458 0.00348285 0.00235845 0.00133368 0.00395225 
341 0.0757223 0.38684 0.208813 0.20162 0.0564034 0.020531 0.0162689 0.0104362 0.00503132 0.0183335 
342 0.69128 0.272898 0.0172706 0.0124456 0.000103789 0.00575761 0.000244019 0 0 0 
343 0.0557398 0.354286 0.174353 0.0971708 0.0959093 0.0678407 0.0394116 0.0468715 0.0145452 0.0538726 
344 0.25497 0.556033 0.151994 0.0247669 0.00847408 0.00149739 0.000704591 0.00049567 0.000335724 0.000729299 
345 0.184388 0.786571 0.0131063 0.00191301 0.0136073 0.000139923 0.000125963 3.57003e-05 3.70421e-05 7.63925e-05 
346 0.137329 0.475648 0.202908 0.0758339 0.0309143 0.0385622 0.0153339 0.00724142 0.00409497 0.0121351 
347 0.147516 0.469526 0.220404 0.0752329 0.0308963 0.0302765 0.00931545 0.00519334 0.0029368 0.00870294 
348 0.188232 0.543332 0.134157 0.0642321 0.0329907 0.0137932 0.00723959 0.00494366 0.0027956 0.00828453 
349 0.0850156 0.486769 0.17497 0.0904335 0.0565274 0.0311791 0.0244033 0.0156543 0.00754698 0.0275003 
350 0.142082 0.569197 0.270609 0.0114404 0.00254802 0.00164079 0.00077219 0.000543225 0.000367934 0.000799269 
351 0.187585 0.511981 0.175655 0.0785635 0.0153951 0.0111511 0.00612128 0.00418001 0.00236376 0.00700481 
352 0.417928 0.530292 0.0176278 0.00379366 0.000975198 0.000535922 0.000489856 0.000138834 0.000148071 0.0280708 
353 0.231548 0.491224 0.199093 0.0448304 0.00809656 0.0171958 0.00249359 0.00175255 0.00118703 0.00257859 
354 0.160445 0.486553 0.187763 0.0732081 0.026401 0.0187889 0.0103139 0.00704303 0.00506658 0.0244175 
355 0.228508 0.501971 0.18951 0.0412258 0.0266528 0.00519685 0.00215736 0.00151767 0.00102794 0.00223301 
356 0.05917 0.376206 0.199799 0.0882342 0.0747349 0.0548995 0.0399524 0.0343758 0.0154403 0.0571878 
357 0.155159 0.427495 0.279807 0.0744822 0.0178595 0.0138478 0.0155412 0.00493785 0.00274286 0.00812822 
358 0.225023 0.526564 0.186496 0.0424825 0.00586181 0.00285035 0.00195923 0.00669204 0.000683259 0.00138847 
359 0.198772 0.521611 0.129846 0.0701196 0.0442014 0.0128385 0.00703661 0.00480506 0.00271722 0.00805226 
360 0.132228 0.352945 0.378399 0.0628604 0.0216814 0.0252993 0.00827385 0.0056499 0.00319498 0.00946804 
361 0.247748 0.525349 0.147271 0.035015 0.0181339 0.0185678 0.00246192 0.00173193 0.00117306 0.00254826 
362 0.107336 0.467046 0.172546 0.0822848 0.0438033 0.028911 0.0297432 0.0219727 0.0198933 0.026463 
363 0.193863 0.478379 0.173163 0.0642002 0.0229862 0.0271808 0.00885798 0.00604872 0.00344515 0.0218764 
364 0.198697 0.486357 0.174163 0.0561808 0.0243364 0.0294901 0.00968078 0.00650811 0.00368029 0.0109062 
365 0.223849 0.740119 0.0272976 0.00459226 0.00156706 0.00102455 0.000482174 0.000339203 0.000229747 0.000499083 
366 0.0582734 0.370389 0.182213 0.101945 0.088381 0.0540676 0.0393471 0.0338549 0.0152064 0.0563213 
367 0.422924 0.575977 0.000822815 0.000164247 4.22214e-05 2.32029e-05 2.12084e-05 6.01087e-06 6.23679e-06 1.28622e-05 
368 0.39462 0.444375 0.14557 0.00338061 0.0117325 0.000117018 9.35533e-05 2.65148e-05 2.75114e-05 5.67372e-05 
369 0.230121 0.59987 0.158158 0.00417864 0.00141666 0.00489569 0.000423048 0.000297402 0.000201435 0.00043758 
370 0.201771 0.335262 0.415576 0.0248592 0.012057 0.00379142 0.00207988 0.00142028 0.000803157 0.00238009 
371 0.210263 0.592825 0.0851175 0.0150028 0.0101233 0.0024057 0.00289096 0.0796698 0.000537003 0.00116453 
372 0.0757557 0.33077 0.390415 0.105927 0.0481094 0.012853 0.0156545 0.0063341 0.00305369 0.0111273 
373 0.352564 0.541014 0.0902438 0.00884143 0.00277593 0.00181492 0.000854137 0.000600873 0.00040698 0.000884089 
374 0.333134 0.44512 0.132819 0.0801232 0.00374775 0.00201201 0.000946894 0.000666127 0.000451177 0.000980099 
375 0.296245 0.326327 0.296187 0.0760141 0.00134917 0.00299166 0.000296528 0.000187295 0.000126858 0.000275575 
376 0.337067 0.434305 0.21373 0.00856108 0.00225744 0.000585216 0.000273547 0.000192437 0.000769847 0.00225801 
377 0.206142 0.718266 0.0675632 0.00448341 0.00134143 0.00087703 0.000412748 0.000290363 0.000196667 0.000427223 
378 0.139451 0.529914 0.177842 0.0850349 0.0226278 0.0163284 0.0089633 0.00612073 0.00346122 0.010257 
379 0.139131 0.490891 0.197158 0.0657246 0.0528727 0.01966 0.010756 0.00734487 0.00415347 0.0123084 
380 0.22802 0.472631 0.162857 0.0549757 0.0480342 0.018751 0.00820365 0.00207344 0.00140437 0.00305073 
381 0.324486 0.482172 0.185169 0.00663713 0.000580283 0.000318896 0.000291484 8.26122e-05 8.57173e-05 0.000176776 
382 0.147189 0.475959 0.193821 0.0666143 0.0300574 0.0490624 0.012048 0.00779002 0.00440519 0.0130544 
383 0.315371 0.670832 0.0126682 0.000675406 0.000171254 9.41132e-05 8.60235e-05 2.43807e-05 2.5297e-05 5.21705e-05 
384 0.308644 0.32361 0.0170322 0.293337 0.0571534 7.9564e-05 6.59245e-05 1.86843e-05 1.93865e-05 3.99812e-05 
385 0.296747 0.662616 0.0386413 0.00118807 0.000305279 0.000167767 0.000153346 4.34612e-05 4.50947e-05 9.29996e-05 
386 0.164603 0.424224 0.241425 0.0852675 0.0352471 0.0178128 0.00977815 0.00667716 0.00377588 0.0111895 
387 0.0999357 0.381189 0.165117 0.204225 0.0442105 0.0377618 0.0220596 0.0140487 0.00677293 0.0246797 
388 0.247544 0.449605 0.137499 0.0747111 0.0418413 0.0278542 0.00657931 0.00443225 0.0025064 0.00742751 
389 0.32501 0.287446 0.126056 0.203214 0.0358133 0.0137577 0.00518958 0.00113505 0.0007497 0.00162859 
390 0.141773 0.445316 0.130715 0.0528399 0.0808581 0.0939555 0.0375539 0.00534852 0.0029368 0.00870294 
391 0.217665 0.586371 0.107415 0.076446 0.00731409 0.00197451 0.000875579 0.000615958 0.000417197 0.000906284 
392 0.361265 0.5643 0.0586403 0.00986174 0.00224457 0.00146751 0.000690639 0.000485855 0.000329076 0.000714858 
393 0.343839 0.582454 0.0488609 0.0121831 0.00358914 0.0025977 0.00174282 0.00255082 0.000550674 0.0016318 
394 0.257101 0.46768 0.2177 0.0449833 0.00477582 0.00308788 0.00145322 0.00102232 0.000692432 0.00150418 
395 0.185916 0.655878 0.106735 0.0227661 0.00955843 0.00692721 0.00380261 0.00259667 0.0014684 0.00435147 
396 0.10155 0.477408 0.279286 0.0516014 0.0274699 0.0181306 0.0144766 0.00928643 0.00447702 0.0163137 
397 0.47449 0.323488 0.0992832 0.0396822 0.0567794 0.00256056 0.00115615 0.000813337 0.000550885 0.0011967 
398 0.0869038 0.418348 0.263388 0.0803549 0.0491071 0.0369928 0.0210893 0.0135284 0.00652208 0.0237657 
399 0.241781 0.565888 0.15285 0.0207566 0.00708441 0.00463182 0.00217983 0.00153348 0.00103865 0.00225627 
400 0.243256 0.521989 0.165099 0.0479552 0.00823731 0.00535728 0.00252125 0.00177366 0.00120133 0.00260966 
401 0.353909 0.530278 0.102672 0.0128838 0.000102478 5.19332e-05 4.74692e-05 1.34537e-05 1.39593e-05 2.87886e-05 
402 0.255113 0.287841 0.238344 0.097096 0.068739 0.0251517 0.0158499 0.00369296 0.00206201 0.00611058 
403 0.21483 0.476175 0.246264 0.0460072 0.00637782 0.00411717 0.00193763 0.00136309 0.000923242 0.00200557 
404 0.258967 0.714239 0.0214081 0.0028366 0.000964685 0.000630715 0.000296828 0.000208814 0.000141433 0.000307237 
405 0.0338176 0.337044 0.166466 0.0963232 0.100449 0.0599006 0.0633666 0.047774 0.024678 0.0701801 
406 0.05656 0.37294 0.178398 0.127712 0.0714395 0.0524774 0.0381898 0.0328592 0.0147592 0.0546648 
407 0.188927 0.322285 0.232149 0.201059 0.0144015 0.0234749 0.00571456 0.00369886 0.00209167 0.0061985 
408 0.138092 0.440708 0.280292 0.0573533 0.0356295 0.0137317 0.00752917 0.00514141 0.00748982 0.0140335 
409 0.0151236 0.202547 0.15595 0.185011 0.119968 0.0624738 0.078187 0.0614909 0.022114 0.0971349 
410 0.151362 0.387128 0.187355 0.0740093 0.0722913 0.0745348 0.00967089 0.00612073 0.0034809 0.0340468 
411 0.264049 0.608368 0.113549 0.00590118 0.00197714 0.00419922 0.000608582 0.000427948 0.000289855 0.000629657 
412 0.260798 0.604774 0.122144 0.00433047 0.00349995 0.000952982 0.00252669 0.000309278 0.000209475 0.000455046 
413 0.13429 0.321863 0.169268 0.258637 0.070901 0.023719 0.0102092 0.00348147 0.00192545 0.0057059 
414 0.0836463 0.425296 0.211514 0.131677 0.0465419 0.029307 0.0234005 0.0150109 0.00723683 0.0263701 
415 0.132277 0.499348 0.243504 0.0547039 0.023365 0.0169332 0.00929527 0.00634742 0.00358942 0.0106369 
416 0.149403 0.666475 0.130495 0.0233953 0.0100669 0.00729568 0.00400488 0.00273479 0.0015465 0.00458293 
417 0.1314 0.730345 0.0687612 0.0248646 0.0132222 0.00643252 0.00348981 0.00695017 0.00138637 0.0131478 
418 0.0549435 0.377827 0.21479 0.0956052 0.0693967 0.0509781 0.0370987 0.0319204 0.0143375 0.053103 
419 0.0909271 0.402294 0.216674 0.0976136 0.0820073 0.0281502 0.0224768 0.0144184 0.00695123 0.038487 
420 0.259789 0.474385 0.233956 0.0230147 0.00335107 0.00219042 0.00103085 0.000725192 0.000491183 0.001067 
421 0.28355 0.418894 0.267738 0.0179919 0.00447436 0.00292536 0.00137673 0.000968513 0.000655988 0.00142501 
422 0.15288 0.840642 0.00308529 0.000635217 0.000163289 8.97358e-05 8.20224e-05 0.00234883 2.41205e-05 4.9744e-05 
423 0.199119 0.439686 0.160598 0.150518 0.0176999 0.00927519 0.00607312 0.00915117 0.00205814 0.00582156 
424 0.126052 0.569486 0.162343 0.0517892 0.045727 0.016139 0.00885785 0.00604872 0.0034205 0.0101364 
425 0.28021 0.491902 0.181197 0.0238393 0.0136931 0.00364471 0.00171527 0.00120667 0.000817296 0.00177543 
426 0.182924 0.452552 0.188748 0.125435 0.0167919 0.0121379 0.00666298 0.00454992 0.00257294 0.0076247 
427 0.140789 0.46975 0.185412 0.0792578 0.0421633 0.0330706 0.0109119 0.00745132 0.00443819 0.0267551 
428 0.216279 0.349614 0.22206 0.098763 0.0563103 0.0380577 0.00589639 0.00401673 0.00227143 0.00673118 
429 0.168326 0.388586 0.394884 0.0324365 0.00596582 0.00390048 0.00183564 0.00129135 0.00087465 0.00190002 
430 0.174076 0.364715 0.420455 0.0214266 0.00731294 0.00478123 0.00225015 0.00158295 0.00107215 0.00232905 
431 0.25134 0.646754 0.074356 0.0142282 0.00323863 0.00686713 0.00100863 0.000701019 0.00047481 0.00103144 
432 0.096753 0.788508 0.0610502 0.0196566 0.0120486 0.00678685 0.0033463 0.00245208 0.0055693 0.00382962 
433 0.046903 0.298222 0.353485 0.0821406 0.0592413 0.0435178 0.0316696 0.0272491 0.0122393 0.0453318 
434 0.262172 0.410006 0.112236 0.213855 0.000791338 0.000313711 0.000286745 8.12689e-05 8.43235e-05 0.000173902 
435 0.277061 0.462893 0.191064 0.0246722 0.0300939 0.00620676 0.00249123 0.00175255 0.00118703 0.00257859 
436 0.408525 0.335268 0.201034 0.0332015 0.00837123 0.00588671 0.00555788 0.000684732 0.000463768 0.00100745 
437 0.152506 0.209955 0.420574 0.176419 0.0180687 0.010589 0.00406418 0.00241381 0.00136499 0.00404503 
438 0.149453 0.483282 0.196802 0.0676391 0.0291164 0.0219161 0.0261532 0.00790986 0.00447297 0.0132553 
439 0.159064 0.469708 0.191211 0.083368 0.03989 0.0206484 0.0112376 0.00767375 0.00433944 0.0128596 
440 0.42978 0.522668 0.0334049 0.0125532 0.000875433 0.000239667 0.000219066 6.20874e-05 6.44211e-05 0.000132857 
441 0.0901527 0.447315 0.178788 0.0922567 0.0494979 0.0475419 0.0406365 0.0166402 0.00800437 0.029167 
442 0.144534 0.198955 0.59393 0.0176701 0.0314146 0.0096303 0.00120268 0.000846058 0.000573047 0.00124484 
443 0.121375 0.422066 0.199196 0.177376 0.0442195 0.0129431 0.00710299 0.00485039 0.00274286 0.00812822 
444 0.0618579 0.166797 0.717868 0.0187364 0.0126609 0.00638631 0.0050992 0.00327104 0.00157698 0.00574633 
445 0.0557398 0.368766 0.173965 0.0832691 0.113548 0.0517828 0.0376363 0.032383 0.015206 0.0677046 
446 0.238074 0.478784 0.18365 0.0730575 0.0100015 0.00653903 0.0030774 0.00216491 0.00146633 0.00318532 
447 0.323554 0.54911 0.107695 0.010923 0.0070326 0.000670732 0.000315631 0.000222042 0.000150392 0.0003267 
448 0.0888071 0.440639 0.176119 0.0919464 0.0920857 0.031935 0.025496 0.0163552 0.0078849 0.0287316 
449 0.162292 0.462954 0.217818 0.0571507 0.0245788 0.0178128 0.00977814 0.00667716 0.0101837 0.0307557 
450 0.292705 0.467663 0.173103 0.0276754 0.00944587 0.00617577 0.0167912 0.00204871 0.00138486 0.00300836 
451 0.131276 0.441467 0.260204 0.0881394 0.0276829 0.018535 0.0101746 0.00694785 0.00392896 0.0116431 
452 0.228455 0.267047 0.32649 0.124823 0.0240054 0.0105686 0.00579167 0.00395493 0.00223648 0.00662763 
453 0.149453 0.483282 0.196802 0.0676391 0.0291164 0.0211013 0.0131644 0.0216961 0.00449029 0.0132553 
454 0.387212 0.564989 0.0162729 0.00435487 0.0114173 0.0147654 0.000452384 0.000128155 0.000132972 0.00027423 
455 0.293026 0.642034 0.0477832 0.0111709 0.0024723 0.00139828 0.000658061 0.000462937 0.000313554 0.000681138 
456 0.256553 0.500855 0.171097 0.0297407 0.0101508 0.0067262 0.0179562 0.00220017 0.00148821 0.00323286 
457 0.176457 0.251716 0.187178 0.322209 0.0101101 0.0413042 0.00345136 0.002337 0.00132156 0.00391632 
458 0.227363 0.552531 0.179758 0.0212254 0.00723514 0.00473037 0.00222621 0.00156611 0.00106075 0.00230428 
459 0.112044 0.585564 0.205348 0.0423942 0.0181978 0.0131883 0.00723959 0.00494366 0.0027956 0.00828453 
460 0.213436 0.360672 0.339712 0.0355481 0.00776066 0.0350751 0.00291626 0.00154962 0.00104958 0.00228002 
461 0.200234 0.606989 0.105167 0.0335008 0.0216883 0.0132006 0.00424057 0.00288843 0.00166472 0.010427 
462 0.0903912 0.483139 0.209605 0.0931256 0.03773 0.0248769 0.0198632 0.0127418 0.00614289 0.0223839 
463 0.308494 0.241774 0.437898 0.00573489 0.00213286 0.000565734 0.000266266 0.00145953 0.00012689 0.00154781 
464 0.228128 0.497335 0.188033 0.0451283 0.0166701 0.0166743 0.00251332 0.00175255 0.00118703 0.00257859 
465 0.347982 0.393175 0.240969 0.00836226 0.00727738 0.000889403 0.000418527 0.000294428 0.00019942 0.000433204 
466 0.221393 0.300957 0.365793 0.0587997 0.0282147 0.0164613 0.00261487 0.00177903 0.00100603 0.00298128 
467 0.217353 0.65556 0.11717 0.00523561 0.0017711 0.00115795 0.000544957 0.00038337 0.000259662 0.000564067 
468 0.119728 0.489065 0.124996 0.0505228 0.193284 0.00944791 0.00652541 0.00199962 0.00111824 0.00331381 
469 0.183472 0.398502 0.139593 0.0785146 0.141977 0.0211705 0.00809836 0.0055284 0.00603051 0.0171129 
470 0.208246 0.489433 0.228692 0.0539036 0.00757896 0.0048332 0.0022746 0.00160015 0.00108381 0.00235437 
471 0.0981261 0.387319 0.382111 0.0750174 0.019134 0.0138544 0.00760522 0.00519334 0.0029368 0.00870294 
472 0.253063 0.478573 0.174054 0.0315959 0.0333048 0.00796633 0.0119879 0.00506168 0.00138486 0.00300836 
473 0.246693 0.33792 0.335298 0.0671117 0.00766821 0.00213571 0.000987092 0.000694406 0.000470331 0.00102171 
474 0.130987 0.658754 0.199053 0.00538815 0.00193712 0.00140388 0.000770642 0.000526245 0.000297587 0.000881874 
475 0.0610759 0.632496 0.142044 0.040395 0.0335018 0.0246101 0.0179097 0.0154098 0.00692153 0.0256359 
476 0.482156 0.46942 0.0471198 0.00116006 5.43388e-05 2.98195e-05 2.72563e-05 7.72495e-06 8.0153e-06 1.65301e-05 
477 0.138779 0.491618 0.182791 0.0770481 0.0285434 0.0466588 0.010756 0.00734487 0.00415347 0.0123084 
478 0.0869896 0.222582 0.167945 0.442274 0.0493017 0.0189036 0.00613666 0.00181057 0.00102374 0.00303377 
479 0.201874 0.484723 0.259784 0.0316749 0.00730722 0.00529571 0.00290702 0.0019851 0.00112256 0.00332661 
480 0.102598 0.433241 0.209958 0.0793543 0.0415574 0.0402732 0.0346962 0.014152 0.0178933 0.0262766 
481 0.156361 0.475151 0.198417 0.0821285 0.0249037 0.0180472 0.00992322 0.0198994 0.00383267 0.0113367 
482 0.230105 0.719406 0.0309155 0.00853735 0.00367489 0.00266328 0.00146197 0.000998332 0.000564549 0.00167299 
483 0.224978 0.731236 0.0344045 0.00493235 0.00168342 0.00110063 0.000517979 0.000364391 0.000246807 0.000536143 
484 0.254864 0.399914 0.295288 0.0383697 0.0085503 0.00120531 0.000562536 0.000395737 0.000268038 0.000582263 
485 0.200956 0.454319 0.177035 0.0689207 0.0367092 0.0310425 0.00965292 0.00659155 0.00372747 0.011046 
486 0.193377 0.343641 0.240688 0.134706 0.0561266 0.0101337 0.00923224 0.00761621 0.00117783 0.00330112 
487 0.159351 0.448112 0.207771 0.0624624 0.0274276 0.0325237 0.0107117 0.00729899 0.0244203 0.0199211 
488 0.131355 0.479539 0.189674 0.106264 0.0419166 0.0185572 0.0101746 0.00694785 0.00392896 0.0116431 
489 0.349191 0.552762 0.0871138 0.00592601 0.00189444 0.00123859 0.000582907 0.000410067 0.000277744 0.000603348 
490 0.138951 0.512559 0.187422 0.0719021 0.0296135 0.0272887 0.0100437 0.00685521 0.00387657 0.0114879 
491 0.0878842 0.463005 0.173712 0.0926531 0.0736154 0.0318168 0.0251211 0.0161147 0.00776895 0.0283091 
492 0.136151 0.474852 0.180698 0.115223 0.0293999 0.0300291 0.0105027 0.00714085 0.00403809 0.0119665 
493 0.048585 0.746515 0.0879267 0.0425801 0.0226675 0.0149609 0.0119457 0.00766293 0.00369432 0.0134617 
494 0.147917 0.762387 0.0706767 0.00959571 0.0041714 0.00358243 0.000519671 0.000365295 0.00024742 0.000537474 
495 0.0683932 0.37391 0.169891 0.0831691 0.195278 0.0383519 0.0301958 0.012612 0.00607228 0.0221267 
496 0.0482263 0.317844 0.165949 0.205857 0.0980973 0.0446242 0.0324613 0.0279303 0.0125453 0.0464651 
497 0.0895315 0.59905 0.248227 0.0254647 0.0114966 0.00758657 0.00605757 0.00388581 0.00187336 0.00682631 
498 0.154925 0.572654 0.16627 0.0463241 0.0199218 0.0144378 0.00792544 0.00541201 0.00306045 0.00906938 
499 0.37398 0.527494 0.0682935 0.0167872 0.000484942 0.0123828 0.000321641 6.13256e-05 6.36306e-05 0.000131226 
500 0.0364389 0.207021 0.560525 0.0459757 0.0513811 0.0268375 0.0195256 0.0168002 0.00754603 0.0279489 
501 0.133198 0.498248 0.176087 0.0735114 0.0268149 0.0448215 0.0244906 0.00704304 0.00398278 0.0118026 
502 0.178263 0.454507 0.159012 0.0662835 0.0713066 0.016868 0.0212407 0.00627006 0.00354597 0.022702 
503 0.149783 0.54452 0.246078 0.0298632 0.0211084 0.0073353 0.000459521 0.000270614 0.000183291 0.000398165 
504 0.0767758 0.609621 0.284936 0.0111928 0.0063685 0.00321236 0.00256491 0.00164534 0.000793226 0.00289042 
505 0.172893 0.492605 0.251666 0.0307108 0.0303218 0.00813441 0.00425377 0.00290475 0.00164261 0.00486775 
506 0.0828311 0.483433 0.223058 0.0840166 0.038605 0.0254692 0.0203361 0.0130452 0.00628915 0.0229169 
507 0.275338 0.533929 0.171072 0.0103466 0.00352385 0.00230391 0.00108427 0.000762767 0.000516633 0.00112229 
508 0.263684 0.507242 0.183076 0.0245991 0.00809646 0.0052935 0.00249123 0.00175255 0.00118703 0.00257859 
509 0.102216 0.448855 0.17353 0.104249 0.0476683 0.031462 0.0251211 0.0161147 0.00777126 0.0430127 
510 0.344734 0.633669 0.0202509 0.00116815 6.72248e-05 3.69248e-05 3.37508e-05 9.56563e-06 9.92516e-06 2.04688e-05 
511 0.152674 0.456039 0.21732 0.0753648 0.0372233 0.0238865 0.018739 0.00580626 0.00326677 0.0096808 
512 0.14098 0.506559 0.180694 0.0837853 0.0249424 0.0206936 0.0204182 0.00676507 0.00382556 0.0113367 
513 0.116055 0.497784 0.188018 0.0804332 0.0390216 0.0227597 0.0181727 0.0116574 0.00562009 0.0204789 
514 0.268599 0.447406 0.18309 0.0428518 0.0245813 0.0122492 0.00660454 0.00451001 0.00255038 0.00755782 
515 0.175094 0.349549 0.450647 0.0154115 0.00226425 0.00147726 0.000695227 0.000489657 0.00365294 0.000719612 
516 0.281121 0.439625 0.181232 0.0294396 0.0608689 0.00313702 0.00142356 0.00100146 0.0006783 0.00147348 
517 0.14286 0.47679 0.202702 0.0646551 0.0278319 0.0201704 0.0114101 0.021929 0.00445011 0.0272017 
518 0.0916084 0.514308 0.18446 0.0727152 0.0498836 0.0251735 0.0200969 0.0128918 0.00621516 0.0226473 
519 0.0565595 0.359496 0.17651 0.0842228 0.0714377 0.0524774 0.0383668 0.0573638 0.046992 0.0565739 
520 0.253519 0.261564 0.290775 0.174856 0.00938288 0.00742455 0.000922273 0.000494007 0.000334598 0.000726852 
521 0.124594 0.593342 0.124639 0.0391461 0.031959 0.0234767 0.0170849 0.0147002 0.00660278 0.0244553 
522 0.121101 0.676169 0.147617 0.0268376 0.00941582 0.00682382 0.00374586 0.00255792 0.00144648 0.00428652 
523 0.36799 0.561626 0.0579912 0.00536358 0.0017088 0.00111722 0.000525788 0.000369885 0.000262438 0.00304488 
524 0.137209 0.537051 0.203638 0.0833935 0.0153243 0.0114972 0.00371827 0.0025203 0.00142521 0.00422349 
525 0.307708 0.392258 0.262121 0.0300454 0.00689677 0.000333651 0.000291484 8.26122e-05 8.57173e-05 0.000176776 
526 0.126436 0.34313 0.458614 0.0296172 0.0174391 0.00713749 0.00388102 0.00265021 0.00160253 0.00949197 
527 0.169476 0.325124 0.278625 0.150005 0.0223494 0.0345579 0.00500906 0.00791852 0.00209369 0.0048404 
528 0.0813734 0.761999 0.0777175 0.0287296 0.0152898 0.0100916 0.0080577 0.00516886 0.00249193 0.00908028 
529 0.127405 0.505255 0.202419 0.102896 0.0208184 0.0149086 0.00818388 0.00558849 0.00316025 0.00936512 
530 0.274539 0.471075 0.196273 0.0298551 0.00686973 0.00449146 0.00211377 0.00148701 0.00100717 0.0122889 
531 0.165023 0.388384 0.311337 0.0877116 0.0159529 0.0114299 0.00627431 0.00428451 0.00242286 0.00717993 
532 0.260435 0.593584 0.11789 0.0133607 0.00884935 0.00234058 0.00110139 0.000774811 0.00052479 0.00114001 
533 0.132514 0.394371 0.220814 0.154184 0.0484107 0.0194642 0.00941147 0.00642676 0.00363428 0.0107699 
534 0.0901527 0.462467 0.178788 0.0924091 0.0641115 0.0324158 0.0258823 0.016603 0.00800437 0.029167 
535 0.0875026 0.463567 0.173531 0.089929 0.0619859 0.0314645 0.0261796 0.0297607 0.00777032 0.0283091 
536 0.164022 0.71489 0.101847 0.0101156 0.0034523 0.00225713 0.00106225 0.000747279 0.000506143 0.0010995 
537 0.19545 0.433488 0.243202 0.115376 0.00472336 0.00308788 0.00145322 0.00102232 0.000692431 0.00150418 
538 0.16234 0.475959 0.193821 0.0666143 0.0286753 0.0207816 0.0114078 0.00779002 0.0051216 0.0274895 
539 0.159915 0.468857 0.190928 0.0661359 0.0531556 0.024898 0.0112376 0.00767375 0.00433944 0.0128596 
540 0.125633 0.679562 0.112853 0.0357443 0.0153867 0.0111511 0.00612128 0.00418001 0.00236376 0.00700481 
541 0.116157 0.433609 0.240082 0.157176 0.0178746 0.0126999 0.00697146 0.00476057 0.00269206 0.0079777 
542 0.320752 0.482808 0.120895 0.0426406 0.0144886 0.00667112 0.00365494 0.00249583 0.00141137 0.00418248 
543 0.0901527 0.447572 0.193671 0.0922681 0.0493251 0.0472383 0.0259987 0.016603 0.00800437 0.029167 
544 0.05917 0.376088 0.184657 0.08811 0.0747348 0.0553237 0.0549127 0.0343758 0.0154403 0.0571878 
545 0.179244 0.445789 0.183548 0.103657 0.0255408 0.0178128 0.0105318 0.0188205 0.00386583 0.0111895 
546 0.249062 0.500881 0.176362 0.0352796 0.0210755 0.00698931 0.00321944 0.00226483 0.001534 0.00333234 
547 0.113847 0.773432 0.0712365 0.0180949 0.00778835 0.00564439 0.00309842 0.00211581 0.00119647 0.00354564 
548 0.0952445 0.508587 0.196407 0.079032 0.0411721 0.0230265 0.0183681 0.0117828 0.00568052 0.0206991 
549 0.134395 0.79146 0.0351586 0.0141179 0.00900254 0.0046563 0.00364229 0.00233646 0.00112641 0.00410452 
550 0.124401 0.529445 0.20979 0.0471135 0.0292661 0.0155215 0.0191085 0.00783133 0.00377349 0.0137501 
551 0.149453 0.483282 0.196805 0.0828584 0.0292789 0.0211013 0.0115833 0.00790986 0.00447297 0.0132553 
552 0.0497251 0.520679 0.325958 0.0446128 0.0220407 0.0106971 0.00854117 0.00547899 0.00264144 0.0096251 
553 0.15766 0.480039 0.344001 0.0100545 0.00311974 0.0020397 0.000959924 0.000675294 0.000457386 0.000993587 
554 0.455208 0.467286 0.0645134 0.00813382 0.00183812 0.00120177 0.000565577 0.000397876 0.000269487 0.000585411 
555 0.0994462 0.572245 0.142451 0.0676549 0.0360161 0.0237713 0.0189804 0.0121755 0.00586987 0.0213891 
556 0.149453 0.483282 0.196802 0.0736882 0.0384291 0.0211242 0.0115833 0.00790986 0.00447297 0.0132553 
557 0.148853 0.34984 0.417732 0.040182 0.014454 0.0104701 0.00574746 0.00392474 0.00221941 0.00657703 
558 0.0582734 0.38552 0.183899 0.0972889 0.0762217 0.0540676 0.0393471 0.0338549 0.0152064 0.0563213 
559 0.0888077 0.470477 0.176131 0.105805 0.0483798 0.0319315 0.025496 0.0163552 0.0078849 0.0287316 
560 0.134612 0.437394 0.369684 0.0311366 0.00793688 0.00926501 0.00319834 0.00209 0.00118188 0.0035024 
561 0.0582734 0.370389 0.181859 0.0872502 0.100697 0.0568014 0.0393471 0.0338549 0.0152064 0.0563213 
562 0.0842628 0.379477 0.183703 0.159439 0.0774603 0.0401746 0.0313951 0.0138006 0.00652208 0.0237657 
563 0.211756 0.562696 0.219221 0.00367653 0.0010031 0.000655833 0.000308648 0.00021713 0.000147065 0.000319472 
564 0.273763 0.645792 0.0650238 0.00811394 0.00276465 0.00180754 0.000850665 0.000598431 0.000405326 0.000880495 
565 0.136272 0.439594 0.221694 0.0951743 0.0466088 0.0173737 0.0095306 0.00650812 0.00368639 0.0235583 
566 0.0808586 0.685642 0.0975063 0.0495036 0.0263532 0.0173936 0.0138881 0.00890893 0.00429503 0.0156506 
567 0.113405 0.516498 0.193796 0.0665057 0.0305893 0.0295196 0.0162043 0.0103377 0.00498385 0.0181606 
568 0.24666 0.58044 0.13258 0.0211982 0.00723514 0.00473037 0.00222621 0.00156611 0.00106075 0.00230428 
569 0.0580938 0.335128 0.314191 0.0753488 0.0729841 0.0404265 0.0282272 0.0242872 0.0109089 0.0404044 
570 0.0888071 0.440639 0.191044 0.0908797 0.0483798 0.0324856 0.0418119 0.029336 0.00788492 0.0287316 
571 0.191056 0.328609 0.413276 0.0457321 0.00916025 0.00529506 0.00228092 0.00141637 0.000800944 0.00237353 
572 0.156187 0.495224 0.185345 0.0594511 0.042039 0.0290599 0.0101746 0.00694785 0.00392896 0.0116431 
573 0.140789 0.46085 0.221659 0.090754 0.0310071 0.0198781 0.0109118 0.00745132 0.00421366 0.0124868 
574 0.159156 0.437478 0.228942 0.0705925 0.0307083 0.0272885 0.0232965 0.00696647 0.00392896 0.0116431 
575 0.248824 0.529434 0.151137 0.0486825 0.0082955 0.00542261 0.00255199 0.00179529 0.00121598 0.00264149 
576 0.366694 0.382071 0.152016 0.071799 0.0111362 0.0131285 0.000999108 0.000684716 0.000463768 0.00100745 
577 0.134923 0.436399 0.191649 0.0747562 0.0262875 0.0194141 0.0932727 0.00729436 0.00403809 0.0119665 
578 0.229968 0.661258 0.0843208 0.0128571 0.00438776 0.00286874 0.00135009 0.000949768 0.000643291 0.00139743 
579 0.189073 0.738852 0.0420541 0.0134779 0.00468457 0.00339502 0.00197038 0.00363623 0.000724579 0.00213265 
580 0.252909 0.49888 0.18001 0.0293456 0.00944588 0.00854034 0.0143898 0.00208558 0.00138486 0.00300836 
581 0.0353784 0.321805 0.174175 0.100769 0.105085 0.0626211 0.0509587 0.049971 0.0258169 0.0734192 
582 0.05917 0.376088 0.184657 0.0882558 0.0898703 0.0550029 0.0399524 0.0343758 0.0154403 0.0571878 
583 0.103186 0.487361 0.172382 0.098911 0.0420987 0.0277846 0.0221848 0.0142312 0.00686089 0.0250002 
584 0.172271 0.46196 0.188165 0.079314 0.0278381 0.0347521 0.0111919 0.0075609 0.00427563 0.0126705 
585 0.115167 0.785557 0.0790268 0.0132787 0.0024733 0.00162703 0.00089314 0.000609895 0.000344891 0.00102205 
586 0.163154 0.442178 0.302518 0.0657279 0.00893641 0.00595717 0.00517155 0.00215101 0.0010611 0.00314449 
587 0.0755442 0.422165 0.317442 0.0636171 0.0337651 0.0222856 0.0177941 0.0114146 0.00569343 0.0302785 
588 0.0144563 0.193611 0.148995 0.16223 0.129368 0.0630426 0.0868267 0.0872017 0.0214199 0.0928496 
589 0.103302 0.400448 0.353567 0.0920349 0.0162989 0.0162784 0.00563435 0.00383687 0.00216972 0.00642979 
590 0.112778 0.32872 0.304569 0.211926 0.0255213 0.00596651 0.00327355 0.0022354 0.0012641 0.00374605 
591 0.055532 0.138625 0.691445 0.0275667 0.0297022 0.0155974 0.0112909 0.00971489 0.00436357 0.0161618 
592 0.124019 0.410509 0.187473 0.102023 0.0592874 0.0297819 0.0238229 0.0290108 0.00733744 0.0267364 
593 0.160526 0.440919 0.17666 0.059603 0.0500116 0.0306367 0.0221958 0.0190976 0.00857797 0.031771 
594 0.198318 0.440925 0.186309 0.0976434 0.0255753 0.018535 0.0101746 0.00694785 0.00392896 0.0116431 
595 0.0922824 0.589586 0.133474 0.0634267 0.0337651 0.0234515 0.0270449 0.0114146 0.005503 0.0200523 
596 0.0655615 0.82946 0.0579835 0.0171123 0.00910519 0.00600959 0.00479841 0.00307809 0.00148396 0.00540736 
597 0.16234 0.475959 0.193821 0.0666143 0.0303275 0.0342794 0.0114093 0.00779002 0.00440519 0.0130544 
598 0.145721 0.647945 0.0921412 0.0381445 0.0246472 0.0132464 0.0104189 0.0125289 0.00346887 0.0117379 
599 0.268683 0.613506 0.0924069 0.0175189 0.00298353 0.00195024 0.000917822 0.000645675 0.000437325 0.000950008 
600 0.125487 0.107763 0.729125 0.0270445 0.00391562 0.00265174 0.00124862 0.000852639 0.00048216 0.00142884 
601 0.0574136 0.394702 0.179145 0.0854798 0.072504 0.053366 0.0532817 0.0336478 0.0149794 0.0554807 
602 0.175888 0.663856 0.103478 0.0248481 0.0106324 0.00770555 0.00422987 0.00288843 0.00163339 0.0048404 
603 0.05917 0.376088 0.184657 0.0881141 0.0901138 0.054901 0.0399524 0.0343758 0.0154403 0.0571878 
604 0.0557398 0.383231 0.188463 0.0842091 0.0980538 0.0518665 0.0376363 0.032383 0.0145453 0.0538726 
605 0.328485 0.264167 0.188356 0.0196241 0.192663 0.00318195 0.00109562 0.000770754 0.000522043 0.00113404 
606 0.0273558 0.708625 0.087116 0.0369495 0.0383739 0.0228673 0.0186085 0.0183551 0.0149382 0.0268104 
607 0.0797589 0.477087 0.196613 0.0890809 0.0588358 0.0285264 0.0227764 0.0146107 0.00704384 0.0256669 
608 0.191134 0.478944 0.289998 0.0288833 0.00559211 0.00197234 0.00108178 0.000738709 0.000417734 0.00123792 
609 0.283968 0.481735 0.159735 0.0330122 0.0232274 0.0112272 0.00263765 0.00141552 0.000958751 0.00208271 
610 0.124545 0.415752 0.215461 0.139877 0.0428008 0.0301611 0.0100382 0.00659155 0.00372747 0.011046 
611 0.105584 0.282132 0.199154 0.30609 0.0693633 0.0169979 0.0101306 0.00325406 0.00184014 0.00545311 
612 0.0943652 0.314712 0.204826 0.197296 0.089792 0.0394918 0.0241138 0.0120378 0.00503132 0.0183335 
613 0.36894 0.562965 0.0660512 0.00142985 0.00023173 0.000127348 0.000116401 3.29904e-05 3.42303e-05 7.05938e-05 
614 0.0353784 0.306453 0.174143 0.100769 0.105085 0.0626211 0.0509587 0.049971 0.0258634 0.0887574 
615 0.05917 0.376088 0.184657 0.08811 0.0756551 0.0693362 0.03998 0.0343758 0.0154403 0.0571878 
616 0.0689945 0.378031 0.185753 0.095346 0.0844377 0.0509781 0.0370987 0.0319204 0.0143375 0.053103 
617 0.146692 0.471259 0.216444 0.0604766 0.039438 0.0188505 0.0124822 0.0178494 0.00470673 0.0118026 
618 0.05917 0.376088 0.184701 0.10343 0.0747559 0.0548995 0.0399524 0.0343758 0.0154403 0.0571878 
619 0.167212 0.463184 0.183649 0.0771077 0.0411386 0.0295278 0.0143743 0.00734487 0.00415347 0.0123084 
620 0.151601 0.459398 0.284968 0.0523621 0.0172076 0.012469 0.0068447 0.00467401 0.00264312 0.00783265 
621 0.18315 0.740156 0.0491508 0.0120143 0.00517095 0.00374751 0.00205715 0.00140476 0.000794379 0.00235407 
622 0.148171 0.426402 0.203473 0.108494 0.051115 0.0179365 0.00977815 0.00667716 0.00378264 0.0241698 
623 0.15292 0.518909 0.174575 0.0628724 0.0225952 0.0278944 0.00886399 0.0061052 0.013534 0.0117311 
624 0.150925 0.435208 0.269339 0.105058 0.0155942 0.0116941 0.00526683 0.00213337 0.0012064 0.00357507 
625 0.0757949 0.647967 0.115401 0.0585476 0.0311678 0.0205713 0.0164253 0.0105365 0.0050797 0.0185098 
626 0.281392 0.419047 0.28081 0.0175186 0.00076605 0.00015559 0.000142216 4.03068e-05 4.18217e-05 8.62496e-05 
627 0.152791 0.311614 0.271258 0.144196 0.0558823 0.0287259 0.0189183 0.0053171 0.00285042 0.00844697 
628 0.05917 0.376088 0.184657 0.08811 0.0747349 0.0548995 0.0406926 0.0431141 0.0213465 0.0571878 
629 0.229141 0.378696 0.364667 0.0120816 0.00821879 0.00260517 0.00142869 0.0009756 0.000551694 0.0016349 
630 0.0485201 0.293093 0.180762 0.0965725 0.115153 0.0598585 0.0487105 0.0477664 0.0261379 0.0834261 
631 0.0874846 0.473275 0.169204 0.113802 0.0534419 0.0297737 0.0237255 0.0152194 0.00733734 0.0267364 
632 0.0815079 0.407711 0.220932 0.130208 0.0446165 0.0293343 0.0370718 0.015011 0.00723683 0.0263701 
633 0.264831 0.358871 0.276385 0.0484174 0.0149405 0.0179395 0.00579577 0.00395493 0.00223648 0.00662762 
634 0.0921276 0.44107 0.197067 0.1067 0.0467693 0.0383302 0.0286427 0.0152194 0.00733734 0.0267364 
635 0.214698 0.404298 0.118612 0.171672 0.0791932 0.0046606 0.00213534 0.00150218 0.00101745 0.00221022 
636 0.12278 0.49827 0.151679 0.0780633 0.041557 0.0274284 0.0228762 0.0258927 0.00677364 0.0246797 
637 0.225084 0.563937 0.166645 0.0241375 0.00764161 0.00499612 0.00235128 0.00165409 0.00112034 0.00243373 
638 0.0534174 0.436731 0.171143 0.0889812 0.0674963 0.049562 0.0360681 0.0310337 0.0139392 0.0516279 
639 0.220836 0.364678 0.404232 0.0013011 0.00055474 0.00817732 0.000103658 2.80789e-05 2.91342e-05 6.0084e-05 
640 0.137817 0.593097 0.150497 0.051724 0.0222655 0.0161363 0.00885785 0.00604872 0.0034205 0.0101364 
641 0.0926677 0.473717 0.197253 0.0811868 0.0432193 0.0285257 0.0361096 0.0146107 0.00704384 0.0256669 
642 0.385582 0.562631 0.0203059 0.0289007 0.000975198 0.000535922 0.000489856 0.000138834 0.000144053 0.000297082 
643 0.20576 0.561307 0.145525 0.0390812 0.0147055 0.0162137 0.00541898 0.00369886 0.00209167 0.0061985 
644 0.14286 0.491293 0.202905 0.0646551 0.0278319 0.0201704 0.0111397 0.0221603 0.0043147 0.0126705 
645 0.146773 0.497788 0.176785 0.0733987 0.0285544 0.0397176 0.0141546 0.00704303 0.00398278 0.0118026 
646 0.145197 0.456474 0.226371 0.0771411 0.0290107 0.0269481 0.0104984 0.0136472 0.00492113 0.00979081 
647 0.0915396 0.454197 0.181538 0.093676 0.0518237 0.0457378 0.026886 0.0168584 0.00812751 0.0296157 
648 0.411557 0.498384 0.0878453 0.00144918 0.000288971 0.000158792 0.000145142 4.11361e-05 4.26823e-05 8.80243e-05 
649 0.274338 0.498388 0.192801 0.0181314 0.00618275 0.00404231 0.0019024 0.00133831 0.000906456 0.00196911 
650 0.0353784 0.306453 0.174143 0.102461 0.118766 0.0626327 0.0509587 0.049971 0.0258169 0.0734192 
651 0.138778 0.476639 0.183506 0.0770324 0.0409459 0.0376227 0.0216691 0.00734498 0.00415347 0.0123084 
652 0.0915396 0.454197 0.181538 0.093676 0.0498684 0.032914 0.0262805 0.0168584 0.00871674 0.0444111 
653 0.149453 0.483282 0.196885 0.08294 0.029118 0.0211013 0.0115833 0.00790986 0.00447297 0.0132553 
654 0.172671 0.462407 0.232167 0.0709603 0.0205881 0.0149086 0.00818388 0.00558849 0.00316025 0.00936512 
655 0.0353784 0.306453 0.175392 0.114904 0.105085 0.0626211 0.0509587 0.049971 0.0258169 0.0734192 
656 0.171697 0.47724 0.188256 0.0792251 0.0278319 0.0201704 0.0110723 0.0075609 0.00427563 0.0126705 
657 0.25428 0.566081 0.142428 0.019588 0.00666768 0.00435936 0.0020516 0.00144327 0.00097755 0.00212355 
658 0.256549 0.486451 0.185504 0.0297408 0.0157669 0.0159459 0.00312334 0.00219722 0.00148821 0.00323286 
659 0.26362 0.588151 0.111785 0.0191599 0.00653945 0.00427552 0.00201215 0.00141552 0.000958751 0.00208271 
660 0.0915396 0.454197 0.181538 0.093676 0.0498684 0.032914 0.0262805 0.0168584 0.00815452 0.0449733 
661 0.255802 0.526126 0.184476 0.0175181 0.00391514 0.00829614 0.00120266 0.000846058 0.000573047 0.00124484 
662 0.234801 0.470446 0.214262 0.0277476 0.0115577 0.0312818 0.0034664 0.00204464 0.00138486 0.00300836 
663 0.136037 0.767233 0.0525563 0.019328 0.00783376 0.00801808 0.00279903 0.00191131 0.00108083 0.00320294 
664 0.267705 0.440988 0.208249 0.0283521 0.00647973 0.0199492 0.023902 0.00139136 0.000940662 0.00204341 
665 0.173635 0.653338 0.134742 0.0201276 0.00686973 0.00449146 0.00211377 0.00148701 0.00100717 0.0021879 
666 0.245288 0.508443 0.17369 0.0301914 0.0105011 0.0213681 0.00349476 0.00223052 0.00151076 0.00328185 
667 0.149453 0.483284 0.212143 0.067681 0.0291164 0.0211013 0.0115833 0.00790986 0.00447297 0.0132553 
668 0.0915396 0.454197 0.181538 0.093676 0.0498684 0.032914 0.0273984 0.0311252 0.00812751 0.0296157 
669 0.178289 0.448411 0.182614 0.0839625 0.0265837 0.0326476 0.0110796 0.0204073 0.0040381 0.0119665 
670 0.0915396 0.454197 0.181538 0.093676 0.0498684 0.032914 0.0265722 0.0317535 0.00832541 0.0296157 
671 0.147172 0.487225 0.187994 0.103967 0.0262557 0.0171448 0.00941146 0.00642676 0.00363428 0.0107699 
672 0.0863904 0.383123 0.288478 0.126356 0.0352532 0.0232545 0.0185678 0.0119109 0.00574226 0.0209241 
673 0.160052 0.442181 0.239569 0.074651 0.0236592 0.01738 0.0214144 0.00668866 0.00363428 0.0107699 
674 0.34061 0.569569 0.0428828 0.00480186 0.0202057 0.0211188 0.00037228 0.000105222 0.000109177 0.000225157 
675 0.146426 0.463855 0.251203 0.0549776 0.0313157 0.0219811 0.00941147 0.00642676 0.00363428 0.0107699 
676 0.296414 0.515415 0.158655 0.0155817 0.00527212 0.00344693 0.0016222 0.00114119 0.000772947 0.00167908 
677 0.249748 0.444834 0.176761 0.0392155 0.00952798 0.0695822 0.00423219 0.00193703 0.00131198 0.00285002 
678 0.09891 0.432437 0.208029 0.0873394 0.0536253 0.0327525 0.030665 0.020889 0.00861718 0.0267364 
679 0.124649 0.45787 0.207369 0.097344 0.0421879 0.0423381 0.00886375 0.00597838 0.00338073 0.0100185 
680 0.0343224 0.297305 0.170258 0.141223 0.101949 0.0607519 0.0494375 0.0484793 0.0250463 0.0712276 
681 0.266215 0.472061 0.18749 0.0255793 0.021495 0.0057127 0.00268287 0.00189009 0.0140951 0.00277793 
682 0.0613387 0.642921 0.133248 0.0707639 0.0279628 0.0184432 0.0147261 0.00944654 0.00455421 0.016595 
683 0.158187 0.473146 0.238964 0.0570551 0.0314326 0.0149185 0.00818388 0.00558849 0.00316025 0.00936512 
684 0.146213 0.488017 0.188122 0.0646551 0.0278319 0.0202532 0.0394987 0.00846338 0.00427563 0.0126705 
685 0.140789 0.455269 0.240987 0.0660917 0.0274285 0.0198781 0.0110617 0.0215405 0.0044674 0.0124868 
686 0.171483 0.431515 0.179631 0.104651 0.0470193 0.0191752 0.0151171 0.00969734 0.00467512 0.0170356 
687 0.382578 0.574293 0.0370615 0.00326372 0.001061 0.000693689 0.000326464 0.000229663 0.000155554 0.000337912 
688 0.0850011 0.421754 0.168824 0.116 0.0741813 0.030563 0.0261136 0.0424534 0.00760903 0.0275003 
689 0.112868 0.65017 0.166219 0.0338366 0.0122895 0.00890641 0.00488907 0.00333858 0.00188794 0.00559475 
690 0.0526884 0.389541 0.164634 0.119449 0.0666386 0.0624915 0.0355803 0.0306086 0.0139173 0.0644503 
691 0.148339 0.455582 0.205219 0.0685915 0.0327654 0.0235256 0.0213892 0.0165238 0.00784713 0.0202168 
692 0.233002 0.606339 0.120762 0.0209751 0.00715898 0.00468057 0.00220277 0.00154962 0.00104958 0.00228002 
693 0.0734249 0.370389 0.181859 0.086775 0.0736025 0.0540676 0.0393471 0.0338549 0.0159988 0.0706805 
694 0.155282 0.455267 0.199884 0.0790529 0.040983 0.0199742 0.0109118 0.00745132 0.00475729 0.026436 
695 0.380025 0.444502 0.134558 0.0123972 0.0184675 0.000353991 0.00932038 9.00645e-05 9.34396e-05 0.000192702 
696 0.259825 0.497395 0.190898 0.0225439 0.0132716 0.0109311 0.00159744 0.00112377 0.000761146 0.00165345 
697 0.117061 0.57604 0.205888 0.0447382 0.0187383 0.0135801 0.00745463 0.00509051 0.00287864 0.00853061 
698 0.192866 0.527709 0.135258 0.0576773 0.0263532 0.0173936 0.0138881 0.00890893 0.00429503 0.0156506 
699 0.202282 0.444413 0.190616 0.107496 0.0197636 0.0128186 0.00703661 0.00480506 0.00271722 0.00805226 
700 0.289131 0.555916 0.125508 0.0167852 0.00478946 0.00313137 0.00147369 0.00103672 0.000702184 0.00152537 
701 0.130416 0.436898 0.215491 0.0876198 0.0370903 0.0334606 0.0226618 0.00766429 0.00912298 0.0195748 
702 0.220429 0.724574 0.0427309 0.0064489 0.00220098 0.00143901 0.000677228 0.000476421 0.000322686 0.000700977 
703 0.296672 0.582585 0.098706 0.0115863 0.00395409 0.0025852 0.00121665 0.000855895 0.00057971 0.00125931 
704 0.0838039 0.421865 0.242648 0.0880276 0.0592786 0.0303296 0.0240596 0.0154338 0.00744068 0.0271129 
705 0.27728 0.52784 0.145646 0.0219138 0.00489393 0.0103817 0.00151621 0.00105909 0.000722788 0.00874708 
706 0.205394 0.344845 0.304404 0.0908351 0.044659 0.00439331 0.00170133 0.00119686 0.000810652 0.00176099 
707 0.249563 0.529251 0.166255 0.0288787 0.00985656 0.00644427 0.0030328 0.00213354 0.00144507 0.00313916 
708 0.0875011 0.463237 0.20322 0.0895986 0.0476683 0.031462 0.0251211 0.0161147 0.00776895 0.0283091 
709 0.256552 0.48608 0.185033 0.0305797 0.0101513 0.0215614 0.00312341 0.00219722 0.00148821 0.00323286 
710 0.222375 0.558564 0.186108 0.0175498 0.00512893 0.00371704 0.00204043 0.00139334 0.000787921 0.00233494 
711 0.0353784 0.306453 0.174291 0.11317 0.10792 0.0626211 0.0509587 0.049971 0.0258169 0.0734192 
712 0.05917 0.391472 0.184657 0.08811 0.0747349 0.0548995 0.0399524 0.0343758 0.0154403 0.0571878 
713 0.0541697 0.345394 0.224254 0.110729 0.0806556 0.0502601 0.0365761 0.0314708 0.0141355 0.052355 
714 0.143389 0.508534 0.271915 0.0537001 0.00845207 0.00401115 0.00225111 0.00379512 0.00143272 0.00251927 
715 0.387724 0.522556 0.0171905 0.0354768 0.00884434 0.000514489 0.000477548 0.0181613 0.00875871 0.000296147 
716 0.194245 0.4513 0.176619 0.0998704 0.0260351 0.0187889 0.0103139 0.00704303 0.00398278 0.0118026 
717 0.600684 0.380153 0.0159735 0.00189908 0.000487599 0.000267961 0.000244928 6.94172e-05 7.20263e-05 0.000148541 
718 0.23382 0.471628 0.194334 0.0431159 0.0204944 0.0131004 0.00400488 0.00273479 0.00154914 0.0152186 
719 0.268519 0.504999 0.106333 0.0194703 0.088278 0.00958576 0.000875635 0.000615958 0.000417197 0.000906284 
720 0.0661932 0.343405 0.164621 0.236384 0.0906039 0.0403724 0.0189862 0.0121755 0.00586987 0.0213891 
721 0.293134 0.640106 0.0547287 0.00636086 0.00214544 0.0014027 0.000660137 0.000464398 0.000314543 0.000683287 
722 0.203131 0.524289 0.217705 0.0281698 0.015623 0.00461271 0.00201215 0.00141552 0.000958751 0.00208271 
723 0.147659 0.474092 0.237477 0.052446 0.0334587 0.0267348 0.00875504 0.00597838 0.00338073 0.0100185 
724 0.0548855 0.36007 0.16443 0.0938957 0.102559 0.0675692 0.0479521 0.0439674 0.0137505 0.0509207 
725 0.14536 0.487149 0.201785 0.0659516 0.0282473 0.0204715 0.0112376 0.00767375 0.00563654 0.0264878 
726 0.27477 0.279987 0.185625 0.240049 0.00179786 0.0118263 0.00532751 0.00028227 0.000105625 0.000229451 
727 0.223633 0.505868 0.206474 0.0440525 0.00755674 0.0049406 0.00232515 0.00163571 0.00110789 0.00240669 
728 0.109756 0.323371 0.34349 0.0719697 0.124282 0.0102119 0.00526516 0.00359539 0.00203317 0.00602511 
729 0.0557398 0.383261 0.173962 0.0830163 0.0993297 0.051761 0.0376363 0.032383 0.015941 0.0669696 
730 0.117062 0.701526 0.124224 0.0252579 0.0106324 0.00770555 0.00422987 0.00288843 0.00163339 0.0048404 
731 0.11265 0.449764 0.171913 0.0991365 0.0465838 0.0305631 0.0257611 0.0285404 0.00758877 0.0275003 
732 0.0960758 0.452489 0.190621 0.0866155 0.0578156 0.043364 0.0237256 0.0152194 0.00733734 0.0267364 
733 0.385589 0.5647 0.0182008 0.0289162 0.00105207 0.000514485 0.000470262 0.000133281 0.000138291 0.000285199 
734 0.252629 0.534645 0.160085 0.0276754 0.00944587 0.00617576 0.00290644 0.00204464 0.00138486 0.00300836 
735 0.101396 0.663936 0.1391 0.0406963 0.0207482 0.0132673 0.00649067 0.00443225 0.0025064 0.00742751 
736 0.189329 0.510889 0.187817 0.0444551 0.0191839 0.0208848 0.0106088 0.00519334 0.0029368 0.00870294 
737 0.156193 0.451276 0.230986 0.0590987 0.0262452 0.0336506 0.0203295 0.00685754 0.00387657 0.0114879 
738 0.0996957 0.630536 0.171093 0.0479092 0.0169185 0.0122463 0.00672247 0.00459055 0.00259592 0.00769278 
739 0.229323 0.405309 0.21334 0.0933524 0.016158 0.00482062 0.0329187 0.0015177 0.00102794 0.00223301 
740 0.198397 0.432391 0.148155 0.140818 0.0323297 0.0137159 0.00768914 0.0148348 0.0030541 0.00861591 
741 0.133937 0.567643 0.172419 0.0549568 0.0236571 0.0171448 0.00941146 0.00642676 0.00363428 0.0107699 
742 0.210453 0.670285 0.0823653 0.0270332 0.00375703 0.00242981 0.00114352 0.000804448 0.000544864 0.00118362 
743 0.211798 0.508415 0.16504 0.0521901 0.0293006 0.0120339 0.00660454 0.00451001 0.00255037 0.00755782 
744 0.164766 0.570075 0.172042 0.046164 0.0134505 0.00959152 0.00668682 0.00889819 0.00230171 0.00602511 
745 0.160472 0.485306 0.189451 0.0823572 0.0304824 0.0187889 0.0103139 0.00704303 0.00398278 0.0118026 
746 0.125659 0.746518 0.0918066 0.0149822 0.00511356 0.00336338 0.00907208 0.00110688 0.0007497 0.00162859 
747 0.16803 0.443887 0.355705 0.0273362 0.00287031 0.000889761 0.000398597 0.000280408 0.000189924 0.000412575 
748 0.139041 0.488764 0.188114 0.0752172 0.0410044 0.0197012 0.0246865 0.00724145 0.00409497 0.0121351 
749 0.256553 0.48593 0.200948 0.0297408 0.0101508 0.00663663 0.00312334 0.00219722 0.00148821 0.00323286 
750 0.174829 0.468869 0.190928 0.0656201 0.0282473 0.0204715 0.0112376 0.0102004 0.0167378 0.0128599 
751 0.157565 0.46196 0.188188 0.0908636 0.0309676 0.0226588 0.0218753 0.00897544 0.00427563 0.0126705 
752 0.231241 0.569453 0.149252 0.0349996 0.00574305 0.00370545 0.00174386 0.00122678 0.000830918 0.00180502 
753 0.113114 0.824471 0.0386082 0.0124164 0.00379289 0.00274867 0.00150885 0.00103034 0.000582651 0.00172664 
754 0.194834 0.368347 0.219552 0.152199 0.0270553 0.0220854 0.0114167 0.00143999 0.00096806 0.00210293 
755 0.16234 0.475959 0.193821 0.0666143 0.0286753 0.0207816 0.0137183 0.0205999 0.00443639 0.0130544 
756 0.193112 0.394252 0.253585 0.0850539 0.0364129 0.0136298 0.00745463 0.00509051 0.00287864 0.00853061 
757 0.113703 0.456304 0.166233 0.0998422 0.0456542 0.0301326 0.0240596 0.0154338 0.00744079 0.0411973 
758 0.630169 0.343099 0.0168732 0.00216836 0.00492157 9.5775e-05 8.75177e-05 2.48042e-05 3.26971e-05 0.0025275 
759 0.245633 0.645298 0.0849284 0.0126919 0.00433187 0.00283219 0.00133289 0.000937669 0.000635096 0.00137963 
760 0.147189 0.489227 0.195817 0.0816486 0.0286803 0.0207816 0.0114078 0.00779002 0.00440519 0.0130544 
761 0.157772 0.389509 0.222512 0.11679 0.0642252 0.0146521 0.00807561 0.014824 0.0029368 0.00870294 
762 0.131277 0.505636 0.186571 0.0861787 0.0262253 0.0314066 0.010185 0.00694785 0.00392896 0.0116431 
763 0.134061 0.570066 0.171427 0.0542787 0.023365 0.0169332 0.00929527 0.00634742 0.00358942 0.0106369 
764 0.155783 0.447028 0.265146 0.0657197 0.030971 0.0174116 0.00559715 0.00380845 0.00215365 0.00638216 
765 0.149453 0.498666 0.196802 0.0676391 0.0291164 0.0211013 0.0115833 0.00790986 0.00447297 0.0132553 
766 0.176369 0.527282 0.149772 0.0575365 0.0387231 0.0145539 0.0116206 0.00745441 0.0035938 0.0130954 
767 0.05917 0.376088 0.184657 0.08811 0.0747349 0.0548995 0.0407176 0.0487762 0.0156593 0.0571878 
768 0.152706 0.757796 0.056821 0.0159601 0.00556646 0.00403408 0.00221446 0.00151218 0.000855126 0.00253409 
769 0.269309 0.434743 0.171652 0.0945466 0.0136387 0.010786 0.00170421 0.00115011 0.000778985 0.0016922 
770 0.246781 0.369122 0.355893 0.0190773 0.00345443 0.00225713 0.00106225 0.000747279 0.000506143 0.0010995 
771 0.149453 0.48349 0.211955 0.0676625 0.0291164 0.0211013 0.0115833 0.00790986 0.00447297 0.0132553 
772 0.149453 0.483282 0.196802 0.0676391 0.0291164 0.021656 0.0264129 0.00791026 0.00447297 0.0132553 
773 0.375236 0.469813 0.146791 0.00572104 0.00163188 0.000650177 7.20851e-05 2.01534e-05 2.09109e-05 4.31248e-05 
774 0.0850011 0.421934 0.199528 0.114694 0.0731637 0.0305737 0.0244033 0.0156543 0.00754698 0.0275003 
775 0.0353784 0.306453 0.174143 0.100769 0.105085 0.0645911 0.0643733 0.0499711 0.0258169 0.0734192 
776 0.34957 0.438125 0.134356 0.0324651 0.00923445 0.0051704 0.0024333 0.00171179 0.0013521 0.0255816 
777 0.164721 0.45114 0.1784 0.0891242 0.0348465 0.0323247 0.0224636 0.0130968 0.00350292 0.0103806 
778 0.095161 0.407306 0.212629 0.0866646 0.0789587 0.0335638 0.0234005 0.0150109 0.0072369 0.0400687 
779 0.180166 0.511874 0.0755018 0.172275 0.0373823 0.0112771 0.00358791 0.00244829 0.00138449 0.00410282 
780 0.210917 0.604563 0.136618 0.0199263 0.00694285 0.0143016 0.00209578 0.00147214 0.000997101 0.00216602 
781 0.149453 0.483282 0.201802 0.0777153 0.0294257 0.0211013 0.0115833 0.00790986 0.00447297 0.0132553 
782 0.0857922 0.475888 0.23181 0.0751734 0.0400179 0.0264125 0.0210893 0.0135284 0.00652208 0.0237657 
783 0.151926 0.529781 0.196012 0.0546201 0.0225306 0.0163284 0.0089633 0.00612073 0.00346122 0.010257 
784 0.0937598 0.436111 0.175644 0.0874936 0.057164 0.0535157 0.0348203 0.0156388 0.0166657 0.0291869 
785 0.165994 0.499152 0.25442 0.0682411 0.00738687 0.0019311 0.000894289 0.00062912 0.000426112 0.000925649 
786 0.139834 0.499485 0.212922 0.0691781 0.0376226 0.0149429 0.00809588 0.0055284 0.00312627 0.00926442 
787 0.0557398 0.354287 0.188443 0.0830026 0.0704024 0.0534874 0.0509938 0.0748067 0.0149644 0.0538726 
788 0.281743 0.479595 0.144589 0.0578512 0.0142905 0.00931485 0.00161272 0.00110687 0.000751615 0.00914524 
789 0.261565 0.473889 0.166138 0.0288787 0.00985656 0.00644427 0.00304548 0.0455854 0.00145881 0.00313916 
790 0.265887 0.491185 0.161714 0.0285769 0.0140332 0.0199848 0.00412729 0.00279425 0.0032435 0.00845396 
791 0.0541697 0.348432 0.192744 0.0811568 0.0823448 0.0502835 0.0803451 0.0438784 0.014291 0.0523551 
792 0.108556 0.528114 0.269737 0.0670588 0.0113591 0.00549689 0.00301167 0.00205656 0.00116297 0.00344637 
793 0.219953 0.726135 0.0402369 0.00601037 0.0018633 0.00121875 0.0033125 0.00040336 0.000273178 0.00059343 
794 0.164725 0.550227 0.17226 0.0547918 0.019312 0.0139958 0.00768283 0.00524634 0.00296676 0.00879175 
795 0.0582734 0.370389 0.181859 0.086775 0.0736025 0.0556713 0.0527531 0.0491483 0.0152064 0.0563213 
796 0.190202 0.562626 0.183512 0.0219288 0.00750035 0.0157021 0.00244609 0.00161774 0.00121675 0.0132481 
797 0.0888071 0.440639 0.176121 0.105802 0.0543522 0.0399348 0.0284561 0.029266 0.00788968 0.0287316 
798 0.0826401 0.453365 0.189266 0.126339 0.0456563 0.0297141 0.0237255 0.0152194 0.00733734 0.0267364 
799 0.1455 0.407771 0.2539 0.104993 0.0404406 0.0141211 0.0108116 0.00693544 0.0033436 0.0121837 
800 0.0388712 0.765818 0.0689813 0.0302982 0.0274319 0.0163469 0.0133025 0.0130446 0.00673936 0.0191657 
801 0.0338176 0.320376 0.168429 0.0963232 0.101077 0.0743369 0.0603546 0.0504278 0.024678 0.0701802 
802 0.323161 0.441088 0.142816 0.0634794 0.00981356 0.00710667 0.00390113 0.00266394 0.00150644 0.0044642 
803 0.191354 0.31825 0.381459 0.0435896 0.0481251 0.00632424 0.00339152 0.00231595 0.00130965 0.00388104 
804 0.138157 0.547907 0.17659 0.0673098 0.0253715 0.0216232 0.00717064 0.00489658 0.00276898 0.00820563 
805 0.0838042 0.475542 0.176891 0.08576 0.0456542 0.0301927 0.0395227 0.0263816 0.00913862 0.0271129 
806 0.173088 0.514226 0.253238 0.0278891 0.0113409 0.00585327 0.0046673 0.00299399 0.00144341 0.00525962 
807 0.238569 0.504435 0.210084 0.0388571 0.00556554 0.000990828 0.000466066 0.000327871 0.000222072 0.00048241 
808 0.136144 0.421975 0.245893 0.107321 0.0445631 0.0159717 0.00875485 0.00597839 0.00338073 0.0100185 
809 0.112633 0.430452 0.171014 0.0902414 0.0739612 0.0310119 0.024757 0.0158811 0.00775603 0.0422919 
810 0.260377 0.493355 0.173689 0.0301914 0.0103046 0.00673719 0.00317066 0.00223052 0.00151621 0.0184279 
811 0.120524 0.409137 0.206022 0.146881 0.0489016 0.0235999 0.0146003 0.0093658 0.00451529 0.0164532 
812 0.12679 0.759438 0.0673131 0.0225782 0.00795197 0.00576297 0.00316352 0.00216026 0.00122161 0.00362013 
813 0.138936 0.49489 0.207902 0.0770573 0.0270572 0.0195941 0.010756 0.00734487 0.00415347 0.0123084 
814 0.285113 0.461014 0.170967 0.0395368 0.0151371 0.00592873 0.00279018 0.00196285 0.00132975 0.0162211 
815 0.144992 0.498706 0.190928 0.0656201 0.0282473 0.0204715 0.0112376 0.00767375 0.00434668 0.0277777 
816 0.175028 0.465636 0.178461 0.0880488 0.0262857 0.0190498 0.0104572 0.00714085 0.00524786 0.0246457 
817 0.231265 0.431076 0.220248 0.0569296 0.0201515 0.0145914 0.00800976 0.00546959 0.00309301 0.00916587 
818 0.100119 0.469882 0.379324 0.0246569 0.00870683 0.00626296 0.00343798 0.00234768 0.00132759 0.00393421 
819 0.14286 0.461961 0.20284 0.0793469 0.0571394 0.0202739 0.0110723 0.0075609 0.00427563 0.0126705 
820 0.355951 0.39855 0.151693 0.0176076 0.0585825 0.00293061 0.00123755 0.0117101 0.00054789 0.00119012 
821 0.0968619 0.425952 0.212789 0.0943609 0.0528747 0.0318741 0.0231867 0.0199502 0.00896091 0.0331894 
822 0.103191 0.423647 0.230794 0.0912235 0.0420967 0.0277846 0.0221848 0.0142312 0.00686091 0.0379872 
823 0.31114 0.608439 0.0606131 0.0082475 0.00281034 0.00196889 0.00382749 0.00164632 0.000412025 0.000895049 
824 0.0968362 0.451603 0.177714 0.0983163 0.0453449 0.0402811 0.0267226 0.0152194 0.00748222 0.0404804 
825 0.197606 0.293173 0.441894 0.0320304 0.0144677 0.0075362 0.00413691 0.00282495 0.00159749 0.00473402 
826 0.135809 0.51374 0.197656 0.0681911 0.023959 0.0173619 0.0095306 0.00650811 0.0036866 0.0235581 
827 0.046328 0.812157 0.0637143 0.0283209 0.0150765 0.00995076 0.00794527 0.00509674 0.00245716 0.00895358 
828 0.323431 0.591163 0.0635354 0.0106388 0.00374027 0.00271065 0.00148798 0.00101609 0.00057459 0.00170275 
829 0.19896 0.483209 0.199973 0.0573949 0.0201337 0.0145914 0.00800976 0.00546959 0.00309301 0.00916587 
830 0.0919514 0.435562 0.434454 0.0167456 0.00708827 0.00513703 0.00281991 0.00192562 0.00108892 0.00322693 
831 0.303508 0.562362 0.120588 0.0130848 0.00023169 7.50709e-05 6.8618e-05 1.94476e-05 2.01786e-05 4.16146e-05 
832 0.0337446 0.595918 0.146473 0.0661384 0.0426323 0.0313023 0.0227799 0.0196002 0.0088037 0.0326071 
833 0.0635433 0.772639 0.0756657 0.028818 0.0157676 0.0154834 0.0109511 0.00561429 0.00248023 0.00903765 
834 0.333664 0.490213 0.137235 0.0338896 0.00268851 0.000919825 0.000432363 0.000304161 0.000206013 0.000447525 
835 0.0782905 0.388965 0.235473 0.144156 0.0557833 0.0281565 0.0224768 0.0144184 0.00695116 0.0253292 
836 0.285479 0.445768 0.233896 0.016081 0.00456445 0.00298426 0.00146121 0.00764043 0.000671424 0.0014537 
837 0.159096 0.438936 0.174141 0.105169 0.0362887 0.0192355 0.045386 0.00716178 0.00368029 0.0109062 
838 0.081246 0.333217 0.361378 0.109977 0.0317075 0.0311027 0.0193872 0.00988321 0.00475935 0.0173425 
839 0.179846 0.52024 0.232089 0.0256429 0.0322454 0.00360311 0.00197099 0.00134592 0.000761107 0.00225547 
840 0.115648 0.573393 0.180004 0.0632937 0.0225306 0.0163284 0.0089633 0.00612073 0.00346122 0.010257 
841 0.0695546 0.871147 0.0293549 0.011964 0.00548474 0.00361387 0.00288553 0.00185101 0.000892379 0.00325172 
842 0.0980589 0.457901 0.175126 0.11181 0.0413309 0.0388788 0.0330779 0.0135284 0.00652208 0.0237657 
843 0.239329 0.493783 0.188429 0.041649 0.00894873 0.0062562 0.015504 0.00193893 0.00131198 0.00285003 
844 0.285207 0.476903 0.146232 0.0415354 0.0354187 0.00678791 0.00246192 0.00173193 0.00117306 0.00254826 
845 0.149453 0.483282 0.196802 0.0676391 0.0291164 0.0211013 0.0130693 0.0217752 0.00450626 0.0132553 
846 0.160435 0.393814 0.331234 0.0587941 0.0185575 0.0134469 0.00738154 0.0050406 0.00285042 0.00844697 
847 0.0752318 0.483118 0.219339 0.0823068 0.037866 0.025374 0.0267226 0.0229724 0.00614543 0.0209241 
848 0.181631 0.47732 0.182762 0.0628078 0.0270367 0.0195941 0.0121243 0.0197589 0.00465683 0.0123084 
849 0.1575 0.169959 0.628736 0.0196399 0.0101763 0.00506124 0.00277829 0.0018972 0.00107285 0.0031793 
850 0.0915396 0.454197 0.181538 0.093676 0.0498684 0.0332784 0.0412976 0.0168617 0.00812751 0.0296157 
851 0.147189 0.475959 0.193821 0.0670122 0.0584239 0.0209381 0.0114078 0.00779002 0.00440519 0.0130544 
852 0.224514 0.498413 0.212487 0.0356949 0.00728486 0.00453729 0.00213534 0.00150218 0.00101778 0.012414 
853 0.126533 0.532104 0.220013 0.08988 0.0150574 0.00593823 0.00325938 0.00222572 0.00125863 0.00372983 
854 0.0915396 0.454197 0.181538 0.093676 0.0498684 0.0329141 0.0262805 0.0168584 0.00874747 0.0443803 
855 0.197523 0.408845 0.245487 0.0592061 0.0306851 0.02387 0.0173975 0.00534718 0.0029368 0.00870294 
856 0.256702 0.644743 0.066128 0.0141518 0.00608543 0.00441025 0.00242095 0.00165319 0.000934864 0.00277039 
857 0.0600586 0.655988 0.133258 0.0548557 0.0292022 0.019274 0.0153895 0.00987206 0.00475935 0.0173425 
858 0.20511 0.230233 0.285656 0.247532 0.00928942 0.00634994 0.00348573 0.00458226 0.00377353 0.003989 
859 0.0985771 0.381758 0.406155 0.0502586 0.0227112 0.0119673 0.00928407 0.00595543 0.00287113 0.0104621 
860 0.181615 0.477056 0.183042 0.0628078 0.0270367 0.0195941 0.010756 0.00734487 0.00428377 0.0264639 
861 0.0915396 0.454197 0.181538 0.093676 0.0498684 0.032914 0.0264762 0.0320474 0.00812752 0.0296157 
862 0.28539 0.387126 0.289567 0.0160604 0.0064069 0.0100027 0.00182495 0.00115011 0.000778985 0.0016922 
863 0.0792916 0.682178 0.164029 0.0418267 0.0108872 0.00788269 0.00432711 0.00295483 0.00167094 0.00495167 
864 0.0582734 0.37039 0.195048 0.10388 0.0736116 0.0540676 0.0393471 0.0338549 0.0152064 0.0563213 
865 0.200421 0.46041 0.230742 0.089078 0.00285556 0.0146014 0.000597307 0.000411212 0.00027852 0.000605033 
866 0.151882 0.477533 0.174996 0.0840935 0.0250274 0.0295758 0.00988679 0.00659155 0.00406417 0.0363502 
867 0.109101 0.443273 0.195217 0.110566 0.0432198 0.0285255 0.0227764 0.0146107 0.00704384 0.0256669 
868 0.134692 0.454408 0.235509 0.0917584 0.0237452 0.0171448 0.00941146 0.00642694 0.0161337 0.0107703 
869 0.137365 0.508588 0.184933 0.0578922 0.0380384 0.0421051 0.00971387 0.00659155 0.00372747 0.011046 
870 0.103177 0.399032 0.180109 0.119362 0.102032 0.0280105 0.0221848 0.0142312 0.00686089 0.0250002 
871 0.0338177 0.322345 0.16646 0.0985213 0.112923 0.0598922 0.0487105 0.0477664 0.0248272 0.0847367 
872 0.168935 0.622799 0.13247 0.0330623 0.0142298 0.0103127 0.00566103 0.00386572 0.00218604 0.00647813 
873 0.180802 0.439449 0.166927 0.0692053 0.0368346 0.0267721 0.0396784 0.0124523 0.00600328 0.0218752 
874 0.165299 0.401599 0.312883 0.0415085 0.0439258 0.0125883 0.0069075 0.00471689 0.00266736 0.00790451 
875 0.371196 0.595997 0.0301385 0.00158807 0.000408222 0.00022434 0.000205056 5.81167e-05 6.03011e-05 0.00012436 
876 0.130159 0.415201 0.241118 0.0539992 0.114088 0.0185534 0.00836575 0.00571268 0.00323048 0.00957324 
877 0.184809 0.613709 0.160739 0.025247 0.00586296 0.00383323 0.001804 0.00126909 0.00085957 0.00186726 
878 0.0915396 0.454197 0.181673 0.108091 0.050704 0.032914 0.0262805 0.0168584 0.00812751 0.0296157 
879 0.219964 0.501091 0.172958 0.0843199 0.00820455 0.00535728 0.00252125 0.00177366 0.00120133 0.00260966 
880 0.0591791 0.391457 0.184663 0.08811 0.0747349 0.0548995 0.0399524 0.0343758 0.0154403 0.0571878 
881 0.0901527 0.477618 0.178788 0.0922567 0.0491128 0.0324154 0.0258823 0.016603 0.00800437 0.029167 
882 0.260492 0.548701 0.128106 0.0280445 0.01154 0.00836334 0.00459096 0.00313501 0.00177282 0.00525361 
883 0.0353784 0.306453 0.174143 0.100769 0.105085 0.0626211 0.0509633 0.0653137 0.0258542 0.0734192 
884 0.114068 0.657477 0.137614 0.0400942 0.0168979 0.0122463 0.00672247 0.00459054 0.00259592 0.00769278 
885 0.515408 0.399068 0.0718129 0.00780627 0.00352385 0.00094916 0.000445242 0.000313221 0.000212149 0.000460855 
886 0.187079 0.493169 0.199751 0.05234 0.0225306 0.0163284 0.0089633 0.00612073 0.00346122 0.010257 
887 0.0978878 0.415977 0.208229 0.0864693 0.0598377 0.0441291 0.0374769 0.0154395 0.00744068 0.0271129 
888 0.155083 0.46349 0.262725 0.0433736 0.0185546 0.0135377 0.0150575 0.00707781 0.00286149 0.0182395 
889 0.12873 0.404984 0.321609 0.081727 0.0212907 0.0150724 0.00827382 0.0056499 0.00319498 0.00946804 
890 0.0886712 0.667265 0.0961438 0.0678448 0.0225635 0.0146535 0.0117002 0.00750547 0.00362544 0.0200274 
891 0.159343 0.46943 0.190928 0.0661906 0.0570216 0.0209773 0.0112376 0.00767375 0.00433944 0.0128596 
892 0.117826 0.56856 0.296765 0.0130536 0.00232102 0.000586622 0.000276073 0.000194214 0.000131544 0.000285755 
893 0.201141 0.370302 0.303298 0.0603967 0.0532222 0.00463198 0.00217983 0.00153348 0.00103865 0.00225627 
894 0.0901437 0.421547 0.164571 0.162289 0.0627185 0.0286336 0.0227764 0.0146107 0.00704384 0.0256669 
895 0.120855 0.585664 0.149357 0.0495047 0.0283168 0.0235601 0.0138881 0.00890893 0.00429503 0.0156506 
896 0.105979 0.420324 0.157681 0.120704 0.0833411 0.0285395 0.0228537 0.0278667 0.00704387 0.0256669 
897 0.149913 0.426714 0.258323 0.09888 0.0220851 0.0159523 0.00875485 0.00597838 0.00338073 0.0100185 
898 0.00567748 0.245018 0.165556 0.141965 0.0972489 0.0408327 0.201159 0.00072067 0.0348661 0.066955 
899 0.160587 0.464121 0.212044 0.0600534 0.0382999 0.0221462 0.0181692 0.00900718 0.00392896 0.0116431 
900 0.239716 0.478365 0.193048 0.0644795 0.0094933 0.00592872 0.00279018 0.00196285 0.00132947 0.00288803 
901 0.243448 0.296839 0.445261 0.00792788 0.00168034 0.00327457 0.00048867 0.000343156 0.000232425 0.0005049 
902 0.157401 0.46396 0.214649 0.0763925 0.0318491 0.0201704 0.0110723 0.0075609 0.00427563 0.0126705 
903 0.238737 0.49125 0.175703 0.0303525 0.0479348 0.00667822 0.00290644 0.00204464 0.00138486 0.00300836 
904 0.0353784 0.306453 0.174143 0.100769 0.105127 0.0779391 0.0509833 0.049971 0.0258169 0.0734192 
905 0.113794 0.384041 0.27164 0.10004 0.0535458 0.0331286 0.0142353 0.00913166 0.0044024 0.0160418 
906 0.226769 0.56052 0.190933 0.0137904 0.00484857 0.00124913 0.000587819 0.000413523 0.000280085 0.000608432 
907 0.229781 0.47396 0.192738 0.0528214 0.0100683 0.0316492 0.0028013 0.00196285 0.00132947 0.00288803 
908 0.05917 0.376088 0.184657 0.08811 0.0766433 0.0683756 0.0399524 0.0343758 0.0154403 0.0571878 
909 0.375191 0.478794 0.118736 0.014347 0.00489283 0.00319895 0.00150549 0.00105909 0.000717339 0.00155829 
910 0.140296 0.691899 0.0931221 0.0392026 0.0119341 0.00851918 0.0046765 0.00319342 0.00180586 0.0053515 
911 0.127859 0.349465 0.180493 0.252055 0.0411427 0.0141685 0.0113128 0.00725695 0.0034986 0.0127485 
912 0.112877 0.237855 0.303306 0.281029 0.048103 0.00612495 0.00333149 0.00227496 0.00128647 0.00381235 
913 0.0574037 0.364861 0.179748 0.114702 0.0725297 0.0532607 0.0387598 0.0333496 0.015508 0.0698775 
914 0.05917 0.376088 0.184657 0.0919145 0.0861664 0.055048 0.0399524 0.0343758 0.0154403 0.0571878 
915 0.0862331 0.442359 0.1733 0.116574 0.0600631 0.0452769 0.024757 0.0158811 0.00765635 0.0278988 
916 0.0582734 0.370389 0.181859 0.0882565 0.0861748 0.0551653 0.0393471 0.0338549 0.0192266 0.0674527 
917 0.16638 0.441149 0.187 0.119565 0.0363249 0.0253879 0.00752918 0.00514141 0.00290743 0.00861591 
918 0.208177 0.775701 0.0122941 0.0034975 0.000124597 6.84156e-05 6.25348e-05 1.77236e-05 1.83897e-05 3.79254e-05 
919 0.184113 0.538313 0.0928197 0.126792 0.0168455 0.0152112 0.00842255 0.00539802 0.00260241 0.00948285 
920 0.0813873 0.373214 0.280689 0.126083 0.0538062 0.0218026 0.0271689 0.0110687 0.00533625 0.0194446 
921 0.243696 0.337705 0.345155 0.0298033 0.020516 0.00846209 0.00456313 0.00311601 0.00176208 0.00522177 
922 0.150999 0.516783 0.178953 0.0798162 0.0211694 0.0256931 0.00827382 0.0056499 0.00319498 0.00946804 
923 0.144463 0.440267 0.27147 0.0736311 0.0233673 0.0169332 0.00929527 0.00634742 0.00358942 0.0106369 
924 0.162881 0.503159 0.195728 0.0600737 0.0244733 0.025541 0.00876674 0.00597838 0.00338073 0.0100185 
925 0.149453 0.483281 0.196802 0.0715385 0.0406016 0.0211014 0.0115833 0.00790986 0.00447296 0.0132552 
926 0.0901527 0.447315 0.179791 0.107831 0.0622462 0.033007 0.0258823 0.016603 0.00800437 0.029167 
927 0.15212 0.490243 0.178155 0.080834 0.0244255 0.0330453 0.0194977 0.00690592 0.00372747 0.011046 
928 0.0845271 0.672586 0.146537 0.0382325 0.0251519 0.0119273 0.00654711 0.00447079 0.0025282 0.0074921 
929 0.0718169 0.559784 0.153689 0.0629439 0.0352503 0.0277102 0.0395377 0.010543 0.00778939 0.030935 
930 0.14286 0.520783 0.18812 0.0646551 0.0278319 0.0201704 0.0110723 0.0075609 0.00427563 0.0126705 
931 0.169775 0.455265 0.185411 0.09186 0.0421524 0.0204727 0.0109118 0.00745132 0.00421366 0.0124868 
932 0.226509 0.514898 0.181596 0.0586344 0.00696106 0.00453729 0.00213534 0.00150218 0.00101745 0.00221022 
933 0.230622 0.715349 0.0414369 0.00662003 0.00225948 0.00147726 0.000695228 0.000489083 0.000331263 0.000719608 
934 0.0901527 0.447315 0.193938 0.107409 0.0491128 0.0324154 0.0258823 0.016603 0.00800437 0.029167 
935 0.19151 0.319656 0.109566 0.334663 0.025053 0.00714515 0.00386111 0.00263662 0.00149099 0.00441842 
936 0.165965 0.46091 0.217748 0.09764 0.0255553 0.00928013 0.0117168 0.00345061 0.00195129 0.00578249 
937 0.304847 0.48997 0.153219 0.0284738 0.00584522 0.00370545 0.0018336 0.00756677 0.00273453 0.00180502 
938 0.0901527 0.462467 0.178788 0.0922567 0.0532433 0.0432727 0.026046 0.016603 0.00800437 0.029167 
939 0.148132 0.584641 0.148796 0.0536877 0.0275777 0.0134469 0.00738154 0.0050406 0.00285042 0.00844697 
940 0.238667 0.372766 0.302983 0.0429888 0.0146294 0.0125729 0.00484534 0.00325406 0.00184014 0.00545311 
941 0.131742 0.464173 0.272747 0.0670888 0.0216542 0.0154111 0.00845974 0.00577687 0.00326677 0.0096808 
942 0.152452 0.470804 0.220423 0.0621866 0.0274274 0.0324436 0.010792 0.00724142 0.00409497 0.0121351 
943 0.0582734 0.370389 0.181859 0.086775 0.0736048 0.0700414 0.053674 0.0338549 0.0152064 0.0563213 
944 0.0748511 0.671108 0.165643 0.0400377 0.0147381 0.0097246 0.0077647 0.0049809 0.00240131 0.00875009 
945 0.0582734 0.400691 0.181861 0.086775 0.0736025 0.0540676 0.0393471 0.0338549 0.0152064 0.0563213 
946 0.138881 0.505775 0.197057 0.0770933 0.0270367 0.0195941 0.010756 0.00734487 0.00415347 0.0123084 
