1 0 100 2 1
1 1 100 2 0.00010503
2 1 100 2 0.999895
1 2 100 2 1
1 3 100 2 1
1 4 100 2 0.00219971
2 4 100 2 0.9978
1 5 100 2 0.0020132
2 5 100 2 0.997987
1 6 100 2 0.972909
2 6 100 2 0.0270906
1 7 100 2 1
1 8 100 2 1
2 9 100 2 1
1 10 100 2 1
1 11 100 2 1
1 12 100 2 1
1 14 100 2 1
1 16 100 2 1
1 17 100 2 1
1 18 100 2 1
1 20 100 2 1
1 21 100 2 1
1 24 100 2 1
1 25 100 2 1
1 27 100 2 1
1 28 100 2 1
1 29 100 2 1
1 30 100 2 1
1 32 100 2 1
1 33 100 2 1
1 35 100 2 1
1 36 100 2 1
2 37 100 2 1
1 38 100 2 0.999974
2 38 100 2 2.62817e-05
1 39 100 2 1
1 0 100 3 0.617288
2 0 100 3 0.38269
3 0 100 3 2.22603e-05
1 1 100 3 0.907613
2 1 100 3 0.0923873
2 2 100 3 1
1 3 100 3 0.125154
2 3 100 3 0.828399
3 3 100 3 0.0464469
2 4 100 3 0.467501
3 4 100 3 0.532499
1 5 100 3 6.04584e-06
2 5 100 3 0.00863651
3 5 100 3 0.991357
1 6 100 3 0.286033
2 6 100 3 0.141837
3 6 100 3 0.57213
2 7 100 3 0.000745633
3 7 100 3 0.999254
2 8 100 3 1.15409e-05
3 8 100 3 0.999988
2 9 100 3 1
1 0 100 4 0.285986
2 0 100 4 0.430834
3 0 100 4 0.195392
4 0 100 4 0.0877881
1 1 100 4 0.832371
2 1 100 4 0.102831
3 1 100 4 0.033486
4 1 100 4 0.0313115
1 2 100 4 0.636505
2 2 100 4 0.0943158
3 2 100 4 0.177233
4 2 100 4 0.0919462
1 3 100 4 0.102159
2 3 100 4 0.687868
3 3 100 4 0.175123
4 3 100 4 0.0348505
1 4 100 4 0.00102312
2 4 100 4 0.361389
3 4 100 4 0.637588
2 5 100 4 0.132675
3 5 100 4 0.591272
4 5 100 4 0.276052
1 6 100 4 0.000163082
2 6 100 4 0.119145
3 6 100 4 0.00467575
4 6 100 4 0.876016
1 7 100 4 0.00642031
2 7 100 4 0.00523152
3 7 100 4 0.213444
4 7 100 4 0.774905
1 8 100 4 0.000202186
2 8 100 4 0.167019
3 8 100 4 0.0031542
4 8 100 4 0.829624
1 9 100 4 0.00236936
2 9 100 4 0.00477275
3 9 100 4 0.0184851
4 9 100 4 0.974373
1 10 100 4 0.000112207
3 10 100 4 0.0346318
4 10 100 4 0.965256
1 11 100 4 0.302468
3 11 100 4 0.697532
1 12 100 4 8.24456e-05
3 12 100 4 0.999918
1 13 100 4 0.00408562
3 13 100 4 0.995914
1 14 100 4 0.162041
2 14 100 4 0.156059
3 14 100 4 0.14286
4 14 100 4 0.53904
1 15 100 4 0.0113778
3 15 100 4 0.988622
3 16 100 4 1
1 17 100 4 0.00223917
3 17 100 4 0.997761
2 18 100 4 3.9199e-06
3 18 100 4 1.35873e-05
4 18 100 4 0.999982
1 19 100 4 0.00527746
3 19 100 4 0.994722
1 0 100 5 0.117159
2 0 100 5 0.21455
3 0 100 5 0.159529
4 0 100 5 0.449439
5 0 100 5 0.0593231
1 1 100 5 0.845326
2 1 100 5 0.0858409
3 1 100 5 0.0500516
4 1 100 5 0.00886499
5 1 100 5 0.0099166
1 2 100 5 0.424226
2 2 100 5 0.419464
3 2 100 5 0.131376
4 2 100 5 0.0247314
5 2 100 5 0.000202017
1 3 100 5 0.146775
2 3 100 5 0.605248
3 3 100 5 0.195713
4 3 100 5 0.0520245
5 3 100 5 0.000239659
1 4 100 5 0.0618758
2 4 100 5 0.349817
3 4 100 5 0.439667
4 4 100 5 0.121055
5 4 100 5 0.0275855
1 5 100 5 0.0233919
2 5 100 5 0.108107
3 5 100 5 0.44329
4 5 100 5 0.214974
5 5 100 5 0.210238
1 6 100 5 0.0180623
2 6 100 5 0.0793868
3 6 100 5 0.345664
4 6 100 5 0.301542
5 6 100 5 0.255345
1 7 100 5 0.0203208
2 7 100 5 0.036595
3 7 100 5 0.196144
4 7 100 5 0.359345
5 7 100 5 0.387595
1 8 100 5 0.000263617
2 8 100 5 0.0172368
3 8 100 5 0.0179329
4 8 100 5 0.249824
5 8 100 5 0.714743
1 9 100 5 0.0273342
2 9 100 5 0.0298897
3 9 100 5 0.0823006
4 9 100 5 0.345406
5 9 100 5 0.51507
1 10 100 5 0.086725
2 10 100 5 0.000466998
3 10 100 5 0.110734
4 10 100 5 0.131471
5 10 100 5 0.670603
1 11 100 5 0.000271151
2 11 100 5 0.0635334
3 11 100 5 0.108364
4 11 100 5 0.34427
5 11 100 5 0.483562
1 12 100 5 0.140733
2 12 100 5 0.0695037
3 12 100 5 0.00132908
4 12 100 5 0.00216216
5 12 100 5 0.786272
1 13 100 5 0.000136183
2 13 100 5 0.0303335
3 13 100 5 0.000551798
4 13 100 5 0.319154
5 13 100 5 0.649825
1 14 100 5 0.090135
2 14 100 5 0.150702
3 14 100 5 0.303621
4 14 100 5 0.149315
5 14 100 5 0.306227
1 15 100 5 0.000500705
2 15 100 5 0.0146167
3 15 100 5 0.237101
4 15 100 5 0.00831747
5 15 100 5 0.739464
1 16 100 5 0.154521
2 16 100 5 0.304318
3 16 100 5 0.250005
4 16 100 5 0.136605
5 16 100 5 0.154552
1 17 100 5 6.54302e-05
3 17 100 5 0.000701934
4 17 100 5 0.999233
1 18 100 5 0.00126625
2 18 100 5 1.77481e-06
3 18 100 5 0.00261564
4 18 100 5 0.55271
5 18 100 5 0.443406
1 19 100 5 1.87516e-05
2 19 100 5 2.90123e-06
3 19 100 5 0.0108351
4 19 100 5 0.500092
5 19 100 5 0.489051
1 20 100 5 9.17457e-06
2 20 100 5 0.250182
3 20 100 5 0.000292757
4 20 100 5 0.249137
5 20 100 5 0.500378
1 21 100 5 0.0333536
2 21 100 5 0.00321925
3 21 100 5 0.918667
4 21 100 5 0.0447604
1 22 100 5 0.0086953
3 22 100 5 0.982387
4 22 100 5 0.00891196
5 22 100 5 5.94564e-06
1 23 100 5 0.0338328
3 23 100 5 0.195772
4 23 100 5 0.770395
1 24 100 5 0.190339
2 24 100 5 0.0135095
3 24 100 5 0.689549
4 24 100 5 0.0116189
5 24 100 5 0.0949829
1 25 100 5 0.00139307
3 25 100 5 0.000130031
4 25 100 5 0.998221
5 25 100 5 0.000255906
1 26 100 5 0.0124303
3 26 100 5 0.974045
4 26 100 5 0.0135248
2 27 100 5 3.05782e-06
4 27 100 5 1.40011e-05
5 27 100 5 0.999983
1 28 100 5 0.0446284
4 28 100 5 0.955372
4 29 100 5 1
1 30 100 5 0.427788
4 30 100 5 0.572212
1 31 100 5 0.983292
2 31 100 5 0.0167084
1 32 100 5 0.0362884
2 32 100 5 0.161669
4 32 100 5 0.802042
1 33 100 5 0.00014075
2 33 100 5 0.999734
3 33 100 5 8.18794e-05
4 33 100 5 4.05465e-05
5 33 100 5 3.01994e-06
3 34 100 5 5.50856e-05
4 34 100 5 0.999945
1 35 100 5 0.000531119
2 35 100 5 0.121399
3 35 100 5 0.439413
4 35 100 5 1.86433e-05
5 35 100 5 0.438638
1 36 100 5 0.0288964
2 36 100 5 0.00204545
4 36 100 5 0.969058
1 38 100 5 0.846694
4 38 100 5 0.153305
1 39 100 5 0.621612
2 39 100 5 0.0449339
5 39 100 5 0.333454
1 40 100 5 0.00123033
4 40 100 5 0.99877
1 42 100 5 0.0262518
4 42 100 5 0.973748
1 43 100 5 1
1 44 100 5 0.641428
4 44 100 5 0.358572
2 45 100 5 0.499918
3 45 100 5 0.500082
1 46 100 5 0.0185057
4 46 100 5 0.981494
4 47 100 5 1
1 48 100 5 0.00172771
4 48 100 5 0.998272
1 49 100 5 0.366567
2 49 100 5 1.25843e-05
5 49 100 5 0.63342
1 51 100 5 0.452611
4 51 100 5 0.547389
1 52 100 5 0.00150915
5 52 100 5 0.998491
4 53 100 5 1
4 55 100 5 1
1 58 100 5 1
1 60 100 5 0.482136
4 60 100 5 0.517864
1 0 100 6 0.11992
2 0 100 6 0.104042
3 0 100 6 0.124322
4 0 100 6 0.318392
5 0 100 6 0.26216
6 0 100 6 0.0711638
1 1 100 6 0.885099
2 1 100 6 0.0490193
3 1 100 6 0.0241615
4 1 100 6 0.0194925
5 1 100 6 0.00299631
6 1 100 6 0.0192317
1 2 100 6 0.39482
2 2 100 6 0.385355
3 2 100 6 0.144037
4 2 100 6 0.0423944
5 2 100 6 0.0333821
6 2 100 6 1.23213e-05
1 3 100 6 0.136354
2 3 100 6 0.420359
3 3 100 6 0.361636
4 3 100 6 0.0435719
5 3 100 6 0.0192659
6 3 100 6 0.0188132
1 4 100 6 0.0606388
2 4 100 6 0.626986
3 4 100 6 0.189118
4 4 100 6 0.0636953
5 4 100 6 0.0170856
6 4 100 6 0.0424765
1 5 100 6 0.0470846
2 5 100 6 0.178975
3 5 100 6 0.299657
4 5 100 6 0.431463
5 5 100 6 0.0333542
6 5 100 6 0.00946733
1 6 100 6 0.0289089
2 6 100 6 0.0751127
3 6 100 6 0.360747
4 6 100 6 0.135418
5 6 100 6 0.35136
6 6 100 6 0.0484525
1 7 100 6 0.0274727
2 7 100 6 0.0845234
3 7 100 6 0.29836
4 7 100 6 0.309615
5 7 100 6 0.179731
6 7 100 6 0.100299
1 8 100 6 0.00586929
2 8 100 6 0.0199388
3 8 100 6 0.0744712
4 8 100 6 0.248836
5 8 100 6 0.190823
6 8 100 6 0.460062
1 9 100 6 0.000515764
2 9 100 6 0.0201394
3 9 100 6 0.0347269
4 9 100 6 0.198613
5 9 100 6 0.529377
6 9 100 6 0.216628
1 10 100 6 0.02594
2 10 100 6 0.0492955
3 10 100 6 0.0643316
4 10 100 6 0.235912
5 10 100 6 0.267875
6 10 100 6 0.356645
1 11 100 6 0.00373364
2 11 100 6 0.0088041
3 11 100 6 0.0303425
4 11 100 6 0.112397
5 11 100 6 0.189863
6 11 100 6 0.654861
1 12 100 6 0.00146779
2 12 100 6 0.0306881
3 12 100 6 0.033286
4 12 100 6 0.137294
5 12 100 6 0.413863
6 12 100 6 0.383401
1 13 100 6 0.00840485
2 13 100 6 0.0150334
3 13 100 6 0.0684675
4 13 100 6 0.0755127
5 13 100 6 0.28131
6 13 100 6 0.551272
1 14 100 6 0.0428172
2 14 100 6 0.0230054
3 14 100 6 0.0968937
4 14 100 6 0.0678578
5 14 100 6 0.267194
6 14 100 6 0.502232
1 15 100 6 0.0626305
2 15 100 6 0.044373
3 15 100 6 0.0966335
4 15 100 6 0.161967
5 15 100 6 0.181567
6 15 100 6 0.452829
1 16 100 6 7.81102e-06
2 16 100 6 0.0936469
3 16 100 6 0.00864897
4 16 100 6 0.162985
5 16 100 6 0.19471
6 16 100 6 0.540001
1 17 100 6 0.000883965
2 17 100 6 0.00185955
3 17 100 6 0.000758354
4 17 100 6 0.12299
5 17 100 6 0.48094
6 17 100 6 0.392568
1 18 100 6 0.000474863
2 18 100 6 0.0845622
3 18 100 6 0.118123
4 18 100 6 0.243352
5 18 100 6 0.330602
6 18 100 6 0.222886
1 19 100 6 0.173015
2 19 100 6 0.173181
3 19 100 6 0.178123
4 19 100 6 0.215866
5 19 100 6 0.0847687
6 19 100 6 0.175047
1 20 100 6 0.174332
2 20 100 6 0.000658534
3 20 100 6 0.000175922
4 20 100 6 0.000177287
5 20 100 6 0.00201865
6 20 100 6 0.822638
1 21 100 6 0.144435
2 21 100 6 0.186092
3 21 100 6 0.196356
4 21 100 6 0.161427
5 21 100 6 0.148063
6 21 100 6 0.163627
1 22 100 6 0.113596
2 22 100 6 0.407342
3 22 100 6 0.0373303
4 22 100 6 0.294968
5 22 100 6 0.144955
6 22 100 6 0.00180897
1 23 100 6 0.779302
2 23 100 6 0.0204136
3 23 100 6 0.041943
4 23 100 6 0.0305182
5 23 100 6 0.11871
6 23 100 6 0.00911341
1 24 100 6 0.00184951
2 24 100 6 0.202123
3 24 100 6 0.203692
4 24 100 6 0.202125
5 24 100 6 3.52963e-05
6 24 100 6 0.390176
1 25 100 6 0.0017691
2 25 100 6 0.292021
3 25 100 6 0.164901
4 25 100 6 0.168549
5 25 100 6 0.365464
6 25 100 6 0.00729582
1 26 100 6 0.000982537
3 26 100 6 0.346622
4 26 100 6 0.283427
5 26 100 6 0.343499
6 26 100 6 0.0254702
1 27 100 6 0.00586008
2 27 100 6 0.0208875
3 27 100 6 0.00351961
4 27 100 6 0.00722678
5 27 100 6 0.00268584
6 27 100 6 0.95982
1 28 100 6 0.00156011
2 28 100 6 0.0373981
3 28 100 6 0.195733
4 28 100 6 0.00521491
5 28 100 6 0.000127019
6 28 100 6 0.759967
1 29 100 6 0.247448
2 29 100 6 0.0046112
3 29 100 6 0.000787339
4 29 100 6 0.000189466
5 29 100 6 0.000507353
6 29 100 6 0.746457
1 30 100 6 0.904468
2 30 100 6 0.00436556
3 30 100 6 0.0412221
4 30 100 6 0.0186708
5 30 100 6 0.028838
6 30 100 6 0.00243567
1 31 100 6 0.824747
2 31 100 6 3.16821e-05
3 31 100 6 0.00614578
4 31 100 6 0.00131119
5 31 100 6 0.00300111
6 31 100 6 0.164763
1 32 100 6 0.977512
2 32 100 6 7.21248e-05
3 32 100 6 0.00026267
4 32 100 6 0.0191265
5 32 100 6 0.00256451
6 32 100 6 0.000461883
2 33 100 6 0.103754
3 33 100 6 0.00070696
4 33 100 6 0.795061
5 33 100 6 0.0908935
6 33 100 6 0.00958453
1 34 100 6 0.000415484
2 34 100 6 5.02629e-06
4 34 100 6 0.992116
5 34 100 6 8.91684e-06
6 34 100 6 0.00745466
1 35 100 6 0.000218798
3 35 100 6 0.000119754
4 35 100 6 0.00115225
5 35 100 6 0.000370928
6 35 100 6 0.998138
1 36 100 6 0.162893
2 36 100 6 0.180273
3 36 100 6 0.26657
4 36 100 6 7.46957e-06
5 36 100 6 0.389277
6 36 100 6 0.000978803
1 37 100 6 0.00112746
2 37 100 6 0.000625955
3 37 100 6 0.00125057
4 37 100 6 0.0165662
5 37 100 6 0.96862
6 37 100 6 0.0118102
1 38 100 6 1.37606e-05
2 38 100 6 0.249849
3 38 100 6 0.249931
4 38 100 6 0.250079
5 38 100 6 6.52701e-06
6 38 100 6 0.250121
2 39 100 6 2.71108e-06
3 39 100 6 0.000147034
5 39 100 6 0.00872879
6 39 100 6 0.991121
1 40 100 6 0.805413
2 40 100 6 4.20053e-05
4 40 100 6 0.057101
5 40 100 6 0.137359
6 40 100 6 8.47915e-05
3 41 100 6 5.57688e-06
4 41 100 6 0.000247338
6 41 100 6 0.999747
1 42 100 6 0.0357943
2 42 100 6 0.00484317
3 42 100 6 0.00822588
4 42 100 6 0.113962
5 42 100 6 0.834876
6 42 100 6 0.00229866
1 43 100 6 0.0101621
2 43 100 6 0.268971
3 43 100 6 0.316944
4 43 100 6 0.00273349
5 43 100 6 0.108278
6 43 100 6 0.292912
1 44 100 6 0.000799254
2 44 100 6 0.014913
3 44 100 6 0.0819481
4 44 100 6 0.567263
5 44 100 6 0.335076
3 45 100 6 1
1 46 100 6 0.0020721
3 46 100 6 0.868437
5 46 100 6 0.129491
3 47 100 6 1
3 48 100 6 0.834104
5 48 100 6 0.0582707
6 48 100 6 0.107625
3 49 100 6 1
3 50 100 6 1
3 51 100 6 0.999995
4 51 100 6 5.41386e-06
3 52 100 6 0.00939577
4 52 100 6 0.990604
3 53 100 6 0.0167968
5 53 100 6 0.762073
6 53 100 6 0.22113
4 54 100 6 0.318819
5 54 100 6 0.681181
5 55 100 6 0.000245814
6 55 100 6 0.999754
3 56 100 6 0.0869322
5 56 100 6 0.900713
6 56 100 6 0.0123551
1 0 100 7 0.0780688
2 0 100 7 0.134925
3 0 100 7 0.140821
4 0 100 7 0.195357
5 0 100 7 0.178699
6 0 100 7 0.207749
7 0 100 7 0.0643819
1 1 100 7 0.790606
2 1 100 7 0.0499133
3 1 100 7 0.0487275
4 1 100 7 0.0276209
5 1 100 7 0.0338735
6 1 100 7 0.0271809
7 1 100 7 0.0220777
1 2 100 7 0.417452
2 2 100 7 0.376217
3 2 100 7 0.146873
4 2 100 7 0.0374514
5 2 100 7 0.00999414
6 2 100 7 0.00386828
7 2 100 7 0.00814433
1 3 100 7 0.214269
2 3 100 7 0.410701
3 3 100 7 0.24656
4 3 100 7 0.0640903
5 3 100 7 0.0311101
6 3 100 7 0.018817
7 3 100 7 0.0144527
1 4 100 7 0.0696942
2 4 100 7 0.407595
3 4 100 7 0.250438
4 4 100 7 0.126349
5 4 100 7 0.0652421
6 4 100 7 0.0361388
7 4 100 7 0.0445433
1 5 100 7 0.0428729
2 5 100 7 0.212509
3 5 100 7 0.320959
4 5 100 7 0.218389
5 5 100 7 0.124849
6 5 100 7 0.0398819
7 5 100 7 0.0405392
1 6 100 7 0.0387445
2 6 100 7 0.0928842
3 6 100 7 0.343102
4 6 100 7 0.267349
5 6 100 7 0.156873
6 6 100 7 0.065821
7 6 100 7 0.0352259
1 7 100 7 0.0165518
2 7 100 7 0.0967032
3 7 100 7 0.193712
4 7 100 7 0.330297
5 7 100 7 0.157287
6 7 100 7 0.115412
7 7 100 7 0.0900374
1 8 100 7 0.0231516
2 8 100 7 0.06969
3 8 100 7 0.127807
4 8 100 7 0.227458
5 8 100 7 0.261599
6 8 100 7 0.158007
7 8 100 7 0.132286
1 9 100 7 0.0160693
2 9 100 7 0.03326
3 9 100 7 0.066341
4 9 100 7 0.18789
5 9 100 7 0.255013
6 9 100 7 0.2173
7 9 100 7 0.224126
1 10 100 7 0.00825602
2 10 100 7 0.0339062
3 10 100 7 0.0565933
4 10 100 7 0.124142
5 10 100 7 0.215593
6 10 100 7 0.285676
7 10 100 7 0.275835
1 11 100 7 0.0184984
2 11 100 7 0.0447883
3 11 100 7 0.0433669
4 11 100 7 0.113043
5 11 100 7 0.20872
6 11 100 7 0.242568
7 11 100 7 0.329015
1 12 100 7 0.000754815
2 12 100 7 0.0163243
3 12 100 7 0.0462008
4 12 100 7 0.082783
5 12 100 7 0.269826
6 12 100 7 0.286214
7 12 100 7 0.297897
1 13 100 7 0.0162314
2 13 100 7 0.0348424
3 13 100 7 0.0356503
4 13 100 7 0.0915495
5 13 100 7 0.182955
6 13 100 7 0.216016
7 13 100 7 0.422755
1 14 100 7 0.0195643
2 14 100 7 0.0418812
3 14 100 7 0.0266622
4 14 100 7 0.0677236
5 14 100 7 0.147194
6 14 100 7 0.267782
7 14 100 7 0.429194
1 15 100 7 0.00207837
2 15 100 7 0.0399177
3 15 100 7 0.0293663
4 15 100 7 0.0677412
5 15 100 7 0.0924304
6 15 100 7 0.436875
7 15 100 7 0.331591
1 16 100 7 0.0167597
2 16 100 7 0.0326865
3 16 100 7 0.0192684
4 16 100 7 0.0192468
5 16 100 7 0.165136
6 16 100 7 0.373735
7 16 100 7 0.373168
1 17 100 7 0.000270018
2 17 100 7 0.0460879
3 17 100 7 0.0995018
4 17 100 7 0.0432076
5 17 100 7 0.129015
6 17 100 7 0.147658
7 17 100 7 0.53426
1 18 100 7 0.0265054
2 18 100 7 0.0352208
3 18 100 7 0.137985
4 18 100 7 0.109369
5 18 100 7 0.0787643
6 18 100 7 0.157518
7 18 100 7 0.454638
1 19 100 7 2.54019e-05
2 19 100 7 0.107075
3 19 100 7 0.0717993
4 19 100 7 0.00901483
5 19 100 7 0.125461
6 19 100 7 0.11068
7 19 100 7 0.575945
1 20 100 7 0.00226831
2 20 100 7 0.0366207
3 20 100 7 0.000551148
4 20 100 7 0.0615753
5 20 100 7 0.125513
6 20 100 7 0.271874
7 20 100 7 0.501598
1 21 100 7 0.167933
2 21 100 7 0.0640794
3 21 100 7 0.111812
4 21 100 7 0.103218
5 21 100 7 0.214946
6 21 100 7 0.102526
7 21 100 7 0.235486
1 22 100 7 0.00360575
2 22 100 7 0.00133773
3 22 100 7 0.0437759
4 22 100 7 0.00101911
5 22 100 7 0.219234
6 22 100 7 0.00394362
7 22 100 7 0.727084
1 23 100 7 0.0931994
2 23 100 7 0.0897141
3 23 100 7 0.088633
4 23 100 7 0.21175
5 23 100 7 0.0909652
6 23 100 7 0.235091
7 23 100 7 0.190647
1 24 100 7 0.16226
2 24 100 7 0.137218
3 24 100 7 0.136553
4 24 100 7 0.0458865
5 24 100 7 0.200232
6 24 100 7 0.18305
7 24 100 7 0.134801
1 25 100 7 0.0295528
2 25 100 7 0.0378048
3 25 100 7 0.016717
4 25 100 7 0.523536
5 25 100 7 0.00322431
6 25 100 7 0.237496
7 25 100 7 0.151669
1 26 100 7 0.000130477
2 26 100 7 0.00760029
3 26 100 7 0.00196117
4 26 100 7 0.000212501
5 26 100 7 0.00966129
6 26 100 7 0.111465
7 26 100 7 0.868969
1 27 100 7 0.000623638
2 27 100 7 0.000998428
3 27 100 7 0.00103873
4 27 100 7 0.0012386
5 27 100 7 0.0460609
6 27 100 7 0.94954
7 27 100 7 0.000499943
2 28 100 7 0.00131141
3 28 100 7 2.38403e-05
4 28 100 7 0.000243763
5 28 100 7 0.46248
6 28 100 7 0.00102243
7 28 100 7 0.534918
1 29 100 7 0.238074
2 29 100 7 0.000340487
3 29 100 7 0.320942
4 29 100 7 0.320026
5 29 100 7 0.0574057
6 29 100 7 1.79909e-05
7 29 100 7 0.0631933
1 30 100 7 0.00747414
2 30 100 7 0.00042964
3 30 100 7 0.0035521
4 30 100 7 1.84548e-05
5 30 100 7 0.00800487
6 30 100 7 0.216098
7 30 100 7 0.764423
1 31 100 7 0.0166062
2 31 100 7 0.00791914
3 31 100 7 3.16843e-05
4 31 100 7 0.00601777
5 31 100 7 1.46953e-05
6 31 100 7 0.414528
7 31 100 7 0.554882
1 32 100 7 0.00171402
2 32 100 7 0.0426227
3 32 100 7 0.841478
4 32 100 7 0.00141261
5 32 100 7 0.0041791
6 32 100 7 0.0937923
7 32 100 7 0.0148012
1 33 100 7 2.9438e-07
2 33 100 7 0.249979
3 33 100 7 0.250003
4 33 100 7 0.249985
5 33 100 7 1.77284e-05
6 33 100 7 0.249972
7 33 100 7 4.17535e-05
1 34 100 7 0.0023115
2 34 100 7 0.000632845
4 34 100 7 0.00231169
5 34 100 7 0.622737
7 34 100 7 0.372007
2 35 100 7 0.395599
3 35 100 7 0.0106197
4 35 100 7 0.0128254
5 35 100 7 0.546224
6 35 100 7 0.034732
1 36 100 7 0.0545124
2 36 100 7 0.00173224
4 36 100 7 0.00611564
5 36 100 7 0.212503
7 36 100 7 0.725137
1 37 100 7 0.00314955
2 37 100 7 0.0128558
3 37 100 7 0.288246
4 37 100 7 0.00169437
5 37 100 7 0.00187833
6 37 100 7 0.692176
1 38 100 7 0.000344765
2 38 100 7 0.000248092
6 38 100 7 0.999407
1 39 100 7 0.0168075
2 39 100 7 0.000476291
4 39 100 7 0.0301804
5 39 100 7 0.662875
7 39 100 7 0.289661
1 40 100 7 0.165404
2 40 100 7 0.165436
3 40 100 7 0.173203
4 40 100 7 0.164986
5 40 100 7 0.165365
6 40 100 7 0.165592
7 40 100 7 1.30204e-05
1 41 100 7 0.00427129
3 41 100 7 5.16648e-05
4 41 100 7 0.00674131
5 41 100 7 0.00268011
6 41 100 7 0.828704
7 41 100 7 0.157552
1 42 100 7 0.0140174
2 42 100 7 0.00276395
3 42 100 7 0.00010264
4 42 100 7 7.20004e-05
7 42 100 7 0.983044
1 43 100 7 0.128061
2 43 100 7 0.119429
3 43 100 7 0.12559
4 43 100 7 0.128034
5 43 100 7 0.128139
6 43 100 7 0.128114
7 43 100 7 0.242633
1 44 100 7 0.00100928
2 44 100 7 0.0222637
3 44 100 7 0.000155177
6 44 100 7 0.976572
2 45 100 7 0.142004
4 45 100 7 0.498563
5 45 100 7 0.285556
6 45 100 7 0.0738765
2 46 100 7 0.930991
3 46 100 7 0.0690093
2 47 100 7 0.525486
4 47 100 7 0.00884868
6 47 100 7 0.033889
7 47 100 7 0.431777
2 48 100 7 0.00178923
3 48 100 7 0.89689
4 48 100 7 0.00203195
5 48 100 7 0.0084583
6 48 100 7 0.000904391
7 48 100 7 0.0899266
3 49 100 7 0.986933
7 49 100 7 0.0130669
2 50 100 7 0.997351
5 50 100 7 0.000159558
6 50 100 7 8.55877e-06
7 50 100 7 0.00248097
1 51 100 7 0.000297273
5 51 100 7 0.00318881
7 51 100 7 0.996514
2 52 100 7 6.09092e-06
4 52 100 7 0.999994
1 53 100 7 0.753471
5 53 100 7 0.0639958
7 53 100 7 0.182533
2 55 100 7 0.886738
4 55 100 7 0.00649611
6 55 100 7 0.106765
1 0 100 8 0.0584214
2 0 100 8 0.101065
3 0 100 8 0.1324
4 0 100 8 0.154581
5 0 100 8 0.210803
6 0 100 8 0.139874
7 0 100 8 0.142232
8 0 100 8 0.060623
1 1 100 8 0.796657
2 1 100 8 0.0753443
3 1 100 8 0.0336962
4 1 100 8 0.0289129
5 1 100 8 0.0220693
6 1 100 8 0.0129776
7 1 100 8 0.0206764
8 1 100 8 0.00966631
1 2 100 8 0.412868
2 2 100 8 0.356526
3 2 100 8 0.116039
4 2 100 8 0.0687428
5 2 100 8 0.0252948
6 2 100 8 0.00684324
7 2 100 8 0.0111151
8 2 100 8 0.00257007
1 3 100 8 0.248596
2 3 100 8 0.436592
3 3 100 8 0.197601
4 3 100 8 0.0412718
5 3 100 8 0.0308229
6 3 100 8 0.01263
7 3 100 8 0.00869736
8 3 100 8 0.0237893
1 4 100 8 0.117894
2 4 100 8 0.367973
3 4 100 8 0.281265
4 4 100 8 0.120589
5 4 100 8 0.0594716
6 4 100 8 0.0252982
7 4 100 8 0.0123077
8 4 100 8 0.0152014
1 5 100 8 0.0452134
2 5 100 8 0.26179
3 5 100 8 0.305463
4 5 100 8 0.239295
5 5 100 8 0.0672669
6 5 100 8 0.0479554
7 5 100 8 0.0189486
8 5 100 8 0.0140679
1 6 100 8 0.0453076
2 6 100 8 0.127098
3 6 100 8 0.257597
4 6 100 8 0.293705
5 6 100 8 0.145802
6 6 100 8 0.0589561
7 6 100 8 0.0499373
8 6 100 8 0.0215967
1 7 100 8 0.0273759
2 7 100 8 0.0722192
3 7 100 8 0.241854
4 7 100 8 0.262356
5 7 100 8 0.204004
6 7 100 8 0.0954572
7 7 100 8 0.0519071
8 7 100 8 0.044826
1 8 100 8 0.0230516
2 8 100 8 0.0414313
3 8 100 8 0.158904
4 8 100 8 0.260261
5 8 100 8 0.20112
6 8 100 8 0.185387
7 8 100 8 0.0606498
8 8 100 8 0.0691943
1 9 100 8 0.010942
2 9 100 8 0.0367292
3 9 100 8 0.0985136
4 9 100 8 0.143169
5 9 100 8 0.229063
6 9 100 8 0.211709
7 9 100 8 0.172368
8 9 100 8 0.0975054
1 10 100 8 0.00173594
2 10 100 8 0.0130236
3 10 100 8 0.0343114
4 10 100 8 0.118481
5 10 100 8 0.239744
6 10 100 8 0.245179
7 10 100 8 0.179237
8 10 100 8 0.168288
1 11 100 8 0.00883943
2 11 100 8 0.0285309
3 11 100 8 0.0408384
4 11 100 8 0.070624
5 11 100 8 0.142214
6 11 100 8 0.264183
7 11 100 8 0.196264
8 11 100 8 0.248506
1 12 100 8 0.0105537
2 12 100 8 0.0261686
3 12 100 8 0.0293782
4 12 100 8 0.0651744
5 12 100 8 0.138582
6 12 100 8 0.228051
7 12 100 8 0.247608
8 12 100 8 0.254485
1 13 100 8 0.00441195
2 13 100 8 0.0256187
3 13 100 8 0.0159158
4 13 100 8 0.0318966
5 13 100 8 0.122048
6 13 100 8 0.238952
7 13 100 8 0.297451
8 13 100 8 0.263706
1 14 100 8 0.00751385
2 14 100 8 0.00673813
3 14 100 8 0.0104353
4 14 100 8 0.0448613
5 14 100 8 0.0884287
6 14 100 8 0.241397
7 14 100 8 0.279268
8 14 100 8 0.321358
1 15 100 8 0.00879728
2 15 100 8 0.0139561
3 15 100 8 0.0261693
4 15 100 8 0.04498
5 15 100 8 0.073315
6 15 100 8 0.162922
7 15 100 8 0.248864
8 15 100 8 0.420997
1 16 100 8 0.0209367
2 16 100 8 0.0237
3 16 100 8 0.0375204
4 16 100 8 0.0586433
5 16 100 8 0.0643132
6 16 100 8 0.121429
7 16 100 8 0.312705
8 16 100 8 0.360752
1 17 100 8 0.00908506
2 17 100 8 0.0261149
3 17 100 8 0.0303881
4 17 100 8 0.0749117
5 17 100 8 0.0838669
6 17 100 8 0.139601
7 17 100 8 0.225645
8 17 100 8 0.410387
1 18 100 8 0.02924
2 18 100 8 0.0373362
3 18 100 8 0.0483387
4 18 100 8 0.0306412
5 18 100 8 0.0770225
6 18 100 8 0.0844841
7 18 100 8 0.259625
8 18 100 8 0.433312
1 19 100 8 0.00110347
2 19 100 8 0.0635356
3 19 100 8 0.0775242
4 19 100 8 0.0699865
5 19 100 8 0.0764717
6 19 100 8 0.109295
7 19 100 8 0.212359
8 19 100 8 0.389724
1 20 100 8 0.0280482
2 20 100 8 0.0644226
3 20 100 8 0.00291144
4 20 100 8 0.0313074
5 20 100 8 0.00555377
6 20 100 8 0.260481
7 20 100 8 0.307817
8 20 100 8 0.299458
1 21 100 8 0.0141704
2 21 100 8 0.0344367
3 21 100 8 0.0253437
4 21 100 8 0.0455731
5 21 100 8 0.130627
6 21 100 8 0.174781
7 21 100 8 0.190106
8 21 100 8 0.384962
1 22 100 8 0.033636
2 22 100 8 0.0350357
3 22 100 8 0.0338936
4 22 100 8 0.0477534
5 22 100 8 0.00890355
6 22 100 8 0.0757427
7 22 100 8 0.355444
8 22 100 8 0.409592
1 23 100 8 0.00560984
2 23 100 8 8.01177e-05
3 23 100 8 0.000808836
4 23 100 8 0.0320221
5 23 100 8 0.248682
6 23 100 8 0.0094202
7 23 100 8 0.00129951
8 23 100 8 0.702078
1 24 100 8 0.207375
2 24 100 8 0.363509
3 24 100 8 0.0021379
4 24 100 8 0.00326358
5 24 100 8 0.0112266
6 24 100 8 0.00110086
7 24 100 8 0.208504
8 24 100 8 0.202882
1 25 100 8 0.000181072
2 25 100 8 0.108722
3 25 100 8 0.12435
4 25 100 8 0.236376
5 25 100 8 0.0480034
6 25 100 8 0.112321
7 25 100 8 0.0290629
8 25 100 8 0.340984
1 26 100 8 0.235236
2 26 100 8 0.00368277
3 26 100 8 0.245506
4 26 100 8 0.235376
5 26 100 8 0.0041862
6 26 100 8 0.220807
7 26 100 8 0.0544355
8 26 100 8 0.000770511
1 27 100 8 0.0589099
2 27 100 8 0.000102709
3 27 100 8 0.126949
4 27 100 8 0.157292
5 27 100 8 0.000357479
6 27 100 8 7.92535e-05
7 27 100 8 0.151906
8 27 100 8 0.504404
1 28 100 8 0.12534
2 28 100 8 0.173987
3 28 100 8 0.101363
4 28 100 8 0.00717122
5 28 100 8 0.183456
6 28 100 8 0.102464
7 28 100 8 0.204492
8 28 100 8 0.101726
1 29 100 8 0.00607166
2 29 100 8 0.317012
3 29 100 8 0.0106097
4 29 100 8 0.00114191
5 29 100 8 0.347136
6 29 100 8 0.317946
7 29 100 8 6.78302e-05
8 29 100 8 1.55224e-05
1 30 100 8 3.23508e-05
2 30 100 8 1.42994e-05
3 30 100 8 0.00534008
4 30 100 8 0.239731
5 30 100 8 0.00802912
6 30 100 8 0.551159
7 30 100 8 7.60652e-05
8 30 100 8 0.195618
1 31 100 8 0.20905
2 31 100 8 0.176282
3 31 100 8 0.169409
4 31 100 8 0.108017
5 31 100 8 0.000206772
6 31 100 8 0.113543
7 31 100 8 0.11493
8 31 100 8 0.108562
1 32 100 8 0.00277712
2 32 100 8 0.077259
3 32 100 8 1.63896e-05
4 32 100 8 2.59603e-05
5 32 100 8 0.00557044
6 32 100 8 2.51527e-05
7 32 100 8 0.000435906
8 32 100 8 0.91389
1 33 100 8 0.222296
2 33 100 8 1.22991e-05
3 33 100 8 9.61604e-05
4 33 100 8 0.000355198
5 33 100 8 2.20166e-05
6 33 100 8 0.00964419
7 33 100 8 0.282006
8 33 100 8 0.485568
1 34 100 8 6.54355e-07
2 34 100 8 0.000809004
3 34 100 8 0.000743496
4 34 100 8 0.000201788
5 34 100 8 0.000703835
6 34 100 8 0.0207431
7 34 100 8 0.377071
8 34 100 8 0.599728
1 35 100 8 0.551767
2 35 100 8 0.000198966
3 35 100 8 0.000103869
4 35 100 8 0.106299
5 35 100 8 0.336185
7 35 100 8 0.00543977
8 35 100 8 6.59504e-06
1 36 100 8 0.971388
2 36 100 8 0.0140241
4 36 100 8 0.0140265
6 36 100 8 0.000511123
8 36 100 8 4.99035e-05
1 37 100 8 0.0193292
2 37 100 8 0.102691
3 37 100 8 0.11293
4 37 100 8 0.0233406
5 37 100 8 0.254894
6 37 100 8 0.241969
7 37 100 8 0.242255
8 37 100 8 0.00259119
1 38 100 8 0.000224852
2 38 100 8 0.254874
3 38 100 8 3.42583e-05
4 38 100 8 0.00324849
5 38 100 8 0.247222
6 38 100 8 0.247105
7 38 100 8 1.04514e-05
8 38 100 8 0.247281
1 39 100 8 0.000129799
2 39 100 8 0.0219875
3 39 100 8 0.000700602
4 39 100 8 0.000133058
5 39 100 8 0.241501
6 39 100 8 0.240878
7 39 100 8 0.248334
8 39 100 8 0.246335
1 40 100 8 0.0491023
2 40 100 8 0.0252941
3 40 100 8 0.0244384
4 40 100 8 0.000680912
5 40 100 8 0.396831
6 40 100 8 0.00252074
7 40 100 8 0.00241849
8 40 100 8 0.498714
2 41 100 8 7.89443e-05
3 41 100 8 0.198545
4 41 100 8 0.200004
5 41 100 8 0.200611
6 41 100 8 0.000743308
7 41 100 8 0.200055
8 41 100 8 0.199963
2 42 100 8 0.281529
3 42 100 8 0.0656018
5 42 100 8 0.0129497
6 42 100 8 0.0219706
7 42 100 8 0.541315
8 42 100 8 0.0766337
1 43 100 8 0.165769
2 43 100 8 0.166017
3 43 100 8 0.00213955
4 43 100 8 0.165977
5 43 100 8 2.49309e-06
6 43 100 8 0.165743
7 43 100 8 0.165887
8 43 100 8 0.168466
1 44 100 8 0.13295
2 44 100 8 0.0916939
3 44 100 8 0.132301
4 44 100 8 0.132267
5 44 100 8 0.132349
6 44 100 8 0.133984
7 44 100 8 0.0903798
8 44 100 8 0.154075
2 45 100 8 1.24393e-05
3 45 100 8 0.000332924
4 45 100 8 0.000533784
5 45 100 8 0.997774
7 45 100 8 0.000249777
8 45 100 8 0.00109689
2 46 100 8 0.43416
3 46 100 8 0.00154957
5 46 100 8 0.108198
7 46 100 8 0.436473
8 46 100 8 0.0196195
1 47 100 8 0.00720552
2 47 100 8 0.0215756
3 47 100 8 0.354047
5 47 100 8 0.183732
7 47 100 8 0.382123
8 47 100 8 0.0513163
1 48 100 8 0.229709
2 48 100 8 0.229709
3 48 100 8 1.46608e-05
4 48 100 8 0.229711
5 48 100 8 0.000145877
6 48 100 8 0.229699
7 48 100 8 5.18767e-07
8 48 100 8 0.0810107
2 49 100 8 0.0200005
3 49 100 8 0.217749
5 49 100 8 0.516151
7 49 100 8 0.245683
8 49 100 8 0.00041675
3 50 100 8 4.92978e-05
4 50 100 8 0.668834
5 50 100 8 7.94558e-05
8 50 100 8 0.331038
3 51 100 8 0.692403
5 51 100 8 0.300624
7 51 100 8 0.00598629
8 51 100 8 0.000987566
1 52 100 8 6.72138e-05
3 52 100 8 0.044514
4 52 100 8 0.161744
5 52 100 8 0.0794142
7 52 100 8 0.0521485
8 52 100 8 0.662112
3 53 100 8 0.99541
5 53 100 8 0.00254842
8 53 100 8 0.0020418
8 54 100 8 1
3 55 100 8 1
3 56 100 8 1
3 57 100 8 0.389218
7 57 100 8 0.610782
1 0 100 9 0.0572491
2 0 100 9 0.0861543
3 0 100 9 0.109867
4 0 100 9 0.115407
5 0 100 9 0.197106
6 0 100 9 0.149027
7 0 100 9 0.125733
8 0 100 9 0.0990107
9 0 100 9 0.0604457
1 1 100 9 0.819982
2 1 100 9 0.0770211
3 1 100 9 0.0285702
4 1 100 9 0.0204281
5 1 100 9 0.0194142
6 1 100 9 0.00507583
7 1 100 9 0.0106008
8 1 100 9 0.0085425
9 1 100 9 0.0103658
1 2 100 9 0.349325
2 2 100 9 0.352803
3 2 100 9 0.174973
4 2 100 9 0.0773771
5 2 100 9 0.0189709
6 2 100 9 0.011706
7 2 100 9 0.00221242
8 2 100 9 0.00864283
9 2 100 9 0.00399058
1 3 100 9 0.20808
2 3 100 9 0.40216
3 3 100 9 0.233134
4 3 100 9 0.0854897
5 3 100 9 0.0410452
6 3 100 9 0.0128668
7 3 100 9 0.0105194
8 3 100 9 0.00195568
9 3 100 9 0.00474902
1 4 100 9 0.101625
2 4 100 9 0.376573
3 4 100 9 0.29485
4 4 100 9 0.128425
5 4 100 9 0.0446438
6 4 100 9 0.0218859
7 4 100 9 0.0120758
8 4 100 9 0.0120099
9 4 100 9 0.00791186
1 5 100 9 0.0833293
2 5 100 9 0.230983
3 5 100 9 0.255242
4 5 100 9 0.235895
5 5 100 9 0.103471
6 5 100 9 0.0414129
7 5 100 9 0.0238165
8 5 100 9 0.0148527
9 5 100 9 0.0109979
1 6 100 9 0.036334
2 6 100 9 0.117339
3 6 100 9 0.25233
4 6 100 9 0.306584
5 6 100 9 0.175535
6 6 100 9 0.0523445
7 6 100 9 0.0333913
8 6 100 9 0.0197708
9 6 100 9 0.00637133
1 7 100 9 0.0274881
2 7 100 9 0.0998847
3 7 100 9 0.205281
4 7 100 9 0.247181
5 7 100 9 0.168466
6 7 100 9 0.137127
7 7 100 9 0.0490415
8 7 100 9 0.0457232
9 7 100 9 0.019807
1 8 100 9 0.0218676
2 8 100 9 0.0602238
3 8 100 9 0.135124
4 8 100 9 0.239635
5 8 100 9 0.22038
6 8 100 9 0.145934
7 8 100 9 0.0866793
8 8 100 9 0.0435201
9 8 100 9 0.0466357
1 9 100 9 0.00821809
2 9 100 9 0.0449469
3 9 100 9 0.0666633
4 9 100 9 0.16987
5 9 100 9 0.192292
6 9 100 9 0.197726
7 9 100 9 0.149176
8 9 100 9 0.101518
9 9 100 9 0.06959
1 10 100 9 0.015768
2 10 100 9 0.0172388
3 10 100 9 0.0684091
4 10 100 9 0.117668
5 10 100 9 0.176143
6 10 100 9 0.217214
7 10 100 9 0.15657
8 10 100 9 0.117859
9 10 100 9 0.11313
1 11 100 9 0.0111035
2 11 100 9 0.0178111
3 11 100 9 0.0312043
4 11 100 9 0.0585146
5 11 100 9 0.12729
6 11 100 9 0.208561
7 11 100 9 0.204227
8 11 100 9 0.157633
9 11 100 9 0.183656
1 12 100 9 0.0104227
2 12 100 9 0.0229365
3 12 100 9 0.0169006
4 12 100 9 0.0387286
5 12 100 9 0.0944226
6 12 100 9 0.208599
7 12 100 9 0.218405
8 12 100 9 0.215891
9 12 100 9 0.173694
1 13 100 9 0.00575725
2 13 100 9 0.0072313
3 13 100 9 0.0155238
4 13 100 9 0.023067
5 13 100 9 0.063181
6 13 100 9 0.16715
7 13 100 9 0.2527
8 13 100 9 0.227955
9 13 100 9 0.237435
1 14 100 9 0.00227854
2 14 100 9 0.0121657
3 14 100 9 0.0189366
4 14 100 9 0.0312049
5 14 100 9 0.042436
6 14 100 9 0.140739
7 14 100 9 0.220526
8 14 100 9 0.250853
9 14 100 9 0.28086
1 15 100 9 0.0142487
2 15 100 9 0.0214402
3 15 100 9 0.017833
4 15 100 9 0.022105
5 15 100 9 0.050953
6 15 100 9 0.121301
7 15 100 9 0.20147
8 15 100 9 0.258195
9 15 100 9 0.292453
1 16 100 9 0.00510876
2 16 100 9 0.0215906
3 16 100 9 0.0124859
4 16 100 9 0.0395641
5 16 100 9 0.0293197
6 16 100 9 0.0899907
7 16 100 9 0.188075
8 16 100 9 0.278902
9 16 100 9 0.334963
1 17 100 9 0.000325354
2 17 100 9 0.0175725
3 17 100 9 0.0199602
4 17 100 9 0.0242829
5 17 100 9 0.0258349
6 17 100 9 0.0809502
7 17 100 9 0.16349
8 17 100 9 0.300875
9 17 100 9 0.366709
1 18 100 9 0.022957
2 18 100 9 0.0125322
3 18 100 9 0.0270229
4 18 100 9 0.0205517
5 18 100 9 0.0221754
6 18 100 9 0.0495349
7 18 100 9 0.141876
8 18 100 9 0.298488
9 18 100 9 0.404862
1 19 100 9 0.0180631
2 19 100 9 0.0248218
3 19 100 9 0.020079
4 19 100 9 0.0236564
5 19 100 9 0.0376758
6 19 100 9 0.0261453
7 19 100 9 0.136466
8 19 100 9 0.330664
9 19 100 9 0.382429
1 20 100 9 0.0142518
2 20 100 9 0.0218541
3 20 100 9 0.00604297
4 20 100 9 0.025042
5 20 100 9 0.0281348
6 20 100 9 0.0676668
7 20 100 9 0.12228
8 20 100 9 0.209201
9 20 100 9 0.505526
1 21 100 9 0.0274658
2 21 100 9 0.0356394
3 21 100 9 0.0375906
4 21 100 9 0.0363151
5 21 100 9 0.0823553
6 21 100 9 0.0895451
7 21 100 9 0.0964774
8 21 100 9 0.21236
9 21 100 9 0.382251
1 22 100 9 0.000263757
2 22 100 9 0.00347907
3 22 100 9 0.0763965
4 22 100 9 0.0586293
5 22 100 9 0.108896
6 22 100 9 0.0410265
7 22 100 9 0.155767
8 22 100 9 0.248692
9 22 100 9 0.30685
1 23 100 9 0.000273035
2 23 100 9 5.64945e-05
3 23 100 9 0.00739802
4 23 100 9 0.0826722
5 23 100 9 0.0729616
6 23 100 9 0.130066
7 23 100 9 0.208474
8 23 100 9 0.159475
9 23 100 9 0.338624
1 24 100 9 0.0862304
2 24 100 9 0.0501814
3 24 100 9 0.0503082
4 24 100 9 0.0777473
5 24 100 9 0.0824367
6 24 100 9 0.0730145
7 24 100 9 0.0992864
8 24 100 9 0.133977
9 24 100 9 0.346818
1 25 100 9 0.00570439
2 25 100 9 0.1579
3 25 100 9 0.187218
4 25 100 9 0.000608578
5 25 100 9 0.0393846
6 25 100 9 0.249797
7 25 100 9 0.0180584
8 25 100 9 0.18365
9 25 100 9 0.157679
1 26 100 9 0.13004
2 26 100 9 0.131052
3 26 100 9 0.146962
4 26 100 9 0.162322
5 26 100 9 0.000487744
6 26 100 9 0.0666948
7 26 100 9 0.0668729
8 26 100 9 0.130401
9 26 100 9 0.165168
1 27 100 9 0.00197391
2 27 100 9 7.72746e-05
3 27 100 9 0.00211012
4 27 100 9 0.271755
5 27 100 9 0.00233082
6 27 100 9 0.0127999
7 27 100 9 0.104045
8 27 100 9 0.321939
9 27 100 9 0.28297
1 28 100 9 0.181993
2 28 100 9 0.0236748
3 28 100 9 0.000263875
4 28 100 9 0.000142014
5 28 100 9 0.128948
6 28 100 9 0.200411
7 28 100 9 0.0114848
8 28 100 9 0.185782
9 28 100 9 0.267301
1 29 100 9 0.204581
2 29 100 9 0.0128936
3 29 100 9 0.00264958
4 29 100 9 0.000920351
5 29 100 9 0.0054041
6 29 100 9 0.358702
7 29 100 9 0.00380306
8 29 100 9 2.35775e-05
9 29 100 9 0.411023
1 30 100 9 0.00509887
2 30 100 9 0.00067109
3 30 100 9 0.217156
4 30 100 9 0.000392016
5 30 100 9 0.110963
6 30 100 9 0.258528
7 30 100 9 0.108419
8 30 100 9 0.110717
9 30 100 9 0.188054
1 31 100 9 0.119118
2 31 100 9 0.21152
3 31 100 9 0.115199
4 31 100 9 0.136905
5 31 100 9 0.146293
6 31 100 9 0.0608633
7 31 100 9 0.122026
8 31 100 9 0.0002155
9 31 100 9 0.0878596
1 32 100 9 0.0787283
2 32 100 9 0.0718954
3 32 100 9 0.143092
4 32 100 9 0.138527
5 32 100 9 0.0736115
6 32 100 9 0.171265
7 32 100 9 0.0800441
8 32 100 9 0.14
9 32 100 9 0.102837
1 33 100 9 0.00213786
2 33 100 9 0.000203728
3 33 100 9 0.00225694
4 33 100 9 0.00266535
5 33 100 9 0.0120109
6 33 100 9 0.0816476
7 33 100 9 0.00233566
8 33 100 9 0.516895
9 33 100 9 0.379847
1 34 100 9 0.00458262
2 34 100 9 0.0891898
3 34 100 9 0.132398
4 34 100 9 0.0865959
5 34 100 9 0.0894934
6 34 100 9 0.176474
7 34 100 9 0.0903133
8 34 100 9 0.142653
9 34 100 9 0.1883
1 35 100 9 0.00294858
2 35 100 9 0.000525813
3 35 100 9 0.000945063
4 35 100 9 0.00311962
5 35 100 9 0.0114826
6 35 100 9 0.0066541
7 35 100 9 0.948368
8 35 100 9 0.0140111
9 35 100 9 0.0119455
1 36 100 9 0.000150754
2 36 100 9 0.0782066
3 36 100 9 0.154523
4 36 100 9 0.0782311
5 36 100 9 0.0525842
6 36 100 9 0.0791804
7 36 100 9 0.156497
8 36 100 9 0.161178
9 36 100 9 0.23945
1 37 100 9 0.143967
2 37 100 9 0.000670617
3 37 100 9 0.00150422
4 37 100 9 0.496096
5 37 100 9 0.00461338
6 37 100 9 0.102093
7 37 100 9 0.194735
8 37 100 9 0.000704997
9 37 100 9 0.0556148
1 38 100 9 3.28645e-05
2 38 100 9 0.119081
3 38 100 9 0.119924
4 38 100 9 5.093e-05
5 38 100 9 0.121576
6 38 100 9 0.120632
7 38 100 9 0.158553
8 38 100 9 0.240246
9 38 100 9 0.119903
1 39 100 9 0.0654792
2 39 100 9 1.6653e-06
3 39 100 9 0.0039426
4 39 100 9 0.000678158
5 39 100 9 0.0249472
6 39 100 9 0.0399781
7 39 100 9 0.483902
8 39 100 9 0.00046443
9 39 100 9 0.380606
1 40 100 9 0.00240564
2 40 100 9 4.20107e-06
3 40 100 9 9.09748e-05
4 40 100 9 0.65933
5 40 100 9 0.152971
6 40 100 9 0.000539517
7 40 100 9 0.18459
8 40 100 9 1.86721e-05
9 40 100 9 5.0949e-05
1 41 100 9 0.000558562
2 41 100 9 1.04585e-05
3 41 100 9 0.796027
4 41 100 9 0.000471271
5 41 100 9 0.202784
6 41 100 9 3.91633e-05
7 41 100 9 3.13058e-05
8 41 100 9 3.56519e-05
9 41 100 9 4.22194e-05
1 42 100 9 6.47949e-06
2 42 100 9 3.29486e-05
3 42 100 9 0.249503
4 42 100 9 0.249354
5 42 100 9 0.00235623
6 42 100 9 0.000701312
7 42 100 9 0.000236672
8 42 100 9 0.249339
9 42 100 9 0.24847
1 43 100 9 0.100192
2 43 100 9 0.0895341
3 43 100 9 0.00179108
4 43 100 9 0.0957499
5 43 100 9 0.0954907
6 43 100 9 0.118484
7 43 100 9 0.189282
8 43 100 9 0.0948854
9 43 100 9 0.21459
1 44 100 9 0.00107164
3 44 100 9 0.0303195
4 44 100 9 0.00767758
5 44 100 9 0.951187
6 44 100 9 0.00048681
7 44 100 9 0.000259292
8 44 100 9 0.00330561
9 44 100 9 0.00569274
1 45 100 9 0.00146918
2 45 100 9 0.00594316
3 45 100 9 0.0123842
4 45 100 9 0.00793772
5 45 100 9 0.00993817
6 45 100 9 0.00020235
7 45 100 9 0.00410969
8 45 100 9 0.869333
9 45 100 9 0.0886826
1 46 100 9 0.84845
2 46 100 9 0.00239387
3 46 100 9 0.0305563
4 46 100 9 0.00322385
5 46 100 9 0.000423908
6 46 100 9 0.00657284
7 46 100 9 0.00564158
8 46 100 9 0.0036052
9 46 100 9 0.0991328
2 47 100 9 2.71909e-05
5 47 100 9 0.867417
7 47 100 9 0.00413436
8 47 100 9 0.128421
2 48 100 9 0.00647723
3 48 100 9 0.104375
5 48 100 9 0.00125782
6 48 100 9 0.00840289
7 48 100 9 0.0542512
8 48 100 9 0.825236
5 49 100 9 1.66101e-06
6 49 100 9 0.000132173
7 49 100 9 5.45561e-05
8 49 100 9 0.339672
9 49 100 9 0.660139
1 50 100 9 0.140768
2 50 100 9 0.14669
3 50 100 9 0.147864
4 50 100 9 0.14704
5 50 100 9 0.146894
6 50 100 9 0.145653
7 50 100 9 7.86184e-06
8 50 100 9 0.0160646
9 50 100 9 0.109019
5 51 100 9 0.947181
8 51 100 9 0.0528187
5 52 100 9 0.00030586
6 52 100 9 0.0141261
7 52 100 9 0.342222
8 52 100 9 0.643346
5 53 100 9 1
3 54 100 9 0.0074911
5 54 100 9 0.991668
6 54 100 9 0.000841369
5 55 100 9 0.967348
8 55 100 9 0.0326519
3 56 100 9 0.00633698
5 56 100 9 0.00175937
6 56 100 9 0.000497097
9 56 100 9 0.991407
5 57 100 9 0.590784
8 57 100 9 0.409216
1 0 100 10 0.0511037
2 0 100 10 0.0752752
3 0 100 10 0.0966727
4 0 100 10 0.0939832
5 0 100 10 0.131267
6 0 100 10 0.148253
7 0 100 10 0.114871
8 0 100 10 0.111433
9 0 100 10 0.111806
10 0 100 10 0.0653349
1 1 100 10 0.777775
2 1 100 10 0.0751446
3 1 100 10 0.0338984
4 1 100 10 0.0269967
5 1 100 10 0.0206328
6 1 100 10 0.0140108
7 1 100 10 0.0179623
8 1 100 10 0.00989954
9 1 100 10 0.0137745
10 1 100 10 0.00990522
1 2 100 10 0.256387
2 2 100 10 0.391119
3 2 100 10 0.196829
4 2 100 10 0.0706815
5 2 100 10 0.0376916
6 2 100 10 0.0137394
7 2 100 10 0.0123957
8 2 100 10 0.00730483
9 2 100 10 0.00594411
10 2 100 10 0.00790787
1 3 100 10 0.194429
2 3 100 10 0.368949
3 3 100 10 0.240122
4 3 100 10 0.0882863
5 3 100 10 0.0488189
6 3 100 10 0.0133272
7 3 100 10 0.0134204
8 3 100 10 0.0111436
9 3 100 10 0.0111026
10 3 100 10 0.0104014
1 4 100 10 0.0777294
2 4 100 10 0.347057
3 4 100 10 0.255373
4 4 100 10 0.15538
5 4 100 10 0.0827556
6 4 100 10 0.0196877
7 4 100 10 0.0133811
8 4 100 10 0.0216697
9 4 100 10 0.012409
10 4 100 10 0.0145573
1 5 100 10 0.04252
2 5 100 10 0.208915
3 5 100 10 0.262168
4 5 100 10 0.251067
5 5 100 10 0.130724
6 5 100 10 0.0410362
7 5 100 10 0.0236433
8 5 100 10 0.0161216
9 5 100 10 0.0115698
10 5 100 10 0.0122357
1 6 100 10 0.028204
2 6 100 10 0.11423
3 6 100 10 0.259694
4 6 100 10 0.259987
5 6 100 10 0.186414
6 6 100 10 0.0582876
7 6 100 10 0.0429605
8 6 100 10 0.0214299
9 6 100 10 0.0186197
10 6 100 10 0.0101725
1 7 100 10 0.0090283
2 7 100 10 0.0760261
3 7 100 10 0.164258
4 7 100 10 0.262924
5 7 100 10 0.214848
6 7 100 10 0.141246
7 7 100 10 0.0782636
8 7 100 10 0.0363334
9 7 100 10 0.0100501
10 7 100 10 0.00702357
1 8 100 10 0.00953782
2 8 100 10 0.0553742
3 8 100 10 0.0926075
4 8 100 10 0.235364
5 8 100 10 0.21317
6 8 100 10 0.190288
7 8 100 10 0.0903684
8 8 100 10 0.0530762
9 8 100 10 0.0321494
10 8 100 10 0.0280634
1 9 100 10 0.0163576
2 9 100 10 0.0250604
3 9 100 10 0.0588148
4 9 100 10 0.161427
5 9 100 10 0.198917
6 9 100 10 0.202354
7 9 100 10 0.146834
8 9 100 10 0.0817638
9 9 100 10 0.0520494
10 9 100 10 0.0564212
1 10 100 10 0.00171703
2 10 100 10 0.0210321
3 10 100 10 0.0401384
4 10 100 10 0.0855588
5 10 100 10 0.172049
6 10 100 10 0.216886
7 10 100 10 0.194049
8 10 100 10 0.12891
9 10 100 10 0.0718236
10 10 100 10 0.0678376
1 11 100 10 0.00879317
2 11 100 10 0.0184048
3 11 100 10 0.0439038
4 11 100 10 0.0621722
5 11 100 10 0.131737
6 11 100 10 0.180798
7 11 100 10 0.213517
8 11 100 10 0.168636
9 11 100 10 0.0941432
10 11 100 10 0.0778955
1 12 100 10 0.0104729
2 12 100 10 0.0245202
3 12 100 10 0.0225702
4 12 100 10 0.0311225
5 12 100 10 0.0725495
6 12 100 10 0.162179
7 12 100 10 0.194373
8 12 100 10 0.189419
9 12 100 10 0.14203
10 12 100 10 0.150765
1 13 100 10 0.00321667
2 13 100 10 0.0108273
3 13 100 10 0.0161449
4 13 100 10 0.033435
5 13 100 10 0.0561532
6 13 100 10 0.120502
7 13 100 10 0.194863
8 13 100 10 0.204867
9 13 100 10 0.194615
10 13 100 10 0.165377
1 14 100 10 0.00886615
2 14 100 10 0.0156807
3 14 100 10 0.0119521
4 14 100 10 0.0245483
5 14 100 10 0.0299
6 14 100 10 0.081767
7 14 100 10 0.171317
8 14 100 10 0.213727
9 14 100 10 0.228243
10 14 100 10 0.213998
1 15 100 10 0.0071227
2 15 100 10 0.011856
3 15 100 10 0.0129924
4 15 100 10 0.028844
5 15 100 10 0.0290438
6 15 100 10 0.0876208
7 15 100 10 0.139252
8 15 100 10 0.20618
9 15 100 10 0.214895
10 15 100 10 0.262194
1 16 100 10 0.0044838
2 16 100 10 0.0118741
3 16 100 10 0.0175469
4 16 100 10 0.00974733
5 16 100 10 0.0323893
6 16 100 10 0.0468639
7 16 100 10 0.108997
8 16 100 10 0.209991
9 16 100 10 0.275993
10 16 100 10 0.282114
1 17 100 10 0.0025885
2 17 100 10 0.0214409
3 17 100 10 0.0113805
4 17 100 10 0.016732
5 17 100 10 0.0228319
6 17 100 10 0.048004
7 17 100 10 0.11532
8 17 100 10 0.178093
9 17 100 10 0.245885
10 17 100 10 0.337725
1 18 100 10 0.0173087
2 18 100 10 0.0128503
3 18 100 10 0.0224371
4 18 100 10 0.0133817
5 18 100 10 0.0365059
6 18 100 10 0.0314881
7 18 100 10 0.135203
8 18 100 10 0.149627
9 18 100 10 0.221556
10 18 100 10 0.359642
1 19 100 10 0.00505481
2 19 100 10 0.0193413
3 19 100 10 0.0204607
4 19 100 10 0.0203793
5 19 100 10 0.030931
6 19 100 10 0.0296217
7 19 100 10 0.0670134
8 19 100 10 0.145342
9 19 100 10 0.270459
10 19 100 10 0.391398
1 20 100 10 0.0222941
2 20 100 10 0.0264833
3 20 100 10 0.0377212
4 20 100 10 0.0337496
5 20 100 10 0.0163641
6 20 100 10 0.0929433
7 20 100 10 0.069706
8 20 100 10 0.136513
9 20 100 10 0.246374
10 20 100 10 0.317852
1 21 100 10 0.00703535
2 21 100 10 0.00201494
3 21 100 10 0.0115206
4 21 100 10 0.0257696
5 21 100 10 0.0187402
6 21 100 10 0.0437312
7 21 100 10 0.0501576
8 21 100 10 0.117941
9 21 100 10 0.26146
10 21 100 10 0.46163
1 22 100 10 0.00293476
2 22 100 10 0.046003
3 22 100 10 0.0149657
4 22 100 10 0.0205376
5 22 100 10 0.0551233
6 22 100 10 0.0666156
7 22 100 10 0.0644974
8 22 100 10 0.154868
9 22 100 10 0.228255
10 22 100 10 0.3462
1 23 100 10 0.0177679
2 23 100 10 0.0354539
3 23 100 10 0.0183774
4 23 100 10 0.0359544
5 23 100 10 0.039876
6 23 100 10 0.0736973
7 23 100 10 0.0554517
8 23 100 10 0.0874381
9 23 100 10 0.162397
10 23 100 10 0.473587
1 24 100 10 0.0086935
2 24 100 10 0.0496249
3 24 100 10 0.054351
4 24 100 10 0.0547323
5 24 100 10 0.0523501
6 24 100 10 0.00245067
7 24 100 10 0.0272215
8 24 100 10 0.0787975
9 24 100 10 0.267182
10 24 100 10 0.404596
1 25 100 10 0.00836105
2 25 100 10 0.0409148
3 25 100 10 0.188672
4 25 100 10 0.043099
5 25 100 10 0.0276419
6 25 100 10 0.0389577
7 25 100 10 0.139213
8 25 100 10 0.022529
9 25 100 10 0.176828
10 25 100 10 0.313783
1 26 100 10 0.000222504
2 26 100 10 0.0553534
3 26 100 10 0.060479
4 26 100 10 0.000157295
5 26 100 10 0.00538026
6 26 100 10 0.134047
7 26 100 10 0.189872
8 26 100 10 0.198735
9 26 100 10 0.138862
10 26 100 10 0.216892
1 27 100 10 0.000287998
2 27 100 10 2.46602e-06
3 27 100 10 0.00243534
4 27 100 10 0.000581011
5 27 100 10 0.0733556
6 27 100 10 0.0851843
7 27 100 10 0.000281016
8 27 100 10 0.458452
9 27 100 10 0.185468
10 27 100 10 0.193952
1 28 100 10 0.106991
2 28 100 10 0.145228
3 28 100 10 0.000265168
4 28 100 10 0.28552
5 28 100 10 0.00806786
6 28 100 10 0.00381109
7 28 100 10 0.000197098
8 28 100 10 0.00801822
9 28 100 10 0.0640454
10 28 100 10 0.377856
1 29 100 10 8.12465e-05
2 29 100 10 0.0785514
3 29 100 10 0.0868003
4 29 100 10 0.086681
5 29 100 10 0.0888711
6 29 100 10 0.0880162
7 29 100 10 0.223621
8 29 100 10 0.0859595
9 29 100 10 0.0877872
10 29 100 10 0.173631
1 30 100 10 7.99058e-05
2 30 100 10 3.90838e-07
3 30 100 10 0.132039
4 30 100 10 0.128824
5 30 100 10 0.000196366
6 30 100 10 0.124296
7 30 100 10 0.136692
8 30 100 10 0.173751
9 30 100 10 0.124722
10 30 100 10 0.179398
1 31 100 10 0.000479053
2 31 100 10 1.17297e-05
3 31 100 10 1.69768e-05
4 31 100 10 0.000124899
5 31 100 10 0.00108479
6 31 100 10 0.220499
7 31 100 10 0.000280466
8 31 100 10 0.332649
9 31 100 10 0.220742
10 31 100 10 0.224112
1 32 100 10 0.0306043
2 32 100 10 0.0586333
3 32 100 10 0.0845512
4 32 100 10 0.0586464
5 32 100 10 0.0771427
6 32 100 10 0.0910992
7 32 100 10 0.137448
8 32 100 10 0.000120852
9 32 100 10 0.398958
10 32 100 10 0.062796
1 33 100 10 0.234573
2 33 100 10 0.504246
3 33 100 10 0.00016356
4 33 100 10 0.000206987
5 33 100 10 0.0113904
6 33 100 10 0.247715
7 33 100 10 0.000206691
8 33 100 10 0.000183341
9 33 100 10 0.001147
10 33 100 10 0.000167726
1 34 100 10 0.000585825
2 34 100 10 0.0776769
3 34 100 10 0.00184837
4 34 100 10 0.0773472
5 34 100 10 0.00304437
6 34 100 10 0.0162217
7 34 100 10 0.00281015
8 34 100 10 0.179058
9 34 100 10 0.0130188
10 34 100 10 0.628388
1 35 100 10 0.000388231
2 35 100 10 2.07897e-05
3 35 100 10 9.20408e-06
4 35 100 10 0.129032
5 35 100 10 0.127732
6 35 100 10 0.125073
7 35 100 10 0.126919
8 35 100 10 0.125084
9 35 100 10 0.237425
10 35 100 10 0.128316
1 36 100 10 0.163828
2 36 100 10 0.00151567
3 36 100 10 0.00114879
4 36 100 10 2.00294e-05
5 36 100 10 0.00129875
6 36 100 10 0.000277872
7 36 100 10 0.164969
8 36 100 10 0.000672791
9 36 100 10 0.501207
10 36 100 10 0.165061
1 37 100 10 0.00013579
2 37 100 10 0.00604963
3 37 100 10 0.00177848
4 37 100 10 0.000211023
5 37 100 10 0.000787351
6 37 100 10 0.00186781
7 37 100 10 0.00628358
8 37 100 10 0.00235605
9 37 100 10 0.00168908
10 37 100 10 0.978841
1 38 100 10 0.119955
2 38 100 10 1.54278e-06
3 38 100 10 0.193596
4 38 100 10 0.20305
5 38 100 10 0.120065
6 38 100 10 0.121198
7 38 100 10 1.00095e-05
8 38 100 10 0.121842
9 38 100 10 5.22726e-05
10 38 100 10 0.120231
1 39 100 10 0.00110104
2 39 100 10 0.110939
3 39 100 10 0.111513
4 39 100 10 0.111525
5 39 100 10 0.111352
6 39 100 10 2.83371e-05
7 39 100 10 0.111451
8 39 100 10 0.110974
9 39 100 10 0.108489
10 39 100 10 0.222627
1 40 100 10 0.000863415
2 40 100 10 0.0630843
3 40 100 10 7.30268e-05
4 40 100 10 7.83657e-06
5 40 100 10 5.19842e-05
6 40 100 10 1.77901e-05
7 40 100 10 0.070469
8 40 100 10 0.00545817
9 40 100 10 4.07938e-05
10 40 100 10 0.859934
1 41 100 10 0.0004588
2 41 100 10 2.86108e-06
3 41 100 10 0.00219696
4 41 100 10 0.000318825
5 41 100 10 2.66357e-05
6 41 100 10 0.0344164
7 41 100 10 6.77064e-05
8 41 100 10 0.0103639
9 41 100 10 0.952145
10 41 100 10 2.93045e-06
1 42 100 10 2.66196e-05
2 42 100 10 9.99382e-07
3 42 100 10 0.13417
4 42 100 10 0.165322
5 42 100 10 9.16427e-06
6 42 100 10 0.269599
7 42 100 10 0.403589
8 42 100 10 0.0269678
9 42 100 10 0.000307982
10 42 100 10 7.35621e-06
1 43 100 10 2.68341e-06
3 43 100 10 3.60669e-06
4 43 100 10 1.56502e-06
5 43 100 10 0.00294335
6 43 100 10 0.00562568
7 43 100 10 3.58731e-05
9 43 100 10 0.991102
10 43 100 10 0.000284888
1 44 100 10 0.00171186
2 44 100 10 0.797817
4 44 100 10 0.000975246
5 44 100 10 0.0120573
6 44 100 10 0.026321
7 44 100 10 3.36587e-05
8 44 100 10 0.159816
9 44 100 10 0.00054965
10 44 100 10 0.00071894
1 45 100 10 0.000451641
6 45 100 10 0.430398
7 45 100 10 7.28411e-05
8 45 100 10 0.566097
10 45 100 10 0.00298016
1 46 100 10 0.081299
2 46 100 10 0.019035
3 46 100 10 0.00136488
4 46 100 10 0.00303776
5 46 100 10 0.0794678
6 46 100 10 0.23854
7 46 100 10 0.500971
8 46 100 10 0.00184878
9 46 100 10 0.0744353
2 47 100 10 0.376409
6 47 100 10 0.000191577
7 47 100 10 0.116179
8 47 100 10 0.506958
10 47 100 10 0.00026312
1 48 100 10 0.00153845
2 48 100 10 0.0916345
3 48 100 10 0.00279805
4 48 100 10 0.00561895
5 48 100 10 0.334464
6 48 100 10 0.00506509
7 48 100 10 0.465474
8 48 100 10 0.00198017
9 48 100 10 0.0914277
5 49 100 10 0.332823
6 49 100 10 0.00212487
7 49 100 10 0.166975
8 49 100 10 0.456746
9 49 100 10 0.0174055
10 49 100 10 0.0239258
1 50 100 10 0.0288404
2 50 100 10 0.000141168
3 50 100 10 0.00140133
4 50 100 10 0.0015637
5 50 100 10 0.110262
6 50 100 10 0.0280956
7 50 100 10 0.255184
8 50 100 10 0.0129956
9 50 100 10 0.560968
10 50 100 10 0.000548468
2 51 100 10 1.03999e-05
5 51 100 10 7.96816e-05
6 51 100 10 0.246641
7 51 100 10 4.43864e-05
8 51 100 10 0.322513
9 51 100 10 5.22281e-06
10 51 100 10 0.430706
4 52 100 10 0.000141203
5 52 100 10 0.24821
7 52 100 10 0.480004
9 52 100 10 0.271645
2 54 100 10 0.352393
7 54 100 10 0.284546
9 54 100 10 0.363061
1 0 100 11 0.051015
2 0 100 11 0.0626289
3 0 100 11 0.0957935
4 0 100 11 0.0944816
5 0 100 11 0.0987245
6 0 100 11 0.124721
7 0 100 11 0.11213
8 0 100 11 0.102308
9 0 100 11 0.106852
10 0 100 11 0.0927224
11 0 100 11 0.0586234
1 1 100 11 0.800932
2 1 100 11 0.085291
3 1 100 11 0.0230016
4 1 100 11 0.0164398
5 1 100 11 0.0180543
6 1 100 11 0.0116077
7 1 100 11 0.0113356
8 1 100 11 0.0122904
9 1 100 11 0.00814252
10 1 100 11 0.00622927
11 1 100 11 0.00667589
1 2 100 11 0.245976
2 2 100 11 0.434079
3 2 100 11 0.172905
4 2 100 11 0.0565914
5 2 100 11 0.0354008
6 2 100 11 0.0147019
7 2 100 11 0.0108914
8 2 100 11 0.0108224
9 2 100 11 0.0072231
10 2 100 11 0.00317037
11 2 100 11 0.00823941
1 3 100 11 0.132975
2 3 100 11 0.421529
3 3 100 11 0.232611
4 3 100 11 0.0837512
5 3 100 11 0.0442453
6 3 100 11 0.0358574
7 3 100 11 0.0137883
8 3 100 11 0.0160452
9 3 100 11 0.0110963
10 3 100 11 0.00702487
11 3 100 11 0.00107758
1 4 100 11 0.0809813
2 4 100 11 0.317711
3 4 100 11 0.26
4 4 100 11 0.15583
5 4 100 11 0.0684953
6 4 100 11 0.0470656
7 4 100 11 0.0214064
8 4 100 11 0.0152205
9 4 100 11 0.0140387
10 4 100 11 0.0128302
11 4 100 11 0.00642141
1 5 100 11 0.0361944
2 5 100 11 0.177283
3 5 100 11 0.296569
4 5 100 11 0.246088
5 5 100 11 0.116448
6 5 100 11 0.049191
7 5 100 11 0.0269525
8 5 100 11 0.0140138
9 5 100 11 0.0112873
10 5 100 11 0.0124179
11 5 100 11 0.0135548
1 6 100 11 0.0222968
2 6 100 11 0.102527
3 6 100 11 0.219562
4 6 100 11 0.249818
5 6 100 11 0.226786
6 6 100 11 0.0902008
7 6 100 11 0.0405337
8 6 100 11 0.0178286
9 6 100 11 0.0166927
10 6 100 11 0.00655465
11 6 100 11 0.00720042
1 7 100 11 0.0194208
2 7 100 11 0.0584666
3 7 100 11 0.151269
4 7 100 11 0.272037
5 7 100 11 0.235264
6 7 100 11 0.133497
7 7 100 11 0.0711076
8 7 100 11 0.0291507
9 7 100 11 0.0127692
10 7 100 11 0.00846249
11 7 100 11 0.00855498
1 8 100 11 0.00675702
2 8 100 11 0.0337005
3 8 100 11 0.0989635
4 8 100 11 0.219931
5 8 100 11 0.228002
6 8 100 11 0.183523
7 8 100 11 0.10638
8 8 100 11 0.0386322
9 8 100 11 0.0427517
10 8 100 11 0.03021
11 8 100 11 0.0111491
1 9 100 11 0.00147605
2 9 100 11 0.0304308
3 9 100 11 0.0503024
4 9 100 11 0.146555
5 9 100 11 0.224643
6 9 100 11 0.220258
7 9 100 11 0.139125
8 9 100 11 0.0866888
9 9 100 11 0.0406699
10 9 100 11 0.0358181
11 9 100 11 0.0240333
1 10 100 11 0.00536973
2 10 100 11 0.0139819
3 10 100 11 0.0291527
4 10 100 11 0.0735211
5 10 100 11 0.177135
6 10 100 11 0.21063
7 10 100 11 0.185722
8 10 100 11 0.127288
9 10 100 11 0.0738539
10 10 100 11 0.0475027
11 10 100 11 0.0558424
1 11 100 11 0.00295381
2 11 100 11 0.0124488
3 11 100 11 0.0235804
4 11 100 11 0.0422432
5 11 100 11 0.093135
6 11 100 11 0.173256
7 11 100 11 0.205501
8 11 100 11 0.173179
9 11 100 11 0.118676
10 11 100 11 0.0724733
11 11 100 11 0.0825528
1 12 100 11 0.00546236
2 12 100 11 0.00985648
3 12 100 11 0.0163955
4 12 100 11 0.0268054
5 12 100 11 0.0637777
6 12 100 11 0.12875
7 12 100 11 0.20457
8 12 100 11 0.19105
9 12 100 11 0.154317
10 12 100 11 0.115499
11 12 100 11 0.0835158
1 13 100 11 0.00938255
2 13 100 11 0.00794741
3 13 100 11 0.0102451
4 13 100 11 0.0201868
5 13 100 11 0.0517556
6 13 100 11 0.0813046
7 13 100 11 0.162177
8 13 100 11 0.205028
9 13 100 11 0.194535
10 13 100 11 0.119848
11 13 100 11 0.137589
1 14 100 11 0.00174551
2 14 100 11 0.007616
3 14 100 11 0.0189214
4 14 100 11 0.016551
5 14 100 11 0.0234774
6 14 100 11 0.0572095
7 14 100 11 0.129946
8 14 100 11 0.211813
9 14 100 11 0.203181
10 14 100 11 0.172989
11 14 100 11 0.156549
1 15 100 11 0.00311603
2 15 100 11 0.00723598
3 15 100 11 0.010166
4 15 100 11 0.0187219
5 15 100 11 0.0167719
6 15 100 11 0.0514259
7 15 100 11 0.111299
8 15 100 11 0.196298
9 15 100 11 0.181996
10 15 100 11 0.191935
11 15 100 11 0.211035
1 16 100 11 0.0089998
2 16 100 11 0.0208442
3 16 100 11 0.0155767
4 16 100 11 0.0168897
5 16 100 11 0.0263308
6 16 100 11 0.0402187
7 16 100 11 0.0811165
8 16 100 11 0.144416
9 16 100 11 0.185685
10 16 100 11 0.21895
11 16 100 11 0.240972
1 17 100 11 0.00377225
2 17 100 11 0.00156369
3 17 100 11 0.00970137
4 17 100 11 0.0111534
5 17 100 11 0.0209191
6 17 100 11 0.0354748
7 17 100 11 0.0670141
8 17 100 11 0.111677
9 17 100 11 0.224139
10 17 100 11 0.27191
11 17 100 11 0.242676
1 18 100 11 0.0101649
2 18 100 11 0.0190317
3 18 100 11 0.0193696
4 18 100 11 0.0258526
5 18 100 11 0.0280458
6 18 100 11 0.0397166
7 18 100 11 0.069552
8 18 100 11 0.0742268
9 18 100 11 0.164779
10 18 100 11 0.230914
11 18 100 11 0.318346
1 19 100 11 0.00269095
2 19 100 11 0.0125667
3 19 100 11 0.00764056
4 19 100 11 0.0109909
5 19 100 11 0.0149243
6 19 100 11 0.0279112
7 19 100 11 0.0408737
8 19 100 11 0.0946782
9 19 100 11 0.162178
10 19 100 11 0.303159
11 19 100 11 0.322386
1 20 100 11 0.00315004
2 20 100 11 0.0121711
3 20 100 11 0.0205312
4 20 100 11 0.0125397
5 20 100 11 0.0195679
6 20 100 11 0.0256742
7 20 100 11 0.028743
8 20 100 11 0.0750099
9 20 100 11 0.101647
10 20 100 11 0.282609
11 20 100 11 0.418357
1 21 100 11 7.83192e-05
2 21 100 11 0.011057
3 21 100 11 0.0104008
4 21 100 11 0.0327924
5 21 100 11 0.0113691
6 21 100 11 0.0189524
7 21 100 11 0.0384377
8 21 100 11 0.0717312
9 21 100 11 0.113485
10 21 100 11 0.278326
11 21 100 11 0.413369
1 22 100 11 0.0111331
2 22 100 11 0.0127158
3 22 100 11 0.0148929
4 22 100 11 0.0375398
5 22 100 11 0.0355552
6 22 100 11 0.0459036
7 22 100 11 0.0292703
8 22 100 11 0.0826994
9 22 100 11 0.0933937
10 22 100 11 0.239407
11 22 100 11 0.397489
1 23 100 11 0.0108532
2 23 100 11 0.0321663
3 23 100 11 0.0170429
4 23 100 11 0.0241372
5 23 100 11 0.0441749
6 23 100 11 0.0330057
7 23 100 11 0.035693
8 23 100 11 0.0893646
9 23 100 11 0.173225
10 23 100 11 0.155875
11 23 100 11 0.384462
1 24 100 11 0.000192083
2 24 100 11 0.00610272
3 24 100 11 0.000499236
4 24 100 11 0.000765619
5 24 100 11 0.0155202
6 24 100 11 0.000161157
7 24 100 11 0.0372366
8 24 100 11 0.0967665
9 24 100 11 0.0933015
10 24 100 11 0.242588
11 24 100 11 0.506867
1 25 100 11 0.036811
2 25 100 11 0.0219218
3 25 100 11 0.00963349
4 25 100 11 0.0223614
5 25 100 11 0.0229945
6 25 100 11 0.00428334
7 25 100 11 0.0861249
8 25 100 11 0.0567028
9 25 100 11 0.0917731
10 25 100 11 0.264832
11 25 100 11 0.382562
1 26 100 11 0.0760463
2 26 100 11 0.0623934
3 26 100 11 0.0543531
4 26 100 11 0.0997983
5 26 100 11 0.0943596
6 26 100 11 0.120148
7 26 100 11 0.0309606
8 26 100 11 0.0412149
9 26 100 11 0.119863
10 26 100 11 0.10744
11 26 100 11 0.193423
1 27 100 11 0.00158589
2 27 100 11 0.0337879
3 27 100 11 0.0370314
4 27 100 11 0.0387631
5 27 100 11 0.00101016
6 27 100 11 0.0665895
7 27 100 11 0.0608024
8 27 100 11 0.113907
9 27 100 11 0.169885
10 27 100 11 0.216
11 27 100 11 0.260637
1 28 100 11 0.00268971
2 28 100 11 0.118164
3 28 100 11 0.0628247
4 28 100 11 0.000636218
5 28 100 11 0.0643211
6 28 100 11 0.0608253
7 28 100 11 0.0179572
8 28 100 11 0.122702
9 28 100 11 0.00708426
10 28 100 11 0.240374
11 28 100 11 0.302421
1 29 100 11 0.000186661
2 29 100 11 0.011076
3 29 100 11 0.000197013
4 29 100 11 0.00150818
5 29 100 11 0.0272118
6 29 100 11 0.00170209
7 29 100 11 0.114093
8 29 100 11 0.000206486
9 29 100 11 0.112017
10 29 100 11 0.112127
11 29 100 11 0.619675
1 30 100 11 0.0373363
2 30 100 11 0.0722102
3 30 100 11 0.0364127
4 30 100 11 0.0829096
5 30 100 11 0.108413
6 30 100 11 0.0838661
7 30 100 11 0.0726593
8 30 100 11 0.131819
9 30 100 11 0.0722202
10 30 100 11 0.124345
11 30 100 11 0.177809
1 31 100 11 0.000216903
2 31 100 11 0.000644608
3 31 100 11 0.00552218
4 31 100 11 1.22269e-05
5 31 100 11 0.00574911
6 31 100 11 0.000292448
7 31 100 11 0.010381
8 31 100 11 0.00140396
9 31 100 11 0.378176
10 31 100 11 3.72052e-05
11 31 100 11 0.597565
1 32 100 11 0.000473605
2 32 100 11 0.000233765
3 32 100 11 0.000167001
4 32 100 11 0.00247321
5 32 100 11 0.0318188
6 32 100 11 0.159013
7 32 100 11 0.260574
8 32 100 11 0.155145
9 32 100 11 0.000132909
10 32 100 11 0.234793
11 32 100 11 0.155176
1 33 100 11 0.124561
2 33 100 11 0.000189813
3 33 100 11 0.126655
4 33 100 11 0.187048
5 33 100 11 0.153698
6 33 100 11 0.000707401
7 33 100 11 0.0981065
8 33 100 11 9.85727e-06
9 33 100 11 0.23357
10 33 100 11 0.0432697
11 33 100 11 0.0321856
1 34 100 11 0.000451569
2 34 100 11 0.0232684
3 34 100 11 0.0795188
4 34 100 11 0.153484
5 34 100 11 0.0832221
6 34 100 11 0.000157719
7 34 100 11 0.0796902
8 34 100 11 0.160008
9 34 100 11 1.22982e-05
10 34 100 11 0.108354
11 34 100 11 0.311833
1 35 100 11 0.00166788
2 35 100 11 0.000863626
3 35 100 11 0.000626151
4 35 100 11 7.93384e-05
5 35 100 11 0.200387
6 35 100 11 0.248677
7 35 100 11 4.16653e-05
8 35 100 11 0.00125978
9 35 100 11 0.00237479
10 35 100 11 0.00122418
11 35 100 11 0.542799
1 36 100 11 0.000129948
2 36 100 11 0.000126382
3 36 100 11 6.01124e-05
4 36 100 11 0.000648943
5 36 100 11 1.91766e-05
6 36 100 11 0.00653447
7 36 100 11 0.128953
8 36 100 11 0.131344
9 36 100 11 0.252628
10 36 100 11 0.131134
11 36 100 11 0.348422
1 37 100 11 0.00208437
2 37 100 11 0.00011017
3 37 100 11 0.00186869
4 37 100 11 0.0819184
5 37 100 11 0.126993
6 37 100 11 0.00761694
7 37 100 11 0.229748
8 37 100 11 3.80454e-05
9 37 100 11 0.278019
10 37 100 11 0.154687
11 37 100 11 0.116916
1 38 100 11 0.00184088
2 38 100 11 1.84197e-05
3 38 100 11 0.000539496
4 38 100 11 0.000155555
5 38 100 11 0.211907
6 38 100 11 0.000557686
7 38 100 11 7.9581e-06
8 38 100 11 0.0847204
9 38 100 11 0.00104938
10 38 100 11 0.021015
11 38 100 11 0.678188
1 39 100 11 0.0121655
2 39 100 11 0.000216989
3 39 100 11 3.23898e-05
4 39 100 11 0.000698107
5 39 100 11 9.4812e-05
6 39 100 11 6.81565e-05
7 39 100 11 2.56972e-05
8 39 100 11 0.431757
9 39 100 11 0.537634
11 39 100 11 0.0173075
1 40 100 11 4.75368e-05
2 40 100 11 9.66443e-05
3 40 100 11 0.187964
4 40 100 11 0.11903
5 40 100 11 1.82453e-05
6 40 100 11 0.151384
7 40 100 11 0.181808
8 40 100 11 6.21534e-05
9 40 100 11 0.176529
10 40 100 11 0.181756
11 40 100 11 0.00130349
1 41 100 11 0.000445048
2 41 100 11 0.119534
3 41 100 11 5.92722e-06
4 41 100 11 0.0786986
5 41 100 11 0.121566
6 41 100 11 0.000100719
7 41 100 11 0.162109
8 41 100 11 0.135674
9 41 100 11 0.135791
10 41 100 11 0.122969
11 41 100 11 0.123106
2 42 100 11 0.000800472
3 42 100 11 0.00820278
4 42 100 11 0.0429077
5 42 100 11 7.72771e-06
6 42 100 11 0.123168
7 42 100 11 0.322764
8 42 100 11 0.000287004
9 42 100 11 0.457514
10 42 100 11 0.00216446
11 42 100 11 0.0421836
1 43 100 11 8.11836e-05
2 43 100 11 4.91331e-06
3 43 100 11 0.908892
4 43 100 11 0.000128344
5 43 100 11 0.0184384
6 43 100 11 0.00781221
7 43 100 11 1.16699e-06
8 43 100 11 0.0452057
9 43 100 11 2.64632e-06
10 43 100 11 0.00765601
11 43 100 11 0.0117771
2 44 100 11 0.00429715
3 44 100 11 0.0166615
4 44 100 11 0.00310561
5 44 100 11 0.0016062
6 44 100 11 0.0044674
8 44 100 11 0.00911575
9 44 100 11 0.000459526
11 44 100 11 0.960287
2 45 100 11 3.33532e-06
3 45 100 11 0.00385021
4 45 100 11 9.71545e-06
6 45 100 11 3.33532e-06
8 45 100 11 9.71545e-06
10 45 100 11 6.80826e-06
11 45 100 11 0.996117
1 46 100 11 0.166619
2 46 100 11 4.06598e-06
3 46 100 11 0.166873
4 46 100 11 2.00819e-06
5 46 100 11 0.166622
6 46 100 11 3.37879e-06
7 46 100 11 0.166617
8 46 100 11 2.14388e-06
9 46 100 11 0.166638
10 46 100 11 0.166615
11 46 100 11 3.32489e-06
2 47 100 11 0.00642187
3 47 100 11 7.08762e-06
4 47 100 11 0.244634
6 47 100 11 0.00642187
8 47 100 11 0.729862
11 47 100 11 0.0126533
2 48 100 11 0.00273736
3 48 100 11 0.00219443
4 48 100 11 0.527701
6 48 100 11 0.00273736
8 48 100 11 0.430012
10 48 100 11 0.000411381
11 48 100 11 0.0342064
2 49 100 11 0.000367516
3 49 100 11 0.000341377
5 49 100 11 0.263081
6 49 100 11 0.000367516
8 49 100 11 0.00809209
11 49 100 11 0.72775
1 50 100 11 0.000531934
2 50 100 11 0.0035101
4 50 100 11 0.00315267
6 50 100 11 0.0035101
8 50 100 11 0.00317167
11 50 100 11 0.986124
2 51 100 11 0.12863
4 51 100 11 0.445216
6 51 100 11 0.12863
8 51 100 11 0.292807
11 51 100 11 0.00471705
3 52 100 11 0.0236792
8 52 100 11 0.0233301
11 52 100 11 0.952991
3 53 100 11 0.00172101
5 53 100 11 0.00636127
11 53 100 11 0.991918
11 54 100 11 1
3 55 100 11 0.0638746
5 55 100 11 0.385036
8 55 100 11 0.551089
1 0 100 12 0.0462921
2 0 100 12 0.0548239
3 0 100 12 0.0867297
4 0 100 12 0.0934952
5 0 100 12 0.0886435
6 0 100 12 0.0959993
7 0 100 12 0.111214
8 0 100 12 0.0952189
9 0 100 12 0.0938566
10 0 100 12 0.100817
11 0 100 12 0.0845669
12 0 100 12 0.0483431
1 1 100 12 0.83481
2 1 100 12 0.0632837
3 1 100 12 0.0302352
4 1 100 12 0.0172178
5 1 100 12 0.00970548
6 1 100 12 0.00557788
7 1 100 12 0.00622324
8 1 100 12 0.010913
9 1 100 12 0.0065923
10 1 100 12 0.00813517
11 1 100 12 0.00277851
12 1 100 12 0.00452812
1 2 100 12 0.149778
2 2 100 12 0.454188
3 2 100 12 0.199405
4 2 100 12 0.0478002
5 2 100 12 0.0545166
6 2 100 12 0.0345154
7 2 100 12 0.0135465
8 2 100 12 0.0108712
9 2 100 12 0.0105758
10 2 100 12 0.00541289
11 2 100 12 0.00879304
12 2 100 12 0.0105971
1 3 100 12 0.136287
2 3 100 12 0.394638
3 3 100 12 0.244979
4 3 100 12 0.0868314
5 3 100 12 0.044787
6 3 100 12 0.0180047
7 3 100 12 0.0173986
8 3 100 12 0.0148651
9 3 100 12 0.0223589
10 3 100 12 0.00899473
11 3 100 12 0.00695051
12 3 100 12 0.00390456
1 4 100 12 0.0659333
2 4 100 12 0.300679
3 4 100 12 0.256918
4 4 100 12 0.163721
5 4 100 12 0.0947557
6 4 100 12 0.0497831
7 4 100 12 0.0174177
8 4 100 12 0.0172145
9 4 100 12 0.0109879
10 4 100 12 0.0128004
11 4 100 12 0.00680163
12 4 100 12 0.00298711
1 5 100 12 0.0317105
2 5 100 12 0.17341
3 5 100 12 0.259041
4 5 100 12 0.238703
5 5 100 12 0.133701
6 5 100 12 0.0745281
7 5 100 12 0.0282773
8 5 100 12 0.0235278
9 5 100 12 0.00756823
10 5 100 12 0.00974098
11 5 100 12 0.0114751
12 5 100 12 0.00831704
1 6 100 12 0.0132066
2 6 100 12 0.0915674
3 6 100 12 0.175093
4 6 100 12 0.269615
5 6 100 12 0.206312
6 6 100 12 0.119912
7 6 100 12 0.0457795
8 6 100 12 0.0208576
9 6 100 12 0.0195827
10 6 100 12 0.0143305
11 6 100 12 0.0190783
12 6 100 12 0.00466602
1 7 100 12 0.0099921
2 7 100 12 0.0587627
3 7 100 12 0.104704
4 7 100 12 0.198608
5 7 100 12 0.255423
6 7 100 12 0.165154
7 7 100 12 0.0911295
8 7 100 12 0.0535125
9 7 100 12 0.0203378
10 7 100 12 0.0158726
11 7 100 12 0.016404
12 7 100 12 0.0100994
1 8 100 12 0.00907588
2 8 100 12 0.0375814
3 8 100 12 0.071992
4 8 100 12 0.193393
5 8 100 12 0.221316
6 8 100 12 0.187346
7 8 100 12 0.138318
8 8 100 12 0.0687537
9 8 100 12 0.0282778
10 8 100 12 0.0222503
11 8 100 12 0.0116523
12 8 100 12 0.0100448
1 9 100 12 0.00606368
2 9 100 12 0.00886315
3 9 100 12 0.0588683
4 9 100 12 0.109257
5 9 100 12 0.166868
6 9 100 12 0.223843
7 9 100 12 0.174857
8 9 100 12 0.106626
9 9 100 12 0.066763
10 9 100 12 0.0275135
11 9 100 12 0.0224536
12 9 100 12 0.0280235
1 10 100 12 0.00613547
2 10 100 12 0.0277773
3 10 100 12 0.02817
4 10 100 12 0.0501278
5 10 100 12 0.120518
6 10 100 12 0.214437
7 10 100 12 0.177664
8 10 100 12 0.144952
9 10 100 12 0.105196
10 10 100 12 0.0644187
11 10 100 12 0.0280618
12 10 100 12 0.0325416
1 11 100 12 0.00299082
2 11 100 12 0.0225906
3 11 100 12 0.0276324
4 11 100 12 0.0517076
5 11 100 12 0.0850484
6 11 100 12 0.160053
7 11 100 12 0.186825
8 11 100 12 0.178499
9 11 100 12 0.12186
10 11 100 12 0.0809264
11 11 100 12 0.0460601
12 11 100 12 0.0358073
1 12 100 12 0.00161781
2 12 100 12 0.0107058
3 12 100 12 0.0210041
4 12 100 12 0.0309105
5 12 100 12 0.0721773
6 12 100 12 0.114275
7 12 100 12 0.149285
8 12 100 12 0.197174
9 12 100 12 0.14297
10 12 100 12 0.121525
11 12 100 12 0.0715227
12 12 100 12 0.0668333
1 13 100 12 0.00725134
2 13 100 12 0.0219186
3 13 100 12 0.0246465
4 13 100 12 0.0210982
5 13 100 12 0.0585382
6 13 100 12 0.085363
7 13 100 12 0.126661
8 13 100 12 0.165436
9 13 100 12 0.172639
10 13 100 12 0.113141
11 13 100 12 0.105216
12 13 100 12 0.0980914
1 14 100 12 0.000720647
2 14 100 12 0.0146187
3 14 100 12 0.00655644
4 14 100 12 0.0168398
5 14 100 12 0.0266291
6 14 100 12 0.0444433
7 14 100 12 0.143624
8 14 100 12 0.165121
9 14 100 12 0.159797
10 14 100 12 0.149166
11 14 100 12 0.112952
12 14 100 12 0.159532
1 15 100 12 0.00906512
2 15 100 12 0.0109969
3 15 100 12 0.0116561
4 15 100 12 0.0218423
5 15 100 12 0.015768
6 15 100 12 0.0490452
7 15 100 12 0.0689288
8 15 100 12 0.144143
9 15 100 12 0.183884
10 15 100 12 0.212841
11 15 100 12 0.154369
12 15 100 12 0.11746
1 16 100 12 0.00185106
2 16 100 12 0.0114006
3 16 100 12 0.0112798
4 16 100 12 0.0158426
5 16 100 12 0.0191976
6 16 100 12 0.0299211
7 16 100 12 0.0862566
8 16 100 12 0.108555
9 16 100 12 0.15571
10 16 100 12 0.168071
11 16 100 12 0.19331
12 16 100 12 0.198604
1 17 100 12 0.0124451
2 17 100 12 0.0196573
3 17 100 12 0.00847711
4 17 100 12 0.0134268
5 17 100 12 0.0260865
6 17 100 12 0.0370787
7 17 100 12 0.0394039
8 17 100 12 0.113252
9 17 100 12 0.136802
10 17 100 12 0.154725
11 17 100 12 0.209917
12 17 100 12 0.228729
1 18 100 12 0.00257718
2 18 100 12 0.0064125
3 18 100 12 0.0035866
4 18 100 12 0.00364959
5 18 100 12 0.00835657
6 18 100 12 0.0174812
7 18 100 12 0.0585626
8 18 100 12 0.0792468
9 18 100 12 0.131687
10 18 100 12 0.191011
11 18 100 12 0.223229
12 18 100 12 0.274199
1 19 100 12 0.00841932
2 19 100 12 0.00794233
3 19 100 12 0.0118813
4 19 100 12 0.0153576
5 19 100 12 0.0261523
6 19 100 12 0.0228671
7 19 100 12 0.0219178
8 19 100 12 0.0557431
9 19 100 12 0.139365
10 19 100 12 0.197177
11 19 100 12 0.222829
12 19 100 12 0.270349
1 20 100 12 0.00987774
2 20 100 12 0.0084027
3 20 100 12 0.0133466
4 20 100 12 0.0201113
5 20 100 12 0.017616
6 20 100 12 0.0254411
7 20 100 12 0.0151061
8 20 100 12 0.052764
9 20 100 12 0.127709
10 20 100 12 0.148515
11 20 100 12 0.273036
12 20 100 12 0.288075
1 21 100 12 0.0119525
2 21 100 12 0.0122306
3 21 100 12 0.0140308
4 21 100 12 0.0255461
5 21 100 12 0.0344825
6 21 100 12 0.0208339
7 21 100 12 0.0364409
8 21 100 12 0.0444671
9 21 100 12 0.105905
10 21 100 12 0.152254
11 21 100 12 0.244868
12 21 100 12 0.296989
1 22 100 12 0.00481981
2 22 100 12 0.0134184
3 22 100 12 0.0017425
4 22 100 12 0.00539073
5 22 100 12 0.00981201
6 22 100 12 0.0183644
7 22 100 12 0.0225062
8 22 100 12 0.0282889
9 22 100 12 0.0751705
10 22 100 12 0.135989
11 22 100 12 0.304837
12 22 100 12 0.37966
1 23 100 12 0.015332
2 23 100 12 0.011031
3 23 100 12 0.0144294
4 23 100 12 0.0147882
5 23 100 12 0.0246964
6 23 100 12 0.0162383
7 23 100 12 0.0359704
8 23 100 12 0.034413
9 23 100 12 0.0928911
10 23 100 12 0.13709
11 23 100 12 0.220902
12 23 100 12 0.382218
1 24 100 12 0.000155874
2 24 100 12 0.0349526
3 24 100 12 0.0422563
4 24 100 12 0.0475395
5 24 100 12 0.0099432
6 24 100 12 0.0319599
7 24 100 12 0.0619894
8 24 100 12 0.0720297
9 24 100 12 0.0719959
10 24 100 12 0.0728074
11 24 100 12 0.169236
12 24 100 12 0.385135
1 25 100 12 0.00809001
2 25 100 12 0.000339734
3 25 100 12 0.0207732
4 25 100 12 0.0355879
5 25 100 12 0.0331009
6 25 100 12 0.011535
7 25 100 12 0.05127
8 25 100 12 0.0498349
9 25 100 12 0.0919409
10 25 100 12 0.0883124
11 25 100 12 0.194749
12 25 100 12 0.414467
1 26 100 12 0.000228435
2 26 100 12 0.0195131
3 26 100 12 0.0456349
4 26 100 12 0.0276283
5 26 100 12 0.00663305
6 26 100 12 0.0385608
7 26 100 12 0.068959
8 26 100 12 0.0538588
9 26 100 12 0.086861
10 26 100 12 0.117259
11 26 100 12 0.116985
12 26 100 12 0.417878
1 27 100 12 3.22303e-05
2 27 100 12 0.0683065
3 27 100 12 0.0460514
4 27 100 12 0.0245371
5 27 100 12 0.0475579
6 27 100 12 0.0558155
7 27 100 12 0.0282446
8 27 100 12 0.0763393
9 27 100 12 0.0882031
10 27 100 12 0.103034
11 27 100 12 0.16214
12 27 100 12 0.299738
1 28 100 12 0.02968
2 28 100 12 0.0503067
3 28 100 12 0.0574353
4 28 100 12 0.0674395
5 28 100 12 0.0581522
6 28 100 12 0.029117
7 28 100 12 0.0294237
8 28 100 12 0.0417215
9 28 100 12 0.0863292
10 28 100 12 0.115095
11 28 100 12 0.248117
12 28 100 12 0.187183
1 29 100 12 3.50109e-05
2 29 100 12 0.0364973
3 29 100 12 0.0539998
4 29 100 12 0.00375413
5 29 100 12 0.0739862
6 29 100 12 0.0268687
7 29 100 12 0.0521188
8 29 100 12 0.0912274
9 29 100 12 0.0335675
10 29 100 12 0.110479
11 29 100 12 0.228525
12 29 100 12 0.288941
1 30 100 12 0.000145588
2 30 100 12 0.000773828
3 30 100 12 0.000573738
4 30 100 12 0.0632203
5 30 100 12 0.0891017
6 30 100 12 0.00708815
7 30 100 12 0.11289
8 30 100 12 0.000114763
9 30 100 12 0.17102
10 30 100 12 0.167368
11 30 100 12 0.0959545
12 30 100 12 0.291749
1 31 100 12 0.0110012
2 31 100 12 7.38968e-05
3 31 100 12 0.0757122
4 31 100 12 1.57007e-05
5 31 100 12 1.25958e-05
6 31 100 12 0.00452955
7 31 100 12 0.000445933
8 31 100 12 0.0762638
9 31 100 12 0.083969
10 31 100 12 0.0775822
11 31 100 12 0.152198
12 31 100 12 0.518196
1 32 100 12 0.0218585
2 32 100 12 2.28553e-05
3 32 100 12 0.00704612
4 32 100 12 0.0075858
5 32 100 12 0.000447243
6 32 100 12 0.206528
7 32 100 12 0.0173903
8 32 100 12 0.132039
9 32 100 12 0.188602
10 32 100 12 0.102168
11 32 100 12 0.142157
12 32 100 12 0.174155
1 33 100 12 0.000360977
2 33 100 12 2.1078e-06
3 33 100 12 0.00242859
4 33 100 12 0.00534875
5 33 100 12 0.000300177
6 33 100 12 0.00189535
7 33 100 12 0.00569055
8 33 100 12 0.222709
9 33 100 12 0.0955583
10 33 100 12 0.185907
11 33 100 12 0.107518
12 33 100 12 0.372281
1 34 100 12 0.0509958
2 34 100 12 0.176856
3 34 100 12 0.000779097
4 34 100 12 0.0170335
5 34 100 12 0.0183711
6 34 100 12 0.000181548
7 34 100 12 0.0913676
8 34 100 12 0.103145
9 34 100 12 0.0205475
10 34 100 12 0.0106286
11 34 100 12 0.299759
12 34 100 12 0.210336
1 35 100 12 0.203061
2 35 100 12 0.000150794
3 35 100 12 0.491223
4 35 100 12 0.000185875
5 35 100 12 0.000723417
6 35 100 12 0.0109468
7 35 100 12 0.220494
8 35 100 12 0.0233972
9 35 100 12 0.000731911
10 35 100 12 0.00237716
11 35 100 12 0.044359
12 35 100 12 0.00234957
1 36 100 12 0.000935258
2 36 100 12 6.10252e-05
3 36 100 12 8.4819e-05
4 36 100 12 0.00163941
5 36 100 12 0.0159443
6 36 100 12 0.000413395
7 36 100 12 0.205169
8 36 100 12 0.000181973
9 36 100 12 0.669197
10 36 100 12 0.000424733
11 36 100 12 0.105709
12 36 100 12 0.000240282
1 37 100 12 0.0610651
2 37 100 12 0.106931
3 37 100 12 0.117823
4 37 100 12 4.66864e-05
5 37 100 12 0.118717
6 37 100 12 0.120514
7 37 100 12 0.0749258
8 37 100 12 0.0771112
9 37 100 12 0.0974369
10 37 100 12 0.121052
11 37 100 12 0.000765794
12 37 100 12 0.103611
1 38 100 12 5.33577e-05
2 38 100 12 2.42307e-05
3 38 100 12 1.71177e-05
4 38 100 12 0.165335
5 38 100 12 6.18889e-05
6 38 100 12 0.169494
7 38 100 12 0.00811817
8 38 100 12 0.00265348
9 38 100 12 0.296047
10 38 100 12 0.178923
11 38 100 12 0.160082
12 38 100 12 0.0191916
1 39 100 12 0.000394667
2 39 100 12 1.68951e-05
3 39 100 12 0.000216119
4 39 100 12 3.53675e-05
5 39 100 12 0.00170905
6 39 100 12 0.00212632
7 39 100 12 0.00207272
8 39 100 12 0.0188412
9 39 100 12 0.000461404
10 39 100 12 0.0947254
11 39 100 12 0.0022179
12 39 100 12 0.877183
1 40 100 12 0.000516142
2 40 100 12 0.0517344
3 40 100 12 2.82395e-05
4 40 100 12 0.655687
5 40 100 12 0.0059844
7 40 100 12 0.00342585
8 40 100 12 0.0250698
9 40 100 12 0.217065
10 40 100 12 0.00604934
11 40 100 12 0.00345314
12 40 100 12 0.0309874
1 41 100 12 0.155613
2 41 100 12 0.15435
3 41 100 12 0.154874
4 41 100 12 0.0208161
5 41 100 12 3.62433e-06
6 41 100 12 0.154469
7 41 100 12 0.000517774
8 41 100 12 0.155548
9 41 100 12 0.0182413
10 41 100 12 5.6738e-06
11 41 100 12 0.161715
12 41 100 12 0.0238471
1 42 100 12 5.06053e-05
2 42 100 12 0.0941859
3 42 100 12 0.00195049
4 42 100 12 0.0941754
5 42 100 12 0.0949357
6 42 100 12 0.133332
7 42 100 12 0.000170341
8 42 100 12 0.0941482
9 42 100 12 0.000294779
10 42 100 12 0.0948688
11 42 100 12 0.282255
12 42 100 12 0.109633
1 43 100 12 0.0535467
2 43 100 12 4.69865e-06
3 43 100 12 0.00211774
4 43 100 12 0.000132264
5 43 100 12 0.0243191
6 43 100 12 7.49437e-06
7 43 100 12 0.400088
8 43 100 12 6.54538e-05
9 43 100 12 0.00622632
10 43 100 12 0.000539647
11 43 100 12 5.05577e-06
12 43 100 12 0.512948
1 44 100 12 6.3723e-06
2 44 100 12 4.01974e-05
3 44 100 12 2.79989e-05
4 44 100 12 7.96415e-06
5 44 100 12 6.8914e-05
6 44 100 12 0.0449579
7 44 100 12 0.000108978
8 44 100 12 0.000225292
9 44 100 12 9.89896e-05
10 44 100 12 0.000285005
11 44 100 12 0.000631215
12 44 100 12 0.953541
1 45 100 12 0.00126753
2 45 100 12 2.63939e-05
3 45 100 12 0.00258554
4 45 100 12 3.87126e-05
5 45 100 12 0.00208438
6 45 100 12 0.000187486
7 45 100 12 0.948272
8 45 100 12 0.00242073
9 45 100 12 0.0272892
10 45 100 12 0.0149818
11 45 100 12 0.000329255
12 45 100 12 0.000517118
2 46 100 12 0.000281436
3 46 100 12 9.49854e-05
4 46 100 12 0.0100276
5 46 100 12 6.49176e-05
7 46 100 12 0.0104819
8 46 100 12 0.01316
9 46 100 12 0.0197084
10 46 100 12 0.00151611
11 46 100 12 0.0105184
12 46 100 12 0.934146
1 47 100 12 0.000119122
2 47 100 12 0.000374969
3 47 100 12 0.000105149
4 47 100 12 0.000320641
5 47 100 12 0.000630635
6 47 100 12 0.000272848
7 47 100 12 0.000430117
8 47 100 12 0.860858
9 47 100 12 0.120961
10 47 100 12 0.00969393
11 47 100 12 0.000282724
12 47 100 12 0.00595106
1 48 100 12 0.000430332
3 48 100 12 0.000253338
6 48 100 12 0.378979
7 48 100 12 0.00119803
8 48 100 12 0.00297513
9 48 100 12 0.614227
10 48 100 12 0.000548273
12 48 100 12 0.00138953
3 49 100 12 0.379749
4 49 100 12 0.0113044
6 49 100 12 0.00743119
7 49 100 12 0.0856237
8 49 100 12 0.000950813
9 49 100 12 0.00874167
10 49 100 12 0.161657
12 49 100 12 0.344542
4 50 100 12 1.63873e-06
5 50 100 12 6.8948e-06
7 50 100 12 2.0144e-06
8 50 100 12 0.000454402
9 50 100 12 0.00227798
10 50 100 12 7.10084e-05
11 50 100 12 0.668036
12 50 100 12 0.32915
1 51 100 12 0.00857279
2 51 100 12 0.000747928
4 51 100 12 0.847228
6 51 100 12 0.00772009
7 51 100 12 0.0942317
8 51 100 12 0.0306902
9 51 100 12 0.000670442
10 51 100 12 0.00954248
12 51 100 12 0.000596367
1 52 100 12 7.86648e-05
3 52 100 12 0.000129714
4 52 100 12 5.17939e-05
5 52 100 12 1.78328e-06
7 52 100 12 0.000303547
8 52 100 12 0.000684197
9 52 100 12 0.9972
10 52 100 12 4.12721e-06
12 52 100 12 0.00154667
1 53 100 12 1.22767e-05
7 53 100 12 9.08182e-06
10 53 100 12 0.331354
11 53 100 12 0.334423
12 53 100 12 0.334202
2 54 100 12 3.40759e-06
4 54 100 12 2.70348e-05
5 54 100 12 5.36662e-06
7 54 100 12 0.954774
8 54 100 12 0.0290203
9 54 100 12 0.0160681
12 54 100 12 0.000102223
1 55 100 12 0.000281593
3 55 100 12 8.07727e-05
4 55 100 12 0.0741067
7 55 100 12 0.000541417
9 55 100 12 0.366622
12 55 100 12 0.558367
4 56 100 12 0.051727
5 56 100 12 0.0811609
7 56 100 12 0.307064
9 56 100 12 0.159605
10 56 100 12 0.0814542
12 56 100 12 0.318988
1 57 100 12 0.0109129
7 57 100 12 0.889575
10 57 100 12 0.065649
12 57 100 12 0.0338629
1 0 100 13 0.0461148
2 0 100 13 0.0520195
3 0 100 13 0.0722755
4 0 100 13 0.0785583
5 0 100 13 0.0829337
6 0 100 13 0.07961
7 0 100 13 0.0929371
8 0 100 13 0.0947811
9 0 100 13 0.088685
10 0 100 13 0.0923378
11 0 100 13 0.090538
12 0 100 13 0.0843582
13 0 100 13 0.044851
1 1 100 13 0.824522
2 1 100 13 0.0557606
3 1 100 13 0.0252603
4 1 100 13 0.016719
5 1 100 13 0.0181239
6 1 100 13 0.00651281
7 1 100 13 0.00910151
8 1 100 13 0.00630358
9 1 100 13 0.0105064
10 1 100 13 0.010257
11 1 100 13 0.0045515
12 1 100 13 0.00706751
13 1 100 13 0.00531345
1 2 100 13 0.143045
2 2 100 13 0.452239
3 2 100 13 0.283215
4 2 100 13 0.058201
5 2 100 13 0.033857
6 2 100 13 0.00731754
7 2 100 13 0.0129752
8 2 100 13 0.00502994
9 2 100 13 0.000326695
10 2 100 13 0.00189499
11 2 100 13 0.00175005
12 2 100 13 2.641e-05
13 2 100 13 0.000122238
1 3 100 13 0.096505
2 3 100 13 0.419878
3 3 100 13 0.25176
4 3 100 13 0.100775
5 3 100 13 0.0416886
6 3 100 13 0.0295294
7 3 100 13 0.0104106
8 3 100 13 0.0116351
9 3 100 13 0.0151317
10 3 100 13 0.00395308
11 3 100 13 0.00760999
12 3 100 13 0.00512806
13 3 100 13 0.00599585
1 4 100 13 0.0506755
2 4 100 13 0.278566
3 4 100 13 0.292375
4 4 100 13 0.20981
5 4 100 13 0.0737987
6 4 100 13 0.0460221
7 4 100 13 0.0135636
8 4 100 13 0.0124272
9 4 100 13 0.0105493
10 4 100 13 0.00296611
11 4 100 13 0.00337226
12 4 100 13 0.00442067
13 4 100 13 0.00145326
1 5 100 13 0.0282942
2 5 100 13 0.163749
3 5 100 13 0.235592
4 5 100 13 0.294191
5 5 100 13 0.144978
6 5 100 13 0.0610447
7 5 100 13 0.0314661
8 5 100 13 0.0145545
9 5 100 13 0.0031219
10 5 100 13 0.00520979
11 5 100 13 0.00626448
12 5 100 13 0.00617194
13 5 100 13 0.00536257
1 6 100 13 0.0184358
2 6 100 13 0.0936038
3 6 100 13 0.178853
4 6 100 13 0.2299
5 6 100 13 0.249386
6 6 100 13 0.125347
7 6 100 13 0.0419591
8 6 100 13 0.0307685
9 6 100 13 0.0105634
10 6 100 13 0.0133017
11 6 100 13 0.00617869
12 6 100 13 0.00159215
13 6 100 13 0.000110419
1 7 100 13 0.0194088
2 7 100 13 0.054973
3 7 100 13 0.0964967
4 7 100 13 0.206796
5 7 100 13 0.236653
6 7 100 13 0.159433
7 7 100 13 0.084012
8 7 100 13 0.0573997
9 7 100 13 0.0369536
10 7 100 13 0.0195143
11 7 100 13 0.0179282
12 7 100 13 0.0073476
13 7 100 13 0.00308426
1 8 100 13 0.0101786
2 8 100 13 0.0261251
3 8 100 13 0.0611399
4 8 100 13 0.129039
5 8 100 13 0.205095
6 8 100 13 0.245521
7 8 100 13 0.151204
8 8 100 13 0.0888752
9 8 100 13 0.0389828
10 8 100 13 0.0218829
11 8 100 13 0.00688119
12 8 100 13 0.00696018
13 8 100 13 0.00811554
1 9 100 13 0.00581552
2 9 100 13 0.0320163
3 9 100 13 0.0484571
4 9 100 13 0.101929
5 9 100 13 0.17124
6 9 100 13 0.192012
7 9 100 13 0.175715
8 9 100 13 0.110525
9 9 100 13 0.0708904
10 9 100 13 0.0478034
11 9 100 13 0.0158276
12 9 100 13 0.0118336
13 9 100 13 0.0159347
1 10 100 13 0.00239509
2 10 100 13 0.0197322
3 10 100 13 0.024
4 10 100 13 0.0435986
5 10 100 13 0.142199
6 10 100 13 0.203612
7 10 100 13 0.205464
8 10 100 13 0.151972
9 10 100 13 0.0828454
10 10 100 13 0.059716
11 10 100 13 0.0312748
12 10 100 13 0.0144122
13 10 100 13 0.0187786
1 11 100 13 0.00160053
2 11 100 13 0.0210256
3 11 100 13 0.019167
4 11 100 13 0.0467056
5 11 100 13 0.0792466
6 11 100 13 0.178537
7 11 100 13 0.189134
8 11 100 13 0.159818
9 11 100 13 0.124621
10 11 100 13 0.0762304
11 11 100 13 0.0467488
12 11 100 13 0.0292969
13 11 100 13 0.0278687
1 12 100 13 0.00170864
2 12 100 13 0.00855563
3 12 100 13 0.0162572
4 12 100 13 0.0368596
5 12 100 13 0.0570842
6 12 100 13 0.122918
7 12 100 13 0.171932
8 12 100 13 0.175915
9 12 100 13 0.155638
10 12 100 13 0.104027
11 12 100 13 0.0685961
12 12 100 13 0.0448539
13 12 100 13 0.0356539
1 13 100 13 0.00344473
2 13 100 13 0.00811816
3 13 100 13 0.0182219
4 13 100 13 0.0292859
5 13 100 13 0.0347862
6 13 100 13 0.065378
7 13 100 13 0.123039
8 13 100 13 0.187261
9 13 100 13 0.176623
10 13 100 13 0.15769
11 13 100 13 0.0728706
12 13 100 13 0.0646992
13 13 100 13 0.0585818
1 14 100 13 0.00189895
2 14 100 13 0.00782591
3 14 100 13 0.00813524
4 14 100 13 0.0178051
5 14 100 13 0.0237529
6 14 100 13 0.0567064
7 14 100 13 0.10402
8 14 100 13 0.152956
9 14 100 13 0.195598
10 14 100 13 0.129852
11 14 100 13 0.142347
12 14 100 13 0.0960485
13 14 100 13 0.0630531
1 15 100 13 0.00143399
2 15 100 13 0.00388552
3 15 100 13 0.00288168
4 15 100 13 0.00302267
5 15 100 13 0.0163546
6 15 100 13 0.0389677
7 15 100 13 0.0950454
8 15 100 13 0.120927
9 15 100 13 0.15328
10 15 100 13 0.177291
11 15 100 13 0.163457
12 15 100 13 0.116829
13 15 100 13 0.106624
1 16 100 13 0.00781929
2 16 100 13 0.0108088
3 16 100 13 0.00902378
4 16 100 13 0.0153608
5 16 100 13 0.0196362
6 16 100 13 0.0304495
7 16 100 13 0.0633367
8 16 100 13 0.0993527
9 16 100 13 0.139712
10 16 100 13 0.184459
11 16 100 13 0.144936
12 16 100 13 0.151342
13 16 100 13 0.123763
1 17 100 13 0.00198395
2 17 100 13 0.00544598
3 17 100 13 0.00790145
4 17 100 13 0.0144044
5 17 100 13 0.016469
6 17 100 13 0.0239657
7 17 100 13 0.0330732
8 17 100 13 0.0744054
9 17 100 13 0.131014
10 17 100 13 0.16828
11 17 100 13 0.18643
12 17 100 13 0.144156
13 17 100 13 0.192471
1 18 100 13 0.00164744
2 18 100 13 0.0107801
3 18 100 13 0.0114228
4 18 100 13 0.0175931
5 18 100 13 0.0152502
6 18 100 13 0.0282529
7 18 100 13 0.0435845
8 18 100 13 0.0523778
9 18 100 13 0.105603
10 18 100 13 0.117426
11 18 100 13 0.175541
12 18 100 13 0.201313
13 18 100 13 0.219207
1 19 100 13 0.00370859
2 19 100 13 0.0153401
3 19 100 13 0.0171454
4 19 100 13 0.0136889
5 19 100 13 0.00572737
6 19 100 13 0.0177763
7 19 100 13 0.0256743
8 19 100 13 0.0551765
9 19 100 13 0.0729477
10 19 100 13 0.156236
11 19 100 13 0.160439
12 19 100 13 0.203228
13 19 100 13 0.252913
1 20 100 13 0.00101824
2 20 100 13 0.00804448
3 20 100 13 0.00810815
4 20 100 13 0.00346106
5 20 100 13 0.0139127
6 20 100 13 0.0185543
7 20 100 13 0.027624
8 20 100 13 0.0373801
9 20 100 13 0.0928701
10 20 100 13 0.12108
11 20 100 13 0.18208
12 20 100 13 0.219037
13 20 100 13 0.26683
1 21 100 13 0.00439824
2 21 100 13 0.0134135
3 21 100 13 0.0103215
4 21 100 13 0.00349719
5 21 100 13 0.00846703
6 21 100 13 0.00715431
7 21 100 13 0.0111102
8 21 100 13 0.0387466
9 21 100 13 0.0676332
10 21 100 13 0.0843181
11 21 100 13 0.158729
12 21 100 13 0.27825
13 21 100 13 0.31396
1 22 100 13 7.5928e-05
2 22 100 13 0.0148815
3 22 100 13 0.0167513
4 22 100 13 0.0165735
5 22 100 13 0.0125316
6 22 100 13 0.0160643
7 22 100 13 0.0292689
8 22 100 13 0.0228772
9 22 100 13 0.0554296
10 22 100 13 0.075138
11 22 100 13 0.185713
12 22 100 13 0.24447
13 22 100 13 0.310226
1 23 100 13 0.00709243
2 23 100 13 0.0274953
3 23 100 13 0.0115927
4 23 100 13 0.013619
5 23 100 13 0.0286874
6 23 100 13 0.036616
7 23 100 13 0.023158
8 23 100 13 0.0400432
9 23 100 13 0.0392777
10 23 100 13 0.101593
11 23 100 13 0.154741
12 23 100 13 0.219058
13 23 100 13 0.297027
1 24 100 13 0.0134805
2 24 100 13 0.0264542
3 24 100 13 0.0203961
4 24 100 13 0.031841
5 24 100 13 0.0341766
6 24 100 13 0.0118706
7 24 100 13 0.0320959
8 24 100 13 0.0308328
9 24 100 13 0.0638839
10 24 100 13 0.0724478
11 24 100 13 0.150337
12 24 100 13 0.147372
13 24 100 13 0.364811
1 25 100 13 0.0103917
2 25 100 13 0.0171559
3 25 100 13 0.0141548
4 25 100 13 0.0360452
5 25 100 13 0.0107951
6 25 100 13 0.0243604
7 25 100 13 0.024474
8 25 100 13 0.0354368
9 25 100 13 0.0585149
10 25 100 13 0.0991098
11 25 100 13 0.140422
12 25 100 13 0.205722
13 25 100 13 0.323417
1 26 100 13 0.010759
2 26 100 13 0.0218905
3 26 100 13 0.0173461
4 26 100 13 0.019203
5 26 100 13 0.0119379
6 26 100 13 0.0010852
7 26 100 13 0.0119668
8 26 100 13 0.0228364
9 26 100 13 0.0161146
10 26 100 13 0.050276
11 26 100 13 0.146149
12 26 100 13 0.3321
13 26 100 13 0.338336
1 27 100 13 0.00120903
2 27 100 13 0.0192866
3 27 100 13 0.0145749
4 27 100 13 0.0228014
5 27 100 13 0.00480346
6 27 100 13 0.00294117
7 27 100 13 0.00297362
8 27 100 13 0.0344812
9 27 100 13 0.0428944
10 27 100 13 0.0637022
11 27 100 13 0.091168
12 27 100 13 0.313649
13 27 100 13 0.385515
1 28 100 13 3.49461e-05
2 28 100 13 0.00549149
3 28 100 13 0.000339619
4 28 100 13 0.0158525
5 28 100 13 0.0471985
6 28 100 13 0.0281266
7 28 100 13 0.0336524
8 28 100 13 0.0653389
9 28 100 13 0.0700437
10 28 100 13 0.099044
11 28 100 13 0.148711
12 28 100 13 0.134824
13 28 100 13 0.351342
1 29 100 13 3.36279e-05
2 29 100 13 0.000245548
3 29 100 13 0.0217866
4 29 100 13 0.0391408
5 29 100 13 0.00443943
6 29 100 13 0.0279617
7 29 100 13 0.037651
8 29 100 13 0.0444025
9 29 100 13 0.0497676
10 29 100 13 0.109476
11 29 100 13 0.124668
12 29 100 13 0.17274
13 29 100 13 0.367687
1 30 100 13 0.0664826
2 30 100 13 0.00269207
3 30 100 13 0.10676
4 30 100 13 7.86053e-05
5 30 100 13 0.0641682
6 30 100 13 0.0943237
7 30 100 13 0.103621
8 30 100 13 0.0315831
9 30 100 13 0.0325257
10 30 100 13 0.0901995
11 30 100 13 0.0679855
12 30 100 13 0.127901
13 30 100 13 0.21168
1 31 100 13 6.17965e-06
2 31 100 13 0.000165921
3 31 100 13 1.71049e-05
4 31 100 13 0.000277389
5 31 100 13 0.000337571
6 31 100 13 0.000644815
7 31 100 13 0.000479738
8 31 100 13 0.079491
9 31 100 13 0.0791636
10 31 100 13 0.024982
11 31 100 13 0.229513
12 31 100 13 0.10472
13 31 100 13 0.480202
1 32 100 13 0.000283988
2 32 100 13 0.0685435
3 32 100 13 0.0825733
4 32 100 13 0.13481
5 32 100 13 0.0433441
6 32 100 13 0.106639
7 32 100 13 0.000137068
8 32 100 13 0.000171787
9 32 100 13 0.0887222
10 32 100 13 0.0842849
11 32 100 13 0.0141956
12 32 100 13 0.150707
13 32 100 13 0.225587
1 33 100 13 0.000163529
2 33 100 13 0.000756192
3 33 100 13 0.00302617
4 33 100 13 0.00122293
5 33 100 13 0.233866
6 33 100 13 0.00048732
7 33 100 13 0.00595436
8 33 100 13 0.0236568
9 33 100 13 0.0638051
10 33 100 13 0.000757164
11 33 100 13 0.00150756
12 33 100 13 0.201285
13 33 100 13 0.463513
1 34 100 13 7.11906e-05
2 34 100 13 0.000198711
3 34 100 13 0.000191828
4 34 100 13 0.0023317
5 34 100 13 0.133175
6 34 100 13 0.173745
7 34 100 13 0.00053162
8 34 100 13 0.000553753
9 34 100 13 0.000222166
10 34 100 13 0.00103773
11 34 100 13 0.00340957
12 34 100 13 0.340868
13 34 100 13 0.343663
1 35 100 13 0.000674543
2 35 100 13 0.000412742
3 35 100 13 7.08186e-06
4 35 100 13 0.000279999
5 35 100 13 0.263983
6 35 100 13 9.0338e-05
7 35 100 13 0.00233694
8 35 100 13 2.3842e-05
9 35 100 13 0.00012762
10 35 100 13 7.21959e-05
11 35 100 13 0.426622
12 35 100 13 0.268344
13 35 100 13 0.037025
1 36 100 13 0.000198309
2 36 100 13 0.103344
3 36 100 13 0.103153
4 36 100 13 0.10305
5 36 100 13 0.103271
6 36 100 13 0.103229
7 36 100 13 0.00425989
8 36 100 13 7.47103e-05
9 36 100 13 0.104493
10 36 100 13 5.24993e-05
11 36 100 13 0.103025
12 36 100 13 0.16883
13 36 100 13 0.103021
1 37 100 13 0.000947896
2 37 100 13 0.00097225
3 37 100 13 0.0980259
4 37 100 13 0.061184
5 37 100 13 0.00893475
6 37 100 13 0.113135
7 37 100 13 0.186518
8 37 100 13 0.169627
9 37 100 13 1.08272e-05
10 37 100 13 0.169636
11 37 100 13 0.0720275
12 37 100 13 0.0226036
13 37 100 13 0.096378
1 38 100 13 0.00122022
2 38 100 13 3.25377e-06
3 38 100 13 4.26036e-05
4 38 100 13 0.00019926
5 38 100 13 0.184932
6 38 100 13 0.0569869
7 38 100 13 0.124375
8 38 100 13 0.000470912
9 38 100 13 0.00143098
10 38 100 13 7.34408e-05
11 38 100 13 0.0931199
12 38 100 13 0.120443
13 38 100 13 0.416703
1 39 100 13 0.0681533
2 39 100 13 0.000344908
3 39 100 13 0.000415173
4 39 100 13 0.000554056
5 39 100 13 0.653178
6 39 100 13 0.00758674
7 39 100 13 0.00961342
8 39 100 13 7.64585e-05
9 39 100 13 0.0190658
10 39 100 13 0.00019676
11 39 100 13 0.000574344
12 39 100 13 0.240241
1 40 100 13 0.000925565
2 40 100 13 8.27687e-05
3 40 100 13 0.00499059
4 40 100 13 0.000121119
5 40 100 13 0.206896
6 40 100 13 0.000248928
7 40 100 13 0.000884079
8 40 100 13 0.000887017
9 40 100 13 0.000107368
10 40 100 13 0.763783
11 40 100 13 0.00115772
12 40 100 13 0.0198702
13 40 100 13 4.56291e-05
1 41 100 13 0.000862682
2 41 100 13 5.01105e-05
3 41 100 13 4.77862e-06
4 41 100 13 0.000160431
5 41 100 13 0.00103567
7 41 100 13 0.00318394
8 41 100 13 2.51329e-05
9 41 100 13 0.0627897
10 41 100 13 0.00018496
11 41 100 13 0.000175588
12 41 100 13 0.00111472
13 41 100 13 0.930412
1 42 100 13 0.00018626
2 42 100 13 0.000272986
3 42 100 13 8.47412e-05
4 42 100 13 0.847385
5 42 100 13 0.140882
6 42 100 13 2.43524e-05
7 42 100 13 5.57529e-05
8 42 100 13 0.000434305
9 42 100 13 0.000141148
10 42 100 13 0.00016299
11 42 100 13 0.00904147
12 42 100 13 0.0013299
1 43 100 13 1.35358e-05
2 43 100 13 0.0735347
3 43 100 13 4.38344e-07
4 43 100 13 0.0790524
5 43 100 13 0.00069921
6 43 100 13 0.116626
7 43 100 13 0.118483
8 43 100 13 0.126246
9 43 100 13 0.124307
10 43 100 13 0.120851
11 43 100 13 0.119052
12 43 100 13 0.00203694
13 43 100 13 0.119098
1 44 100 13 0.000514298
2 44 100 13 0.00622462
3 44 100 13 0.033676
4 44 100 13 3.88712e-05
5 44 100 13 0.00185647
6 44 100 13 0.000262719
7 44 100 13 0.00109916
8 44 100 13 0.00976108
9 44 100 13 0.00108652
10 44 100 13 6.45927e-06
11 44 100 13 0.79749
12 44 100 13 0.0653591
13 44 100 13 0.0826246
1 45 100 13 5.13381e-06
2 45 100 13 0.000298052
3 45 100 13 0.000569344
4 45 100 13 0.00160524
5 45 100 13 0.000120151
6 45 100 13 0.203918
7 45 100 13 0.00137078
8 45 100 13 0.391064
9 45 100 13 0.351285
10 45 100 13 0.0302673
11 45 100 13 0.00531084
12 45 100 13 0.014174
13 45 100 13 1.17272e-05
1 46 100 13 0.000227997
2 46 100 13 1.49871e-05
3 46 100 13 0.00115155
4 46 100 13 0.00644896
5 46 100 13 0.00521255
6 46 100 13 0.00146203
7 46 100 13 0.000374155
8 46 100 13 0.00678341
9 46 100 13 0.00308228
10 46 100 13 0.000325336
11 46 100 13 0.00603341
12 46 100 13 0.000235765
13 46 100 13 0.968648
1 47 100 13 1.2977e-07
2 47 100 13 0.125372
3 47 100 13 0.125272
4 47 100 13 4.21059e-06
5 47 100 13 3.69475e-05
6 47 100 13 1.51018e-06
7 47 100 13 0.125446
8 47 100 13 0.125301
9 47 100 13 0.123302
10 47 100 13 0.125318
11 47 100 13 1.36384e-05
12 47 100 13 0.124979
13 47 100 13 0.124953
1 48 100 13 4.66435e-05
2 48 100 13 0.116232
3 48 100 13 5.81042e-05
4 48 100 13 0.166965
5 48 100 13 0.011371
6 48 100 13 0.115383
7 48 100 13 0.11532
8 48 100 13 0.120345
9 48 100 13 0.000183591
10 48 100 13 1.71557e-06
11 48 100 13 0.124367
12 48 100 13 0.11665
13 48 100 13 0.113078
1 49 100 13 0.000130058
2 49 100 13 0.13921
3 49 100 13 0.139579
4 49 100 13 0.140519
5 49 100 13 0.00293273
6 49 100 13 0.14012
7 49 100 13 0.000389398
8 49 100 13 6.66044e-05
9 49 100 13 0.157134
10 49 100 13 0.139472
11 49 100 13 0.140418
12 49 100 13 1.19441e-05
13 49 100 13 1.6054e-05
1 50 100 13 8.55706e-05
2 50 100 13 0.000586963
3 50 100 13 0.194318
4 50 100 13 0.0457253
5 50 100 13 0.670205
6 50 100 13 9.76142e-05
7 50 100 13 0.00466692
8 50 100 13 0.000927097
9 50 100 13 0.018387
10 50 100 13 0.0358849
11 50 100 13 0.00731217
12 50 100 13 0.0207521
13 50 100 13 0.00105097
1 51 100 13 2.54201e-05
2 51 100 13 3.90457e-05
3 51 100 13 2.73975e-05
4 51 100 13 4.64914e-05
5 51 100 13 0.00154276
6 51 100 13 3.59609e-05
7 51 100 13 0.848162
8 51 100 13 0.0015951
10 51 100 13 5.11081e-05
11 51 100 13 2.52691e-05
12 51 100 13 0.00102896
13 51 100 13 0.14742
2 52 100 13 7.40526e-05
3 52 100 13 2.29394e-05
4 52 100 13 3.88182e-05
5 52 100 13 0.00455182
6 52 100 13 4.29433e-06
7 52 100 13 0.0052882
8 52 100 13 0.0046076
9 52 100 13 4.78801e-05
10 52 100 13 5.10724e-05
11 52 100 13 2.0427e-06
12 52 100 13 0.00383444
13 52 100 13 0.981477
1 53 100 13 0.000751984
2 53 100 13 0.000281409
3 53 100 13 1.77482e-06
4 53 100 13 5.58585e-05
5 53 100 13 1.908e-05
9 53 100 13 6.7663e-05
11 53 100 13 0.976619
12 53 100 13 0.0222037
1 54 100 13 0.00609598
4 54 100 13 0.00148154
7 54 100 13 0.32829
8 54 100 13 0.182473
11 54 100 13 0.48166
1 55 100 13 3.64603e-05
2 55 100 13 0.00319761
4 55 100 13 0.130888
6 55 100 13 0.000466326
7 55 100 13 0.00426246
8 55 100 13 0.00401769
9 55 100 13 0.00189628
10 55 100 13 0.114981
12 55 100 13 0.00409257
13 55 100 13 0.736161
2 56 100 13 5.23235e-05
3 56 100 13 0.000129362
4 56 100 13 0.0572385
5 56 100 13 0.000227558
7 56 100 13 4.47342e-06
9 56 100 13 0.000298705
10 56 100 13 0.941988
11 56 100 13 9.01044e-06
12 56 100 13 5.23235e-05
2 57 100 13 0.000302732
4 57 100 13 0.00179195
7 57 100 13 0.501372
9 57 100 13 0.494179
10 57 100 13 0.00205203
12 57 100 13 0.000302732
1 58 100 13 0.142892
3 58 100 13 0.142883
4 58 100 13 5.56024e-07
5 58 100 13 0.142882
6 58 100 13 0.142882
7 58 100 13 9.55125e-07
8 58 100 13 0.142688
9 58 100 13 6.3858e-06
11 58 100 13 0.142882
13 58 100 13 0.142882
2 59 100 13 0.320218
4 59 100 13 0.0478839
7 59 100 13 0.181692
9 59 100 13 0.0782812
10 59 100 13 0.0517061
12 59 100 13 0.320218
2 60 100 13 0.233075
4 60 100 13 0.384693
7 60 100 13 0.0166869
9 60 100 13 0.014027
10 60 100 13 0.118443
12 60 100 13 0.233075
1 0 100 14 0.0415134
2 0 100 14 0.041057
3 0 100 14 0.0681581
4 0 100 14 0.0843062
5 0 100 14 0.0779903
6 0 100 14 0.0722762
7 0 100 14 0.0857307
8 0 100 14 0.0870285
9 0 100 14 0.0781721
10 0 100 14 0.0864202
11 0 100 14 0.0824385
12 0 100 14 0.087212
13 0 100 14 0.0681509
14 0 100 14 0.0395457
1 1 100 14 0.827815
2 1 100 14 0.0623538
3 1 100 14 0.0185456
4 1 100 14 0.0193581
5 1 100 14 0.0113123
6 1 100 14 0.0116625
7 1 100 14 0.00935525
8 1 100 14 0.00458896
9 1 100 14 0.00565191
10 1 100 14 0.00510474
11 1 100 14 0.00762116
12 1 100 14 0.00701472
13 1 100 14 0.0061306
14 1 100 14 0.00348571
1 2 100 14 0.146487
2 2 100 14 0.432941
3 2 100 14 0.255976
4 2 100 14 0.0587144
5 2 100 14 0.0338891
6 2 100 14 0.0265304
7 2 100 14 0.00953099
8 2 100 14 0.0123277
9 2 100 14 0.00612179
10 2 100 14 0.00461021
11 2 100 14 0.00314581
12 2 100 14 0.00327565
13 2 100 14 0.00311842
14 2 100 14 0.0033326
1 3 100 14 0.111462
2 3 100 14 0.434061
3 3 100 14 0.236048
4 3 100 14 0.103341
5 3 100 14 0.0423569
6 3 100 14 0.0185877
7 3 100 14 0.0118378
8 3 100 14 0.0133975
9 3 100 14 0.00661134
10 3 100 14 0.00424539
11 3 100 14 0.00318113
12 3 100 14 0.00439685
13 3 100 14 0.00339321
14 3 100 14 0.00708033
1 4 100 14 0.0483394
2 4 100 14 0.301548
3 4 100 14 0.267447
4 4 100 14 0.167066
5 4 100 14 0.091747
6 4 100 14 0.029114
7 4 100 14 0.0335387
8 4 100 14 0.0132539
9 4 100 14 0.0146077
10 4 100 14 0.00782579
11 4 100 14 0.00922151
12 4 100 14 0.00858775
13 4 100 14 0.00629593
14 4 100 14 0.00140812
1 5 100 14 0.0265356
2 5 100 14 0.168528
3 5 100 14 0.254797
4 5 100 14 0.213236
5 5 100 14 0.15403
6 5 100 14 0.07828
7 5 100 14 0.0304959
8 5 100 14 0.0186208
9 5 100 14 0.0138991
10 5 100 14 0.0158448
11 5 100 14 0.00850628
12 5 100 14 0.00577726
13 5 100 14 0.00713905
14 5 100 14 0.00430979
1 6 100 14 0.0130065
2 6 100 14 0.0973994
3 6 100 14 0.186539
4 6 100 14 0.247773
5 6 100 14 0.193053
6 6 100 14 0.0974468
7 6 100 14 0.0649544
8 6 100 14 0.025932
9 6 100 14 0.012659
10 6 100 14 0.0226942
11 6 100 14 0.0106045
12 6 100 14 0.00981356
13 6 100 14 0.00734723
14 6 100 14 0.0107774
1 7 100 14 0.0123718
2 7 100 14 0.0690328
3 7 100 14 0.114834
4 7 100 14 0.203962
5 7 100 14 0.218547
6 7 100 14 0.15
7 7 100 14 0.0763148
8 7 100 14 0.0680851
9 7 100 14 0.0270049
10 7 100 14 0.0213846
11 7 100 14 0.0124758
12 7 100 14 0.00599539
13 7 100 14 0.0123511
14 7 100 14 0.00764105
1 8 100 14 0.00634914
2 8 100 14 0.0269487
3 8 100 14 0.0680535
4 8 100 14 0.164715
5 8 100 14 0.214015
6 8 100 14 0.232419
7 8 100 14 0.125933
8 8 100 14 0.0666952
9 8 100 14 0.0326113
10 8 100 14 0.0259226
11 8 100 14 0.00746371
12 8 100 14 0.0122569
13 8 100 14 0.00770687
14 8 100 14 0.00891013
1 9 100 14 0.00217412
2 9 100 14 0.0272666
3 9 100 14 0.0476889
4 9 100 14 0.0932988
5 9 100 14 0.191516
6 9 100 14 0.19424
7 9 100 14 0.163408
8 9 100 14 0.0976888
9 9 100 14 0.0765935
10 9 100 14 0.0375495
11 9 100 14 0.0328313
12 9 100 14 0.0121437
13 9 100 14 0.0121323
14 9 100 14 0.0114684
1 10 100 14 5.82817e-05
2 10 100 14 0.0112159
3 10 100 14 0.0224257
4 10 100 14 0.0687157
5 10 100 14 0.117404
6 10 100 14 0.192954
7 10 100 14 0.214337
8 10 100 14 0.161516
9 10 100 14 0.0861859
10 10 100 14 0.0410213
11 10 100 14 0.0309734
12 10 100 14 0.022672
13 10 100 14 0.0161921
14 10 100 14 0.0143289
1 11 100 14 0.00470606
2 11 100 14 0.0131312
3 11 100 14 0.0256831
4 11 100 14 0.0356009
5 11 100 14 0.0904474
6 11 100 14 0.17732
7 11 100 14 0.173913
8 11 100 14 0.15781
9 11 100 14 0.134759
10 11 100 14 0.0782612
11 11 100 14 0.0374085
12 11 100 14 0.032422
13 11 100 14 0.0207345
14 11 100 14 0.0178033
1 12 100 14 0.00483101
2 12 100 14 0.0107013
3 12 100 14 0.0253475
4 12 100 14 0.0266475
5 12 100 14 0.0662851
6 12 100 14 0.122158
7 12 100 14 0.171546
8 12 100 14 0.165512
9 12 100 14 0.152515
10 12 100 14 0.115112
11 12 100 14 0.0629414
12 12 100 14 0.0323433
13 12 100 14 0.0189422
14 12 100 14 0.025118
1 13 100 14 0.00634497
2 13 100 14 0.0168648
3 13 100 14 0.0157326
4 13 100 14 0.0166958
5 13 100 14 0.0590322
6 13 100 14 0.0831074
7 13 100 14 0.135538
8 13 100 14 0.191947
9 13 100 14 0.118086
10 13 100 14 0.124712
11 13 100 14 0.108769
12 13 100 14 0.0582276
13 13 100 14 0.0340315
14 13 100 14 0.0309118
1 14 100 14 1.72728e-05
2 14 100 14 0.00277661
3 14 100 14 0.00769665
4 14 100 14 0.0168649
5 14 100 14 0.0264584
6 14 100 14 0.0801755
7 14 100 14 0.107706
8 14 100 14 0.146323
9 14 100 14 0.176633
10 14 100 14 0.135703
11 14 100 14 0.108046
12 14 100 14 0.0723821
13 14 100 14 0.0511207
14 14 100 14 0.0680969
1 15 100 14 0.00467683
2 15 100 14 0.00769969
3 15 100 14 0.0169283
4 15 100 14 0.0173522
5 15 100 14 0.0217666
6 15 100 14 0.0561246
7 15 100 14 0.0627861
8 15 100 14 0.131192
9 15 100 14 0.150584
10 15 100 14 0.148068
11 15 100 14 0.133609
12 15 100 14 0.101016
13 15 100 14 0.0776269
14 15 100 14 0.0705704
1 16 100 14 0.00303599
2 16 100 14 0.00543141
3 16 100 14 0.0095944
4 16 100 14 0.0111753
5 16 100 14 0.0188482
6 16 100 14 0.0398849
7 16 100 14 0.0604993
8 16 100 14 0.0909986
9 16 100 14 0.149669
10 16 100 14 0.159377
11 16 100 14 0.153462
12 16 100 14 0.130333
13 16 100 14 0.0951132
14 16 100 14 0.0725792
1 17 100 14 0.00183551
2 17 100 14 0.00242886
3 17 100 14 0.0069039
4 17 100 14 0.0130465
5 17 100 14 0.0210386
6 17 100 14 0.0166094
7 17 100 14 0.0437592
8 17 100 14 0.0609228
9 17 100 14 0.122359
10 17 100 14 0.1621
11 17 100 14 0.167609
12 17 100 14 0.14247
13 17 100 14 0.12599
14 17 100 14 0.112927
1 18 100 14 0.000249872
2 18 100 14 0.00577682
3 18 100 14 0.00260283
4 18 100 14 0.00386812
5 18 100 14 0.00244665
6 18 100 14 0.00969355
7 18 100 14 0.0262309
8 18 100 14 0.053296
9 18 100 14 0.0905233
10 18 100 14 0.134762
11 18 100 14 0.172676
12 18 100 14 0.1819
13 18 100 14 0.164728
14 18 100 14 0.151246
1 19 100 14 0.000232806
2 19 100 14 0.00793963
3 19 100 14 0.00585798
4 19 100 14 0.0116446
5 19 100 14 0.0098723
6 19 100 14 0.0106979
7 19 100 14 0.0348417
8 19 100 14 0.0414413
9 19 100 14 0.0881544
10 19 100 14 0.132345
11 19 100 14 0.170132
12 19 100 14 0.165154
13 19 100 14 0.127818
14 19 100 14 0.193868
1 20 100 14 0.00230592
2 20 100 14 0.00583642
3 20 100 14 0.0152602
4 20 100 14 0.0045132
5 20 100 14 0.0122879
6 20 100 14 0.0146643
7 20 100 14 0.013755
8 20 100 14 0.0377008
9 20 100 14 0.0843983
10 20 100 14 0.0964429
11 20 100 14 0.140054
12 20 100 14 0.134029
13 20 100 14 0.240896
14 20 100 14 0.197856
1 21 100 14 0.0067909
2 21 100 14 0.0161814
3 21 100 14 0.0105338
4 21 100 14 0.0138881
5 21 100 14 0.00660787
6 21 100 14 0.0131618
7 21 100 14 0.014157
8 21 100 14 0.0219479
9 21 100 14 0.0696705
10 21 100 14 0.0787461
11 21 100 14 0.167285
12 21 100 14 0.1582
13 21 100 14 0.190571
14 21 100 14 0.232258
1 22 100 14 0.00275924
2 22 100 14 0.00619837
3 22 100 14 0.00671322
4 22 100 14 0.0119462
5 22 100 14 0.00418163
6 22 100 14 0.0100135
7 22 100 14 0.0200867
8 22 100 14 0.0190745
9 22 100 14 0.0624882
10 22 100 14 0.0815645
11 22 100 14 0.0986083
12 22 100 14 0.187553
13 22 100 14 0.249034
14 22 100 14 0.239779
1 23 100 14 0.013773
2 23 100 14 0.0169458
3 23 100 14 0.00860137
4 23 100 14 0.0210665
5 23 100 14 0.0194406
6 23 100 14 0.0126198
7 23 100 14 0.0161998
8 23 100 14 0.0129863
9 23 100 14 0.021381
10 23 100 14 0.0806634
11 23 100 14 0.0992519
12 23 100 14 0.188725
13 23 100 14 0.208097
14 23 100 14 0.280249
1 24 100 14 6.88773e-05
2 24 100 14 0.000930486
3 24 100 14 0.0147933
4 24 100 14 0.0151344
5 24 100 14 0.0118888
6 24 100 14 0.00669463
7 24 100 14 0.00931403
8 24 100 14 0.0340729
9 24 100 14 0.033743
10 24 100 14 0.0282315
11 24 100 14 0.117143
12 24 100 14 0.166064
13 24 100 14 0.256101
14 24 100 14 0.30582
1 25 100 14 0.000424946
2 25 100 14 0.00499832
3 25 100 14 7.51029e-05
4 25 100 14 0.0111072
5 25 100 14 0.011381
6 25 100 14 0.0203915
7 25 100 14 0.024856
8 25 100 14 0.0148213
9 25 100 14 0.0370739
10 25 100 14 0.0463555
11 25 100 14 0.0726326
12 25 100 14 0.167592
13 25 100 14 0.209195
14 25 100 14 0.379095
1 26 100 14 0.000181554
2 26 100 14 0.0122002
3 26 100 14 0.0171565
4 26 100 14 0.0271385
5 26 100 14 0.0134857
6 26 100 14 0.0175545
7 26 100 14 0.0182066
8 26 100 14 0.0222598
9 26 100 14 0.0383778
10 26 100 14 0.0581757
11 26 100 14 0.0709378
12 26 100 14 0.159792
13 26 100 14 0.255689
14 26 100 14 0.288845
1 27 100 14 3.88145e-05
2 27 100 14 0.00956089
3 27 100 14 0.0161704
4 27 100 14 0.00810132
5 27 100 14 0.00540586
6 27 100 14 0.0187859
7 27 100 14 0.0307732
8 27 100 14 0.0413092
9 27 100 14 0.0324692
10 27 100 14 0.0430899
11 27 100 14 0.0911788
12 27 100 14 0.116008
13 27 100 14 0.216509
14 27 100 14 0.3706
1 28 100 14 8.04808e-05
2 28 100 14 0.000672541
3 28 100 14 0.00820634
4 28 100 14 0.00729112
5 28 100 14 0.00304992
6 28 100 14 0.0102881
7 28 100 14 0.00408512
8 28 100 14 0.0118591
9 28 100 14 0.0272152
10 28 100 14 0.0563644
11 28 100 14 0.0704041
12 28 100 14 0.0889008
13 28 100 14 0.305825
14 28 100 14 0.405758
1 29 100 14 0.000105368
2 29 100 14 0.0380024
3 29 100 14 0.00143961
4 29 100 14 0.046374
5 29 100 14 0.0149247
6 29 100 14 0.0262938
7 29 100 14 0.0389497
8 29 100 14 0.000263084
9 29 100 14 0.0182923
10 29 100 14 0.0516797
11 29 100 14 0.0542633
12 29 100 14 0.198797
13 29 100 14 0.190887
14 29 100 14 0.319729
1 30 100 14 0.0171617
2 30 100 14 1.66205e-05
3 30 100 14 0.0167648
4 30 100 14 0.0162803
5 30 100 14 0.0328119
6 30 100 14 0.0331007
7 30 100 14 0.0574596
8 30 100 14 0.0348617
9 30 100 14 0.0520582
10 30 100 14 0.0668482
11 30 100 14 0.129283
12 30 100 14 0.0868748
13 30 100 14 0.137775
14 30 100 14 0.318703
1 31 100 14 9.71867e-06
2 31 100 14 0.0594473
3 31 100 14 0.022044
4 31 100 14 0.0249845
5 31 100 14 0.0384607
6 31 100 14 0.000162918
7 31 100 14 8.44652e-05
8 31 100 14 0.000778504
9 31 100 14 0.00527865
10 31 100 14 0.0459472
