2 0.216584 0.771722 0.00953138 0.000948871 0.000646635 0.000252598 0.0001601 7.75053e-05 4.0607e-05 3.58803e-05 
3 0.661228 0.338656 0.000103167 6.3002e-06 2.72501e-06 1.84345e-06 6.04999e-07 3.53311e-07 1.40331e-07 1.48047e-07 
4 0.998543 0.00143491 2.08284e-05 7.34916e-07 3.17858e-07 2.15028e-07 0 0 0 0 
5 0.173025 0.717829 0.0600148 0.0178502 0.00851691 0.00478829 0.00255301 0.00118661 0.0136986 0.000537151 
6 0.98588 0.014104 1.50152e-05 2.52267e-07 3.77105e-07 1.18701e-07 0 0 0 0 
7 0.0611906 0.917517 0.0142124 0.0034808 0.0016608 0.000933716 0.000497837 0.000228336 0.000174295 0.00010473 
8 0.171682 0.827924 0.000104518 0.000288841 6.8333e-07 3.43909e-07 1.12766e-07 0 0 0 
9 0.0499943 0.924148 0.0161254 0.0047846 0.00228288 0.00128346 0.000684313 0.000313863 0.000239581 0.000143959 
10 0.997431 0.000798071 0.00164354 0.000126874 2.11209e-07 0 0 0 0 0 
11 0.0766882 0.92317 0.000125816 8.32917e-06 3.6026e-06 2.43713e-06 7.99838e-07 4.67094e-07 1.85525e-07 1.95725e-07 
12 0.242333 0.746836 0.0100783 0.000331507 0.000224606 8.77387e-05 5.561e-05 2.69211e-05 1.41046e-05 1.24628e-05 
13 0.172921 0.70017 0.11151 0.00757339 0.00361043 0.00202982 0.00108226 0.000496382 0.000378902 0.000227674 
14 0.0199396 0.97887 0.000712123 0.000230488 0.000124674 6.01756e-05 3.19809e-05 1.78529e-05 6.16163e-06 7.32134e-06 
15 0.0104701 0.988929 0.000379105 2.47277e-05 0.000182652 6.57691e-06 4.16843e-06 2.01796e-06 1.05726e-06 9.34194e-07 
16 0.0847288 0.865827 0.029504 0.0124403 0.00346 0.00194524 0.00103716 0.000475699 0.000363115 0.000218187 
17 0.479867 0.520101 2.96489e-05 7.03542e-07 1.0517e-06 3.31044e-07 0 0 0 0 
18 0.992846 0.00109562 0.00597531 5.66452e-05 2.61724e-05 0 0 0 0 0 
19 0.865089 0.132585 0.00229329 1.00164e-05 1.49621e-05 4.70964e-06 1.3682e-06 0 0 1.3565e-06 
20 0.301794 0.694687 0.00284543 0.000295581 0.000201432 7.86862e-05 4.98725e-05 2.41435e-05 1.26494e-05 1.1177e-05 
21 0.13911 0.856862 0.00326305 0.000335524 0.000228652 8.93195e-05 5.6612e-05 2.74062e-05 1.43588e-05 1.26874e-05 
22 0.843679 0.156066 0.000243977 3.32481e-06 4.96407e-06 1.56254e-06 4.53936e-07 0 0 4.50054e-07 
23 0.106372 0.841098 0.0353192 0.00824229 0.00426825 0.00223005 0.00108717 0.000685563 0.000382555 0.000315106 
24 0.789316 0.200244 0.00770967 0.00176736 0.000458812 0.000239216 0.00011662 7.35399e-05 4.10364e-05 3.38013e-05 
25 0.151482 0.690001 0.0800092 0.0347216 0.0241892 0.00733596 0.00792467 0.000711533 0.00132118 0.00230397 
26 0.362478 0.601537 0.0154831 0.0158256 0.00224576 0.00115315 0.00056217 0.000354501 0.000197817 0.00016294 
27 0.999045 0.000422261 0.00037338 0.000158266 1.41902e-06 0 0 0 0 0 
28 0.0525713 0.931791 0.00963646 0.00287411 0.00148835 0.000777626 0.0003791 0.000239058 0.000133398 0.000109879 
29 0.468179 0.53041 0.00119867 9.32245e-05 6.35305e-05 2.48172e-05 1.57295e-05 7.61473e-06 3.98955e-06 3.52516e-06 
30 0.352618 0.64355 0.0021548 0.000381539 0.00108131 0.000111431 5.20373e-05 2.90491e-05 1.00258e-05 1.19128e-05 
31 0.325095 0.628493 0.0242299 0.0107986 0.00111013 0.00980808 0.00023714 0.000114796 6.01443e-05 5.31435e-05 
32 0.99923 0.000669619 1.75158e-05 8.13927e-05 1.20568e-06 0 0 0 0 0 
33 0.0913863 0.907233 0.00112385 0.000112602 7.6736e-05 2.99757e-05 1.8999e-05 9.19753e-06 4.81882e-06 4.2579e-06 
34 0.027715 0.96997 0.0014574 0.000412873 0.000223328 0.000107792 5.72873e-05 3.19799e-05 1.10373e-05 1.31147e-05 
35 0.967786 0.0321835 2.78915e-05 6.51418e-07 9.73782e-07 3.06517e-07 0 0 0 0 
36 0.0306125 0.947557 0.0136215 0.0040357 0.00192556 0.00108257 0.000577203 0.000264737 0.000202081 0.000121426 
37 0.907489 0.091459 0.000281415 0.000765174 2.42943e-06 1.5608e-06 5.12238e-07 2.9914e-07 1.18815e-07 1.25348e-07 
38 0.0524883 0.946672 0.000799054 2.13202e-05 9.2216e-06 6.23834e-06 2.04735e-06 1.19562e-06 4.74889e-07 5.01e-07 
39 0.13884 0.725677 0.0724419 0.0440092 0.00882729 0.0049143 0.0026202 0.00120177 0.000917342 0.00055121 
40 0.211432 0.69883 0.0608641 0.0243334 0.00228169 0.00110079 0.000585025 0.000326583 0.000112714 0.000133929 
41 0.0766509 0.888001 0.0243294 0.00527681 0.00273258 0.00142771 0.00069602 0.000438905 0.000244916 0.000201735 
42 0.516834 0.473281 0.00666275 0.00158398 0.000755767 0.000424899 0.000226547 0.000103907 7.93152e-05 4.76587e-05 
43 0.140519 0.640093 0.13267 0.037131 0.0204251 0.0114881 0.00913113 0.00461339 0.00252679 0.00140224 
44 0.37156 0.58017 0.0265741 0.0164696 0.0026254 0.00126719 0.000673459 0.00037595 0.000129753 0.000154174 
45 0.110729 0.806064 0.0517668 0.0153375 0.00669837 0.00412894 0.00219334 0.00124151 0.00085516 0.000985985 
46 0.233684 0.713634 0.0434596 0.00444135 0.00240196 0.00115934 0.000616144 0.000343954 0.00011871 0.000141053 
47 0.113275 0.733775 0.0795213 0.0283153 0.0126727 0.0227008 0.00404924 0.00229201 0.00157876 0.00182028 
48 0.331317 0.659084 0.00835726 0.000598135 0.000323473 0.000156129 8.29764e-05 4.63205e-05 1.59867e-05 1.89956e-05 
49 0.220147 0.763068 0.0139794 0.00135086 0.000730693 0.00035268 0.000187435 0.000104633 3.61123e-05 4.29092e-05 
50 0.271956 0.7033 0.0128038 0.0102392 0.000906444 0.000354088 0.000224426 0.000108646 5.69223e-05 5.02965e-05 
51 0.0843337 0.915607 5.22592e-05 3.45437e-06 1.49411e-06 1.01075e-06 3.31718e-07 1.93719e-07 0 0 
52 0.714744 0.285089 0.000135985 1.31485e-05 8.96042e-06 3.50025e-06 2.21851e-06 1.07399e-06 5.62691e-07 4.97193e-07 
53 0.931656 0.0683042 3.74221e-05 8.80793e-07 1.31667e-06 4.14447e-07 1.20401e-07 0 0 1.19372e-07 
54 0.899214 0.0776787 0.0230652 2.21154e-05 9.34332e-06 6.32068e-06 2.07438e-06 1.2114e-06 4.81158e-07 5.07613e-07 
55 0.051803 0.926799 0.0131999 0.00531192 0.00137356 0.00071765 0.000349861 0.00022062 0.000123109 0.000101404 
56 0.129888 0.797027 0.0376538 0.0114634 0.0088217 0.0117104 0.00151205 0.000953484 0.000532059 0.000438252 
57 0.273916 0.711259 0.00693977 0.00658636 0.000652556 0.000314966 0.000167392 9.34442e-05 3.22506e-05 3.83207e-05 
58 0.662091 0.334402 0.00210894 0.000673249 0.000364168 0.000175771 9.34153e-05 5.21479e-05 1.79979e-05 2.13854e-05 
59 0.188923 0.810095 0.00019937 0.000772852 4.68506e-06 3.15784e-06 1.03637e-06 6.05224e-07 2.40389e-07 2.53606e-07 
60 0.119962 0.745441 0.0698712 0.0362307 0.0127878 0.00796446 0.0034566 0.00280103 0.000747354 0.00073747 
61 0.36636 0.621399 0.0100069 0.000980084 0.000667906 0.000260907 0.000165367 8.00549e-05 4.19427e-05 3.70606e-05 
62 0.150701 0.618303 0.137994 0.0398216 0.0219052 0.0123206 0.00979281 0.0049477 0.00270989 0.00150385 
63 0.266533 0.708439 0.0149484 0.00485366 0.0026254 0.00126719 0.000673459 0.00037595 0.000129753 0.000154174 
64 0.406556 0.553841 0.0204675 0.00213655 0.0157277 0.000566541 0.000359082 0.000173833 9.10757e-05 8.04744e-05 
65 0.183179 0.714548 0.0612662 0.00806072 0.00416643 0.0263682 0.00106088 0.000668977 0.000373299 0.000307483 
66 0.128759 0.791859 0.0533507 0.0124665 0.00645573 0.00337295 0.00164435 0.00103691 0.000578614 0.000476599 
67 0.303455 0.619962 0.0494334 0.00820772 0.0156023 0.00167769 0.000839384 0.000468575 0.000161721 0.000192159 
68 0.167735 0.672114 0.125228 0.0135193 0.00606048 0.0107098 0.00193394 0.00108745 0.000749045 0.000863637 
69 0.0666955 0.881548 0.0326047 0.00934262 0.00408023 0.00251509 0.00133604 0.000756248 0.000520909 0.0006006 
70 0.834154 0.16582 2.24754e-05 1.90552e-06 1.62485e-06 0 0 0 0 0 
71 0.94555 0.0536514 0.000701111 4.28544e-05 2.90976e-05 1.13665e-05 7.20427e-06 3.48763e-06 1.82725e-06 1.61456e-06 
72 0.757439 0.24069 0.00152002 0.000154057 0.000104986 4.10112e-05 2.59935e-05 1.25836e-05 6.59286e-06 5.82545e-06 
73 0.99169 0.00725899 0.000606244 0.000439471 5.36084e-06 0 0 0 0 0 
74 0.0443499 0.922634 0.0212624 0.00573363 0.00250406 0.00154353 0.000819939 0.000464115 0.000319686 0.000368593 
75 0.334622 0.657951 0.00540657 0.000972999 0.000526304 0.000254028 0.000135006 7.53652e-05 2.6011e-05 3.09066e-05 
76 0.811527 0.188142 0.000268644 2.73846e-05 1.8662e-05 7.29003e-06 4.62053e-06 2.23682e-06 1.17193e-06 1.03551e-06 
77 0.50135 0.240354 0.254452 6.77264e-05 0.00375276 1.51913e-05 4.30259e-06 2.08291e-06 1.09129e-06 9.6426e-07 
78 0.9633 0.0353077 0.000155778 0.00123251 2.43261e-06 6.83048e-07 1.98433e-07 0 0 1.96736e-07 
79 0.968328 0.0314011 0.000173372 4.71388e-05 2.54979e-05 1.23069e-05 6.54065e-06 3.65123e-06 1.26016e-06 1.49734e-06 
80 0.89337 0.105994 0.000631902 1.26409e-06 1.85571e-06 5.84122e-07 1.69694e-07 0 0 1.68243e-07 
81 0.98202 0.0176569 0.000306788 4.92882e-06 7.36786e-06 2.31918e-06 6.73749e-07 0 0 6.67987e-07 
82 0.0404135 0.84271 0.0655868 0.0194281 0.0173262 0.00544124 0.0058779 0.00052776 0.000979944 0.00170891 
83 0.091793 0.78294 0.078479 0.0278435 0.00788044 0.00485757 0.0025804 0.0014606 0.00100607 0.00115998 
84 0.588828 0.40872 0.00233632 5.99911e-05 2.59476e-05 1.75534e-05 5.76081e-06 3.36423e-06 1.33624e-06 1.40971e-06 
85 0.934718 0.0645822 0.000166163 5.00536e-06 0.000321822 0.000206149 2.81497e-07 0 0 2.7909e-07 
86 0.0505922 0.884872 0.0394948 0.0117441 0.00595516 0.00372252 0.00161559 0.00130918 0.000349307 0.000344687 
87 0.109006 0.885343 0.00337672 0.00109558 0.00059261 0.000286032 0.000152014 8.48601e-05 2.9288e-05 3.48004e-05 
88 0.0939855 0.651547 0.172756 0.0375831 0.0202117 0.00756821 0.0121922 0.00167395 0.00115302 0.00132942 
89 0.0630517 0.931485 0.00326286 0.00105943 0.000573057 0.000276594 0.000146999 8.20601e-05 2.83216e-05 3.36522e-05 
90 0.189574 0.7172 0.0764674 0.00823865 0.00393088 0.00220998 0.00117831 0.000540439 0.000412533 0.000247881 
91 0.155078 0.734433 0.0688393 0.0204753 0.0097694 0.00549245 0.00292846 0.00134315 0.00102526 0.000616058 
92 0.164723 0.742643 0.0636312 0.0174437 0.00535395 0.00298789 0.00159308 0.000730674 0.000557744 0.000335136 
93 0.0700659 0.683712 0.208446 0.0177216 0.00898155 0.00561429 0.00243662 0.0019745 0.000526823 0.000519856 
94 0.229162 0.699725 0.0248349 0.0396603 0.00314915 0.00164534 0.00080212 0.000505812 0.000282251 0.000232487 
95 0.54773 0.451392 0.000846418 1.62405e-05 7.02233e-06 4.75055e-06 1.55908e-06 9.10478e-07 3.61633e-07 3.81516e-07 
96 0.792472 0.203416 0.00263573 0.00133261 8.13563e-05 3.06462e-05 1.62872e-05 9.09214e-06 3.13799e-06 3.72861e-06 
97 0.210133 0.733284 0.0366897 0.00944397 0.00876732 0.00082022 0.00043547 0.000243095 8.39001e-05 9.96914e-05 
98 0.234392 0.718314 0.0298106 0.00859456 0.00410074 0.00230547 0.00122923 0.000563792 0.000430358 0.000258592 
99 0.1396 0.857904 0.00220585 0.000150418 6.50598e-05 4.40124e-05 1.44444e-05 8.43531e-06 3.35042e-06 3.53463e-06 
100 0.85924 0.138846 0.00182469 2.75248e-05 4.11459e-05 1.29515e-05 3.76256e-06 0 0 3.73038e-06 
101 0.0653619 0.891533 0.0258078 0.00740618 0.00407402 0.00229142 0.0018213 0.000920191 0.000503996 0.000279692 
102 0.593916 0.391475 0.00527705 0.00919453 6.4667e-05 4.36912e-05 1.4339e-05 8.37374e-06 3.32596e-06 3.50883e-06 
103 0.927369 0.071968 0.000609077 2.35474e-05 1.59474e-05 6.22962e-06 3.94842e-06 1.91145e-06 1.00146e-06 8.84887e-07 
104 0.0328695 0.963682 0.00238926 0.000507281 0.000262695 0.000137251 6.69113e-05 4.21938e-05 2.35448e-05 1.93936e-05 
105 0.408844 0.570145 0.0122565 0.000990114 0.00718294 0.000259312 0.000164286 7.95316e-05 4.16686e-05 3.68184e-05 
106 0.0310339 0.755808 0.0873011 0.0494407 0.0372757 0.0178187 0.00662198 0.00493176 0.00350165 0.00626691 
107 0.302314 0.588905 0.0796072 0.00445673 0.0224214 0.00113755 0.000585025 0.000326583 0.000112714 0.000133929 
108 0.0477927 0.703041 0.155547 0.0473521 0.0251628 0.00790027 0.00853426 0.000766266 0.0014228 0.0024812 
109 0.546565 0.438041 0.0145192 0.000383967 0.000261654 0.000102211 6.47828e-05 3.13617e-05 1.64312e-05 1.45186e-05 
110 0.378479 0.603411 0.0119503 0.00288896 0.00146491 0.0009157 0.000397417 0.000322044 8.59257e-05 8.47894e-05 
111 0.569278 0.392788 0.00658404 0.0309609 0.000182438 0.000123416 4.05038e-05 2.36537e-05 9.39499e-06 9.91155e-06 
112 0.124422 0.766309 0.091117 0.0087153 0.00449094 0.0023464 0.00114389 0.000721332 0.000402514 0.000331547 
113 0.105182 0.609249 0.202287 0.0522863 0.0138964 0.00867017 0.00376289 0.00304922 0.000813575 0.000802816 
114 0.193748 0.617754 0.174298 0.0032246 0.00928084 0.000825594 0.000438769 0.000244937 8.45357e-05 0.000100447 
115 0.442959 0.542796 0.0141948 2.75478e-05 1.01703e-05 6.88011e-06 2.25797e-06 1.31862e-06 5.23744e-07 5.5254e-07 
116 0.0961243 0.819321 0.073927 0.00509117 0.00263499 0.00137672 0.000671162 0.00042323 0.000236169 0.00019453 
117 0.0403065 0.95857 0.000908176 9.44659e-05 6.43765e-05 2.51477e-05 1.59389e-05 7.71613e-06 4.04267e-06 3.5721e-06 
118 0.400247 0.599042 0.000575583 5.95177e-05 4.056e-05 1.58441e-05 1.00422e-05 4.8615e-06 2.54706e-06 2.25058e-06 
119 0.0435973 0.90704 0.0278323 0.0100977 0.00512032 0.00320067 0.0013891 0.00112565 0.000300338 0.000296367 
120 0.00664922 0.991082 0.00138711 0.000422234 0.000218653 0.000114241 5.56934e-05 3.51199e-05 1.95974e-05 1.61422e-05 
121 0.0387018 0.960464 0.00068049 6.76227e-05 4.60834e-05 1.80018e-05 1.14098e-05 5.52353e-06 2.89391e-06 2.55706e-06 
122 0.247536 0.752168 0.00027606 5.99928e-06 8.96811e-06 2.82289e-06 8.20082e-07 0 0 8.13068e-07 
123 0.422783 0.553499 0.0232235 0.000218469 0.000147133 5.74752e-05 3.64286e-05 1.76353e-05 9.23956e-06 8.16407e-06 
124 0.263453 0.734413 0.00203833 4.97732e-05 2.15283e-05 1.45637e-05 4.77965e-06 2.79124e-06 1.10865e-06 1.16961e-06 
125 0.0661345 0.912351 0.0136472 0.00386755 0.00184533 0.00103746 0.000553153 0.000253706 0.000193661 0.000116367 
126 0.18421 0.788039 0.0227102 0.0031267 0.000891845 0.000492077 0.000262365 0.000120335 9.18551e-05 5.51936e-05 
127 0.146591 0.778611 0.0521605 0.0113004 0.00523086 0.00294084 0.00156799 0.000719167 0.000548961 0.000329858 
128 0.694453 0.304307 0.0010586 7.9537e-05 5.42027e-05 2.11734e-05 1.342e-05 6.49671e-06 3.40379e-06 3.00759e-06 
129 0.0645868 0.856977 0.0453413 0.0161447 0.00705092 0.00434625 0.00230878 0.00130685 0.000900168 0.00103788 
130 0.670229 0.32423 0.00460195 0.000896712 1.97948e-05 1.33908e-05 4.39471e-06 2.56645e-06 1.01937e-06 1.07541e-06 
131 0.911935 0.0877323 0.000315035 5.43606e-06 8.12617e-06 2.55787e-06 7.43091e-07 0 0 7.36736e-07 
132 0.0735008 0.561143 0.345893 0.0105194 0.00412621 0.00231979 0.00123686 0.000567293 0.000433031 0.000260198 
133 0.130919 0.768828 0.0568092 0.0106235 0.0267693 0.00287093 0.00139944 0.00088248 0.000492437 0.000405616 
134 0.674993 0.153468 0.147761 0.0105853 0.00611241 0.00201769 0.00361952 0.000791511 0.000419243 0.000232658 
135 0.214058 0.757888 0.0154413 0.00957676 0.00152557 0.000736339 0.000391334 0.000218457 7.53967e-05 8.95875e-05 
136 0.168108 0.813348 0.0172239 0.0012692 2.40218e-05 1.62434e-05 5.3309e-06 3.11317e-06 1.23652e-06 1.30451e-06 
137 0.134263 0.570291 0.175179 0.0534428 0.0217235 0.0262588 0.00981178 0.00487702 0.00267118 0.00148237 
138 0.0339055 0.705397 0.164269 0.0582415 0.0117259 0.00305178 0.0132066 0.00611007 3.65324e-06 0.00408974 
139 0.699852 0.127864 0.171374 1.90213e-05 0.00088069 7.38168e-06 1.72092e-06 1.00499e-06 3.99174e-07 4.21121e-07 
140 0.263751 0.709391 0.0255522 0.000572976 0.000390468 0.00015253 9.66758e-05 4.68013e-05 2.45204e-05 2.16662e-05 
141 0.0375955 0.566133 0.219515 0.103607 0.0324981 0.00468826 0.0202884 0.00938649 5.61222e-06 0.00628279 
142 0.226315 0.666632 0.0924958 0.00721024 0.00338938 0.00190554 0.00101599 0.000465991 0.000355704 0.000213734 
143 0.93721 0.0325842 0.0262978 0.0037662 0.000116607 1.11838e-05 7.08844e-06 3.43155e-06 1.79788e-06 1.5886e-06 
144 0.0653682 0.897519 0.0247902 0.00590138 0.00305597 0.00159666 0.000778389 0.000490847 0.0002739 0.000225609 
145 0.134898 0.774176 0.0604716 0.0149712 0.00714322 0.00401598 0.00214124 0.000982089 0.000749656 0.000450451 
146 0.579155 0.420376 0.00044437 7.6413e-06 1.14227e-05 3.59553e-06 1.04454e-06 0 0 1.03561e-06 
147 0.176289 0.813785 0.00960238 0.00016837 7.28241e-05 4.9265e-05 1.61682e-05 9.44199e-06 3.75026e-06 3.95646e-06 
148 0.284369 0.714781 0.000701208 6.53963e-05 4.45662e-05 1.74091e-05 1.10341e-05 5.34167e-06 2.79864e-06 2.47287e-06 
149 0.0417434 0.957769 0.000395339 4.06251e-05 2.76851e-05 1.08148e-05 6.85455e-06 3.31832e-06 1.73855e-06 1.53618e-06 
150 0.732826 0.265705 0.00121716 0.000110432 7.5257e-05 2.9398e-05 1.86329e-05 9.02027e-06 4.72594e-06 4.17584e-06 
151 0.573578 0.280566 0.143436 0.00030244 0.00211612 1.09018e-06 2.83439e-07 0 0 2.81015e-07 
152 0.176997 0.688158 0.0913991 0.0186526 0.0102126 0.00574404 0.00456557 0.0023067 0.0012634 0.000701119 
153 0.15291 0.735349 0.060323 0.0254617 0.00706729 0.00397326 0.00211846 0.00097174 0.0113799 0.000445663 
154 0.212075 0.786608 0.00106551 0.00011035 7.52012e-05 2.93762e-05 1.8619e-05 9.01358e-06 4.72244e-06 4.17274e-06 
155 0.697614 0.300685 0.00142598 0.000120724 8.22705e-05 3.21377e-05 2.03693e-05 9.86089e-06 5.16637e-06 4.565e-06 
156 0.241108 0.721996 0.0302652 0.00509645 0.000770602 0.000371939 0.000197671 0.000110347 3.80844e-05 4.52524e-05 
157 0.0505401 0.934576 0.00927516 0.00275706 0.00131548 0.000739577 0.000394327 0.00018086 0.000138055 8.29543e-05 
158 0.44601 0.55124 0.00239854 0.000154536 0.000105313 4.11389e-05 2.60744e-05 1.26228e-05 6.61338e-06 5.84358e-06 
159 0.0825442 0.711849 0.158278 0.0285677 0.00780393 0.00481041 0.00255534 0.00144642 0.000996302 0.00114872 
160 0.284054 0.704998 0.00960988 0.000588169 0.000399692 0.000156133 9.89596e-05 4.79068e-05 2.50996e-05 2.2178e-05 
161 0.0508474 0.868406 0.0557064 0.0117441 0.00595516 0.00372252 0.00161559 0.00130918 0.000349307 0.000344687 
162 0.127832 0.799449 0.0478758 0.0122133 0.00582736 0.0032762 0.0017468 0.000801177 0.000611562 0.000367473 
163 0.0634766 0.875405 0.0400408 0.0102821 0.00449053 0.002768 0.00147039 0.000832296 0.000573291 0.000660996 
164 0.479413 0.51934 0.00122646 6.31426e-06 9.43897e-06 2.9711e-06 8.63139e-07 0 0 8.55757e-07 
165 0.228252 0.760103 0.00935163 0.00110432 0.000597313 0.000288302 0.000153221 8.55335e-05 2.95204e-05 3.50766e-05 
166 0.289058 0.700418 0.00798099 0.00167728 0.000435037 0.000209977 0.000111594 6.22961e-05 2.15004e-05 2.55471e-05 
167 0.599432 0.400345 0.000181889 1.82632e-05 1.2446e-05 4.86182e-06 3.08149e-06 1.49176e-06 7.81573e-07 6.90597e-07 
168 0.0506168 0.94413 0.00315915 0.00100825 0.000545373 0.000263232 0.000139897 7.80958e-05 2.69534e-05 3.20265e-05 
169 0.272959 0.715806 0.0107365 0.000381233 6.19791e-05 2.42112e-05 1.53454e-05 7.42878e-06 3.89212e-06 3.43908e-06 
170 0.0419575 0.944125 0.00867225 0.00257837 0.00123022 0.000691641 0.000368768 0.000169137 0.000129107 7.75776e-05 
171 0.177137 0.814627 0.00494078 0.00158713 0.000858495 0.000414366 0.000220219 0.000122934 4.24286e-05 5.04143e-05 
172 0.16449 0.513704 0.310575 0.00587786 0.00246959 0.00138843 0.000740279 0.000339532 0.000259175 0.000155732 
173 0.0611122 0.932955 0.00322177 0.00158826 0.00046718 0.000287896 0.000152934 8.65659e-05 5.96273e-05 6.87493e-05 
174 0.988826 0.010952 0.000206458 4.74048e-06 7.08638e-06 2.23058e-06 6.48008e-07 0 0 6.42466e-07 
175 0.221046 0.600856 0.177413 0.000312146 0.000198285 7.74568e-05 4.90932e-05 2.37663e-05 1.24518e-05 1.10024e-05 
176 0.0958365 0.810675 0.0675173 0.0186881 0.00346643 0.00181098 0.000882871 0.000556732 0.000310665 0.000255892 
177 0.801005 0.197135 0.00185281 2.24049e-06 3.34539e-06 1.05303e-06 3.05916e-07 0 0 3.033e-07 
178 0.142204 0.854032 0.00328977 0.000209798 0.000141199 5.5157e-05 3.49593e-05 1.6924e-05 8.8669e-06 7.83478e-06 
179 0.384782 0.614742 0.000446197 9.14276e-06 1.36672e-05 4.30202e-06 1.24978e-06 0 0 1.2391e-06 
180 0.674085 0.323955 0.0018122 6.49691e-05 4.42747e-05 1.72952e-05 1.09619e-05 5.30674e-06 2.78033e-06 2.4567e-06 
181 0.141093 0.824903 0.0229266 0.00530488 0.00274712 0.0014353 0.000699722 0.00044124 0.000246219 0.000202808 
182 0.128997 0.719639 0.0882925 0.0369849 0.0188354 0.0035149 0.00164435 0.00103691 0.000578614 0.000476599 
183 0.956008 0.00723746 0.000488579 0.0123491 0.0239099 6.70616e-06 0 4.67209e-07 0 0 
184 0.467975 0.521655 0.00690357 0.00170418 0.000813121 0.000457144 0.000243739 0.000111792 8.53342e-05 5.12754e-05 
185 0.123667 0.587169 0.286985 0.000218563 0.00194992 7.223e-06 1.6135e-06 9.4226e-07 3.74256e-07 3.94834e-07 
186 0.858285 0.141525 0.000178688 3.55968e-06 5.32124e-06 1.67497e-06 4.86596e-07 0 0 4.82435e-07 
187 0.56935 0.429312 0.00124479 4.83041e-05 2.08929e-05 1.41339e-05 4.63857e-06 2.70886e-06 1.07593e-06 1.13509e-06 
188 0.264349 0.693446 0.0409917 0.000532728 0.000362578 0.000141635 8.97704e-05 4.34583e-05 2.27689e-05 2.01186e-05 
189 0.910481 0.0882561 0.00113203 6.78501e-05 2.9347e-05 1.9853e-05 6.51555e-06 3.80498e-06 1.5113e-06 1.5944e-06 
190 0.510703 0.485442 0.00335739 0.000250988 0.000131335 5.13039e-05 3.25171e-05 1.57417e-05 8.24748e-06 7.28746e-06 
191 0.123072 0.856023 0.0144166 0.003107 0.0016089 0.000840612 0.000409806 0.000258421 0.000144203 0.000118778 
192 0.114899 0.74239 0.0756231 0.0366564 0.0137555 0.00845609 0.00366997 0.00297393 0.000793487 0.000782993 
193 0.0287325 0.969464 0.00108654 0.000345256 0.000186753 9.0139e-05 4.79053e-05 2.67425e-05 9.2297e-06 1.09669e-05 
194 0.146467 0.839551 0.0137512 0.000120174 5.18952e-05 3.51067e-05 1.15216e-05 6.72846e-06 2.67247e-06 2.81941e-06 
195 0.242032 0.756232 0.00170484 1.60412e-05 6.93699e-06 4.69282e-06 1.54013e-06 8.99413e-07 3.57238e-07 3.7688e-07 
196 0.217579 0.779763 0.0017756 0.000424633 0.000229689 0.000110863 5.89191e-05 3.28908e-05 1.13517e-05 1.34882e-05 
197 0.188748 0.797133 0.0084536 0.0027282 0.00147571 0.000712276 0.000378546 0.000211318 7.29328e-05 8.66598e-05 
198 0.916603 0.0720947 0.0112742 1.50592e-05 6.414e-06 4.33902e-06 1.42402e-06 8.31606e-07 3.30305e-07 3.48466e-07 
199 0.201977 0.790888 0.00426547 0.00138217 0.00074763 0.000360855 0.00019178 0.000107059 3.69494e-05 4.39038e-05 
200 0.0870346 0.902523 0.004662 0.00424099 0.000732592 0.000382747 0.000186593 0.000117664 6.56583e-05 5.40821e-05 
201 0.142878 0.856387 0.000652899 4.25739e-05 1.84144e-05 1.24572e-05 4.08831e-06 2.38752e-06 9.48297e-07 1.00044e-06 
202 0.524945 0.457376 0.00684615 0.0104347 0.000186277 0.000126015 4.13566e-05 2.41516e-05 9.59278e-06 1.01202e-05 
203 0.297722 0.659511 0.0235446 0.0145895 0.00232767 0.00112349 0.000597088 0.000333316 0.000115038 0.00013669 
204 0.347335 0.640665 0.0109833 0.000981489 1.66035e-05 1.12302e-05 3.68562e-06 2.15235e-06 8.54891e-07 9.01895e-07 
205 0.319049 0.644347 0.00774229 0.0033262 0.0250493 0.00021986 0.000135869 6.57748e-05 3.44611e-05 3.04498e-05 
206 0.90732 0.0925231 0.000153318 1.23883e-06 1.85189e-06 5.82919e-07 1.69344e-07 0 0 1.67896e-07 
207 0.379619 0.49902 0.0963515 0.0229826 0.00108003 0.000421892 0.000267401 0.00012945 6.78223e-05 5.99277e-05 
208 0.711714 0.28513 0.0031394 5.14954e-06 7.57319e-06 2.38381e-06 6.92525e-07 0 0 6.86602e-07 
209 0.482191 0.515786 0.00179547 0.000117907 5.09979e-05 3.44997e-05 1.13224e-05 6.61212e-06 2.62627e-06 2.77066e-06 
210 0.782946 0.214142 0.00276242 7.76702e-05 3.35792e-05 2.27161e-05 7.45516e-06 4.35371e-06 1.72925e-06 1.82433e-06 
211 0.41136 0.554039 0.0190439 0.00347911 0.0102142 0.000908153 0.000482646 0.000269431 9.29893e-05 0.000110491 
212 0.0401313 0.934905 0.0148324 0.00475471 0.00240824 0.00150537 0.000653336 0.000529426 0.000141258 0.00013939 
213 0.104407 0.819153 0.0488717 0.0134628 0.00586719 0.00361659 0.00192117 0.00108745 0.000749045 0.000863637 
214 0.104911 0.891236 0.00311406 0.000323854 0.000220699 8.62127e-05 5.46429e-05 2.64529e-05 1.38593e-05 1.22461e-05 
215 0.0441396 0.884731 0.0707584 0.000199375 9.12144e-05 3.56315e-05 2.25837e-05 1.09329e-05 5.72803e-06 5.06128e-06 
216 0.10324 0.89477 0.00175948 0.000119981 5.18952e-05 3.51067e-05 1.15216e-05 6.72846e-06 2.67248e-06 2.81941e-06 
217 0.020169 0.969081 0.00722061 0.00169037 0.000875353 0.000457349 0.000222962 0.000140598 7.8456e-05 6.46235e-05 
218 0.350315 0.614609 0.0330433 0.000892053 0.000607915 0.000237472 0.000150513 7.28643e-05 3.81754e-05 3.37318e-05 
219 0.582974 0.409167 0.00544468 0.00116279 0.000628926 0.00030356 0.00016133 9.00604e-05 3.10828e-05 3.6933e-05 
220 0.549794 0.443793 0.00620975 9.02402e-05 6.02861e-05 2.35498e-05 1.49262e-05 7.22585e-06 3.78581e-06 3.34514e-06 
221 0.468472 0.528295 0.00193111 0.000626749 0.000339015 0.000163631 8.69632e-05 4.85461e-05 1.67548e-05 1.99083e-05 
222 0.40612 0.561408 0.027946 0.00198631 0.00135362 0.000528772 0.000335143 0.000162244 8.5004e-05 7.51094e-05 
223 0.300964 0.667798 0.0179588 0.0102312 0.00141116 0.000787946 0.000420116 0.000192688 0.000147084 8.83797e-05 
224 0.305735 0.610599 0.0588235 0.0188059 0.00305439 0.00145304 0.000772233 0.000431089 0.000148783 0.000176786 
225 0.320203 0.641792 0.0269063 0.00532622 0.00274712 0.0014353 0.000699722 0.00044124 0.000246219 0.000202808 
226 0.19494 0.797002 0.00420382 0.00333225 0.000270672 0.000122447 6.50759e-05 3.63278e-05 1.25379e-05 1.48977e-05 
227 0.934222 0.0636872 0.00148129 0.000588264 9.99788e-06 6.76349e-06 2.2197e-06 1.29627e-06 5.14866e-07 5.43175e-07 
228 0.0905262 0.90637 0.00261857 0.000212818 0.000145031 5.66541e-05 3.59082e-05 1.73833e-05 9.10756e-06 8.04744e-06 
229 0.604438 0.394575 0.000813555 7.60842e-05 5.18497e-05 2.02543e-05 1.28375e-05 6.21468e-06 3.25603e-06 2.87702e-06 
230 0.539118 0.42975 0.0296887 0.00074088 0.00035334 0.000170545 9.06377e-05 5.05973e-05 1.74628e-05 2.07495e-05 
231 0.0816872 0.91398 0.00275189 0.000757263 0.000392147 0.000204887 9.98843e-05 6.29864e-05 3.51474e-05 2.89505e-05 
232 0.860512 0.139053 0.000359063 3.35121e-05 2.26509e-05 8.84823e-06 5.60813e-06 2.71493e-06 1.42242e-06 1.25685e-06 
233 0.53065 0.466798 0.00206587 0.000213428 0.000145447 5.68164e-05 3.60111e-05 1.74331e-05 9.13366e-06 8.0705e-06 
234 0.325959 0.67246 0.00119765 0.000247557 0.000108526 1.34816e-05 7.20014e-06 3.48563e-06 1.82621e-06 1.61364e-06 
235 0.177559 0.798197 0.0177715 0.00311856 0.00168496 0.00081327 0.00043222 0.000241281 8.3274e-05 9.89474e-05 
236 0.070933 0.928624 0.000396305 2.42523e-05 1.04898e-05 7.09626e-06 2.32891e-06 1.36005e-06 5.40198e-07 5.69899e-07 
237 0.0318159 0.965417 0.00165269 0.000536523 0.000290211 0.000140075 7.44441e-05 4.15574e-05 1.43428e-05 1.70424e-05 
238 0.135269 0.629107 0.1366 0.0558539 0.0177819 0.0100014 0.00794946 0.00401636 0.00219979 0.00122077 
239 0.0326098 0.945353 0.0148064 0.00346291 0.00179326 0.000936932 0.000456763 0.000288032 0.000160726 0.000132388 
240 0.0468704 0.912026 0.028516 0.0061881 0.00295253 0.00165994 0.000885044 0.00040593 0.000309858 0.000186186 
241 0.148525 0.745654 0.0659306 0.0196101 0.00935661 0.00526037 0.00280472 0.0012864 0.000981944 0.000590028 
242 0.280102 0.6912 0.0171394 0.00556553 0.00301046 0.00145304 0.000772233 0.000431089 0.000148783 0.000176786 
243 0.279088 0.678881 0.0304729 0.00556553 0.00301046 0.00145304 0.000772233 0.000431089 0.000148783 0.000176786 
244 0.14308 0.774483 0.0503979 0.0153433 0.00794552 0.00415133 0.00202381 0.0012762 0.00071214 0.000586583 
245 0.11488 0.809948 0.0468501 0.0139232 0.00664319 0.00373487 0.00199135 0.000913342 0.00069718 0.00041892 
246 0.15283 0.723779 0.0823058 0.0202168 0.00962782 0.00541285 0.00288601 0.00132368 0.00101041 0.00060713 
247 0.14308 0.764479 0.0597771 0.0159682 0.00794552 0.00415133 0.00202381 0.0012762 0.00071214 0.000586583 
248 0.369597 0.607404 0.0185905 0.00193471 0.00131846 0.000515037 0.000326438 0.00015803 8.27961e-05 7.31585e-05 
249 0.43783 0.534925 0.0220226 0.00229189 0.00156187 0.000610121 0.000386703 0.000187205 9.80815e-05 8.66647e-05 
250 0.17141 0.756719 0.0591409 0.00627349 0.00297901 0.00167483 0.000892982 0.00040957 0.000312637 0.000187856 
251 0.441272 0.558137 0.000368575 0.000107084 5.79231e-05 2.79575e-05 1.48583e-05 8.29443e-06 2.86268e-06 3.40148e-06 
252 0.184918 0.804306 0.00755316 0.00155173 0.000839347 0.000405123 0.000215307 0.000120192 4.14822e-05 4.92898e-05 
253 0.146268 0.849838 0.00263541 0.000602972 0.000312248 0.000163142 7.9533e-05 5.0153e-05 2.79861e-05 2.30519e-05 
254 0.0173854 0.943748 0.0183843 0.00655372 0.00679409 0.00324774 0.00120696 0.000898892 0.000638231 0.00114225 
255 0.131612 0.841643 0.0163838 0.00496177 0.00256944 0.00134247 0.000654466 0.000412702 0.000230294 0.000189691 
256 0.345938 0.649388 0.00465415 1.06223e-05 4.35011e-06 2.94282e-06 9.658e-07 5.64013e-07 2.2402e-07 2.36337e-07 
257 0.0731033 0.908174 0.0108457 0.00384237 0.00167809 0.00103439 0.000549479 0.000311025 0.000214236 0.000247011 
258 0.0422346 0.867503 0.0750554 0.00713304 0.00361633 0.00226054 0.000981083 0.000795013 0.00021212 0.000209315 
259 0.264691 0.734833 0.000452419 7.31249e-06 1.09312e-05 3.44081e-06 9.99593e-07 0 0 9.91045e-07 
260 0.241938 0.752113 0.00385483 0.00100825 0.000545373 0.000263232 0.000139897 7.80958e-05 2.69534e-05 3.20265e-05 
261 0.141823 0.838301 0.0156477 0.00203617 0.00110139 0.000531601 0.000282524 0.000157716 5.44328e-05 6.46778e-05 
262 0.159246 0.829448 0.00894467 0.00113737 0.000615216 0.000296943 0.000157813 8.80972e-05 3.04052e-05 3.61279e-05 
263 0.863384 0.135831 0.000708119 3.97605e-05 1.71975e-05 1.1634e-05 3.81814e-06 2.22974e-06 8.8563e-07 9.34324e-07 
264 0.13704 0.734877 0.0799178 0.0243353 0.00981705 0.00552025 0.00438769 0.00221683 0.00121417 0.000673802 
265 0.399933 0.596164 0.00331238 0.000575281 1.12914e-05 2.74086e-06 7.96249e-07 0 0 7.8944e-07 
266 0.281228 0.71832 0.000109815 0.000184825 0.000154554 1.99158e-06 6.53614e-07 3.81701e-07 1.51608e-07 1.59944e-07 
267 0.0425782 0.935264 0.013552 0.00412114 0.00213413 0.00111503 0.000543586 0.000342781 0.000191277 0.000157553 
268 0.0266667 0.970829 0.00149669 0.000485366 0.00026254 0.000126719 6.73459e-05 3.7595e-05 1.29752e-05 1.54174e-05 
269 0.261329 0.733443 0.00462319 0.00031472 0.000136125 9.20876e-05 3.02221e-05 1.76493e-05 7.01011e-06 7.39554e-06 
270 0.0709945 0.880442 0.0326659 0.0076131 0.00394243 0.00205982 0.00100418 0.00063323 0.000353352 0.000291052 
271 0.30728 0.676509 0.00974211 0.00311503 0.00168496 0.00081327 0.00043222 0.000241281 8.3274e-05 9.89474e-05 
272 0.0195125 0.964707 0.0091262 0.00324602 0.00141764 0.000873849 0.000464198 0.000262753 0.000180986 0.000208674 
273 0.651371 0.344707 0.00390017 6.61109e-06 9.85281e-06 3.10137e-06 9.00983e-07 0 0 8.93278e-07 
274 0.167687 0.829486 0.00251907 0.000159819 6.9126e-05 4.67632e-05 1.53472e-05 8.96251e-06 3.55982e-06 3.75555e-06 
275 0.326731 0.649929 0.0163408 0.00675273 0.000115662 7.82443e-05 2.56789e-05 1.49961e-05 5.9563e-06 6.28379e-06 
276 0.280942 0.702229 0.0149642 0.000818536 0.000557812 0.0002179 0.000138108 6.6859e-05 3.50291e-05 3.09517e-05 
277 0.970416 0.0275902 0.00115264 0.000836303 4.29812e-06 0 0 1.62633e-07 0 0 
278 0.18978 0.715288 0.0633737 0.0148008 0.00750513 0.00469139 0.00203608 0.00164992 0.000440222 0.0004344 
279 0.14459 0.610199 0.146486 0.0422722 0.0232532 0.0130787 0.0103954 0.00525217 0.00287666 0.00159639 
280 0.0777658 0.919593 0.00158 0.000510911 0.000276358 0.000133388 7.08904e-05 3.95737e-05 1.36582e-05 1.62288e-05 
281 0.368617 0.630841 0.000439504 4.48714e-05 3.05789e-05 1.19452e-05 7.57101e-06 3.66517e-06 1.92027e-06 1.69675e-06 
282 0.403797 0.571124 0.0192206 0.00282099 0.00152557 0.000736339 0.000391334 0.000218457 7.53967e-05 8.95875e-05 
283 0.942739 0.0433914 0.0137031 7.66835e-05 4.81145e-05 1.87952e-05 1.19126e-05 5.76698e-06 3.02146e-06 2.66976e-06 
284 0.417344 0.580163 0.0015077 0.000474874 0.000256865 0.00012398 6.58902e-05 3.67823e-05 1.26948e-05 1.50841e-05 
285 0.056594 0.90657 0.022953 0.00682509 0.00325647 0.00183082 0.000976152 0.000447717 0.000341755 0.000205353 
286 0.0684755 0.717127 0.174623 0.0302937 0.00457202 0.00236384 0.00126035 0.000578065 0.000441253 0.000265139 
287 0.577199 0.407809 0.0135051 0.000734719 0.000401272 0.00015675 9.93507e-05 4.80962e-05 2.51988e-05 2.22656e-05 
288 0.322574 0.64549 0.0165232 0.00499093 0.0073267 0.00160042 0.000657739 0.000414766 0.000231446 0.000190639 
289 0.79473 0.205077 0.000178852 4.28331e-06 6.40297e-06 2.01546e-06 5.85515e-07 0 0 5.80508e-07 
290 0.416133 0.573491 0.00741146 0.00254202 0.000225113 8.79332e-05 5.57333e-05 2.69808e-05 1.41359e-05 1.24905e-05 
291 0.684047 0.31522 0.000650096 4.34789e-05 1.88058e-05 1.2722e-05 4.17521e-06 2.43826e-06 9.68453e-07 1.0217e-06 
292 0.183485 0.813412 0.00260023 0.0002207 0.000150403 5.87524e-05 3.72381e-05 1.80272e-05 9.44488e-06 8.34549e-06 
293 0.104497 0.835254 0.0368503 0.0112058 0.00580291 0.00303187 0.00147806 0.000932058 0.000520102 0.000428403 
294 0.146462 0.735285 0.0650293 0.0332255 0.00922666 0.00518731 0.00276576 0.00126853 0.000968306 0.000581833 
295 0.215753 0.775783 0.00832223 7.6407e-05 3.09375e-05 2.0929e-05 6.86866e-06 4.0112e-06 1.59321e-06 1.6808e-06 
296 0.13677 0.754911 0.0629885 0.0146664 0.0223008 0.00396819 0.00193453 0.0012199 0.000680722 0.000560704 
297 0.134518 0.687961 0.0967815 0.0627056 0.00911986 0.00429295 0.00228891 0.00104982 0.000801357 0.000481517 
298 0.159777 0.696082 0.0711222 0.0512019 0.0100655 0.00565889 0.0030172 0.00138385 0.00105633 0.000634727 
299 0.115021 0.881547 0.00277811 0.000287038 0.00019561 7.64121e-05 4.84311e-05 2.34457e-05 1.22838e-05 1.0854e-05 
300 0.389182 0.608444 0.00137919 0.000160184 0.000759092 3.85208e-05 1.86605e-05 9.03366e-06 4.73296e-06 4.18204e-06 
301 0.0603623 0.910819 0.0176223 0.00536192 0.00277666 0.00145073 0.000707246 0.000445984 0.000248866 0.000204989 
302 0.134789 0.787058 0.0479714 0.0144539 0.00748491 0.00391067 0.00190649 0.00120222 0.000670857 0.000552578 
303 0.230148 0.768647 0.00106511 7.25418e-05 3.13764e-05 2.12259e-05 6.96609e-06 4.06809e-06 1.61581e-06 1.70465e-06 
304 0.0720328 0.69722 0.104425 0.0565945 0.0379169 0.0119077 0.0128632 0.00115495 0.00214452 0.00373978 
305 0.784501 0.204861 0.00792742 0.00130682 0.000668122 0.000349077 0.000170178 0.000107313 5.98824e-05 4.93245e-05 
306 0.128705 0.870107 0.00106517 6.37283e-05 2.75643e-05 1.8647e-05 6.11974e-06 3.57384e-06 1.41949e-06 1.49754e-06 
307 0.410494 0.565458 0.0228372 0.000575779 0.000338406 0.000132193 8.37857e-05 4.05611e-05 2.1251e-05 1.87774e-05 
308 0.29506 0.702463 0.00153972 0.000451259 0.000244091 0.000117814 6.26135e-05 3.49532e-05 1.20635e-05 1.4334e-05 
309 0.0983395 0.737989 0.147098 0.00792934 0.0038719 0.0024203 0.00105042 0.000851197 0.000227111 0.000224108 
310 0.0577745 0.908887 0.0204038 0.00619451 0.00320782 0.001676 0.000817067 0.000515237 0.00028751 0.000236819 
311 0.901057 0.0987767 0.000147348 9.79027e-06 4.23456e-06 2.86465e-06 9.40145e-07 5.49031e-07 2.1807e-07 2.3006e-07 
312 0.113356 0.883002 0.00217996 0.000703903 0.000380749 0.000183774 9.76686e-05 5.45222e-05 1.88174e-05 2.23591e-05 
313 0.0811193 0.861084 0.0360105 0.0107101 0.00511015 0.00287297 0.00153181 0.000702571 0.000536293 0.000322246 
314 0.0501794 0.939878 0.00609285 0.00184347 0.000954637 0.000498773 0.000243157 0.000153333 8.55621e-05 7.04766e-05 
315 0.122617 0.845788 0.0221854 0.00462574 0.00220704 0.00124082 0.000661578 0.000303436 0.000231621 0.000139176 
316 0.113275 0.733775 0.0795213 0.0283153 0.0132607 0.0221128 0.00404925 0.00229201 0.00157876 0.00182028 
317 0.11852 0.754005 0.0797175 0.0232976 0.0101747 0.0062718 0.00333165 0.00188583 0.00129898 0.0014977 
318 0.16102 0.685704 0.104146 0.0178503 0.00864559 0.0174791 0.00255406 0.00117095 0.000893821 0.000537076 
319 0.0822808 0.884234 0.0240189 0.00453326 0.00234754 0.00122653 0.000597944 0.00037706 0.000210405 0.000173309 
320 0.350616 0.647049 0.00190148 0.000190016 0.000129492 5.0584e-05 3.20609e-05 1.55208e-05 8.13176e-06 7.18521e-06 
321 0.165806 0.797846 0.0334124 0.00144481 0.000687701 0.000386632 0.000206144 9.45489e-05 7.21719e-05 4.33664e-05 
322 0.745993 0.234725 0.00463466 0.000111672 0.000167053 0.0143381 1.52652e-05 0 1.13819e-07 1.51347e-05 
323 0.357269 0.604619 0.0270553 0.0106713 0.000180581 0.000122157 4.00905e-05 2.34123e-05 9.29912e-06 9.81041e-06 
324 0.232252 0.739822 0.0270161 0.000407016 0.000267867 0.000104638 6.63211e-05 3.21064e-05 1.68214e-05 1.48633e-05 
325 0.741338 0.256981 0.00136406 0.000138708 9.45268e-05 3.69254e-05 2.34038e-05 1.13299e-05 5.93603e-06 5.24507e-06 
326 0.0524259 0.878095 0.0482047 0.0104182 0.00451576 0.00278355 0.00147865 0.000836971 0.000576512 0.000664709 
327 0.165482 0.507628 0.216571 0.0575461 0.0279686 0.00977147 0.00776671 0.00392404 0.00214922 0.00119271 
328 0.108841 0.436034 0.431678 0.0115914 0.00493132 0.00303971 0.00161473 0.000913993 0.000629565 0.000725879 
329 0.413207 0.585657 0.00030655 0.000508562 0.00031764 1.97045e-06 6.46621e-07 3.77617e-07 1.49986e-07 1.58232e-07 
330 0.10743 0.860655 0.0217554 0.00486496 0.00251931 0.00131627 0.000641696 0.000404649 0.000225801 0.00018599 
331 0.179062 0.799687 0.0191162 0.000936942 0.000638502 0.000249421 0.000158086 7.65304e-05 4.00962e-05 3.5429e-05 
332 0.311698 0.670768 0.014173 0.00147498 0.00100517 0.000392652 0.000248869 0.000120479 6.31217e-05 5.57743e-05 
333 0.356733 0.623357 0.0127065 0.0041377 0.00141586 0.000794652 0.000423692 0.000194328 0.000148336 8.91318e-05 
334 0.200547 0.798431 0.000907425 5.96408e-05 2.57963e-05 1.7451e-05 5.72722e-06 3.34461e-06 1.32845e-06 1.40149e-06 
335 0.236435 0.740962 0.016134 0.00311503 0.00168496 0.00081327 0.00043222 0.000241281 8.3274e-05 9.89474e-05 
336 0.303361 0.65095 0.0186375 0.0205341 0.00327638 0.00157939 0.000839384 0.000468575 0.000161721 0.000192159 
337 0.313308 0.655944 0.0183636 0.00596307 0.00322549 0.00155683 0.000827393 0.000461881 0.00015941 0.000189414 
338 0.138809 0.766289 0.0488936 0.0298004 0.00771857 0.00402741 0.0019634 0.00123811 0.000690882 0.000569073 
339 0.37283 0.610107 0.0108473 0.00297706 0.00154167 0.000805482 0.00039268 0.000247621 0.000138176 0.000113815 
340 0.0547332 0.898794 0.027764 0.00801077 0.00440659 0.00247848 0.00196998 0.000995309 0.000545139 0.000302523 
341 0.150574 0.840066 0.0078242 0.000674085 0.000459374 0.000179447 0.000113736 5.50603e-05 2.88475e-05 2.54896e-05 
342 0.109573 0.846079 0.0320344 0.00605356 0.00288834 0.00162385 0.000865804 0.000397105 0.000303122 0.000182139 
343 0.123383 0.805491 0.0521272 0.00994228 0.00417811 0.00234897 0.00125242 0.000574429 0.000438478 0.000263471 
344 0.179527 0.706062 0.0629138 0.024987 0.0180795 0.00406004 0.00216451 0.000992763 0.000757805 0.000455347 
345 0.115159 0.873873 0.00661195 0.00209756 0.00113459 0.000547629 0.000291043 0.000162471 5.6074e-05 6.66279e-05 
346 0.085978 0.848167 0.0603719 0.0046828 0.00040223 0.000193911 0.000103056 5.75297e-05 1.98554e-05 2.35924e-05 
347 0.677226 0.314813 0.00422914 0.00235335 0.00112964 0.000110468 7.00159e-05 3.38951e-05 1.77585e-05 1.56914e-05 
348 0.864727 0.133223 0.00170947 0.000149571 0.000101929 3.98171e-05 2.52367e-05 1.22172e-05 6.4009e-06 5.65583e-06 
349 0.139028 0.735064 0.0701615 0.0406324 0.00732273 0.00369639 0.00180202 0.00113634 0.000634097 0.0005223 
350 0.137795 0.61567 0.215584 0.0193394 0.00869186 0.00141975 0.000743041 0.000340799 0.000260142 0.000156313 
351 0.0526844 0.945123 0.00130979 0.000425066 0.000229923 0.000110976 5.89791e-05 3.29243e-05 1.13633e-05 1.3502e-05 
352 0.722735 0.274722 0.00153108 0.000487065 0.000263459 0.000127162 6.75817e-05 3.77266e-05 1.30207e-05 1.54714e-05 
353 0.142699 0.786033 0.0457535 0.0125434 0.00598486 0.00336474 0.00179401 0.000822831 0.00062809 0.000377405 
354 0.233762 0.744434 0.0135681 0.0058705 0.00118834 0.000573569 0.000304829 0.000170167 5.87301e-05 6.9784e-05 
355 0.119695 0.704393 0.107396 0.0259392 0.0231527 0.00727104 0.00785454 0.000705236 0.00130948 0.00228358 
356 0.105561 0.778447 0.0774792 0.0240268 0.00673097 0.00373487 0.00199135 0.000913342 0.00069718 0.00041892 
357 0.133942 0.757244 0.0610868 0.0284031 0.0080381 0.00495473 0.002632 0.00148981 0.00102619 0.00118318 
358 0.682946 0.315584 0.00102295 0.000215273 0.000116444 5.62033e-05 2.98698e-05 1.66744e-05 5.75488e-06 6.83804e-06 
359 0.274145 0.686449 0.0160713 0.0177169 0.00282231 0.00136223 0.000723969 0.000404146 0.000139484 0.000165737 
360 0.100803 0.74266 0.104366 0.022339 0.0122883 0.00691153 0.00549353 0.00277554 0.00152018 0.000843622 
361 0.590703 0.385445 0.0126501 0.0104352 0.000419874 0.000154914 9.81864e-05 4.75326e-05 2.49035e-05 2.20047e-05 
362 0.320492 0.620316 0.0498017 0.00480447 0.00230392 0.00111202 0.000590995 0.000329915 0.000113864 0.000135295 
363 0.14308 0.759098 0.0503979 0.0153433 0.00835577 0.0190899 0.00205963 0.0012762 0.00071214 0.000586583 
364 0.402902 0.57392 0.0190341 0.00356057 0.000310475 0.000121278 7.68676e-05 3.7212e-05 1.94963e-05 1.72269e-05 
365 0.435359 0.564187 0.000113563 1.96001e-05 0.000318812 1.40193e-06 3.54887e-07 0 0 3.51852e-07 
366 0.257409 0.718151 0.0157981 0.00741267 0.000654979 0.000255857 0.000162166 7.85054e-05 4.1131e-05 3.63433e-05 
367 0.107465 0.832138 0.0332511 0.0169336 0.00471148 0.00264884 0.0014123 0.00064776 0.000494454 0.000297106 
368 0.113199 0.879528 0.00435432 0.00140544 0.000760216 0.00036693 0.000195008 0.000108861 3.75714e-05 4.46429e-05 
369 0.188456 0.757498 0.0368803 0.0084383 0.00402618 0.00226355 0.00120688 0.000553541 0.000422533 0.000253891 
370 0.10948 0.588483 0.230147 0.0405242 0.0140481 0.00878133 0.00381113 0.00308832 0.000824005 0.000813108 
371 0.109415 0.541034 0.283555 0.0254481 0.0129436 0.0197618 0.00350587 0.00283399 0.000756146 0.000746146 
372 0.140274 0.577613 0.171406 0.0433002 0.0351973 0.0126896 0.0100851 0.00509539 0.00279078 0.00154874 
373 0.113304 0.632419 0.234863 0.0101238 0.00428593 0.00240959 0.00128474 0.000589253 0.000449794 0.000270271 
374 0.714056 0.284515 0.0013496 2.44283e-05 3.6517e-05 1.14945e-05 3.33927e-06 0 0 3.31071e-06 
375 0.645507 0.352044 0.0020139 0.000191236 0.000130323 5.09087e-05 3.22667e-05 1.56205e-05 8.18395e-06 7.23133e-06 
376 0.22781 0.746754 0.0181516 0.00350774 0.00189735 0.000915783 0.000486702 0.000271695 9.37707e-05 0.00011142 
377 0.2103 0.691456 0.0806018 0.0132129 0.00210804 0.00110137 0.000536929 0.000338584 0.000188935 0.000155624 
378 0.278193 0.719237 0.00209611 0.000208063 0.00014179 5.53881e-05 3.51058e-05 1.69949e-05 8.90405e-06 7.86761e-06 
379 0.404832 0.518465 0.0742248 0.00108744 0.000741035 0.000289474 0.000183472 8.882e-05 4.6535e-05 4.11183e-05 
380 0.466493 0.326857 0.175516 0.0152328 0.0068335 0.00357193 0.00283909 0.00143442 0.000785641 0.00043599 
381 0.462797 0.522334 0.00913858 0.00268771 0.00136287 0.00085192 0.000369736 0.000299613 7.99408e-05 7.88837e-05 
382 0.368578 0.546499 0.0741018 0.0104475 0.000175211 0.000118529 3.88997e-05 2.27169e-05 9.02291e-06 9.51901e-06 
383 0.230161 0.749598 0.0187717 0.000644904 0.000439488 0.000171679 0.000108813 5.26768e-05 2.75987e-05 2.43862e-05 
384 0.479746 0.497472 0.0214763 0.000573137 0.000390468 0.00015253 9.66758e-05 4.68013e-05 2.45204e-05 2.16662e-05 
385 0.480573 0.414034 0.083271 0.0162805 0.00279951 0.00146465 0.000780921 0.000358173 0.000273404 0.000164282 
386 0.27962 0.681042 0.0362181 0.00150254 0.000812174 0.000392008 0.000208336 0.000116301 4.01393e-05 4.76941e-05 
387 0.314525 0.635366 0.0472795 0.00124144 0.000846014 0.000330482 0.000209464 0.000101403 5.31275e-05 4.69434e-05 
388 0.0550476 0.92199 0.012946 0.00469763 0.00238206 0.00148901 0.000646234 0.000523671 0.000139723 0.000137875 
389 0.0839512 0.815361 0.0663029 0.0161267 0.00817723 0.00511152 0.00221842 0.00179768 0.000479645 0.000473302 
390 0.123775 0.765267 0.0652343 0.0215 0.010849 0.00678162 0.00294325 0.00238504 0.000636361 0.000627945 
391 0.45402 0.322461 0.21845 0.00431444 0.000404286 0.000156133 9.89595e-05 4.79068e-05 2.50996e-05 2.2178e-05 
392 0.143457 0.777192 0.0569223 0.0107602 0.00555332 0.00290147 0.00141449 0.000891969 0.000497732 0.000409977 
393 0.417179 0.566377 0.0119478 0.00383716 0.000352629 0.000136281 8.63771e-05 4.18156e-05 2.19082e-05 1.93581e-05 
394 0.0955342 0.772703 0.0788036 0.0248381 0.0125948 0.00787291 0.00341687 0.00276884 0.000738763 0.000728994 
395 0.355042 0.595865 0.0455934 0.00153589 0.00104662 0.000408844 0.000259131 0.000125447 6.57247e-05 5.80743e-05 
396 0.3849 0.588825 0.0189889 0.00350957 0.00189735 0.000915783 0.000486702 0.000271695 9.37707e-05 0.00011142 
397 0.326391 0.62057 0.0498999 0.0013918 0.000931392 0.000363834 0.000230603 0.000111636 5.8489e-05 5.16808e-05 
398 0.406828 0.550867 0.0266115 0.0143973 0.000690632 0.000269782 0.000170991 8.27778e-05 4.33694e-05 3.83211e-05 
399 0.279088 0.545645 0.149042 0.00851687 0.0142919 0.00188773 0.000772233 0.000431089 0.000148783 0.000176786 
400 0.148622 0.580831 0.164588 0.0392529 0.0215923 0.0121445 0.00965435 0.0191613 0.0026712 0.00148237 
401 0.131118 0.705956 0.0839476 0.0304354 0.0162793 0.0204701 0.00660217 0.0033928 0.000905245 0.000893274 
402 0.247728 0.737801 0.0123104 0.00107168 0.000546693 0.00026387 0.000140236 7.82849e-05 2.70187e-05 3.2104e-05 
403 0.174614 0.566583 0.201556 0.0224333 0.0110682 0.0069191 0.0130905 0.002446 0.000649216 0.000640631 
404 0.525833 0.382062 0.0821085 0.00531913 0.00222611 0.00116309 0.000567016 0.000357557 0.000199522 0.000164344 
405 0.110416 0.546125 0.218063 0.104617 0.0086432 0.00532766 0.00283011 0.00160195 0.00110343 0.00127224 
406 0.2802 0.718445 0.00126331 2.83227e-05 4.23385e-05 1.33269e-05 3.87162e-06 0 0 3.83851e-06 
407 0.409413 0.559336 0.0267949 0.00215165 0.00115787 0.000558862 0.000297013 0.000165803 5.72242e-05 6.79946e-05 
408 0.286364 0.693606 0.0180902 0.000851273 0.000580124 0.000226616 0.000143633 6.95334e-05 3.64303e-05 3.21898e-05 
409 0.234962 0.737616 0.0209144 0.00311662 0.00161393 0.000843239 0.000411087 0.000259229 0.000144653 0.00011915 
410 0.655763 0.326021 0.00251574 6.05973e-05 9.07687e-05 0.015532 8.44223e-06 0 0 8.21262e-06 
411 0.187198 0.798345 0.00867787 0.00278276 0.00150523 0.000726521 0.000386117 0.000215544 7.43914e-05 8.8393e-05 
412 0.0636763 0.898165 0.0303918 0.00397812 0.00157609 0.000971514 0.000516079 0.000292119 0.000201214 0.000231996 
413 0.200796 0.724912 0.0499401 0.0157381 0.00409926 0.00214156 0.00104403 0.000658358 0.000367374 0.000302602 
414 0.381157 0.494236 0.0660896 0.0374075 0.0107187 0.0052688 0.00228668 0.00185299 0.000494403 0.000487865 
415 0.392141 0.538325 0.0172559 0.0308235 0.0203825 0.000477811 0.00030284 0.000146606 7.68108e-05 6.787e-05 
416 0.193423 0.797749 0.00698801 0.000886238 0.000479372 0.000231376 0.000122967 6.86447e-05 2.36915e-05 2.81506e-05 
417 0.183687 0.780319 0.0347244 0.000557863 0.000378812 0.000147977 9.379e-05 4.54042e-05 2.37884e-05 2.10194e-05 
418 0.141989 0.797187 0.040017 0.013165 0.00363703 0.00190026 0.000926392 0.000584177 0.00032598 0.000268506 
419 0.0772538 0.922221 0.000473023 2.72394e-05 1.17818e-05 7.97029e-06 2.61576e-06 1.52757e-06 6.06733e-07 6.40093e-07 
420 0.303094 0.687939 0.00672684 0.00107859 0.000583422 0.000281597 0.000149658 8.35444e-05 2.88339e-05 3.42609e-05 
421 0.714163 0.272609 0.0078843 0.00260693 0.00113853 0.000701802 0.000372805 0.000211021 0.000145353 0.00016759 
422 0.347217 0.638547 0.0088518 0.00259264 0.00140239 0.000676883 0.000359736 0.000200818 6.93088e-05 8.23537e-05 
423 0.1157 0.803305 0.061061 0.0103306 0.00457043 0.00238793 0.00116414 0.000734098 0.000409638 0.000337415 
424 0.481033 0.506405 0.00979489 0.00142106 0.000676001 0.000326282 0.000173406 9.68015e-05 3.34093e-05 3.96975e-05 
425 0.0900281 0.775092 0.0507045 0.062193 0.0111305 0.00476416 0.00253077 0.00143251 0.000986723 0.00113768 
426 0.237583 0.744705 0.0171616 0.000286133 0.00012375 8.3716e-05 2.74746e-05 1.60448e-05 6.37283e-06 6.72322e-06 
427 0.0524033 0.942973 0.00277561 0.00089001 0.000481416 0.000232363 0.000123491 6.89375e-05 2.37926e-05 2.82707e-05 
428 0.215237 0.591364 0.179859 0.0101561 0.00172683 0.000807246 0.000429019 0.000239494 8.26572e-05 9.82145e-05 
429 0.256669 0.735999 0.00385279 0.00248671 0.00049842 0.00024057 0.000127853 7.13724e-05 2.46329e-05 2.92692e-05 
430 0.0965959 0.867717 0.0348318 0.000376524 0.00025508 9.96429e-05 6.31551e-05 3.05737e-05 1.60183e-05 1.41538e-05 
431 0.353332 0.612573 0.0306386 0.00334554 5.17435e-05 3.50041e-05 1.14879e-05 6.70879e-06 2.66466e-06 2.81117e-06 
432 0.135627 0.760432 0.0585811 0.0332421 0.0057986 0.00299818 0.00146164 0.000921702 0.000514323 0.000423643 
433 0.250022 0.710344 0.0320069 0.00371963 0.00196334 0.000947636 0.00050363 0.000281145 9.70323e-05 0.000115295 
434 0.148488 0.783853 0.043452 0.0119002 0.00567794 0.00319219 0.00170201 0.000780634 0.00059588 0.000358051 
435 0.155118 0.639983 0.181294 0.0116062 0.00553599 0.00311239 0.00165946 0.000761119 0.000580984 0.0003491 
436 0.262121 0.733388 0.00401431 0.000209238 0.000142587 5.56992e-05 3.5303e-05 1.70904e-05 8.95407e-06 7.91181e-06 
437 0.278876 0.67585 0.0315461 0.00307062 0.00195485 0.00785958 0.000425864 0.000237733 8.20494e-05 9.74923e-05 
438 0.359106 0.565649 0.0695218 0.00278588 0.00147571 0.000712276 0.000378546 0.000211318 7.29328e-05 8.66598e-05 
439 0.136585 0.720203 0.143159 3.02408e-05 1.09034e-05 7.37609e-06 2.42075e-06 1.41368e-06 5.615e-07 5.92373e-07 
440 0.0540284 0.720486 0.130474 0.0422563 0.028897 0.00893074 0.00964743 0.000866214 0.00160839 0.00280484 
441 0.293741 0.698366 0.00749963 0.000204568 8.84813e-05 5.98569e-05 1.96444e-05 1.1472e-05 4.55657e-06 4.8071e-06 
442 0.322918 0.669523 0.00648079 0.00047293 0.000322291 0.000125898 7.97959e-05 3.86296e-05 2.0239e-05 1.78832e-05 
443 0.377288 0.617659 0.00161818 0.00301916 0.000208867 0.000100812 5.35777e-05 2.9909e-05 1.03226e-05 1.22655e-05 
444 0.303964 0.652742 0.0193605 0.00769283 0.0133573 0.00141364 0.000742532 0.000414509 0.00014306 0.000169987 
445 0.122661 0.86947 0.00717062 0.000307127 0.000208036 8.12661e-05 5.15076e-05 2.49351e-05 1.30641e-05 1.15435e-05 
446 0.0621291 0.616215 0.106372 0.154928 0.0329192 0.0102703 0.0110945 0.000996146 0.00184965 0.00322556 
447 0.138754 0.604493 0.0627272 0.175019 0.00880316 0.0049143 0.0026202 0.00120177 0.000917342 0.00055121 
448 0.938984 0.0439771 0.0168913 0.000100444 4.55752e-05 0 0 1.74023e-06 0 0 
449 0.156364 0.731383 0.0744903 0.0185642 0.00885759 0.00497982 0.00265513 0.00121779 0.000929574 0.000558559 
450 0.389798 0.582629 0.0212122 0.00308109 0.00164806 0.000795461 0.000422755 0.000235998 8.14505e-05 9.67807e-05 
451 0.449962 0.524011 0.0207727 0.00355342 0.000906444 0.000354088 0.000224426 0.000108646 5.69223e-05 5.02965e-05 
452 0.290709 0.509751 0.196881 0.00118257 0.00078699 0.000307425 0.000194851 9.43282e-05 4.94209e-05 4.36683e-05 
453 0.18874 0.732128 0.0482809 0.0132101 0.00726663 0.00408711 0.00324858 0.0016413 0.000898955 0.000498873 
454 0.245369 0.710369 0.0330046 0.00539095 0.00279167 0.00145857 0.000711069 0.000448395 0.000250211 0.000206097 
455 0.162752 0.826266 0.00770706 0.00156811 0.000812041 0.000424271 0.000206836 0.000130429 7.27816e-05 5.99495e-05 
456 0.173963 0.821855 0.00358112 0.000263669 0.000179684 7.01909e-05 4.4488e-05 2.15369e-05 1.12837e-05 9.97028e-06 
457 0.163648 0.735668 0.0576851 0.0255895 0.00724149 0.00446372 0.00237117 0.00134217 0.000924497 0.00106593 
458 0.373861 0.59569 0.0277111 0.00120139 0.000818724 0.000319822 0.000202707 9.81317e-05 5.14137e-05 4.54291e-05 
459 0.175456 0.822432 0.00198891 6.36295e-05 2.75214e-05 1.8618e-05 6.11022e-06 3.56828e-06 1.41728e-06 1.49521e-06 
460 0.646267 0.334053 0.0142525 0.00123426 0.00286872 0.00112472 0.000101764 4.92645e-05 2.58109e-05 2.28065e-05 
461 0.194302 0.787458 0.0108941 0.00353741 0.00191343 0.000923544 0.000490826 0.000273997 9.45654e-05 0.000112364 
462 0.15904 0.536364 0.280101 0.0120827 0.00572689 0.00321971 0.00171668 0.000787364 0.000601017 0.000361137 
463 0.186634 0.810399 0.00263462 0.000172631 7.46678e-05 5.05122e-05 1.65775e-05 9.68103e-06 3.84521e-06 4.05663e-06 
464 0.10858 0.886659 0.00307161 0.000813674 0.000440125 0.000212433 0.0001129 6.30247e-05 2.17519e-05 2.58459e-05 
465 0.255265 0.705893 0.0160759 0.00518556 0.0148526 0.00132988 0.000706311 0.000394289 0.000136082 0.000161695 
466 0.0841361 0.678529 0.0522992 0.158557 0.0216611 0.00231979 0.00123686 0.000567293 0.000433031 0.000260198 
467 0.390594 0.544254 0.0503355 0.00331306 0.00179194 0.000864906 0.000459663 0.000284592 0.00799707 0.000105231 
468 0.570254 0.42338 0.00406218 0.00222022 3.91539e-05 2.64854e-05 8.6922e-06 5.07612e-06 2.01618e-06 2.12704e-06 
469 0.164643 0.821805 0.0112706 0.00109885 0.000594169 0.000286785 0.000152414 8.50834e-05 2.9365e-05 3.4892e-05 
470 0.129244 0.754666 0.0455 0.014405 0.046261 0.00577303 0.00182705 0.00115213 0.000642904 0.000529554 
471 0.362688 0.612837 0.0146794 0.00619102 0.00171581 0.000896466 0.000437036 0.000275592 0.000153784 0.000126671 
472 0.192154 0.807225 0.000580569 1.24674e-05 1.86371e-05 5.86639e-06 1.70425e-06 0 0 1.68968e-06 
473 0.46796 0.48717 0.0431702 0.000756544 0.000502583 0.000196326 0.000124434 6.02393e-05 3.15609e-05 2.78872e-05 
474 0.14146 0.744778 0.0759985 0.0185643 0.00885759 0.00497982 0.00265513 0.00121779 0.000929574 0.000558559 
475 0.242635 0.746511 0.00938436 0.000644904 0.000439488 0.000171679 0.000108813 5.26768e-05 2.75987e-05 2.43862e-05 
476 0.0509586 0.947109 0.00156755 0.000160186 0.000109163 4.26428e-05 2.70276e-05 1.30842e-05 6.85515e-06 6.0572e-06 
477 0.336854 0.621452 0.016822 0.0228454 0.00108002 0.000421892 0.000267401 0.00012945 6.78223e-05 5.99277e-05 
478 0.0776787 0.915877 0.00384871 0.00124974 0.000676001 0.000326282 0.000173406 9.68015e-05 3.34093e-05 3.96975e-05 
479 0.193965 0.800052 0.00521498 0.000337043 0.000229687 8.97237e-05 5.68681e-05 2.75302e-05 1.44237e-05 1.27448e-05 
480 0.346794 0.609409 0.0225119 0.006028 0.00239227 0.0116572 0.000610344 0.000340333 0.00011746 0.000139568 
481 0.22799 0.734231 0.0264279 0.00860841 0.00137855 0.000664501 0.000353155 0.000197144 6.8041e-05 8.08473e-05 
482 0.144619 0.775137 0.0358721 0.0325764 0.00561369 0.002933 0.00142987 0.000901664 0.000503142 0.000414434 
483 0.0323451 0.73142 0.0909447 0.0516367 0.0526311 0.018799 0.00690178 0.00514014 0.0036496 0.00653171 
484 0.137706 0.796799 0.0370542 0.013339 0.00676388 0.00422805 0.00183499 0.00148697 0.000396743 0.000391497 
485 0.111583 0.752935 0.0783164 0.0278863 0.0121789 0.00750716 0.00398789 0.00225729 0.00155484 0.0017927 
486 0.121038 0.795629 0.0633088 0.00958972 0.00496595 0.00259458 0.00126488 0.000797626 0.000445088 0.000366614 
487 0.140913 0.777898 0.049635 0.0151109 0.00782513 0.00408843 0.00199315 0.00125687 0.00070135 0.000577695 
488 0.346488 0.651453 0.00190921 4.59827e-05 6.87379e-05 2.16366e-05 6.28568e-06 0 0 6.23193e-06 
489 0.162235 0.722176 0.0720166 0.0214203 0.0102203 0.00574595 0.00306362 0.00140514 0.00107259 0.000644492 
490 0.85602 0.141999 0.00141725 0.000271146 0.000146613 7.0765e-05 3.76087e-05 2.09946e-05 7.24591e-06 8.6097e-06 
491 0.178122 0.783648 0.0261923 0.00576497 0.00298531 0.00155975 0.000760391 0.000479498 0.000267567 0.000220392 
492 0.0724101 0.85841 0.0586495 0.00517734 0.00246959 0.00138843 0.000740279 0.000339532 0.000259175 0.000155732 
493 0.141589 0.555999 0.253361 0.0230242 0.0116569 0.00728663 0.00316243 0.00256265 0.000683749 0.000674707 
494 0.0909294 0.799818 0.0568346 0.0311817 0.00883404 0.00544475 0.00289231 0.00163715 0.00112768 0.0013002 
495 0.217444 0.773929 0.00770163 0.00040592 0.000276626 0.00010806 6.84897e-05 3.31562e-05 1.73714e-05 1.53493e-05 
496 0.320631 0.597766 0.0675074 0.0120547 0.00110454 0.000417451 0.000264587 0.000128088 6.71084e-05 5.92969e-05 
497 0.153231 0.843123 0.00131124 0.00225305 3.8309e-05 2.59121e-05 8.50405e-06 4.96624e-06 1.97254e-06 2.081e-06 
498 0.0679286 0.65615 0.241531 0.0162675 0.00811666 0.00507366 0.00220199 0.00178436 0.000476092 0.000469796 
499 0.1752 0.818868 0.00354409 0.0011499 0.000621995 0.000300215 0.000159552 8.9068e-05 3.07403e-05 3.6526e-05 
500 0.225332 0.762238 0.00642577 0.00508259 0.000522379 0.000177838 0.000112716 5.45665e-05 2.85888e-05 2.5261e-05 
501 0.122579 0.707054 0.0879043 0.0317781 0.0196622 0.0212301 0.00437176 0.00354248 0.000945183 0.000932683 
502 0.0701361 0.877588 0.0365411 0.00773511 0.00369066 0.00207492 0.00110631 0.000507412 0.000387322 0.000232733 
503 0.414931 0.532148 0.0481396 0.00209822 0.00142988 0.000558562 0.000354024 0.000171385 8.97929e-05 7.93409e-05 
504 0.134527 0.850785 0.0141201 0.000272029 0.000157398 6.14851e-05 3.89701e-05 1.88657e-05 9.88419e-06 8.73366e-06 
505 0.246428 0.717209 0.0266235 0.00469005 0.0025369 0.00122447 0.000650758 0.000363277 0.000125379 0.000148977 
506 0.19706 0.667643 0.0681592 0.0553615 0.0100801 0.000827503 0.000438769 0.000244937 8.45357e-05 0.000100447 
507 0.173406 0.48852 0.301108 0.0334278 0.00177786 0.000858096 0.000456043 0.00025458 8.78639e-05 0.000104401 
508 0.0721677 0.925545 0.00189239 0.000173426 0.000118186 4.61675e-05 2.92616e-05 1.41657e-05 7.42176e-06 6.55786e-06 
509 0.141386 0.815116 0.0252863 0.00854115 0.00433102 0.00270729 0.00117497 0.000952129 0.000254041 0.000250682 
510 0.257129 0.698309 0.0300372 0.00714009 0.00340676 0.00191532 0.0010212 0.000468381 0.000357528 0.00021483 
511 0.398481 0.580203 0.0190643 0.00108463 0.000586453 0.00028306 0.000150435 8.39784e-05 2.89837e-05 3.44388e-05 
512 0.514271 0.481279 0.00360907 0.000368745 0.000251291 9.81631e-05 6.22171e-05 3.01196e-05 1.57804e-05 1.39436e-05 
513 0.360988 0.617621 0.0130947 0.00397337 0.0020576 0.00107505 0.000524095 0.000330491 0.000184419 0.000151904 
514 0.11378 0.869077 0.0124243 0.00227608 0.00122709 0.000592273 0.000314769 0.000175716 6.06452e-05 7.20595e-05 
515 0.273334 0.598426 0.0997112 0.0142229 0.00871827 0.002453 0.00130297 0.000737529 0.000508016 0.000585734 
516 0.0720337 0.682727 0.118641 0.0568718 0.0379168 0.0119077 0.0128632 0.00115495 0.00214452 0.00373978 
517 0.56777 0.42155 0.00963871 0.000456974 0.000311416 0.00012165 7.71034e-05 3.73262e-05 1.95561e-05 1.72798e-05 
518 0.348435 0.610321 0.034309 0.00333989 0.00180627 0.000871825 0.00046334 0.000258653 8.92697e-05 0.000106072 
519 0.320401 0.607975 0.0641446 0.00641609 0.000567192 0.000221552 0.000140423 6.79795e-05 3.56162e-05 3.14704e-05 
520 0.525856 0.469214 0.00308681 0.000905867 0.000432218 0.000242997 0.000129561 5.94237e-05 4.53598e-05 2.72557e-05 
521 0.0475825 0.877912 0.0501633 0.0118751 0.00518584 0.0031966 0.00169807 0.000961167 0.000662059 0.000763343 
522 0.0686168 0.926243 0.00308632 0.000989134 0.000535034 0.000258242 0.000137245 7.66153e-05 2.64425e-05 3.14193e-05 
523 0.327337 0.625614 0.0191859 0.00623701 0.0182883 0.00162654 0.00086444 0.000482562 0.000166548 0.000197895 
524 0.360474 0.619746 0.013582 0.00304665 0.00145365 0.000817257 0.000435744 0.000199856 0.000152556 9.16673e-05 
525 0.0938732 0.791722 0.0913781 0.01132 0.00540097 0.00303648 0.00161898 0.000742555 0.000566813 0.000340585 
526 0.953411 0.0327318 0.00160812 0.000182612 0.000155715 0 0 0.0119107 0 0 
527 0.330018 0.625411 0.0278162 0.00785786 0.00398454 0.0024907 0.00108097 0.000875959 0.000233718 0.000230627 
528 0.177464 0.805105 0.0126149 0.00231897 0.00125436 0.000605434 0.000321764 0.00017962 6.19929e-05 7.36608e-05 
529 0.0622404 0.917544 0.0126628 0.00371285 0.00177152 0.000995964 0.000531027 0.000243558 0.000185915 0.000111712 
530 0.148452 0.825879 0.0183339 0.00351397 0.00181852 0.000950128 0.000463196 0.000292088 0.00016299 0.000134253 
531 0.34806 0.621885 0.00943097 0.0163654 0.00264978 0.000784016 0.000416673 0.000232602 8.02786e-05 9.53882e-05 
532 0.166848 0.720852 0.0664464 0.0270931 0.00780394 0.00481041 0.00255534 0.00144642 0.000996302 0.00114872 
533 0.0377642 0.95869 0.00211826 0.000687669 0.000371968 0.000179536 9.5416e-05 5.32647e-05 1.83834e-05 2.18434e-05 
534 0.18337 0.810192 0.00520725 0.000539756 0.000367832 0.000143688 9.10714e-05 4.40882e-05 2.30989e-05 2.04102e-05 
535 0.176935 0.743627 0.05019 0.0142674 0.00623104 0.00384087 0.00204031 0.00115489 0.000795497 0.000917196 
536 0.114784 0.75446 0.0714568 0.0205883 0.0273105 0.00500478 0.00265859 0.00150486 0.00103656 0.00119513 
537 0.302217 0.693979 0.00312808 0.000296759 0.000202235 7.89998e-05 5.00712e-05 2.42397e-05 1.26998e-05 1.12215e-05 
538 0.136061 0.851697 0.00731747 0.00237167 0.00128286 0.000619194 0.000329077 0.000183703 6.34018e-05 7.53349e-05 
539 0.226564 0.663163 0.0668251 0.010627 0.00569002 0.0239514 0.00139945 0.00088248 0.000492437 0.000405616 
540 0.567875 0.428886 0.00108936 0.00212582 1.31076e-05 6.42242e-06 2.10776e-06 1.2309e-06 4.88902e-07 5.15783e-07 
541 0.295417 0.638314 0.0555605 0.00516006 0.00278746 0.00134541 0.000715031 0.000399157 0.000137762 0.000163691 
542 0.219451 0.769841 0.00773936 0.0014295 0.000773234 0.000373213 0.000198348 0.000110725 3.82148e-05 4.54074e-05 
543 0.154402 0.728619 0.0409912 0.0624174 0.006462 0.00337295 0.00164435 0.00103691 0.000578614 0.000476599 
544 0.240901 0.722149 0.0345044 0.00107617 0.000730372 0.000285309 0.000180833 8.7542e-05 4.58655e-05 4.05267e-05 
545 0.200682 0.787362 0.00748787 0.00215162 0.00116384 0.000561743 0.000298544 0.000166658 5.75192e-05 6.83451e-05 
546 0.120034 0.71301 0.105775 0.0364068 0.0103052 0.00635221 0.00337436 0.00191001 0.00131563 0.0015169 
547 0.190117 0.669955 0.107744 0.0158218 0.00754908 0.00424417 0.0022629 0.00103789 0.00079225 0.000476045 
548 0.184069 0.7858 0.0268508 0.00159143 0.000848813 0.000409692 0.000217735 0.000121548 4.19501e-05 4.98457e-05 
549 0.179774 0.685101 0.0780487 0.0156418 0.0151653 0.0209229 0.00223853 0.00125194 0.000862346 0.000994271 
550 0.347267 0.651613 0.00105258 2.079e-05 3.10783e-05 9.78252e-06 2.84193e-06 0 0 2.81763e-06 
551 0.103867 0.564304 0.27341 0.0278371 0.0136969 0.00856179 0.00371585 0.00301111 0.000803405 0.000792781 
552 0.154923 0.806057 0.0358792 0.00151268 0.000818059 0.000394848 0.000209846 0.000117144 4.04301e-05 4.80397e-05 
553 0.227979 0.693989 0.0723106 0.00325112 0.00124057 0.000598781 0.000318228 0.000177647 6.13116e-05 7.28514e-05 
554 0.0779109 0.750587 0.118467 0.0227085 0.0124914 0.00702577 0.00558433 0.00282141 0.00154531 0.000857567 
555 0.212388 0.781999 0.00336784 0.00108139 0.000584933 0.000282327 0.000150045 8.37608e-05 2.89086e-05 3.43496e-05 
556 0.236663 0.749853 0.00806691 0.00260884 0.00141115 0.000681113 0.000361984 0.000202073 6.9742e-05 8.28684e-05 
557 0.1068 0.439391 0.326385 0.040285 0.0414827 0.030794 0.00767964 0.00387944 0.0021248 0.00117915 
558 0.0624101 0.832972 0.0755484 0.0146492 0.00599854 0.00369756 0.00196418 0.0011118 0.000765815 0.000882972 
559 0.352663 0.570207 0.0666997 0.0100596 0.000173493 0.000117367 3.85184e-05 2.24942e-05 8.93445e-06 9.42569e-06 
560 0.176793 0.795537 0.0220036 0.00272866 0.00147571 0.000712276 0.000378546 0.000211318 7.29328e-05 8.66598e-05 
561 0.218556 0.766853 0.0127568 0.000805259 0.000548766 0.000214367 0.000135869 6.57748e-05 3.44611e-05 3.04498e-05 
562 0.404588 0.518978 0.0396257 0.00107686 0.0243372 0.011298 4.67724e-05 2.73143e-05 1.0849e-05 1.14455e-05 
563 0.214952 0.774728 0.0090721 0.000547697 0.000373242 0.000145801 9.24107e-05 4.47365e-05 2.34386e-05 2.07103e-05 
564 0.152368 0.837105 0.00656919 0.001906 0.00103098 0.000497617 0.000264463 0.000147633 5.0953e-05 6.05431e-05 
565 0.105807 0.85534 0.0240838 0.00707317 0.00366283 0.00191373 0.000932963 0.00058832 0.000328291 0.00027041 
566 0.1088 0.843201 0.0295698 0.00882581 0.00457043 0.00238793 0.00116414 0.000734098 0.000409638 0.000337415 
567 0.246489 0.734092 0.0100216 0.0030406 0.00157457 0.000822672 0.00040106 0.000252906 0.000141152 0.00316499 
568 0.383159 0.587418 0.0266862 0.00120139 0.000818724 0.000319822 0.000202707 9.81317e-05 5.14137e-05 4.54291e-05 
569 0.420058 0.547155 0.0240364 0.00419044 0.00216999 0.00113377 0.000552721 0.000348542 0.000194492 0.000160201 
570 0.538261 0.443179 0.0128227 0.00274743 0.00142275 0.000743351 0.00036239 0.000228521 0.000127518 0.000105035 
571 0.08027 0.914864 0.0039408 0.00040592 0.000276626 0.00010806 6.84897e-05 3.31562e-05 1.73714e-05 1.53493e-05 
572 0.243394 0.719901 0.0266256 0.00485366 0.0026254 0.00126719 0.000673459 0.00037595 0.000129753 0.000154174 
573 0.0371117 0.950265 0.00905739 0.00170783 0.000884347 0.000462048 0.000225253 0.000142043 7.92621e-05 6.52874e-05 
574 0.127452 0.692798 0.115902 0.0303335 0.0150103 0.00938279 0.00407216 0.00329985 0.000880444 0.000868801 
575 0.314628 0.604443 0.0303275 0.0446876 0.00297085 0.00143392 0.000762072 0.000425417 0.000146825 0.00017446 
576 0.241596 0.634732 0.0664682 0.0284677 0.00784705 0.00439396 0.00234276 0.00107452 0.00101144 0.0120663 
577 0.175082 0.754497 0.0541253 0.00781788 0.00403483 0.0021081 0.00102772 0.000648071 0.000361634 0.000297874 
578 0.633335 0.360781 0.00401221 0.000901544 0.000487655 0.000235374 0.000125092 6.98308e-05 2.41009e-05 2.86371e-05 
579 0.104497 0.799367 0.0502873 0.0223011 0.00795077 0.0121088 0.00160764 0.000932058 0.000520102 0.000428403 
580 0.43783 0.51954 0.0220226 0.00229196 0.0169464 0.000610121 0.000386703 0.000187205 9.80815e-05 8.66647e-05 
581 0.162926 0.692423 0.0819654 0.0439859 0.00862753 0.00485047 0.00258617 0.00118616 0.000905429 0.000544051 
582 0.216554 0.603118 0.101423 0.0292308 0.016083 0.0193335 0.00753336 0.00363182 0.00198918 0.00110389 
583 0.140274 0.591984 0.157077 0.0558967 0.0225591 0.0126883 0.0100851 0.00509539 0.00279078 0.00154874 
584 0.441824 0.531675 0.0225998 0.00171233 0.00116692 0.000455838 0.000288916 0.000139866 7.32793e-05 6.47495e-05 
585 0.184768 0.812873 0.00224181 6.34101e-05 2.50655e-05 1.69566e-05 5.56498e-06 3.24986e-06 1.29081e-06 1.36179e-06 
586 0.109335 0.883025 0.00457744 0.00147496 0.000797824 0.000385082 0.000204655 0.000114246 3.94301e-05 4.68514e-05 
587 0.574419 0.419956 0.0020972 0.00345498 3.78617e-05 2.0929e-05 6.86866e-06 4.0112e-06 1.59321e-06 1.68081e-06 
588 0.0981288 0.89579 0.00363268 0.00117914 0.000637809 0.000307848 0.000163609 9.13324e-05 3.15218e-05 3.74547e-05 
589 0.105686 0.799328 0.0713208 0.0113332 0.00586885 0.00306632 0.00149486 0.000942649 0.000526013 0.000433271 
590 0.394507 0.597721 0.00742599 0.000180236 7.79571e-05 5.27374e-05 1.73078e-05 1.01075e-05 4.0146e-06 4.23533e-06 
591 0.14308 0.759098 0.0503979 0.0153433 0.00866938 0.0187244 0.00211151 0.0012762 0.00071214 0.000586583 
592 0.19283 0.763964 0.0236214 0.00943425 0.00278497 0.00171444 0.000910728 0.000515505 0.000355086 0.00386961 
593 0.168486 0.775493 0.0421374 0.00664889 0.00344306 0.00179891 0.000876985 0.000553021 0.000308594 0.000254186 
594 0.427809 0.502662 0.0292241 0.0380095 0.00122316 0.000477806 0.00030284 0.000146606 7.68108e-05 6.787e-05 
595 0.299023 0.64167 0.0326382 0.00596307 0.00322894 0.0158391 0.000827395 0.000461881 0.00015941 0.000189414 
596 0.138809 0.76629 0.0638182 0.0148853 0.00770834 0.00402741 0.0019634 0.00123811 0.000690882 0.000569073 
597 0.0675459 0.749841 0.162003 0.00749985 0.00894042 0.002008 0.00107062 0.000491044 0.000374828 0.000225226 
598 0.172908 0.757375 0.0463183 0.0112058 0.00580291 0.00303187 0.00147806 0.000932058 0.000520102 0.000428403 
599 0.224666 0.772092 0.00263009 0.000268419 0.000182922 7.14556e-05 4.52896e-05 2.19249e-05 1.1487e-05 1.01499e-05 
600 0.133177 0.754441 0.082251 0.0148131 0.00706723 0.00397326 0.00211846 0.000971641 0.000741681 0.000445659 
601 0.117724 0.776521 0.0793472 0.0126709 0.00653745 0.00341565 0.00166516 0.00105004 0.000585938 0.000482631 
602 0.112343 0.863008 0.0155422 0.00447691 0.00213607 0.00120092 0.000640305 0.000293679 0.000224174 0.000134701 
603 0.161298 0.827017 0.008845 0.00213406 0.00035501 0.000171349 9.10653e-05 5.0836e-05 1.75452e-05 2.08474e-05 
604 0.91895 0.0803468 0.000570357 5.82606e-05 3.97034e-05 1.55095e-05 9.83014e-06 4.75882e-06 2.49327e-06 2.20305e-06 
605 0.582531 0.405667 0.0111193 0.000299744 0.000204269 7.97945e-05 5.05749e-05 2.44836e-05 1.28276e-05 1.13344e-05 
606 0.108086 0.750132 0.0647669 0.0509094 0.0123221 0.00698922 0.00303335 0.00245805 0.000655841 0.000647168 
607 0.193633 0.736225 0.0460422 0.0150145 0.00420734 0.00234897 0.00125242 0.000574429 0.000438478 0.000263471 
608 0.12901 0.779367 0.0542682 0.0182227 0.00795846 0.00490567 0.00260594 0.00147506 0.00101603 0.00117147 
609 0.0318094 0.952001 0.00989837 0.00301304 0.0015603 0.000815215 0.000397425 0.000250614 0.000139846 0.00011519 
610 0.231431 0.742049 0.0108328 0.0118763 0.00193125 0.000915783 0.000486702 0.000271695 9.37707e-05 0.00011142 
611 0.43783 0.534925 0.0220226 0.00229189 0.00156187 0.000610121 0.000386703 0.000187205 9.80815e-05 8.66647e-05 
612 0.102616 0.881922 0.0112126 0.0020462 0.00110679 0.000534207 0.000283909 0.000158489 5.46996e-05 6.49949e-05 
613 0.307467 0.639271 0.0369699 0.00431357 0.00227942 0.00875158 0.000478745 0.000267204 9.22208e-05 0.000109578 
614 0.112289 0.691034 0.121242 0.0423736 0.0148075 0.00925599 0.00401713 0.00325525 0.000868546 0.00085706 
615 0.130578 0.608282 0.172013 0.0381624 0.0209925 0.0118072 0.00938477 0.00474154 0.00259698 0.00144119 
616 0.162235 0.706792 0.0720165 0.0214203 0.0105511 0.0207997 0.0030637 0.00140514 0.00107259 0.000644492 
617 0.343945 0.645044 0.00993957 0.000469946 0.000320258 0.000125104 7.92925e-05 3.83859e-05 2.01113e-05 1.77704e-05 
618 0.0465174 0.914946 0.0252049 0.00650352 0.0028403 0.00175079 0.000930037 0.000526434 0.000362612 0.000418086 
619 0.682508 0.300816 0.0127661 0.000877321 0.000485598 0.00214302 0.000284941 6.76395e-05 2.33446e-05 2.77384e-05 
620 0.193607 0.790716 0.0147813 0.000393074 0.000267867 0.000104638 6.63211e-05 3.21064e-05 1.68214e-05 1.48633e-05 
621 0.267337 0.699832 0.0238948 0.00430324 0.00232767 0.00112349 0.000597088 0.000333316 0.000115038 0.00013669 
622 0.569727 0.419024 0.00950662 0.000839695 0.000453382 0.000218832 0.0001163 6.49231e-05 2.24071e-05 2.66244e-05 
623 0.187086 0.744303 0.0386316 0.0145921 0.00385209 0.00198409 0.00187011 0.00699246 0.000407943 0.000280352 
624 0.170199 0.826895 0.00235924 0.000239892 0.000163481 6.38613e-05 4.04762e-05 1.95947e-05 1.02662e-05 9.07119e-06 
625 0.124761 0.755018 0.0865963 0.0110912 0.0150312 0.00425334 0.00142987 0.000901664 0.000503142 0.000414434 
626 0.0909447 0.819999 0.0630365 0.0126931 0.00554348 0.00341705 0.00181518 0.00102745 0.000707718 0.000815988 
627 0.122218 0.639333 0.145147 0.0447022 0.0205736 0.0110405 0.00877537 0.00443365 0.00242834 0.0013476 
628 0.112805 0.743261 0.08628 0.0343723 0.0096844 0.00596955 0.00317109 0.00179495 0.00123638 0.00142552 
629 0.118528 0.791381 0.0510934 0.0252616 0.00653749 0.00341565 0.00166516 0.00105004 0.000585938 0.000482631 
630 0.510351 0.344334 0.0980249 0.0462788 0.00069597 0.000140134 8.88188e-05 4.29977e-05 2.25276e-05 1.99053e-05 
631 0.354939 0.59267 0.0501868 0.000968256 0.000659232 0.000257519 0.000163219 7.90152e-05 4.1398e-05 3.65793e-05 
632 0.406285 0.590446 0.00315726 5.84505e-05 2.52804e-05 1.7102e-05 5.61268e-06 3.27772e-06 1.30188e-06 1.37346e-06 
633 0.681296 0.298044 0.0179562 0.00130748 0.000701193 0.000338441 0.000179868 0.000100409 3.46544e-05 4.11769e-05 
634 0.051681 0.916837 0.0227319 0.00419041 0.00216999 0.00113377 0.000552721 0.000348542 0.000194492 0.000160201 
635 0.128667 0.857242 0.0112731 0.00241715 0.000213733 8.34902e-05 5.29173e-05 2.56175e-05 1.34217e-05 1.18594e-05 
636 0.124743 0.718124 0.0682549 0.0502522 0.0106181 0.00655522 0.0165852 0.0019603 0.00135025 0.00155682 
637 0.290131 0.644441 0.0455682 0.00444058 0.00240196 0.00120727 0.0112065 0.000343954 0.00011871 0.000141053 
638 0.154764 0.706777 0.0801918 0.0281458 0.00882659 0.0163315 0.00245846 0.00112758 0.000860716 0.000517185 
639 0.135787 0.860419 0.00226734 0.000734885 0.000397507 0.000191863 0.000101967 5.6922e-05 1.96456e-05 2.33432e-05 
640 0.237477 0.734087 0.0206261 0.00376107 0.00203409 0.000981785 0.000521779 0.000291276 0.000100529 0.00011945 
641 0.205172 0.793522 0.00115508 7.82287e-05 3.38361e-05 2.28898e-05 7.51219e-06 4.38701e-06 1.74247e-06 1.83828e-06 
642 0.130533 0.634207 0.132244 0.0382056 0.0348382 0.0118073 0.00938477 0.00474154 0.00259698 0.00144119 
643 0.418514 0.540737 0.0210922 0.0168555 0.00149297 0.000583204 0.000369643 0.000178946 9.37544e-05 8.28413e-05 
644 0.12262 0.743974 0.100474 0.01619 0.00772464 0.00434287 0.00231552 0.00106203 0.000810675 0.000487116 
645 0.470573 0.523614 0.00350182 0.00111311 0.000602091 0.000290608 0.000154447 8.62178e-05 2.97566e-05 3.53572e-05 
646 0.0382713 0.936747 0.0144431 0.00514105 0.00224526 0.001384 0.000735196 0.000416148 0.000286646 0.000330498 
647 0.0989212 0.775379 0.0708495 0.0257251 0.0130446 0.00815409 0.0035389 0.00286772 0.000765148 0.000755029 
648 0.113827 0.741532 0.0815253 0.0296015 0.0150103 0.00938279 0.00407216 0.00329985 0.000880444 0.000868801 
649 0.192751 0.744502 0.0553382 0.00356765 0.00192978 0.000931437 0.000495021 0.000276339 9.53737e-05 0.000113324 
650 0.121754 0.83823 0.0244742 0.00744266 0.00385417 0.0020137 0.000981699 0.000619053 0.000345441 0.000284536 
651 0.172725 0.71872 0.055537 0.0389134 0.00671766 0.00350437 0.00170841 0.00107731 0.000601157 0.000495167 
652 0.307094 0.689553 0.00284244 0.000224019 0.000152664 5.96359e-05 3.77981e-05 1.82983e-05 9.58692e-06 8.47099e-06 
653 0.220607 0.676445 0.0774202 0.0142233 0.00537978 0.0028108 0.00137029 0.000864095 0.000482178 0.000397165 
654 0.108603 0.805782 0.0498069 0.0231897 0.00600534 0.00313763 0.00152963 0.000964571 0.000538245 0.000443347 
655 0.578469 0.415578 0.00526285 0.000358891 0.00015523 0.000105012 3.44638e-05 2.01264e-05 7.99398e-06 8.43351e-06 
656 0.116718 0.879179 0.00155893 9.64943e-05 4.17971e-05 0.00238664 9.2833e-06 5.41133e-06 2.14932e-06 2.2675e-06 
657 0.217429 0.634848 0.09579 0.0285513 0.014273 0.00404465 0.0021056 0.00119185 0.000820953 0.000946546 
658 0.129633 0.855177 0.0113025 0.00187181 0.00101249 0.000488691 0.00025972 0.000144985 5.00391e-05 5.94572e-05 
659 0.207541 0.788891 0.00317043 0.000206634 8.93751e-05 6.04615e-05 1.98428e-05 1.15879e-05 4.6026e-06 4.85566e-06 
660 0.134786 0.771257 0.0546354 0.023593 0.00748546 0.00391067 0.00190649 0.00120222 0.000670857 0.000552578 
661 0.30215 0.602311 0.0649813 0.00450302 0.0236749 0.00115936 0.000616144 0.000343954 0.00011871 0.000141053 
662 0.43783 0.51954 0.0220226 0.00229189 0.00156187 0.00441144 0.01197 0.000187205 9.80815e-05 8.66647e-05 
663 0.315499 0.669644 0.00781666 0.00602181 0.000545776 0.000210946 0.000133701 6.47252e-05 3.39112e-05 2.99639e-05 
664 0.746906 0.245123 0.00650112 0.000644904 0.000439488 0.000171679 0.000108813 5.26768e-05 2.75987e-05 2.43862e-05 
665 0.459318 0.495644 0.0252929 0.017931 0.00096689 0.000377694 0.000239388 0.000115889 6.07171e-05 5.36496e-05 
666 0.171242 0.786265 0.0341571 0.0019192 0.00542285 0.00048435 0.000257411 0.000143696 4.95943e-05 5.89287e-05 
667 0.151081 0.842234 0.00399252 0.00129632 0.000701193 0.000338441 0.000179868 0.000100409 3.46544e-05 4.11769e-05 
668 0.183962 0.731706 0.0674445 0.00820548 0.00413167 0.00215869 0.00105238 0.000663625 0.000370313 0.000305023 
669 0.114048 0.820492 0.0400629 0.0121624 0.00629828 0.00329069 0.00160424 0.00101162 0.000564501 0.000464974 
670 0.390591 0.583248 0.0133211 0.00176329 0.010582 0.000224964 0.000137354 6.64937e-05 3.48377e-05 3.07826e-05 
671 0.260049 0.686198 0.0447231 0.00434809 0.00235192 0.00113519 0.000603307 0.000336788 0.000116237 0.000138114 
672 0.301906 0.657683 0.0375341 0.00126249 0.000860354 0.000336084 0.000213015 0.000103122 5.40279e-05 4.7739e-05 
673 0.0724006 0.810585 0.0870614 0.0146169 0.0063794 0.00393232 0.00208889 0.00118239 0.000814438 0.000939034 
674 0.158682 0.74802 0.0557277 0.0234534 0.00651293 0.00366163 0.0019523 0.000895434 0.00068351 0.000410705 
675 0.809487 0.188627 0.0017964 2.76221e-05 4.12913e-05 1.29973e-05 3.77585e-06 0 0 3.74356e-06 
676 0.183141 0.759632 0.0361895 0.0136043 0.0035374 0.00184819 0.000901012 0.000568172 0.000317049 0.00026115 
677 0.194279 0.74601 0.0455367 0.00782809 0.00302022 0.00157799 0.000769285 0.000485106 0.000270696 0.00022297 
678 0.137532 0.793542 0.0489017 0.00958959 0.00496595 0.00259458 0.00126488 0.000797626 0.000445088 0.000366614 
679 0.103078 0.743925 0.0782765 0.025412 0.0305469 0.00702415 0.00758601 0.000681126 0.00126471 0.00220551 
680 0.225795 0.697816 0.0539085 0.0110536 0.00527238 0.00296418 0.00158044 0.000724875 0.000553318 0.000332476 
681 0.127054 0.745807 0.0767371 0.0123126 0.00647904 0.0279196 0.00162408 0.00102411 0.00057147 0.000470715 
682 0.046706 0.950146 0.00224464 0.000434819 0.000235192 0.000113519 6.03307e-05 3.36788e-05 1.16237e-05 1.38114e-05 
683 0.162235 0.706791 0.0720464 0.0367734 0.0102219 0.00574595 0.00306362 0.00140514 0.00107259 0.000644492 
684 0.129083 0.754681 0.0816969 0.0169795 0.00810145 0.00455471 0.00242848 0.00111383 0.00085022 0.000510877 
685 0.0983128 0.823585 0.0483943 0.0144921 0.00632917 0.00390136 0.00207244 0.00117308 0.000808025 0.00093164 
686 0.151652 0.768294 0.0540226 0.0124665 0.00645573 0.00337295 0.00164435 0.00103691 0.000578614 0.000476599 
687 0.11057 0.832119 0.0387171 0.00890461 0.00461124 0.00240925 0.00117453 0.000740653 0.000413296 0.000340428 
688 0.27104 0.719461 0.00567975 0.00183883 0.000994644 0.00048008 0.000255143 0.00014243 4.91573e-05 5.84095e-05 
689 0.338253 0.656424 0.00438448 0.000411527 0.000280447 0.000109552 6.94357e-05 3.36142e-05 1.76113e-05 1.55613e-05 
690 0.226005 0.767257 0.00550768 0.000539756 0.000367832 0.000143688 9.10714e-05 4.40882e-05 2.30989e-05 2.04102e-05 
691 0.881483 0.116485 0.00164356 0.000170255 0.000116025 4.53233e-05 2.87265e-05 1.39067e-05 7.28605e-06 6.43795e-06 
692 0.0876407 0.818235 0.0544094 0.0193736 0.0084611 0.0052155 0.00277053 0.00156822 0.0010802 0.00124546 
693 0.349942 0.589163 0.0398559 0.00986718 0.00500342 0.0031276 0.00135739 0.00109995 0.000293481 0.0002896 
694 0.210145 0.72073 0.0429249 0.0127812 0.00558198 0.00344078 0.00182778 0.00103459 0.000712633 0.000821654 
695 0.214227 0.768414 0.0157346 0.000712789 0.00048575 0.000189751 0.000120267 5.82217e-05 3.05038e-05 2.69532e-05 
696 0.347061 0.618778 0.0300212 0.0018169 0.00123807 0.000483633 0.000306533 0.000148394 7.77475e-05 6.86976e-05 
697 0.140274 0.604344 0.159604 0.0410104 0.0225591 0.0126883 0.0100851 0.00509539 0.00279078 0.00154874 
698 0.157677 0.833236 0.0054294 0.00176124 0.000952676 0.000459823 0.000244378 0.000136421 4.70832e-05 5.59449e-05 
699 0.509821 0.473581 0.00837409 0.00741706 0.000758712 3.03986e-05 8.83112e-06 0 0 8.7556e-06 
700 0.333275 0.629174 0.037012 0.000280398 0.000121207 8.19958e-05 2.69101e-05 1.57151e-05 6.24188e-06 6.58507e-06 
701 0.351173 0.643069 0.00465566 0.000483678 0.000329616 0.000128759 8.16095e-05 3.95076e-05 2.0699e-05 1.82896e-05 
702 0.423872 0.523317 0.0488644 0.00173225 0.00118049 0.000461138 0.000292276 0.000141492 7.41314e-05 6.55024e-05 
703 0.165966 0.670325 0.109264 0.0210999 0.0200114 0.00686891 0.0028861 0.00233873 0.000624004 0.000615752 
704 0.383785 0.565638 0.0468384 0.00166854 0.0011035 0.000431064 0.000273214 0.000132265 6.92967e-05 6.12305e-05 
705 0.126005 0.527875 0.255497 0.0369521 0.0173731 0.0108004 0.0180519 0.00410417 0.00214923 0.00119271 
706 0.108051 0.689119 0.128547 0.0321063 0.0173731 0.00977147 0.00776671 0.00392404 0.00214922 0.00119271 
707 0.203588 0.713384 0.081353 0.000737135 0.000500107 0.000195359 0.000123821 5.99425e-05 3.14054e-05 2.77498e-05 
708 0.136768 0.784432 0.0481745 0.0146664 0.00759498 0.00396818 0.00193453 0.0012199 0.000680722 0.000560704 
709 0.138211 0.577806 0.176224 0.0537966 0.0222274 0.0125017 0.00993682 0.00502046 0.00274974 0.00152596 
710 0.0939729 0.848392 0.0365991 0.0100739 0.00521675 0.00272562 0.00132877 0.00083791 0.000467567 0.00038513 
711 0.168653 0.681366 0.102481 0.0222778 0.0112964 0.00706127 0.00306462 0.00248339 0.000662602 0.00065384 
712 0.417247 0.530359 0.0203463 0.00204169 0.028787 0.000543259 0.000344325 0.00016669 8.73328e-05 7.71672e-05 
713 0.303356 0.650957 0.0186312 0.00617254 0.0176419 0.0015794 0.000839384 0.000468575 0.000161721 0.000192159 
714 0.267458 0.681648 0.0403218 0.00509049 0.00275347 0.001329 0.000706311 0.000394289 0.000136082 0.000161695 
715 0.108548 0.768487 0.089865 0.0161498 0.00705092 0.00434625 0.00230878 0.00130685 0.000900168 0.00103788 
716 0.308165 0.655183 0.0190749 0.00986216 0.00348025 0.00214716 0.000931875 0.000755137 0.000201481 0.000198817 
717 0.343955 0.617875 0.0263183 0.0101045 0.000931395 0.000363834 0.000230603 0.000111636 5.8489e-05 5.16808e-05 
718 0.362241 0.585407 0.0506199 0.00117586 0.000543803 7.58775e-06 2.48663e-06 1.45215e-06 5.76781e-07 6.08494e-07 
719 0.496239 0.490053 0.00770139 0.00515179 0.000455256 0.000177838 0.000112716 5.45665e-05 2.85888e-05 2.5261e-05 
720 0.162235 0.706792 0.0720165 0.0214205 0.0253508 0.00599981 0.00306362 0.00140514 0.00107259 0.000644492 
721 0.209611 0.731478 0.0427261 0.00795641 0.00379611 0.00213421 0.00113791 0.00052191 0.000398389 0.000239383 
722 0.167041 0.650752 0.0859272 0.0240902 0.0478448 0.0054927 0.0161066 0.00123695 0.000942135 0.000566108 
723 0.0729274 0.903695 0.0157203 0.00366761 0.00189874 0.000992046 0.000483631 0.000304975 0.000170181 0.000140176 
724 0.137394 0.757296 0.07066 0.0224558 0.00580393 0.00303187 0.00147806 0.000932058 0.000520102 0.000428403 
725 0.975857 0.00767505 0.0163061 0.000122885 3.71593e-05 0 0 1.41888e-06 0 0 
726 0.338267 0.480013 0.146084 0.0335874 0.00109164 0.000426429 0.000270277 0.000130842 6.85516e-05 6.05721e-05 
727 0.113275 0.733775 0.0795216 0.0436939 0.0123719 0.00762265 0.00404924 0.00229201 0.00157876 0.00182028 
728 0.425421 0.520427 0.0298234 0.0221642 0.00115375 0.000450658 0.000285633 0.000138277 7.24466e-05 6.40137e-05 
729 0.0992152 0.868339 0.0205812 0.00578772 0.00252769 0.00155809 0.000827674 0.000468493 0.000322702 0.00037207 
730 0.127837 0.697804 0.103475 0.0332448 0.0168577 0.0105376 0.00457335 0.00370598 0.000988806 0.00097573 
731 0.0714766 0.850967 0.0453097 0.0157307 0.00687013 0.00423481 0.00224958 0.00127334 0.000877087 0.00101127 
732 0.117476 0.780728 0.0788006 0.0110704 0.00567537 0.00296523 0.00144558 0.000911573 0.000508671 0.000418988 
733 0.160277 0.772492 0.0355817 0.0197575 0.00602857 0.00278182 0.00135616 0.000855187 0.000477207 0.000393071 
734 0.110726 0.813605 0.0508675 0.0118821 0.00614832 0.00321234 0.00156604 0.000987537 0.000551061 0.000453903 
735 0.20928 0.766623 0.0176759 0.00309196 0.00167248 0.000807246 0.000429019 0.000239494 8.26572e-05 9.82145e-05 
736 0.792303 0.187247 0.00491555 0.000143638 0.0153034 5.57307e-05 1.61904e-05 0 1.20717e-07 1.60519e-05 
737 0.273724 0.334893 0.389448 0.000871205 0.000567161 0.000221552 0.000140423 6.79795e-05 3.56162e-05 3.14704e-05 
738 0.121231 0.644988 0.129538 0.0562666 0.0203105 0.0108989 0.00866287 0.00437681 0.00239721 0.00133033 
739 0.508917 0.47664 0.00874037 0.00274615 0.00148542 0.000716962 0.000381036 0.000212708 7.34126e-05 8.72299e-05 
740 0.0743582 0.91519 0.00881668 0.000787587 0.000426008 0.000205619 0.000109278 6.10032e-05 2.10542e-05 2.50169e-05 
741 0.1274 0.758416 0.0713408 0.0279773 0.00707477 0.00369639 0.00180202 0.00113634 0.000634097 0.0005223 
742 0.258718 0.682422 0.055774 0.0013543 0.000922925 0.000360526 0.000228507 0.000110621 5.79572e-05 5.1211e-05 
743 0.277343 0.681176 0.0169178 0.0054923 0.00538651 0.0121761 0.000762092 0.000425417 0.000146825 0.00017446 
744 0.124026 0.703403 0.0913578 0.0446974 0.0163545 0.010223 0.00443683 0.00359535 0.00095929 0.000946604 
745 0.313169 0.673107 0.0120433 0.000737526 0.000502583 0.000196326 0.000124434 6.02393e-05 3.15609e-05 2.78872e-05 
746 0.0613821 0.601379 0.275748 0.0453874 0.00669839 0.00412894 0.00219334 0.00124151 0.00085516 0.000985985 
747 0.152067 0.606134 0.156237 0.0366359 0.0201528 0.0113349 0.00900938 0.00455188 0.0024931 0.00138354 
748 0.0608502 0.841904 0.0671137 0.0141415 0.00716176 0.00447675 0.00194293 0.00157444 0.000420081 0.000414526 
749 0.169537 0.703043 0.0804051 0.0220501 0.0111811 0.00698922 0.00303335 0.00245805 0.000655841 0.000647168 
750 0.297816 0.646961 0.0309785 0.00542097 0.00293226 0.00145211 0.0137023 0.000420002 0.000144918 0.000172194 
751 0.189314 0.780255 0.022613 0.00175401 0.000945974 0.0046388 0.000242341 0.000135279 4.66892e-05 5.54768e-05 
752 0.451074 0.540088 0.00791811 0.00040372 0.000275127 0.000107474 6.81185e-05 3.29765e-05 1.72772e-05 1.52661e-05 
753 0.0561307 0.915996 0.0176484 0.00502642 0.00239826 0.00134833 0.000718899 0.000329726 0.00025169 0.000151234 
754 0.141636 0.769209 0.0596524 0.0145035 0.00691999 0.00389049 0.00207432 0.000951398 0.000726229 0.000436375 
755 0.198309 0.799022 0.00242746 0.000125502 5.4283e-05 3.6722e-05 1.20517e-05 7.03805e-06 2.79544e-06 2.94914e-06 
756 0.128322 0.735489 0.0708066 0.0252123 0.011011 0.00678729 0.00360548 0.00204083 0.00140598 0.0153192 
757 0.162235 0.706792 0.0720165 0.0214203 0.0102203 0.00574595 0.00306362 0.00141186 0.0164505 0.000644492 
758 0.160005 0.792824 0.0291167 0.0107269 0.00305178 0.00187679 0.000996971 0.000564321 0.000388709 0.000448175 
759 0.322523 0.645825 0.0189038 0.00613845 0.00332036 0.00160262 0.000851728 0.000475466 0.000164099 0.000194985 
760 0.155354 0.672543 0.0815899 0.0296015 0.0150103 0.0116724 0.0208181 0.0116615 0.000880444 0.000868801 
761 0.260041 0.713698 0.0190374 0.00347846 0.00188154 0.000908151 0.000482646 0.000269431 9.29893e-05 0.000110491 
762 0.103679 0.81736 0.059674 0.00923875 0.00478202 0.00249849 0.00121803 0.000768085 0.000428603 0.000353036 
763 0.119729 0.856382 0.0146337 0.00443252 0.00229537 0.00119927 0.000584656 0.00036868 0.000205729 0.000169457 
764 0.355699 0.614059 0.0201633 0.00495488 0.00236413 0.00132913 0.000708665 0.000325033 0.000248107 0.000149082 
765 0.238736 0.671205 0.0703909 0.00966889 0.00461333 0.00259366 0.00138288 0.000634265 0.000484153 0.000290916 
766 0.0342769 0.745059 0.0965501 0.0397133 0.0411702 0.0196803 0.00731383 0.00544702 0.00386749 0.00692167 
767 0.227528 0.695447 0.058592 0.00882908 0.00457043 0.00238793 0.00116414 0.000734098 0.000409638 0.000337415 
768 0.159777 0.711234 0.0860772 0.0210957 0.0100654 0.00565889 0.0030172 0.00138385 0.00105633 0.000634727 
769 0.158146 0.832201 0.00893067 0.000316963 0.000216004 8.43784e-05 5.34802e-05 2.58901e-05 1.35644e-05 1.19855e-05 
770 0.330615 0.615563 0.0342844 0.0125784 0.00331357 0.00172972 0.000843255 0.000531751 0.000296725 0.000244409 
771 0.0972431 0.769054 0.089553 0.0216805 0.00934657 0.00576131 0.00306047 0.00173234 0.00119325 0.00137579 
772 0.408337 0.558199 0.0149808 0.00413362 0.0121357 0.00107899 0.000573441 0.000320116 0.000110482 0.000131277 
773 0.322498 0.616438 0.0190589 0.0206892 0.00332046 0.00160262 0.000871527 0.0151578 0.000167833 0.000194985 
774 0.287043 0.703086 0.00819908 0.000733856 0.000500107 0.000195359 0.000123821 5.99426e-05 3.14054e-05 2.77498e-05 
775 0.424761 0.533882 0.0213652 0.00222348 0.00151525 0.000591909 0.000768119 0.014714 9.51568e-05 8.40777e-05 
776 0.185546 0.710566 0.0751148 0.0142288 0.0067103 0.00377259 0.00201146 0.000922568 0.000704222 0.000423151 
777 0.166219 0.747857 0.0442685 0.0134788 0.0204911 0.00364647 0.00177767 0.00112099 0.000625529 0.000515242 
778 0.17637 0.801939 0.0204094 0.000562171 0.000383101 0.000149652 9.48517e-05 4.59182e-05 2.40577e-05 2.12574e-05 
779 0.115405 0.726315 0.0951634 0.0296015 0.0150103 0.00938279 0.00407216 0.00329985 0.000880444 0.000868801 
780 0.641504 0.33494 0.0127801 0.000393922 0.0103508 1.9565e-05 5.68386e-06 0 0 5.63525e-06 
781 0.300035 0.658271 0.0343848 0.00188151 0.000845634 0.000408191 0.00396221 0.000121092 4.1793e-05 4.9659e-05 
782 0.0946194 0.846247 0.0328077 0.0148236 0.00516009 0.0032157 0.00139562 0.00113093 0.000301748 0.000297758 
783 0.0723696 0.861271 0.0459659 0.00994863 0.00434489 0.00267823 0.0014227 0.000805302 0.000554698 0.000639558 
784 0.1435 0.850517 0.00483661 0.000503286 0.000342979 0.000133979 8.4918e-05 4.11092e-05 2.15382e-05 1.90311e-05 
785 0.134919 0.668584 0.100739 0.0463092 0.0298723 0.00992703 0.00430823 0.00349114 0.000931484 0.000919166 
786 0.207409 0.70801 0.0721102 0.00597265 0.00309257 0.00161579 0.000787711 0.000496725 0.00027718 0.000228311 
787 0.106709 0.727795 0.0965284 0.0352507 0.0173612 0.00718076 0.0038145 0.00215914 0.00148723 0.00171476 
788 0.383188 0.506481 0.0823213 0.0139478 0.00579349 0.00325716 0.0025889 0.00130801 0.000716408 0.000397569 
789 0.426934 0.504932 0.0487223 0.00259634 0.0155267 0.000574778 0.000364286 0.000176353 9.23956e-05 8.16407e-05 
790 0.250546 0.554299 0.179166 0.00954135 0.00582679 0.000302729 0.000160882 8.98102e-05 3.09964e-05 3.68304e-05 
791 0.273118 0.655824 0.0442701 0.0125641 0.00637063 0.00398223 0.0017283 0.00140052 0.000373677 0.000368735 
792 0.15283 0.680311 0.0712143 0.0747752 0.00962954 0.00541285 0.00288601 0.00132368 0.00101041 0.00060713 
793 0.120426 0.66844 0.129867 0.0313177 0.0158804 0.011504 0.0172236 0.00349131 0.000931485 0.000919166 
794 0.134313 0.714073 0.0848615 0.0360568 0.0146143 0.00815409 0.0035389 0.00286772 0.000765148 0.000755029 
795 0.1424 0.585894 0.159326 0.0416321 0.0249197 0.0259842 0.010267 0.00517259 0.00283307 0.00157221 
796 0.109434 0.685644 0.180365 0.012144 0.00572689 0.00321971 0.00171668 0.000787364 0.000601017 0.000361137 
797 0.419831 0.55182 0.0233705 0.00425192 0.00039558 0.000147427 9.34413e-05 4.52354e-05 2.37e-05 2.09413e-05 
798 0.0807129 0.809491 0.0771485 0.0216651 0.00456991 0.00281518 0.00149546 0.000846482 0.000583063 0.000672263 
799 0.12917 0.740881 0.0713353 0.0159169 0.0209088 0.00374856 0.0157153 0.00115213 0.000642904 0.000529554 
800 0.14167 0.167396 0.689056 0.000991905 0.000472194 0.000184455 0.00011691 5.65969e-05 2.96525e-05 2.6201e-05 
801 0.392839 0.549388 0.0399086 0.00243488 0.0142432 0.000528773 0.000335143 0.000162245 8.5004e-05 7.51094e-05 
802 0.344737 0.646177 0.00736261 0.000756207 0.000515339 0.000201309 0.000127593 6.17682e-05 3.23619e-05 2.8595e-05 
803 0.148109 0.817108 0.0159052 0.00908253 0.00828434 0.000736339 0.000391334 0.000218457 7.53967e-05 8.95875e-05 
804 0.110717 0.750047 0.0610468 0.0652592 0.00615926 0.00321234 0.00156604 0.000987537 0.000551061 0.000453903 
805 0.216015 0.722955 0.0422381 0.00950126 0.00386445 0.00238208 0.00126539 0.000716254 0.000493361 0.000568838 
806 0.127837 0.704498 0.0967818 0.0332448 0.0168577 0.0105376 0.00457335 0.00370598 0.000988806 0.00097573 
807 0.120485 0.707164 0.10545 0.0444318 0.00934658 0.00576131 0.00306047 0.00173234 0.00119325 0.00137579 
808 0.159777 0.725361 0.0719501 0.0210957 0.0100654 0.00565889 0.0030172 0.00138385 0.00105633 0.000634727 
809 0.0270986 0.963958 0.00548381 0.00165667 0.000857904 0.000448233 0.000218518 0.000137796 7.68922e-05 6.33353e-05 
810 0.11398 0.674351 0.134354 0.0306626 0.0250621 0.00851163 0.00675704 0.00341391 0.00186983 0.00103766 
811 0.1424 0.585803 0.160561 0.0556394 0.0229009 0.0128806 0.0102379 0.00517259 0.00283307 0.00157221 
812 0.0720346 0.650127 0.122171 0.072352 0.0514949 0.0119183 0.0128632 0.00115495 0.00214452 0.00373978 
813 0.140913 0.747597 0.0496343 0.0151109 0.0078252 0.0192399 0.00275152 0.0156477 0.000703615 0.000577695 
814 0.110829 0.806848 0.0599299 0.0107243 0.00555332 0.00290147 0.00141449 0.000891969 0.000497732 0.000409977 
815 0.354459 0.596162 0.0327486 0.0136936 0.00147571 0.000712276 0.000378546 0.000211318 7.29328e-05 8.66598e-05 
816 0.155727 0.662942 0.0665463 0.101048 0.00653753 0.00341565 0.00166516 0.00105004 0.000585938 0.000482631 
817 0.105184 0.724198 0.0748821 0.0538446 0.011483 0.0070997 0.0180242 0.00212831 0.00146599 0.00169026 
818 0.208411 0.782973 0.00645427 0.00104093 0.000563053 0.000271766 0.000144433 8.06276e-05 2.78272e-05 3.30647e-05 
819 0.0830892 0.889567 0.0167187 0.00508835 0.00263499 0.00137672 0.000671162 0.00042323 0.000236169 0.00019453 
820 0.287623 0.69196 0.0128591 0.00648201 0.000573573 0.000224056 0.00014201 6.87477e-05 3.60186e-05 3.1826e-05 
821 0.14459 0.594814 0.146486 0.0576408 0.0232691 0.0130787 0.0103954 0.00525217 0.00287666 0.00159639 
822 0.162235 0.722176 0.0720165 0.0214203 0.0102203 0.00574595 0.00306362 0.00140514 0.00107259 0.000644492 
823 0.157392 0.715544 0.0698761 0.0314764 0.0141356 0.00557443 0.00297216 0.0013632 0.00104057 0.000625253 
824 0.329473 0.668109 0.00195981 0.000201043 0.000137006 5.35194e-05 3.39214e-05 1.64215e-05 8.60364e-06 7.60217e-06 
825 0.151273 0.732112 0.0819896 0.017066 0.00810145 0.00455471 0.00242848 0.00111383 0.00085022 0.000510877 
826 0.400831 0.50554 0.0510506 0.0117536 0.0295723 0.000558568 0.000354024 0.000171385 8.97929e-05 7.93409e-05 
827 0.098939 0.704408 0.12993 0.0373672 0.013275 0.00815409 0.0035389 0.00286772 0.000765148 0.000755029 
828 0.161578 0.775864 0.0475721 0.00736677 0.00351492 0.00197612 0.00105362 0.00048325 0.000368878 0.000221651 
829 0.203066 0.749046 0.0305819 0.00409603 0.0111316 0.00101592 0.000536273 0.000299367 0.000103321 0.000122768 
830 0.139503 0.725123 0.092786 0.0253291 0.00718168 0.00442386 0.00235 0.00133019 0.000916242 0.00105641 
831 0.611447 0.367782 0.0138416 0.00253549 0.00210759 0.00155967 0.000360099 0.000165161 0.000126072 7.5754e-05 
832 0.16705 0.678959 0.0700195 0.0349639 0.0377413 0.00543862 0.00288601 0.00132368 0.00101041 0.00060713 
833 0.380684 0.610556 0.00721671 0.000677149 0.000461462 0.000180263 0.000114253 5.53106e-05 2.89786e-05 2.56055e-05 
834 0.153449 0.735611 0.0741577 0.0180821 0.00862752 0.00485047 0.00258617 0.00118616 0.000905429 0.000544051 
835 0.228324 0.681876 0.0620336 0.0136502 0.00651293 0.00366163 0.0019523 0.000895434 0.00068351 0.000410705 
836 0.162235 0.706791 0.0722646 0.0365568 0.0102203 0.00574595 0.00306362 0.00140514 0.00107259 0.000644492 
837 0.256774 0.733219 0.00808872 0.000841654 0.000573569 0.000224056 0.00014201 6.87477e-05 3.60186e-05 3.1826e-05 
838 0.354694 0.624714 0.016645 0.00173224 0.00118049 0.000461138 0.000292276 0.000141492 7.41314e-05 6.55024e-05 
839 0.327412 0.633071 0.0366161 0.00127328 0.000867707 0.000338956 0.000214835 0.000104003 5.44897e-05 4.81471e-05 
840 0.162235 0.706791 0.0720165 0.0214203 0.0102493 0.0211015 0.00306369 0.00140514 0.00107259 0.000644492 
841 0.174299 0.792499 0.0266035 0.00319395 0.00171049 0.000825592 0.000438769 0.000244937 8.45357e-05 0.000100447 
842 0.170689 0.651238 0.152648 0.0126828 0.00587893 0.00330519 0.00176226 0.000808268 0.000616974 0.000370725 
843 0.254175 0.695297 0.0420287 0.0040938 0.00221357 0.00106841 0.000567819 0.000316977 0.000109399 0.00012999 
844 0.267266 0.708684 0.0218313 0.000973679 0.000663541 0.000259202 0.000164286 7.95316e-05 4.16686e-05 3.68184e-05 
845 0.390887 0.595466 0.00487774 0.00846265 0.000143884 9.73283e-05 3.19421e-05 1.86537e-05 7.40906e-06 7.81643e-06 
846 0.0816409 0.857904 0.0433849 0.00817473 0.00423327 0.00221177 0.00107826 0.000679944 0.000379419 0.000312524 
847 0.176762 0.8034 0.018771 0.000474038 0.000316267 0.000123545 7.83044e-05 3.79076e-05 1.98607e-05 1.75489e-05 
848 0.411557 0.494042 0.0624548 0.00531252 0.0131889 0.000489607 0.000310322 0.0124959 7.87074e-05 6.95458e-05 
849 0.0556887 0.937701 0.00404861 0.00122671 0.00063525 0.000331902 0.000161805 0.000102033 5.69361e-05 4.68977e-05 
850 0.0475328 0.937057 0.00942564 0.00286585 0.00148408 0.000775392 0.000378011 0.000238371 0.000133015 0.000109563 
851 0.102345 0.62302 0.224083 0.0423891 0.00388659 0.00202884 0.000989081 0.000623708 0.000348038 0.000286676 
852 0.304054 0.692393 0.00296465 0.000258185 0.000175948 6.87311e-05 4.35628e-05 2.1089e-05 1.1049e-05 9.76292e-06 
853 0.264122 0.663274 0.0700644 0.00111747 0.000757625 0.000295954 0.00018758 9.08085e-05 4.75769e-05 4.20389e-05 
854 0.140274 0.606909 0.142113 0.0411956 0.0372992 0.0126884 0.0100851 0.00509539 0.00279078 0.00154874 
855 0.113275 0.733775 0.082286 0.0409351 0.0123662 0.00762265 0.00404924 0.00229201 0.00157876 0.00182028 
856 0.406556 0.541409 0.0328992 0.0164136 0.00145032 0.000566541 0.000359082 0.000173833 9.10757e-05 8.04744e-05 
857 0.515574 0.476626 0.00504828 0.00132513 0.000716775 0.000345962 0.000183865 0.00010264 3.54245e-05 4.20919e-05 
858 0.266867 0.692774 0.0305097 0.00113422 0.00806057 0.000291624 0.000184822 8.94731e-05 4.68772e-05 4.14207e-05 
859 0.143081 0.774482 0.050398 0.0153433 0.00794552 0.00415133 0.00202381 0.0012762 0.00071214 0.000586583 
860 0.14308 0.759098 0.0503982 0.0307269 0.00794622 0.00415133 0.00202381 0.0012762 0.00071214 0.000586583 
861 0.11127 0.847156 0.0245023 0.00832803 0.00363713 0.00224196 0.00119095 0.000674122 0.00046434 0.000535377 
862 0.31548 0.650411 0.013766 0.00133297 0.0182204 0.000360968 0.000218571 0.000105812 5.54374e-05 4.89844e-05 
863 0.297121 0.695194 0.00621538 0.000644904 0.000439488 0.000171679 0.000108813 5.26768e-05 2.75987e-05 2.43862e-05 
864 0.140913 0.747603 0.0647798 0.0151388 0.0229487 0.00408844 0.00199315 0.00125687 0.00070135 0.000577695 
865 0.0927266 0.898843 0.0042824 0.00313843 0.000507491 0.000244895 0.000130152 7.26555e-05 2.50758e-05 2.97954e-05 
866 0.387392 0.603199 0.00562305 0.00182277 0.000985957 0.000475887 0.000252915 0.000141186 4.8728e-05 5.78994e-05 
867 0.182331 0.595796 0.157686 0.0274924 0.0151146 0.00850118 0.00675704 0.00341391 0.00186983 0.00103766 
868 0.162235 0.719145 0.0750476 0.0214203 0.0102203 0.00574595 0.00306362 0.00140514 0.00107259 0.000644492 
869 0.113275 0.741515 0.0871662 0.0283153 0.0123662 0.00762265 0.00404924 0.00229201 0.00157876 0.00182028 
870 0.154101 0.764688 0.0510805 0.0148119 0.00706723 0.00397326 0.00211846 0.000971641 0.000741681 0.000445659 
871 0.678469 0.30913 0.0123 3.12412e-05 4.65555e-05 1.46543e-05 4.25723e-06 0 0 4.22083e-06 
872 0.087738 0.725361 0.120609 0.0560545 0.00487248 0.00254563 0.00124102 0.000782577 0.00043669 0.000359697 
873 0.512907 0.485502 0.00156624 7.70307e-06 1.14339e-05 3.59905e-06 1.04556e-06 0 0 1.03662e-06 
874 0.380997 0.547342 0.031451 0.0253128 0.00130253 0.0129776 0.000315171 0.000152104 7.96912e-05 7.04151e-05 
875 0.301996 0.677899 0.0148192 0.00254521 0.00137673 0.000664501 0.000353155 0.000197144 6.8041e-05 8.08473e-05 
876 0.302507 0.628817 0.0437852 0.00556554 0.00301046 0.00145304 0.000772233 0.000431089 0.000149014 0.0135099 
877 0.106709 0.749208 0.0894038 0.0266741 0.0116493 0.00718076 0.0038145 0.00215914 0.00148723 0.00171476 
878 0.256166 0.728213 0.0126686 0.00129542 0.000882798 0.000344851 0.000218571 0.000105812 5.54374e-05 4.89844e-05 
879 0.350408 0.638133 0.00926918 0.000961115 0.000654979 0.000255857 0.000162166 7.85054e-05 4.1131e-05 3.63433e-05 
880 0.081582 0.862644 0.0375065 0.00874839 0.00453034 0.00236699 0.00115393 0.000727659 0.000406045 0.000334455 
881 0.136768 0.769726 0.0481953 0.0293515 0.00759498 0.00396818 0.00193453 0.0012199 0.000680722 0.000560704 
882 0.146462 0.749187 0.0650149 0.0193378 0.00922666 0.00518731 0.00276576 0.00126853 0.000968306 0.000581833 
883 0.327129 0.649681 0.0192878 0.00171233 0.00116692 0.000455838 0.000288916 0.000139866 7.32793e-05 6.47495e-05 
884 0.109893 0.756646 0.0771487 0.0274701 0.0119971 0.00739511 0.00392836 0.0022236 0.00153163 0.00176594 
885 0.391884 0.57885 0.025654 0.00158491 0.00108002 0.000421892 0.000267401 0.00012945 6.78223e-05 5.99277e-05 
886 0.155078 0.705021 0.0688397 0.0498866 0.00976949 0.00549245 0.00292846 0.00134315 0.00102527 0.000616058 
887 0.0480785 0.243494 0.690581 0.00472178 0.0107035 0.00114909 0.000559778 0.000352992 0.000196975 0.000162246 
888 0.13052 0.605938 0.192985 0.0527802 0.00820226 0.00461095 0.00245846 0.00112758 0.000860716 0.000517185 
889 0.124003 0.751222 0.0703421 0.0399639 0.00688613 0.00359782 0.00175397 0.00110604 0.000617188 0.000508372 
890 0.270914 0.718834 0.00980443 0.000232465 0.000100547 6.80192e-05 2.23231e-05 1.30364e-05 5.17792e-06 5.46262e-06 
891 0.0479085 0.930989 0.0140612 0.00343572 0.00149963 0.000924389 0.000491045 0.000277949 0.000191454 0.000220743 
892 0.26577 0.698907 0.0145821 0.0157477 0.00250871 0.00121087 0.000643528 0.000359241 0.000123986 0.000147322 
893 0.268094 0.716362 0.00930754 0.00300298 0.00162435 0.000784016 0.000416673 0.000232602 8.02785e-05 9.53882e-05 
894 0.193619 0.780801 0.0232538 0.00103102 0.000690624 0.000269781 0.000170991 8.27778e-05 4.33694e-05 3.83211e-05 
895 0.11749 0.877799 0.0028142 0.00091338 0.000494057 0.000238464 0.000126734 7.07476e-05 2.44173e-05 2.9013e-05 
896 0.115438 0.809112 0.0519951 0.011261 0.0058029 0.00303187 0.00147806 0.000932058 0.000520102 0.000428403 
897 0.309529 0.650073 0.036778 0.00159299 0.00108002 0.000421892 0.000267401 0.00012945 6.78223e-05 5.99277e-05 
