0 1 3 100 9.19311e-05
1 1 3 100 0.499908
2 1 3 100 0.5
1 2 3 100 1
0 3 3 100 1
0 4 3 100 0.00149967
2 4 3 100 0.998385
3 4 3 100 0.00011503
1 5 3 100 1
0 1 4 100 0.395082
1 1 4 100 0.604918
0 2 4 100 0.499998
1 2 4 100 0.499993
3 2 4 100 9.3303e-06
0 3 4 100 5.45938e-05
2 3 4 100 0.499945
3 3 4 100 0.5
3 4 4 100 1
0 1 5 100 0.0352132
1 1 5 100 0.394758
3 1 5 100 0.570029
0 2 5 100 0.143517
1 2 5 100 0.142194
2 2 5 100 0.14286
4 2 5 100 0.571429
0 3 5 100 2.80882e-06
4 3 5 100 0.782395
5 3 5 100 0.217602
2 4 5 100 1
2 5 5 100 1
3 6 5 100 1
0 1 6 100 0.0704789
1 1 6 100 0.891631
2 1 6 100 0.0186811
3 1 6 100 0.0184313
4 1 6 100 0.000777981
0 2 6 100 0.0489026
1 2 6 100 0.12454
2 2 6 100 0.0142129
3 2 6 100 0.771836
4 2 6 100 0.0215269
5 2 6 100 0.0189821
0 3 6 100 0.0804455
1 3 6 100 0.0149631
2 3 6 100 0.211538
3 3 6 100 0.245515
4 3 6 100 0.0186322
5 3 6 100 0.428906
0 4 6 100 0.165145
1 4 6 100 0.000340331
2 4 6 100 0.0294118
3 4 6 100 0.0983166
4 4 6 100 0.311267
5 4 6 100 0.395519
0 5 6 100 0.186669
3 5 6 100 0.0102557
4 5 6 100 0.00653022
5 5 6 100 0.796506
6 5 6 100 3.90003e-05
0 6 6 100 0.18578
4 6 6 100 0.481157
5 6 6 100 0.333063
0 7 6 100 0.35779
3 7 6 100 0.134253
5 7 6 100 0.507957
0 1 7 100 0.111704
1 1 7 100 0.75461
2 1 7 100 0.0701362
3 1 7 100 0.0610048
4 1 7 100 6.9685e-06
5 1 7 100 0.0025306
7 1 7 100 6.9997e-06
0 2 7 100 0.157784
1 2 7 100 0.0739446
2 2 7 100 0.186951
3 2 7 100 0.360405
4 2 7 100 0.138833
5 2 7 100 0.00800528
6 2 7 100 0.0740767
7 2 7 100 1.2882e-06
0 3 7 100 0.0903129
1 3 7 100 0.0790611
2 3 7 100 0.211563
3 3 7 100 0.125887
4 3 7 100 0.267082
5 3 7 100 0.0738659
6 3 7 100 0.115438
7 3 7 100 0.0367901
0 4 7 100 0.107845
1 4 7 100 0.0290301
2 4 7 100 0.0372356
3 4 7 100 0.240058
4 4 7 100 0.119231
5 4 7 100 0.157835
6 4 7 100 0.274832
7 4 7 100 0.0339325
0 5 7 100 0.250181
2 5 7 100 0.150446
3 5 7 100 1.66544e-06
4 5 7 100 0.00150961
5 5 7 100 0.149623
6 5 7 100 0.448238
0 6 7 100 0.0940584
2 6 7 100 0.000643593
3 6 7 100 0.000126083
4 6 7 100 0.142994
5 6 7 100 0.213593
6 6 7 100 0.548585
0 7 7 100 0.238009
2 7 7 100 0.00985373
3 7 7 100 0.249985
4 7 7 100 0.00392082
5 7 7 100 0.247836
6 7 7 100 0.250005
7 7 7 100 0.000390561
0 8 7 100 0.00957926
3 8 7 100 0.95717
6 8 7 100 0.0332048
7 8 7 100 4.58148e-05
0 1 8 100 0.0904015
1 1 8 100 0.827495
2 1 8 100 0.0371766
3 1 8 100 0.0336493
4 1 8 100 2.48443e-05
5 1 8 100 4.54084e-06
6 1 8 100 1.24921e-05
7 1 8 100 0.0112359
0 2 8 100 0.126254
1 2 8 100 0.0693882
2 2 8 100 0.156473
3 2 8 100 0.428361
4 2 8 100 0.0932557
5 2 8 100 0.0640977
6 2 8 100 0.011402
7 2 8 100 0.0507657
8 2 8 100 1.87503e-06
0 3 8 100 0.0905372
1 3 8 100 0.0351865
2 3 8 100 0.175759
3 3 8 100 0.165505
4 3 8 100 0.178047
5 3 8 100 0.265065
6 3 8 100 0.0223013
7 3 8 100 0.0675971
8 3 8 100 1.57575e-06
0 4 8 100 0.177488
1 4 8 100 0.022509
2 4 8 100 0.0448802
3 4 8 100 0.055148
4 4 8 100 0.113444
5 4 8 100 0.18135
6 4 8 100 0.146589
7 4 8 100 0.258588
8 4 8 100 3.71623e-06
0 5 8 100 0.129047
1 5 8 100 8.04297e-05
2 5 8 100 0.02782
3 5 8 100 0.0143282
4 5 8 100 0.13809
5 5 8 100 0.204579
6 5 8 100 0.14571
7 5 8 100 0.340325
8 5 8 100 1.96183e-05
0 6 8 100 0.0985063
1 6 8 100 0.0370417
2 6 8 100 0.0227638
3 6 8 100 0.0228024
4 6 8 100 0.0883945
5 6 8 100 0.115763
6 6 8 100 0.170434
7 6 8 100 0.444292
8 6 8 100 1.85422e-06
0 7 8 100 0.201287
1 7 8 100 0.0370329
2 7 8 100 0.0370368
4 7 8 100 0.123932
5 7 8 100 0.0363234
6 7 8 100 0.194015
7 7 8 100 0.370372
8 7 8 100 6.26558e-07
0 8 8 100 0.0941879
3 8 8 100 0.0656331
4 8 8 100 0.0454477
6 8 8 100 0.0666748
7 8 8 100 0.728056
8 8 8 100 7.83598e-07
0 9 8 100 0.0155304
4 9 8 100 0.166667
6 9 8 100 0.168145
7 9 8 100 0.649658
4 10 8 100 0.5
6 10 8 100 0.00563172
7 10 8 100 0.494368
0 11 8 100 0.499973
1 11 8 100 0.500001
3 11 8 100 2.52108e-05
0 12 8 100 0.499918
4 12 8 100 0.499999
5 12 8 100 8.31719e-05
0 13 8 100 0.49999
1 13 8 100 0.5
8 13 8 100 1.00336e-05
0 14 8 100 0.999975
8 14 8 100 2.53774e-05
1 15 8 100 1
0 16 8 100 0.012976
7 16 8 100 0.987024
0 1 9 100 0.0591556
1 1 9 100 0.798373
2 1 9 100 0.100738
3 1 9 100 0.0276399
4 1 9 100 0.00946557
5 1 9 100 2.43433e-06
6 1 9 100 0.0045872
7 1 9 100 3.64308e-05
9 1 9 100 9.60845e-07
0 2 9 100 0.078074
1 2 9 100 0.0199541
2 2 9 100 0.26131
3 2 9 100 0.140707
4 2 9 100 0.45593
5 2 9 100 0.0228113
6 2 9 100 0.00725777
7 2 9 100 0.00470752
8 2 9 100 0.00924808
9 2 9 100 4.93253e-07
0 3 9 100 0.079048
1 3 9 100 0.00988953
2 3 9 100 0.119502
3 3 9 100 0.408396
4 3 9 100 0.194578
5 3 9 100 0.128022
6 3 9 100 0.0275535
7 3 9 100 0.0187695
8 3 9 100 0.00986457
9 3 9 100 0.004376
0 4 9 100 0.150168
1 4 9 100 0.0140281
2 4 9 100 0.0167417
3 4 9 100 0.0314785
4 4 9 100 0.108642
5 4 9 100 0.437059
6 4 9 100 0.0816274
7 4 9 100 0.116102
8 4 9 100 0.0398757
9 4 9 100 0.00427727
0 5 9 100 0.114962
1 5 9 100 0.00522818
2 5 9 100 0.0116154
3 5 9 100 0.0137629
4 5 9 100 0.0337894
5 5 9 100 0.0804704
6 5 9 100 0.429978
7 5 9 100 0.121607
8 5 9 100 0.188479
9 5 9 100 0.000107662
0 6 9 100 0.0877254
1 6 9 100 0.00532834
2 6 9 100 0.00141518
3 6 9 100 0.0104966
4 6 9 100 0.0110836
5 6 9 100 0.0818046
6 6 9 100 0.0465051
7 6 9 100 0.112768
8 6 9 100 0.642848
9 6 9 100 2.44188e-05
0 7 9 100 0.177216
1 7 9 100 1.0805e-05
2 7 9 100 0.00170262
3 7 9 100 0.00122585
4 7 9 100 0.04553
5 7 9 100 0.0961878
6 7 9 100 0.108832
7 7 9 100 0.191629
8 7 9 100 0.377605
9 7 9 100 6.10906e-05
0 8 9 100 0.21923
1 8 9 100 1.14833e-06
2 8 9 100 0.027161
3 8 9 100 1.82897e-05
4 8 9 100 0.0268631
5 8 9 100 0.0273982
6 8 9 100 0.0567342
7 8 9 100 0.18085
8 8 9 100 0.461692
9 8 9 100 5.21879e-05
0 9 9 100 0.135913
1 9 9 100 3.00438e-05
2 9 9 100 9.40826e-06
4 9 9 100 0.000262959
5 9 9 100 8.58982e-06
7 9 9 100 0.199991
8 9 9 100 0.66378
9 9 9 100 5.39862e-06
0 10 9 100 0.332439
4 10 9 100 0.111111
6 10 9 100 0.111111
8 10 9 100 0.444863
9 10 9 100 0.00047614
0 11 9 100 0.25
6 11 9 100 0.25
8 11 9 100 0.5
4 12 9 100 1
0 13 9 100 1
0 14 9 100 0.999586
1 14 9 100 0.000413543
2 15 9 100 1
4 16 9 100 1
4 17 9 100 1
0 18 9 100 0.999961
9 18 9 100 3.89378e-05
4 19 9 100 1
2 20 9 100 1
2 21 9 100 1
2 22 9 100 1
0 23 9 100 3.95519e-05
5 23 9 100 0.99996
4 24 9 100 1
0 25 9 100 0.999603
1 25 9 100 0.000373075
9 25 9 100 2.39294e-05
0 26 9 100 1.10588e-05
8 26 9 100 0.999989
0 1 10 100 0.111736
1 1 10 100 0.580414
2 1 10 100 0.19608
3 1 10 100 0.075894
4 1 10 100 0.00521541
5 1 10 100 0.0100356
6 1 10 100 0.00505178
7 1 10 100 7.15335e-06
8 1 10 100 0.000407084
9 1 10 100 0.0151585
10 1 10 100 1.02519e-06
0 2 10 100 0.0953362
1 2 10 100 0.0467793
2 2 10 100 0.32102
3 2 10 100 0.188945
4 2 10 100 0.159736
5 2 10 100 0.147204
6 2 10 100 0.0108127
7 2 10 100 0.0106329
8 2 10 100 0.00499756
9 2 10 100 0.0145344
10 2 10 100 1.64692e-06
0 3 10 100 0.116072
1 3 10 100 0.0481696
2 3 10 100 0.15879
3 3 10 100 0.205075
4 3 10 100 0.177547
5 3 10 100 0.100879
6 3 10 100 0.0800262
7 3 10 100 0.0752174
8 3 10 100 0.00360568
9 3 10 100 0.0346187
0 4 10 100 0.276971
1 4 10 100 0.0250053
2 4 10 100 0.0498151
3 4 10 100 0.0658653
4 4 10 100 0.117678
5 4 10 100 0.135558
6 4 10 100 0.0841753
7 4 10 100 0.112584
8 4 10 100 0.0476631
9 4 10 100 0.0846844
10 4 10 100 6.50671e-07
0 5 10 100 0.137774
1 5 10 100 0.00815593
2 5 10 100 0.0176514
3 5 10 100 0.0319097
4 5 10 100 0.116956
5 5 10 100 0.0692706
6 5 10 100 0.150878
7 5 10 100 0.13257
8 5 10 100 0.165821
9 5 10 100 0.168999
10 5 10 100 1.45141e-05
0 6 10 100 0.183084
1 6 10 100 0.0110205
2 6 10 100 0.000338265
3 6 10 100 0.0122271
4 6 10 100 0.0563224
5 6 10 100 0.0625453
6 6 10 100 0.130983
7 6 10 100 0.163396
8 6 10 100 0.123135
9 6 10 100 0.250876
10 6 10 100 0.00607278
0 7 10 100 0.130485
1 7 10 100 0.0077087
2 7 10 100 0.00837336
3 7 10 100 0.00769263
4 7 10 100 0.0290593
5 7 10 100 0.0272697
6 7 10 100 0.11501
7 7 10 100 0.168902
8 7 10 100 0.119337
9 7 10 100 0.37974
10 7 10 100 0.00642247
0 8 10 100 0.209717
2 8 10 100 0.00770696
3 8 10 100 0.0139647
4 8 10 100 0.00563928
5 8 10 100 0.0393622
6 8 10 100 0.0415864
7 8 10 100 0.220801
8 8 10 100 0.166365
9 8 10 100 0.294789
10 8 10 100 6.79263e-05
0 9 10 100 0.414997
1 9 10 100 0.000360731
2 9 10 100 4.31028e-05
3 9 10 100 5.89271e-05
4 9 10 100 0.0325489
5 9 10 100 0.0204078
6 9 10 100 0.0204174
7 9 10 100 0.0831315
8 9 10 100 0.122076
9 9 10 100 0.305959
10 9 10 100 4.50908e-07
0 10 10 100 0.199589
2 10 10 100 0.00201154
3 10 10 100 1.60682e-06
4 10 10 100 3.54363e-05
7 10 10 100 0.0609748
8 10 10 100 0.132763
9 10 10 100 0.604624
0 11 10 100 0.366829
2 11 10 100 7.5441e-05
3 11 10 100 1.58051e-06
4 11 10 100 0.00705104
6 11 10 100 0.0714286
7 11 10 100 0.133348
8 11 10 100 0.0714355
9 11 10 100 0.34983
0 12 10 100 0.333074
2 12 10 100 9.95491e-06
4 12 10 100 0.00558188
7 12 10 100 0.105519
8 12 10 100 0.11137
9 12 10 100 0.444445
9 13 10 100 1
0 1 11 100 0.0887244
1 1 11 100 0.567778
2 1 11 100 0.200248
3 1 11 100 0.088323
4 1 11 100 0.0165691
5 1 11 100 0.0154138
6 1 11 100 0.0110225
7 1 11 100 1.37411e-05
9 1 11 100 0.000202363
10 1 11 100 0.0117027
11 1 11 100 2.13211e-06
0 2 11 100 0.133046
1 2 11 100 0.0762544
2 2 11 100 0.190663
3 2 11 100 0.260655
4 2 11 100 0.197579
5 2 11 100 0.0670585
6 2 11 100 0.0468863
7 2 11 100 0.00788154
8 2 11 100 0.00420881
9 2 11 100 0.00395433
10 2 11 100 0.0118097
11 2 11 100 3.01427e-06
0 3 11 100 0.130203
1 3 11 100 0.0408871
2 3 11 100 0.141261
3 3 11 100 0.144501
4 3 11 100 0.19533
5 3 11 100 0.148284
6 3 11 100 0.120184
7 3 11 100 0.0586278
8 3 11 100 0.00234317
9 3 11 100 0.00656374
10 3 11 100 0.0118129
11 3 11 100 2.27516e-06
0 4 11 100 0.14108
1 4 11 100 0.015691
2 4 11 100 0.0390559
3 4 11 100 0.0708344
4 4 11 100 0.120094
5 4 11 100 0.158058
6 4 11 100 0.188729
7 4 11 100 0.12574
8 4 11 100 0.0982689
9 4 11 100 0.0177418
10 4 11 100 0.0247046
11 4 11 100 3.17829e-06
0 5 11 100 0.158257
1 5 11 100 0.0127874
2 5 11 100 0.012743
3 5 11 100 0.0502412
4 5 11 100 0.0521797
5 5 11 100 0.109033
6 5 11 100 0.114313
7 5 11 100 0.141581
8 5 11 100 0.213031
9 5 11 100 0.057943
10 5 11 100 0.0778773
11 5 11 100 1.40744e-05
0 6 11 100 0.126247
1 6 11 100 0.00834274
2 6 11 100 0.0155554
3 6 11 100 0.011395
4 6 11 100 0.0256224
5 6 11 100 0.0385923
6 6 11 100 0.0900467
7 6 11 100 0.13233
8 6 11 100 0.177781
9 6 11 100 0.163579
10 6 11 100 0.210504
11 6 11 100 5.28892e-06
0 7 11 100 0.176644
1 7 11 100 0.0139979
2 7 11 100 0.00493228
3 7 11 100 0.00492909
4 7 11 100 0.00994158
5 7 11 100 0.0225448
6 7 11 100 0.0436663
7 7 11 100 0.088576
8 7 11 100 0.12891
9 7 11 100 0.178914
10 7 11 100 0.322373
11 7 11 100 0.00457133
0 8 11 100 0.178779
1 8 11 100 0.0211445
2 8 11 100 0.0136718
3 8 11 100 3.20638e-05
4 8 11 100 0.0420002
5 8 11 100 0.0137298
6 8 11 100 0.0324534
7 8 11 100 0.0792496
8 8 11 100 0.127959
9 8 11 100 0.15243
10 8 11 100 0.33005
11 8 11 100 0.0085006
0 9 11 100 0.161204
1 9 11 100 0.0279992
2 9 11 100 0.0142248
3 9 11 100 0.0108255
4 9 11 100 0.0211171
5 9 11 100 0.0217968
6 9 11 100 0.0424019
7 9 11 100 0.0533791
8 9 11 100 0.117315
9 9 11 100 0.128425
10 9 11 100 0.39112
11 9 11 100 0.0101909
0 10 11 100 0.188758
1 10 11 100 1.58023e-05
2 10 11 100 0.0361876
3 10 11 100 0.00195309
4 10 11 100 0.0181923
5 10 11 100 0.0363578
6 10 11 100 0.0168027
7 10 11 100 0.0908773
8 10 11 100 0.149122
9 10 11 100 0.107642
10 10 11 100 0.354076
11 10 11 100 1.56018e-05
0 11 11 100 0.289948
1 11 11 100 2.39974e-06
3 11 11 100 9.99081e-06
4 11 11 100 0.0369585
5 11 11 100 0.0947901
6 11 11 100 0.00150572
7 11 11 100 0.0770458
9 11 11 100 0.114164
10 11 11 100 0.385415
11 11 11 100 0.000160295
0 12 11 100 0.424192
1 12 11 100 6.51078e-06
2 12 11 100 0.120426
4 12 11 100 1.22997e-06
5 12 11 100 0.0909188
6 12 11 100 0.000218913
8 12 11 100 0.0909139
9 12 11 100 0.0910442
10 12 11 100 0.18207
11 12 11 100 0.00020824
0 13 11 100 0.00011282
4 13 11 100 0.124887
5 13 11 100 0.125279
6 13 11 100 0.12461
7 13 11 100 0.12539
8 13 11 100 0.125
10 13 11 100 0.37472
0 14 11 100 0.290808
4 14 11 100 0.000265522
6 14 11 100 9.4493e-05
8 14 11 100 0.147407
9 14 11 100 0.133262
10 14 11 100 0.428162
0 15 11 100 0.499999
10 15 11 100 0.500001
0 16 11 100 0.33328
1 16 11 100 2.20253e-05
6 16 11 100 1.09341e-05
9 16 11 100 0.333331
10 16 11 100 0.333334
11 16 11 100 2.15012e-05
5 17 11 100 0.499999
10 17 11 100 0.500001
0 18 11 100 0.27716
4 18 11 100 8.71143e-06
5 18 11 100 0.222528
7 18 11 100 0.5
8 18 11 100 0.00030283
0 19 11 100 0.500001
5 19 11 100 0.499999
0 20 11 100 0.991732
5 20 11 100 6.32979e-05
11 20 11 100 0.00820436
0 21 11 100 1
10 22 11 100 1
0 23 11 100 0.841754
11 23 11 100 0.158246
10 24 11 100 1
0 25 11 100 0.997916
5 25 11 100 0.0015124
11 25 11 100 0.000571334
0 26 11 100 1
10 27 11 100 1
10 28 11 100 1
0 29 11 100 0.0270704
5 29 11 100 0.972896
11 29 11 100 3.37888e-05
0 30 11 100 0.000114509
5 30 11 100 0.999885
3 31 11 100 0.000621417
5 31 11 100 0.999379
0 32 11 100 0.000125471
7 32 11 100 0.999875
10 33 11 100 1
0 1 12 100 0.0541294
1 1 12 100 0.722931
2 1 12 100 0.100451
3 1 12 100 0.066098
4 1 12 100 0.00972964
5 1 12 100 0.0184632
6 1 12 100 0.0167743
7 1 12 100 0.00481931
8 1 12 100 0.00246492
9 1 12 100 0.00246969
10 1 12 100 1.31572e-05
11 1 12 100 0.00165447
12 1 12 100 2.00196e-06
0 2 12 100 0.101303
1 2 12 100 0.0497492
2 2 12 100 0.199565
3 2 12 100 0.340185
4 2 12 100 0.191776
5 2 12 100 0.0581913
6 2 12 100 0.0201636
7 2 12 100 0.00986792
8 2 12 100 0.00988102
9 2 12 100 0.00726376
10 2 12 100 0.00247153
11 2 12 100 0.00719824
12 2 12 100 0.00238451
0 3 12 100 0.129437
1 3 12 100 0.0315384
2 3 12 100 0.0785049
3 3 12 100 0.150695
4 3 12 100 0.165381
5 3 12 100 0.182515
6 3 12 100 0.15688
7 3 12 100 0.0449095
8 3 12 100 0.0223663
9 3 12 100 0.0120602
10 3 12 100 0.00544688
11 3 12 100 0.0181775
12 3 12 100 0.00208862
0 4 12 100 0.177299
1 4 12 100 0.00477781
2 4 12 100 0.0246867
3 4 12 100 0.055517
4 4 12 100 0.0623111
5 4 12 100 0.195477
6 4 12 100 0.138218
7 4 12 100 0.133595
8 4 12 100 0.147952
9 4 12 100 0.0283906
10 4 12 100 0.0153492
11 4 12 100 0.0164236
12 4 12 100 2.70827e-06
0 5 12 100 0.189993
1 5 12 100 0.00754517
2 5 12 100 0.00555387
3 5 12 100 0.0188658
4 5 12 100 0.0509706
5 5 12 100 0.0610603
6 5 12 100 0.145296
7 5 12 100 0.114888
8 5 12 100 0.119937
9 5 12 100 0.213442
10 5 12 100 0.0250382
11 5 12 100 0.0474041
12 5 12 100 5.14908e-06
0 6 12 100 0.148622
1 6 12 100 0.000423055
2 6 12 100 0.00280196
3 6 12 100 0.00973537
4 6 12 100 0.0240074
5 6 12 100 0.0516688
6 6 12 100 0.0603592
7 6 12 100 0.124845
8 6 12 100 0.128801
9 6 12 100 0.126743
10 6 12 100 0.053183
11 6 12 100 0.268774
12 6 12 100 3.72621e-05
0 7 12 100 0.146695
1 7 12 100 0.00394403
2 7 12 100 0.0122761
3 7 12 100 0.0011035
4 7 12 100 0.0260343
5 7 12 100 0.0334747
6 7 12 100 0.0365433
7 7 12 100 0.0753736
8 7 12 100 0.124608
9 7 12 100 0.200129
10 7 12 100 0.0981022
11 7 12 100 0.241681
12 7 12 100 3.52168e-05
0 8 12 100 0.191013
1 8 12 100 0.00418216
2 8 12 100 0.00421166
3 8 12 100 0.00436211
4 8 12 100 0.00819586
5 8 12 100 0.0252644
6 8 12 100 0.0171068
7 8 12 100 0.0412057
8 8 12 100 0.0840436
9 8 12 100 0.189988
10 8 12 100 0.132865
11 8 12 100 0.289325
12 8 12 100 0.00823707
0 9 12 100 0.172476
1 9 12 100 4.1364e-06
2 9 12 100 0.00103082
3 9 12 100 0.00607205
4 9 12 100 0.012605
5 9 12 100 0.018289
6 9 12 100 0.00621181
7 9 12 100 0.0320365
8 9 12 100 0.0760179
9 9 12 100 0.130268
10 9 12 100 0.137644
11 9 12 100 0.395556
12 9 12 100 0.0117894
0 10 12 100 0.250398
1 10 12 100 0.0052414
2 10 12 100 1.31593e-05
3 10 12 100 8.47178e-05
4 10 12 100 0.0112135
5 10 12 100 0.0223822
6 10 12 100 0.0331206
7 10 12 100 0.0322732
8 10 12 100 0.107396
9 10 12 100 0.102433
10 10 12 100 0.147662
11 10 12 100 0.287718
12 10 12 100 6.42714e-05
0 11 12 100 0.263519
1 11 12 100 0.000251312
2 11 12 100 6.50188e-05
3 11 12 100 0.000208
5 11 12 100 0.0158966
6 11 12 100 0.0358038
7 11 12 100 0.0189625
8 11 12 100 0.0563237
9 11 12 100 0.0505888
10 11 12 100 0.130798
11 11 12 100 0.426243
12 11 12 100 0.00133948
0 12 12 100 0.37476
1 12 12 100 2.8082e-05
2 12 12 100 0.00531299
4 12 12 100 0.00050785
5 12 12 100 0.000342408
6 12 12 100 0.0312368
7 12 12 100 0.0287535
8 12 12 100 0.0624056
9 12 12 100 0.0312721
10 12 12 100 0.155843
11 12 12 100 0.301904
12 12 12 100 0.0076333
0 13 12 100 0.320818
3 13 12 100 3.17222e-05
4 13 12 100 2.21285e-05
5 13 12 100 0.0599101
8 13 12 100 0.0600733
9 13 12 100 0.0605461
11 13 12 100 0.49673
12 13 12 100 0.00186911
0 14 12 100 0.204479
4 14 12 100 0.000766159
5 14 12 100 0.000478255
6 14 12 100 0.000506905
8 14 12 100 0.00262811
9 14 12 100 2.97081e-06
10 14 12 100 0.294249
11 14 12 100 0.496886
12 14 12 100 3.01777e-06
0 15 12 100 0.591127
2 15 12 100 9.45031e-06
4 15 12 100 0.00113969
9 15 12 100 0.2
10 15 12 100 0.207717
12 15 12 100 6.20428e-06
0 16 12 100 6.265e-05
11 16 12 100 0.999937
0 1 13 100 0.0935477
1 1 13 100 0.611361
2 1 13 100 0.14613
3 1 13 100 0.0905124
4 1 13 100 0.0297782
5 1 13 100 0.0117101
6 1 13 100 0.00924817
7 1 13 100 0.00286757
8 1 13 100 0.00228486
9 1 13 100 1.67123e-05
10 1 13 100 5.22062e-05
11 1 13 100 2.49163e-05
12 1 13 100 0.0024653
13 1 13 100 6.36074e-07
0 2 13 100 0.122252
1 2 13 100 0.0591968
2 2 13 100 0.220147
3 2 13 100 0.255671
4 2 13 100 0.193638
5 2 13 100 0.0835618
6 2 13 100 0.0230996
7 2 13 100 0.012958
8 2 13 100 0.00629979
9 2 13 100 0.00231888
10 2 13 100 0.00539377
11 2 13 100 0.00236078
12 2 13 100 0.0131009
13 2 13 100 1.56794e-06
0 3 13 100 0.182668
1 3 13 100 0.0334706
2 3 13 100 0.0983626
3 3 13 100 0.149671
4 3 13 100 0.18666
5 3 13 100 0.13031
6 3 13 100 0.112124
7 3 13 100 0.0636153
8 3 13 100 0.016062
9 3 13 100 0.0024843
10 3 13 100 0.0113293
11 3 13 100 0.00647557
12 3 13 100 0.00676309
13 3 13 100 3.53837e-06
0 4 13 100 0.190096
1 4 13 100 0.0198378
2 4 13 100 0.0485119
3 4 13 100 0.0368748
4 4 13 100 0.134392
5 4 13 100 0.171493
6 4 13 100 0.145744
7 4 13 100 0.0865785
8 4 13 100 0.0724899
9 4 13 100 0.0309676
10 4 13 100 0.0229362
11 4 13 100 0.0120147
12 4 13 100 0.0257869
13 4 13 100 0.00227699
0 5 13 100 0.162515
1 5 13 100 0.0152461
2 5 13 100 0.0183178
3 5 13 100 0.0252456
4 5 13 100 0.0620606
5 5 13 100 0.0933636
6 5 13 100 0.161153
7 5 13 100 0.101526
8 5 13 100 0.10697
9 5 13 100 0.11662
10 5 13 100 0.060258
11 5 13 100 0.0251607
12 5 13 100 0.0515556
13 5 13 100 9.62241e-06
0 6 13 100 0.177304
1 6 13 100 0.0116064
2 6 13 100 0.0115587
3 6 13 100 0.0111768
4 6 13 100 0.0190424
5 6 13 100 0.0490982
6 6 13 100 0.0582015
7 6 13 100 0.112333
8 6 13 100 0.125493
9 6 13 100 0.135043
10 6 13 100 0.1024
11 6 13 100 0.0684181
12 6 13 100 0.118306
13 6 13 100 1.87955e-05
0 7 13 100 0.151266
1 7 13 100 0.0113655
2 7 13 100 0.00870983
3 7 13 100 0.00547049
4 7 13 100 0.0193497
5 7 13 100 0.0282921
6 7 13 100 0.0446915
7 7 13 100 0.0699762
8 7 13 100 0.086124
9 7 13 100 0.121227
10 7 13 100 0.155974
11 7 13 100 0.0909771
12 7 13 100 0.201618
13 7 13 100 0.00495936
0 8 13 100 0.150011
1 8 13 100 0.00573116
2 8 13 100 2.52819e-05
3 8 13 100 0.0118491
4 8 13 100 0.0139873
5 8 13 100 0.00601336
6 8 13 100 0.0361191
7 8 13 100 0.0602898
8 8 13 100 0.0734208
9 8 13 100 0.0939282
10 8 13 100 0.119411
11 8 13 100 0.139082
12 8 13 100 0.281851
13 8 13 100 0.00828147
0 9 13 100 0.224473
1 9 13 100 0.00407264
2 9 13 100 0.00572599
3 9 13 100 0.0080078
4 9 13 100 0.00809084
5 9 13 100 0.00863909
6 9 13 100 0.00430235
7 9 13 100 0.0132188
8 9 13 100 0.0523933
9 9 13 100 0.0978359
10 9 13 100 0.121054
11 9 13 100 0.136365
12 9 13 100 0.315773
13 9 13 100 4.86898e-05
0 10 13 100 0.201103
1 10 13 100 0.0202137
2 10 13 100 0.000982983
3 10 13 100 4.53656e-05
4 10 13 100 0.00378951
5 10 13 100 0.0053946
6 10 13 100 0.00611443
7 10 13 100 0.0133771
8 10 13 100 0.0427665
9 10 13 100 0.0788402
10 10 13 100 0.128212
11 10 13 100 0.128215
12 10 13 100 0.366572
13 10 13 100 0.00437418
0 11 13 100 0.197108
1 11 13 100 0.0206334
2 11 13 100 0.0103785
3 11 13 100 0.0103166
4 11 13 100 0.0103006
5 11 13 100 4.76132e-05
6 11 13 100 7.89808e-06
7 11 13 100 0.0206725
8 11 13 100 0.0100727
9 11 13 100 0.061854
10 11 13 100 0.12106
11 11 13 100 0.139688
12 11 13 100 0.396941
13 11 13 100 0.000919492
0 12 13 100 0.210384
1 12 13 100 1.27729e-05
3 12 13 100 0.018528
4 12 13 100 0.0185375
5 12 13 100 1.95311e-05
6 12 13 100 0.0132842
7 12 13 100 0.000183134
8 12 13 100 0.0163164
9 12 13 100 0.076831
10 12 13 100 0.11579
11 12 13 100 0.0945817
12 12 13 100 0.435458
13 12 13 100 7.4214e-05
0 13 13 100 0.472856
1 13 13 100 2.57183e-05
2 13 13 100 0.016611
3 13 13 100 1.23427e-05
5 13 13 100 5.37111e-05
6 13 13 100 0.00152532
8 13 13 100 0.0416664
9 13 13 100 0.0555462
10 13 13 100 0.0296236
11 13 13 100 0.027949
12 13 13 100 0.35412
13 13 13 100 1.00433e-05
0 14 13 100 0.0837969
1 14 13 100 7.63484e-06
3 14 13 100 2.38678e-06
5 14 13 100 0.000135595
7 14 13 100 1.08516e-06
8 14 13 100 0.0832791
9 14 13 100 0.16616
10 14 13 100 4.00615e-05
11 14 13 100 0.0833881
12 14 13 100 0.583189
0 15 13 100 0.0173385
2 15 13 100 0.111111
4 15 13 100 0.000296526
8 15 13 100 0.11278
10 15 13 100 0.222222
11 15 13 100 0.424807
12 15 13 100 0.111445
0 16 13 100 0.378715
2 16 13 100 0.200245
8 16 13 100 0.2
11 16 13 100 0.0210398
12 16 13 100 0.2
2 17 13 100 1
0 18 13 100 0.0394254
12 18 13 100 0.960575
0 19 13 100 0.0806513
12 19 13 100 0.919349
0 1 14 100 0.0717496
1 1 14 100 0.645887
2 1 14 100 0.138072
3 1 14 100 0.0863783
4 1 14 100 0.0352635
5 1 14 100 0.00829692
6 1 14 100 0.00356572
7 1 14 100 0.00316148
8 1 14 100 0.00251896
9 1 14 100 0.00105745
10 1 14 100 0.0019856
11 1 14 100 0.00197398
12 1 14 100 5.11329e-05
13 1 14 100 1.26884e-06
14 1 14 100 3.68439e-05
0 2 14 100 0.13447
1 2 14 100 0.0770099
2 2 14 100 0.200416
3 2 14 100 0.234233
4 2 14 100 0.190088
5 2 14 100 0.06747
6 2 14 100 0.0393973
7 2 14 100 0.0229115
8 2 14 100 0.00885107
9 2 14 100 0.0064894
10 2 14 100 0.00367325
11 2 14 100 0.0062844
12 2 14 100 0.00314871
13 2 14 100 0.00555617
14 2 14 100 1.88639e-06
0 3 14 100 0.166379
1 3 14 100 0.0244351
2 3 14 100 0.100238
3 3 14 100 0.146376
4 3 14 100 0.180514
5 3 14 100 0.146723
6 3 14 100 0.125827
7 3 14 100 0.0471801
8 3 14 100 0.0219061
9 3 14 100 0.0122561
10 3 14 100 0.010736
11 3 14 100 0.0110199
12 3 14 100 0.00476434
13 3 14 100 0.00164038
14 3 14 100 4.6954e-06
0 4 14 100 0.150465
1 4 14 100 0.0269514
2 4 14 100 0.0323743
3 4 14 100 0.0630163
4 4 14 100 0.112973
5 4 14 100 0.181968
6 4 14 100 0.132038
7 4 14 100 0.117406
8 4 14 100 0.0813522
9 4 14 100 0.0416744
10 4 14 100 0.0202292
11 4 14 100 0.0142971
12 4 14 100 0.00717647
13 4 14 100 0.0180771
14 4 14 100 1.53944e-06
0 5 14 100 0.163482
1 5 14 100 0.0228494
2 5 14 100 0.0150274
3 5 14 100 0.0275805
4 5 14 100 0.0524141
5 5 14 100 0.0746607
6 5 14 100 0.143093
7 5 14 100 0.107633
8 5 14 100 0.111554
9 5 14 100 0.0901002
10 5 14 100 0.0615516
11 5 14 100 0.0673934
12 5 14 100 0.0227079
13 5 14 100 0.0399509
14 5 14 100 1.93844e-06
0 6 14 100 0.161382
1 6 14 100 0.00818306
2 6 14 100 0.00720542
3 6 14 100 0.0180514
4 6 14 100 0.00933266
5 6 14 100 0.0393823
6 6 14 100 0.0576376
7 6 14 100 0.0792165
8 6 14 100 0.132676
9 6 14 100 0.128385
10 6 14 100 0.116672
11 6 14 100 0.0885944
12 6 14 100 0.0444849
13 6 14 100 0.108502
14 6 14 100 0.000295897
0 7 14 100 0.195874
1 7 14 100 0.0155368
2 7 14 100 0.00530128
3 7 14 100 0.0065246
4 7 14 100 0.0137938
5 7 14 100 0.0236841
6 7 14 100 0.0276986
7 7 14 100 0.0455896
8 7 14 100 0.0772374
9 7 14 100 0.119874
10 7 14 100 0.102223
11 7 14 100 0.132769
12 7 14 100 0.0774265
13 7 14 100 0.15481
14 7 14 100 0.00165853
0 8 14 100 0.183722
1 8 14 100 0.00620193
2 8 14 100 0.00209234
3 8 14 100 0.0146739
4 8 14 100 0.00643125
5 8 14 100 0.00807783
6 8 14 100 0.0251212
7 8 14 100 0.0226097
8 8 14 100 0.0384896
9 8 14 100 0.0950998
10 8 14 100 0.132068
11 8 14 100 0.156266
12 8 14 100 0.081802
13 8 14 100 0.224092
14 8 14 100 0.00325417
0 9 14 100 0.170293
1 9 14 100 0.0169694
2 9 14 100 0.000950116
3 9 14 100 0.00481466
4 9 14 100 0.00328034
5 9 14 100 0.00456146
6 9 14 100 0.0148514
7 9 14 100 0.0321563
8 9 14 100 0.0324117
9 9 14 100 0.0780574
10 9 14 100 0.092439
11 9 14 100 0.154875
12 9 14 100 0.115801
13 9 14 100 0.27429
14 9 14 100 0.00424982
0 10 14 100 0.216218
1 10 14 100 0.0101128
2 10 14 100 4.17643e-05
3 10 14 100 0.00693076
4 10 14 100 0.0123767
5 10 14 100 0.00521014
6 10 14 100 0.00767129
7 10 14 100 0.0108817
8 10 14 100 0.0359344
9 10 14 100 0.0416159
10 10 14 100 0.0799371
11 10 14 100 0.136819
12 10 14 100 0.140076
13 10 14 100 0.296148
14 10 14 100 2.64923e-05
0 11 14 100 0.211601
1 11 14 100 0.00215587
2 11 14 100 4.80886e-06
3 11 14 100 2.15312e-05
4 11 14 100 0.01109
5 11 14 100 0.00464741
6 11 14 100 0.0171318
7 11 14 100 0.00568506
8 11 14 100 0.0169425
9 11 14 100 0.0558791
10 11 14 100 0.0563866
11 11 14 100 0.109688
12 11 14 100 0.154828
13 11 14 100 0.350025
14 11 14 100 0.00391323
0 12 14 100 0.241896
1 12 14 100 0.000675488
2 12 14 100 0.00016059
3 12 14 100 1.62976e-05
4 12 14 100 0.0189727
5 12 14 100 0.00948625
6 12 14 100 0.000530847
7 12 14 100 1.78284e-06
8 12 14 100 0.0198778
9 12 14 100 0.00941943
10 12 14 100 0.0770638
11 12 14 100 0.0896222
12 12 14 100 0.150844
13 12 14 100 0.381386
14 12 14 100 4.66386e-05
0 13 14 100 0.170474
1 13 14 100 0.00230742
2 13 14 100 3.65712e-05
3 13 14 100 0.000108846
4 13 14 100 0.017131
5 13 14 100 0.0168688
6 13 14 100 0.0180962
7 13 14 100 7.08316e-05
8 13 14 100 6.92237e-06
9 13 14 100 0.0664899
10 13 14 100 0.0426503
11 13 14 100 0.0551171
12 13 14 100 0.139601
13 13 14 100 0.471035
14 13 14 100 6.86696e-06
0 14 14 100 0.289884
1 14 14 100 3.56319e-06
3 14 14 100 0.000169813
4 14 14 100 5.36389e-06
5 14 14 100 6.85181e-07
6 14 14 100 0.0360767
7 14 14 100 3.2519e-05
8 14 14 100 0.000633308
9 14 14 100 7.15693e-07
10 14 14 100 0.0012309
11 14 14 100 0.100579
12 14 14 100 0.0736323
13 14 14 100 0.497733
14 14 14 100 1.79252e-05
0 15 14 100 0.120036
10 15 14 100 0.117644
11 15 14 100 0.117647
12 15 14 100 0.235294
13 15 14 100 0.409369
14 15 14 100 9.8995e-06
0 16 14 100 0.270249
9 16 14 100 0.105812
10 16 14 100 0.0191848
11 16 14 100 0.125
12 16 14 100 0.118811
13 16 14 100 0.360874
14 16 14 100 6.954e-05
0 17 14 100 2.61664e-05
13 17 14 100 0.999974
0 18 14 100 2.58029e-05
10 18 14 100 0.000344138
11 18 14 100 0.333334
13 18 14 100 0.666296
0 19 14 100 0.333414
6 19 14 100 0.000422139
9 19 14 100 0.332822
13 19 14 100 0.333342
0 20 14 100 0.0031328
5 20 14 100 0.5
12 20 14 100 5.43529e-05
13 20 14 100 0.496813
0 21 14 100 0.5
6 21 14 100 0.5
13 22 14 100 1
13 23 14 100 1
0 24 14 100 1
13 25 14 100 1
0 26 14 100 0.999918
12 26 14 100 8.15674e-05
0 1 15 100 0.0768222
1 1 15 100 0.598547
2 1 15 100 0.151475
3 1 15 100 0.0945246
4 1 15 100 0.0382446
5 1 15 100 0.0197787
6 1 15 100 0.0107084
7 1 15 100 0.00356454
8 1 15 100 0.000965499
9 1 15 100 2.18815e-05
10 1 15 100 0.000180795
11 1 15 100 0.000117409
12 1 15 100 0.00127958
13 1 15 100 0.00125684
14 1 15 100 0.00251067
15 1 15 100 2.61894e-06
0 2 15 100 0.130126
1 2 15 100 0.0607304
2 2 15 100 0.21309
3 2 15 100 0.200832
4 2 15 100 0.180213
5 2 15 100 0.103263
6 2 15 100 0.0453544
7 2 15 100 0.0368657
8 2 15 100 0.0100031
9 2 15 100 0.00511545
10 2 15 100 0.000183327
11 2 15 100 0.00370682
12 2 15 100 0.000242517
13 2 15 100 0.00200873
14 2 15 100 0.00826443
15 2 15 100 9.34773e-07
0 3 15 100 0.152877
1 3 15 100 0.027064
2 3 15 100 0.0944674
3 3 15 100 0.161538
4 3 15 100 0.163985
5 3 15 100 0.130271
6 3 15 100 0.110547
7 3 15 100 0.0784171
8 3 15 100 0.0285988
9 3 15 100 0.0152241
10 3 15 100 0.00980899
11 3 15 100 0.00702356
12 3 15 100 0.00643591
13 3 15 100 0.00257689
14 3 15 100 0.0101647
15 3 15 100 0.00100185
0 4 15 100 0.174311
1 4 15 100 0.0127424
2 4 15 100 0.0326659
3 4 15 100 0.0571423
4 4 15 100 0.114022
5 4 15 100 0.158073
6 4 15 100 0.128735
7 4 15 100 0.116511
8 4 15 100 0.0602413
9 4 15 100 0.0633676
10 4 15 100 0.0329779
11 4 15 100 0.0165772
12 4 15 100 0.0110453
13 4 15 100 0.00119616
14 4 15 100 0.0203901
15 4 15 100 2.01766e-06
0 5 15 100 0.188892
1 5 15 100 0.0152587
2 5 15 100 0.0182113
3 5 15 100 0.0285619
4 5 15 100 0.0479412
5 5 15 100 0.0774055
6 5 15 100 0.127763
7 5 15 100 0.129058
8 5 15 100 0.10049
9 5 15 100 0.0763515
10 5 15 100 0.0443492
11 5 15 100 0.0400592
12 5 15 100 0.0579112
13 5 15 100 0.0168768
14 5 15 100 0.0296134
15 5 15 100 0.00125654
0 6 15 100 0.148192
1 6 15 100 0.0053779
2 6 15 100 0.00569484
3 6 15 100 0.0138336
4 6 15 100 0.024152
5 6 15 100 0.0257935
6 6 15 100 0.0590486
7 6 15 100 0.0980465
8 6 15 100 0.117339
9 6 15 100 0.118728
10 6 15 100 0.104703
11 6 15 100 0.0948624
12 6 15 100 0.0751163
13 6 15 100 0.0208804
14 6 15 100 0.0859923
15 6 15 100 0.00224077
0 7 15 100 0.177313
1 7 15 100 0.00530116
2 7 15 100 0.00583008
3 7 15 100 0.00918852
4 7 15 100 0.01209
5 7 15 100 0.0180476
6 7 15 100 0.028249
7 7 15 100 0.0468221
8 7 15 100 0.0704797
9 7 15 100 0.104637
10 7 15 100 0.117397
11 7 15 100 0.112413
12 7 15 100 0.114076
13 7 15 100 0.0644864
14 7 15 100 0.113648
15 7 15 100 2.13471e-05
0 8 15 100 0.162638
1 8 15 100 0.00575144
2 8 15 100 0.00559206
3 8 15 100 0.00687351
4 8 15 100 0.0103627
5 8 15 100 0.0131368
6 8 15 100 0.0160897
7 8 15 100 0.0270485
8 8 15 100 0.0471392
9 8 15 100 0.0597245
10 8 15 100 0.0851591
11 8 15 100 0.126821
12 8 15 100 0.156723
13 8 15 100 0.079829
14 8 15 100 0.195673
15 8 15 100 0.0014392
0 9 15 100 0.213579
1 9 15 100 0.00681896
2 9 15 100 0.00292876
3 9 15 100 0.0100895
4 9 15 100 0.00174989
5 9 15 100 0.0078485
6 9 15 100 0.0120738
7 9 15 100 0.0190624
8 9 15 100 0.0266299
9 9 15 100 0.0482303
10 9 15 100 0.075838
11 9 15 100 0.0730271
12 9 15 100 0.13719
13 9 15 100 0.109302
14 9 15 100 0.25412
15 9 15 100 0.00151176
0 10 15 100 0.226568
1 10 15 100 0.00242477
2 10 15 100 0.000165081
3 10 15 100 0.00459554
4 10 15 100 0.00615241
5 10 15 100 0.00455666
6 10 15 100 0.00931807
7 10 15 100 0.0214676
8 10 15 100 0.0165002
9 10 15 100 0.0353716
10 10 15 100 0.0622387
11 10 15 100 0.10721
12 10 15 100 0.129036
13 10 15 100 0.108581
14 10 15 100 0.265754
15 10 15 100 6.06321e-05
0 11 15 100 0.179373
1 11 15 100 2.43617e-05
2 11 15 100 0.00344141
3 11 15 100 2.5939e-05
4 11 15 100 0.00365049
5 11 15 100 0.0038754
6 11 15 100 0.0138874
7 11 15 100 0.000921593
8 11 15 100 0.00699257
9 11 15 100 0.0436517
10 11 15 100 0.0412574
11 11 15 100 0.0928426
12 11 15 100 0.126035
13 11 15 100 0.146538
14 11 15 100 0.337447
15 11 15 100 3.56573e-05
0 12 15 100 0.215265
1 12 15 100 6.56397e-05
2 12 15 100 0.00571325
3 12 15 100 0.00568427
4 12 15 100 2.73669e-06
5 12 15 100 0.00567215
6 12 15 100 0.0112492
7 12 15 100 0.000216348
8 12 15 100 0.00570758
9 12 15 100 0.00423576
10 12 15 100 0.0430239
11 12 15 100 0.0843825
12 12 15 100 0.124773
13 12 15 100 0.158246
14 12 15 100 0.33564
15 12 15 100 0.00012299
0 13 15 100 0.294962
1 13 15 100 0.0199702
2 13 15 100 0.000493065
3 13 15 100 1.15203e-07
4 13 15 100 1.22291e-05
5 13 15 100 0.0198598
6 13 15 100 7.31419e-06
7 13 15 100 0.000197882
8 13 15 100 0.00973936
9 13 15 100 0.0109698
10 13 15 100 0.0393454
11 13 15 100 0.0545587
12 13 15 100 0.0613892
13 13 15 100 0.161294
14 13 15 100 0.327101
15 13 15 100 9.97229e-05
0 14 15 100 0.320614
1 14 15 100 3.56356e-05
3 14 15 100 0.0169502
4 14 15 100 3.03497e-06
5 14 15 100 3.42861e-06
6 14 15 100 0.0001485
7 14 15 100 3.40068e-05
9 14 15 100 0.0170457
10 14 15 100 0.0170394
11 14 15 100 0.0252154
12 14 15 100 0.152576
13 14 15 100 0.085253
14 14 15 100 0.364945
15 14 15 100 0.000137315
0 15 15 100 0.17614
2 15 15 100 0.044575
3 15 15 100 1.66842e-05
4 15 15 100 3.47493e-07
6 15 15 100 0.00482621
7 15 15 100 1.1761e-06
8 15 15 100 3.34067e-05
10 15 15 100 0.0799117
11 15 15 100 0.0526317
12 15 15 100 0.0789499
13 15 15 100 0.0564105
14 15 15 100 0.506405
15 15 15 100 9.78817e-05
0 16 15 100 0.260711
1 16 15 100 6.44861e-05
3 16 15 100 1.57824e-06
6 16 15 100 1.34655e-06
7 16 15 100 2.94365e-06
8 16 15 100 0.0520459
10 16 15 100 0.0511512
11 16 15 100 0.0533965
12 16 15 100 3.30641e-05
13 16 15 100 0.217087
14 16 15 100 0.365503
15 16 15 100 1.42434e-06
0 17 15 100 0.206435
2 17 15 100 0.110723
7 17 15 100 5.33326e-05
9 17 15 100 0.000856431
10 17 15 100 3.11697e-06
11 17 15 100 0.111111
12 17 15 100 0.0153851
13 17 15 100 0.227246
14 17 15 100 0.328182
15 17 15 100 5.76829e-06
0 18 15 100 0.485263
2 18 15 100 0.00538067
7 18 15 100 9.59193e-06
10 18 15 100 0.00543774
11 18 15 100 0.00033947
13 18 15 100 0.166413
14 18 15 100 0.336462
15 18 15 100 0.000694329
0 19 15 100 0.503879
10 19 15 100 3.11498e-06
12 19 15 100 0.000147251
13 19 15 100 0.245965
14 19 15 100 0.25
15 19 15 100 5.10062e-06
0 20 15 100 0.00019077
2 20 15 100 0.333333
14 20 15 100 0.666476
0 21 15 100 0.333091
2 21 15 100 0.000108937
3 21 15 100 0.00450239
12 21 15 100 0.328771
14 21 15 100 0.333335
15 21 15 100 0.000191909
2 22 15 100 1
2 23 15 100 1
0 1 16 100 0.0773348
1 1 16 100 0.619851
2 1 16 100 0.124384
3 1 16 100 0.0884464
4 1 16 100 0.0452602
5 1 16 100 0.0207785
6 1 16 100 0.00999125
7 1 16 100 0.00364124
8 1 16 100 0.00254652
9 1 16 100 0.0011464
10 1 16 100 5.26602e-05
11 1 16 100 0.00112351
12 1 16 100 0.00328106
13 1 16 100 7.66052e-05
14 1 16 100 0.000969551
15 1 16 100 0.0010782
16 1 16 100 3.82085e-05
0 2 16 100 0.126411
1 2 16 100 0.0570452
2 2 16 100 0.167461
3 2 16 100 0.272872
4 2 16 100 0.155757
5 2 16 100 0.103675
6 2 16 100 0.0348483
7 2 16 100 0.0375398
8 2 16 100 0.0124709
9 2 16 100 0.006412
10 2 16 100 0.00324761
11 2 16 100 0.00403381
12 2 16 100 0.00716566
13 2 16 100 0.00264413
14 2 16 100 0.00228105
15 2 16 100 0.00506543
16 2 16 100 0.00107049
0 3 16 100 0.147012
1 3 16 100 0.0241394
2 3 16 100 0.111124
3 3 16 100 0.131647
4 3 16 100 0.14527
5 3 16 100 0.166027
6 3 16 100 0.108446
7 3 16 100 0.0710406
8 3 16 100 0.0441331
9 3 16 100 0.0143878
10 3 16 100 0.00601114
11 3 16 100 0.0105076
12 3 16 100 0.0058279
13 3 16 100 0.00341905
14 3 16 100 0.00551646
15 3 16 100 0.00444431
16 3 16 100 0.00104615
0 4 16 100 0.170615
1 4 16 100 0.0152998
2 4 16 100 0.0279433
3 4 16 100 0.0512583
4 4 16 100 0.114228
5 4 16 100 0.134593
6 4 16 100 0.14479
7 4 16 100 0.131967
8 4 16 100 0.0849602
9 4 16 100 0.0372789
10 4 16 100 0.0275941
11 4 16 100 0.019074
12 4 16 100 0.01074
13 4 16 100 0.0108285
14 4 16 100 0.00599666
15 4 16 100 0.012831
16 4 16 100 1.12273e-06
0 5 16 100 0.167682
1 5 16 100 0.0078847
2 5 16 100 0.0101584
3 5 16 100 0.0293284
4 5 16 100 0.0401287
5 5 16 100 0.0909048
6 5 16 100 0.126231
7 5 16 100 0.126803
8 5 16 100 0.116807
9 5 16 100 0.093887
10 5 16 100 0.0827677
11 5 16 100 0.0301812
12 5 16 100 0.0403803
13 5 16 100 0.0172154
14 5 16 100 0.00274249
15 5 16 100 0.0168868
16 5 16 100 1.04031e-05
0 6 16 100 0.182668
1 6 16 100 0.0039689
2 6 16 100 0.00526266
3 6 16 100 0.0175467
4 6 16 100 0.0211344
5 6 16 100 0.0277238
6 6 16 100 0.052141
7 6 16 100 0.0740356
8 6 16 100 0.115132
9 6 16 100 0.112196
10 6 16 100 0.100396
11 6 16 100 0.0978344
12 6 16 100 0.0753349
13 6 16 100 0.0535068
14 6 16 100 0.0201876
15 6 16 100 0.0409122
16 6 16 100 1.86681e-05
0 7 16 100 0.162834
1 7 16 100 0.0100209
2 7 16 100 0.00122567
3 7 16 100 0.00895835
4 7 16 100 0.0105622
5 7 16 100 0.0172118
6 7 16 100 0.0199741
7 7 16 100 0.0438893
8 7 16 100 0.0651814
9 7 16 100 0.0821252
10 7 16 100 0.121051
11 7 16 100 0.10167
12 7 16 100 0.116846
13 7 16 100 0.0892921
14 7 16 100 0.0472226
15 7 16 100 0.101907
16 7 16 100 2.85318e-05
0 8 16 100 0.163147
1 8 16 100 0.0023594
2 8 16 100 0.00233721
3 8 16 100 0.00818556
4 8 16 100 0.0081915
5 8 16 100 0.00637673
6 8 16 100 0.0169694
7 8 16 100 0.0229772
8 8 16 100 0.0312816
9 8 16 100 0.063149
10 8 16 100 0.0725013
11 8 16 100 0.0971869
12 8 16 100 0.144139
13 8 16 100 0.123345
14 8 16 100 0.0602732
15 8 16 100 0.17685
16 8 16 100 0.000730467
0 9 16 100 0.168801
1 9 16 100 0.0111208
2 9 16 100 0.00143215
3 9 16 100 0.00551971
4 9 16 100 0.00675058
5 9 16 100 0.0069875
6 9 16 100 0.00508065
7 9 16 100 0.0189864
8 9 16 100 0.0109508
9 9 16 100 0.0464415
10 9 16 100 0.0599593
11 9 16 100 0.0903989
12 9 16 100 0.118017
13 9 16 100 0.153175
14 9 16 100 0.105912
15 9 16 100 0.190447
16 9 16 100 1.95616e-05
0 10 16 100 0.166188
1 10 16 100 0.00721878
2 10 16 100 0.000323686
3 10 16 100 0.00359976
4 10 16 100 0.00365839
5 10 16 100 0.00320556
6 10 16 100 0.00546594
7 10 16 100 0.0115713
8 10 16 100 0.00727151
9 10 16 100 0.0286976
10 10 16 100 0.0463528
11 10 16 100 0.0697127
12 10 16 100 0.104988
13 10 16 100 0.117235
14 10 16 100 0.110538
15 10 16 100 0.312248
16 10 16 100 0.00172477
0 11 16 100 0.203931
1 11 16 100 0.00515923
2 11 16 100 0.000132495
3 11 16 100 0.00263044
4 11 16 100 0.0100213
5 11 16 100 0.000955007
6 11 16 100 0.00266503
7 11 16 100 0.00290105
8 11 16 100 0.00722089
9 11 16 100 0.0214716
10 11 16 100 0.036736
11 11 16 100 0.0737324
12 11 16 100 0.0778954
13 11 16 100 0.120576
14 11 16 100 0.10644
15 11 16 100 0.322368
16 11 16 100 0.00516513
0 12 16 100 0.216773
1 12 16 100 2.09637e-05
2 12 16 100 1.37768e-05
3 12 16 100 5.56779e-05
4 12 16 100 0.0144082
5 12 16 100 0.00439514
6 12 16 100 0.00170034
7 12 16 100 0.00953257
8 12 16 100 0.011121
9 12 16 100 0.0171463
10 12 16 100 0.0277651
11 12 16 100 0.0287245
12 12 16 100 0.0755144
13 12 16 100 0.172495
14 12 16 100 0.128023
15 12 16 100 0.287724
16 12 16 100 0.00458663
0 13 16 100 0.222129
1 13 16 100 4.8136e-06
2 13 16 100 5.92072e-07
4 13 16 100 0.0161668
5 13 16 100 3.20022e-05
6 13 16 100 0.000290692
7 13 16 100 1.78082e-05
8 13 16 100 0.000368646
9 13 16 100 0.0238794
10 13 16 100 0.0399335
11 13 16 100 0.00926623
12 13 16 100 0.0449983
13 13 16 100 0.117744
14 13 16 100 0.138785
15 13 16 100 0.386308
16 13 16 100 7.45196e-05
0 14 16 100 0.187703
2 14 16 100 1.65603e-05
3 14 16 100 8.3395e-06
4 14 16 100 0.0149393
5 14 16 100 2.77329e-06
7 14 16 100 7.22427e-05
8 14 16 100 0.0298568
9 14 16 100 1.63046e-05
10 14 16 100 0.0298579
11 14 16 100 0.0298703
12 14 16 100 0.0449329
13 14 16 100 0.10509
14 14 16 100 0.153413
15 14 16 100 0.404219
16 14 16 100 9.81903e-07
0 15 16 100 0.268366
1 15 16 100 5.29557e-06
2 15 16 100 0.0277778
3 15 16 100 2.59545e-05
5 15 16 100 0.000180051
8 15 16 100 1.45946e-05
9 15 16 100 0.0363042
10 15 16 100 5.4001e-06
11 15 16 100 0.0258329
12 15 16 100 0.0843447
13 15 16 100 0.0828861
14 15 16 100 0.160677
15 15 16 100 0.313145
16 15 16 100 0.000434843
0 16 16 100 0.198221
3 16 16 100 0.0532299
4 16 16 100 2.9969e-05
6 16 16 100 8.54033e-06
7 16 16 100 2.6687e-06
8 16 16 100 1.92966e-05
9 16 16 100 2.12112e-05
10 16 16 100 6.47396e-07
11 16 16 100 0.173529
12 16 16 100 0.00456907
14 16 16 100 0.155722
15 16 16 100 0.414524
16 16 16 100 0.000122432
0 17 16 100 0.251299
3 17 16 100 2.33768e-06
4 17 16 100 0.100026
6 17 16 100 0.0999992
7 17 16 100 3.51487e-05
9 17 16 100 3.28773e-06
11 17 16 100 0.0998373
12 17 16 100 1.27138e-05
13 17 16 100 0.1
14 17 16 100 0.048863
15 17 16 100 0.29992
16 17 16 100 1.76402e-06
0 18 16 100 0.143298
4 18 16 100 0.25
5 18 16 100 0.106701
14 18 16 100 0.25
15 18 16 100 0.25
0 19 16 100 0.500001
11 19 16 100 0.499999
0 20 16 100 0.000183137
3 20 16 100 0.000678663
4 20 16 100 0.49879
10 20 16 100 0.499852
11 20 16 100 5.47711e-06
12 20 16 100 0.000490052
0 21 16 100 1
13 22 16 100 1
14 23 16 100 1
0 24 16 100 0.0007961
15 24 16 100 0.999204
0 1 17 100 0.0868086
1 1 17 100 0.602331
2 1 17 100 0.138264
3 1 17 100 0.0729984
4 1 17 100 0.038271
5 1 17 100 0.0229049
6 1 17 100 0.0158555
7 1 17 100 0.00826221
8 1 17 100 0.00207482
9 1 17 100 6.92868e-05
10 1 17 100 0.00303296
11 1 17 100 0.00296908
12 1 17 100 1.4042e-05
13 1 17 100 0.00101442
14 1 17 100 6.8725e-06
15 1 17 100 2.54482e-05
16 1 17 100 0.00501494
17 1 17 100 8.30059e-05
0 2 17 100 0.121779
1 2 17 100 0.0517229
2 2 17 100 0.2067
3 2 17 100 0.212737
4 2 17 100 0.160488
5 2 17 100 0.0981179
6 2 17 100 0.0534707
7 2 17 100 0.0293744
8 2 17 100 0.0218095
9 2 17 100 0.0103123
10 2 17 100 0.00446795
11 2 17 100 0.00555281
12 2 17 100 0.00486021
13 2 17 100 0.00418599
14 2 17 100 0.00205816
15 2 17 100 0.00200207
16 2 17 100 0.010258
17 2 17 100 0.000103851
0 3 17 100 0.148872
1 3 17 100 0.0304044
2 3 17 100 0.0889469
3 3 17 100 0.129395
4 3 17 100 0.151802
5 3 17 100 0.146802
6 3 17 100 0.113144
7 3 17 100 0.0861442
8 3 17 100 0.0353547
9 3 17 100 0.0309891
10 3 17 100 0.00992085
11 3 17 100 0.00797635
12 3 17 100 0.00395749
13 3 17 100 0.00517897
14 3 17 100 0.0030844
15 3 17 100 1.1328e-05
16 3 17 100 0.00801397
17 3 17 100 2.533e-06
0 4 17 100 0.159059
1 4 17 100 0.0176105
2 4 17 100 0.0321044
3 4 17 100 0.0491004
4 4 17 100 0.0999716
5 4 17 100 0.138981
6 4 17 100 0.125563
7 4 17 100 0.115698
8 4 17 100 0.0946251
9 4 17 100 0.052348
10 4 17 100 0.0348559
11 4 17 100 0.0296091
12 4 17 100 0.015034
13 4 17 100 0.010924
14 4 17 100 0.00309402
15 4 17 100 0.00451703
16 4 17 100 0.0169005
17 4 17 100 4.3399e-06
0 5 17 100 0.186518
1 5 17 100 0.0133123
2 5 17 100 0.0253237
3 5 17 100 0.0230933
4 5 17 100 0.0339116
5 5 17 100 0.0676223
6 5 17 100 0.109362
7 5 17 100 0.0975435
8 5 17 100 0.105255
9 5 17 100 0.100271
10 5 17 100 0.0707293
11 5 17 100 0.0485327
12 5 17 100 0.0351531
13 5 17 100 0.0436068
14 5 17 100 0.0121546
15 5 17 100 0.00759873
16 5 17 100 0.0199725
17 5 17 100 3.94024e-05
0 6 17 100 0.186374
1 6 17 100 0.00793186
2 6 17 100 0.0103993
3 6 17 100 0.00604241
4 6 17 100 0.0177062
5 6 17 100 0.0271202
6 6 17 100 0.044273
7 6 17 100 0.0755698
8 6 17 100 0.0935466
9 6 17 100 0.110963
10 6 17 100 0.0997537
11 6 17 100 0.0976258
12 6 17 100 0.0626244
13 6 17 100 0.0533158
14 6 17 100 0.0388222
15 6 17 100 0.0266379
16 6 17 100 0.0412816
17 6 17 100 1.25419e-05
0 7 17 100 0.173377
1 7 17 100 0.00704975
2 7 17 100 0.0032059
3 7 17 100 0.00538805
4 7 17 100 0.00965294
5 7 17 100 0.00977036
6 7 17 100 0.0230659
7 7 17 100 0.0514217
8 7 17 100 0.0550626
9 7 17 100 0.0821111
10 7 17 100 0.0789327
11 7 17 100 0.10447
12 7 17 100 0.0892283
13 7 17 100 0.0951675
14 7 17 100 0.0851536
15 7 17 100 0.0350659
16 7 17 100 0.0918633
17 7 17 100 1.41492e-05
0 8 17 100 0.16127
1 8 17 100 0.00215586
2 8 17 100 0.00867898
3 8 17 100 0.00213518
4 8 17 100 0.00314811
5 8 17 100 0.0107249
6 8 17 100 0.01529
7 8 17 100 0.0182323
8 8 17 100 0.0384651
9 8 17 100 0.0451532
10 8 17 100 0.0719843
11 8 17 100 0.0834026
12 8 17 100 0.0897335
13 8 17 100 0.106225
14 8 17 100 0.110077
15 8 17 100 0.0555467
16 8 17 100 0.177546
17 8 17 100 0.000231487
0 9 17 100 0.194568
1 9 17 100 0.00383035
2 9 17 100 0.00369761
3 9 17 100 0.00279307
4 9 17 100 0.00857513
5 9 17 100 0.00636211
6 9 17 100 0.00692396
7 9 17 100 0.00795635
8 9 17 100 0.029799
9 9 17 100 0.0333851
10 9 17 100 0.0485866
11 9 17 100 0.0750635
12 9 17 100 0.0736002
13 9 17 100 0.115251
14 9 17 100 0.0993823
15 9 17 100 0.0894096
16 9 17 100 0.198368
17 9 17 100 0.00244723
0 10 17 100 0.185284
1 10 17 100 0.00632133
2 10 17 100 0.00164533
3 10 17 100 0.00561031
4 10 17 100 0.00531072
5 10 17 100 0.00327896
6 10 17 100 0.0079184
7 10 17 100 0.00606213
8 10 17 100 0.0144947
9 10 17 100 0.0245893
10 10 17 100 0.041536
11 10 17 100 0.0562631
12 10 17 100 0.0864132
13 10 17 100 0.0827384
14 10 17 100 0.117747
15 10 17 100 0.0829691
16 10 17 100 0.268713
17 10 17 100 0.00310598
0 11 17 100 0.193583
1 11 17 100 0.000401022
2 11 17 100 0.00629837
3 11 17 100 0.00212907
4 11 17 100 0.00910842
5 11 17 100 0.00226708
6 11 17 100 0.00236126
7 11 17 100 0.00837885
8 11 17 100 0.00411649
9 11 17 100 0.00677878
10 11 17 100 0.0492429
11 11 17 100 0.0462676
12 11 17 100 0.0696874
13 11 17 100 0.1003
14 11 17 100 0.110048
15 11 17 100 0.108865
16 11 17 100 0.275411
17 11 17 100 0.00475647
0 12 17 100 0.17545
1 12 17 100 0.00715189
2 12 17 100 0.0036379
3 12 17 100 0.00341741
4 12 17 100 0.00368836
5 12 17 100 7.77708e-05
6 12 17 100 0.00405302
7 12 17 100 0.000205343
8 12 17 100 0.0121174
9 12 17 100 0.0128269
10 12 17 100 0.0142529
11 12 17 100 0.0461544
12 12 17 100 0.064801
13 12 17 100 0.109177
14 12 17 100 0.142845
15 12 17 100 0.106394
16 12 17 100 0.287391
17 12 17 100 0.00635823
0 13 17 100 0.210975
1 13 17 100 0.00625939
2 13 17 100 4.35202e-06
3 13 17 100 3.12161e-06
4 13 17 100 0.00622892
5 13 17 100 1.95586e-05
6 13 17 100 0.00501004
7 13 17 100 0.000341281
8 13 17 100 0.0124885
9 13 17 100 0.000755206
10 13 17 100 0.000961127
11 13 17 100 0.0280761
12 13 17 100 0.0507325
13 13 17 100 0.0770223
14 13 17 100 0.159846
15 13 17 100 0.124251
16 13 17 100 0.311641
17 13 17 100 0.00538463
0 14 17 100 0.128911
1 14 17 100 0.0210607
2 14 17 100 2.79772e-05
3 14 17 100 3.90142e-06
4 14 17 100 0.0105268
7 14 17 100 0.0104878
8 14 17 100 3.96591e-05
9 14 17 100 5.47646e-07
10 14 17 100 0.0210511
11 14 17 100 0.0204394
12 14 17 100 0.0017094
13 14 17 100 0.062413
14 14 17 100 0.168506
15 14 17 100 0.147483
16 14 17 100 0.40722
17 14 17 100 0.00011944
0 15 17 100 0.198613
1 15 17 100 3.12307e-05
2 15 17 100 0.000517329
3 15 17 100 0.0178568
4 15 17 100 0.0178754
5 15 17 100 0.017949
6 15 17 100 1.00341e-05
7 15 17 100 0.0178625
8 15 17 100 0.0176706
9 15 17 100 3.83951e-05
10 15 17 100 0.000223852
12 15 17 100 0.000535033
13 15 17 100 0.000146317
14 15 17 100 0.147166
15 15 17 100 0.179413
16 15 17 100 0.384028
17 15 17 100 6.44595e-05
0 16 17 100 0.179726
1 16 17 100 0.0454546
2 16 17 100 0.00325943
3 16 17 100 0.0400707
4 16 17 100 0.045454
8 16 17 100 5.74077e-06
9 16 17 100 5.57919e-07
11 16 17 100 3.36118e-05
14 16 17 100 1.7255e-05
15 16 17 100 0.0485749
16 16 17 100 0.637403
0 17 17 100 0.404692
1 17 17 100 2.49818e-05
4 17 17 100 0.000157462
13 17 17 100 0.110048
14 17 17 100 4.25473e-05
15 17 17 100 0.011114
16 17 17 100 0.473913
17 17 17 100 7.52559e-06
0 18 17 100 0.310824
1 18 17 100 0.332699
15 18 17 100 0.0231438
16 18 17 100 0.333333
5 19 17 100 1
0 20 17 100 0.547597
7 20 17 100 0.45237
14 20 17 100 3.30571e-05
9 21 17 100 1
1 22 17 100 1
0 23 17 100 0.00308014
10 23 17 100 6.68742e-05
11 23 17 100 0.996853
0 24 17 100 0.992712
7 24 17 100 0.000292486
14 24 17 100 0.00699541
12 25 17 100 0.999546
16 25 17 100 0.000453938
0 26 17 100 0.000120735
8 26 17 100 8.80483e-05
15 26 17 100 0.999791
16 27 17 100 1
0 1 18 100 0.0934106
1 1 18 100 0.643073
2 1 18 100 0.101078
3 1 18 100 0.0831197
4 1 18 100 0.0268355
5 1 18 100 0.0174866
6 1 18 100 0.0178152
7 1 18 100 0.00567966
8 1 18 100 0.00178926
9 1 18 100 0.00231487
10 1 18 100 0.000180389
11 1 18 100 0.000180948
12 1 18 100 0.0019949
13 1 18 100 7.82984e-06
14 1 18 100 2.60479e-05
15 1 18 100 0.00203058
16 1 18 100 0.00100051
17 1 18 100 0.000987425
18 1 18 100 0.000988952
0 2 18 100 0.118486
1 2 18 100 0.0652347
2 2 18 100 0.206918
3 2 18 100 0.214267
4 2 18 100 0.156076
5 2 18 100 0.104936
6 2 18 100 0.0432133
7 2 18 100 0.0339686
8 2 18 100 0.028765
9 2 18 100 0.00627486
10 2 18 100 0.00391278
11 2 18 100 0.00227153
12 2 18 100 0.0070845
13 2 18 100 0.00101074
14 2 18 100 0.000121331
15 2 18 100 0.00180197
16 2 18 100 0.000998656
17 2 18 100 0.00464983
18 2 18 100 9.61742e-06
0 3 18 100 0.159035
1 3 18 100 0.0148005
2 3 18 100 0.126537
3 3 18 100 0.122839
4 3 18 100 0.149338
5 3 18 100 0.143217
6 3 18 100 0.11026
7 3 18 100 0.061961
8 3 18 100 0.0392565
9 3 18 100 0.0263406
10 3 18 100 0.0122742
11 3 18 100 0.0095653
12 3 18 100 0.00630344
13 3 18 100 0.00326602
14 3 18 100 0.00173931
15 3 18 100 0.00370012
16 3 18 100 0.000804092
17 3 18 100 0.00875483
18 3 18 100 6.13353e-06
0 4 18 100 0.162844
1 4 18 100 0.00818472
2 4 18 100 0.0299178
3 4 18 100 0.0510509
4 4 18 100 0.103558
5 4 18 100 0.147528
6 4 18 100 0.131844
7 4 18 100 0.120079
8 4 18 100 0.10459
9 4 18 100 0.0572741
10 4 18 100 0.0303154
11 4 18 100 0.00603353
12 4 18 100 0.0110272
13 4 18 100 0.00503051
14 4 18 100 0.00399986
15 4 18 100 0.00518403
16 4 18 100 0.00322003
17 4 18 100 0.0154728
18 4 18 100 0.00284406
0 5 18 100 0.204854
1 5 18 100 0.00356043
2 5 18 100 0.0190407
3 5 18 100 0.0147111
4 5 18 100 0.0476181
5 5 18 100 0.0720755
6 5 18 100 0.113983
7 5 18 100 0.122986
8 5 18 100 0.104779
9 5 18 100 0.0857046
10 5 18 100 0.0680274
11 5 18 100 0.0431816
12 5 18 100 0.0339978
13 5 18 100 0.0194741
14 5 18 100 0.0115764
15 5 18 100 0.0104682
16 5 18 100 0.00559223
17 5 18 100 0.0157507
18 5 18 100 0.00261919
0 6 18 100 0.167029
1 6 18 100 0.00513034
2 6 18 100 0.00658469
3 6 18 100 0.0130108
4 6 18 100 0.0235393
5 6 18 100 0.0313695
6 6 18 100 0.0560052
7 6 18 100 0.0860296
8 6 18 100 0.0831949
9 6 18 100 0.101696
10 6 18 100 0.0936804
11 6 18 100 0.102466
12 6 18 100 0.0731228
13 6 18 100 0.0437866
14 6 18 100 0.045401
15 6 18 100 0.0263519
16 6 18 100 0.0112192
17 6 18 100 0.0294022
18 6 18 100 0.00098054
0 7 18 100 0.178403
1 7 18 100 0.00302461
2 7 18 100 0.00398137
3 7 18 100 0.00610589
4 7 18 100 0.0090381
5 7 18 100 0.0190177
6 7 18 100 0.0242497
7 7 18 100 0.0350804
8 7 18 100 0.0695128
9 7 18 100 0.0858728
10 7 18 100 0.082658
11 7 18 100 0.117385
12 7 18 100 0.0749796
13 7 18 100 0.0759085
14 7 18 100 0.0740096
15 7 18 100 0.054004
16 7 18 100 0.0288884
17 7 18 100 0.0560044
18 7 18 100 0.00187655
0 8 18 100 0.146673
1 8 18 100 0.0057424
2 8 18 100 0.00621687
3 8 18 100 0.00475975
4 8 18 100 0.00311813
5 8 18 100 0.0114844
6 8 18 100 0.00769159
7 8 18 100 0.038898
8 8 18 100 0.028345
9 8 18 100 0.0468171
10 8 18 100 0.094261
11 8 18 100 0.0977079
12 8 18 100 0.0736188
13 8 18 100 0.0956232
14 8 18 100 0.0924226
15 8 18 100 0.0870195
16 8 18 100 0.0494753
17 8 18 100 0.108138
18 8 18 100 0.00198801
0 9 18 100 0.15793
1 9 18 100 0.00526296
2 9 18 100 0.00456543
3 9 18 100 0.00133447
4 9 18 100 0.00222045
5 9 18 100 0.00446163
6 9 18 100 0.00495254
7 9 18 100 0.0154877
8 9 18 100 0.0167585
9 9 18 100 0.0416785
10 9 18 100 0.0561419
11 9 18 100 0.065646
12 9 18 100 0.0958321
13 9 18 100 0.0855433
14 9 18 100 0.110608
15 9 18 100 0.0844838
16 9 18 100 0.0860543
17 9 18 100 0.159813
18 9 18 100 0.00122544
0 10 18 100 0.196786
1 10 18 100 0.00393031
2 10 18 100 0.00521211
3 10 18 100 0.00142598
4 10 18 100 0.00531796
5 10 18 100 0.002644
6 10 18 100 0.00252064
7 10 18 100 0.00792888
8 10 18 100 0.00683874
9 10 18 100 0.0144703
10 10 18 100 0.0388814
11 10 18 100 0.0662876
12 10 18 100 0.0823506
13 10 18 100 0.0923618
14 10 18 100 0.0956509
15 10 18 100 0.104872
16 10 18 100 0.0654596
17 10 18 100 0.20685
18 10 18 100 0.000211772
0 11 18 100 0.202418
1 11 18 100 0.00184671
2 11 18 100 0.00684352
3 11 18 100 1.23684e-05
4 11 18 100 0.0050993
5 11 18 100 0.00067495
6 11 18 100 0.00681613
7 11 18 100 0.00515395
8 11 18 100 0.010248
9 11 18 100 0.00511579
10 11 18 100 0.0198332
11 11 18 100 0.0288382
12 11 18 100 0.0588335
13 11 18 100 0.0801186
14 11 18 100 0.109939
15 11 18 100 0.127342
16 11 18 100 0.111067
17 11 18 100 0.21795
18 11 18 100 0.00184926
0 12 18 100 0.216872
1 12 18 100 5.24261e-06
2 12 18 100 0.00683398
3 12 18 100 0.00227943
4 12 18 100 0.000264714
5 12 18 100 0.00454289
6 12 18 100 0.00235758
7 12 18 100 0.00226865
8 12 18 100 0.00317271
9 12 18 100 0.00700829
10 12 18 100 0.0230908
11 12 18 100 0.0288608
12 12 18 100 0.0417457
13 12 18 100 0.0505629
14 12 18 100 0.0856379
15 12 18 100 0.128329
16 12 18 100 0.144348
17 12 18 100 0.25099
18 12 18 100 0.000829656
0 13 18 100 0.211421
1 13 18 100 0.00850074
2 13 18 100 0.00331868
3 13 18 100 0.00332275
4 13 18 100 0.00325838
5 13 18 100 0.0033089
6 13 18 100 3.51572e-06
7 13 18 100 0.00668953
8 13 18 100 0.00333692
9 13 18 100 0.010045
10 13 18 100 0.010012
11 13 18 100 0.012404
12 13 18 100 0.039746
13 13 18 100 0.0464024
14 13 18 100 0.084919
15 13 18 100 0.101347
16 13 18 100 0.141596
17 13 18 100 0.306876
18 13 18 100 0.00349163
0 14 18 100 0.231585
1 14 18 100 3.08749e-06
2 14 18 100 0.00508912
3 14 18 100 0.000190926
4 14 18 100 0.00529467
5 14 18 100 9.49695e-07
6 14 18 100 0.00507789
7 14 18 100 2.01808e-06
8 14 18 100 0.00539701
9 14 18 100 3.37276e-05
10 14 18 100 0.0197353
11 14 18 100 0.00640856
12 14 18 100 0.0305213
13 14 18 100 0.0466131
14 14 18 100 0.0717016
15 14 18 100 0.141594
16 14 18 100 0.138713
17 14 18 100 0.292001
18 14 18 100 3.76007e-05
0 15 18 100 0.219493
1 15 18 100 0.00839109
2 15 18 100 3.39372e-07
3 15 18 100 5.38441e-06
4 15 18 100 0.0084211
5 15 18 100 0.00841136
6 15 18 100 0.00853279
7 15 18 100 2.4045e-06
8 15 18 100 0.0011292
9 15 18 100 2.75411e-05
10 15 18 100 0.00859406
11 15 18 100 5.68186e-07
12 15 18 100 0.0175561
13 15 18 100 0.0332384
14 15 18 100 0.0340372
15 15 18 100 0.124372
16 15 18 100 0.109596
17 15 18 100 0.417992
18 15 18 100 0.000199596
0 16 18 100 0.314957
1 16 18 100 0.0140867
2 16 18 100 0.0283206
3 16 18 100 2.84307e-06
4 16 18 100 7.86239e-05
5 16 18 100 0.0140847
6 16 18 100 0.0140467
7 16 18 100 0.0140886
8 16 18 100 5.73133e-05
9 16 18 100 0.00243092
10 16 18 100 0.0141247
11 16 18 100 0.0144474
12 16 18 100 0.0282549
13 16 18 100 1.11667e-05
14 16 18 100 0.0142758
15 16 18 100 0.0444295
16 16 18 100 0.156525
17 16 18 100 0.325734
18 16 18 100 4.27154e-05
0 17 18 100 0.245772
2 17 18 100 1.72893e-06
4 17 18 100 2.58818e-07
5 17 18 100 1.17398e-05
6 17 18 100 0.0173352
7 17 18 100 0.000200599
8 17 18 100 0.0254992
9 17 18 100 0.00028967
10 17 18 100 0.0256411
11 17 18 100 0.0490089
12 17 18 100 0.0518092
13 17 18 100 0.035399
14 17 18 100 0.0266428
15 17 18 100 0.0926369
16 17 18 100 0.0548642
17 17 18 100 0.374876
18 17 18 100 1.14876e-05
0 18 18 100 0.277793
1 18 18 100 0.00883394
5 18 18 100 0.0473391
7 18 18 100 0.0476248
8 18 18 100 5.89552e-06
11 18 18 100 0.000177587
12 18 18 100 4.84848e-07
13 18 18 100 0.0476359
14 18 18 100 0.0473118
15 18 18 100 0.147045
16 18 18 100 0.146274
17 18 18 100 0.229419
18 18 18 100 0.000539165
0 19 18 100 0.197487
3 19 18 100 0.000202575
8 19 18 100 0.1
9 19 18 100 1.48459e-05
10 19 18 100 0.1
12 19 18 100 0.2
13 19 18 100 0.0998817
15 19 18 100 0.00221605
16 19 18 100 0.20019
17 19 18 100 0.1
18 19 18 100 6.94854e-06
0 20 18 100 0.130192
2 20 18 100 1.93793e-05
8 20 18 100 0.124861
9 20 18 100 0.104135
11 20 18 100 0.000288204
12 20 18 100 0.125
13 20 18 100 0.125
15 20 18 100 0.249983
16 20 18 100 0.000178546
17 20 18 100 0.140339
18 20 18 100 4.16845e-06
0 21 18 100 0.145038
1 21 18 100 0.00201599
2 21 18 100 1.27832e-05
4 21 18 100 2.85053e-05
8 21 18 100 0.138629
10 21 18 100 0.142857
11 21 18 100 0.142861
13 21 18 100 0.142844
17 21 18 100 0.285714
0 22 18 100 0.340023
1 22 18 100 0.000128882
2 22 18 100 0.166669
4 22 18 100 2.69909e-06
6 22 18 100 2.0475e-06
9 22 18 100 0.00498497
11 22 18 100 0.161402
12 22 18 100 0.166657
14 22 18 100 9.13636e-06
15 22 18 100 0.160121
0 23 18 100 0.1788
4 23 18 100 0.165897
5 23 18 100 0.159934
6 23 18 100 1.71576e-06
8 23 18 100 6.64687e-06
11 23 18 100 0.153147
12 23 18 100 0.0082504
13 23 18 100 5.8763e-05
16 23 18 100 0.000572905
17 23 18 100 0.333331
0 24 18 100 0.000543048
6 24 18 100 0.333334
11 24 18 100 0.33279
12 24 18 100 0.333334
0 25 18 100 0.00129208
5 25 18 100 2.82073e-05
6 25 18 100 0.332013
9 25 18 100 0.333333
13 25 18 100 0.333334
0 26 18 100 0.00801048
7 26 18 100 0.325291
13 26 18 100 0.666657
15 26 18 100 4.0917e-05
0 27 18 100 0.585969
4 27 18 100 1.43213e-05
8 27 18 100 0.333283
15 27 18 100 0.0807032
16 27 18 100 3.09122e-05
0 28 18 100 0.00215645
9 28 18 100 0.333333
10 28 18 100 0.333334
17 28 18 100 0.331176
0 29 18 100 0.350322
7 29 18 100 0.000382056
9 29 18 100 0.254279
11 29 18 100 0.00948899
15 29 18 100 0.05125
16 29 18 100 0.00094521
17 29 18 100 0.333333
0 30 18 100 0.000224212
4 30 18 100 0.00177437
8 30 18 100 4.71033e-05
10 30 18 100 0.5
16 30 18 100 0.497954
10 31 18 100 0.5
12 31 18 100 0.5
13 32 18 100 1
0 33 18 100 0.000198059
12 33 18 100 0.5
13 33 18 100 0.499802
0 34 18 100 1
13 35 18 100 1
0 36 18 100 0.000480445
13 36 18 100 0.99952
0 37 18 100 1
0 38 18 100 0.89001
9 38 18 100 0.092892
11 38 18 100 0.016548
16 38 18 100 0.000549636
0 39 18 100 1
0 40 18 100 5.8629e-05
17 40 18 100 0.999941
0 1 19 100 0.0814765
1 1 19 100 0.642975
2 1 19 100 0.0954206
3 1 19 100 0.0956926
4 1 19 100 0.0302295
5 1 19 100 0.0138526
6 1 19 100 0.00982754
7 1 19 100 0.00985716
8 1 19 100 0.00404268
9 1 19 100 0.00347356
10 1 19 100 0.00165466
11 1 19 100 0.000356812
12 1 19 100 0.000891053
13 1 19 100 0.00204694
14 1 19 100 7.06476e-05
15 1 19 100 9.83429e-06
16 1 19 100 0.000153847
17 1 19 100 8.74703e-06
18 1 19 100 0.00790549
19 1 19 100 5.43817e-05
0 2 19 100 0.116332
1 2 19 100 0.0545494
2 2 19 100 0.207602
3 2 19 100 0.212961
4 2 19 100 0.168879
5 2 19 100 0.105718
6 2 19 100 0.0431053
7 2 19 100 0.0266083
8 2 19 100 0.0154633
9 2 19 100 0.0123208
10 2 19 100 0.00907901
11 2 19 100 0.00513619
12 2 19 100 0.00182459
13 2 19 100 0.00284334
14 2 19 100 1.63016e-05
15 2 19 100 0.00538139
16 2 19 100 0.00207876
17 2 19 100 0.00350738
18 2 19 100 0.00658141
19 2 19 100 1.28141e-05
0 3 19 100 0.173868
1 3 19 100 0.0161491
2 3 19 100 0.0975018
3 3 19 100 0.161399
4 3 19 100 0.131042
5 3 19 100 0.137134
6 3 19 100 0.0986597
7 3 19 100 0.0566092
8 3 19 100 0.0482731
9 3 19 100 0.0236396
10 3 19 100 0.00898258
11 3 19 100 0.00924252
12 3 19 100 0.00539827
13 3 19 100 0.00621689
14 3 19 100 0.00179735
15 3 19 100 0.00794283
16 3 19 100 0.00510254
17 3 19 100 0.00196323
18 3 19 100 0.00907306
19 3 19 100 5.08854e-06
0 4 19 100 0.173064
1 4 19 100 0.0132044
2 4 19 100 0.0247735
3 4 19 100 0.0694119
4 4 19 100 0.08846
5 4 19 100 0.127839
6 4 19 100 0.132219
7 4 19 100 0.119382
8 4 19 100 0.0888733
9 4 19 100 0.0536519
10 4 19 100 0.0368543
11 4 19 100 0.0193325
12 4 19 100 0.0102843
13 4 19 100 0.010585
14 4 19 100 0.00485608
15 4 19 100 0.0121017
16 4 19 100 0.00522146
17 4 19 100 0.00102429
18 4 19 100 0.00885269
19 4 19 100 8.10884e-06
0 5 19 100 0.178309
1 5 19 100 0.0148124
2 5 19 100 0.011276
3 5 19 100 0.0259858
4 5 19 100 0.047515
5 5 19 100 0.0736563
6 5 19 100 0.106819
7 5 19 100 0.10625
8 5 19 100 0.109839
9 5 19 100 0.0930841
10 5 19 100 0.0750115
11 5 19 100 0.0556716
12 5 19 100 0.0305826
13 5 19 100 0.0178719
14 5 19 100 0.0127536
15 5 19 100 0.0147255
16 5 19 100 0.0107018
17 5 19 100 0.00577617
18 5 19 100 0.00847129
19 5 19 100 0.000887054
0 6 19 100 0.164151
1 6 19 100 0.00515927
2 6 19 100 0.00798809
3 6 19 100 0.0141684
4 6 19 100 0.0151742
5 6 19 100 0.0417826
6 6 19 100 0.0522445
7 6 19 100 0.0876728
8 6 19 100 0.0943656
9 6 19 100 0.0983569
10 6 19 100 0.0836157
11 6 19 100 0.0807866
12 6 19 100 0.0740179
13 6 19 100 0.0572758
14 6 19 100 0.0352387
15 6 19 100 0.0350445
16 6 19 100 0.0235813
17 6 19 100 0.00870057
18 6 19 100 0.0198458
19 6 19 100 0.000830207
0 7 19 100 0.173616
1 7 19 100 0.00501635
2 7 19 100 0.0034436
3 7 19 100 0.00312543
4 7 19 100 0.00661802
5 7 19 100 0.0115934
6 7 19 100 0.0282846
7 7 19 100 0.0395441
8 7 19 100 0.0531029
9 7 19 100 0.0918767
10 7 19 100 0.0847118
11 7 19 100 0.0947899
12 7 19 100 0.0806963
13 7 19 100 0.0773824
14 7 19 100 0.0585318
15 7 19 100 0.0599332
16 7 19 100 0.0397338
17 7 19 100 0.0273855
18 7 19 100 0.0591761
19 7 19 100 0.00143799
0 8 19 100 0.171563
1 8 19 100 0.00646236
2 8 19 100 5.66772e-06
3 8 19 100 0.00624947
4 8 19 100 0.00203871
5 8 19 100 0.00471974
6 8 19 100 0.0150121
7 8 19 100 0.0186077
8 8 19 100 0.0306009
9 8 19 100 0.0442567
10 8 19 100 0.056161
11 8 19 100 0.0748599
12 8 19 100 0.125205
13 8 19 100 0.0780158
14 8 19 100 0.0783123
15 8 19 100 0.0856147
16 8 19 100 0.0700366
17 8 19 100 0.0405534
18 8 19 100 0.0909406
19 8 19 100 0.000784711
0 9 19 100 0.160083
1 9 19 100 0.00295323
2 9 19 100 0.000597827
3 9 19 100 0.00663595
4 9 19 100 0.00485003
5 9 19 100 0.00502363
6 9 19 100 0.00817332
7 9 19 100 0.0081385
8 9 19 100 0.0203819
9 9 19 100 0.036261
10 9 19 100 0.0473277
11 9 19 100 0.0511821
12 9 19 100 0.0862804
13 9 19 100 0.0917432
14 9 19 100 0.100394
15 9 19 100 0.100772
16 9 19 100 0.0913633
17 9 19 100 0.0518464
18 9 19 100 0.123356
19 9 19 100 0.00263666
0 10 19 100 0.175633
1 10 19 100 0.00188733
2 10 19 100 4.59698e-06
3 10 19 100 0.00251977
4 10 19 100 0.00329652
5 10 19 100 0.00789375
6 10 19 100 0.00154299
7 10 19 100 0.00703342
8 10 19 100 0.014541
9 10 19 100 0.0237987
10 10 19 100 0.0318631
11 10 19 100 0.0474291
12 10 19 100 0.0562406
13 10 19 100 0.0855699
14 10 19 100 0.0740749
15 10 19 100 0.10413
16 10 19 100 0.104071
17 10 19 100 0.0722905
18 10 19 100 0.18396
19 10 19 100 0.00221972
0 11 19 100 0.162497
1 11 19 100 1.19712e-05
2 11 19 100 1.62645e-05
3 11 19 100 0.00140126
4 11 19 100 0.00162215
5 11 19 100 0.00136852
6 11 19 100 0.00560036
7 11 19 100 0.00829407
8 11 19 100 0.0104356
9 11 19 100 0.0186237
10 11 19 100 0.0259631
11 11 19 100 0.0322407
12 11 19 100 0.04599
13 11 19 100 0.0659401
14 11 19 100 0.0815548
15 11 19 100 0.104353
16 11 19 100 0.124289
17 11 19 100 0.0777315
18 11 19 100 0.232046
19 11 19 100 2.0979e-05
0 12 19 100 0.192117
1 12 19 100 0.00180357
2 12 19 100 7.28785e-06
3 12 19 100 1.04121e-05
4 12 19 100 0.00193848
5 12 19 100 0.00194234
6 12 19 100 0.0059492
7 12 19 100 0.00256309
8 12 19 100 0.00549343
9 12 19 100 0.0261304
10 12 19 100 0.0132468
11 12 19 100 0.0166153
12 12 19 100 0.0298595
13 12 19 100 0.0471851
14 12 19 100 0.0777755
15 12 19 100 0.0951546
16 12 19 100 0.138354
17 12 19 100 0.101578
18 12 19 100 0.242258
19 12 19 100 1.80449e-05
0 13 19 100 0.199328
1 13 19 100 0.00252393
2 13 19 100 1.50595e-05
3 13 19 100 3.52231e-05
4 13 19 100 3.98834e-06
5 13 19 100 0.00249614
6 13 19 100 0.00249999
7 13 19 100 0.00748543
8 13 19 100 0.00287347
9 13 19 100 0.0153863
10 13 19 100 0.00565292
11 13 19 100 0.0181894
12 13 19 100 0.0390006
13 13 19 100 0.0413184
14 13 19 100 0.0558348
15 13 19 100 0.0936019
16 13 19 100 0.125153
17 13 19 100 0.126888
18 13 19 100 0.261679
19 13 19 100 3.51573e-05
0 14 19 100 0.206875
1 14 19 100 3.4991e-05
2 14 19 100 7.37261e-05
3 14 19 100 1.79705e-06
4 14 19 100 5.65639e-06
5 14 19 100 4.53308e-06
6 14 19 100 0.00361161
7 14 19 100 0.00343283
8 14 19 100 0.00722527
9 14 19 100 0.00360696
10 14 19 100 0.0116293
11 14 19 100 0.00729201
12 14 19 100 0.0303215
13 14 19 100 0.0218306
14 14 19 100 0.0736384
15 14 19 100 0.0846593
16 14 19 100 0.115279
17 14 19 100 0.108802
18 14 19 100 0.321623
19 14 19 100 5.17314e-05
0 15 19 100 0.155124
1 15 19 100 0.00534972
2 15 19 100 1.85775e-06
3 15 19 100 6.6238e-07
4 15 19 100 1.95421e-05
5 15 19 100 0.00534849
6 15 19 100 0.00397661
7 15 19 100 0.0062079
8 15 19 100 2.4622e-06
9 15 19 100 0.00539905
10 15 19 100 0.00617236
11 15 19 100 9.52245e-06
12 15 19 100 0.0107124
13 15 19 100 0.0380911
14 15 19 100 0.0731941
15 15 19 100 0.101884
16 15 19 100 0.120458
17 15 19 100 0.185352
18 15 19 100 0.28266
19 15 19 100 3.62823e-05
0 16 19 100 0.244955
1 16 19 100 6.93388e-06
4 16 19 100 0.000992604
5 16 19 100 1.27292e-06
6 16 19 100 2.2743e-05
7 16 19 100 0.00951052
8 16 19 100 0.000630952
9 16 19 100 0.00879242
10 16 19 100 6.69322e-05
11 16 19 100 0.00876469
12 16 19 100 0.0175478
13 16 19 100 0.0175387
14 16 19 100 0.0450036
15 16 19 100 0.0931272
16 16 19 100 0.134301
17 16 19 100 0.123793
18 16 19 100 0.294932
19 16 19 100 1.34605e-05
0 17 19 100 0.118193
1 17 19 100 1.29567e-05
2 17 19 100 2.16833e-05
3 17 19 100 1.81651e-07
4 17 19 100 1.61585e-06
5 17 19 100 0.0140907
6 17 19 100 0.000171693
7 17 19 100 3.01526e-05
8 17 19 100 1.38506e-06
9 17 19 100 0.000164261
10 17 19 100 0.000170028
11 17 19 100 0.014303
12 17 19 100 0.035712
13 17 19 100 0.0143776
14 17 19 100 0.014063
15 17 19 100 0.0540623
16 17 19 100 0.158171
17 17 19 100 0.17899
18 17 19 100 0.397462
19 17 19 100 2.29621e-06
0 18 19 100 0.215088
1 18 19 100 7.84525e-06
3 18 19 100 1.81558e-06
7 18 19 100 0.0314233
10 18 19 100 0.000600164
11 18 19 100 0.0263213
12 18 19 100 0.0274696
13 18 19 100 4.28839e-06
14 18 19 100 0.0525589
15 18 19 100 0.00535925
16 18 19 100 0.0295053
17 18 19 100 0.264443
18 18 19 100 0.347211
19 18 19 100 5.80638e-06
0 19 19 100 0.169092
2 19 19 100 5.33066e-06
3 19 19 100 0.0108628
4 19 19 100 5.90486e-06
7 19 19 100 0.0526416
13 19 19 100 0.0526315
14 19 19 100 0.105207
15 19 19 100 0.052614
16 19 19 100 0.0513355
17 19 19 100 0.137183
18 19 19 100 0.368421
0 20 19 100 0.199354
3 20 19 100 2.43832e-05
7 20 19 100 4.061e-06
11 20 19 100 1.38741e-05
13 20 19 100 8.50191e-05
16 20 19 100 0.100691
17 20 19 100 0.000712794
18 20 19 100 0.699111
19 20 19 100 3.82669e-06
0 21 19 100 0.199997
3 21 19 100 3.03867e-06
7 21 19 100 0.2
18 21 19 100 0.6
0 22 19 100 0.334929
1 22 19 100 0.000606903
6 22 19 100 0.00676354
8 22 19 100 0.000350442
12 22 19 100 0.32741
19 22 19 100 0.32994
0 23 19 100 0.33607
1 23 19 100 0.00119689
7 23 19 100 0.333333
12 23 19 100 0.00173188
19 23 19 100 0.327668
0 24 19 100 0.995195
1 24 19 100 0.00169375
8 24 19 100 7.00109e-05
19 24 19 100 0.00304083
0 25 19 100 0.5
18 25 19 100 0.5
0 26 19 100 0.500001
7 26 19 100 0.499999
0 27 19 100 0.00144307
4 27 19 100 0.998557
0 28 19 100 0.999828
4 28 19 100 0.00012622
13 28 19 100 4.53512e-05
4 29 19 100 1
0 30 19 100 0.999985
19 30 19 100 1.46869e-05
0 1 20 100 0.0782556
1 1 20 100 0.679291
2 1 20 100 0.0706614
3 1 20 100 0.0808023
4 1 20 100 0.0351752
5 1 20 100 0.0202437
6 1 20 100 0.00853772
7 1 20 100 0.0104236
8 1 20 100 0.00579252
9 1 20 100 0.0038661
10 1 20 100 0.00125984
11 1 20 100 2.72211e-05
12 1 20 100 0.000781832
13 1 20 100 4.45628e-05
14 1 20 100 3.95952e-06
15 1 20 100 0.00104643
16 1 20 100 0.000943976
17 1 20 100 0.000944822
18 1 20 100 1.12017e-05
19 1 20 100 0.00188623
20 1 20 100 9.36007e-07
0 2 20 100 0.126839
1 2 20 100 0.0553265
2 2 20 100 0.205238
3 2 20 100 0.22355
4 2 20 100 0.15665
5 2 20 100 0.0891946
6 2 20 100 0.046862
7 2 20 100 0.0308398
8 2 20 100 0.017068
9 2 20 100 0.0142375
10 2 20 100 0.0081851
11 2 20 100 0.00283276
12 2 20 100 0.00197377
13 2 20 100 0.00407845
14 2 20 100 0.000941696
15 2 20 100 7.49581e-06
16 2 20 100 0.00286518
17 2 20 100 0.00211718
18 2 20 100 0.00467234
19 2 20 100 0.00652059
20 2 20 100 8.90579e-07
0 3 20 100 0.151028
1 3 20 100 0.0159105
2 3 20 100 0.0925576
3 3 20 100 0.142572
4 3 20 100 0.156472
5 3 20 100 0.150048
6 3 20 100 0.114742
7 3 20 100 0.0725665
8 3 20 100 0.0350302
9 3 20 100 0.0253427
10 3 20 100 0.0114592
11 3 20 100 0.00847058
12 3 20 100 0.00436297
13 3 20 100 0.00287677
14 3 20 100 0.00288935
15 3 20 100 0.00295309
16 3 20 100 0.000989912
17 3 20 100 3.75593e-05
18 3 20 100 0.00395532
19 3 20 100 0.0057317
20 3 20 100 3.49958e-06
0 4 20 100 0.166822
1 4 20 100 0.0106402
2 4 20 100 0.029239
3 4 20 100 0.0451155
4 4 20 100 0.104848
5 4 20 100 0.137743
6 4 20 100 0.127947
7 4 20 100 0.129331
8 4 20 100 0.0811534
9 4 20 100 0.0714702
10 4 20 100 0.0259963
11 4 20 100 0.0186073
12 4 20 100 0.0147544
13 4 20 100 0.0114299
14 4 20 100 0.00708971
15 4 20 100 0.00137816
16 4 20 100 0.00381729
17 4 20 100 0.00206451
18 4 20 100 0.00495096
19 4 20 100 0.00559399
20 4 20 100 7.49806e-06
0 5 20 100 0.156379
1 5 20 100 0.00653365
2 5 20 100 0.0165177
3 5 20 100 0.0205375
4 5 20 100 0.0467149
5 5 20 100 0.0780116
6 5 20 100 0.0958952
7 5 20 100 0.121677
8 5 20 100 0.11872
9 5 20 100 0.0980935
10 5 20 100 0.0821892
11 5 20 100 0.0443012
12 5 20 100 0.0333345
13 5 20 100 0.0189017
14 5 20 100 0.0156045
15 5 20 100 0.0103459
16 5 20 100 0.00930502
17 5 20 100 0.00553506
18 5 20 100 0.00989266
19 5 20 100 0.0106
20 5 20 100 0.000909909
0 6 20 100 0.182397
1 6 20 100 0.00299582
2 6 20 100 0.00480653
3 6 20 100 0.0102601
4 6 20 100 0.0208545
5 6 20 100 0.0334526
6 6 20 100 0.0634601
7 6 20 100 0.0760619
8 6 20 100 0.100452
9 6 20 100 0.0965826
10 6 20 100 0.104585
11 6 20 100 0.0670609
12 6 20 100 0.0620522
13 6 20 100 0.0595102
14 6 20 100 0.0280898
15 6 20 100 0.0237317
16 6 20 100 0.0225433
17 6 20 100 0.0204499
18 6 20 100 0.00594438
19 6 20 100 0.01398
20 6 20 100 0.000730254
0 7 20 100 0.192149
1 7 20 100 0.00585896
2 7 20 100 0.00388606
3 7 20 100 0.00635855
4 7 20 100 0.00765223
5 7 20 100 0.0218003
6 7 20 100 0.029797
7 7 20 100 0.0436753
8 7 20 100 0.0529073
9 7 20 100 0.0823436
10 7 20 100 0.0816377
11 7 20 100 0.0689596
12 7 20 100 0.0975647
13 7 20 100 0.0591656
14 7 20 100 0.0656671
15 7 20 100 0.0511898
16 7 20 100 0.0416712
17 7 20 100 0.0332421
18 7 20 100 0.0144859
19 7 20 100 0.0399801
20 7 20 100 7.79959e-06
0 8 20 100 0.166891
1 8 20 100 0.00250656
2 8 20 100 0.00484263
3 8 20 100 0.00621001
4 8 20 100 0.00605647
5 8 20 100 0.0105191
6 8 20 100 0.0176111
7 8 20 100 0.0250434
8 8 20 100 0.0246884
9 8 20 100 0.057768
10 8 20 100 0.0572716
11 8 20 100 0.0759021
12 8 20 100 0.0954365
13 8 20 100 0.0871421
14 8 20 100 0.0838676
15 8 20 100 0.0559891
16 8 20 100 0.0616082
17 8 20 100 0.0594712
18 8 20 100 0.0245684
19 8 20 100 0.0765913
20 8 20 100 1.5375e-05
0 9 20 100 0.164068
1 9 20 100 0.00116732
2 9 20 100 0.00104562
3 9 20 100 0.00386254
4 9 20 100 0.000893036
5 9 20 100 0.00400457
6 9 20 100 0.00898305
7 9 20 100 0.0183437
8 9 20 100 0.0156801
9 9 20 100 0.0304544
10 9 20 100 0.0304776
11 9 20 100 0.0730636
12 9 20 100 0.0715966
13 9 20 100 0.0745149
14 9 20 100 0.0821521
15 9 20 100 0.090319
16 9 20 100 0.0942992
17 9 20 100 0.0874276
18 9 20 100 0.0443954
19 9 20 100 0.103225
20 9 20 100 2.64539e-05
0 10 20 100 0.181352
1 10 20 100 0.00250226
2 10 20 100 0.000623136
3 10 20 100 0.000316367
4 10 20 100 0.00443283
5 10 20 100 0.00564028
6 10 20 100 0.00563723
7 10 20 100 0.00684022
8 10 20 100 0.0146597
9 10 20 100 0.0226219
10 10 20 100 0.0323897
11 10 20 100 0.0286908
12 10 20 100 0.06336
13 10 20 100 0.0707083
14 10 20 100 0.0909145
15 10 20 100 0.0677464
16 10 20 100 0.0839632
17 10 20 100 0.0990019
18 10 20 100 0.0572063
19 10 20 100 0.159432
20 10 20 100 0.00196131
0 11 20 100 0.195563
1 11 20 100 4.24406e-05
2 11 20 100 0.00133725
3 11 20 100 0.00123444
4 11 20 100 0.00017826
5 11 20 100 0.00399873
6 11 20 100 0.0033026
7 11 20 100 0.00668464
8 11 20 100 0.00756516
9 11 20 100 0.0196686
10 11 20 100 0.0215894
11 11 20 100 0.02758
12 11 20 100 0.0374984
13 11 20 100 0.0594425
14 11 20 100 0.0792527
15 11 20 100 0.0904804
16 11 20 100 0.100149
17 11 20 100 0.115542
18 11 20 100 0.0499786
19 11 20 100 0.17416
20 11 20 100 0.00475278
0 12 20 100 0.181105
1 12 20 100 4.39124e-05
2 12 20 100 1.03132e-05
3 12 20 100 0.000255769
4 12 20 100 0.00334928
5 12 20 100 0.00309039
6 12 20 100 0.00341327
7 12 20 100 0.00331053
8 12 20 100 0.00380343
9 12 20 100 0.019072
10 12 20 100 0.0166235
11 12 20 100 0.0158634
12 12 20 100 0.0351713
13 12 20 100 0.0445481
14 12 20 100 0.0537167
15 12 20 100 0.0745948
16 12 20 100 0.122708
17 12 20 100 0.130845
18 12 20 100 0.0906482
19 12 20 100 0.193782
20 12 20 100 0.00404466
0 13 20 100 0.155839
1 13 20 100 0.00218764
2 13 20 100 0.00162438
3 13 20 100 0.000120085
4 13 20 100 0.0020836
5 13 20 100 0.00423749
6 13 20 100 0.00422456
7 13 20 100 0.00222658
8 13 20 100 0.00814603
9 13 20 100 0.0125079
10 13 20 100 0.00820204
11 13 20 100 0.0104879
12 13 20 100 0.0223537
13 13 20 100 0.0264852
14 13 20 100 0.0517488
15 13 20 100 0.0620589
16 13 20 100 0.0929539
17 13 20 100 0.133123
18 13 20 100 0.122376
19 13 20 100 0.276966
20 13 20 100 4.80541e-05
0 14 20 100 0.210726
1 14 20 100 0.0010152
2 14 20 100 5.3059e-07
3 14 20 100 0.000597619
4 14 20 100 0.000143059
5 14 20 100 0.00559741
6 14 20 100 0.00496803
7 14 20 100 1.24318e-05
8 14 20 100 0.00291196
9 14 20 100 0.0117766
10 14 20 100 0.00296797
11 14 20 100 0.0123387
12 14 20 100 0.0208775
13 14 20 100 0.0261328
14 14 20 100 0.0440126
15 14 20 100 0.0465911
16 14 20 100 0.0694039
17 14 20 100 0.132308
18 14 20 100 0.102404
19 14 20 100 0.302389
20 14 20 100 0.00282532
0 15 20 100 0.177913
1 15 20 100 0.00883633
3 15 20 100 1.6559e-06
4 15 20 100 0.00442839
5 15 20 100 0.0131932
6 15 20 100 0.00442539
7 15 20 100 0.00877404
8 15 20 100 0.00450812
9 15 20 100 0.00440931
10 15 20 100 0.00443274
11 15 20 100 0.00953393
12 15 20 100 0.0221227
13 15 20 100 0.041159
14 15 20 100 0.0299409
15 15 20 100 0.0604566
16 15 20 100 0.0836387
17 15 20 100 0.0973921
18 15 20 100 0.106734
19 15 20 100 0.318033
20 15 20 100 6.75819e-05
0 16 20 100 0.259414
1 16 20 100 0.0117459
3 16 20 100 5.67983e-05
4 16 20 100 6.12385e-06
5 16 20 100 3.75895e-05
6 16 20 100 0.00052116
7 16 20 100 0.00709408
8 16 20 100 0.000164694
9 16 20 100 0.0069489
10 16 20 100 0.000217224
11 16 20 100 9.23369e-06
12 16 20 100 0.0205014
13 16 20 100 0.0102273
14 16 20 100 0.0138743
15 16 20 100 0.0475656
16 16 20 100 0.10419
17 16 20 100 0.12836
18 16 20 100 0.0826278
19 16 20 100 0.306402
20 16 20 100 3.65734e-05
0 17 20 100 0.165325
1 17 20 100 0.0101137
2 17 20 100 0.0101083
3 17 20 100 1.80148e-05
5 17 20 100 0.010101
6 17 20 100 0.0100473
7 17 20 100 4.68756e-06
8 17 20 100 0.010101
9 17 20 100 0.0191304
10 17 20 100 4.52549e-05
11 17 20 100 0.0119501
12 17 20 100 1.59833e-05
13 17 20 100 0.000879648
14 17 20 100 0.0394214
15 17 20 100 0.0111095
16 17 20 100 0.0989092
17 17 20 100 0.151301
18 17 20 100 0.138286
19 17 20 100 0.303056
20 17 20 100 0.0100757
0 18 20 100 0.134575
3 18 20 100 0.0172414
4 18 20 100 1.93929e-06
5 18 20 100 0.0170617
6 18 20 100 1.6861e-05
7 18 20 100 0.000206151
8 18 20 100 0.0172414
9 18 20 100 2.25527e-06
12 18 20 100 2.68276e-05
13 18 20 100 0.0344351
14 18 20 100 0.0172414
15 18 20 100 0.0188646
16 18 20 100 0.0345279
17 18 20 100 0.121896
18 18 20 100 0.144403
19 18 20 100 0.42512
20 18 20 100 0.0171382
0 19 20 100 0.306097
1 19 20 100 0.0303284
2 19 20 100 9.14629e-05
3 19 20 100 8.15203e-05
4 19 20 100 0.0301776
5 19 20 100 0.0301836
6 19 20 100 0.0300444
10 19 20 100 7.48846e-05
11 19 20 100 0.00330044
12 19 20 100 0.0567465
13 19 20 100 0.000672873
14 19 20 100 3.09447e-07
15 19 20 100 0.000293729
16 19 20 100 0.0260626
17 19 20 100 0.0301299
18 19 20 100 0.27462
19 19 20 100 0.181089
20 19 20 100 5.57331e-06
0 20 20 100 0.182514
3 20 20 100 0.0431989
5 20 20 100 0.0434783
6 20 20 100 0.030196
10 20 20 100 3.34533e-06
12 20 20 100 0.0421273
13 20 20 100 7.13302e-05
14 20 20 100 0.0434783
15 20 20 100 0.0434783
16 20 20 100 0.0132813
17 20 20 100 0.0434598
18 20 20 100 0.0860353
19 20 20 100 0.428581
20 20 20 100 9.64968e-05
0 21 20 100 0.267685
1 21 20 100 2.9433e-06
2 21 20 100 6.95092e-06
4 21 20 100 0.000762188
5 21 20 100 0.0909839
9 21 20 100 0.110206
10 21 20 100 1.16314e-06
11 21 20 100 1.35189e-05
12 21 20 100 0.00415387
14 21 20 100 0.0909095
16 21 20 100 7.41124e-05
18 21 20 100 0.010765
19 21 20 100 0.423935
20 21 20 100 0.000501183
0 22 20 100 0.333024
1 22 20 100 8.59773e-05
5 22 20 100 0.00354968
9 22 20 100 0.166537
11 22 20 100 6.09014e-05
18 22 20 100 0.166668
19 22 20 100 0.330074
0 23 20 100 0.332814
1 23 20 100 0.0517805
3 23 20 100 0.00051398
4 23 20 100 7.71546e-06
10 23 20 100 4.58744e-06
13 23 20 100 0.0210317
14 23 20 100 0.00534336
15 23 20 100 0.000576488
16 23 20 100 0.2
17 23 20 100 0.181748
18 23 20 100 0.199998
19 23 20 100 2.9825e-06
20 23 20 100 0.0061792
0 24 20 100 0.00388751
3 24 20 100 0.329443
11 24 20 100 0.333335
18 24 20 100 0.333335
0 25 20 100 0.913134
1 25 20 100 1.58824e-05
2 25 20 100 0.00671285
4 25 20 100 0.000284563
8 25 20 100 0.014215
11 25 20 100 0.00022168
12 25 20 100 0.0439833
19 25 20 100 0.0211377
20 25 20 100 0.000294572
0 26 20 100 0.0263932
5 26 20 100 9.07504e-05
10 26 20 100 0.316297
11 26 20 100 0.500001
16 26 20 100 0.00777351
17 26 20 100 1.57672e-05
19 26 20 100 0.149429
15 27 20 100 1
15 28 20 100 1
0 29 20 100 0.9999
16 29 20 100 9.99863e-05
15 30 20 100 1
0 31 20 100 1
0 32 20 100 0.996665
1 32 20 100 3.12038e-05
11 32 20 100 3.36318e-05
12 32 20 100 0.00295965
20 32 20 100 0.000310945
15 33 20 100 1
0 34 20 100 0.99967
20 34 20 100 0.00032972
0 35 20 100 0.00270513
4 35 20 100 7.74826e-05
10 35 20 100 0.101288
15 35 20 100 0.00792862
19 35 20 100 0.888001
0 1 21 100 0.0762982
1 1 21 100 0.687142
2 1 21 100 0.0829634
3 1 21 100 0.0677965
4 1 21 100 0.0336255
5 1 21 100 0.0139121
6 1 21 100 0.00852745
7 1 21 100 0.00896097
8 1 21 100 0.0038322
9 1 21 100 0.0011478
10 1 21 100 0.000394036
11 1 21 100 0.00188305
12 1 21 100 0.00157324
13 1 21 100 0.002816
14 1 21 100 7.57978e-06
15 1 21 100 0.00287551
16 1 21 100 0.000695709
17 1 21 100 0.000940723
18 1 21 100 0.00112457
19 1 21 100 0.000885264
20 1 21 100 0.00259668
21 1 21 100 1.73336e-06
0 2 21 100 0.1347
1 2 21 100 0.0452285
2 2 21 100 0.208441
3 2 21 100 0.226824
4 2 21 100 0.15085
5 2 21 100 0.0918582
6 2 21 100 0.0444109
7 2 21 100 0.0256211
8 2 21 100 0.019974
9 2 21 100 0.00769807
10 2 21 100 0.0131357
11 2 21 100 0.0047717
12 2 21 100 0.000973662
13 2 21 100 0.0035772
14 2 21 100 0.00569054
15 2 21 100 0.00089564
16 2 21 100 0.00188459
17 2 21 100 0.00284346
18 2 21 100 0.00258304
19 2 21 100 0.00221807
20 2 21 100 0.00581215
21 2 21 100 8.51198e-06
0 3 21 100 0.162092
1 3 21 100 0.0235429
2 3 21 100 0.102801
3 3 21 100 0.124094
4 3 21 100 0.151121
5 3 21 100 0.147712
6 3 21 100 0.0933669
7 3 21 100 0.0789005
8 3 21 100 0.036805
9 3 21 100 0.0276885
10 3 21 100 0.0199506
11 3 21 100 0.00250205
12 3 21 100 0.00289379
13 3 21 100 0.00444213
14 3 21 100 0.00496019
15 3 21 100 0.00448067
16 3 21 100 0.00124766
17 3 21 100 0.00189801
18 3 21 100 0.00215731
19 3 21 100 0.00190175
20 3 21 100 0.00544153
21 3 21 100 1.3639e-06
0 4 21 100 0.153269
1 4 21 100 0.0105942
2 4 21 100 0.0272133
3 4 21 100 0.0528231
4 4 21 100 0.100058
5 4 21 100 0.14111
6 4 21 100 0.143459
7 4 21 100 0.106239
8 4 21 100 0.0862297
9 4 21 100 0.0665108
10 4 21 100 0.0353839
11 4 21 100 0.0248047
12 4 21 100 0.0102063
13 4 21 100 0.00533614
14 4 21 100 0.00823751
15 4 21 100 0.00672705
16 4 21 100 0.00289723
17 4 21 100 0.0047007
18 4 21 100 0.00523776
19 4 21 100 0.00369232
20 4 21 100 0.00373789
21 4 21 100 0.00153177
0 5 21 100 0.178972
1 5 21 100 0.00658353
2 5 21 100 0.0150452
3 5 21 100 0.0285585
4 5 21 100 0.0464767
5 5 21 100 0.0830774
6 5 21 100 0.106886
7 5 21 100 0.116409
8 5 21 100 0.0910434
9 5 21 100 0.107505
10 5 21 100 0.0725146
11 5 21 100 0.0385283
12 5 21 100 0.0263901
13 5 21 100 0.0261782
14 5 21 100 0.0130126
15 5 21 100 0.00784316
16 5 21 100 0.00692075
17 5 21 100 0.00747095
18 5 21 100 0.00638374
19 5 21 100 0.00389971
20 5 21 100 0.0076295
21 5 21 100 0.00267071
0 6 21 100 0.177274
1 6 21 100 0.00179815
2 6 21 100 0.00973185
3 6 21 100 0.0096922
4 6 21 100 0.0161093
5 6 21 100 0.0389892
6 6 21 100 0.0643763
7 6 21 100 0.0775587
8 6 21 100 0.0902894
9 6 21 100 0.11724
10 6 21 100 0.0994343
11 6 21 100 0.0962776
12 6 21 100 0.0513505
13 6 21 100 0.0469459
14 6 21 100 0.0244059
15 6 21 100 0.0200587
16 6 21 100 0.0116845
17 6 21 100 0.013086
18 6 21 100 0.0124658
19 6 21 100 0.00314006
20 6 21 100 0.0180873
21 6 21 100 4.10827e-06
0 7 21 100 0.163539
1 7 21 100 0.00601448
2 7 21 100 0.00402303
3 7 21 100 0.00957861
4 7 21 100 0.0105359
5 7 21 100 0.00757025
6 7 21 100 0.0298716
7 7 21 100 0.0531257
8 7 21 100 0.0678878
9 7 21 100 0.0809849
10 7 21 100 0.0900082
11 7 21 100 0.0926044
12 7 21 100 0.074146
13 7 21 100 0.0835518
14 7 21 100 0.0519748
15 7 21 100 0.0358583
16 7 21 100 0.0456862
17 7 21 100 0.0314907
18 7 21 100 0.0238721
19 7 21 100 0.0103314
20 7 21 100 0.026402
21 7 21 100 0.000942713
0 8 21 100 0.164412
1 8 21 100 0.00394875
2 8 21 100 0.00400274
3 8 21 100 0.00473121
4 8 21 100 0.00787002
5 8 21 100 0.00945135
6 8 21 100 0.0121632
7 8 21 100 0.0220207
8 8 21 100 0.0445066
9 8 21 100 0.0554773
10 8 21 100 0.0772271
11 8 21 100 0.0870416
12 8 21 100 0.0679963
13 8 21 100 0.0855336
14 8 21 100 0.0932862
15 8 21 100 0.0662022
16 8 21 100 0.0443331
17 8 21 100 0.0403859
18 8 21 100 0.0362969
19 8 21 100 0.0273815
20 8 21 100 0.0457205
21 8 21 100 1.12396e-05
0 9 21 100 0.169283
1 9 21 100 0.00368154
2 9 21 100 0.000462278
3 9 21 100 0.00530814
4 9 21 100 3.60293e-05
5 9 21 100 0.00245211
6 9 21 100 0.00685126
7 9 21 100 0.00917387
8 9 21 100 0.0239147
9 9 21 100 0.0324208
10 9 21 100 0.0491381
11 9 21 100 0.0639039
12 9 21 100 0.0625905
13 9 21 100 0.0842655
14 9 21 100 0.104112
15 9 21 100 0.0684821
16 9 21 100 0.0718255
17 9 21 100 0.0679372
18 9 21 100 0.0544868
19 9 21 100 0.0323117
20 9 21 100 0.0873439
21 9 21 100 1.90344e-05
0 10 21 100 0.170285
1 10 21 100 0.00212251
2 10 21 100 0.0021293
3 10 21 100 0.00536794
4 10 21 100 0.00331168
5 10 21 100 0.00444386
6 10 21 100 0.00417513
7 10 21 100 0.00175176
8 10 21 100 0.00811152
9 10 21 100 0.0188926
10 10 21 100 0.0251141
11 10 21 100 0.0545983
12 10 21 100 0.0602149
13 10 21 100 0.0719257
14 10 21 100 0.0852834
15 10 21 100 0.0912664
16 10 21 100 0.0826965
17 10 21 100 0.0762605
18 10 21 100 0.0761766
19 10 21 100 0.0482416
20 10 21 100 0.107616
21 10 21 100 1.46056e-05
0 11 21 100 0.153814
1 11 21 100 1.17414e-05
2 11 21 100 0.00333832
3 11 21 100 0.00231952
4 11 21 100 0.00356074
5 11 21 100 0.00606169
6 11 21 100 0.00241775
7 11 21 100 0.00972007
8 11 21 100 0.0045702
9 11 21 100 0.0092839
10 11 21 100 0.0189524
11 11 21 100 0.0335202
12 11 21 100 0.034921
13 11 21 100 0.0599738
14 11 21 100 0.0784199
15 11 21 100 0.0857446
16 11 21 100 0.076987
17 11 21 100 0.095265
18 11 21 100 0.101827
19 11 21 100 0.0501073
20 11 21 100 0.166648
21 11 21 100 0.00253713
0 12 21 100 0.195884
1 12 21 100 3.45853e-05
2 12 21 100 1.0103e-05
3 12 21 100 0.00285637
4 12 21 100 0.00149347
5 12 21 100 0.00546533
6 12 21 100 0.00435674
7 12 21 100 0.00579682
8 12 21 100 0.00275756
9 12 21 100 0.00702492
10 12 21 100 0.00764865
11 12 21 100 0.0194271
12 12 21 100 0.0267681
13 12 21 100 0.0424322
14 12 21 100 0.054602
15 12 21 100 0.0683211
16 12 21 100 0.0848408
17 12 21 100 0.0935985
18 12 21 100 0.133343
19 12 21 100 0.0636902
20 12 21 100 0.176866
21 12 21 100 0.0027819
0 13 21 100 0.202243
1 13 21 100 1.42184e-05
2 13 21 100 1.45381e-05
3 13 21 100 0.00176979
4 13 21 100 0.00532037
5 13 21 100 0.00362087
6 13 21 100 0.00180952
7 13 21 100 0.00178612
8 13 21 100 0.00194943
9 13 21 100 0.00219274
10 13 21 100 0.0109494
11 13 21 100 0.00966824
12 13 21 100 0.016809
13 13 21 100 0.0328391
14 13 21 100 0.0563671
15 13 21 100 0.0683811
16 13 21 100 0.0759928
17 13 21 100 0.0675281
18 13 21 100 0.128673
19 13 21 100 0.0847495
20 13 21 100 0.225519
21 13 21 100 0.00180305
0 14 21 100 0.164281
1 14 21 100 0.000771025
2 14 21 100 0.00100838
3 14 21 100 0.00273542
4 14 21 100 0.00231187
5 14 21 100 0.00693248
6 14 21 100 2.08481e-05
7 14 21 100 6.92526e-07
8 14 21 100 0.000217379
9 14 21 100 0.00229964
10 14 21 100 0.00841609
11 14 21 100 0.0109351
12 14 21 100 0.00661371
13 14 21 100 0.0388297
14 14 21 100 0.043161
15 14 21 100 0.0543252
16 14 21 100 0.0669517
17 14 21 100 0.106295
18 14 21 100 0.123934
19 14 21 100 0.118534
20 14 21 100 0.241388
21 14 21 100 3.88191e-05
0 15 21 100 0.216327
1 15 21 100 1.51478e-05
2 15 21 100 0.00296132
3 15 21 100 2.52458e-05
4 15 21 100 0.00301808
5 15 21 100 3.14405e-05
6 15 21 100 7.04814e-05
7 15 21 100 0.00316906
8 15 21 100 0.000115936
9 15 21 100 1.62863e-05
10 15 21 100 0.00303242
11 15 21 100 0.00624631
12 15 21 100 0.005992
13 15 21 100 0.0116462
14 15 21 100 0.0244317
15 15 21 100 0.0422278
16 15 21 100 0.064748
17 15 21 100 0.082949
18 15 21 100 0.143887
19 15 21 100 0.0957195
20 15 21 100 0.287286
21 15 21 100 0.00608353
0 16 21 100 0.203749
1 16 21 100 8.74196e-07
2 16 21 100 0.00466525
3 16 21 100 2.13192e-05
4 16 21 100 2.43932e-06
5 16 21 100 0.000310847
6 16 21 100 0.00447147
7 16 21 100 1.17918e-06
8 16 21 100 1.74494e-06
9 16 21 100 1.21192e-05
10 16 21 100 0.000297557
11 16 21 100 0.0112642
12 16 21 100 0.0141262
13 16 21 100 0.0049194
14 16 21 100 0.0147451
15 16 21 100 0.0281932
16 16 21 100 0.0518303
17 16 21 100 0.0772456
18 16 21 100 0.135223
19 16 21 100 0.120112
20 16 21 100 0.324864
21 16 21 100 0.0039436
0 17 21 100 0.21942
1 17 21 100 1.16056e-06
2 17 21 100 4.94717e-06
3 17 21 100 1.07744e-07
4 17 21 100 9.28412e-05
5 17 21 100 0.00694854
6 17 21 100 0.00694764
7 17 21 100 0.000529619
8 17 21 100 4.40832e-06
9 17 21 100 1.56358e-06
10 17 21 100 0.0139182
11 17 21 100 0.0076051
12 17 21 100 0.00905509
13 17 21 100 0.0187437
14 17 21 100 0.0069888
15 17 21 100 0.0350346
16 17 21 100 0.0556108
17 17 21 100 0.0428216
18 17 21 100 0.0977309
19 17 21 100 0.132069
20 17 21 100 0.346384
21 17 21 100 8.6885e-05
0 18 21 100 0.303728
1 18 21 100 4.23475e-05
2 18 21 100 1.17749e-06
3 18 21 100 4.40456e-05
4 18 21 100 0.000122915
5 18 21 100 0.0250031
6 18 21 100 7.58768e-07
7 18 21 100 3.57175e-06
8 18 21 100 4.72024e-07
10 18 21 100 0.000256106
11 18 21 100 2.87815e-05
12 18 21 100 2.49479e-06
13 18 21 100 0.0123635
14 18 21 100 0.0125141
15 18 21 100 0.0125393
16 18 21 100 0.0124834
17 18 21 100 0.0769156
18 18 21 100 0.106743
19 18 21 100 0.106814
20 18 21 100 0.330275
21 18 21 100 0.00011797
0 19 21 100 0.245681
1 19 21 100 6.55107e-07
2 19 21 100 9.01248e-06
4 19 21 100 9.95901e-07
5 19 21 100 0.0217012
6 19 21 100 1.19792e-05
8 19 21 100 1.76981e-05
9 19 21 100 2.34707e-06
11 19 21 100 0.000798578
12 19 21 100 0.00225063
13 19 21 100 0.0434782
14 19 21 100 1.57026e-05
15 19 21 100 0.0217431
16 19 21 100 0.0217611
17 19 21 100 0.0443604
18 19 21 100 0.0433653
19 19 21 100 0.207763
20 19 21 100 0.346796
21 19 21 100 0.000243072
0 20 21 100 0.286562
5 20 21 100 0.0384933
7 20 21 100 0.0384584
8 20 21 100 4.07539e-07
9 20 21 100 8.59657e-07
10 20 21 100 3.16575e-06
11 20 21 100 0.0384616
13 20 21 100 0.0385154
14 20 21 100 0.0369722
16 20 21 100 0.0384659
17 20 21 100 0.115383
18 20 21 100 0.0384607
19 20 21 100 0.187164
20 20 21 100 0.143048
21 20 21 100 1.05408e-05
0 21 21 100 0.189059
4 21 21 100 2.69462e-06
5 21 21 100 0.0624979
7 21 21 100 2.30262e-05
8 21 21 100 5.47916e-06
9 21 21 100 0.0622634
11 21 21 100 2.05716e-06
13 21 21 100 2.22621e-06
17 21 21 100 0.0625001
18 21 21 100 0.062072
19 21 21 100 0.000241112
20 21 21 100 0.500735
21 21 21 100 0.0605966
0 22 21 100 0.222383
5 22 21 100 0.111076
10 22 21 100 5.21408e-06
11 22 21 100 3.58767e-05
12 22 21 100 0.00388853
16 22 21 100 1.47341e-06
17 22 21 100 0.218325
18 22 21 100 1.25084e-05
19 22 21 100 0.110935
20 22 21 100 0.333335
21 22 21 100 2.81806e-06
0 23 21 100 0.294415
3 23 21 100 9.82119e-06
5 23 21 100 0.142857
7 23 21 100 0.00141554
8 23 21 100 3.01426e-05
10 23 21 100 0.0184714
14 23 21 100 0.0047955
16 23 21 100 0.000619607
18 23 21 100 0.0110511
19 23 21 100 0.268088
20 23 21 100 0.130162
21 23 21 100 0.128085
0 24 21 100 0.000928547
5 24 21 100 0.2
17 24 21 100 0.2
18 24 21 100 0.199062
20 24 21 100 0.4
21 24 21 100 8.94398e-06
0 25 21 100 0.592636
2 25 21 100 3.82795e-05
18 25 21 100 0.333295
19 25 21 100 0.0437789
21 25 21 100 0.0302518
19 26 21 100 0.5
20 26 21 100 0.5
18 27 21 100 0.5
19 27 21 100 0.5
0 28 21 100 0.902972
19 28 21 100 0.0748661
21 28 21 100 0.0221618
18 29 21 100 1
0 30 21 100 0.925735
19 30 21 100 0.0599189
21 30 21 100 0.0143463
18 31 21 100 1
0 32 21 100 0.934792
19 32 21 100 0.054147
21 32 21 100 0.0110609
20 33 21 100 1
0 1 22 100 0.105022
1 1 22 100 0.684081
2 1 22 100 0.0777349
3 1 22 100 0.0612747
4 1 22 100 0.0230285
5 1 22 100 0.0186045
6 1 22 100 0.00636635
7 1 22 100 0.0034459
8 1 22 100 0.00574082
9 1 22 100 0.00102933
10 1 22 100 3.6775e-05
11 1 22 100 0.0011474
12 1 22 100 0.00404234
13 1 22 100 0.00191675
14 1 22 100 0.00111839
15 1 22 100 0.00101466
16 1 22 100 0.00201215
17 1 22 100 0.000181555
18 1 22 100 9.41114e-06
19 1 22 100 1.0142e-05
20 1 22 100 0.000239681
21 1 22 100 0.00194127
22 1 22 100 1.3331e-06
0 2 22 100 0.117952
1 2 22 100 0.0635347
2 2 22 100 0.193163
3 2 22 100 0.233113
4 2 22 100 0.15669
5 2 22 100 0.099247
6 2 22 100 0.0333948
7 2 22 100 0.023712
8 2 22 100 0.0225074
9 2 22 100 0.014066
10 2 22 100 0.00504217
11 2 22 100 0.00629915
12 2 22 100 0.00506139
13 2 22 100 0.00113294
14 2 22 100 0.00302307
15 2 22 100 0.00397347
16 2 22 100 0.0050202
17 2 22 100 0.00135277
18 2 22 100 0.00304528
19 2 22 100 0.00262725
20 2 22 100 0.00106854
21 2 22 100 0.00497322
22 2 22 100 1.47276e-06
0 3 22 100 0.155343
1 3 22 100 0.0266225
2 3 22 100 0.0873892
3 3 22 100 0.134618
4 3 22 100 0.158236
5 3 22 100 0.144649
6 3 22 100 0.0924864
7 3 22 100 0.0775575
8 3 22 100 0.036827
9 3 22 100 0.0279601
10 3 22 100 0.011025
11 3 22 100 0.0130533
12 3 22 100 0.00416169
13 3 22 100 0.00389683
14 3 22 100 0.00199134
15 3 22 100 0.00397634
16 3 22 100 0.00504932
17 3 22 100 0.00203478
18 3 22 100 0.00302842
19 3 22 100 0.00357931
20 3 22 100 0.00221855
21 3 22 100 0.00425709
22 3 22 100 3.89484e-05
0 4 22 100 0.160399
1 4 22 100 0.0160018
2 4 22 100 0.0347643
3 4 22 100 0.0573445
4 4 22 100 0.101357
5 4 22 100 0.118854
6 4 22 100 0.125797
7 4 22 100 0.102117
8 4 22 100 0.0943707
9 4 22 100 0.0630482
10 4 22 100 0.0339735
11 4 22 100 0.0277756
12 4 22 100 0.011758
13 4 22 100 0.00897036
14 4 22 100 0.00614844
15 4 22 100 0.00189843
16 4 22 100 0.00613478
17 4 22 100 0.00408898
18 4 22 100 0.0060386
19 4 22 100 0.00503727
20 4 22 100 0.0026
21 4 22 100 0.0114798
22 4 22 100 4.23964e-05
0 5 22 100 0.175052
1 5 22 100 0.00877767
2 5 22 100 0.0212668
3 5 22 100 0.0292284
4 5 22 100 0.0508219
5 5 22 100 0.0731727
6 5 22 100 0.103203
7 5 22 100 0.115159
8 5 22 100 0.084353
9 5 22 100 0.0913376
10 5 22 100 0.0715453
11 5 22 100 0.0581474
12 5 22 100 0.0297861
13 5 22 100 0.0183497
14 5 22 100 0.0130945
15 5 22 100 0.0114659
16 5 22 100 0.00781826
17 5 22 100 0.0050879
18 5 22 100 0.0050008
19 5 22 100 0.00863347
20 5 22 100 0.00432529
21 5 22 100 0.0143614
22 5 22 100 1.11987e-05
0 6 22 100 0.19238
1 6 22 100 0.00329205
2 6 22 100 0.0109783
3 6 22 100 0.0127773
4 6 22 100 0.0217888
5 6 22 100 0.0421919
6 6 22 100 0.0776064
7 6 22 100 0.0712781
8 6 22 100 0.0940864
9 6 22 100 0.0892355
10 6 22 100 0.101905
11 6 22 100 0.0699502
12 6 22 100 0.0531435
13 6 22 100 0.0446144
14 6 22 100 0.0345726
15 6 22 100 0.0278098
16 6 22 100 0.0152092
17 6 22 100 0.00871408
18 6 22 100 0.00667217
19 6 22 100 0.00809244
20 6 22 100 0.00442566
21 6 22 100 0.00927455
22 6 22 100 1.77638e-06
0 7 22 100 0.175159
1 7 22 100 0.00348845
2 7 22 100 0.00304333
3 7 22 100 0.00515192
4 7 22 100 0.00742707
5 7 22 100 0.0235756
6 7 22 100 0.0342786
7 7 22 100 0.0579286
8 7 22 100 0.075243
9 7 22 100 0.0873653
10 7 22 100 0.0935816
11 7 22 100 0.0761006
12 7 22 100 0.0789999
13 7 22 100 0.052471
14 7 22 100 0.0462145
15 7 22 100 0.0454352
16 7 22 100 0.0334004
17 7 22 100 0.026992
18 7 22 100 0.0290074
19 7 22 100 0.0185462
20 7 22 100 0.00700426
21 7 22 100 0.0195826
22 7 22 100 3.68363e-06
0 8 22 100 0.172807
1 8 22 100 0.00316686
2 8 22 100 0.0030441
3 8 22 100 0.00209228
4 8 22 100 0.00600291
5 8 22 100 0.007112
6 8 22 100 0.0125453
7 8 22 100 0.0223699
8 8 22 100 0.0355189
9 8 22 100 0.0549793
10 8 22 100 0.0834434
11 8 22 100 0.0672394
12 8 22 100 0.0700002
13 8 22 100 0.0860858
14 8 22 100 0.0729542
15 8 22 100 0.0721555
16 8 22 100 0.0483007
17 8 22 100 0.0461579
18 8 22 100 0.043292
19 8 22 100 0.0294835
20 8 22 100 0.0187603
21 8 22 100 0.0414789
22 8 22 100 0.00100909
0 9 22 100 0.17161
1 9 22 100 0.00496736
2 9 22 100 0.00156255
3 9 22 100 0.0033477
4 9 22 100 0.00220492
5 9 22 100 0.00626672
6 9 22 100 0.00735133
7 9 22 100 0.0149935
8 9 22 100 0.0191589
9 9 22 100 0.0333412
10 9 22 100 0.042586
11 9 22 100 0.0750826
12 9 22 100 0.0662257
13 9 22 100 0.0782416
14 9 22 100 0.092288
15 9 22 100 0.0679547
16 9 22 100 0.0589855
17 9 22 100 0.0472453
18 9 22 100 0.046334
19 9 22 100 0.0591802
20 9 22 100 0.0229464
21 9 22 100 0.0765263
22 9 22 100 0.00159981
0 10 22 100 0.174643
1 10 22 100 0.00484558
2 10 22 100 1.27386e-05
3 10 22 100 0.00223153
4 10 22 100 0.00544113
5 10 22 100 0.0043247
6 10 22 100 0.00999006
7 10 22 100 0.00574253
8 10 22 100 0.00690822
9 10 22 100 0.0177636
10 10 22 100 0.0261242
11 10 22 100 0.0442998
12 10 22 100 0.055686
13 10 22 100 0.0842401
14 10 22 100 0.0633058
15 10 22 100 0.0940027
16 10 22 100 0.0739775
17 10 22 100 0.0687529
18 10 22 100 0.061557
19 10 22 100 0.0648423
20 10 22 100 0.0379484
21 10 22 100 0.092667
22 10 22 100 0.000692961
0 11 22 100 0.173488
1 11 22 100 0.00248179
2 11 22 100 0.00122381
3 11 22 100 0.00245214
4 11 22 100 0.00255477
5 11 22 100 0.00124583
6 11 22 100 0.00584137
7 11 22 100 0.00888202
8 11 22 100 0.0012692
9 11 22 100 0.0139084
10 11 22 100 0.0159008
11 11 22 100 0.0333719
12 11 22 100 0.0354056
13 11 22 100 0.0552538
14 11 22 100 0.0704562
15 11 22 100 0.0952819
16 11 22 100 0.0788058
17 11 22 100 0.0856373
18 11 22 100 0.0958343
19 11 22 100 0.0586096
20 11 22 100 0.0493694
21 11 22 100 0.112703
22 11 22 100 2.37841e-05
0 12 22 100 0.18319
1 12 22 100 0.00252257
2 12 22 100 1.68939e-06
3 12 22 100 5.65842e-05
4 12 22 100 0.00571224
5 12 22 100 0.00176762
6 12 22 100 0.00379067
7 12 22 100 0.00837647
8 12 22 100 0.00422745
9 12 22 100 0.00557289
10 12 22 100 0.0126627
11 12 22 100 0.0216998
12 12 22 100 0.0212947
13 12 22 100 0.0464434
14 12 22 100 0.0431318
15 12 22 100 0.0739293
16 12 22 100 0.0755068
17 12 22 100 0.0920619
18 12 22 100 0.0850668
19 12 22 100 0.114488
20 12 22 100 0.0576411
21 12 22 100 0.138337
22 12 22 100 0.00251852
0 13 22 100 0.174552
1 13 22 100 8.14363e-05
2 13 22 100 5.05025e-05
3 13 22 100 3.22393e-06
4 13 22 100 0.00229709
5 13 22 100 9.071e-06
6 13 22 100 0.00806
7 13 22 100 0.00644084
8 13 22 100 3.72087e-05
9 13 22 100 0.0032513
10 13 22 100 0.00175174
11 13 22 100 0.00836379
12 13 22 100 0.012958
13 13 22 100 0.0257567
14 13 22 100 0.0364348
15 13 22 100 0.0689365
16 13 22 100 0.0857014
17 13 22 100 0.0914419
18 13 22 100 0.0888369
19 13 22 100 0.100244
20 13 22 100 0.0920535
21 13 22 100 0.191119
22 13 22 100 0.00161815
0 14 22 100 0.214867
1 14 22 100 0.0020025
2 14 22 100 0.000147943
3 14 22 100 0.00200199
4 14 22 100 0.00204714
5 14 22 100 0.000114169
6 14 22 100 0.00371025
7 14 22 100 0.00636187
8 14 22 100 0.00199624
9 14 22 100 0.00250184
10 14 22 100 0.0059929
11 14 22 100 0.0101039
12 14 22 100 0.00596622
13 14 22 100 0.0210696
14 14 22 100 0.0144894
15 14 22 100 0.0370452
16 14 22 100 0.055548
17 14 22 100 0.0662279
18 14 22 100 0.114369
19 14 22 100 0.109671
20 14 22 100 0.0993776
21 14 22 100 0.222947
22 14 22 100 0.0014406
0 15 22 100 0.175858
1 15 22 100 0.000232444
2 15 22 100 7.0879e-06
3 15 22 100 1.46314e-05
4 15 22 100 0.00256726
5 15 22 100 0.00252753
6 15 22 100 0.0102764
7 15 22 100 0.00258061
8 15 22 100 4.89353e-05
9 15 22 100 2.08179e-05
10 15 22 100 2.6048e-06
11 15 22 100 0.0148788
12 15 22 100 0.00669722
13 15 22 100 0.0153508
14 15 22 100 0.0306909
15 15 22 100 0.0438334
16 15 22 100 0.0467615
17 15 22 100 0.0582502
18 15 22 100 0.0832945
19 15 22 100 0.144845
20 15 22 100 0.0908467
21 15 22 100 0.267798
22 15 22 100 0.00261666
0 16 22 100 0.210433
1 16 22 100 2.12869e-05
2 16 22 100 2.3029e-06
3 16 22 100 8.5911e-06
4 16 22 100 8.48791e-07
5 16 22 100 9.16846e-06
6 16 22 100 0.00360093
7 16 22 100 0.00710125
8 16 22 100 2.11758e-05
9 16 22 100 9.44006e-06
10 16 22 100 2.81449e-06
11 16 22 100 0.00943181
12 16 22 100 0.00700371
13 16 22 100 0.0108671
14 16 22 100 0.0257822
15 16 22 100 0.0396794
16 16 22 100 0.0374048
17 16 22 100 0.0575417
18 16 22 100 0.0539015
19 16 22 100 0.0927113
20 16 22 100 0.149362
21 16 22 100 0.287836
22 16 22 100 0.00726808
0 17 22 100 0.277464
1 17 22 100 0.00744732
2 17 22 100 4.00312e-07
3 17 22 100 5.51258e-06
4 17 22 100 1.28787e-05
5 17 22 100 2.24034e-05
6 17 22 100 0.0112344
7 17 22 100 0.0112101
8 17 22 100 0.0107592
9 17 22 100 1.05736e-05
10 17 22 100 0.0059275
11 17 22 100 0.000368086
12 17 22 100 0.00562189
13 17 22 100 0.00615875
14 17 22 100 0.00550764
15 17 22 100 0.0215245
16 17 22 100 0.0268816
17 17 22 100 0.0192945
18 17 22 100 0.0438347
19 17 22 100 0.122208
20 17 22 100 0.133019
21 17 22 100 0.285011
22 17 22 100 0.00647642
0 18 22 100 0.235177
1 18 22 100 0.00885926
2 18 22 100 1.5101e-05
3 18 22 100 0.00889646
4 18 22 100 3.11068e-06
6 18 22 100 7.65911e-05
7 18 22 100 0.00885649
8 18 22 100 0.00885544
9 18 22 100 0.00852045
10 18 22 100 1.48696e-05
11 18 22 100 0.00881795
12 18 22 100 4.9982e-05
13 18 22 100 0.00892341
14 18 22 100 0.0137169
15 18 22 100 0.00913416
16 18 22 100 0.0549987
17 18 22 100 0.0623818
18 18 22 100 0.0638243
19 18 22 100 0.086257
20 18 22 100 0.0962233
21 18 22 100 0.316307
22 18 22 100 9.14429e-05
0 19 22 100 0.23262
1 19 22 100 0.0280194
2 19 22 100 5.85381e-06
3 19 22 100 2.06863e-06
4 19 22 100 1.59221e-05
5 19 22 100 8.80602e-07
6 19 22 100 0.0142857
7 19 22 100 0.0144877
8 19 22 100 5.42879e-06
12 19 22 100 0.0276936
14 19 22 100 0.0140002
15 19 22 100 0.0142839
16 19 22 100 0.071044
17 19 22 100 0.0287819
18 19 22 100 0.0852327
19 19 22 100 0.124508
20 19 22 100 0.0453211
21 19 22 100 0.299692
0 20 22 100 0.108781
3 20 22 100 1.45997e-06
6 20 22 100 0.0212386
7 20 22 100 0.0200516
8 20 22 100 3.8954e-06
9 20 22 100 5.14967e-05
10 20 22 100 0.0422421
12 20 22 100 0.021381
14 20 22 100 0.0229576
16 20 22 100 0.0425591
17 20 22 100 0.0638026
18 20 22 100 0.0652105
19 20 22 100 0.191148
20 20 22 100 0.147568
21 20 22 100 0.252909
22 20 22 100 9.47064e-05
0 21 22 100 0.280151
1 21 22 100 6.68137e-06
3 21 22 100 9.87952e-05
4 21 22 100 2.60841e-06
5 21 22 100 3.88923e-06
6 21 22 100 7.46551e-06
9 21 22 100 0.000535167
11 21 22 100 4.3893e-05
13 21 22 100 0.02993
14 21 22 100 0.000557048
15 21 22 100 0.0312628
16 21 22 100 0.0603014
17 21 22 100 0.0320303
18 21 22 100 0.0848146
19 21 22 100 0.0638052
20 21 22 100 0.103499
21 21 22 100 0.312838
22 21 22 100 0.000111967
0 22 22 100 0.211797
10 22 22 100 8.26141e-07
11 22 22 100 0.0526219
12 22 22 100 0.0526441
13 22 22 100 1.09943e-05
15 22 22 100 0.10523
17 22 22 100 0.000646849
18 22 22 100 0.0526313
19 22 22 100 0.209234
20 22 22 100 0.157106
21 22 22 100 0.158077
0 23 22 100 0.317982
6 23 22 100 1.10149e-05
7 23 22 100 0.00108673
10 23 22 100 0.000161853
12 23 22 100 3.7536e-05
13 23 22 100 0.0769232
14 23 22 100 0.00270351
15 23 22 100 0.0768856
20 23 22 100 0.231474
21 23 22 100 0.292719
22 23 22 100 1.55488e-05
0 24 22 100 0.261332
1 24 22 100 2.59104e-06
7 24 22 100 0.000491577
15 24 22 100 0.249752
18 24 22 100 0.000253681
21 24 22 100 0.488168
0 25 22 100 0.204937
3 25 22 100 6.18391e-06
9 25 22 100 0.000407985
16 25 22 100 0.2
17 25 22 100 0.198558
20 25 22 100 0.196088
21 25 22 100 0.2
22 25 22 100 2.49171e-06
0 26 22 100 0.000311131
8 26 22 100 2.41354e-05
17 26 22 100 0.666332
21 26 22 100 0.333333
0 27 22 100 0.5
15 27 22 100 0.499916
21 27 22 100 8.41597e-05
18 28 22 100 1
0 29 22 100 0.986842
7 29 22 100 0.0131419
22 29 22 100 1.59266e-05
21 30 22 100 1
0 1 23 100 0.0655815
1 1 23 100 0.721177
2 1 23 100 0.0846569
3 1 23 100 0.0691378
4 1 23 100 0.0292585
5 1 23 100 0.0110198
6 1 23 100 0.00632778
7 1 23 100 0.00435608
8 1 23 100 0.00166617
9 1 23 100 0.00215062
10 1 23 100 0.00215847
11 1 23 100 0.000205506
12 1 23 100 1.0249e-05
13 1 23 100 1.22756e-06
14 1 23 100 2.69997e-05
15 1 23 100 3.74515e-06
16 1 23 100 2.15916e-05
17 1 23 100 1.25704e-06
18 1 23 100 0.0010979
19 1 23 100 1.04776e-05
20 1 23 100 2.65062e-05
21 1 23 100 0.00109925
22 1 23 100 4.24414e-06
23 1 23 100 4.13668e-07
0 2 23 100 0.115892
1 2 23 100 0.0424304
2 2 23 100 0.199667
3 2 23 100 0.245717
4 2 23 100 0.17158
5 2 23 100 0.0874138
6 2 23 100 0.0550013
7 2 23 100 0.0330703
8 2 23 100 0.00798334
9 2 23 100 0.0119053
10 2 23 100 0.00714638
11 2 23 100 0.00108289
12 2 23 100 0.00456626
13 2 23 100 0.00222311
14 2 23 100 0.00214917
15 2 23 100 0.00332359
16 2 23 100 0.00106956
17 2 23 100 2.17429e-05
18 2 23 100 0.00338405
19 2 23 100 2.48322e-05
20 2 23 100 6.43171e-06
21 2 23 100 3.8638e-06
22 2 23 100 0.00431323
23 2 23 100 2.37409e-05
0 3 23 100 0.166806
1 3 23 100 0.0171321
2 3 23 100 0.0949317
3 3 23 100 0.148201
4 3 23 100 0.148179
5 3 23 100 0.149161
6 3 23 100 0.103134
7 3 23 100 0.0574803
8 3 23 100 0.044688
9 3 23 100 0.0254161
10 3 23 100 0.0128587
11 3 23 100 0.00720215
12 3 23 100 0.00547521
13 3 23 100 0.00111681
14 3 23 100 0.00326216
15 3 23 100 0.00218261
16 3 23 100 0.000909004
17 3 23 100 0.00209852
18 3 23 100 0.00183156
19 3 23 100 0.00133045
20 3 23 100 0.00214398
21 3 23 100 0.00107725
22 3 23 100 0.00335321
23 3 23 100 2.91459e-05
0 4 23 100 0.183939
1 4 23 100 0.0112718
2 4 23 100 0.0215695
3 4 23 100 0.0548363
4 4 23 100 0.0770163
5 4 23 100 0.139428
6 4 23 100 0.149443
7 4 23 100 0.106995
8 4 23 100 0.0828034
9 4 23 100 0.0545494
10 4 23 100 0.0374298
11 4 23 100 0.0254304
12 4 23 100 0.0111501
13 4 23 100 0.00828402
14 4 23 100 0.00519463
15 4 23 100 0.00741795
16 4 23 100 0.0022321
17 4 23 100 0.00110545
18 4 23 100 0.0036484
19 4 23 100 0.00524876
20 4 23 100 0.00245433
21 4 23 100 0.00208577
22 4 23 100 0.00646298
23 4 23 100 4.67536e-06
0 5 23 100 0.174822
1 5 23 100 0.0107376
2 5 23 100 0.0206897
3 5 23 100 0.0265469
4 5 23 100 0.0519964
5 5 23 100 0.0660731
6 5 23 100 0.113323
7 5 23 100 0.117593
