0 3 0.00186341
0 4 0.265012
0 6 0.0869438
0 8 0.0177492
0 10 0.309589
0 11 3.14195e-07
0 17 0.0046508
0 18 0.118572
0 19 5.36645e-06
0 22 8.20641e-06
0 24 2.63595e-06
0 27 0.042086
0 29 7.26216e-05
0 32 0.0557548
0 35 0.0145218
0 37 1.21452e-05
0 51 1.72695e-06
0 52 0.0221552
0 53 0.0111987
0 54 2.84455e-05
0 70 8.66852e-05
0 71 6.34629e-05
0 73 0.00683357
0 76 0.000747631
0 77 0.000564858
0 78 0.00260028
0 79 0.0113307
0 80 0.00405169
0 96 9.83228e-07
0 102 1.10837e-07
0 103 0.000814688
0 105 4.202e-05
0 110 1.37341e-07
0 115 9.79969e-07
0 118 1.7699e-05
0 128 1.42041e-06
0 139 9.35562e-07
0 143 0.000430868
0 146 2.77581e-07
0 148 4.12836e-06
0 151 8.4861e-07
0 155 0.000456163
0 164 7.40981e-07
0 167 0.000822456
0 174 4.85965e-05
0 177 8.72557e-07
0 180 0.000199196
0 183 5.92515e-05
0 185 1.01557e-07
0 186 1.59316e-07
0 189 7.06104e-06
0 198 0.000251263
0 206 0.00524177
0 227 2.67631e-05
0 230 1.42453e-07
0 232 5.17027e-05
0 233 7.84698e-07
0 234 1.85424e-07
0 251 1.06622e-06
0 259 1.32694e-07
0 263 4.10085e-06
0 266 2.68984e-07
0 273 3.21838e-06
0 277 0.0124004
0 283 6.60557e-06
0 284 1.49597e-07
0 289 3.25932e-05
0 291 6.5581e-06
0 305 1.11318e-07
0 311 0.00146862
0 324 1.91546e-07
0 329 0.000596663
0 358 5.51996e-06
0 365 8.84546e-05
0 381 7.68805e-07
0 443 2.06488e-07
0 448 4.62325e-07
0 468 6.89204e-06
0 479 1.43476e-07
0 520 3.53183e-07
0 548 1.19841e-06
0 550 4.02855e-07
0 570 6.78614e-06
0 587 2.35054e-07
0 604 7.15667e-05
0 605 2.54411e-07
0 619 3.36133e-07
0 725 0.000248271
0 752 8.83026e-06
0 769 2.70523e-07
0 771 3.51421e-06
0 797 5.8109e-07
0 873 1.39674e-07
0 890 7.07924e-07
0 902 1.60104e-06
0 960 1.0172e-07
0 1019 1.18926e-07
0 1029 7.17137e-07
0 1033 8.0258e-07
0 1041 8.98305e-07
0 1086 7.31125e-07
0 1146 1.27386e-05
0 1232 2.40931e-06
0 1336 1.31782e-07
0 1393 8.51229e-07
0 1420 5.2662e-07
0 1832 1.04933e-07
0 1855 2.76574e-07
0 1874 1.82591e-06
0 2067 7.36543e-07
0 2722 8.57257e-07
0 3250 4.81386e-06
0 3352 2.33994e-07
0 4320 1.35774e-07
0 4414 6.38555e-07
0 4477 2.79687e-07
0 4521 1.2843e-07
0 6283 3.66704e-07
0 7571 1.05163e-07
2 2 0.000770548
2 3 1.75889e-07
2 8 0.680175
2 10 0.00132435
2 15 1.4948e-07
2 19 9.98401e-06
2 22 1.01933e-06
2 29 1.52837e-05
2 33 0.0211486
2 51 0.228504
2 69 0.00112538
2 76 1.41867e-05
2 102 1.41105e-05
2 105 0.000127446
2 115 1.83345e-05
2 126 1.12577e-07
2 132 2.80479e-05
2 136 0.000188629
2 139 0.0177983
2 146 9.32295e-06
2 155 1.9875e-05
2 164 1.95446e-05
2 174 1.25949e-06
2 180 2.21402e-05
2 190 0.000907457
2 212 0.00143095
2 214 5.07477e-05
2 227 0.00143964
2 236 0.00299853
2 251 0.000369459
2 258 0.000697886
2 265 2.18985e-05
2 273 4.31547e-07
2 278 3.99883e-05
2 306 0.0064736
2 312 3.04764e-07
2 324 0.000378073
2 334 7.04432e-06
2 365 2.03677e-07
2 381 0.000131195
2 404 3.0459e-06
2 419 0.0224905
2 468 2.71688e-06
2 472 0.00851276
2 587 4.46131e-06
2 632 3.31136e-05
2 752 0.000282891
2 755 1.48768e-06
2 770 1.70539e-07
2 857 1.94408e-07
2 873 0.00121505
2 890 0.000277178
2 902 5.482e-06
2 960 2.25404e-07
2 1041 2.76314e-07
2 1044 1.36753e-07
2 1233 0.000217258
2 1278 3.98349e-05
2 1393 3.81173e-07
2 1850 0.000179411
2 1857 1.77655e-07
2 2002 7.28117e-05
2 2270 1.27798e-07
2 2868 1.83188e-07
2 2901 1.6563e-06
2 2913 8.91832e-05
2 3125 5.24536e-05
2 3250 0.000147585
2 3335 4.54291e-07
2 3704 8.10257e-05
2 4632 3.9885e-07
2 4985 4.3779e-07
3 3 0.242248
3 4 0.000555643
3 6 0.00019373
3 15 1.07958e-07
3 17 0.0318293
3 22 8.98511e-05
3 35 0.446353
3 73 0.000181971
3 77 0.000370741
3 80 3.46143e-06
3 118 1.38e-07
3 131 1.05499e-07
3 150 8.43632e-06
3 167 0.270405
3 174 9.78321e-05
3 189 1.7231e-07
3 225 3.08592e-07
3 227 0.00264528
3 232 3.29198e-07
3 236 6.91895e-06
3 253 3.04897e-06
3 281 3.35311e-07
3 289 8.12463e-05
3 365 0.000316753
3 443 0.000163733
3 520 3.84041e-07
3 550 0.000167046
3 570 1.99209e-06
3 617 9.58055e-07
3 788 1.38024e-06
3 946 0.000390437
3 1019 0.0036626
3 1250 2.24442e-07
3 1427 5.52404e-07
3 1526 2.22284e-05
3 2112 2.85338e-07
3 2722 6.06517e-06
3 3360 0.000184617
3 4490 1.75102e-07
3 5692 1.29014e-06
3 6800 1.48818e-06
4 2 0.0001774
4 5 0.205777
4 17 0.0468497
4 22 0.0875176
4 284 0.0991196
4 604 0.0493404
4 791 0.0514403
4 1364 3.47497e-05
4 2112 0.0482164
4 2475 0.0514407
4 6238 0.308645
4 13223 0.0514408
5 4 0.000429333
5 7 0.976576
5 24 6.56494e-07
5 77 1.44641e-05
5 227 0.0186664
5 381 1.94352e-06
5 412 0.000167833
5 468 2.26149e-07
5 603 7.68502e-07
5 925 0.00414125
5 8022 2.80943e-07
5 11285 9.37428e-07
6 9 0.96594
6 180 0.00473628
6 227 0.0109421
6 443 1.90715e-05
6 604 0.0183622
7 11 0.80376
7 24 0.00105003
7 26 0.0004091
7 30 0.101284
7 130 0.0233497
7 131 4.08457e-06
7 139 3.53049e-07
7 147 0.028803
7 199 0.0300157
7 286 2.67649e-06
7 446 1.2982e-07
7 599 0.000198251
7 1006 0.00401856
7 1104 0.00011325
7 1105 2.73022e-06
7 1332 0.00572586
7 1420 2.3932e-05
7 1724 2.0241e-05
7 4228 2.31661e-07
7 4910 1.59397e-06
7 5176 0.000197715
7 6492 0.000821521
7 7096 0.00019592
8 12 0.531666
8 26 0.0222484
8 76 3.62816e-07
8 122 0.0741931
8 150 0.0110763
8 156 0.0108902
8 172 0.0344178
8 206 1.32023e-07
8 291 0.0410846
8 446 3.99719e-07
8 447 0.130665
8 467 0.0108883
8 607 0.0129373
8 1401 0.0108886
8 1420 0.000151746
8 1463 0.0762279
8 2501 0.0217772
8 4244 0.0108857
8 5531 4.5567e-07
9 6 0.398276
9 13 0.412426
9 17 0.0855765
9 59 0.025935
9 85 3.72417e-07
9 110 1.41742e-06
9 1113 1.94709e-06
9 2796 0.0259051
9 3250 0.000169756
9 4681 0.0517082
10 6 0.328798
10 14 0.543039
10 17 6.88638e-07
10 41 6.0677e-07
10 81 0.0149338
10 148 0.000340702
10 174 0.0637257
10 183 0.00530963
10 189 0.0157715
10 202 3.30196e-06
10 251 1.2364e-07
10 263 0.00120543
10 397 2.72834e-05
10 443 1.71181e-07
10 873 1.37267e-05
10 971 1.05979e-07
10 1268 2.04604e-07
10 1403 0.00257907
10 1493 0.00683695
10 2593 0.0168273
10 3152 0.000246875
10 3210 1.09127e-06
10 3380 1.46609e-05
10 3613 2.88614e-07
10 3943 0.000322466
10 4296 1.51859e-07
11 4 0.000362568
11 15 0.94105
11 27 1.03858e-07
11 59 0.00227364
11 70 1.429e-05
11 180 4.39365e-06
11 183 0.0157781
11 215 0.0261153
11 216 1.4355e-07
11 227 0.0136104
11 232 2.30954e-07
11 361 1.99074e-06
11 408 1.0755e-05
11 520 2.29737e-07
11 675 1.4754e-07
11 725 1.54856e-07
11 770 0.000160985
11 1336 0.000114381
11 1461 1.87001e-07
11 1724 1.84931e-05
11 1962 4.01981e-07
11 2079 0.00048027
11 11090 1.62763e-06
12 6 0.395214
12 11 2.5093e-07
12 16 0.221504
12 25 0.112241
12 26 0.0155787
12 73 0.0374458
12 76 5.07499e-07
12 142 0.0156347
12 155 4.0239e-07
12 185 1.09181e-07
12 333 6.38588e-07
12 607 0.00388413
12 630 1.18318e-06
12 902 7.04012e-07
12 1330 0.00368694
12 1420 0.0037324
12 3557 0.054419
12 4061 0.136491
12 4081 0.000163806
12 7127 1.09777e-07
13 6 0.00329352
13 21 0.922714
13 24 0.00310837
13 65 0.0559302
13 76 0.00930973
13 604 0.00253793
13 2825 0.00310349
13 3171 2.65681e-07
13 8035 1.52733e-06
13 8039 1.33348e-06
14 3 6.28051e-07
14 4 0.00166521
14 17 0.770685
14 22 0.0633922
14 24 1.88466e-06
14 58 6.04645e-06
14 76 0.126386
14 109 9.81064e-06
14 110 1.51483e-07
14 118 0.00136698
14 128 0.00213189
14 131 0.000769435
14 167 2.49814e-07
14 180 4.21781e-05
14 236 1.50211e-06
14 284 0.00161228
14 289 0.00148883
14 324 1.01384e-07
14 333 0.00397062
14 402 1.35377e-05
14 453 1.51946e-05
14 520 0.000576682
14 550 0.0229592
14 604 3.26525e-06
14 942 8.63574e-05
14 960 7.65638e-07
14 1029 0.000322498
14 1360 5.24111e-06
14 1423 0.000116502
14 1534 9.37631e-07
14 1962 1.41944e-05
14 2054 9.92293e-05
14 2852 1.48076e-06
14 3003 0.00224298
14 3352 1.24609e-07
14 3880 5.24851e-07
14 4910 1.43215e-07
14 7367 7.82135e-06
15 3 3.19822e-06
15 22 0.126377
15 23 0.568248
15 115 3.19234e-07
15 311 0.134044
15 524 0.00212532
15 572 2.10998e-06
15 701 0.0129174
15 2361 0.0400604
15 2569 0.116221
16 6 0.126283
16 11 0.055606
16 13 0.233084
16 19 0.0585284
16 20 0.0585291
16 24 0.0584303
16 28 0.0585289
16 29 0.0585125
16 30 0.0585294
16 31 0.0585291
16 71 0.116568
16 206 0.000341977
16 411 0.0585289
17 28 0.457752
17 150 0.0318645
17 206 0.0409708
17 227 0.0116424
17 311 6.76404e-07
17 1142 0.392494
17 1268 0.0216772
17 2400 0.0435982
17 7944 1.39414e-07
18 19 0.00286678
18 20 0.274718
18 53 0.177287
18 71 0.021478
18 77 0.0259462
18 78 0.0415749
18 79 0.000987411
18 84 0.0291686
18 128 1.89884e-05
18 143 4.74341e-07
18 150 0.00304174
18 165 1.17681e-06
18 166 0.0506094
18 184 1.57464e-05
18 186 1.18311e-07
18 187 0.0905146
18 227 0.0190558
18 283 0.0340398
18 320 0.126329
18 329 1.75628e-05
18 472 1.65185e-05
18 604 0.000439417
18 630 1.57756e-07
18 664 1.22728e-06
18 716 0.0309583
18 725 1.68983e-06
18 999 0.000282814
18 1044 8.46815e-07
18 1086 0.00230374
18 1122 0.0308421
18 1209 0.00529988
18 1232 0.000475248
18 1513 0.00264861
18 1704 0.00264323
18 1931 0.00246035
18 2228 0.000371898
18 2875 0.0209357
18 3981 1.97665e-06
18 5725 0.00264309
18 7833 5.45154e-07
19 7 7.24659e-06
19 27 1.83682e-07
19 34 0.998505
19 60 1.6098e-07
19 95 2.73084e-06
19 174 7.15268e-07
19 214 0.000626768
19 410 3.12279e-05
19 3704 0.000825897
19 7022 1.03187e-07
20 23 1.5148e-06
20 35 2.40448e-06
20 36 0.917604
20 54 0.0335287
20 73 5.30439e-07
20 150 0.00920586
20 161 1.63006e-05
20 174 0.0259008
20 183 0.00237915
20 206 7.53437e-07
20 409 6.3415e-07
20 689 1.47471e-06
20 701 0.00021854
20 1113 0.000768574
20 1325 5.89638e-05
20 1514 1.57683e-05
20 4599 0.00307846
20 9153 0.000660928
20 10606 0.00655583
21 17 7.47763e-06
21 37 0.476414
21 38 0.488878
21 100 0.00345617
21 231 0.0034476
21 265 0.0244809
21 291 0.000100708
21 622 1.16507e-06
21 988 3.11041e-07
21 1375 0.000136328
21 1579 0.00303922
21 1679 1.00903e-07
21 2112 1.34484e-05
21 6631 4.01925e-07
21 8539 3.82458e-06
21 9970 3.08439e-07
21 12481 1.96464e-05
22 4 0.648368
22 22 1.51006e-06
22 76 0.341953
22 105 0.000185709
22 150 9.57937e-06
22 155 0.00894438
22 167 1.32976e-06
22 190 1.78356e-07
22 192 4.92356e-07
22 194 2.36788e-07
22 365 2.21277e-07
22 603 3.75699e-06
22 605 1.21699e-05
22 667 0.000509304
22 691 1.20618e-06
22 752 3.92629e-07
22 824 1.5743e-07
22 1496 2.08129e-07
22 1874 1.095e-07
22 2821 5.03429e-07
22 2931 3.8904e-07
22 3773 2.8393e-06
22 4286 3.80583e-07
23 6 0.00114295
23 39 0.204287
23 52 0.0322761
23 54 0.0255073
23 72 0.0765613
23 73 8.38074e-06
23 77 0.0236164
23 78 0.0508192
23 96 0.0247748
23 110 0.0765995
23 227 0.0484473
23 232 0.0501297
23 234 0.0524713
23 305 0.0255359
23 384 0.0242882
23 443 0.0791392
23 454 0.0510709
23 1737 0.0510412
23 3282 0.0766159
23 4887 0.000131574
23 5490 0.0255359
24 29 0.0473676
24 40 0.711255
24 81 0.00330044
24 150 0.0471194
24 167 0.0455323
24 174 0.00310037
24 652 0.047505
24 1866 0.0474171
24 5484 0.0474027
25 6 4.94633e-05
25 41 0.597136
25 70 0.0517239
25 85 0.123344
25 100 0.0121721
25 128 0.000498931
25 169 2.62966e-07
25 179 0.010113
25 646 0.133303
25 861 0.0597046
25 982 6.71868e-06
25 4466 2.87145e-07
25 5656 0.0119472
25 11076 2.1807e-07
26 8 0.0006467
26 27 0.000157177
26 32 0.000142712
26 37 0.595418
26 42 0.00526602
26 53 4.18801e-06
26 77 6.01504e-07
26 78 0.0317622
26 84 3.21559e-07
26 139 1.94761e-06
26 146 1.02205e-07
26 155 3.75818e-07
26 190 5.41363e-07
26 251 2.13947e-07
26 311 4.68159e-07
26 329 0.365609
26 355 2.69817e-07
26 419 1.00721e-06
26 491 3.36246e-06
26 604 1.45537e-06
26 630 1.04523e-06
26 831 0.000861011
26 857 4.39597e-06
26 1190 2.47452e-06
26 1450 5.23385e-07
26 2235 2.54128e-07
26 2311 3.47034e-07
26 5633 0.000110205
27 42 0.500198
27 43 0.499802
28 33 0.000715016
28 70 0.256135
28 79 0.0429455
28 128 0.101871
28 132 0.0019889
28 186 0.203985
28 230 0.101993
28 273 0.0510002
28 300 0.188516
28 2841 0.0508507
29 4 0.00589947
29 6 0.34488
29 45 0.32447
29 128 0.215875
29 184 8.78949e-07
29 211 7.94977e-07
29 232 0.0530421
29 283 0.0017352
29 545 0.0540965
30 42 0.333394
30 44 0.166652
30 45 0.166651
30 46 0.166652
30 47 0.166652
31 48 0.0256849
31 49 0.462247
31 50 0.436567
31 76 0.0243104
31 585 6.91046e-07
31 10934 0.0255096
31 11737 0.0256804
32 10 0.000447756
32 24 0.0120616
32 52 0.359084
32 53 1.70771e-06
32 54 0.00820123
32 105 3.33484e-06
32 131 5.32717e-07
32 142 1.58906e-06
32 143 1.542e-05
32 146 2.91756e-06
32 180 6.34412e-06
32 189 1.72208e-07
32 198 0.0214395
32 206 0.0537342
32 225 5.51168e-07
32 251 0.398547
32 283 0.00042117
32 286 6.31645e-05
32 291 9.10451e-07
32 311 0.0266504
32 321 0.000501508
32 324 0.000375461
32 365 1.09706e-07
32 436 0.056791
32 504 0.00934646
32 550 2.55044e-06
32 604 0.0371841
32 619 1.65824e-07
32 632 0.0097321
32 752 1.94042e-05
32 755 0.000406623
32 790 0.00039705
32 841 1.61831e-07
32 857 0.000975402
32 960 1.07748e-07
32 988 1.58042e-07
32 992 1.24191e-06
32 1104 1.1175e-06
32 1233 2.04607e-07
32 1278 0.00127671
32 1298 3.17456e-07
32 1420 2.41549e-05
32 1496 0.00020179
32 1545 0.000299401
32 1900 3.8283e-07
32 2037 1.12454e-07
32 2199 3.24171e-07
32 2569 2.66503e-06
32 2722 7.58136e-06
32 2814 0.00150037
32 3294 2.39684e-05
32 3335 5.71694e-07
32 3354 2.61206e-07
32 4110 0.000174357
32 4828 2.86322e-07
32 4910 3.89769e-07
32 5542 8.54424e-07
32 6492 6.44307e-07
32 7096 3.39043e-07
32 8767 2.42816e-07
32 11501 6.22834e-05
33 19 1.01306e-07
33 35 0.094137
33 54 0.00303892
33 78 0.192898
33 79 0.182401
33 80 0.122867
33 146 0.00825587
33 148 4.31207e-07
33 149 4.91337e-07
33 151 1.11716e-06
33 155 5.4815e-06
33 180 0.00495222
33 194 0.000700873
33 220 0.0766745
33 229 0.0458753
33 259 5.40364e-06
33 311 0.1463
33 358 0.0326085
33 365 0.00126231
33 375 0.083084
33 381 1.5334e-06
33 391 2.4129e-07
33 468 0.000670621
33 495 3.32999e-07
33 780 0.000182264
33 974 3.20362e-07
33 1041 0.00208074
33 1044 7.1439e-06
33 1217 0.00125449
33 1233 3.96823e-07
33 1245 1.74579e-06
33 1336 1.06137e-05
33 1427 3.35213e-05
33 2722 0.000685675
33 3835 2.50645e-07
33 4570 2.31901e-07
33 10610 4.68088e-07
34 4 0.0106646
34 6 0.0292459
34 55 0.599094
34 73 2.47843e-05
34 76 6.48956e-06
34 118 6.01876e-07
34 136 7.24161e-07
34 146 0.00292469
34 206 1.18415e-07
34 227 0.0161505
34 290 3.1434e-07
34 701 1.42334e-06
34 837 0.113672
34 1123 0.201163
34 1450 1.0085e-05
34 1598 0.0227842
34 2035 1.51549e-07
34 2429 8.67381e-07
34 4952 0.00246082
34 7184 1.06009e-06
34 7646 0.00179028
34 9777 2.21073e-06
35 17 2.92418e-06
35 22 4.99959e-07
35 29 7.53119e-07
35 76 0.637316
35 104 0.344095
35 116 0.00294503
35 118 1.79103e-07
35 131 0.000697366
35 143 4.80842e-07
35 167 0.00242864
35 183 3.71508e-05
35 198 6.0749e-07
35 253 1.28688e-07
35 266 6.15229e-07
35 281 1.46691e-07
35 284 0.00375249
35 311 0.00281079
35 329 0.00276807
35 365 1.44058e-05
35 384 1.85423e-06
35 448 2.17533e-07
35 454 8.64532e-07
35 520 1.41224e-05
35 1534 0.00295164
35 2443 1.04517e-07
35 4359 0.000159033
36 4 2.01081e-05
36 6 0.323124
36 56 0.46503
36 131 0.0423617
36 167 4.1136e-06
36 2029 0.042365
36 2050 0.127095
37 4 2.30489e-05
37 6 3.77691e-06
37 30 0.045469
37 45 0.760976
37 289 0.050763
37 290 0.000672484
37 311 0.0945319
37 12351 0.0475607
38 17 1.20373e-07
38 30 0.000133779
38 48 1.0388e-07
38 57 0.480518
38 58 0.498633
38 78 0.0175665
38 289 8.55493e-06
38 290 0.00313097
38 311 8.30319e-06
39 3 0.00150649
39 4 0.286099
39 6 0.000723121
39 43 0.101841
39 130 0.10063
39 623 0.101841
39 788 0.203681
39 873 0.101839
39 2577 0.101841
40 6 1.35395e-06
40 19 2.37186e-06
40 53 8.03171e-07
40 59 0.9908
40 206 0.00109382
40 215 3.2155e-05
40 236 4.70818e-06
40 534 0.00704682
40 1117 0.00101163
40 1518 5.94677e-07
40 4048 1.85175e-06
40 9097 3.06387e-06
41 4 0.134806
41 6 0.363957
41 43 0.0385558
41 60 0.0768165
41 155 0.018834
41 158 2.49674e-06
41 284 0.038286
41 998 0.000853824
41 2577 0.327672
41 11568 0.000216765
42 4 9.7396e-05
42 6 5.41375e-07
42 11 0.00866342
42 24 0.16397
42 48 0.0680422
42 58 0.0174765
42 155 4.28434e-06
42 177 6.19129e-06
42 445 0.286159
42 604 2.44885e-06
42 1280 0.155648
42 1515 0.25941
42 2208 0.00864759
42 2258 0.00864681
42 2722 0.00592858
42 5254 0.017294
42 5799 3.09506e-06
42 10944 3.71261e-07
43 2 0.246204
43 3 0.252931
43 62 0.500865
44 4 0.0003286
44 8 0.136025
44 63 0.431798
44 66 0.431848
45 96 0.111118
45 284 0.111127
45 2378 0.111127
45 2531 0.44448
45 2602 0.111022
45 6552 0.111127
46 61 0.443954
46 73 0.0573552
46 109 1.85208e-05
46 115 0.0255455
46 198 3.0461e-07
46 206 0.0396754
46 354 0.367239
46 404 0.00287705
46 603 9.01871e-05
46 1068 0.0125124
46 1874 0.0126825
46 2035 2.25393e-07
46 2079 0.0126832
46 6799 0.0126844
46 12594 0.0126826
47 20 0.167037
47 53 0.16547
47 65 0.167028
47 66 0.333429
47 6371 0.167037
48 21 0.685908
48 29 0.0158183
48 65 0.272834
48 131 1.75586e-05
48 155 1.39334e-05
48 824 0.0253989
48 1737 9.49511e-06
49 3 0.331717
49 30 0.334142
49 67 0.334142
50 28 0.175567
50 32 0.474991
50 64 0.174721
50 68 0.174721
51 54 1.93393e-05
51 69 0.0179597
51 70 0.272159
51 71 0.0925242
51 72 0.0914706
51 73 0.0109911
51 76 0.168508
51 143 0.0905174
51 150 0.164756
51 180 2.09548e-07
51 187 1.84373e-06
51 443 0.0180468
51 3158 0.0366147
51 4286 0.0181288
51 10275 0.0183014
52 3 0.1182
52 35 0.0840616
52 54 0.0569918
52 77 0.0189069
52 103 0.0735414
52 134 0.00878343
52 143 0.0221267
52 151 2.37702e-07
52 167 0.610013
52 174 1.31768e-06
52 177 3.66839e-07
52 289 3.45168e-07
52 320 1.20887e-07
52 374 0.00256978
52 384 5.69339e-07
52 388 4.19518e-07
52 520 4.67622e-07
52 2221 7.28067e-05
52 3479 1.24123e-07
52 4570 0.00472755
52 4828 4.56679e-07
53 10 8.10838e-07
53 54 0.000527222
53 77 0.707912
53 96 0.238842
53 103 0.0215454
53 134 0.000729814
53 167 1.37307e-05
53 174 2.07886e-07
53 177 0.0303811
53 198 2.13718e-06
53 247 2.42711e-07
53 321 2.40336e-07
53 436 1.25242e-07
53 515 1.3434e-07
53 675 1.13198e-07
53 1399 7.38992e-06
53 2221 1.77351e-07
53 4570 3.36672e-05
53 5571 1.16386e-07
53 11708 1.23246e-07
54 22 0.00747464
54 37 0.00452577
54 72 0.00816201
54 73 0.11044
54 74 0.669894
54 76 0.131198
54 85 8.44979e-05
54 100 0.00379051
54 229 2.7305e-07
54 603 5.48142e-07
54 1041 0.00750416
54 2644 2.35502e-06
54 4590 0.0494222
54 10599 0.00750097
55 17 1.82143e-07
55 19 0.00389507
55 54 1.80826e-07
55 75 0.680017
55 76 0.0223868
55 80 0.0611925
55 109 0.00425208
55 130 1.47257e-06
55 143 8.82844e-05
55 180 0.00971765
55 188 2.12228e-07
55 190 4.47359e-05
55 206 0.000844362
55 230 0.00917406
55 234 0.00012052
55 289 4.50522e-07
55 291 9.73385e-07
55 617 4.66279e-07
55 675 0.000547703
55 992 0.0210913
55 1080 0.0637521
55 1364 0.0165892
55 1403 5.52376e-07
55 1548 1.66815e-06
55 2510 6.56158e-07
55 2744 0.0765356
55 3114 0.0170613
55 4143 0.00406315
55 4436 3.07535e-07
55 5200 1.11663e-07
55 6877 0.00850023
55 10282 0.000119007
56 3 0.415228
56 59 0.000255274
56 81 0.0442158
56 82 0.124605
56 88 0.019842
56 175 0.391079
56 265 0.00216812
56 412 5.21589e-06
56 907 6.83928e-06
56 1062 0.00259437
57 22 1.11901e-07
57 29 0.00611912
57 71 0.0104903
57 78 0.0606879
57 79 0.405537
57 80 0.402834
57 130 0.00249191
57 131 1.66311e-07
57 143 0.042604
57 146 4.15004e-07
57 220 1.43906e-05
57 225 1.98922e-06
57 266 1.00751e-07
57 311 4.80803e-06
57 358 0.0644366
57 490 1.7163e-07
57 604 2.31797e-05
57 1044 8.1312e-05
57 1874 0.00463431
57 2079 3.69492e-05
58 3 1.13235e-07
58 73 0.259626
58 76 0.0806153
58 77 0.0980063
58 78 0.00429145
58 84 0.00280231
58 103 0.0218376
58 128 0.0212195
58 155 1.75358e-07
58 167 0.0510582
58 184 0.0208245
58 329 1.18299e-07
58 384 1.17189e-07
58 451 5.29388e-05
58 675 4.97651e-06
58 702 0.00151982
58 858 0.217639
58 1084 0.164646
58 2311 2.24541e-06
58 2400 4.28891e-07
58 4907 1.74921e-06
58 5347 0.0489132
58 8238 0.0069372
59 48 0.0312558
59 51 0.0625105
59 70 0.124831
59 71 0.156415
59 77 0.219184
59 128 0.156645
59 1086 0.187534
59 1268 0.035746
59 5874 0.0258804
60 70 0.143539
60 71 0.238335
60 83 0.333729
60 111 2.75919e-05
60 143 0.0470075
60 599 5.3557e-07
60 1601 0.0466589
60 2880 0.0953512
60 3036 0.0476755
60 7942 0.0476754
61 20 0.0417851
61 29 0.00474831
61 54 0.000884259
61 70 0.339184
61 71 0.178428
61 72 0.0324599
61 77 4.38337e-06
61 84 0.0492515
61 118 0.00184649
61 143 0.131199
61 150 0.00246412
61 155 0.00446339
61 166 0.0913085
61 185 1.32849e-06
61 187 0.0223578
61 221 5.06262e-06
61 320 0.0748851
61 321 4.57809e-07
61 517 0.00365305
61 716 0.00365099
61 752 8.52668e-07
61 1086 0.00729776
61 1229 0.0065315
61 5832 0.00182553
61 8374 0.00176444
62 85 0.464844
62 86 0.385219
62 109 0.0214011
62 128 5.01386e-06
62 155 0.000125701
62 516 0.0856042
62 3650 0.042801
63 6 0.000110235
63 17 0.3592
63 76 0.00500899
63 87 0.338072
63 123 8.09121e-06
63 128 1.60752e-06
63 167 1.83244e-06
63 198 0.000222973
63 262 1.04989e-07
63 284 0.261444
63 352 0.00130638
63 460 2.62404e-07
63 604 1.26057e-06
63 626 1.07798e-07
63 635 1.09179e-06
63 797 0.00225505
63 857 2.06321e-05
63 944 1.50206e-06
63 1041 8.26782e-06
63 1403 0.0301526
63 4477 3.40573e-05
63 11267 0.00214858
64 3 0.00869424
64 82 0.0169575
64 88 0.0169441
64 128 0.00677438
64 155 0.0030488
64 175 0.288774
64 189 8.1494e-07
64 263 0.00146457
64 333 0.00670045
64 396 0.0033875
64 619 1.78859e-07
64 907 0.64386
64 1275 4.72833e-06
64 1330 1.68681e-07
64 9242 0.0033888
65 6 6.20712e-07
65 65 1.17761e-06
65 81 0.202396
65 89 0.725269
65 187 0.00567491
65 198 0.00523995
65 227 5.94858e-07
65 365 2.62608e-07
65 429 1.2896e-07
65 509 0.0396395
65 1268 0.0114227
65 1278 3.43944e-07
65 1375 2.04258e-06
65 1738 0.00566592
65 2424 0.00468612
66 6 0.260646
66 90 0.480192
66 232 0.0374895
66 289 0.0368612
66 490 0.0374095
66 491 0.0369262
66 3205 0.110476
67 22 7.3237e-05
67 91 0.502668
67 427 0.251341
67 4780 0.245918
68 35 8.46139e-06
68 37 0.23744
68 92 0.762196
68 604 0.000352522
68 739 2.27903e-06
69 52 6.36779e-06
69 93 0.488393
69 155 0.0623237
69 251 0.0698272
69 1002 0.174177
69 1552 0.0697199
69 2088 0.0697732
69 2417 0.0308933
69 3937 0.0348866
70 8 6.71899e-07
70 37 0.00126427
70 76 0.00455712
70 96 0.0356248
70 167 1.16304e-05
70 352 0.00225754
70 436 0.0284562
70 2227 0.927772
70 5487 5.59066e-05
71 76 0.00199982
71 94 0.248977
71 95 0.248978
71 96 0.125639
71 97 0.12543
71 98 0.248977
72 3 0.0591068
72 4 0.00126277
72 17 0.0813788
72 22 0.0436928
72 24 4.22482e-07
72 35 0.00579985
72 70 1.78107e-07
72 76 0.00691934
72 78 0.000473203
72 118 0.427344
72 128 0.00012565
72 131 4.77504e-05
72 158 0.105089
72 167 0.021266
72 236 0.00572363
72 278 5.58172e-06
72 289 0.120387
72 321 0.00146211
72 333 0.000237212
72 358 8.49499e-06
72 402 0.00122226
72 443 2.87265e-06
72 491 1.63349e-05
72 520 0.0933843
72 548 0.00469533
72 550 1.87505e-06
72 788 0.0177706
72 797 3.36029e-05
72 839 3.26133e-07
72 862 2.86381e-05
72 935 1.59093e-07
72 1298 3.31783e-07
72 1545 0.00038677
72 1962 8.59224e-06
72 2410 1.92261e-07
72 2722 0.000457632
72 3003 5.60023e-06
72 3360 0.000417425
72 4248 0.000382551
72 4414 1.91192e-05
72 7367 0.000832339
73 6 0.470378
73 81 0.012414
73 99 0.504799
73 1832 0.00405099
73 11616 0.00835748
74 6 0.349367
74 22 1.74163e-05
74 95 0.19358
74 96 1.50109e-07
74 109 1.6169e-06
74 123 1.0425e-06
74 131 0.00405333
74 155 1.03247e-07
74 195 1.71202e-07
74 206 9.87959e-06
74 236 7.1291e-06
74 253 0.000315883
74 273 2.68708e-05
74 281 0.43862
74 284 1.7423e-05
74 289 0.000135516
74 333 3.01838e-06
74 355 4.62166e-07
74 443 4.55704e-05
74 537 0.00349687
74 548 0.000489496
74 570 1.30216e-06
74 769 1.40798e-07
74 797 1.75628e-06
74 1019 0.00422575
74 1112 8.68335e-07
74 1545 2.40903e-07
74 4325 1.69346e-06
74 4378 0.0052248
74 4477 0.000322256
74 5173 4.19238e-07
74 6283 2.91061e-05
74 8993 3.84868e-07
75 17 0.049035
75 29 0.0262534
75 52 0.137028
75 76 6.76612e-05
75 85 0.0775021
75 100 0.026269
75 101 0.0788099
75 102 0.0261273
75 151 2.52135e-06
75 165 0.10508
75 251 0.0263022
75 289 0.0262626
75 381 0.026254
75 540 6.7341e-05
75 1044 0.0262691
75 1588 0.0262701
75 2084 0.316067
75 2088 6.02364e-05
75 6182 1.30299e-06
75 6190 4.22126e-07
75 7678 0.0262701
76 3 0.000143317
76 17 1.11593e-05
76 76 0.0145067
76 77 0.0331329
76 78 0.0323385
76 103 4.04173e-07
76 118 0.464603
76 143 0.00489407
76 158 0.166608
76 167 0.0292337
76 198 0.000270319
76 229 0.00027011
76 289 0.0493421
76 312 1.99867e-07
76 469 6.58485e-06
76 497 2.5182e-07
76 520 0.146043
76 540 0.0533917
76 624 2.58971e-06
76 788 3.2974e-07
76 1083 0.000282771
76 3003 0.000154759
76 4764 0.00476364
76 10934 1.41207e-07
77 70 0.478979
77 71 0.0591544
77 73 5.31289e-05
77 80 0.0720775
77 143 0.00579794
77 179 0.125913
77 214 3.35959e-05
77 253 8.77665e-06
77 311 0.218211
77 347 0.0278495
77 365 0.0119054
77 398 4.34599e-06
77 504 1.15516e-07
77 721 1.05171e-05
77 1523 2.02998e-07
77 1916 8.73205e-07
77 5588 1.49013e-07
77 7646 1.5269e-06
78 59 0.915201
78 183 0.000542387
78 195 0.000855245
78 204 0.000849826
78 227 0.000840942
78 534 0.0774129
78 809 6.82042e-07
78 942 7.52436e-07
78 1117 1.13012e-07
78 2799 0.0042943
78 10667 1.69244e-07
78 12720 1.20725e-06
79 24 0.00246765
79 51 4.72296e-06
79 103 0.606017
79 139 0.00969597
79 143 8.476e-06
79 155 7.98137e-06
79 164 2.50598e-07
79 174 0.00290127
79 180 0.00164554
79 196 0.0153621
79 198 0.228001
79 230 2.89581e-06
79 251 2.41244e-06
79 284 1.17534e-07
79 311 7.54221e-07
79 365 0.01332
79 587 2.95463e-07
79 604 0.0765121
79 906 7.10492e-06
79 960 0.00250205
79 1029 0.0052464
79 1146 0.0360864
79 1379 8.48462e-06
79 1412 4.5803e-07
79 2037 3.63445e-05
79 2549 4.96348e-07
79 6860 8.23412e-07
79 6906 2.60569e-06
79 12262 0.000157433
80 76 3.16293e-06
80 77 0.0163568
80 79 0.283518
80 80 0.337404
80 103 0.20136
80 105 1.47085e-06
80 124 1.50406e-06
80 146 0.0021238
80 189 1.47833e-07
80 198 0.00641936
80 227 1.04848e-07
80 263 0.00615107
80 320 1.2122e-07
80 350 1.04652e-07
80 358 0.0294927
80 381 2.7665e-06
80 468 0.0220707
80 604 0.087073
80 752 1.02636e-07
80 790 0.00221428
80 927 1.89038e-06
80 1001 2.21685e-06
80 2037 0.00276972
80 2569 0.00275703
80 2787 1.75096e-06
80 2880 1.15969e-05
80 3250 6.89616e-05
80 3907 1.16023e-05
80 5153 1.53733e-07
80 6689 1.22932e-07
80 7414 0.00018106
81 3 0.120296
81 35 0.106916
81 52 2.93772e-05
81 70 0.00133762
81 76 0.000252788
81 78 3.84428e-05
81 79 2.8725e-05
81 80 1.93662e-05
81 118 0.00377459
81 143 0.0738113
81 146 1.0447e-07
81 151 2.27427e-05
81 164 0.00115018
81 166 1.77043e-07
81 167 0.686522
81 177 1.28546e-07
81 189 1.08034e-06
81 206 0.00013288
81 393 1.92817e-05
81 404 4.69246e-06
81 619 3.4029e-07
81 780 0.000149212
81 857 0.000153573
81 999 1.05576e-07
81 1217 5.18077e-07
81 1526 0.00532434
81 1986 1.45482e-07
81 2722 3.2404e-07
81 4260 8.55925e-06
81 4548 1.16633e-07
81 4674 2.08642e-07
81 4849 1.13556e-07
81 4985 3.65278e-07
81 10981 2.77986e-06
82 10 0.00222524
82 22 5.19502e-06
82 29 1.01601e-07
82 70 0.0729279
82 72 2.59464e-07
82 85 0.234354
82 143 3.9653e-06
82 151 0.673336
82 177 1.04668e-07
82 198 2.54731e-07
82 231 1.05017e-07
82 265 7.56178e-06
82 350 2.16197e-07
82 526 1.71756e-06
82 780 9.29059e-07
82 1031 2.96455e-06
82 1268 0.0170647
82 2881 3.21222e-07
82 4414 6.48564e-05
82 6392 1.59112e-06
82 8035 1.50192e-07
82 11633 2.75519e-07
83 103 0.000917842
83 104 0.972227
83 116 0.00115275
83 177 1.38956e-07
83 284 0.00106108
83 291 5.86119e-07
83 309 0.0192974
83 358 1.5892e-05
83 691 2.10512e-06
83 917 0.00105686
83 1198 0.00104208
83 5582 0.00322582
84 105 0.0972302
84 106 0.693817
84 115 0.0917236
84 325 0.0154621
84 366 0.00265254
84 2358 0.0991141
85 3 1.17166e-05
85 52 0.110348
85 69 6.24113e-06
85 76 0.111727
85 96 0.228038
85 103 0.112997
85 107 0.228081
85 305 0.114047
85 443 0.0947445
85 3205 1.22181e-06
86 3 0.28455
86 29 0.0477016
86 30 0.0954046
86 73 0.190594
86 108 0.143238
86 109 0.0477025
86 111 0.0477025
86 114 0.0477025
86 1680 0.0477018
86 8696 0.0477025
87 42 0.399993
87 107 0.400015
87 110 0.199992
88 73 0.301567
88 108 0.436951
88 139 0.0829484
88 289 0.0910165
88 6921 0.000339899
88 11782 0.0871771
89 10 0.00204222
89 22 7.8526e-06
89 35 0.000101287
89 51 0.00111461
89 58 0.0175286
89 70 1.2363e-06
89 73 0.00172185
89 80 7.07185e-06
89 110 0.143354
89 146 0.00293926
89 147 1.3593e-07
89 155 1.41628e-05
89 167 5.01772e-07
89 180 0.0226366
89 324 1.112e-07
89 364 9.23322e-07
89 365 0.59913
89 443 0.00812751
89 504 1.9454e-07
89 506 2.81024e-06
89 507 1.08007e-07
89 619 1.47093e-06
89 630 2.84844e-05
89 652 0.173553
89 915 2.34728e-07
89 960 0.0225428
89 1104 1.26916e-07
89 1364 1.69931e-07
89 3426 1.8399e-07
89 4286 0.00514055
89 5023 1.7723e-07
89 5147 1.85316e-07
90 311 1.31538e-07
90 443 0.280742
90 2361 0.330208
90 2939 0.377226
90 4289 0.0118247
91 3 3.53903e-05
91 20 0.0834514
91 22 0.0834453
91 23 0.0834516
91 53 0.0812941
91 68 0.0834504
91 112 0.417258
91 118 0.000969616
91 297 0.0834513
91 311 0.0831931
92 3 0.111664
92 30 0.0556187
92 61 0.110408
92 73 0.0581538
92 113 0.220999
92 114 0.0610965
92 118 0.0482643
92 289 0.0575848
92 2357 0.0552118
92 4007 0.0552497
92 5173 0.0552497
92 6250 0.110499
93 19 0.0169173
93 53 0.115464
93 54 0.019646
93 77 0.0286848
93 85 1.19815e-07
93 128 8.2814e-07
93 151 5.30168e-07
93 180 0.0170157
93 187 0.0286932
93 231 0.00355528
93 263 0.053411
93 273 0.0420171
93 283 0.0665118
93 291 0.00721134
93 292 0.336852
93 321 4.85117e-07
93 352 0.054394
93 419 0.00355295
93 436 1.13986e-06
93 468 0.018299
93 605 0.00359611
93 619 0.0107208
93 691 0.0107237
93 752 0.00027297
93 1044 0.00356339
93 1703 1.75333e-07
93 1731 0.000305605
93 2161 0.101533
93 3919 0.0043112
93 5171 1.751e-06
93 5212 3.98037e-07
93 5599 0.0284124
93 6743 9.87473e-05
93 7033 9.9057e-07
93 8490 0.00279494
93 9157 0.021245
93 9972 0.000188281
93 12179 2.47314e-07
94 6 0.25941
94 10 0.00724524
94 22 3.64984e-06
94 38 0.269558
94 70 0.110391
94 71 0.0836296
94 77 0.167982
94 84 2.15785e-06
94 96 1.12797e-07
94 136 9.21723e-07
94 177 2.15866e-07
94 180 4.84401e-06
94 320 0.0723778
94 339 0.00831266
94 603 6.03997e-07
94 604 1.95642e-07
94 857 3.88993e-07
94 943 0.00454737
94 1176 0.00733648
94 1572 0.0046314
94 2505 0.00453456
94 2929 2.03699e-05
94 3482 7.96154e-07
94 3653 7.27462e-06
94 4655 1.56916e-06
94 5877 4.19624e-07
95 3 2.03439e-05
95 17 0.0260605
95 52 0.494418
95 53 4.68007e-06
95 70 1.76594e-07
95 85 1.29006e-06
95 143 0.000267833
95 146 5.38329e-05
95 180 0.000217374
95 186 1.74458e-07
95 206 0.190174
95 247 5.71484e-07
95 251 0.288555
95 283 5.58763e-07
95 358 9.68304e-05
95 365 1.58453e-06
95 468 1.46333e-07
95 537 1.3045e-07
95 604 1.53285e-07
95 752 3.04657e-06
95 769 4.07872e-07
95 1006 3.38e-07
95 1112 4.95841e-06
95 1552 1.06433e-07
95 1742 2.39209e-05
95 2666 9.40704e-06
95 3253 4.2918e-07
95 3680 5.3146e-05
95 5363 2.92685e-06
95 7971 2.85585e-05
95 11230 1.50814e-07
96 3 0.0175619
96 17 0.0280706
96 70 1.82978e-05
96 73 0.0336874
96 151 5.71632e-07
96 190 0.0174622
96 219 0.0854779
96 261 0.360045
96 283 0.00945695
96 384 0.00941081
96 442 4.88097e-07
96 524 0.122774
96 1381 0.23528
96 2136 1.40612e-07
96 2287 0.0189265
96 2606 0.0376641
96 4114 1.47474e-06
96 4302 2.15176e-05
96 5081 1.76631e-06
96 6904 5.90423e-06
96 7618 8.82604e-06
96 8618 0.00619409
96 10762 0.0179287
97 3 0.018052
97 24 0.0033078
97 28 0.745678
97 80 1.30265e-07
97 169 3.58339e-07
97 227 0.00242644
97 266 1.02722e-05
97 1142 0.214205
97 2361 0.00956757
97 2400 0.000157319
97 6510 3.08896e-07
97 8718 0.00659446
98 54 0.0040477
98 70 0.324153
98 71 0.0606448
98 72 0.00427911
98 78 0.0150796
98 143 0.242841
98 148 0.00376266
98 150 0.0487594
98 155 1.72284e-07
98 164 0.024278
98 175 0.00809764
98 180 0.00042657
98 192 0.0040487
98 212 5.46304e-07
98 214 0.00395267
98 219 0.00410229
98 291 0.0328987
98 852 0.210981
98 1941 0.00373167
98 4849 0.00391512
99 73 0.276082
99 104 0.014869
99 116 0.633828
99 125 0.0443466
99 223 0.00731106
99 376 0.000126357
99 520 0.00168419
99 2174 1.66532e-07
99 7467 0.0217532
100 73 0.00327434
100 115 0.910779
100 118 0.00354259
100 130 0.0042787
100 143 1.27088e-05
100 223 0.011192
100 289 1.18626e-06
100 358 0.00437259
100 429 0.00367324
100 752 1.68259e-06
100 902 0.02132
100 942 0.0161715
100 1041 2.54317e-07
100 1154 8.89602e-07
100 1217 1.61833e-06
100 1226 1.12011e-06
100 1296 4.01541e-05
100 1527 1.97751e-07
100 2814 7.15775e-05
100 4047 0.0163644
100 4829 4.71199e-06
100 5484 0.00489271
100 7891 1.51961e-06
101 48 2.33618e-07
101 117 0.494252
101 250 0.0293979
101 333 1.45779e-06
101 365 5.50004e-06
101 515 1.50624e-07
101 630 9.0092e-07
101 667 0.000738199
101 682 0.442128
101 907 0.00397568
101 1740 0.0286002
101 2019 0.000814235
101 2140 8.4771e-05
102 4 1.36213e-06
102 6 0.0656302
102 85 0.0216483
102 118 0.0751523
102 119 0.726056
102 374 0.0500789
102 453 0.0487289
102 570 0.00647225
102 604 0.00409872
102 6396 0.00213324
103 6 3.38097e-05
103 120 0.994821
103 1663 0.00514399
103 4518 2.8855e-07
104 6 0.408258
104 73 4.19072e-05
104 115 2.74926e-06
104 121 0.486999
104 158 0.000977763
104 180 0.000875199
104 208 3.73875e-05
104 227 0.0136687
104 289 1.00367e-06
104 311 3.48447e-06
104 468 4.02983e-06
104 588 1.16283e-06
104 866 9.02239e-07
104 1189 0.00275585
104 1199 0.0257266
104 1389 0.00805095
104 1390 0.0310425
104 1391 0.0215513
104 9925 3.80798e-07
105 11 0.580125
105 30 0.00639579
105 77 0.17981
105 102 2.42797e-06
105 103 0.0927466
105 115 0.00924424
105 118 1.27272e-05
105 143 1.89111e-06
105 147 4.21265e-05
105 155 6.14722e-05
105 185 0.0085478
105 198 0.0576813
105 266 1.08474e-07
105 324 9.84677e-06
105 377 1.09748e-07
105 459 1.72144e-06
105 604 0.0285335
105 718 0.0336999
105 844 4.54324e-07
105 1146 2.25714e-06
105 1216 0.00285792
105 1451 0.00021942
105 1825 1.85266e-07
105 2854 2.40439e-06
105 3047 3.24935e-07
106 28 0.000825033
106 29 3.04616e-05
106 42 2.24387e-07
106 121 0.86824
106 150 3.80818e-06
106 155 0.00170626
106 174 0.103189
106 183 0.00858069
106 232 3.0762e-07
106 233 0.000822469
106 251 4.29816e-05
106 263 0.000870182
106 311 2.86706e-07
106 365 2.07504e-07
106 468 5.58565e-07
106 857 1.36838e-07
106 1199 0.0082516
106 1391 0.00156847
106 2379 0.000818743
106 3569 4.31997e-05
106 5718 1.5131e-07
106 7254 0.00412516
106 9075 0.000878597
107 54 2.10188e-07
107 78 0.000512125
107 79 0.000233402
107 122 0.0730841
107 126 0.0826145
107 132 0.00465843
107 136 0.0360566
107 139 0.00139954
107 149 1.7608e-07
107 164 2.5953e-07
107 266 0.790792
107 329 1.10862e-07
107 350 8.30719e-06
107 358 0.000641706
107 587 0.000647911
107 604 4.48244e-07
107 778 1.23835e-07
107 1041 0.000447104
107 1114 1.11247e-07
107 1217 9.78704e-05
107 1382 2.0974e-07
107 1724 0.00196511
107 1857 1.05949e-07
107 1874 4.86554e-06
107 2136 1.12322e-06
107 3522 0.00420881
107 4298 0.00261296
107 8181 1.10549e-07
107 8993 9.42179e-06
108 70 5.71862e-07
108 80 0.000166895
108 122 0.218714
108 123 0.381778
108 130 0.127645
108 143 1.07096e-07
108 167 7.12588e-07
108 198 3.37227e-07
108 201 9.02403e-06
108 230 0.092987
108 358 0.0114937
108 365 8.51514e-07
108 443 7.63009e-06
108 587 0.137659
108 681 0.000140284
108 890 0.00626065
108 960 0.000117872
108 1403 4.23955e-05
108 1479 1.1518e-07
108 1671 1.44281e-07
108 2037 5.50605e-05
108 2194 0.0130456
108 2199 0.00293462
108 2393 0.00145717
108 2913 0.00409379
108 5718 0.00138808
109 81 1.06325e-07
109 109 0.0250033
109 124 0.887062
109 143 2.82076e-07
109 223 1.97061e-07
109 289 1.06386e-06
109 346 0.0784858
109 552 3.12543e-07
109 604 2.31165e-06
109 1522 0.000630844
109 2280 0.00426298
109 2707 0.00423304
109 5864 0.000316871
110 79 0.0176569
110 125 0.429603
110 155 1.48346e-06
110 177 1.00688e-06
110 220 3.46743e-07
110 284 0.158796
110 285 0.267986
110 783 0.125955
110 1653 1.90266e-07
111 54 0.0834672
111 95 0.0834722
111 103 0.166258
111 127 0.0834723
111 128 0.083471
111 188 0.0834721
111 561 0.083472
111 909 0.0824988
111 1912 0.0834723
111 3253 0.0834723
111 5350 0.0834723
112 3 9.3751e-05
112 17 4.13815e-07
112 37 1.38665e-07
112 54 3.1972e-05
112 70 0.00777683
112 85 1.62847e-05
112 109 0.0298746
112 124 0.961798
112 174 2.00832e-07
112 180 0.000406481
112 365 1.20427e-07
112 511 1.27557e-07
112 942 1.02018e-07
112 1420 1.1179e-07
112 2969 4.01248e-07
112 5156 4.43585e-07
113 6 0.419756
113 11 0.0158737
113 129 0.435281
113 131 0.0161221
113 529 0.112851
113 788 7.31477e-05
113 907 4.34207e-05
114 80 0.16428
114 103 0.263218
114 133 0.166832
114 134 0.100495
114 1044 0.0335084
114 1407 0.033498
114 2582 0.100496
114 4127 0.137672
115 70 0.0851893
115 71 0.0830204
115 76 0.166181
115 96 0.249793
115 135 0.24949
115 333 0.0831625
115 2582 0.0831635
116 24 0.125719
116 76 0.25096
116 96 0.126478
116 130 0.119686
116 136 0.251437
116 137 0.12572
117 96 0.523365
117 138 0.370629
117 139 3.51822e-05
117 142 0.0529464
117 321 0.0530247
118 29 0.0527888
118 70 0.316203
118 71 0.315474
118 140 0.211197
118 212 0.0515374
118 9099 0.0527992
119 96 0.333198
119 141 0.333403
119 142 0.333399
120 54 0.0495185
120 77 0.0278211
120 103 0.143454
120 143 0.210192
120 144 0.3223
120 145 0.0322266
120 146 0.0164827
120 291 0.0161154
120 497 0.0323415
120 520 0.133434
120 7394 0.016115
121 17 0.500677
121 22 7.62191e-05
121 76 0.0377555
121 79 0.0129958
121 118 0.0579309
121 123 4.50308e-07
121 172 0.0658537
121 180 2.28236e-05
121 195 1.20059e-07
121 251 0.0431091
121 265 2.63638e-05
121 284 0.186946
121 365 0.0209077
121 520 0.047268
121 2777 0.0152921
121 6010 0.0111386
122 19 2.42965e-05
122 24 0.0531647
122 53 0.0146035
122 79 0.00198913
122 80 0.186911
122 110 0.000260608
122 145 0.0969276
122 206 0.0299916
122 354 0.127622
122 357 0.0365176
122 578 0.0323075
122 1096 0.0642977
122 5459 0.290768
122 10626 0.0323076
122 11850 0.0323076
123 54 0.0278328
123 77 0.000184144
123 79 0.147763
123 80 0.200961
123 103 0.239594
123 150 3.5367e-05
123 177 8.00063e-05
123 208 1.11067e-07
123 227 1.06084e-06
123 263 4.65524e-07
123 283 2.79639e-07
123 292 2.62046e-07
123 311 0.00743998
123 347 0.00285456
123 358 0.0216681
123 380 2.34552e-06
123 381 0.00520752
123 604 0.323917
123 1041 0.00424257
123 1044 0.0132365
123 2429 0.00251468
123 3012 1.13241e-06
123 4332 0.00246123
123 6656 9.87264e-07
124 3 2.06646e-07
124 18 0.000368292
124 29 2.1908e-06
124 32 0.000231749
124 70 0.749728
124 71 0.0166979
124 77 0.000600895
124 143 2.82824e-07
124 151 0.000826851
124 155 0.00345259
124 164 0.000708444
124 179 0.21629
124 188 7.8964e-05
124 190 1.02831e-06
124 219 3.33e-07
124 286 2.12527e-07
124 305 2.40748e-07
124 365 0.00501573
124 412 1.98986e-06
124 585 2.26981e-07
124 587 1.20301e-06
124 960 0.00076268
124 996 0.000602562
124 1268 0.00264709
124 1456 1.67599e-07
124 1496 0.000776586
124 2717 3.24385e-06
124 3704 0.000102881
124 5462 1.41018e-07
124 11585 0.00109617
125 37 3.74762e-07
125 59 0.00779663
125 70 0.29384
125 71 0.211046
125 80 0.321721
125 139 1.11794e-07
125 143 0.00687451
125 146 0.0229243
125 179 0.0402102
125 251 1.88068e-07
125 305 0.0156148
125 311 0.0350512
125 790 0.00759429
125 1044 0.00777249
125 2136 0.00683479
125 2990 0.00755993
125 9091 0.00757612
125 12336 0.00758346
126 3 8.68491e-07
126 11 0.557014
126 19 4.06041e-07
126 24 0.28573
126 25 0.00408778
126 27 9.49246e-06
126 77 3.01442e-07
126 78 4.3769e-07
126 143 5.21518e-07
126 147 0.0367921
126 187 1.90827e-07
126 192 0.000368744
126 196 0.0122921
126 198 0.0951286
126 225 5.43903e-07
126 266 2.46314e-06
126 333 0.00408848
126 436 0.000120213
126 1114 0.00434782
126 1599 1.49704e-05
126 12558 1.43659e-07
127 17 0.165685
127 53 4.93953e-06
127 150 0.166753
127 153 0.167419
127 251 0.166683
127 412 0.166727
127 1545 0.166728
128 4 1.59461e-06
128 6 0.412775
128 95 0.180235
128 131 0.00048713
128 132 0.004138
128 154 0.287232
128 174 0.0298363
128 256 0.00429428
128 281 0.0732606
128 355 0.00373311
128 953 1.37448e-06
128 1176 0.000142182
128 3723 3.11266e-06
128 5152 0.00385964
129 8 4.8628e-06
129 73 0.0949282
129 79 0.184331
129 155 0.0929383
129 283 0.0694188
129 1199 0.0929576
129 1201 0.0929697
129 1390 0.0929581
129 1941 0.0920026
129 3700 0.0929696
129 4097 0.0015519
129 6736 0.0929691
130 22 0.146801
130 37 0.142555
130 143 0.147959
130 154 0.141517
130 156 0.142552
130 755 0.136059
130 8236 0.142556
131 17 0.110586
131 34 0.111235
131 39 0.111235
131 148 0.222465
131 149 0.111235
131 151 0.111235
131 152 0.111235
131 153 0.110774
132 22 1.21631e-05
132 37 0.0378678
132 77 0.000505416
132 85 0.147723
132 100 0.000290554
132 157 0.122422
132 165 1.11178e-07
132 174 0.0379282
132 189 0.00159313
132 257 0.624714
132 1064 0.000322791
132 1068 2.76912e-05
132 1400 0.00221167
132 1826 0.00568717
132 2931 1.35966e-07
132 4191 1.17406e-07
132 4540 1.51586e-07
132 8805 0.0186934
133 34 0.98598
133 54 0.000256043
133 85 0.000132491
133 174 0.0112961
133 177 1.56194e-06
133 183 1.1676e-05
133 206 3.16279e-06
133 227 1.25085e-05
133 469 2.0733e-07
133 1526 0.0023056
133 2466 2.9624e-07
134 29 0.136793
134 79 0.266015
134 103 0.187095
134 143 0.13643
134 159 0.136845
134 160 0.136822
135 85 0.539967
135 103 3.03218e-06
135 161 0.457732
135 2085 0.00229717
136 71 2.74966e-06
136 77 4.41188e-05
136 96 0.0465092
136 103 0.2863
136 124 0.00374554
136 139 2.67227e-07
136 146 7.4113e-05
136 150 1.62375e-06
136 160 0.0133133
136 180 0.00859006
136 184 6.16939e-07
136 189 0.00897664
136 227 1.17249e-07
136 229 0.00856404
136 273 0.0812532
136 289 6.76452e-06
136 300 0.372758
136 328 0.00502217
136 334 0.0342885
136 358 0.0131539
136 479 8.33911e-07
136 622 3.20356e-07
136 691 0.0302882
136 758 0.0666759
136 902 1.06818e-07
136 1041 0.00424345
136 1044 1.51843e-05
136 1137 3.45557e-07
136 1146 0.00763656
136 1312 0.00425785
136 1612 6.91776e-06
136 3494 0.00427
137 85 0.47029
137 163 0.47031
137 1268 0.0335768
137 1882 0.0251473
137 4988 0.000675963
138 52 1.85024e-06
138 71 0.112766
138 85 0.0410465
138 103 0.236086
138 109 0.0225652
138 162 0.0459578
138 231 0.0227396
138 233 0.0451263
138 305 0.0224663
138 379 0.045123
138 833 0.0228177
138 1268 0.0226411
138 1426 0.0224463
138 1476 0.0225583
138 1882 0.225568
138 4674 0.0224061
138 4728 0.0225614
138 4988 0.0225612
138 5118 0.0225614
139 11 5.36583e-07
139 12 0.00297149
139 38 0.000661334
139 54 0.0713359
139 72 9.30881e-06
139 77 0.00552734
139 78 0.000819981
139 85 1.17728e-06
139 103 0.236132
139 130 1.84488e-07
139 143 0.103091
139 146 8.5029e-05
139 150 0.057523
139 164 0.0667192
139 177 7.20498e-06
139 214 0.00230115
139 291 0.0965365
139 307 0.00296528
139 331 0.231169
139 404 0.00296469
139 410 2.39824e-07
139 603 7.90661e-06
139 852 0.0950738
139 985 0.00280114
139 1528 2.41734e-07
139 1744 4.15119e-06
139 2257 3.0546e-07
139 2602 0.0212333
139 2822 3.73392e-07
139 8992 4.28082e-05
139 10515 1.339e-05
140 17 6.17321e-06
140 54 2.70519e-06
140 79 0.0694789
140 84 2.18089e-06
140 88 1.46414e-07
140 103 0.232434
140 105 0.000103933
140 128 0.000271725
140 165 0.0700332
140 171 0.211449
140 180 0.00362411
140 184 1.19147e-07
140 208 3.46954e-06
140 221 0.00404066
140 227 1.38684e-06
140 229 0.00813305
140 230 0.0335305
140 275 0.0163966
140 300 0.00401341
140 325 0.0526327
140 358 0.00828868
140 393 1.18929e-07
140 530 0.0201967
140 632 0.0034771
140 767 8.13676e-06
140 861 0.0994766
140 870 0.00404392
140 974 0.0808051
140 1001 9.14574e-06
140 1146 0.00900119
140 1821 0.00402841
140 2029 0.0403972
140 2107 0.0241085
140 8811 8.03704e-07
141 168 0.893286
141 183 0.000246576
141 5302 0.106467
142 17 0.564945
142 22 0.0335416
142 37 1.87698e-06
142 52 7.35704e-06
142 76 0.0174636
142 77 0.00127634
142 78 6.69227e-06
142 79 3.26366e-07
142 80 2.94494e-07
142 84 2.01297e-07
142 118 0.0674809
142 136 1.06121e-05
142 142 1.27499e-07
142 143 0.00854272
142 167 1.44201e-06
142 172 0.163754
142 206 6.62669e-07
142 225 7.6834e-07
142 247 6.04274e-06
142 284 0.0528894
142 289 1.08448e-05
142 329 9.49254e-06
142 333 6.71658e-07
142 358 3.6332e-07
142 520 0.0776166
142 550 0.00678279
142 641 5.30239e-07
142 943 3.07895e-05
142 988 1.89017e-07
142 1278 6.6969e-07
142 1403 4.29007e-07
142 1527 5.19517e-07
142 2161 2.78605e-07
142 2875 0.00476426
142 3003 0.000824877
142 4655 2.58077e-05
143 8 0.000506178
143 10 0.00644252
143 17 0.00145402
143 27 0.000563483
143 42 0.045625
143 76 1.98379e-05
143 78 0.193389
143 126 1.76616e-06
143 131 3.37882e-07
143 155 3.6918e-07
143 183 0.00140359
143 186 1.19397e-07
143 232 0.19673
143 334 0.00013283
143 404 2.91371e-07
143 540 0.478648
143 605 6.52169e-07
143 1068 0.0599362
143 1612 1.8408e-07
143 1874 0.0151422
143 2995 1.04484e-06
143 3097 1.82836e-07
143 3644 1.32325e-07
143 4260 3.29774e-07
144 53 2.07298e-06
144 96 0.00902643
144 142 0.00934171
144 143 0.029221
144 167 0.0105193
144 170 0.859434
144 180 4.65086e-07
144 202 0.0284562
144 1185 0.00934166
144 1320 0.00955352
144 2825 0.0280245
144 4359 0.00707903
145 143 0.00119756
145 148 4.30281e-06
145 169 0.299254
145 177 0.0694436
145 185 0.624298
145 380 0.00450371
145 613 0.000302289
145 857 3.86176e-07
145 4674 0.000994148
145 12935 6.67544e-07
146 3 0.0230004
146 22 0.0042949
146 71 0.00322993
146 78 0.0148221
146 79 6.59015e-06
146 80 4.96306e-05
146 118 0.494181
146 148 1.98003e-06
146 151 0.0414136
146 155 8.57751e-07
146 158 0.0635014
146 167 0.0333311
146 186 0.00155013
146 191 1.2079e-07
146 251 1.37397e-07
146 289 0.0436654
146 348 0.000283007
146 520 0.247671
146 627 2.79407e-06
146 630 0.000103011
146 769 2.41756e-06
146 788 1.40555e-06
146 930 1.14379e-05
146 1121 0.00157156
146 1403 1.12132e-07
146 2042 1.71873e-05
146 2995 1.07094e-06
146 3097 0.00154507
146 3335 2.44606e-06
146 4414 0.0165732
146 4764 0.00611344
146 5692 0.00304078
146 10736 2.61993e-07
146 10934 9.3164e-06
147 96 0.393545
147 173 0.295732
147 174 0.0129366
147 263 0.00616933
147 383 0.00647347
147 540 0.0529893
147 570 2.22909e-07
147 943 0.174917
147 1076 0.038586
147 2108 0.0129429
147 3993 0.00570856
147 4324 2.0756e-07
148 4 6.67179e-05
148 6 0.420675
148 22 1.00116e-07
148 26 0.000254498
148 38 0.0103164
148 85 0.0123062
148 96 0.00025168
148 173 0.331779
148 174 0.00954271
148 183 1.67576e-07
148 194 0.000539625
148 227 0.0401709
148 263 1.52794e-07
148 416 0.000250313
148 417 6.25058e-07
148 943 0.172558
148 985 1.35984e-05
148 1013 8.42092e-06
148 1490 0.000513492
148 1826 5.84135e-07
148 2112 1.40746e-07
148 6800 3.84701e-06
148 7807 0.000246584
148 12481 0.000499788
149 3 0.00481258
149 4 0.00135415
149 22 0.000120383
149 35 0.113623
149 105 4.33732e-07
149 146 2.81819e-06
149 150 1.01683e-07
149 155 0.155489
149 167 0.330578
149 175 0.0308812
149 419 0.000897509
149 472 3.82681e-05
149 520 0.000227505
149 587 4.81503e-06
149 695 0.0762741
149 873 2.5073e-07
149 968 0.262907
149 1000 0.0108507
149 1526 2.65843e-07
149 1683 6.83057e-05
149 2037 6.71168e-06
149 2199 0.000161968
149 2235 0.000111834
149 3253 3.28016e-06
149 3674 0.0115567
149 4528 3.51506e-06
149 4679 1.38062e-05
149 5086 1.04782e-05
150 6 0.000115824
150 37 0.00106445
150 73 1.76801e-05
150 79 0.0617945
150 80 0.0803158
150 176 0.468847
150 227 1.17662e-06
150 324 1.29523e-06
150 329 1.20623e-05
150 828 0.151734
150 857 6.68219e-07
150 925 0.12052
150 1169 0.013794
150 2054 0.0189037
150 2357 0.0277018
150 3212 0.0551759
151 54 0.00356686
151 77 4.45378e-06
151 79 0.116133
151 143 0.0179829
151 177 0.359321
151 178 0.344659
151 190 0.00766547
151 266 7.05261e-05
151 305 0.00689212
151 374 0.0386074
151 380 0.00938981
151 410 5.5148e-06
151 504 0.00673552
151 726 0.0300296
151 781 0.0307304
151 988 4.81494e-07
151 992 0.0243544
151 1044 7.16588e-05
151 1572 2.44815e-07
151 2837 0.00377669
151 2931 1.85344e-06
151 3511 3.80147e-07
152 3 0.3586
152 27 1.52474e-05
152 32 4.34011e-06
152 51 0.000700885
152 52 0.209269
152 54 9.80261e-07
152 78 1.13199e-06
152 102 2.05864e-05
152 103 0.000429115
152 123 0.000105655
152 139 0.0241592
152 140 7.33447e-06
152 148 3.7597e-07
152 155 9.02134e-07
152 180 0.016999
152 189 0.00022474
152 198 2.19015e-06
152 206 0.000199149
152 236 0.241295
152 259 0.0164878
152 321 0.0733711
152 324 0.00768009
152 365 4.08727e-06
152 419 0.0167697
152 468 1.94284e-06
152 604 2.06621e-07
152 619 1.32897e-07
152 633 1.05254e-07
152 675 4.67422e-07
152 752 0.00588097
152 767 0.000358723
152 770 0.00074128
152 771 5.16054e-06
152 890 0.000657136
152 988 0.0123221
152 992 6.35324e-06
152 1089 1.84853e-06
152 1232 1.34856e-07
152 1418 2.45268e-05
152 1545 0.0108584
152 1612 0.00028481
152 1746 1.0858e-06
152 2079 1.48923e-07
152 2136 0.000668972
152 2722 0.000177425
152 3250 0.000197716
152 4440 1.5354e-07
152 4521 0.000187294
152 4883 0.0012723
152 4989 1.40643e-07
152 5462 1.24123e-07
152 9691 3.17304e-07
153 6 0.00101276
153 77 0.0450579
153 155 0.0450282
153 177 0.182345
153 183 0.0935454
153 186 0.180057
153 218 0.0450591
153 1044 2.31447e-05
153 1148 0.0469146
153 2442 0.0901182
153 4401 0.180236
153 7971 0.0898076
153 9252 0.000794736
154 143 8.8761e-06
154 182 0.998395
154 540 0.00159589
155 52 0.000432989
155 158 1.93155e-05
155 180 0.312024
155 186 0.297707
155 233 0.0780436
155 569 0.0780437
155 604 0.0776386
155 619 0.0780435
155 645 3.51263e-06
155 10323 0.0780439
156 95 0.184547
156 143 0.0906303
156 181 0.0922735
156 182 0.180979
156 183 0.0849855
156 184 0.0922734
156 186 0.182037
156 220 0.0922735
157 37 4.41861e-07
157 76 0.0516705
157 85 0.386796
157 100 0.00578651
157 104 0.474754
157 116 0.00149749
157 123 4.89176e-06
157 133 2.19239e-07
157 151 0.0702394
157 155 0.00178918
157 167 1.21582e-05
157 189 2.7768e-07
157 198 0.00194194
157 284 0.00470269
157 419 0.000791138
157 831 1.16532e-07
157 2990 5.37599e-06
157 3804 1.24324e-06
157 6532 1.89655e-07
157 9091 1.55418e-06
157 11113 4.089e-06
158 79 0.230684
158 128 0.0755279
158 177 0.232284
158 188 0.230761
158 219 0.0769201
158 545 0.0769202
158 1598 0.0769033
159 48 0.050414
159 70 0.297862
159 71 0.150822
159 76 0.0501392
159 78 0.0501587
159 79 0.0982871
159 100 0.050414
159 192 7.03074e-07
159 273 0.050376
159 320 0.0504141
159 617 0.100807
159 2220 0.0503044
160 6 4.19985e-06
160 19 4.54848e-05
160 96 0.156474
160 117 0.632557
160 128 0.0102389
160 189 0.128582
160 682 0.0118749
160 1740 0.0593522
160 2140 7.77527e-07
160 11162 0.000869529
161 2 7.47872e-07
161 18 0.00399751
161 29 0.00831781
161 70 0.284439
161 71 0.0122239
161 78 0.0914757
161 143 0.240391
161 149 0.0409598
161 191 0.191418
161 312 0.0710584
161 416 0.00924178
161 627 0.016406
161 1418 0.00349115
161 1610 4.30596e-05
161 2200 0.00832447
161 2569 0.0070703
161 4124 1.60547e-07
161 4359 0.00832457
161 11220 0.0028162
162 149 3.77304e-05
162 155 4.36628e-07
162 193 0.986616
162 227 0.00757757
162 251 0.00576841
163 19 0.00845911
163 29 1.91802e-05
163 53 0.188055
163 54 0.000335064
163 73 2.63663e-07
163 80 1.04591e-07
163 105 2.89832e-07
163 115 0.000203122
163 116 0.00031343
163 131 5.32891e-07
163 149 0.68534
163 167 0.000425708
163 193 0.0549935
163 201 0.0122252
163 231 0.0127393
163 312 0.0171687
163 388 0.000310031
163 412 0.0145624
163 455 3.75387e-07
163 468 1.14112e-06
163 632 9.64679e-06
163 767 0.00239915
163 815 3.07891e-07
163 989 0.00152409
163 996 6.29835e-07
163 1033 4.08657e-06
163 1233 1.331e-07
163 1496 1.21346e-07
163 1795 0.000594068
163 2148 2.52471e-07
163 3569 1.08555e-05
163 4047 0.000290226
163 4414 1.31702e-05
164 35 0.11943
164 76 4.82221e-07
164 105 2.28001e-07
164 118 0.00507493
164 149 0.000107727
164 151 0.167201
164 167 0.69516
164 183 6.48528e-05
164 201 1.0351e-06
164 220 0.00115857
164 229 0.000135958
164 329 0.000339544
164 383 3.90863e-05
164 443 3.1358e-07
164 520 0.00866273
164 570 3.06192e-07
164 815 0.000100652
164 909 3.45985e-05
164 1461 4.11404e-07
164 1526 0.00135135
164 2722 0.000570989
164 4124 1.22702e-06
164 6860 1.02037e-06
164 9524 1.5675e-07
164 9789 0.000562007
165 6 0.436557
165 19 1.61501e-06
165 38 0.466783
165 102 8.36011e-06
165 174 0.0188497
165 183 4.73631e-05
165 194 0.069315
165 227 0.0055659
165 265 1.3319e-07
165 311 0.000775997
165 429 0.000264548
165 633 3.38609e-05
165 646 5.57042e-06
165 857 1.00531e-07
165 1252 0.000926969
165 1315 6.30942e-07
165 1537 2.45312e-05
165 1724 2.71715e-07
165 1826 0.000527338
165 2280 5.42423e-07
165 2549 2.4012e-07
165 2809 3.35658e-06
165 3479 3.44724e-06
165 3644 0.000303351
166 24 0.000469425
166 73 0.0188696
166 109 2.94418e-07
166 174 0.00833977
166 195 0.602267
166 358 3.18831e-07
166 404 7.07525e-05
166 524 2.96373e-05
166 570 1.96249e-06
166 718 0.332341
166 752 3.92568e-05
166 1793 3.38026e-06
166 2231 5.48991e-07
166 3928 0.0267628
166 3943 0.000357901
166 4115 0.0103976
166 6669 4.04395e-05
166 7618 7.32042e-06
167 197 0.999986
167 2913 1.35467e-05
168 3 1.34107e-07
168 26 1.72775e-07
168 53 2.43176e-07
168 115 3.495e-07
168 148 0.0300116
168 149 1.20951e-07
168 150 0.00325577
168 167 0.00643584
168 191 0.000933763
168 196 0.854291
168 198 0.000987962
168 220 6.6149e-07
168 351 7.24564e-06
168 578 0.090834
168 604 0.0119186
168 605 5.30516e-06
168 1374 4.19061e-07
168 3045 2.15434e-05
168 3077 1.19896e-07
168 4397 1.05587e-07
168 4593 1.58505e-06
168 5363 0.000429666
168 5877 0.000863079
168 8535 3.03427e-07
169 10 5.53513e-06
169 51 2.92041e-07
169 76 0.000760809
169 80 1.43984e-07
169 139 1.16383e-07
169 200 0.514958
169 206 0.000257319
169 217 0.327501
169 220 1.01436e-06
169 276 2.20109e-06
169 311 1.71997e-07
169 358 0.00924658
169 381 2.68489e-07
169 382 6.30566e-07
169 419 1.95663e-05
169 472 0.00116513
169 488 0.0936302
169 495 3.40311e-06
169 550 1.76438e-07
169 587 0.000217654
169 718 1.29702e-07
169 767 1.96863e-07
169 902 5.47866e-07
169 909 0.0211631
169 1010 0.00111397
169 1029 3.30619e-06
169 1041 0.000720322
169 1278 2.07004e-05
169 1496 2.81526e-07
169 2788 0.000218637
169 2990 0.0281866
169 3711 0.000800578
169 5813 1.08887e-07
169 8514 1.13095e-07
170 52 0.0300243
170 71 0.0112308
170 76 3.16126e-07
170 77 0.0148773
170 103 0.0318001
170 149 0.0230723
170 177 0.139284
170 190 7.69022e-05
170 201 0.466841
170 227 0.032701
170 231 0.0554659
170 232 0.0111211
170 358 3.4384e-06
170 364 7.58941e-05
170 416 0.0222327
170 436 4.95815e-06
170 675 0.0414687
170 702 1.67136e-07
170 871 0.0341282
170 1068 0.0222179
170 1146 2.23793e-05
170 1874 0.000565312
170 2569 0.0222583
170 5325 0.0190447
170 8692 0.0110771
170 12262 0.010405
171 77 0.105093
171 79 0.101121
171 80 0.317913
171 103 0.0599284
171 263 0.0162894
171 468 0.0908471
171 718 2.68693e-07
171 721 0.24292
171 1146 5.98419e-05
171 1351 0.00815257
171 1706 3.10448e-07
171 3184 0.000890858
171 3465 0.0567843
171 10165 1.39962e-07
172 78 7.71611e-06
172 80 0.0339973
172 85 0.0731209
172 95 0.0342923
172 128 0.029838
172 150 0.0345392
172 197 0.514522
172 224 0.0343019
172 604 0.0342683
172 691 0.0343019
172 998 0.0342774
172 1388 0.0343017
172 1393 0.0343228
172 1605 0.0343019
172 2162 0.0343019
172 3399 0.00530493
173 19 1.01994e-07
173 37 0.00473624
173 183 0.000870962
173 202 1.52685e-07
173 204 0.478467
173 208 0.0442378
173 234 2.28268e-07
173 265 0.470482
173 329 0.00107821
173 460 6.77153e-07
173 672 1.52506e-07
173 700 6.93797e-05
173 765 8.8808e-07
173 809 1.01694e-07
173 930 1.88953e-07
173 992 3.3468e-07
173 1105 5.2739e-05
173 2117 1.39945e-07
173 2882 1.79278e-07
173 3157 9.5012e-07
173 4618 1.11342e-07
173 10282 1.48051e-07
174 52 0.0488197
174 73 0.101048
174 196 0.0497038
174 206 0.322596
174 207 0.0502301
174 251 0.000682868
174 311 0.0491436
174 586 0.0497029
174 2335 0.0795024
174 3208 0.0497029
174 4829 0.198867
175 204 0.309082
175 205 0.253746
175 206 0.189695
175 251 0.0634235
175 504 0.000598153
175 873 0.121569
175 2882 0.0618865
176 3 0.110923
176 198 0.22248
176 202 0.111254
176 203 0.111254
176 207 0.110327
176 209 0.111254
176 210 0.111254
176 211 0.111254
177 3 0.0613286
177 11 0.00455614
177 35 0.000208586
177 76 1.14802e-07
177 95 7.04372e-07
177 115 2.24752e-07
177 118 7.92864e-07
177 143 0.0814723
177 158 2.21806e-06
177 167 0.126263
177 204 0.012488
177 208 0.133133
177 227 5.83896e-06
177 265 0.549657
177 266 2.27592e-07
177 383 0.000303777
177 404 2.5415e-07
177 871 0.0262381
177 992 0.00208017
177 1209 6.51865e-05
177 1375 8.75489e-05
177 2935 0.00189285
177 2968 0.00019514
177 3097 1.85454e-05
177 3098 1.93046e-07
177 3352 8.94161e-07
177 4985 1.11534e-07
178 17 1.78127e-07
178 51 0.00646886
178 177 0.00742577
178 185 0.0101428
178 212 0.492894
178 227 3.93202e-07
178 258 0.140838
178 306 1.1183e-06
178 381 0.332197
178 468 1.04036e-07
178 472 4.59799e-05
178 780 0.00675978
178 1041 1.78799e-07
178 1254 4.28417e-07
178 1746 7.84729e-07
178 2136 3.34771e-07
178 4779 2.62457e-05
178 6170 0.00319747
179 10 0.0634284
179 35 1.96313e-05
179 183 0.0239103
179 213 0.574575
179 232 0.0428855
179 520 0.175474
179 3071 0.119706
180 100 0.000839699
180 149 0.0614079
180 167 0.0031845
180 190 0.0130157
180 193 2.02523e-07
180 201 0.374923
180 212 0.0105543
180 228 0.0773571
180 232 0.198487
180 289 1.36248e-05
180 312 1.59775e-05
180 334 4.98795e-05
180 348 0.0191095
180 383 0.0340833
180 416 0.0102283
180 490 0.105398
180 755 0.00340479
180 1029 0.0034062
180 1033 1.02298e-07
180 1296 1.02731e-07
180 1298 1.35751e-07
180 1530 2.07946e-05
180 1874 0.0227004
180 2569 2.27316e-06
180 3048 0.0419243
180 3098 0.0034084
180 5510 0.0164639
181 35 9.36743e-06
181 77 0.011866
181 118 2.08057e-07
181 128 1.39343e-07
181 149 0.00244467
181 152 2.90756e-06
181 155 1.33752e-07
181 167 0.949247
181 177 1.89496e-05
181 229 7.11806e-06
181 231 7.11474e-06
181 238 7.47666e-05
181 283 0.00229647
181 289 1.773e-06
181 321 1.22836e-06
181 412 0.00264346
181 520 2.03295e-05
181 540 0.0224393
181 846 0.00662166
181 1278 8.1126e-07
181 1298 0.00229423
181 2136 1.32299e-06
181 3318 1.20714e-07
182 24 1.74055e-07
182 29 7.57578e-06
182 123 0.00100224
182 146 0.0110448
182 148 0.00490031
182 180 1.69238e-07
182 214 0.629421
182 227 9.81395e-07
182 289 1.48354e-06
182 334 1.30209e-07
182 472 0.0188325
182 1121 0.00209358
182 1453 0.330619
182 1829 0.00207601
183 19 3.61484e-07
183 53 0.00926673
183 54 1.23365e-07
183 70 0.0617021
183 71 0.00463738
183 80 2.56007e-07
183 149 0.212284
183 191 8.0432e-06
183 193 0.423368
183 201 0.183355
183 227 0.00226075
183 228 1.04248e-07
183 231 0.0114734
183 263 9.97066e-05
183 283 0.0112178
183 312 0.0150329
183 373 6.76308e-06
183 383 0.0187749
183 388 0.000621904
183 412 9.38911e-06
183 416 0.00530407
183 436 2.18374e-06
183 619 8.60306e-07
183 1052 0.00469073
183 1121 0.00627929
183 2264 0.00708041
183 2982 0.0149472
183 3048 0.00292174
183 3097 0.00313496
183 4521 1.55609e-05
183 4987 0.000786684
183 5725 0.000698522
183 6078 2.44095e-06
183 6481 1.4721e-05
184 15 0.00299609
184 59 1.78864e-06
184 77 1.67651e-05
184 85 0.116713
184 100 0.010506
184 128 2.3868e-07
184 149 0.000418747
184 174 4.22498e-06
184 183 0.0330459
184 215 0.444775
184 216 0.187868
184 227 0.00838245
184 231 2.16874e-07
184 281 7.35096e-05
184 283 1.1984e-06
184 321 6.78466e-07
184 443 6.34535e-06
184 604 1.31373e-07
184 605 4.19035e-07
184 632 2.41243e-07
184 765 1.58175e-07
184 986 0.0525244
184 1068 1.25501e-07
184 1105 3.4131e-06
184 1612 1.71244e-07
184 1668 0.124347
184 3263 0.000697478
184 3929 0.00446294
184 4112 1.26896e-07
184 4202 0.00904168
184 6874 0.0041107
184 6899 1.75646e-07
184 10657 1.33219e-07
185 4 3.26979e-07
185 6 0.290664
185 17 0.0306998
185 19 7.9191e-07
185 22 0.0188867
185 131 0.121883
185 180 0.00808717
185 181 0.0490593
185 218 0.0262073
185 227 4.70153e-06
185 283 0.00440982
185 441 0.00449964
185 604 1.20893e-06
185 1384 0.00754418
185 1449 0.0188411
185 1518 0.354321
185 3865 0.0414635
185 6232 0.0234263
186 2 0.0487958
186 70 0.158436
186 184 0.346344
186 186 0.392014
186 219 0.0544107
187 70 0.300503
187 71 0.21645
187 85 8.84409e-06
187 118 0.0152008
187 143 0.098313
187 184 0.100482
187 221 0.229681
187 258 0.0127319
187 283 0.000170673
187 624 4.69261e-07
187 1450 0.0121042
187 5023 0.0143541
188 3 8.42735e-07
188 17 1.01541e-07
188 22 1.603e-06
188 35 0.30278
188 58 0.000216634
188 59 0.0222094
188 118 0.0173298
188 128 0.112675
188 155 1.00139e-05
188 158 2.36278e-06
188 167 0.483481
188 183 1.74192e-07
188 189 4.5868e-06
188 191 0.000248753
188 205 7.79194e-05
188 220 6.19843e-07
188 230 1.41748e-07
188 231 0.000153351
188 253 1.51455e-05
188 266 0.0408097
188 286 1.07811e-07
188 289 3.30008e-05
188 520 0.0143598
188 570 0.000887519
188 788 0.00253652
188 978 1.60847e-06
188 989 1.67129e-07
188 1450 2.99265e-07
188 1526 0.000847946
188 1742 4.29608e-05
188 2722 8.80302e-05
188 3210 1.46161e-07
188 3360 2.56415e-07
188 3680 0.000246124
188 4298 0.000688825
188 5462 1.00277e-07
188 10981 0.000249017
189 53 1.33916e-06
189 87 0.0105465
189 103 0.0207806
189 128 0.0227453
189 131 0.0650508
189 154 0.0542815
189 177 0.0286288
189 180 0.0098719
189 198 0.0114153
189 206 0.0814871
189 220 0.0755503
189 222 0.0105464
189 229 0.0763566
189 230 2.87316e-05
189 232 7.59671e-06
189 280 2.15078e-07
189 284 0.0215632
189 306 0.000527803
189 311 0.0650391
189 319 0.041928
189 321 0.00012551
189 406 0.0210927
189 408 0.0316359
189 531 2.32983e-06
189 534 2.48315e-07
189 901 0.0421859
189 1319 0.170117
189 1403 0.0110277
189 1870 0.116211
189 4081 3.02178e-07
189 4953 0.0105463
189 6190 2.01635e-05
189 9019 0.000198634
189 9219 0.000478676
190 3 0.0195432
190 12 1.16836e-07
190 85 1.04042e-06
190 143 0.0081988
190 162 1.71979e-07
190 164 1.0309e-07
190 167 0.142366
190 183 0.00749003
190 199 1.7268e-07
190 226 0.0215954
190 227 0.00197963
190 232 0.086354
190 234 0.542171
190 256 0.0326351
190 273 0.0343586
190 324 1.54617e-07
190 334 0.00804211
190 348 0.0227121
190 361 4.38383e-06
190 385 0.000879754
190 406 0.0454766
190 408 0.00132527
190 460 1.06751e-07
190 490 0.0174257
190 617 1.77623e-07
190 691 6.42431e-06
190 769 3.45319e-07
190 986 1.13125e-05
190 1122 1.02336e-07
190 1796 4.24108e-06
190 1874 0.000438747
190 1925 0.00169482
190 2173 3.37852e-06
190 2966 0.00139841
190 2995 9.71885e-07
190 3114 1.01326e-07
190 3311 0.00387688
190 3424 5.44938e-07
190 5692 1.05156e-07
190 6209 7.64327e-07
190 8720 2.36569e-07
190 10241 7.63018e-07
191 73 0.0288153
191 81 3.71706e-06
191 224 0.0347128
191 663 0.270455
191 857 0.00916875
191 1304 9.36949e-06
191 1319 1.44069e-07
191 1434 0.478553
191 1874 1.11497e-06
191 1897 0.178184
191 3549 5.14136e-07
191 3550 4.31894e-07
191 3678 2.13937e-07
191 5739 9.48859e-05
192 33 0.0391883
192 54 0.0783338
192 73 3.09853e-06
192 102 0.0312018
192 115 0.0791729
192 225 0.0391767
192 311 0.0782841
192 442 0.0391767
192 443 0.0783843
192 604 0.106101
192 797 0.0783515
192 805 0.039177
192 902 0.156612
192 927 0.0783534
192 1523 6.19227e-07
192 2003 0.039177
192 2107 1.03406e-06
192 5470 0.00012789
192 6890 0.0391764
193 6 3.69534e-05
193 22 0.0920341
193 37 0.0153029
193 70 2.01748e-07
193 81 1.45499e-07
193 96 2.57895e-07
193 128 0.0968077
193 130 6.56012e-06
193 154 0.760982
193 167 1.60929e-06
193 183 3.19896e-07
193 226 0.00125165
193 227 3.11062e-05
193 333 2.48529e-07
193 376 2.90105e-07
193 402 1.5626e-06
193 491 4.34756e-06
193 520 0.000162938
193 549 0.00106136
193 839 0.00335334
193 953 0.0267526
193 1114 0.0010543
193 1176 8.89552e-06
193 1362 5.7058e-05
193 1627 1.60606e-07
193 1860 1.76238e-07
193 2602 4.58117e-06
193 3157 0.00105628
193 6220 3.63984e-06
193 9824 2.00408e-05
193 11090 1.34711e-06
194 27 0.000230272
194 103 1.08752e-07
194 167 0.000163882
194 183 0.00409678
194 185 0.000334205
194 226 0.106376
194 232 0.0198609
194 234 0.311388
194 256 0.551901
194 329 2.81473e-07
194 385 0.0010749
194 397 0.000184593
194 421 0.000248753
194 567 4.58841e-06
194 622 1.35931e-05
194 833 4.33983e-06
194 909 3.94748e-05
194 1068 1.89173e-06
194 1313 5.09887e-06
194 1826 0.00389167
194 2199 0.000175005
194 4965 1.0744e-07
194 7950 3.71984e-06
195 2 0.00037381
195 8 2.78132e-07
195 29 0.00121833
195 33 0.00938208
195 35 0.139088
195 51 0.252471
195 58 8.95064e-05
195 69 0.00486403
195 78 0.160028
195 146 0.00503279
195 151 1.13935e-07
195 155 0.00121141
195 180 0.0121513
195 212 0.00111505
195 220 0.000732927
195 225 2.73238e-06
195 227 0.0021986
195 229 0.17526
195 230 2.13686e-06
195 263 8.60669e-07
195 289 2.47504e-06
195 306 0.0208881
195 311 0.031262
195 324 0.004488
195 358 0.00850151
195 365 0.00665139
195 375 0.137961
195 381 0.000350046
195 419 0.0134266
195 472 0.00454276
195 632 3.2841e-07
195 675 0.00149537
195 752 0.0002889
195 960 0.000380776
195 1029 2.24047e-07
195 1041 0.000125909
195 1301 0.000333529
195 1393 1.17231e-06
195 1427 5.89244e-07
195 1703 0.000318652
195 2199 2.44533e-05
195 2913 0.00373189
195 4779 6.25397e-07
195 8259 1.2794e-07
195 12281 1.00738e-07
196 6 0.000257073
196 12 1.01723e-07
196 15 0.00167775
196 24 0.0122038
196 26 5.25557e-07
196 29 0.00280486
196 53 0.0457131
196 54 0.0627618
196 69 1.2828e-07
196 73 4.7004e-05
196 78 0.00162163
196 103 1.11821e-07
196 115 1.68844e-07
196 130 0.00682874
196 143 1.06407e-07
196 146 4.09749e-07
196 148 5.32658e-07
196 149 0.0634264
196 151 0.000941035
196 167 0.00352695
196 177 0.00179663
196 180 4.42965e-05
196 190 1.25224e-07
196 191 0.0787648
196 193 0.000856397
196 201 0.00834667
196 227 0.0258875
196 228 0.329313
196 229 0.00140902
196 230 0.0171233
196 231 0.00227941
196 232 0.000792738
196 257 7.6599e-07
196 259 1.22259e-06
196 283 0.0760672
196 289 0.00330065
196 312 0.0895494
196 350 0.025871
196 381 2.42974e-06
196 416 0.0392247
196 520 0.00130387
196 627 2.16851e-06
196 639 0.0019679
196 788 1.23302e-07
196 815 2.76342e-07
196 935 3.50943e-07
196 960 5.06623e-07
196 1044 1.03748e-07
196 1121 3.35575e-07
196 1420 0.0326753
196 1616 1.19281e-05
196 1851 1.39822e-07
196 2004 5.48673e-05
196 2200 3.88418e-06
196 2264 0.0408875
196 2510 6.96856e-06
196 2982 0.000792168
196 3097 2.13222e-06
196 3250 3.44897e-07
196 3309 1.15004e-07
196 3515 0.00489181
196 3773 1.26522e-06
196 4359 0.011219
196 4387 3.1461e-06
196 5054 0.00372596
196 5718 2.1768e-06
196 7372 4.24673e-07
197 10 0.121538
197 51 0.000866271
197 77 3.08608e-07
197 80 1.07782e-07
197 149 3.45454e-06
197 151 0.00082242
197 183 4.80469e-06
197 201 2.98919e-07
197 227 0.0267957
197 230 0.00067588
197 231 0.847388
197 312 0.000905294
197 448 1.01657e-07
197 526 3.14763e-07
197 613 0.0008632
197 1041 9.0753e-07
197 1389 1.06005e-05
197 3070 0.000123709
198 29 0.0106635
198 53 6.95426e-06
198 78 0.0259398
198 111 0.0109548
198 183 1.21399e-05
198 190 0.0110118
198 232 0.013487
198 233 0.37243
198 329 0.00792598
198 540 0.0107792
198 999 0.0109551
198 1304 0.47106
198 3311 0.0219097
198 4950 0.0219098
198 6816 0.0109549
199 24 0.11193
199 77 2.77415e-05
199 153 0.0626924
199 235 0.439176
199 283 2.09295e-07
199 291 0.0228869
199 585 0.00185092
199 600 4.87173e-07
199 1331 0.0627086
199 1898 0.185872
199 3362 0.0125377
199 3806 0.0877695
199 4305 8.39896e-06
199 8677 0.0125386
200 6 2.70497e-05
200 167 1.60023e-06
200 236 4.97631e-07
200 237 0.904588
200 300 1.82245e-07
200 872 0.050161
200 1315 0.00127971
200 3117 0.0351058
200 4885 0.007556
200 9790 0.00127947
201 17 0.00532403
201 37 0.139722
201 190 0.0698634
201 223 0.0698607
201 224 0.0711801
201 233 0.0698492
201 236 0.136262
201 238 0.139727
201 251 0.0187605
201 1083 0.0698637
201 2736 0.0698637
201 5370 0.0698629
201 7167 0.0698607
202 53 0.133592
202 54 0.0578716
202 70 1.07338e-07
202 71 0.0172399
202 79 0.0811255
202 115 0.00617741
202 186 1.34566e-06
202 233 0.145437
202 281 0.0116897
202 283 0.0347421
202 305 0.00578681
202 311 1.46055e-05
202 645 0.136532
202 691 0.0925902
202 797 0.0173516
202 805 0.0296857
202 824 0.191231
202 1304 0.0173962
202 1867 4.81033e-05
202 2201 0.0113665
202 3352 0.00579459
202 12089 0.00432522
203 78 0.2497
203 186 3.35847e-07
203 206 0.276651
203 219 1.17299e-07
203 227 0.00371824
203 235 0.0082533
203 251 0.00830177
203 311 0.0290295
203 604 5.8466e-05
203 675 0.0330031
203 960 7.96827e-05
203 1232 0.00739078
203 1331 0.37964
203 3806 2.28836e-07
203 4305 4.63559e-05
203 5110 0.00412686
204 8 1.49906e-06
204 29 0.00813745
204 53 1.53117e-06
204 69 0.00370574
204 123 0.000260874
204 174 0.0316727
204 227 0.00410631
204 230 0.0317848
204 239 0.904048
204 306 1.03282e-07
204 448 2.62667e-06
204 506 1.2968e-06
204 752 3.78638e-07
204 920 5.72361e-06
204 946 7.84119e-06
204 2652 2.24335e-06
204 2823 1.07588e-05
204 2913 0.0121598
204 3936 1.41383e-06
204 5303 0.00407229
204 6481 1.54419e-05
205 155 0.00453798
205 174 0.00463741
205 198 1.32864e-06
205 240 0.960622
205 381 6.39734e-07
205 717 1.3132e-07
205 7734 0.0302003
206 35 0.0581422
206 44 0.0587516
206 78 0.0574759
206 167 0.000998281
206 241 0.352511
206 289 0.000238725
206 604 0.119151
206 1148 2.64494e-06
206 3613 0.0587531
206 4948 0.000209993
206 5402 0.0587591
206 5452 0.235007
207 242 0.998059
207 7697 0.00194095
208 12 0.0588854
208 71 0.117732
208 164 0.0578567
208 243 0.52997
208 263 6.97219e-06
208 329 7.67475e-06
208 1083 0.0588854
208 2332 0.117771
208 2512 0.0588848
209 8 1.65871e-05
209 244 0.111093
209 3613 0.444372
209 4598 0.111093
209 7458 0.222186
209 7459 0.000146536
209 12485 0.111092
210 8 0.00671589
210 24 1.31383e-05
210 42 2.48267e-05
210 73 2.58387e-06
210 76 0.0212846
210 81 6.68197e-07
210 95 5.22826e-07
210 131 0.0622959
210 233 0.0208034
210 245 0.728193
210 263 0.000433412
210 409 0.000724836
210 831 2.39124e-06
210 1375 0.0116954
210 2189 0.145638
210 2994 0.00209826
210 13071 7.25694e-05
211 8 0.338666
211 32 0.00022134
211 79 0.120383
211 246 0.341684
211 247 0.0214173
211 1244 0.114038
211 4470 0.0635906
212 248 0.999396
212 725 9.25005e-07
212 942 0.000602623
213 247 0.446565
213 249 0.553435
214 29 0.0214194
214 53 0.225252
214 105 0.000794822
214 201 2.03022e-05
214 252 0.309691
214 283 0.0184846
214 603 0.00202369
214 632 0.0183436
214 688 0.0549494
214 689 1.98143e-07
214 755 0.0367454
214 863 0.201152
214 992 0.0182923
214 2115 0.0928322
215 3 1.13299e-05
215 17 0.0216744
215 26 1.206e-06
215 35 0.0006196
215 76 0.00857891
215 77 1.01218e-07
215 131 2.19139e-07
215 151 0.0471348
215 167 0.0177713
215 253 0.873944
215 262 0.0139836
215 520 0.00264002
215 548 0.000928205
215 1400 0.000926306
215 2220 0.00707216
215 3049 0.00464468
215 4932 1.86889e-07
215 13001 6.82929e-05
216 6 0.478059
216 96 1.01278e-07
216 254 0.411834
216 758 2.71012e-07
216 917 0.0734784
216 2456 0.0363985
216 4618 0.000229644
217 4 0.00412153
217 6 0.00195249
217 117 0.733825
217 128 0.00194802
217 183 1.178e-06
217 189 0.000865631
217 198 5.36236e-07
217 227 0.00117561
217 250 0.0364761
217 682 0.219588
217 1740 4.35183e-05
217 2326 1.81459e-06
217 2714 1.5661e-07
218 3 0.053015
218 6 3.1897e-06
218 37 7.44977e-06
218 53 0.000487418
218 54 0.0270411
218 58 0.0270413
218 105 0.000593874
218 143 0.0550837
218 236 0.0270365
218 255 0.513722
218 264 0.0270413
218 283 0.054347
218 347 0.0540228
218 1490 0.0270405
218 1826 0.0253516
218 2158 0.0540827
218 4022 0.0540826
219 19 0.0275171
219 29 2.43593e-07
219 52 9.913e-07
219 53 0.412326
219 59 3.24989e-07
219 78 0.0699958
219 80 2.17805e-07
219 103 1.03709e-07
219 115 0.00114913
219 116 1.08041e-06
219 148 0.00419047
219 150 2.28488e-07
219 155 1.33107e-07
219 174 0.00125596
219 180 2.99144e-06
219 190 2.20991e-07
219 206 0.340023
219 220 1.57583e-06
219 251 0.0219722
219 263 0.000535387
219 289 7.7965e-07
219 306 9.39269e-06
219 311 0.075838
219 329 0.000361934
219 358 2.32692e-05
219 365 4.00566e-06
219 419 9.32946e-07
219 495 0.010022
219 632 0.0103433
219 664 1.05926e-07
219 675 0.00038622
219 755 8.14259e-05
219 809 0.00102448
219 831 0.0123736
219 852 5.75012e-07
219 890 2.42694e-07
219 1029 0.0100081
219 1182 1.21352e-05
219 1427 8.34849e-06
219 1548 2.43058e-07
219 1636 1.3645e-05
219 2150 6.3566e-07
219 2199 7.0776e-07
219 6169 0.000510106
219 6170 1.39053e-07
220 103 0.267971
220 149 0.491017
220 201 0.0981845
220 212 2.61749e-06
220 220 1.27356e-07
220 227 0.0053363
220 231 0.0506292
220 312 0.0172193
220 329 1.79706e-05
220 381 0.00549649
220 383 0.00391383
220 412 0.0158884
220 468 2.40855e-07
220 675 0.00544044
220 767 0.00894125
220 989 0.00132466
220 1104 2.70162e-05
220 1146 0.0282531
220 1393 0.000334296
220 4359 1.71414e-06
220 6860 1.25771e-07
221 51 1.72229e-05
221 78 0.000766459
221 80 0.0174163
221 103 1.81975e-07
221 139 0.225233
221 140 0.00399371
221 164 6.34079e-07
221 180 4.92873e-05
221 188 5.26037e-07
221 190 0.000688775
221 208 1.6924e-06
221 259 0.369532
221 266 0.00512669
221 271 3.26631e-07
221 283 0.000620538
221 409 1.61922e-07
221 419 0.00405667
221 537 2.75039e-07
221 578 1.46414e-07
221 604 4.40942e-05
221 850 0.109194
221 873 0.0594112
221 943 2.54296e-05
221 988 0.171166
221 1033 1.62334e-06
221 1066 4.82115e-06
221 1089 0.000238557
221 1366 0.00287388
221 1612 0.00494405
221 1746 2.65758e-05
221 1959 0.0140561
221 2079 3.25575e-05
221 2136 0.00929796
221 3070 2.35901e-06
221 3808 2.08268e-07
221 4325 0.000552348
221 6170 2.04187e-06
221 9699 0.000607514
221 12673 1.3602e-05
222 37 0.0323291
222 122 0.0322553
222 143 0.193858
222 148 1.93307e-06
222 208 0.224299
222 260 0.258629
222 745 0.0323286
222 841 0.0323277
222 871 0.129315
222 4857 0.0323286
222 4969 0.0323284
223 17 0.0109594
223 54 7.04363e-07
223 85 0.0194232
223 96 4.08171e-07
223 167 0.0010086
223 189 0.0111347
223 198 2.23542e-05
223 226 0.0104425
223 227 0.0026551
223 253 0.0263191
223 262 0.292905
223 266 2.01845e-06
223 299 0.523292
223 548 1.1374e-07
223 604 2.90899e-05
223 605 8.36798e-07
223 752 6.37141e-07
223 831 1.80582e-06
223 1216 2.98368e-07
223 1268 0.0876196
223 1334 1.29853e-07
223 1364 3.1231e-07
223 1669 0.000167045
223 2220 6.00574e-06
223 2467 0.0140081
223 8178 3.06842e-07
224 24 4.93327e-07
224 29 3.33302e-06
224 128 2.02717e-05
224 148 0.993343
224 174 1.13517e-06
224 622 0.00320315
224 1572 2.50374e-06
224 3045 0.00342517
224 3942 4.03735e-07
225 3 0.236968
225 35 0.00238264
225 54 1.46489e-06
225 73 0.237841
225 84 0.0475278
225 180 9.02566e-07
225 264 0.38025
225 1222 0.0475015
225 4728 0.0475264
226 80 0.138163
226 158 0.133233
226 166 0.144095
226 221 0.14586
226 258 0.00129831
226 263 0.145778
226 265 0.14586
226 266 0.145713
227 22 0.0142558
227 143 5.11676e-07
227 158 0.0892111
227 177 0.000119751
227 267 0.88983
227 287 4.46317e-07
227 376 0.00655959
227 653 5.71099e-06
227 863 1.45533e-05
227 4378 2.62061e-06
228 167 0.00126657
228 268 0.997481
228 329 0.00125121
228 2821 1.15842e-07
228 4521 4.5618e-07
229 269 0.914078
229 409 0.00039383
229 7697 0.0855281
230 229 1.00663e-05
230 270 0.946865
230 311 7.56533e-07
230 312 0.00970007
230 1209 0.0143207
230 1250 8.34175e-06
230 1375 0.000405405
230 8099 0.0286899
231 169 0.25
231 271 0.25
231 272 0.25
231 273 0.249999
232 17 2.68827e-05
232 35 0.000336748
232 71 3.71308e-07
232 79 0.00013772
232 103 0.262249
232 128 0.0573491
232 167 0.00637748
232 180 0.0638847
232 184 0.0204038
232 212 1.05379e-06
232 220 0.119249
232 229 0.354074
232 230 0.00778759
232 300 0.0317803
232 358 0.0207997
232 369 0.0208528
232 476 2.90927e-06
232 545 0.00205499
232 603 1.60632e-06
232 604 0.0207187
232 752 0.00391983
232 1146 0.00393322
232 2067 9.17109e-07
232 3354 1.39129e-07
232 6892 0.00402149
232 10542 3.61941e-05
233 35 2.71205e-06
233 128 0.00718944
233 230 1.33708e-07
233 274 0.335168
233 311 0.0123455
233 319 0.585683
233 716 1.00515e-07
233 718 0.00662695
233 788 0.00701987
233 1029 3.50199e-06
233 1425 0.0062886
233 1667 1.35952e-06
233 1706 0.0206072
233 4985 0.00457636
233 5264 0.00712581
233 5297 0.000228274
233 6242 0.00713349
233 7897 2.56052e-07
234 51 9.54887e-06
234 71 3.16493e-07
234 77 1.00422e-05
234 79 2.17202e-06
234 80 0.0124765
234 139 0.00249056
234 164 1.05768e-06
234 177 0.722004
234 185 2.07757e-07
234 189 9.84565e-06
234 198 0.0853705
234 201 2.93362e-05
234 273 3.36375e-07
234 374 0.130126
234 380 0.0354206
234 1233 3.76293e-05
234 1407 0.0120122
235 79 0.181207
235 164 0.0205261
235 165 0.10384
235 171 0.0205275
235 177 0.370972
235 275 0.0587706
235 339 2.10928e-05
235 393 6.07349e-05
235 530 0.0821051
235 861 0.0203872
235 930 0.0205275
235 1044 0.0201302
235 1821 0.0205275
235 2029 0.0188153
235 2107 0.041055
235 8811 0.0205273
236 48 0.00925392
236 71 1.75221e-07
236 76 0.0386856
236 115 0.0187411
236 148 0.00945312
236 275 0.0186193
236 276 0.703111
236 311 1.19185e-06
236 325 0.0183679
236 479 2.82136e-07
236 539 7.39698e-05
236 725 0.00931317
236 895 0.136823
236 1113 5.8949e-07
236 1146 0.0184736
236 1330 1.8236e-06
236 1507 0.00925423
236 2599 0.000572025
236 3779 0.00925395
237 177 0.000192913
237 190 0.0410846
237 258 0.191067
237 265 0.00063596
237 277 0.0926564
237 278 0.180112
237 305 0.0567321
237 358 0.0106661
237 409 0.000495053
237 659 0.203934
237 1233 0.0112527
237 1452 0.188827
237 1526 4.47613e-07
237 1718 0.0218921
237 2995 0.000339612
237 3098 9.24466e-05
237 12579 1.9667e-05
238 158 6.91878e-05
238 177 0.253851
238 278 3.04368e-06
238 279 0.253851
238 281 0.238375
238 282 0.253851
239 6 1.28827e-06
239 17 0.000683512
239 81 0.00448935
239 87 6.69245e-06
239 128 3.37921e-06
239 174 0.0115603
239 189 0.00679068
239 198 0.000555961
239 227 5.90953e-05
239 266 2.74869e-05
239 280 0.928203
239 334 4.88026e-07
239 443 4.49703e-05
239 570 3.30937e-07
239 831 1.35418e-05
239 1237 0.0427872
239 1268 9.74283e-05
239 1318 3.83941e-07
239 1389 8.84026e-07
239 1418 4.85987e-05
239 3572 0.0024166
239 4131 1.71251e-07
239 6778 1.85106e-07
239 8767 0.00220791
239 11162 2.29607e-07
240 122 0.000919439
240 128 3.19266e-05
240 148 0.099014
240 158 0.0588279
240 267 0.014485
240 281 0.061477
240 289 0.240496
240 290 0.254528
240 604 1.25051e-06
240 635 3.64363e-05
240 942 0.127303
240 1041 5.91361e-07
240 1091 0.141447
240 3128 9.88996e-07
240 4378 1.14442e-05
240 5553 2.78687e-06
240 8512 0.00141794
241 19 2.94151e-05
241 20 0.12015
241 24 0.00160437
241 53 0.102137
241 54 0.0355171
241 59 0.00379037
241 71 0.0138255
241 72 0.00500909
241 77 7.7094e-07
241 78 0.0207787
241 84 0.015067
241 115 0.00162765
241 128 2.14049e-06
241 150 1.11449e-07
241 154 2.50494e-07
241 166 0.189528
241 184 5.35433e-05
241 187 0.0594706
241 206 1.46351e-07
241 251 0.00172902
241 262 0.00165107
241 264 2.24926e-07
241 283 0.145421
241 289 1.11883e-06
241 291 0.0153493
241 311 8.81506e-06
241 320 0.0895039
241 381 9.47928e-05
241 384 5.29448e-06
241 436 1.8894e-07
241 439 6.84474e-06
241 604 2.3465e-05
241 605 2.4867e-07
241 664 0.00665718
241 716 0.00891225
241 751 0.00121891
241 755 0.00334478
241 1086 0.00353294
241 1122 0.0868727
241 1217 1.53073e-07
241 1769 0.0637468
241 2161 0.00165332
241 2341 5.77888e-06
241 2602 0.00166707
242 17 9.53619e-07
242 22 6.61434e-07
242 52 1.48275e-06
242 73 0.000608787
242 76 2.78298e-07
242 77 0.0247374
242 95 0.0771477
242 139 0.0185487
242 206 4.19851e-06
242 251 4.84442e-05
242 253 1.5322e-06
242 281 0.357976
242 283 0.0496488
242 329 0.0240961
242 365 0.0226338
242 671 0.000868679
242 1002 0.167348
242 1201 0.119839
242 2348 8.30869e-05
242 3086 0.0239069
242 5199 0.0239069
242 5792 0.0168535
242 5983 0.0239068
242 7450 1.80362e-05
242 9612 0.0478137
243 125 0.418532
243 180 6.48299e-07
243 196 0.00411879
243 232 0.00332167
243 284 0.0858992
243 285 0.225762
243 333 4.89755e-07
243 783 0.255723
243 788 0.00332079
243 1751 0.003321
244 79 0.0156155
244 96 0.0170855
244 103 0.194549
244 160 0.0395514
244 180 0.0298551
244 220 2.60175e-07
244 273 0.0443629
244 282 4.27568e-06
244 286 0.0144205
244 287 0.0577525
244 300 0.267749
244 328 0.0164038
244 416 0.0144126
244 604 0.029038
244 639 0.0140396
244 691 0.0715406
244 758 0.0146715
244 1137 0.144209
244 1426 0.0147384
245 6 0.00113072
245 73 0.00226774
245 78 2.98418e-07
245 81 4.36859e-07
245 84 0.00441541
245 172 1.18686e-07
245 174 0.0013131
245 187 5.30881e-07
245 199 5.76561e-07
245 311 0.020983
245 358 0.44295
245 455 2.304e-07
245 476 0.441497
245 515 0.00195536
245 790 0.0440269
245 819 0.0119294
245 841 1.34867e-06
245 857 5.43661e-07
245 972 0.00199146
245 1041 0.00138866
245 1513 9.12449e-06
245 1548 1.21694e-07
245 1704 4.52666e-06
245 3253 0.0105069
245 3499 4.56356e-05
245 3530 1.21007e-06
245 3989 4.11922e-06
245 5062 0.000944471
245 8587 0.0108503
245 8767 2.69843e-05
245 9324 8.07585e-07
245 10241 0.001752
246 29 0.055548
246 70 0.166557
246 71 0.277941
246 155 0.111087
246 288 0.388867
247 30 0.133102
247 57 0.221842
247 58 0.249043
247 146 1.85467e-06
247 232 5.17016e-07
247 289 0.150843
247 290 0.133074
247 329 0.0254922
247 342 1.93887e-06
247 348 0.008836
247 456 0.00887342
247 617 0.0688903
248 169 0.400571
248 170 0.400567
248 186 0.048965
248 266 0.0251276
248 365 0.0245976
248 520 0.0250689
248 675 0.0250306
248 3226 0.0250354
248 3262 4.01099e-06
248 4566 0.0250331
249 52 0.231072
249 70 0.0454387
249 77 0.1114
249 151 0.134259
249 167 0.0011104
249 180 0.0271111
249 259 5.51674e-07
249 292 0.190804
249 329 0.0952574
249 2161 0.109031
249 5258 0.0545154
250 73 0.00405599
250 86 0.325339
250 103 0.000884414
250 128 0.0133975
250 164 0.0513672
250 172 1.2456e-06
250 204 0.000450895
250 229 8.81082e-05
250 251 0.0712686
250 281 0.171556
250 293 0.0563675
250 325 0.0170402
250 605 0.0180015
250 634 0.0310918
250 664 0.0171231
250 2250 0.119856
250 2305 5.50649e-06
250 2508 0.0678715
250 5799 0.0171101
250 6227 0.0171231
251 35 1.48246e-05
251 95 0.0568892
251 229 0.00058778
251 293 0.430458
251 294 0.455156
251 7834 0.0568942
252 35 0.406551
252 123 0.00680788
252 220 1.29347e-07
252 273 0.0135227
252 295 0.499655
252 339 5.72776e-05
252 619 0.0185026
252 622 0.0139749
252 1044 0.0138964
252 1089 1.74254e-05
252 1335 7.31232e-06
252 1357 0.00675172
252 2533 0.0202543
252 2932 8.2972e-07
252 7790 5.69196e-07
252 13083 2.85919e-07
253 139 8.83463e-07
253 296 0.000182449
253 509 4.06611e-07
253 663 0.469547
253 1897 0.505665
253 5739 0.0246043
254 77 0.0461649
254 79 0.0452621
254 80 0.074688
254 174 0.0914765
254 227 0.0460653
254 232 0.186126
254 235 0.139605
254 266 0.0916164
254 296 0.0463014
254 297 0.0465368
254 298 0.0930693
254 490 0.0465368
254 495 9.76013e-06
254 1199 5.00059e-06
254 3806 0.0465366
255 96 0.417565
255 189 0.0150669
255 253 0.138837
255 262 0.11535
255 281 1.52453e-05
255 299 0.304873
255 333 4.5894e-07
255 468 2.8343e-07
255 484 2.33572e-06
255 599 1.11039e-07
255 604 6.16875e-07
255 857 3.39299e-07
255 1801 3.64569e-07
255 2467 0.00828498
255 6130 2.9592e-06
256 22 2.37657e-07
256 35 0.000100386
256 59 0.00524698
256 77 0.00486291
256 103 0.19575
256 128 1.56812e-07
256 155 0.00552531
256 180 1.20594e-05
256 184 0.0330743
256 186 0.41036
256 187 2.86146e-05
256 198 5.37107e-06
256 220 0.0337532
256 221 0.0110617
256 229 0.060873
256 251 0.005224
256 273 0.023176
256 289 4.59745e-07
256 291 0.00553099
256 300 0.160381
256 305 0.000187084
256 329 0.000246593
256 358 0.0161555
256 386 1.69005e-07
256 520 8.38394e-05
256 527 1.98502e-06
256 578 0.00553079
256 758 1.66523e-05
256 797 0.00553017
256 1003 1.68496e-07
256 1005 0.00592232
256 1232 0.000307056
256 1523 1.15166e-07
256 4849 0.0110509
257 73 0.0498449
257 103 7.915e-06
257 167 3.78378e-07
257 227 1.71299e-07
257 301 0.13638
257 329 0.0116324
257 658 0.415303
257 2551 1.86869e-07
257 4255 0.0297916
257 4702 0.357038
257 4811 9.36036e-07
258 302 0.498466
258 6739 0.501534
259 42 5.20182e-05
259 78 0.0462349
259 79 0.0141537
259 99 4.97676e-06
259 103 0.276867
259 143 7.17887e-05
259 180 0.116007
259 183 0.00476538
259 227 0.00646518
259 251 0.00568924
259 291 1.16425e-06
259 295 0.177494
259 303 0.172137
259 329 1.45265e-06
259 377 0.0242298
259 604 0.0332852
259 620 0.0339691
259 718 1.52138e-07
259 752 0.00468154
259 770 0.00479773
259 998 0.0166137
259 1044 1.6599e-07
259 1196 0.00962456
259 1217 0.00474274
259 2329 1.12166e-07
259 3226 0.048109
259 4058 1.64561e-06
260 103 0.499963
260 304 0.500037
261 52 0.223176
261 53 0.0144488
261 70 0.0188921
261 77 2.859e-06
261 78 0.0563131
261 103 0.0704268
261 122 0.00148269
261 126 0.00907406
261 139 0.0585172
261 140 0.0440444
261 177 6.97991e-05
261 208 2.07361e-07
261 219 2.11868e-07
261 266 0.259385
261 273 0.0120774
261 305 0.135279
261 350 0.00746749
261 358 0.00717182
261 604 0.00299999
261 619 0.0138339
261 942 8.40531e-07
261 1044 0.00818476
261 1089 0.048966
261 1622 3.13896e-06
261 2194 0.00409049
261 2535 1.09103e-06
261 3070 0.00409027
262 17 0.0571326
262 29 0.00565848
262 35 1.48066e-05
262 53 0.000123217
262 54 2.58039e-06
262 128 0.0346568
262 180 0.00554893
262 190 1.67515e-05
262 206 0.0290907
262 220 0.268501
262 227 0.00815798
262 229 0.266666
262 230 3.50752e-05
262 234 3.00189e-07
262 273 0.0100595
262 283 1.16814e-05
262 300 0.0339219
262 307 0.00224222
262 311 0.0291016
262 358 0.0435727
262 369 0.0356896
262 375 0.00227296
262 406 0.011346
262 408 0.0187509
262 409 0.0903999
262 419 0.00228121
262 439 3.77387e-06
262 545 0.00210839
262 732 0.00240825
262 942 4.05777e-05
262 1041 0.00227704
262 1044 3.24249e-06
262 1193 0.028309
262 1364 1.295e-07
262 1461 0.00449154
262 1484 3.76635e-06
262 1688 3.93078e-07
262 2173 0.00491929
262 2381 1.67065e-05
262 5542 0.000161089
262 11387 3.56453e-07
263 54 0.0294696
263 73 0.125112
263 76 8.51283e-05
263 78 1.82234e-06
263 118 2.61281e-05
263 155 0.000230131
263 227 0.0142885
263 255 0.122113
263 290 3.80137e-06
263 311 0.0022798
263 343 0.0138001
263 1240 0.0152637
263 1403 5.26732e-06
263 2173 0.0335602
263 2486 0.216127
263 2496 0.0315402
263 2941 0.121441
263 3038 9.57808e-05
263 3200 0.0762763
263 3311 0.0152637
263 4055 1.98137e-06
263 7158 0.0305275
263 8326 0.0457912
263 9239 0.0456422
263 9766 0.0610549
264 3 0.0147832
264 17 7.98927e-06
264 103 1.82231e-05
264 143 2.10747e-05
264 146 1.1887e-07
264 167 1.94741e-06
264 177 0.0001866
264 206 1.30806e-05
264 227 1.40732e-07
264 308 0.401962
264 309 0.283021
264 348 1.37386e-07
264 364 0.146818
264 374 0.0124993
264 537 0.00518028
264 567 5.48279e-05
264 593 2.43236e-06
264 599 0.071781
264 917 0.0126023
264 1199 2.91593e-07
264 1379 0.00818978
264 1458 3.52189e-06
264 1537 5.57793e-07
264 1617 0.0250799
264 1723 0.00417736
264 1829 0.00292294
264 2264 1.9849e-06
264 2834 0.00338838
264 2880 0.00417736
264 3025 0.00308162
264 3569 2.20545e-05
264 4143 2.20705e-07
264 4564 2.7606e-07
265 54 0.0315623
265 73 0.126242
265 76 0.0306958
265 103 0.060233
265 123 0.0621809
265 126 4.49203e-05
265 198 0.0314176
265 208 0.0315887
265 283 0.0315745
265 311 0.0290378
265 358 0.0315867
265 471 0.189532
265 537 0.0915874
265 567 0.0947661
265 1176 0.0315881
265 1653 0.0315963
265 3490 0.0947659
266 32 1.22831e-05
266 37 2.67858e-07
266 73 1.8058e-05
266 80 4.40393e-07
266 103 0.00344199
266 146 0.000282276
266 155 2.27222e-06
266 307 0.472007
266 308 0.0617081
266 311 0.0995105
266 321 0.0113902
266 358 1.04244e-07
266 364 0.0182139
266 377 0.0232781
266 567 2.10639e-06
266 599 0.00421487
266 604 0.0205611
266 622 0.00376405
266 765 0.149752
266 837 7.64378e-07
266 1244 3.69934e-07
266 1617 0.0040889
266 1706 0.0469413
266 1827 1.09275e-06
266 2152 0.0242059
266 2492 6.77118e-06
266 2554 0.0216209
266 2821 0.0116739
266 2885 1.31662e-06
266 3380 3.65525e-06
266 3905 0.0232079
266 4679 6.74368e-05
266 4952 1.51225e-07
266 9996 1.93361e-05
267 310 0.639835
267 358 0.0227975
267 1067 0.337368
268 48 0.852098
268 148 0.0110494
268 158 1.02391e-07
268 220 3.77253e-05
268 227 8.7986e-07
268 358 0.00521734
268 476 1.7913e-07
268 790 0.116885
268 1855 1.77889e-07
268 2200 0.00521619
268 2326 0.00523519
268 2505 1.03954e-07
268 2569 1.35808e-06
268 5738 0.00425864
269 22 8.278e-07
269 48 0.724602
269 70 1.37557e-05
269 73 0.0759429
269 174 1.47919e-06
269 189 8.68002e-06
269 265 5.20356e-06
269 455 2.98351e-05
269 513 4.15137e-07
269 790 0.154729
269 885 0.0203589
269 902 0.0162508
269 1380 2.62336e-05
269 3193 0.004078
269 4910 0.00393224
269 5738 1.6316e-05
269 9324 5.02378e-07
269 9833 2.5415e-06
270 118 0.000246459
270 311 3.98748e-07
270 313 0.98483
270 388 1.70878e-06
270 2508 0.0149216
271 79 0.248883
271 150 1.50422e-07
271 233 7.06767e-06
271 291 6.19196e-07
271 295 8.5596e-05
271 314 0.739237
271 386 0.00817415
271 512 0.00360678
271 520 3.04769e-07
271 670 7.52148e-07
271 716 2.51382e-07
271 1184 6.45285e-07
271 5542 3.73154e-06
272 6 0.439965
272 158 0.0180298
272 315 0.378341
272 633 0.0163147
272 903 0.0180201
272 925 0.0932912
272 2118 0.0180197
272 2357 0.0180157
272 2804 1.96333e-06
273 4 0.101606
273 155 0.0121798
273 167 3.21689e-06
273 199 4.69593e-06
273 229 1.87005e-07
273 254 0.761597
273 288 6.70381e-07
273 303 2.08572e-07
273 2456 0.124015
273 2804 0.000592626
273 4584 1.13304e-07
274 17 0.113055
274 146 0.111005
274 234 0.000787193
274 316 0.0001051
274 321 8.83324e-06
274 329 0.110196
274 1399 0.11101
274 1982 0.111009
274 3185 0.109867
274 4436 0.110947
274 5509 0.22201
275 6 0.196731
275 136 0.00467175
275 317 0.0485123
275 341 0.739473
275 725 2.91147e-06
275 788 7.0415e-07
275 866 7.83494e-07
275 2029 1.68106e-06
275 5841 0.00531931
275 8897 0.00528628
276 76 0.243168
276 77 0.0479794
276 96 0.0996612
276 126 0.121767
276 136 0.121767
276 266 0.000474826
276 316 0.121647
276 318 0.121767
276 7684 0.121767
277 3 0.000713065
277 17 0.0663175
277 123 0.00584587
277 206 0.000346506
277 230 1.88786e-07
277 251 1.00232e-07
277 274 0.472612
277 311 1.71652e-06
277 319 0.298352
277 381 2.2852e-05
277 520 0.0998166
277 604 0.00654279
277 1548 1.9767e-07
277 4141 0.0494281
277 4829 1.4766e-07
278 20 0.0463601
278 70 0.364843
278 71 0.277009
278 77 4.16892e-06
278 84 0.0132601
278 143 2.9264e-06
278 166 0.00725159
278 187 0.0259659
278 234 0.000213202
278 320 0.265089
278 1612 1.17422e-06
279 3 0.240691
279 29 0.0345612
279 73 0.275397
279 130 0.0345988
279 166 0.0348964
279 264 0.311389
279 321 0.0340022
279 332 0.0344645
280 146 0.0137658
280 155 0.025014
280 174 0.0269426
280 180 0.0236195
280 323 0.838768
280 770 5.03801e-06
280 1029 1.71967e-05
280 2127 0.0254149
280 2875 0.0254145
280 8811 0.0207624
280 9720 0.000276098
281 167 0.0476649
281 206 0.000291961
281 322 0.237929
281 333 4.99233e-07
281 604 0.0944362
281 1130 9.01123e-06
281 1657 0.047544
281 1874 3.42346e-05
281 2162 0.0475858
281 5755 0.523444
281 5756 0.00106043
282 29 7.50429e-07
282 53 0.0897801
282 71 0.00374961
282 79 2.0407e-07
282 94 6.00728e-07
282 128 0.0187895
282 146 1.38513e-07
282 167 3.67749e-06
282 186 0.00769644
282 220 0.0723617
282 229 0.110734
282 263 0.0038242
282 278 0.000372866
282 287 0.0190827
282 300 0.191242
282 311 1.63928e-05
282 324 0.000361165
282 325 0.404975
282 369 0.00493333
282 407 0.0038221
282 902 2.22186e-05
282 1703 3.81781e-07
282 2276 0.0498562
282 3882 1.09394e-07
282 8263 0.00336544
282 9741 0.0150095
283 4 0.000118781
283 6 0.481188
283 95 0.139671
283 105 6.87298e-07
283 126 1.09916e-05
283 131 1.90546e-05
283 158 1.61184e-05
283 198 1.01658e-07
283 233 1.92359e-06
283 281 0.360583
283 537 0.00162332
283 604 0.00314826
283 675 2.05293e-07
283 718 2.30803e-07
283 797 0.00495246
283 902 2.10864e-06
283 1019 0.00666013
283 1029 5.89036e-05
283 3372 2.47236e-06
283 4378 8.43745e-05
283 5580 0.00185226
283 6283 4.86643e-06
284 81 0.0237743
284 119 0.0393146
284 167 2.23639e-06
284 171 0.00787113
284 250 8.98213e-06
284 326 0.330286
284 368 0.299462
284 391 0.00787776
284 392 0.00787086
284 649 0.0157256
284 653 0.000514894
284 2093 0.172929
284 3389 0.0943548
284 9996 7.28587e-06
285 37 0.019677
285 53 0.184757
285 71 0.00114292
285 103 1.04902e-06
285 128 0.0147992
285 160 0.00266552
285 180 2.08455e-07
285 184 7.55595e-06
285 229 0.0129186
285 273 0.0475241
285 283 0.00271563
285 287 0.00818946
285 289 0.00171863
285 300 0.497913
285 328 0.00308667
285 329 8.27519e-07
285 333 5.33422e-07
285 334 0.0192312
285 358 0.00546877
285 365 0.00266414
285 381 0.00275182
285 472 0.0139007
285 599 3.80714e-07
285 691 0.0191521
285 758 0.093389
285 1137 0.0463188
285 2549 4.75154e-06
286 22 1.08472e-07
286 33 0.00454688
286 51 1.49075e-06
286 53 4.41515e-07
286 85 1.56788e-06
286 122 1.06785e-07
286 151 0.0480817
286 180 0.0565938
286 190 0.0101733
286 328 0.110131
286 409 2.79857e-07
286 443 0.605243
286 473 1.92722e-07
286 482 2.26445e-05
286 506 0.0576132
286 604 4.7633e-05
286 851 0.0384466
286 857 2.80891e-06
286 965 6.41316e-05
286 1472 0.027164
286 1490 1.45085e-07
286 1825 0.00410679
286 3113 0.00147628
286 3583 0.0311525
286 4284 0.00316884
286 4302 9.67296e-07
286 4325 0.00195534
286 7410 2.06388e-06
286 8757 1.17211e-06
287 6 9.8015e-06
287 73 0.294969
287 104 0.0106426
287 131 0.01132
287 167 9.9964e-07
287 180 0.00840973
287 308 5.34824e-06
287 309 0.437874
287 327 0.137996
287 358 0.0106464
287 593 0.00985735
287 599 0.0494724
287 633 7.41716e-06
287 691 6.62125e-07
287 917 0.00971128
287 1041 6.66592e-06
287 1689 0.00104457
287 1724 2.91274e-07
287 2217 0.00983604
287 4469 9.98321e-07
287 9141 0.0081891
288 54 0.134805
288 158 0.0471136
288 180 0.141785
288 208 0.441475
288 633 2.80337e-06
288 2437 0.187963
288 9374 0.0467962
288 9378 5.93935e-05
289 6 0.417855
289 22 2.57572e-05
289 77 1.63686e-07
289 81 0.0456294
289 95 2.08576e-07
289 148 1.92748e-06
289 198 1.03407e-06
289 223 3.18346e-06
289 233 2.97117e-06
289 281 0.431248
289 284 0.00505875
289 311 2.48707e-06
289 409 2.63794e-07
289 416 1.11127e-07
289 604 0.000148206
289 639 7.61689e-05
289 847 1.40697e-07
289 1019 1.27355e-07
289 1033 0.00295994
289 1084 0.0937623
289 1146 0.00274411
289 1738 0.000477774
289 6458 4.80188e-07
289 8269 1.67636e-06
290 10 4.14924e-07
290 37 0.000664093
290 70 0.00379799
290 85 0.0762118
290 100 0.00682625
290 143 2.20361e-07
290 155 2.36305e-07
290 174 0.0363559
290 188 0.00300035
290 190 4.92382e-07
290 206 5.82819e-06
290 223 0.0390458
290 227 5.26848e-06
290 272 0.449301
290 942 0.00157075
290 1315 0.360586
290 2067 1.80211e-07
290 2233 6.71555e-05
290 2682 1.24457e-05
290 3581 2.19999e-07
290 4332 0.0142218
290 5080 0.00133626
290 8941 0.00277138
290 9349 0.00420823
290 9669 1.09877e-07
290 10452 9.27481e-06
291 3 0.0214607
291 52 0.191239
291 54 0.0129527
291 77 0.038133
291 131 0.0125273
291 165 0.129658
291 171 0.181522
291 251 0.220698
291 275 0.0518633
291 289 0.0122766
291 291 2.45732e-07
291 365 0.0257554
291 913 0.0129653
291 974 0.0777963
291 1126 9.74108e-07
291 1476 0.000786139
291 2168 0.0103646
292 6 0.000279733
292 164 0.015525
292 332 0.419178
292 333 5.14375e-06
292 509 0.0155237
292 559 0.348594
292 617 2.24215e-06
292 2821 0.0147924
292 4047 0.1861
293 6 1.67681e-07
293 17 0.000469438
293 19 4.55891e-07
293 22 0.0721014
293 26 6.27247e-06
293 73 4.11823e-06
293 227 0.0139902
293 289 1.05457e-06
293 297 0.00187386
293 300 0.000206786
293 333 0.0101689
293 334 0.846812
293 358 0.00236135
293 365 0.0104184
293 473 2.92669e-07
293 570 4.92132e-06
293 667 1.26517e-07
293 835 3.50086e-07
293 852 1.06348e-06
293 1029 0.0042831
293 1426 0.0277354
293 1826 0.00255327
293 3003 0.00054655
293 3882 0.00430768
293 8906 9.72449e-07
293 11230 0.00215159
294 4 0.231923
294 29 0.0220058
294 155 0.065515
294 281 0.0228128
294 333 0.0201578
294 335 0.374208
294 340 0.044721
294 570 0.0429086
294 1241 0.110061
294 2232 0.0439825
294 3613 2.577e-05
294 4665 0.021667
294 13046 1.08393e-05
295 29 0.109624
295 336 0.440893
295 468 0.110212
295 1233 0.00944477
295 4252 0.109382
295 4536 0.11023
295 7903 0.110214
296 337 0.333334
296 338 0.333334
296 339 0.333332
297 17 8.10107e-05
297 52 7.18112e-06
297 73 0.291267
297 80 0.0141717
297 174 0.0128884
297 195 0.467309
297 206 0.060609
297 227 0.000450307
297 263 0.013692
297 448 0.037819
297 567 0.000575086
297 711 0.0680448
297 3302 0.000103381
297 7544 0.00567061
297 12111 0.0273107
298 22 0.399952
298 330 0.400036
298 340 0.200012
299 15 8.38522e-07
299 59 0.494126
299 72 4.7255e-07
299 169 6.56993e-07
299 212 1.16771e-05
299 234 6.81058e-07
299 256 0.505684
299 534 1.87453e-05
299 1826 0.000156963
300 24 0.0101523
300 53 0.0809324
300 54 0.0279345
300 79 0.0552761
300 177 0.0019295
300 180 0.0150322
300 283 0.111927
300 284 1.76933e-05
300 306 8.2683e-07
300 342 0.294476
300 622 0.0140203
300 752 0.0125866
300 767 5.98663e-07
300 892 0.0290094
300 897 0.0140215
300 1145 0.0708817
300 1300 0.0030614
300 2037 0.000846018
300 2136 0.000521025
300 2241 0.20232
300 2887 2.27298e-06
300 3294 0.0270078
300 4331 5.85085e-07
300 5200 0.0280432
301 3 6.04607e-07
301 6 0.339332
301 12 0.495438
301 150 0.0229381
301 155 1.62609e-05
301 156 0.0672433
301 167 0.00340766
301 174 0.0419271
301 524 0.000256863
301 607 6.35694e-06
301 637 0.00419917
301 1356 1.99492e-05
301 1534 0.00420025
301 2112 0.00419863
301 2765 0.00419949
301 3842 0.00840071
301 4158 1.47676e-05
301 4492 8.20765e-07
301 4798 0.00420026
302 52 1.05979e-05
302 53 0.0841457
302 54 0.00447226
302 77 0.000152899
302 78 0.0838487
302 80 2.6744e-05
302 105 4.44839e-06
302 121 1.7347e-07
302 130 0.00443434
302 167 2.37597e-05
302 174 7.323e-07
302 178 0.151065
302 180 0.039203
302 195 0.00528676
302 227 0.00500813
302 259 0.00888115
302 263 0.00521712
302 266 1.05812e-07
302 329 0.0046956
302 343 0.222839
302 355 0.00441115
302 381 0.00444664
302 468 4.23909e-07
302 504 1.45425e-05
302 606 0.0481107
302 664 0.0137014
302 752 1.67298e-06
302 781 1.41531e-07
302 1278 0.00429734
302 1420 1.42549e-07
302 1473 0.23145
302 1934 0.0393363
302 3417 0.0083741
302 3531 0.00872161
302 4381 0.00436952
302 5763 0.00436917
302 5800 0.00873978
302 6101 0.000339338
303 58 0.136645
303 76 0.0693095
303 81 0.0704137
303 150 0.0683865
303 206 0.0654
303 232 0.179427
303 342 0.0683728
303 348 0.000100924
303 758 0.0683849
303 789 0.0684003
303 2127 0.0683865
303 3969 0.0683865
303 7363 0.0683864
304 19 0.00461089
304 52 9.18096e-07
304 76 2.17748e-07
304 312 0.0107912
304 340 0.85687
304 416 0.0107109
304 664 0.00519308
304 1068 1.62851e-06
304 1121 0.0687609
304 1241 0.0321338
304 2200 0.00535546
304 5849 0.000215108
304 10840 0.00535547
305 3 0.0346265
305 24 0.0355653
305 35 4.05278e-07
305 53 0.0691234
305 118 1.25006e-06
305 143 0.0355952
305 167 9.17307e-06
305 283 0.0356109
305 305 0.0355697
305 308 0.39246
305 567 0.0713984
305 604 0.062825
305 852 0.0355697
305 992 0.0355697
305 1176 0.0330751
305 1424 0.0355693
305 1832 0.0355697
305 2041 0.0355683
305 4564 0.0162932
306 18 1.67794e-06
306 53 2.20462e-07
306 78 4.58388e-07
306 131 0.00202148
306 148 0.955306
306 149 4.88352e-07
306 151 0.00139798
306 206 0.0093777
306 232 5.59175e-07
306 291 0.00121182
306 311 3.52557e-07
306 314 5.61089e-07
306 495 0.0267338
306 603 1.99667e-06
306 653 9.23747e-07
306 691 2.73195e-05
306 1029 1.07427e-06
306 1033 7.74751e-05
306 3435 0.00258633
306 3773 0.00125163
307 22 0.00175693
307 29 2.27184e-06
307 38 1.47703e-06
307 52 5.89359e-05
307 70 3.07786e-05
307 77 1.60355e-07
307 78 5.7867e-05
307 115 0.0143263
307 121 1.65409e-07
307 148 0.406981
307 149 2.4155e-07
307 178 1.0173e-07
307 190 1.19567e-06
307 195 0.0601792
307 196 0.0209095
307 206 0.276588
307 223 0.0273621
307 232 0.000766159
307 251 3.63333e-07
307 276 0.00615128
307 311 7.3627e-07
307 329 3.1558e-05
307 358 5.26443e-07
307 417 7.59883e-07
307 495 0.17443
307 542 4.97173e-07
307 767 1.01096e-05
307 780 0.00173609
307 797 3.83616e-07
307 906 2.60427e-05
307 942 0.00372091
307 985 1.77237e-07
307 1029 1.78738e-07
307 1245 0.00154222
307 1523 0.00174733
307 1741 3.83418e-06
307 2995 1.00575e-07
307 3779 9.42458e-06
307 4339 2.2091e-05
307 5363 0.00154237
308 103 0.00708167
308 311 0.00216162
308 345 0.93326
308 508 0.00574292
308 604 0.001845
308 1233 3.37334e-06
308 2052 0.0142481
308 2196 1.71239e-05
308 2505 1.74218e-05
308 4120 7.3567e-07
308 5147 1.31189e-06
308 5468 0.0356203
309 30 0.00239931
309 53 0.0354273
309 76 2.62145e-06
309 115 0.00332829
309 155 0.00151327
309 177 2.45592e-07
309 180 0.0448077
309 311 0.00363336
309 346 0.465481
309 429 0.00100147
309 430 0.233664
309 1084 2.48779e-06
309 1097 8.66645e-05
309 1388 0.17521
309 1389 0.0315629
309 3104 0.00165136
309 4880 0.000226777
310 24 0.0475266
310 167 0.00103343
310 196 0.0475905
310 232 0.189165
310 273 0.047521
310 283 0.00117051
310 329 0.0474813
310 333 0.0475267
310 344 0.0475267
310 347 0.0475262
310 348 0.0483967
310 349 0.0475267
310 350 0.0473581
310 890 0.0474952
310 1104 0.0475236
310 1420 0.0950534
310 4047 0.0475248
310 5747 0.0950534
311 19 0.025049
311 29 1.75695e-07
311 53 0.187469
311 54 0.000169402
311 95 0.0302002
311 121 0.0031617
311 180 0.0115652
311 187 0.0468738
311 191 5.29937e-07
311 212 3.38161e-05
311 219 0.00308297
311 227 0.00613078
311 263 0.0221862
311 273 3.445e-05
311 292 0.574697
311 352 0.0567228
311 472 1.5161e-06
311 605 0.000110062
311 691 0.000326399
311 890 1.29637e-07
311 1312 1.40567e-05
311 1344 5.287e-07
311 1627 0.011662
311 2161 0.01409
311 3919 0.00641527
311 4397 1.06569e-07
311 4498 3.17299e-06
312 149 0.00120855
312 351 0.966727
312 604 0.00110374
312 947 0.0276224
312 1342 0.00333827
313 53 0.235431
313 78 0.000362154
313 79 1.06964e-05
313 115 0.06476
313 180 0.0480536
313 229 0.0372965
313 252 0.0161636
